{"total_loss": 0.00554191600298509, "_timestamp": 1717856386.4940786, "rgb_loss": 0.00554191600298509, "_runtime": 616.3346927165985, "_step": 11300, "Rendered Images": {"_type": "images/separated", "width": 256, "height": 256, "format": "png", "count": 5, "filenames": ["media/images/Rendered Images_8000_a8a61cb2fb5de5bf7cff.png", "media/images/Rendered Images_8000_7b973bebbaadcd123772.png", "media/images/Rendered Images_8000_c23ae8706b7ca27002a5.png", "media/images/Rendered Images_8000_3070e99c609fcef0ff02.png", "media/images/Rendered Images_8000_11e24c29be6d7f8924e6.png"]}, "Ground-truth Images": {"_type": "images/separated", "width": 256, "height": 256, "format": "png", "count": 5, "filenames": ["media/images/Ground-truth Images_8008_e66caac5921126c9a542.png", "media/images/Ground-truth Images_8008_d46094b22d91d1bd7d47.png", "media/images/Ground-truth Images_8008_c1ae0e380e32a07032f8.png", "media/images/Ground-truth Images_8008_b60b263c939c62f4bc58.png", "media/images/Ground-truth Images_8008_ab3d98782f1147e7dca7.png"]}, "PSNR": 29.161096767779412, "Epoch": 1000, "gradients/graph_1lout.bias": {"_type": "histogram", "values": [1.0, 0.0, 0.0, 0.0, 0.0, 0.0, 0.0, 0.0, 0.0, 0.0, 0.0, 0.0, 0.0, 0.0, 0.0, 0.0, 0.0, 0.0, 0.0, 0.0, 0.0, 0.0, 0.0, 0.0, 0.0, 0.0, 0.0, 0.0, 0.0, 0.0, 0.0, 0.0, 0.0, 0.0, 0.0, 0.0, 0.0, 0.0, 0.0, 0.0, 0.0, 0.0, 0.0, 0.0, 1.0, 0.0, 0.0, 0.0, 0.0, 0.0, 1.0, 0.0, 0.0, 0.0, 0.0, 0.0, 0.0, 0.0, 0.0, 0.0, 0.0, 0.0, 0.0, 1.0], "bins": [4.561101377476007e-05, 6.442768790293485e-05, 8.324436203110963e-05, 0.00010206103615928441, 0.0001208777102874592, 0.00013969438441563398, 0.00015851105854380876, 0.00017732773267198354, 0.00019614440680015832, 0.0002149610809283331, 0.00023377775505650789, 0.00025259441463276744, 0.0002714110887609422, 0.000290227762889117, 0.0003090444370172918, 0.00032786111114546657, 0.00034667778527364135, 0.00036549445940181613, 0.0003843111335299909, 0.0004031278076581657, 0.0004219444817863405, 0.00044076115591451526, 0.00045957783004269004, 0.0004783945041708648, 0.0004972111782990396, 0.0005160278524272144, 0.0005348445265553892, 0.000553661200683564, 0.0005724778748117387, 0.0005912945489399135, 0.0006101112230680883, 0.0006289278971962631, 0.0006477446295320988, 0.0006665613036602736, 0.0006853779777884483, 0.0007041946519166231, 0.0007230113260447979, 0.0007418280001729727, 0.0007606446743011475, 0.0007794613484293222, 0.000798278022557497, 0.0008170946966856718, 0.0008359113708138466, 0.0008547280449420214, 0.0008735447190701962, 0.0008923613931983709, 0.0009111780673265457, 0.0009299947414547205, 0.0009488114155828953, 0.0009676280897110701, 0.0009864447638392448, 0.0010052614379674196, 0.0010240781120955944, 0.0010428947862237692, 0.001061711460351944, 0.0010805281344801188, 0.0010993448086082935, 0.0011181614827364683, 0.001136978156864643, 0.0011557948309928179, 0.0011746115051209927, 0.0011934281792491674, 0.0012122448533773422, 0.001231061527505517, 0.0012498782016336918]}, "gradients/graph_1lout.weight": {"_type": "histogram", "values": [22.0, 150.0, 174.0, 18.0, 8.0, 1.0, 1.0, 4.0, 5.0, 4.0, 5.0, 7.0, 3.0, 12.0, 7.0, 7.0, 4.0, 5.0, 8.0, 6.0, 4.0, 4.0, 5.0, 2.0, 2.0, 4.0, 3.0, 1.0, 5.0, 2.0, 3.0, 0.0, 1.0, 3.0, 0.0, 5.0, 2.0, 2.0, 1.0, 1.0, 1.0, 2.0, 0.0, 0.0, 0.0, 0.0, 2.0, 1.0, 0.0, 2.0, 1.0, 0.0, 0.0, 1.0, 0.0, 0.0, 0.0, 0.0, 0.0, 0.0, 0.0, 0.0, 0.0, 1.0], "bins": [-0.0001793769479263574, -8.500980766257271e-05, 9.357332601211965e-06, 0.00010372447286499664, 0.00019809161312878132, 0.0002924587461166084, 0.00038682587910443544, 0.00048119304119609296, 0.0005755601450800896, 0.0006699273362755775, 0.0007642944692634046, 0.0008586616022512317, 0.0009530287352390587, 0.0010473958682268858, 0.0011417630594223738, 0.00123613013420254, 0.001330497325398028, 0.001424864400178194, 0.001519231591373682, 0.0016135986661538482, 0.0017079658573493361, 0.0018023330485448241, 0.0018967001233249903, 0.0019910673145204782, 0.0020854345057159662, 0.0021798014640808105, 0.0022741686552762985, 0.0023685358464717865, 0.0024629030376672745, 0.0025572702288627625, 0.0026516371872276068, 0.0027460043784230947, 0.0028403715696185827, 0.0029347387608140707, 0.0030291059520095587, 0.003123472910374403, 0.003217840101569891, 0.003312207292765379, 0.003406574483960867, 0.0035009414423257113, 0.0035953086335211992, 0.003689675824716687, 0.003784043015912175, 0.003878410207107663, 0.0039727771654725075, 0.0040671443566679955, 0.004161511547863483, 0.004255878739058971, 0.004350245930254459, 0.004444613121449947, 0.004538980312645435, 0.004633347038179636, 0.004727714229375124, 0.004822081420570612, 0.0049164486117661, 0.005010815802961588, 0.005105182994157076, 0.005199550185352564, 0.005293917376548052, 0.00538828456774354, 0.0054826512932777405, 0.0055770184844732285, 0.005671385675668716, 0.005765752866864204, 0.005860120058059692]}, "gradients/graph_1layers.3.bias": {"_type": "histogram", "values": [1.0, 0.0, 0.0, 0.0, 1.0, 1.0, 1.0, 0.0, 0.0, 0.0, 2.0, 1.0, 0.0, 0.0, 2.0, 1.0, 1.0, 2.0, 0.0, 1.0, 0.0, 2.0, 0.0, 2.0, 1.0, 3.0, 3.0, 10.0, 28.0, 15.0, 10.0, 7.0, 4.0, 3.0, 4.0, 4.0, 2.0, 1.0, 0.0, 1.0, 1.0, 1.0, 1.0, 2.0, 0.0, 1.0, 1.0, 1.0, 0.0, 2.0, 0.0, 1.0, 0.0, 1.0, 0.0, 0.0, 0.0, 0.0, 1.0, 0.0, 0.0, 0.0, 0.0, 1.0], "bins": [-0.00023018628417048603, -0.00022219971287995577, -0.0002142131415894255, -0.00020622658485081047, -0.0001982400135602802, -0.00019025344226974994, -0.00018226687097921968, -0.0001742802996886894, -0.00016629372839815915, -0.0001583071716595441, -0.00015032060036901385, -0.00014233402907848358, -0.00013434745778795332, -0.00012636088649742305, -0.0001183743224828504, -0.00011038775846827775, -0.00010240118717774749, -9.441461588721722e-05, -8.642805187264457e-05, -7.844148058211431e-05, -7.045491656754166e-05, -6.24683452770114e-05, -5.448177398648113e-05, -4.649520633392967e-05, -3.8508638681378216e-05, -3.052207102882676e-05, -2.2535501557285897e-05, -1.4548932995239738e-05, -6.562364433193579e-06, 1.4242041288525797e-06, 9.410772690898739e-06, 1.73973421624396e-05, 2.5383924366906285e-05, 3.337049201945774e-05, 4.13570596720092e-05, 4.9343630962539464e-05, 5.733019861509092e-05, 6.531676626764238e-05, 7.330333755817264e-05, 8.12899015727453e-05, 8.927647286327556e-05, 9.726304415380582e-05, 0.00010524960816837847, 0.00011323617945890874, 0.000121222750749439, 0.00012920932203996927, 0.0001371958787785843, 0.00014518245006911457, 0.00015316902135964483, 0.0001611555926501751, 0.00016914216394070536, 0.0001771287206793204, 0.00018511529196985066, 0.00019310186326038092, 0.0002010884345509112, 0.00020907500584144145, 0.00021706157713197172, 0.00022504813387058675, 0.00023303470516111702, 0.00024102127645164728, 0.0002490078331902623, 0.0002569944190327078, 0.00026498097577132285, 0.00027296756161376834, 0.0002809541183523834]}, "gradients/graph_1layers.3.weight": {"_type": "histogram", "values": [1.0, 0.0, 0.0, 2.0, 1.0, 1.0, 1.0, 0.0, 1.0, 1.0, 1.0, 3.0, 0.0, 1.0, 5.0, 3.0, 6.0, 11.0, 7.0, 17.0, 23.0, 29.0, 58.0, 91.0, 123.0, 154.0, 255.0, 376.0, 945.0, 9688.0, 2539.0, 777.0, 394.0, 316.0, 200.0, 125.0, 83.0, 44.0, 24.0, 21.0, 14.0, 9.0, 7.0, 7.0, 2.0, 3.0, 3.0, 2.0, 2.0, 1.0, 1.0, 1.0, 0.0, 2.0, 0.0, 0.0, 0.0, 0.0, 2.0, 0.0, 0.0, 0.0, 0.0, 1.0], "bins": [-0.0003244438848923892, -0.0003134963335469365, -0.00030254878220148385, -0.0002916012308560312, -0.00028065365040674806, -0.0002697060990612954, -0.0002587585477158427, -0.00024781099637039006, -0.0002368634450249374, -0.00022591589367948472, -0.00021496834233403206, -0.00020402077643666416, -0.0001930732250912115, -0.00018212567374575883, -0.00017117810784839094, -0.00016023055650293827, -0.0001492830051574856, -0.00013833545381203294, -0.00012738790246658027, -0.00011644033656921238, -0.00010549278522375971, -9.454523387830704e-05, -8.359767525689676e-05, -7.265011663548648e-05, -6.170256529003382e-05, -5.0755010306602344e-05, -3.980745532317087e-05, -2.8859900339739397e-05, -1.7912345356307924e-05, -6.96479037287645e-06, 3.982764610555023e-06, 1.4930319593986496e-05, 2.5877845473587513e-05, 3.6825400457018986e-05, 4.777295544045046e-05, 5.872051042388193e-05, 6.96680654073134e-05, 8.061561675276607e-05, 9.156317537417635e-05, 0.00010251073399558663, 0.0001134582853410393, 0.00012440583668649197, 0.00013535338803194463, 0.00014630095392931253, 0.0001572485052747652, 0.00016819605662021786, 0.00017914362251758575, 0.00019009117386303842, 0.0002010387252084911, 0.00021198627655394375, 0.00022293382789939642, 0.00023388139379676431, 0.00024482893059030175, 0.0002557765110395849, 0.00026672406238503754, 0.0002776716137304902, 0.0002886191650759429, 0.00029956671642139554, 0.0003105142677668482, 0.00032146181911230087, 0.000332409399561584, 0.00034335695090703666, 0.00035430450225248933, 0.000365252053597942, 0.00037619960494339466]}, "gradients/graph_1layers.2.bias": {"_type": "histogram", "values": [1.0, 0.0, 0.0, 0.0, 0.0, 0.0, 0.0, 0.0, 0.0, 0.0, 0.0, 1.0, 0.0, 0.0, 0.0, 0.0, 0.0, 0.0, 0.0, 0.0, 1.0, 0.0, 1.0, 0.0, 0.0, 0.0, 0.0, 0.0, 0.0, 0.0, 0.0, 0.0, 0.0, 1.0, 2.0, 1.0, 0.0, 2.0, 5.0, 1.0, 0.0, 4.0, 2.0, 2.0, 6.0, 3.0, 10.0, 11.0, 15.0, 7.0, 8.0, 9.0, 9.0, 3.0, 9.0, 5.0, 0.0, 5.0, 0.0, 1.0, 0.0, 1.0, 1.0, 1.0], "bins": [-0.0006117690936662257, -0.0005988506600260735, -0.0005859322845935822, -0.0005730138509534299, -0.0005600954755209386, -0.0005471770418807864, -0.0005342586664482951, -0.0005213402328081429, -0.0005084218573756516, -0.0004955034237354994, -0.0004825850191991776, -0.00046966661466285586, -0.0004567482101265341, -0.00044382980559021235, -0.0004309114010538906, -0.0004179929965175688, -0.00040507459198124707, -0.0003921561874449253, -0.00037923778290860355, -0.0003663193783722818, -0.00035340097383596003, -0.00034048256929963827, -0.0003275641647633165, -0.00031464576022699475, -0.00030172732658684254, -0.0002888089220505208, -0.000275890517514199, -0.00026297211297787726, -0.0002500537084415555, -0.00023713530390523374, -0.00022421689936891198, -0.00021129849483259022, -0.0001983801048481837, -0.00018546170031186193, -0.00017254329577554017, -0.00015962489123921841, -0.00014670647215098143, -0.00013378806761465967, -0.00012086966307833791, -0.00010795125854201615, -9.503285400569439e-05, -8.211444946937263e-05, -6.919604493305087e-05, -5.62776331207715e-05, -4.335922858444974e-05, -3.0440822229138575e-05, -1.7522415873827413e-05, -4.60400951851625e-06, 8.314396836794913e-06, 2.1232803192106076e-05, 3.415120954741724e-05, 4.7069617721717805e-05, 5.9988022258039564e-05, 7.290642679436132e-05, 8.58248386066407e-05, 9.874324314296246e-05, 0.00011166164767928421, 0.00012458005221560597, 0.00013749845675192773, 0.0001504168612882495, 0.00016333526582457125, 0.00017625368491280824, 0.00018917208944913, 0.00020209049398545176, 0.00021500889852177352]}, "gradients/graph_1layers.2.weight": {"_type": "histogram", "values": [1.0, 1.0, 0.0, 1.0, 1.0, 1.0, 0.0, 0.0, 2.0, 1.0, 2.0, 2.0, 0.0, 0.0, 1.0, 2.0, 2.0, 3.0, 1.0, 3.0, 5.0, 4.0, 10.0, 5.0, 9.0, 9.0, 28.0, 22.0, 34.0, 59.0, 94.0, 144.0, 201.0, 388.0, 889.0, 3817.0, 11520.0, 2016.0, 548.0, 257.0, 167.0, 121.0, 82.0, 34.0, 40.0, 18.0, 18.0, 18.0, 6.0, 3.0, 3.0, 1.0, 0.0, 2.0, 6.0, 0.0, 1.0, 0.0, 3.0, 0.0, 0.0, 1.0, 0.0, 1.0], "bins": [-0.0005982532748021185, -0.00058175582671538, -0.0005652584368363023, -0.0005487609887495637, -0.000532263598870486, -0.0005157661507837474, -0.0004992687609046698, -0.00048277134192176163, -0.0004662739229388535, -0.0004497764748521149, -0.0004332790558692068, -0.00041678163688629866, -0.0004002842179033905, -0.0003837867989204824, -0.00036728937993757427, -0.00035079196095466614, -0.000334294541971758, -0.0003177971229888499, -0.00030129970400594175, -0.0002848022850230336, -0.0002683048660401255, -0.00025180744705721736, -0.000235310013522394, -0.00021881259453948587, -0.00020231517555657774, -0.0001858177565736696, -0.00016932033759076148, -0.00015282291860785335, -0.00013632548507303, -0.00011982807336607948, -0.00010333064710721374, -8.68332281243056e-05, -7.033578003756702e-05, -5.383836105465889e-05, -3.734093843377195e-05, -2.084351763187442e-05, -4.3460968299768865e-06, 1.2151323971920647e-05, 2.864874477381818e-05, 4.514616739470512e-05, 6.164358637761325e-05, 7.814100536052138e-05, 9.46384243434295e-05, 0.00011113585060229525, 0.000127633276861161, 0.00014413069584406912, 0.00016062811482697725, 0.00017712553380988538, 0.0001936229527927935, 0.00021012037177570164, 0.00022661779075860977, 0.0002431152097415179, 0.00025961262872442603, 0.00027611004770733416, 0.0002926074666902423, 0.0003091048856731504, 0.00032560230465605855, 0.00034209975274279714, 0.00035859717172570527, 0.0003750945907086134, 0.0003915920096915215, 0.00040808942867442966, 0.0004245868476573378, 0.0004410842666402459, 0.00045758168562315404]}, "gradients/graph_1layers.1.bias": {"_type": "histogram", "values": [1.0, 0.0, 0.0, 0.0, 0.0, 0.0, 0.0, 0.0, 0.0, 0.0, 1.0, 0.0, 0.0, 0.0, 0.0, 0.0, 2.0, 1.0, 0.0, 0.0, 0.0, 0.0, 0.0, 0.0, 0.0, 0.0, 0.0, 0.0, 1.0, 2.0, 0.0, 2.0, 2.0, 1.0, 3.0, 2.0, 2.0, 0.0, 1.0, 2.0, 1.0, 0.0, 2.0, 5.0, 7.0, 7.0, 11.0, 16.0, 10.0, 7.0, 8.0, 5.0, 4.0, 4.0, 3.0, 3.0, 4.0, 1.0, 2.0, 2.0, 1.0, 1.0, 0.0, 1.0], "bins": [-0.0012911204248666763, -0.0012641153298318386, -0.0012371103512123227, -0.001210105256177485, -0.001183100277557969, -0.0011560951825231314, -0.0011290902039036155, -0.0011020851088687778, -0.0010750801302492619, -0.0010480750352144241, -0.0010210700565949082, -0.0009940649615600705, -0.0009670599247328937, -0.0009400548879057169, -0.0009130498510785401, -0.0008860448142513633, -0.0008590397774241865, -0.0008320347405970097, -0.0008050297037698328, -0.000778024666942656, -0.0007510196301154792, -0.0007240145932883024, -0.0006970095564611256, -0.0006700045196339488, -0.0006429994245991111, -0.0006159943877719343, -0.0005889893509447575, -0.0005619843141175807, -0.0005349792772904038, -0.000507974240463227, -0.0004809692036360502, -0.0004539641668088734, -0.00042695915908552706, -0.00039995412225835025, -0.00037294908543117344, -0.00034594404860399663, -0.00031893898267298937, -0.00029193394584581256, -0.00026492890901863575, -0.00023792387219145894, -0.00021091883536428213, -0.00018391379853710532, -0.0001569087617099285, -0.00012990371033083647, -0.00010289867350365967, -7.589363667648286e-05, -4.888859257334843e-05, -2.1883552108192816e-05, 5.1214883569628e-06, 3.2126528822118416e-05, 5.913156928727403e-05, 8.613661339040846e-05, 0.00011314165021758527, 0.00014014668704476207, 0.0001671517384238541, 0.00019415677525103092, 0.00022116181207820773, 0.00024816684890538454, 0.00027517188573256135, 0.00030217692255973816, 0.00032918195938691497, 0.00035618702531792223, 0.00038319206214509904, 0.00041019709897227585, 0.00043720213579945266]}, "gradients/graph_1layers.1.weight": {"_type": "histogram", "values": [1.0, 1.0, 0.0, 0.0, 2.0, 1.0, 0.0, 5.0, 1.0, 0.0, 1.0, 1.0, 0.0, 4.0, 3.0, 3.0, 8.0, 1.0, 5.0, 7.0, 7.0, 12.0, 13.0, 13.0, 15.0, 20.0, 35.0, 35.0, 61.0, 70.0, 92.0, 118.0, 180.0, 224.0, 370.0, 669.0, 1946.0, 8958.0, 1667.0, 772.0, 411.0, 228.0, 135.0, 92.0, 63.0, 40.0, 22.0, 22.0, 13.0, 12.0, 5.0, 8.0, 4.0, 0.0, 2.0, 1.0, 1.0, 1.0, 0.0, 0.0, 1.0, 0.0, 1.0, 1.0], "bins": [-0.001020324882119894, -0.0009930392261594534, -0.0009657536284066737, -0.000938468030653894, -0.0009111823746934533, -0.0008838967769406736, -0.000856611120980233, -0.0008293255232274532, -0.0008020398672670126, -0.0007747542695142329, -0.0007474686717614532, -0.0007201830158010125, -0.0006928974180482328, -0.0006656117620877922, -0.0006383261643350124, -0.0006110405083745718, -0.0005837549106217921, -0.0005564693128690124, -0.0005291836569085717, -0.000501898059155792, -0.00047461240319535136, -0.00044732680544257164, -0.00042004117858596146, -0.0003927555517293513, -0.0003654699248727411, -0.0003381842980161309, -0.00031089867115952075, -0.00028361304430291057, -0.00025632744655013084, -0.00022904180514160544, -0.00020175619283691049, -0.0001744705659803003, -0.00014718488091602921, -0.00011989925405941904, -9.261363447876647e-05, -6.53280148981139e-05, -3.804238804150373e-05, -1.0756764822872356e-05, 1.6528858395759016e-05, 4.381448161439039e-05, 7.110010483302176e-05, 9.838573168963194e-05, 0.00012567135854624212, 0.00015295697085093707, 0.00018024259770754725, 0.00020752822456415743, 0.00023481383686885238, 0.00026209946372546256, 0.00028938509058207273, 0.0003166707174386829, 0.0003439563442952931, 0.00037124197115190327, 0.00039852759800851345, 0.00042581319576129317, 0.00045309882261790335, 0.00048038444947451353, 0.0005076701054349542, 0.0005349557031877339, 0.0005622413009405136, 0.0005895269569009542, 0.000616812554653734, 0.0006440982106141746, 0.0006713838083669543, 0.000698669464327395, 0.0007259550620801747]}, "gradients/graph_1layers.0.bias": {"_type": "histogram", "values": [1.0, 0.0, 0.0, 0.0, 1.0, 0.0, 0.0, 0.0, 0.0, 0.0, 1.0, 0.0, 1.0, 0.0, 0.0, 0.0, 0.0, 2.0, 1.0, 1.0, 0.0, 0.0, 0.0, 0.0, 0.0, 1.0, 0.0, 2.0, 1.0, 4.0, 2.0, 2.0, 0.0, 3.0, 4.0, 6.0, 6.0, 7.0, 7.0, 9.0, 7.0, 10.0, 13.0, 4.0, 2.0, 8.0, 2.0, 5.0, 2.0, 4.0, 0.0, 2.0, 0.0, 2.0, 1.0, 2.0, 0.0, 0.0, 0.0, 0.0, 0.0, 1.0, 0.0, 1.0], "bins": [-0.0037767698522657156, -0.0036843386478722095, -0.0035919074434787035, -0.0034994762390851974, -0.0034070448018610477, -0.0033146135974675417, -0.0032221823930740356, -0.0031297511886805296, -0.0030373199842870235, -0.0029448887798935175, -0.0028524575755000114, -0.0027600263711065054, -0.0026675951667129993, -0.0025751637294888496, -0.0024827325250953436, -0.0023903013207018375, -0.0022978701163083315, -0.0022054389119148254, -0.0021130077075213194, -0.0020205765031278133, -0.0019281451823189855, -0.0018357139779254794, -0.0017432826571166515, -0.0016508514527231455, -0.0015584202483296394, -0.0014659890439361334, -0.0013735578395426273, -0.0012811265187337995, -0.0011886953143402934, -0.0010962641099467874, -0.0010038327891379595, -0.0009114015847444534, -0.0008189703803509474, -0.0007265391759574413, -0.0006341079133562744, -0.0005416766507551074, -0.00044924544636160135, -0.00035681421286426485, -0.00026438297936692834, -0.00017195174586959183, -7.952051237225533e-05, 1.2910721125081182e-05, 0.00010534195462241769, 0.0001977731881197542, 0.0002902044216170907, 0.0003826356551144272, 0.0004750668886117637, 0.0005674981512129307, 0.0006599293556064367, 0.0007523605599999428, 0.0008447918226011097, 0.0009372230852022767, 0.0010296542895957828, 0.0011220854939892888, 0.0012145168147981167, 0.0013069480191916227, 0.0013993792235851288, 0.0014918104279786348, 0.0015842416323721409, 0.0016766729531809688, 0.0017691041575744748, 0.0018615353619679809, 0.0019539666827768087, 0.002046397887170315, 0.002138829091563821]}, "gradients/graph_1layers.0.weight": {"_type": "histogram", "values": [1.0, 5.0, 1.0, 2.0, 6.0, 3.0, 1.0, 2.0, 7.0, 4.0, 8.0, 6.0, 1.0, 6.0, 17.0, 6.0, 11.0, 5.0, 11.0, 17.0, 22.0, 27.0, 36.0, 54.0, 64.0, 63.0, 104.0, 160.0, 221.0, 342.0, 584.0, 935.0, 483.0, 269.0, 191.0, 135.0, 85.0, 75.0, 48.0, 43.0, 37.0, 23.0, 22.0, 12.0, 14.0, 5.0, 7.0, 11.0, 8.0, 4.0, 3.0, 4.0, 1.0, 1.0, 0.0, 0.0, 4.0, 3.0, 0.0, 1.0, 1.0, 0.0, 0.0, 2.0], "bins": [-0.0039079394191503525, -0.0037830141372978687, -0.0036580890882760286, -0.003533163806423545, -0.003408238757401705, -0.003283313475549221, -0.0031583881936967373, -0.003033463144674897, -0.0029085378628224134, -0.0027836125809699297, -0.0026586875319480896, -0.002533762250095606, -0.002408836968243122, -0.002283911919221282, -0.0021589866373687983, -0.002034061588346958, -0.0019091363064944744, -0.0017842111410573125, -0.0016592859756201506, -0.0015343606937676668, -0.001409435528330505, -0.001284510362893343, -0.0011595850810408592, -0.0010346599156036973, -0.0009097347501665354, -0.0007848095847293735, -0.0006598843610845506, -0.0005349591374397278, -0.00041003397200256586, -0.0002851087774615735, -0.0001601835829205811, -3.525838837958872e-05, 8.966634050011635e-05, 0.00021459153504110873, 0.0003395167295821011, 0.0004644419241230935, 0.0005893671186640859, 0.0007142922841012478, 0.0008392175077460706, 0.0009641427313908935, 0.0010890678968280554, 0.0012139930622652173, 0.0013389182277023792, 0.001463843509554863, 0.001588768674992025, 0.0017136938404291868, 0.0018386191222816706, 0.0019635441713035107, 0.0020884694531559944, 0.002213394735008478, 0.0023383197840303183, 0.002463245065882802, 0.002588170114904642, 0.002713095396757126, 0.0028380206786096096, 0.0029629457276314497, 0.0030878710094839334, 0.003212796291336417, 0.0033377213403582573, 0.003462646622210741, 0.003587571904063225, 0.003712496953085065, 0.0038374222349375486, 0.003962347283959389, 0.0040872725658118725]}, "gradients/lout.bias": {"_type": "histogram", "values": [1.0, 0.0, 0.0, 0.0, 0.0, 0.0, 0.0, 0.0, 0.0, 0.0, 0.0, 0.0, 0.0, 0.0, 0.0, 0.0, 0.0, 0.0, 0.0, 0.0, 0.0, 0.0, 0.0, 0.0, 0.0, 0.0, 0.0, 0.0, 0.0, 0.0, 0.0, 0.0, 0.0, 0.0, 0.0, 0.0, 0.0, 0.0, 0.0, 0.0, 0.0, 0.0, 0.0, 0.0, 0.0, 0.0, 0.0, 0.0, 0.0, 0.0, 0.0, 1.0, 0.0, 0.0, 0.0, 0.0, 0.0, 0.0, 0.0, 0.0, 0.0, 1.0, 0.0, 1.0], "bins": [8.7084285041783e-05, 0.00011119484406663105, 0.0001353054103674367, 0.00015941596939228475, 0.0001835265284171328, 0.00020763708744198084, 0.00023174764646682888, 0.0002558582054916769, 0.0002799687790684402, 0.000304079323541373, 0.0003281898971181363, 0.0003523004415910691, 0.0003764110151678324, 0.00040052158874459565, 0.00042463213321752846, 0.00044874270679429173, 0.00047285325126722455, 0.0004969637957401574, 0.0005210743984207511, 0.0005451849428936839, 0.0005692954873666167, 0.0005934060900472105, 0.0006175166345201433, 0.0006416271789930761, 0.0006657377234660089, 0.0006898483261466026, 0.0007139588706195354, 0.0007380694150924683, 0.0007621799595654011, 0.0007862905622459948, 0.0008104011067189276, 0.0008345116511918604, 0.0008586221956647933, 0.0008827327401377261, 0.0009068433428183198, 0.0009309538872912526, 0.0009550644317641854, 0.0009791749762371182, 0.001003285520710051, 0.0010273960651829839, 0.0010515067260712385, 0.0010756172705441713, 0.0010997278150171041, 0.001123838359490037, 0.0011479489039629698, 0.0011720594484359026, 0.0011961699929088354, 0.00122028065379709, 0.0012443911982700229, 0.0012685017427429557, 0.0012926122872158885, 0.0013167228316888213, 0.0013408333761617541, 0.001364943920634687, 0.0013890545815229416, 0.0014131651259958744, 0.0014372756704688072, 0.00146138621494174, 0.0014854967594146729, 0.0015096073038876057, 0.0015337178483605385, 0.0015578285092487931, 0.001581939053721726, 0.0016060495981946588, 0.0016301601426675916]}, "gradients/lout.weight": {"_type": "histogram", "values": [267.0, 84.0, 12.0, 2.0, 1.0, 3.0, 2.0, 2.0, 2.0, 4.0, 5.0, 5.0, 8.0, 10.0, 8.0, 4.0, 5.0, 6.0, 0.0, 2.0, 4.0, 2.0, 2.0, 5.0, 4.0, 3.0, 2.0, 6.0, 5.0, 4.0, 2.0, 0.0, 2.0, 6.0, 2.0, 1.0, 1.0, 0.0, 1.0, 2.0, 2.0, 3.0, 2.0, 1.0, 0.0, 1.0, 2.0, 1.0, 2.0, 2.0, 1.0, 0.0, 0.0, 1.0, 0.0, 0.0, 2.0, 0.0, 3.0, 1.0, 0.0, 0.0, 1.0, 1.0], "bins": [-0.00011433866893639788, 4.543978866422549e-05, 0.00020521823898889124, 0.0003649966965895146, 0.0005247751832939684, 0.0006845536408945918, 0.0008443320984952152, 0.0010041105560958385, 0.001163888955488801, 0.0013236674712970853, 0.0014834458706900477, 0.001643224386498332, 0.0018030027858912945, 0.001962781185284257, 0.002122559817507863, 0.0022823382169008255, 0.002442116616293788, 0.0026018950156867504, 0.0027616736479103565, 0.002921452047303319, 0.0030812304466962814, 0.003241008846089244, 0.00340078747831285, 0.0035605658777058125, 0.003720344277098775, 0.0038801226764917374, 0.0040399013087153435, 0.004199679475277662, 0.004359458107501268, 0.0045192367397248745, 0.004679014906287193, 0.004838793538510799, 0.0049985721707344055, 0.005158350802958012, 0.00531812896952033, 0.0054779076017439365, 0.005637685768306255, 0.0057974644005298615, 0.0059572430327534676, 0.006117021199315786, 0.0062767998315393925, 0.006436578463762999, 0.006596356630325317, 0.0067561352625489235, 0.00691591389477253, 0.007075692061334848, 0.0072354706935584545, 0.007395248860120773, 0.007555027492344379, 0.0077148061245679855, 0.007874584756791592, 0.008034362457692623, 0.00819414108991623, 0.008353919722139835, 0.008513698354363441, 0.008673476986587048, 0.008833255618810654, 0.008993033319711685, 0.009152811951935291, 0.009312590584158897, 0.009472369216382504, 0.00963214784860611, 0.009791925549507141, 0.009951704181730747, 0.010111482813954353]}, "gradients/layers.3.bias": {"_type": "histogram", "values": [1.0, 0.0, 0.0, 0.0, 0.0, 0.0, 1.0, 0.0, 0.0, 0.0, 0.0, 0.0, 0.0, 0.0, 0.0, 0.0, 1.0, 0.0, 0.0, 0.0, 0.0, 2.0, 0.0, 2.0, 2.0, 0.0, 4.0, 2.0, 6.0, 8.0, 15.0, 45.0, 15.0, 8.0, 2.0, 3.0, 0.0, 2.0, 1.0, 2.0, 1.0, 0.0, 0.0, 0.0, 0.0, 0.0, 1.0, 1.0, 0.0, 0.0, 0.0, 0.0, 0.0, 0.0, 0.0, 0.0, 0.0, 1.0, 0.0, 0.0, 1.0, 0.0, 0.0, 1.0], "bins": [-0.0005945368902757764, -0.0005757234175689518, -0.0005569099448621273, -0.0005380964721553028, -0.0005192829994484782, -0.0005004695267416537, -0.00048165605403482914, -0.0004628425813280046, -0.00044402910862118006, -0.0004252156359143555, -0.000406402163207531, -0.00038758869050070643, -0.0003687752177938819, -0.00034996174508705735, -0.0003311482723802328, -0.00031233479967340827, -0.00029352132696658373, -0.0002747078542597592, -0.00025589438155293465, -0.0002370809088461101, -0.00021826743613928556, -0.00019945396343246102, -0.00018064049072563648, -0.00016182701801881194, -0.0001430135453119874, -0.00012420007260516286, -0.00010538659989833832, -8.657312719151378e-05, -6.775965448468924e-05, -4.8946181777864695e-05, -3.0132709071040154e-05, -1.1319236364215612e-05, 7.494236342608929e-06, 2.630770904943347e-05, 4.512118175625801e-05, 6.393465446308255e-05, 8.274812716990709e-05, 0.00010156159987673163, 0.00012037507258355618, 0.00013918854529038072, 0.00015800201799720526, 0.0001768154907040298, 0.00019562896341085434, 0.00021444243611767888, 0.00023325590882450342, 0.00025206938153132796, 0.0002708828542381525, 0.00028969632694497705, 0.0003085097996518016, 0.00032732327235862613, 0.00034613674506545067, 0.0003649502177722752, 0.00038376369047909975, 0.0004025771631859243, 0.00042139063589274883, 0.0004402041085995734, 0.0004590175813063979, 0.00047783105401322246, 0.000496644526720047, 0.0005154579994268715, 0.0005342714721336961, 0.0005530849448405206, 0.0005718984175473452, 0.0005907118902541697, 0.0006095253629609942]}, "gradients/layers.3.weight": {"_type": "histogram", "values": [1.0, 0.0, 0.0, 0.0, 1.0, 0.0, 1.0, 0.0, 0.0, 1.0, 0.0, 0.0, 1.0, 1.0, 3.0, 1.0, 4.0, 5.0, 2.0, 6.0, 9.0, 10.0, 13.0, 13.0, 16.0, 26.0, 38.0, 42.0, 96.0, 137.0, 363.0, 983.0, 10854.0, 2824.0, 350.0, 147.0, 112.0, 61.0, 56.0, 38.0, 28.0, 22.0, 17.0, 23.0, 15.0, 16.0, 11.0, 7.0, 11.0, 9.0, 0.0, 0.0, 3.0, 1.0, 1.0, 0.0, 0.0, 1.0, 1.0, 1.0, 0.0, 0.0, 1.0, 1.0], "bins": [-0.000703431258443743, -0.0006820470443926752, -0.0006606627721339464, -0.0006392785580828786, -0.0006178943440318108, -0.000596510071773082, -0.0005751258577220142, -0.0005537415854632854, -0.0005323573714122176, -0.0005109731573611498, -0.000489588885102421, -0.0004682046710513532, -0.00044682042789645493, -0.00042543618474155664, -0.0004040519706904888, -0.00038266772753559053, -0.00036128348438069224, -0.00033989924122579396, -0.00031851499807089567, -0.00029713078401982784, -0.00027574654086492956, -0.00025436229771003127, -0.0002329780691070482, -0.00021159384050406516, -0.00019020959734916687, -0.00016882535419426858, -0.00014744112559128553, -0.00012605689698830247, -0.00010467265383340418, -8.328841795446351e-05, -6.190418207552284e-05, -4.051994619658217e-05, -1.913576852530241e-05, 2.2484673536382616e-06, 2.3632703232578933e-05, 4.5016939111519605e-05, 6.640117499046028e-05, 8.778541086940095e-05, 0.00010916964674834162, 0.00013055387535132468, 0.00015193811850622296, 0.00017332236166112125, 0.0001947065902641043, 0.00021609081886708736, 0.00023747506202198565, 0.00025885930517688394, 0.00028024351922795177, 0.00030162776238285005, 0.00032301200553774834, 0.0003443962486926466, 0.0003657804918475449, 0.00038716470589861274, 0.000408548949053511, 0.0004299331922084093, 0.00045131740625947714, 0.0004727016494143754, 0.0004940858925692737, 0.0005154701066203415, 0.0005368543788790703, 0.0005582385929301381, 0.0005796228069812059, 0.0006010070792399347, 0.0006223912932910025, 0.0006437755655497313, 0.0006651597796007991]}, "gradients/layers.2.bias": {"_type": "histogram", "values": [3.0, 1.0, 0.0, 1.0, 1.0, 2.0, 0.0, 1.0, 1.0, 2.0, 2.0, 5.0, 3.0, 1.0, 2.0, 9.0, 7.0, 6.0, 8.0, 6.0, 14.0, 5.0, 8.0, 7.0, 5.0, 5.0, 1.0, 6.0, 2.0, 2.0, 2.0, 2.0, 1.0, 1.0, 1.0, 1.0, 0.0, 0.0, 1.0, 0.0, 0.0, 0.0, 0.0, 0.0, 1.0, 0.0, 0.0, 0.0, 0.0, 0.0, 0.0, 0.0, 0.0, 1.0, 0.0, 0.0, 0.0, 0.0, 0.0, 0.0, 0.0, 0.0, 0.0, 1.0], "bins": [-0.0003777153615374118, -0.0003589436528272927, -0.00034017194411717355, -0.0003214002354070544, -0.00030262855580076575, -0.0002838568470906466, -0.0002650851383805275, -0.00024631342967040837, -0.00022754172096028924, -0.0002087700122501701, -0.00018999830354005098, -0.00017122660938184708, -0.00015245490067172796, -0.00013368319196160883, -0.00011491149052744731, -9.61397890932858e-05, -7.736808038316667e-05, -5.859637531102635e-05, -3.982467023888603e-05, -2.1052965166745707e-05, -2.2812600946053863e-06, 1.6490444977534935e-05, 3.5262150049675256e-05, 5.403385512181558e-05, 7.28055601939559e-05, 9.157726890407503e-05, 0.00011034897033823654, 0.00012912067177239805, 0.00014789238048251718, 0.0001666640891926363, 0.0001854357833508402, 0.00020420749206095934, 0.00022297922987490892, 0.00024175093858502805, 0.0002605226472951472, 0.0002792943560052663, 0.00029806606471538544, 0.0003168377443216741, 0.00033560945303179324, 0.00035438116174191236, 0.0003731528704520315, 0.0003919245791621506, 0.00041069628787226975, 0.0004294679965823889, 0.00044823967618867755, 0.0004670113848987967, 0.0004857830936089158, 0.0005045548314228654, 0.0005233265110291541, 0.0005420981906354427, 0.0005608699284493923, 0.000579641608055681, 0.0005984133458696306, 0.0006171850254759192, 0.0006359567632898688, 0.0006547284428961575, 0.0006735001225024462, 0.0006922718603163958, 0.0007110435399226844, 0.000729815277736634, 0.0007485869573429227, 0.0007673586951568723, 0.0007861303747631609, 0.0008049021125771105, 0.0008236737921833992]}, "gradients/layers.2.weight": {"_type": "histogram", "values": [1.0, 0.0, 0.0, 1.0, 0.0, 0.0, 2.0, 0.0, 0.0, 3.0, 2.0, 1.0, 9.0, 13.0, 12.0, 11.0, 12.0, 16.0, 30.0, 36.0, 64.0, 60.0, 102.0, 153.0, 229.0, 416.0, 885.0, 2902.0, 11515.0, 2249.0, 781.0, 380.0, 229.0, 151.0, 99.0, 71.0, 35.0, 41.0, 21.0, 19.0, 9.0, 10.0, 6.0, 5.0, 6.0, 3.0, 2.0, 2.0, 2.0, 1.0, 1.0, 1.0, 0.0, 1.0, 3.0, 0.0, 0.0, 0.0, 0.0, 1.0, 2.0, 0.0, 0.0, 2.0], "bins": [-0.0006473688408732414, -0.0006246313569135964, -0.0006018938147462904, -0.0005791563307866454, -0.0005564187886193395, -0.0005336813046596944, -0.0005109438207000494, -0.0004882063076365739, -0.0004654687945730984, -0.00044273128150962293, -0.00041999376844614744, -0.0003972562844865024, -0.0003745187714230269, -0.00035178125835955143, -0.0003290437743999064, -0.0003063062613364309, -0.0002835687482729554, -0.00026083123520947993, -0.00023809373669791967, -0.0002153562381863594, -0.00019261872512288392, -0.00016988121205940843, -0.00014714371354784817, -0.0001244062150362879, -0.00010166870197281241, -7.893119618529454e-05, -5.619369039777666e-05, -3.345618461025879e-05, -1.0718678822740912e-05, 1.2018826964776963e-05, 3.475633275229484e-05, 5.7493838539812714e-05, 8.02314025349915e-05, 0.00010296890832250938, 0.00012570641411002725, 0.00014844391262158751, 0.000171181425685063, 0.0001939189387485385, 0.00021665643726009876, 0.00023939393577165902, 0.0002621314488351345, 0.00028486896189861, 0.0003076064749620855, 0.0003303439589217305, 0.000353081471985206, 0.0003758189850486815, 0.00039855646900832653, 0.000421293982071802, 0.0004440314951352775, 0.000466769008198753, 0.0004895065212622285, 0.0005122440052218735, 0.0005349814891815186, 0.0005577190313488245, 0.0005804565153084695, 0.0006031940574757755, 0.0006259315414354205, 0.0006486690253950655, 0.0006714065675623715, 0.0006941440515220165, 0.0007168815936893225, 0.0007396190776489675, 0.0007623565616086125, 0.0007850941037759185, 0.0008078315877355635]}, "gradients/layers.1.bias": {"_type": "histogram", "values": [1.0, 0.0, 0.0, 0.0, 0.0, 0.0, 0.0, 0.0, 1.0, 0.0, 0.0, 0.0, 1.0, 0.0, 0.0, 0.0, 0.0, 0.0, 1.0, 0.0, 1.0, 2.0, 0.0, 1.0, 2.0, 0.0, 0.0, 1.0, 0.0, 0.0, 1.0, 3.0, 2.0, 3.0, 2.0, 3.0, 5.0, 9.0, 7.0, 14.0, 22.0, 6.0, 9.0, 8.0, 2.0, 2.0, 2.0, 2.0, 2.0, 3.0, 1.0, 0.0, 1.0, 0.0, 1.0, 3.0, 0.0, 0.0, 0.0, 0.0, 0.0, 1.0, 2.0, 1.0], "bins": [-0.0021488568745553493, -0.0020960113033652306, -0.002043165499344468, -0.0019903199281543493, -0.0019374743569642305, -0.00188462866935879, -0.0018317829817533493, -0.0017789374105632305, -0.00172609172295779, -0.0016732460353523493, -0.0016204004641622305, -0.0015675547765567899, -0.0015147090889513493, -0.0014618635177612305, -0.0014090178301557899, -0.001356172258965671, -0.0013033265713602304, -0.0012504808837547898, -0.001197635312564671, -0.0011447896249592304, -0.0010919440537691116, -0.001039098366163671, -0.0009862526785582304, -0.0009334070491604507, -0.000880561419762671, -0.0008277157903648913, -0.0007748701609671116, -0.000722024473361671, -0.0006691788439638913, -0.0006163332145661116, -0.000563487526960671, -0.0005106418975628912, -0.00045779638458043337, -0.00040495075518265367, -0.0003521050966810435, -0.00029925943817943335, -0.00024641380878165364, -0.0001935681648319587, -0.00014072252088226378, -8.787687693256885e-05, -3.503123298287392e-05, 1.7814410966821015e-05, 7.066005491651595e-05, 0.00012350569886621088, 0.0001763513428159058, 0.00022919698676560074, 0.00028204263071529567, 0.00033488828921690583, 0.00038773391861468554, 0.00044057954801246524, 0.0004934251774102449, 0.0005462708650156856, 0.0005991164944134653, 0.000651962123811245, 0.0007048078114166856, 0.0007576534408144653, 0.000810499070212245, 0.0008633446996100247, 0.0009161903290078044, 0.000969036016613245, 0.0010218815878033638, 0.0010747272754088044, 0.001127572963014245, 0.0011804185342043638, 0.0012332642218098044]}, "gradients/layers.1.weight": {"_type": "histogram", "values": [2.0, 1.0, 1.0, 1.0, 1.0, 1.0, 2.0, 2.0, 0.0, 2.0, 5.0, 2.0, 5.0, 1.0, 6.0, 9.0, 6.0, 10.0, 15.0, 14.0, 15.0, 17.0, 32.0, 35.0, 41.0, 69.0, 72.0, 124.0, 148.0, 248.0, 450.0, 1010.0, 9750.0, 2708.0, 684.0, 324.0, 184.0, 113.0, 78.0, 48.0, 36.0, 28.0, 22.0, 7.0, 13.0, 15.0, 3.0, 5.0, 2.0, 1.0, 3.0, 2.0, 1.0, 2.0, 3.0, 1.0, 1.0, 1.0, 1.0, 0.0, 0.0, 0.0, 0.0, 1.0], "bins": [-0.0017665661871433258, -0.001712737139314413, -0.0016589080914855003, -0.0016050789272412658, -0.001551249879412353, -0.0014974208315834403, -0.0014435917837545276, -0.0013897627359256148, -0.0013359335716813803, -0.0012821045238524675, -0.0012282754760235548, -0.001174446428194642, -0.0011206173803657293, -0.0010667883325368166, -0.001012959168292582, -0.0009591301204636693, -0.0009053010726347566, -0.0008514720248058438, -0.0007976429187692702, -0.0007438138709403574, -0.0006899847649037838, -0.0006361557170748711, -0.0005823266692459583, -0.0005284975632093847, -0.00047466851538047194, -0.00042083943844772875, -0.00036701036151498556, -0.0003131813136860728, -0.00025935223675332963, -0.00020552315982058644, -0.00015169409743975848, -9.78650277829729e-05, -4.403607454150915e-05, 9.792995115276426e-06, 6.3622064772062e-05, 0.00011745113442884758, 0.00017128020408563316, 0.00022510928101837635, 0.0002789383288472891, 0.0003327674057800323, 0.00038659648271277547, 0.00044042555964551866, 0.0004942546365782619, 0.0005480836844071746, 0.0006019127322360873, 0.000655741838272661, 0.0007095708861015737, 0.0007633999921381474, 0.0008172290399670601, 0.0008710580877959728, 0.0009248871938325465, 0.0009787162998691201, 0.0010325453476980329, 0.0010863743955269456, 0.0011402034433558583, 0.001194032491184771, 0.0012478616554290056, 0.0013016907032579184, 0.001355519751086831, 0.0014093487989157438, 0.0014631778467446566, 0.0015170068945735693, 0.0015708360588178039, 0.0016246651066467166, 0.0016784941544756293]}, "gradients/layers.0.bias": {"_type": "histogram", "values": [1.0, 0.0, 0.0, 0.0, 0.0, 0.0, 0.0, 1.0, 0.0, 0.0, 2.0, 1.0, 1.0, 0.0, 0.0, 0.0, 0.0, 0.0, 0.0, 0.0, 1.0, 0.0, 1.0, 2.0, 2.0, 2.0, 3.0, 5.0, 4.0, 1.0, 5.0, 7.0, 4.0, 8.0, 20.0, 13.0, 13.0, 5.0, 6.0, 4.0, 0.0, 3.0, 3.0, 3.0, 2.0, 0.0, 0.0, 1.0, 0.0, 0.0, 2.0, 0.0, 0.0, 0.0, 0.0, 1.0, 0.0, 0.0, 0.0, 0.0, 0.0, 0.0, 0.0, 1.0], "bins": [-0.006954429671168327, -0.00675480579957366, -0.0065551819279789925, -0.006355557590723038, -0.00615593371912837, -0.005956309847533703, -0.005756685510277748, -0.005557061638683081, -0.005357437767088413, -0.005157813895493746, -0.004958190023899078, -0.004758565686643124, -0.004558941815048456, -0.004359317943453789, -0.004159693606197834, -0.003960069734603167, -0.003760445863008499, -0.0035608219914138317, -0.0033611978869885206, -0.0031615737825632095, -0.002961949910968542, -0.0027623260393738747, -0.0025627019349485636, -0.0023630778305232525, -0.002163453958928585, -0.0019638300873339176, -0.0017642059829086065, -0.0015645819948986173, -0.001364958006888628, -0.0011653340188786387, -0.0009657100308686495, -0.0007660860428586602, -0.0005664625205099583, -0.000366838532499969, -0.00016721454448997974, 3.240944352000952e-05, 0.00023203343152999878, 0.00043165741953998804, 0.0006312814075499773, 0.0008309053955599666, 0.0010305293835699558, 0.001230153371579945, 0.0014297773595899343, 0.0016294013475999236, 0.0018290253356099129, 0.0020286492072045803, 0.0022282733116298914, 0.0024278974160552025, 0.00262752128764987, 0.0028271451592445374, 0.0030267692636698484, 0.0032263933680951595, 0.003426017239689827, 0.0036256411112844944, 0.0038252652157098055, 0.004024889320135117, 0.004224513191729784, 0.0044241370633244514, 0.004623761400580406, 0.004823385272175074, 0.005023009143769741, 0.0052226330153644085, 0.005422256886959076, 0.005621881224215031, 0.005821505095809698]}, "gradients/layers.0.weight": {"_type": "histogram", "values": [5.0, 1.0, 1.0, 2.0, 1.0, 0.0, 3.0, 4.0, 5.0, 8.0, 9.0, 12.0, 7.0, 2.0, 7.0, 7.0, 4.0, 2.0, 9.0, 9.0, 15.0, 22.0, 38.0, 32.0, 69.0, 75.0, 80.0, 129.0, 167.0, 305.0, 686.0, 1184.0, 486.0, 216.0, 157.0, 103.0, 85.0, 58.0, 51.0, 39.0, 19.0, 20.0, 19.0, 13.0, 9.0, 10.0, 7.0, 3.0, 4.0, 3.0, 3.0, 5.0, 4.0, 0.0, 0.0, 4.0, 3.0, 2.0, 0.0, 0.0, 0.0, 0.0, 0.0, 1.0], "bins": [-0.006953234318643808, -0.006730651017278433, -0.006508067715913057, -0.006285484414547682, -0.006062900647521019, -0.0058403173461556435, -0.005617734044790268, -0.005395150743424892, -0.005172567442059517, -0.004949984140694141, -0.0047274003736674786, -0.004504817072302103, -0.0042822337709367275, -0.004059650469571352, -0.0038370671682059765, -0.0036144836340099573, -0.003391900332644582, -0.0031693170312792063, -0.002946733497083187, -0.0027241501957178116, -0.002501566894352436, -0.002278983360156417, -0.0020564000587910414, -0.0018338167574256659, -0.0016112333396449685, -0.0013886499218642712, -0.0011660666204988956, -0.0009434832027181983, -0.0007208998431451619, -0.0004983164835721254, -0.00027573309489525855, -5.3149720770306885e-05, 0.00016943365335464478, 0.0003920170129276812, 0.0006146003725007176, 0.000837183790281415, 0.0010597670916467905, 0.0012823505094274879, 0.0015049339272081852, 0.0017275172285735607, 0.001950100646354258, 0.0021726840641349554, 0.002395267365500331, 0.0026178506668657064, 0.0028404342010617256, 0.003063017502427101, 0.0032856008037924767, 0.003508184337988496, 0.0037307676393538713, 0.0039533511735498905, 0.004175934474915266, 0.0043985177762806416, 0.004621101077646017, 0.004843684379011393, 0.005066267680376768, 0.005288851447403431, 0.0055114347487688065, 0.005734018050134182, 0.0059566013514995575, 0.006179184652864933, 0.0064017679542303085, 0.006624351721256971, 0.006846935022622347, 0.007069518323987722, 0.007292101625353098]}}