{"total_loss": 0.01057601346168667, "_timestamp": 1718108069.2380915, "rgb_loss": 0.01057601346168667, "_runtime": 306.3565673828125, "_step": 1000, "Rendered Images": {"_type": "images/separated", "width": 256, "height": 256, "format": "png", "count": 5, "filenames": ["media/images/Rendered Images_0_74f5408ac392797d9a87.png", "media/images/Rendered Images_0_7960e71b1cc7ce4b0a43.png", "media/images/Rendered Images_0_281ae5793aadea467454.png", "media/images/Rendered Images_0_e5e20de18efffac1a2db.png", "media/images/Rendered Images_0_493181562f2242590e45.png"]}, "Ground-truth Images": {"_type": "images/separated", "width": 256, "height": 256, "format": "png", "count": 5, "filenames": ["media/images/Ground-truth Images_4_e66caac5921126c9a542.png", "media/images/Ground-truth Images_4_d46094b22d91d1bd7d47.png", "media/images/Ground-truth Images_4_c1ae0e380e32a07032f8.png", "media/images/Ground-truth Images_4_b60b263c939c62f4bc58.png", "media/images/Ground-truth Images_4_ab3d98782f1147e7dca7.png"]}, "PSNR": 8.613062994382119, "Epoch": 0, "gradients/graph_1rgb_fn.2.bias": {"_type": "histogram", "values": [1.0, 0.0, 0.0, 0.0, 0.0, 0.0, 0.0, 0.0, 0.0, 0.0, 0.0, 0.0, 0.0, 0.0, 0.0, 0.0, 0.0, 0.0, 0.0, 0.0, 0.0, 0.0, 0.0, 0.0, 0.0, 0.0, 0.0, 0.0, 0.0, 1.0, 0.0, 0.0, 0.0, 0.0, 0.0, 0.0, 0.0, 0.0, 0.0, 0.0, 0.0, 0.0, 0.0, 0.0, 0.0, 0.0, 0.0, 0.0, 0.0, 0.0, 0.0, 0.0, 0.0, 0.0, 0.0, 0.0, 0.0, 0.0, 0.0, 0.0, 0.0, 0.0, 0.0, 1.0], "bins": [0.00031910347752273083, 0.0003196720208507031, 0.0003202405641786754, 0.0003208091075066477, 0.00032137765083462, 0.0003219461941625923, 0.00032251476659439504, 0.00032308330992236733, 0.00032365185325033963, 0.0003242203965783119, 0.0003247889399062842, 0.0003253574832342565, 0.0003259260265622288, 0.0003264945698902011, 0.0003270631132181734, 0.0003276316565461457, 0.00032820022897794843, 0.0003287687723059207, 0.000329337315633893, 0.0003299058589618653, 0.0003304744022898376, 0.0003310429456178099, 0.0003316114889457822, 0.0003321800322737545, 0.00033274857560172677, 0.00033331711892969906, 0.00033388566225767136, 0.0003344542346894741, 0.0003350227780174464, 0.0003355913213454187, 0.000336159864673391, 0.0003367284080013633, 0.00033729695132933557, 0.00033786549465730786, 0.00033843403798528016, 0.00033900258131325245, 0.00033957112464122474, 0.00034013966796919703, 0.0003407082404009998, 0.0003412767837289721, 0.00034184532705694437, 0.00034241387038491666, 0.00034298241371288896, 0.00034355095704086125, 0.00034411950036883354, 0.00034468804369680583, 0.00034525658702477813, 0.0003458251303527504, 0.0003463936736807227, 0.00034696224611252546, 0.00034753078944049776, 0.00034809933276847005, 0.00034866787609644234, 0.00034923641942441463, 0.00034980496275238693, 0.0003503735060803592, 0.0003509420494083315, 0.0003515105927363038, 0.0003520791360642761, 0.00035264770849607885, 0.00035321625182405114, 0.00035378479515202343, 0.00035435333847999573, 0.000354921881807968, 0.0003554904251359403]}, "gradients/graph_1rgb_fn.2.weight": {"_type": "histogram", "values": [218.0, 8.0, 5.0, 7.0, 5.0, 11.0, 6.0, 4.0, 4.0, 4.0, 2.0, 3.0, 6.0, 8.0, 2.0, 10.0, 6.0, 4.0, 5.0, 4.0, 6.0, 7.0, 3.0, 4.0, 4.0, 3.0, 3.0, 4.0, 5.0, 0.0, 2.0, 2.0, 3.0, 0.0, 3.0, 2.0, 1.0, 1.0, 1.0, 1.0, 1.0, 0.0, 1.0, 2.0, 0.0, 0.0, 0.0, 0.0, 1.0, 0.0, 0.0, 1.0, 0.0, 0.0, 0.0, 0.0, 0.0, 0.0, 0.0, 0.0, 0.0, 0.0, 0.0, 1.0], "bins": [-4.0740433178143576e-05, 2.811952799675055e-05, 9.697949280962348e-05, 0.00016583944670856, 0.00023469941515941173, 0.00030355938361026347, 0.0003724193375092, 0.0004412792914081365, 0.0005101392744109035, 0.00057899922830984, 0.0006478591822087765, 0.000716719136107713, 0.0007855790900066495, 0.000854439043905586, 0.0009232989978045225, 0.00099215900991112, 0.0010610189056023955, 0.001129878917708993, 0.0011987388134002686, 0.001267598825506866, 0.0013364588376134634, 0.001405318733304739, 0.0014741787454113364, 0.001543038641102612, 0.0016118986532092094, 0.001680758548900485, 0.0017496185610070825, 0.0018184785731136799, 0.0018873384688049555, 0.001956198364496231, 0.0020250584930181503, 0.002093918388709426, 0.002162778517231345, 0.0022316384129226208, 0.00230049854144454, 0.0023693584371358156, 0.0024382183328270912, 0.002507078228518367, 0.002575938357040286, 0.0026447982527315617, 0.0027136581484228373, 0.0027825182769447565, 0.002851378172636032, 0.0029202380683273077, 0.0029890979640185833, 0.0030579580925405025, 0.003126817988231778, 0.0031956778839230537, 0.003264538012444973, 0.0033333979081362486, 0.003402257803827524, 0.0034711176995187998, 0.003539977828040719, 0.0036088377237319946, 0.0036776976194232702, 0.003746557515114546, 0.003815417643636465, 0.0038842775393277407, 0.003953137435019016, 0.0040219975635409355, 0.0040908572264015675, 0.004159717354923487, 0.004228577483445406, 0.004297437146306038, 0.004366297274827957]}, "gradients/graph_1rgb_fn.0.bias": {"_type": "histogram", "values": [2.0, 2.0, 0.0, 0.0, 0.0, 0.0, 0.0, 1.0, 2.0, 1.0, 2.0, 0.0, 2.0, 1.0, 2.0, 5.0, 0.0, 3.0, 1.0, 2.0, 3.0, 5.0, 7.0, 4.0, 15.0, 56.0, 0.0, 1.0, 1.0, 1.0, 0.0, 1.0, 0.0, 0.0, 0.0, 0.0, 0.0, 0.0, 0.0, 1.0, 0.0, 0.0, 0.0, 0.0, 0.0, 0.0, 0.0, 0.0, 2.0, 1.0, 0.0, 0.0, 2.0, 0.0, 0.0, 0.0, 0.0, 0.0, 0.0, 0.0, 1.0, 0.0, 0.0, 1.0], "bins": [-7.61221963330172e-05, -7.311657100217417e-05, -7.011093839537352e-05, -6.710531306453049e-05, -6.409968773368746e-05, -6.109405512688681e-05, -5.8088429796043783e-05, -5.508280446520075e-05, -5.2077175496378914e-05, -4.9071546527557075e-05, -4.6065921196714044e-05, -4.3060292227892205e-05, -4.005466325907037e-05, -3.7049037928227335e-05, -3.40434089594055e-05, -3.1037783628562465e-05, -2.8032154659740627e-05, -2.5026527509908192e-05, -2.2020900360075757e-05, -1.901527139125392e-05, -1.6009644241421483e-05, -1.3004017091589049e-05, -9.998389032261912e-06, -6.992761427682126e-06, -3.98713382310234e-06, -9.815062185225543e-07, 2.0241213860572316e-06, 5.029748990637017e-06, 8.035376595216803e-06, 1.1041003745049238e-05, 1.4046631804376375e-05, 1.705225986370351e-05, 2.0057879737578332e-05, 2.3063506887410767e-05, 2.6069134037243202e-05, 2.907476300606504e-05, 3.208038833690807e-05, 3.508601730572991e-05, 3.809164627455175e-05, 4.109727160539478e-05, 4.410290057421662e-05, 4.710852954303846e-05, 5.011415487388149e-05, 5.311978384270333e-05, 5.6125412811525166e-05, 5.91310381423682e-05, 6.213666347321123e-05, 6.514229608001187e-05, 6.81479214108549e-05, 7.115354674169794e-05, 7.415917934849858e-05, 7.716480467934161e-05, 8.017043001018465e-05, 8.317606261698529e-05, 8.618168794782832e-05, 8.918731327867135e-05, 9.2192945885472e-05, 9.519857121631503e-05, 9.820419654715806e-05, 0.0001012098218780011, 0.00010421545448480174, 0.00010722107981564477, 0.0001102267051464878, 0.00011323233775328845, 0.00011623796308413148]}, "gradients/graph_1rgb_fn.0.weight": {"_type": "histogram", "values": [1.0, 0.0, 4.0, 1.0, 5.0, 4.0, 6.0, 5.0, 8.0, 12.0, 12.0, 30.0, 19.0, 26.0, 32.0, 43.0, 46.0, 54.0, 65.0, 87.0, 79.0, 99.0, 110.0, 125.0, 175.0, 186.0, 245.0, 315.0, 384.0, 689.0, 1400.0, 12777.0, 985.0, 544.0, 336.0, 292.0, 227.0, 207.0, 153.0, 127.0, 91.0, 117.0, 83.0, 79.0, 60.0, 50.0, 40.0, 35.0, 33.0, 29.0, 17.0, 15.0, 9.0, 10.0, 7.0, 2.0, 2.0, 2.0, 5.0, 1.0, 3.0, 2.0, 0.0, 1.0], "bins": [-0.0004421988851390779, -0.0004280446155462414, -0.0004138903459534049, -0.0003997360763605684, -0.0003855818067677319, -0.0003714275371748954, -0.0003572732675820589, -0.0003431189979892224, -0.0003289647283963859, -0.0003148104588035494, -0.0003006561892107129, -0.0002865019196178764, -0.0002723476500250399, -0.0002581933804322034, -0.0002440391108393669, -0.00022988484124653041, -0.00021573057165369391, -0.00020157630206085742, -0.00018742203246802092, -0.00017326776287518442, -0.00015911349328234792, -0.00014495922368951142, -0.00013080495409667492, -0.00011665068450383842, -0.00010249641491100192, -8.834214531816542e-05, -7.418787572532892e-05, -6.003360613249242e-05, -4.5879336539655924e-05, -3.1725066946819425e-05, -1.7570797353982925e-05, -3.416527761146426e-06, 1.073777093552053e-05, 2.489204052835703e-05, 3.904631012119353e-05, 5.320057971403003e-05, 6.735484930686653e-05, 8.150911889970303e-05, 9.566338849253953e-05, 0.00010981765808537602, 0.00012397192767821252, 0.00013812619727104902, 0.00015228046686388552, 0.00016643473645672202, 0.00018058900604955852, 0.00019474327564239502, 0.00020889754523523152, 0.00022305181482806802, 0.00023720608442090452, 0.000251360354013741, 0.0002655146236065775, 0.000279668893199414, 0.0002938231627922505, 0.000307977432385087, 0.0003221317019779235, 0.00033628597157076, 0.0003504402411635965, 0.000364594510756433, 0.0003787487803492695, 0.000392903049942106, 0.0004070573195349425, 0.000421211589127779, 0.0004353658587206155, 0.000449520128313452, 0.0004636743979062885]}, "gradients/graph_1density_fn.0.bias": {"_type": "histogram", "values": [1.0], "bins": [3.9888735045678914e-05, 3.9888735045678914e-05]}, "gradients/graph_1density_fn.0.weight": {"_type": "histogram", "values": [1.0, 2.0, 2.0, 1.0, 1.0, 0.0, 1.0, 0.0, 3.0, 1.0, 2.0, 6.0, 2.0, 2.0, 4.0, 1.0, 7.0, 3.0, 4.0, 1.0, 3.0, 1.0, 0.0, 1.0, 2.0, 3.0, 1.0, 0.0, 0.0, 4.0, 0.0, 2.0, 0.0, 3.0, 1.0, 0.0, 2.0, 0.0, 3.0, 2.0, 0.0, 3.0, 3.0, 1.0, 2.0, 0.0, 3.0, 4.0, 3.0, 3.0, 4.0, 4.0, 6.0, 2.0, 1.0, 3.0, 2.0, 4.0, 2.0, 1.0, 1.0, 0.0, 3.0, 1.0], "bins": [-0.00016207995940931141, -0.00015707769489381462, -0.0001520754158264026, -0.00014707315131090581, -0.0001420708722434938, -0.000137068607727997, -0.00013206634321250021, -0.0001270640641450882, -0.0001220617996295914, -0.000117059527838137, -0.0001120572560466826, -0.0001070549915311858, -0.0001020527197397314, -9.7050447948277e-05, -9.20481834327802e-05, -8.70459116413258e-05, -8.20436398498714e-05, -7.704136805841699e-05, -7.203909626696259e-05, -6.70368317514658e-05, -6.203455996001139e-05, -5.703228816855699e-05, -5.203002001508139e-05, -4.702775186160579e-05, -4.202548007015139e-05, -3.7023208278696984e-05, -3.2020940125221387e-05, -2.7018670152756386e-05, -2.2016400180291384e-05, -1.7014130207826383e-05, -1.2011860235361382e-05, -7.009590262896381e-06, -2.0073202904313803e-06, 2.9949496820336208e-06, 7.997219654498622e-06, 1.2999489626963623e-05, 1.8001759599428624e-05, 2.3004029571893625e-05, 2.8006299544358626e-05, 3.3008567697834224e-05, 3.801083948928863e-05, 4.301311128074303e-05, 4.801537943421863e-05, 5.301764758769423e-05, 5.801991937914863e-05, 6.302219117060304e-05, 6.802445568609983e-05, 7.302672747755423e-05, 7.802899926900864e-05, 8.303127106046304e-05, 8.803354285191745e-05, 9.303580736741424e-05, 9.803807915886864e-05, 0.00010304035095032305, 0.00010804261546581984, 0.00011304488725727424, 0.00011804715904872864, 0.00012304942356422544, 0.00012805170263163745, 0.00013305396714713424, 0.00013805623166263103, 0.00014305851073004305, 0.00014806077524553984, 0.00015306305431295186, 0.00015806531882844865]}, "gradients/graph_1feature_fn.4.bias": {"_type": "histogram", "values": [1.0, 0.0, 0.0, 0.0, 0.0, 1.0, 0.0, 0.0, 0.0, 0.0, 3.0, 0.0, 3.0, 2.0, 8.0, 7.0, 10.0, 15.0, 12.0, 16.0, 14.0, 10.0, 7.0, 3.0, 8.0, 0.0, 3.0, 1.0, 0.0, 0.0, 0.0, 1.0, 0.0, 2.0, 0.0, 0.0, 0.0, 0.0, 0.0, 0.0, 0.0, 0.0, 0.0, 0.0, 0.0, 0.0, 0.0, 0.0, 0.0, 0.0, 0.0, 0.0, 0.0, 0.0, 0.0, 0.0, 0.0, 0.0, 0.0, 0.0, 0.0, 0.0, 0.0, 1.0], "bins": [-0.00014209793880581856, -0.00013461554772220552, -0.00012713314208667725, -0.00011965075100306422, -0.00011216835264349356, -0.00010468595428392291, -9.720355592435226e-05, -8.97211575647816e-05, -8.223876648116857e-05, -7.475636812159792e-05, -6.727396976202726e-05, -5.979157140245661e-05, -5.230917304288596e-05, -4.4826778321294114e-05, -3.734437996172346e-05, -2.9861983421142213e-05, -2.2379586880560964e-05, -1.4897190339979716e-05, -7.414792889903765e-06, 6.760410542483442e-08, 7.550001100753434e-06, 1.5032397641334683e-05, 2.2514796000905335e-05, 2.9997192541486584e-05, 3.747958908206783e-05, 4.4961987441638485e-05, 5.244438216323033e-05, 5.992678052280098e-05, 6.740917888237163e-05, 7.489157724194229e-05, 8.237396832555532e-05, 8.985636668512598e-05, 9.733876504469663e-05, 0.00010482116340426728, 0.00011230356176383793, 0.00011978595284745097, 0.00012726835848297924, 0.00013475074956659228, 0.00014223314065020531, 0.00014971554628573358, 0.00015719793736934662, 0.00016468034300487489, 0.00017216273408848792, 0.00017964512517210096, 0.00018712753080762923, 0.00019460992189124227, 0.00020209232752677053, 0.00020957471861038357, 0.00021705712424591184, 0.00022453951532952487, 0.0002320219064131379, 0.00023950431204866618, 0.00024698671768419445, 0.0002544691087678075, 0.0002619514998514205, 0.00026943389093503356, 0.0002769162820186466, 0.0002843987022060901, 0.00029188109328970313, 0.00029936348437331617, 0.0003068458754569292, 0.00031432826654054224, 0.00032181068672798574, 0.0003292930778115988, 0.0003367754688952118]}, "gradients/graph_1feature_fn.4.weight": {"_type": "histogram", "values": [2.0, 0.0, 2.0, 2.0, 4.0, 9.0, 6.0, 6.0, 11.0, 16.0, 20.0, 23.0, 45.0, 73.0, 193.0, 373.0, 732.0, 1238.0, 9677.0, 1866.0, 823.0, 509.0, 317.0, 145.0, 74.0, 41.0, 36.0, 24.0, 18.0, 23.0, 7.0, 6.0, 8.0, 1.0, 1.0, 2.0, 1.0, 1.0, 3.0, 2.0, 5.0, 1.0, 4.0, 3.0, 4.0, 1.0, 1.0, 2.0, 3.0, 3.0, 1.0, 6.0, 1.0, 1.0, 2.0, 1.0, 1.0, 0.0, 0.0, 1.0, 1.0, 0.0, 0.0, 2.0], "bins": [-0.00024083544849418104, -0.000227981130592525, -0.00021512679813895375, -0.00020227246568538249, -0.00018941814778372645, -0.00017656382988207042, -0.00016370949742849916, -0.0001508551649749279, -0.00013800084707327187, -0.00012514652917161584, -0.00011229219671804458, -9.943787154043093e-05, -8.658354636281729e-05, -7.372922118520364e-05, -6.0874896007589996e-05, -4.802057082997635e-05, -3.5166245652362704e-05, -2.231192047474906e-05, -9.457595297135413e-06, 3.396729880478233e-06, 1.625105505809188e-05, 2.9105380235705525e-05, 4.195970541331917e-05, 5.4814030590932816e-05, 6.766835576854646e-05, 8.052268094616011e-05, 9.337700612377375e-05, 0.0001062313313013874, 0.00011908565647900105, 0.00013193997438065708, 0.00014479430683422834, 0.0001576486392877996, 0.00017050292808562517, 0.0001833572459872812, 0.00019621157844085246, 0.00020906591089442372, 0.00022192022879607975, 0.00023477454669773579, 0.0002476288937032223, 0.0002604832116048783, 0.00027333752950653434, 0.00028619184740819037, 0.0002990461653098464, 0.0003119005123153329, 0.0003247548302169889, 0.00033760914811864495, 0.00035046349512413144, 0.00036331781302578747, 0.0003761721309274435, 0.00038902644882909954, 0.00040188076673075557, 0.00041473511373624206, 0.0004275894316378981, 0.0004404437495395541, 0.0004532980965450406, 0.00046615241444669664, 0.00047900673234835267, 0.0004918610793538392, 0.0005047153681516647, 0.0005175697151571512, 0.0005304240621626377, 0.0005432783509604633, 0.0005561326979659498, 0.0005689869867637753, 0.0005818413337692618]}, "gradients/graph_1feature_fn.2.bias": {"_type": "histogram", "values": [1.0, 0.0, 0.0, 0.0, 0.0, 0.0, 0.0, 0.0, 0.0, 0.0, 0.0, 0.0, 0.0, 0.0, 0.0, 0.0, 0.0, 0.0, 0.0, 0.0, 0.0, 0.0, 0.0, 0.0, 0.0, 0.0, 1.0, 0.0, 1.0, 1.0, 1.0, 0.0, 0.0, 1.0, 2.0, 0.0, 2.0, 2.0, 2.0, 2.0, 4.0, 2.0, 4.0, 1.0, 6.0, 3.0, 47.0, 13.0, 6.0, 2.0, 6.0, 1.0, 4.0, 1.0, 2.0, 3.0, 3.0, 0.0, 1.0, 0.0, 2.0, 0.0, 0.0, 1.0], "bins": [-0.0003582061326596886, -0.0003505726344883442, -0.00034293916542083025, -0.00033530566724948585, -0.00032767216907814145, -0.0003200387000106275, -0.0003124052018392831, -0.0003047717036679387, -0.00029713823460042477, -0.00028950473642908037, -0.00028187123825773597, -0.000274237769190222, -0.0002666042710188776, -0.0002589707728475332, -0.0002513373037800193, -0.00024370380560867488, -0.0002360703219892457, -0.00022843683836981654, -0.00022080334019847214, -0.00021316985657904297, -0.0002055363729596138, -0.0001979028747882694, -0.00019026939116884023, -0.00018263590754941106, -0.00017500240937806666, -0.0001673689257586375, -0.00015973544213920832, -0.00015210195851977915, -0.00014446846034843475, -0.00013683497672900558, -0.0001292014931095764, -0.00012156800221418962, -0.00011393451131880283, -0.00010630102042341605, -9.866753680398688e-05, -9.103404590860009e-05, -8.340056228917092e-05, -7.576707139378414e-05, -6.813358049839735e-05, -6.050009324098937e-05, -5.2866605983581394e-05, -4.5233118726173416e-05, -3.759963146876544e-05, -2.9966140573378652e-05, -2.2332653315970674e-05, -1.4699165149067994e-05, -7.065676982165314e-06, 5.678111847373657e-07, 8.201299351640046e-06, 1.5834786609048024e-05, 2.3468275685445406e-05, 3.110176476184279e-05, 3.8735252019250765e-05, 4.6368739276658744e-05, 5.400223017204553e-05, 6.16357137914747e-05, 6.926920468686149e-05, 7.690269558224827e-05, 8.453617920167744e-05, 9.216967009706423e-05, 9.980316099245101e-05, 0.00010743664461188018, 0.00011507013550726697, 0.00012270362640265375, 0.00013033711002208292]}, "gradients/graph_1feature_fn.2.weight": {"_type": "histogram", "values": [1.0, 0.0, 0.0, 1.0, 0.0, 1.0, 0.0, 3.0, 2.0, 1.0, 0.0, 4.0, 4.0, 2.0, 3.0, 4.0, 3.0, 2.0, 3.0, 3.0, 2.0, 2.0, 0.0, 4.0, 1.0, 4.0, 3.0, 2.0, 5.0, 11.0, 15.0, 25.0, 40.0, 36.0, 44.0, 54.0, 67.0, 71.0, 95.0, 123.0, 191.0, 216.0, 318.0, 339.0, 591.0, 899.0, 9983.0, 1609.0, 577.0, 345.0, 227.0, 137.0, 104.0, 78.0, 42.0, 24.0, 20.0, 9.0, 17.0, 7.0, 4.0, 3.0, 2.0, 1.0], "bins": [-0.00029868140700273216, -0.0002922901476267725, -0.0002858988882508129, -0.0002795075997710228, -0.00027311634039506316, -0.0002667250810191035, -0.0002603338216431439, -0.0002539425331633538, -0.00024755127378739417, -0.00024116001441143453, -0.00023476874048355967, -0.00022837748110760003, -0.00022198620717972517, -0.00021559494780376554, -0.00020920367387589067, -0.00020281241449993104, -0.00019642114057205617, -0.00019002988119609654, -0.0001836386218201369, -0.00017724734789226204, -0.0001708560885163024, -0.00016446481458842754, -0.0001580735552124679, -0.00015168228128459305, -0.0001452910219086334, -0.00013889974798075855, -0.0001325084886047989, -0.00012611721467692405, -0.00011972595530096442, -0.00011333468864904717, -0.00010694342199712992, -0.00010055215534521267, -9.416088869329542e-05, -8.776962204137817e-05, -8.137835538946092e-05, -7.498708873754367e-05, -6.859582208562642e-05, -6.220455543370917e-05, -5.581329241977073e-05, -4.9422025767853484e-05, -4.3030759115936235e-05, -3.6639492464018986e-05, -3.0248225812101737e-05, -2.385696097917389e-05, -1.7465694327256642e-05, -1.1074427675339393e-05, -4.683161932916846e-06, 1.708104264253052e-06, 8.09937046142295e-06, 1.4490637113340199e-05, 2.0881903765257448e-05, 2.7273168598185293e-05, 3.3664437069091946e-05, 4.005570008303039e-05, 4.644696673494764e-05, 5.2838233386864886e-05, 5.9229500038782135e-05, 6.562076305272058e-05, 7.201202970463783e-05, 7.840329635655507e-05, 8.479456300847232e-05, 9.118582966038957e-05, 9.757709631230682e-05, 0.00010396836296422407, 0.00011035962961614132]}, "gradients/graph_1feature_fn.0.bias": {"_type": "histogram", "values": [1.0, 0.0, 0.0, 0.0, 0.0, 0.0, 0.0, 0.0, 0.0, 0.0, 0.0, 0.0, 0.0, 0.0, 0.0, 1.0, 0.0, 0.0, 1.0, 0.0, 1.0, 1.0, 0.0, 0.0, 2.0, 3.0, 2.0, 2.0, 1.0, 1.0, 4.0, 3.0, 5.0, 7.0, 7.0, 4.0, 6.0, 5.0, 5.0, 4.0, 1.0, 6.0, 4.0, 7.0, 7.0, 9.0, 6.0, 3.0, 4.0, 1.0, 1.0, 3.0, 2.0, 0.0, 3.0, 1.0, 0.0, 0.0, 0.0, 1.0, 0.0, 0.0, 2.0, 1.0], "bins": [-0.0002520260459277779, -0.00024633511202409863, -0.00024064416356850415, -0.00023495321511290967, -0.00022926228120923042, -0.00022357134730555117, -0.0002178803988499567, -0.0002121894503943622, -0.00020649851649068296, -0.0002008075825870037, -0.00019511663413140923, -0.00018942568567581475, -0.0001837347517721355, -0.00017804381786845624, -0.00017235286941286176, -0.00016666192095726728, -0.00016097098705358803, -0.00015528005314990878, -0.0001495891046943143, -0.00014389815623871982, -0.00013820722233504057, -0.00013251628843136132, -0.00012682533997576684, -0.00012113439879612997, -0.0001154434576164931, -0.00010975251643685624, -0.00010406157525721937, -9.837063407758251e-05, -9.267969289794564e-05, -8.698875171830878e-05, -8.129781053867191e-05, -7.560686935903504e-05, -6.991592090344056e-05, -6.42249797238037e-05, -5.853403854416683e-05, -5.284309736452997e-05, -4.71521561848931e-05, -4.1461215005256236e-05, -3.577027382561937e-05, -3.0079332645982504e-05, -2.4388391466345638e-05, -1.8697450286708772e-05, -1.3006509107071906e-05, -7.3155679274350405e-06, -1.6246267477981746e-06, 4.066314431838691e-06, 9.757255611475557e-06, 1.5448196791112423e-05, 2.113913797074929e-05, 2.6830079150386155e-05, 3.252102033002302e-05, 3.8211961509659886e-05, 4.390290268929675e-05, 4.959384386893362e-05, 5.5284785048570484e-05, 6.097572622820735e-05, 6.666666740784422e-05, 7.235760858748108e-05, 7.804854976711795e-05, 8.373949094675481e-05, 8.943043212639168e-05, 9.512137330602854e-05, 0.00010081231448566541, 0.00010650325566530228, 0.00011219419684493914]}, "gradients/graph_1feature_fn.0.weight": {"_type": "histogram", "values": [2.0, 1.0, 1.0, 0.0, 1.0, 0.0, 1.0, 0.0, 0.0, 1.0, 0.0, 0.0, 0.0, 2.0, 4.0, 0.0, 2.0, 7.0, 8.0, 4.0, 4.0, 16.0, 18.0, 28.0, 22.0, 29.0, 42.0, 59.0, 92.0, 134.0, 179.0, 239.0, 399.0, 602.0, 934.0, 1601.0, 2500.0, 11420.0, 2787.0, 1268.0, 747.0, 458.0, 278.0, 176.0, 125.0, 86.0, 62.0, 23.0, 14.0, 15.0, 12.0, 13.0, 11.0, 12.0, 5.0, 0.0, 0.0, 2.0, 0.0, 1.0, 0.0, 0.0, 0.0, 1.0], "bins": [-0.0002488622267264873, -0.00024228828260675073, -0.0002357143530389294, -0.00022914040891919285, -0.0002225664647994563, -0.00021599253523163497, -0.00020941859111189842, -0.00020284464699216187, -0.00019627070287242532, -0.000189696773304604, -0.00018312282918486744, -0.0001765488850651309, -0.00016997495549730957, -0.000163401011377573, -0.00015682706725783646, -0.00015025313769001514, -0.00014367919357027858, -0.00013710524945054203, -0.0001305313198827207, -0.00012395737576298416, -0.0001173834316432476, -0.00011080949479946867, -0.00010423555795568973, -9.766161383595318e-05, -9.108767699217424e-05, -8.45137401483953e-05, -7.793979602865875e-05, -7.136585918487981e-05, -6.479192234110087e-05, -5.821797822136432e-05, -5.164404137758538e-05, -4.5070100895827636e-05, -3.849617496598512e-05, -3.1922234484227374e-05, -2.5348295821459033e-05, -1.877435715869069e-05, -1.2200416676932946e-05, -5.6264771046699025e-06, 9.474624675931409e-07, 7.521402039856184e-06, 1.4095341612119228e-05, 2.0669282093876973e-05, 2.7243220756645314e-05, 3.3817159419413656e-05, 4.03910999011714e-05, 4.6965040382929146e-05, 5.3538977226708084e-05, 6.011291770846583e-05, 6.668685819022357e-05, 7.326079503400251e-05, 7.983473915373906e-05, 8.6408675997518e-05, 9.298262011725456e-05, 9.95565569610335e-05, 0.00010613049380481243, 0.00011270443792454898, 0.00011927837476832792, 0.00012585231161210686, 0.0001324262557318434, 0.00013900019985157996, 0.0001455741294194013, 0.00015214807353913784, 0.0001587220176588744, 0.00016529594722669572, 0.00017186989134643227]}, "gradients/graph_1mlp.6.bias": {"_type": "histogram", "values": [1.0, 1.0, 0.0, 0.0, 0.0, 0.0, 0.0, 0.0, 0.0, 0.0, 0.0, 0.0, 0.0, 0.0, 0.0, 1.0, 0.0, 0.0, 0.0, 1.0, 0.0, 1.0, 2.0, 0.0, 0.0, 1.0, 1.0, 2.0, 4.0, 3.0, 2.0, 2.0, 1.0, 0.0, 2.0, 1.0, 3.0, 1.0, 5.0, 1.0, 0.0, 2.0, 3.0, 0.0, 2.0, 1.0, 1.0, 3.0, 52.0, 11.0, 4.0, 2.0, 1.0, 1.0, 1.0, 2.0, 0.0, 1.0, 1.0, 0.0, 1.0, 0.0, 2.0, 1.0], "bins": [-0.0004472876898944378, -0.0004381584585644305, -0.0004290291981305927, -0.0004198999668005854, -0.0004107707354705781, -0.00040164150414057076, -0.000392512243706733, -0.0003833830123767257, -0.00037425378104671836, -0.0003651245206128806, -0.0003559952892828733, -0.00034686605795286596, -0.00033773682662285864, -0.00032860756618902087, -0.00031947833485901356, -0.00031034910352900624, -0.00030121987219899893, -0.00029209061176516116, -0.00028296138043515384, -0.00027383214910514653, -0.00026470288867130876, -0.00025557365734130144, -0.0002464444260112941, -0.00023731518012937158, -0.00022818593424744904, -0.00021905670291744173, -0.00020992745703551918, -0.00020079822570551187, -0.00019166897982358932, -0.000182539748493582, -0.00017341050261165947, -0.00016428127128165215, -0.00015515203995164484, -0.0001460227940697223, -0.00013689356273971498, -0.00012776431685779244, -0.00011863508552778512, -0.00010950583964586258, -0.00010037660103989765, -9.124736243393272e-05, -8.211812382796779e-05, -7.298888522200286e-05, -6.385964661603794e-05, -5.47304043720942e-05, -4.560116576612927e-05, -3.647192716016434e-05, -2.734268673521001e-05, -1.8213446310255677e-05, -9.084207704290748e-06, 4.5031811168882996e-08, 9.174271326628514e-06, 1.8303511751582846e-05, 2.7432750357547775e-05, 3.6561988963512704e-05, 4.569123120745644e-05, 5.482046981342137e-05, 6.39497084193863e-05, 7.307894702535123e-05, 8.220818563131616e-05, 9.133742423728108e-05, 0.00010046667011920363, 0.00010959590872516856, 0.00011872514733113348, 0.0001278543786611408, 0.00013698362454306334]}, "gradients/graph_1mlp.6.weight": {"_type": "histogram", "values": [2.0, 2.0, 0.0, 1.0, 1.0, 0.0, 1.0, 0.0, 2.0, 1.0, 0.0, 0.0, 1.0, 1.0, 0.0, 4.0, 0.0, 0.0, 0.0, 4.0, 2.0, 2.0, 3.0, 4.0, 5.0, 4.0, 9.0, 3.0, 6.0, 8.0, 9.0, 12.0, 15.0, 11.0, 18.0, 33.0, 32.0, 38.0, 48.0, 61.0, 92.0, 81.0, 96.0, 145.0, 213.0, 297.0, 426.0, 621.0, 684.0, 806.0, 10819.0, 528.0, 430.0, 310.0, 192.0, 105.0, 77.0, 43.0, 37.0, 16.0, 11.0, 7.0, 3.0, 2.0], "bins": [-0.00030634808354079723, -0.0003002965822815895, -0.0002942450810223818, -0.00028819357976317406, -0.00028214207850396633, -0.0002760905772447586, -0.0002700390759855509, -0.00026398757472634315, -0.00025793607346713543, -0.0002518845722079277, -0.00024583307094872, -0.00023978158424142748, -0.00023373008298221976, -0.00022767858172301203, -0.0002216270804638043, -0.00021557557920459658, -0.00020952407794538885, -0.00020347257668618113, -0.0001974210754269734, -0.00019136957416776568, -0.00018531807290855795, -0.00017926657164935023, -0.0001732150703901425, -0.00016716356913093477, -0.00016111208242364228, -0.00015506058116443455, -0.00014900907990522683, -0.0001429575786460191, -0.00013690607738681138, -0.00013085457612760365, -0.00012480307486839592, -0.0001187515736091882, -0.0001127000869018957, -0.00010664858564268798, -0.00010059708438348025, -9.454558312427253e-05, -8.84940818650648e-05, -8.244258788181469e-05, -7.639108662260696e-05, -7.033958536339924e-05, -6.428808410419151e-05, -5.8236582844983786e-05, -5.218508158577606e-05, -4.613358396454714e-05, -4.008208270533942e-05, -3.403058144613169e-05, -2.797908200591337e-05, -2.1927582565695047e-05, -1.5876081306487322e-05, -9.824580956774298e-06, -3.7730806070612743e-06, 2.2784197426517494e-06, 8.329920092364773e-06, 1.4381420442077797e-05, 2.043292079179082e-05, 2.6484420232009143e-05, 3.253592149121687e-05, 3.8587422750424594e-05, 4.463892400963232e-05, 5.069042163086124e-05, 5.674192289006896e-05, 6.279342051129788e-05, 6.884492177050561e-05, 7.489642302971333e-05, 8.094792428892106e-05]}, "gradients/graph_1mlp.4.bias": {"_type": "histogram", "values": [1.0, 0.0, 0.0, 0.0, 0.0, 0.0, 0.0, 0.0, 0.0, 3.0, 2.0, 1.0, 2.0, 0.0, 2.0, 1.0, 0.0, 2.0, 1.0, 1.0, 2.0, 3.0, 2.0, 1.0, 3.0, 3.0, 1.0, 2.0, 2.0, 2.0, 2.0, 1.0, 2.0, 0.0, 0.0, 3.0, 37.0, 2.0, 3.0, 1.0, 4.0, 2.0, 3.0, 4.0, 4.0, 2.0, 5.0, 2.0, 2.0, 1.0, 1.0, 2.0, 0.0, 0.0, 1.0, 0.0, 3.0, 1.0, 1.0, 0.0, 0.0, 1.0, 0.0, 1.0], "bins": [-0.0006834283121861517, -0.0006648415583185852, -0.0006462548626586795, -0.0006276681087911129, -0.0006090813549235463, -0.0005904946592636406, -0.0005719079053960741, -0.0005533211515285075, -0.0005347344558686018, -0.0005161477020010352, -0.0004975609481334686, -0.0004789742233697325, -0.00046038749860599637, -0.0004418007447384298, -0.00042321401997469366, -0.00040462726610712707, -0.00038604054134339094, -0.0003674538165796548, -0.00034886706271208823, -0.0003302803379483521, -0.0003116935840807855, -0.0002931068593170494, -0.00027452013455331326, -0.00025593338068574667, -0.00023734665592201054, -0.00021875991660635918, -0.00020017317729070783, -0.0001815864525269717, -0.00016299971321132034, -0.00014441297389566898, -0.00012582624913193285, -0.0001072395098162815, -8.865271229296923e-05, -7.006597297731787e-05, -5.147924093762413e-05, -3.2892505259951577e-05, -1.4305769582279027e-05, 4.2809660953935236e-06, 2.2867701773066074e-05, 4.1454437450738624e-05, 6.0041173128411174e-05, 7.862791244406253e-05, 9.721464448375627e-05, 0.00011580137652345002, 0.00013438811583910137, 0.00015297485515475273, 0.00017156157991848886, 0.00019014831923414022, 0.00020873505854979157, 0.00022732179786544293, 0.0002459085371810943, 0.0002644952619448304, 0.000283082015812397, 0.00030166874057613313, 0.00032025546533986926, 0.00033884221920743585, 0.000357428943971172, 0.0003760156687349081, 0.0003946024226024747, 0.0004131891473662108, 0.00043177587212994695, 0.00045036262599751353, 0.00046894935076124966, 0.00048753610462881625, 0.0005061228293925524]}, "gradients/graph_1mlp.4.weight": {"_type": "histogram", "values": [1.0, 0.0, 0.0, 0.0, 0.0, 1.0, 1.0, 0.0, 1.0, 0.0, 1.0, 0.0, 3.0, 3.0, 3.0, 5.0, 6.0, 4.0, 11.0, 19.0, 20.0, 27.0, 35.0, 38.0, 53.0, 74.0, 110.0, 133.0, 167.0, 231.0, 290.0, 397.0, 551.0, 876.0, 1497.0, 7434.0, 1664.0, 894.0, 575.0, 327.0, 245.0, 174.0, 138.0, 82.0, 72.0, 44.0, 33.0, 33.0, 31.0, 19.0, 19.0, 10.0, 3.0, 5.0, 5.0, 5.0, 4.0, 3.0, 2.0, 0.0, 1.0, 1.0, 0.0, 3.0], "bins": [-0.0004491339495871216, -0.0004365465138107538, -0.00042395907803438604, -0.00041137164225801826, -0.00039878420648165047, -0.0003861967707052827, -0.0003736093349289149, -0.0003610218991525471, -0.0003484344924800098, -0.000335847056703642, -0.00032325962092727423, -0.00031067218515090644, -0.00029808474937453866, -0.0002854973135981709, -0.0002729098778218031, -0.0002603224420454353, -0.0002477350062690675, -0.00023514757049269974, -0.00022256013471633196, -0.00020997269893996418, -0.0001973852631635964, -0.00018479784193914384, -0.00017221040616277605, -0.00015962297038640827, -0.00014703553461004049, -0.0001344480988336727, -0.00012186066305730492, -0.00010927323455689475, -9.668579878052697e-05, -8.409836300415918e-05, -7.151093450374901e-05, -5.892349872738123e-05, -4.633603384718299e-05, -3.3748598070815206e-05, -2.116116593242623e-05, -8.573731975047849e-06, 4.013701982330531e-06, 1.660113593970891e-05, 2.918856989708729e-05, 4.177600203547627e-05, 5.436343781184405e-05, 6.695087358821183e-05, 7.953830936457962e-05, 9.212573786498979e-05, 0.00010471317364135757, 0.00011730060941772535, 0.00012988803791813552, 0.0001424754736945033, 0.0001550629094708711, 0.00016765034524723887, 0.00018023778102360666, 0.00019282521679997444, 0.00020541265257634223, 0.00021800007380079478, 0.00023058750957716256, 0.00024317494535353035, 0.0002557623665779829, 0.0002683498023543507, 0.00028093723813071847, 0.00029352467390708625, 0.00030611210968345404, 0.0003186995454598218, 0.0003312869812361896, 0.0003438744170125574, 0.00035646185278892517]}, "gradients/graph_1mlp.2.bias": {"_type": "histogram", "values": [1.0, 1.0, 0.0, 0.0, 0.0, 0.0, 0.0, 0.0, 1.0, 4.0, 5.0, 7.0, 8.0, 8.0, 6.0, 7.0, 6.0, 9.0, 12.0, 7.0, 4.0, 6.0, 6.0, 5.0, 4.0, 3.0, 4.0, 0.0, 2.0, 2.0, 1.0, 1.0, 0.0, 2.0, 1.0, 0.0, 0.0, 1.0, 1.0, 0.0, 0.0, 0.0, 1.0, 0.0, 0.0, 0.0, 0.0, 0.0, 0.0, 0.0, 0.0, 0.0, 0.0, 0.0, 1.0, 0.0, 0.0, 0.0, 0.0, 0.0, 0.0, 0.0, 0.0, 1.0], "bins": [-0.0014011547900736332, -0.0013268549228087068, -0.0012525550555437803, -0.0011782553046941757, -0.0011039554374292493, -0.0010296555701643229, -0.0009553557028993964, -0.0008810558938421309, -0.0008067560265772045, -0.000732456159312278, -0.0006581563502550125, -0.0005838564829900861, -0.0005095566157251596, -0.0004352568066678941, -0.0003609569394029677, -0.0002866571012418717, -0.00021235726308077574, -0.00013805742491967976, -6.375757220666856e-05, 1.0542273230385035e-05, 8.484211866743863e-05, 0.0001591419568285346, 0.0002334418095415458, 0.000307741662254557, 0.000382041500415653, 0.00045634133857674897, 0.0005306411767378449, 0.0006049410440027714, 0.0006792409112676978, 0.0007535407203249633, 0.0008278405875898898, 0.0009021403966471553, 0.0009764402639120817, 0.0010507401311770082, 0.0011250399984419346, 0.0011993397492915392, 0.0012736396165564656, 0.001347939483821392, 0.0014222393510863185, 0.001496539218351245, 0.0015708389692008495, 0.001645138836465776, 0.0017194387037307024, 0.0017937385709956288, 0.0018680384382605553, 0.0019423383055254817, 0.002016638172790408, 0.0020909379236400127, 0.002165237907320261, 0.0022395376581698656, 0.00231383740901947, 0.0023881373926997185, 0.002462437143549323, 0.0025367371272295713, 0.002611036878079176, 0.0026853366289287806, 0.002759636612609029, 0.0028339363634586334, 0.0029082363471388817, 0.0029825360979884863, 0.003056835848838091, 0.003131135832518339, 0.0032054355833679438, 0.003279735567048192, 0.0033540353178977966]}, "gradients/graph_1mlp.2.weight": {"_type": "histogram", "values": [2.0, 1.0, 1.0, 2.0, 4.0, 5.0, 4.0, 5.0, 5.0, 10.0, 7.0, 11.0, 20.0, 19.0, 33.0, 33.0, 85.0, 158.0, 226.0, 408.0, 729.0, 1592.0, 5203.0, 4644.0, 1266.0, 652.0, 383.0, 236.0, 155.0, 104.0, 84.0, 54.0, 48.0, 30.0, 27.0, 25.0, 16.0, 11.0, 8.0, 8.0, 7.0, 8.0, 9.0, 6.0, 2.0, 3.0, 5.0, 3.0, 2.0, 1.0, 2.0, 4.0, 8.0, 1.0, 2.0, 0.0, 0.0, 0.0, 2.0, 1.0, 1.0, 2.0, 0.0, 1.0], "bins": [-0.00137139402795583, -0.0013118411879986525, -0.001252288231626153, -0.0011927353916689754, -0.0011331824352964759, -0.0010736295953392982, -0.0010140766389667988, -0.0009545237990096211, -0.0008949709008447826, -0.000835418002679944, -0.0007758651045151055, -0.0007163122063502669, -0.0006567593663930893, -0.0005972064682282507, -0.0005376535700634122, -0.00047810067189857364, -0.0004185477737337351, -0.00035899487556889653, -0.000299441977404058, -0.00023988910834304988, -0.00018033621017821133, -0.00012078331928933039, -6.123042840044945e-05, -1.6775375115685165e-06, 5.787535337731242e-05, 0.00011742824426619336, 0.0001769811351550743, 0.00023653401876799762, 0.0002960869169328362, 0.00035563981509767473, 0.0004151926841586828, 0.0004747455823235214, 0.0005342985969036818, 0.0005938514950685203, 0.0006534043932333589, 0.0007129572913981974, 0.000772510189563036, 0.0008320630295202136, 0.0008916159276850522, 0.0009511688258498907, 0.0010107217822223902, 0.0010702746221795678, 0.0011298274621367455, 0.001189380418509245, 0.0012489332584664226, 0.001308486214838922, 0.0013680390547960997, 0.0014275920111685991, 0.0014871448511257768, 0.0015466976910829544, 0.0016062506474554539, 0.0016658034874126315, 0.001725356443785131, 0.0017849092837423086, 0.001844462240114808, 0.0019040150800719857, 0.0019635679200291634, 0.002023120876401663, 0.0020826738327741623, 0.002142226556316018, 0.0022017795126885176, 0.002261332469061017, 0.0023208854254335165, 0.0023804381489753723, 0.0024399911053478718]}, "gradients/graph_1mlp.0.bias": {"_type": "histogram", "values": [1.0, 1.0, 1.0, 3.0, 7.0, 2.0, 4.0, 7.0, 4.0, 6.0, 6.0, 13.0, 10.0, 10.0, 10.0, 5.0, 8.0, 2.0, 6.0, 6.0, 3.0, 3.0, 0.0, 1.0, 1.0, 2.0, 1.0, 1.0, 0.0, 0.0, 0.0, 3.0, 0.0, 0.0, 0.0, 0.0, 0.0, 0.0, 0.0, 0.0, 0.0, 0.0, 0.0, 0.0, 0.0, 0.0, 0.0, 0.0, 0.0, 0.0, 0.0, 0.0, 0.0, 0.0, 0.0, 0.0, 0.0, 0.0, 0.0, 0.0, 0.0, 0.0, 0.0, 1.0], "bins": [-0.0017407358391210437, -0.0015994389541447163, -0.0014581420691683888, -0.0013168451841920614, -0.001175548299215734, -0.0010342514142394066, -0.0008929545292630792, -0.0007516576442867517, -0.0006103607593104243, -0.0004690638743340969, -0.0003277669893577695, -0.00018647010438144207, -4.517321940511465e-05, 9.612366557121277e-05, 0.0002374205505475402, 0.0003787174355238676, 0.000520014320500195, 0.0006613112054765224, 0.0008026080904528499, 0.0009439049754291773, 0.0010852018604055047, 0.0012264987453818321, 0.0013677956303581595, 0.001509092515334487, 0.0016503894003108144, 0.0017916862852871418, 0.0019329831702634692, 0.0020742800552397966, 0.0022155768238008022, 0.0023568738251924515, 0.0024981708265841007, 0.0026394675951451063, 0.002780764363706112, 0.002922061365097761, 0.0030633581336587667, 0.0032046549022197723, 0.0033459519036114216, 0.003487248905003071, 0.0036285456735640764, 0.003769842442125082, 0.003911139443516731, 0.0040524364449083805, 0.00419373344630003, 0.004335029982030392, 0.004476326983422041, 0.00461762398481369, 0.004758920520544052, 0.004900217521935701, 0.005041514523327351, 0.005182811524719, 0.005324108526110649, 0.005465405061841011, 0.00560670206323266, 0.0057479990646243095, 0.0058892956003546715, 0.006030592601746321, 0.00617188960313797, 0.006313186604529619, 0.0064544836059212685, 0.00659578014165163, 0.00673707714304328, 0.006878374144434929, 0.007019670680165291, 0.00716096768155694, 0.007302264682948589]}, "gradients/graph_1mlp.0.weight": {"_type": "histogram", "values": [1.0, 0.0, 1.0, 0.0, 0.0, 0.0, 0.0, 1.0, 1.0, 2.0, 2.0, 4.0, 4.0, 9.0, 14.0, 17.0, 23.0, 85.0, 113.0, 204.0, 351.0, 785.0, 1868.0, 2403.0, 1051.0, 446.0, 218.0, 170.0, 85.0, 68.0, 31.0, 19.0, 29.0, 10.0, 10.0, 7.0, 13.0, 2.0, 1.0, 1.0, 2.0, 0.0, 1.0, 1.0, 0.0, 0.0, 0.0, 0.0, 1.0, 0.0, 0.0, 0.0, 0.0, 3.0, 1.0, 0.0, 0.0, 1.0, 2.0, 1.0, 1.0, 0.0, 0.0, 1.0], "bins": [-0.004555372521281242, -0.004358460195362568, -0.004161547403782606, -0.003964635077863932, -0.003767722751945257, -0.003570810193195939, -0.0033738978672772646, -0.0031769853085279465, -0.002980072982609272, -0.002783160423859954, -0.0025862478651106358, -0.0023893355391919613, -0.002192422980442643, -0.0019955106545239687, -0.0017985980957746506, -0.0016016856534406543, -0.001404773211106658, -0.0012078607687726617, -0.0010109483264386654, -0.0008140358258970082, -0.0006171233835630119, -0.0004202109412290156, -0.00022329846979118884, -2.6386012905277312e-05, 0.0001705264439806342, 0.0003674388863146305, 0.0005643513286486268, 0.000761263829190284, 0.0009581762715242803, 0.0011550887720659375, 0.0013520012143999338, 0.0015489136567339301, 0.0017458260990679264, 0.0019427385414019227, 0.002139650983735919, 0.002336563542485237, 0.0025334758684039116, 0.0027303884271532297, 0.002927300753071904, 0.0031242133118212223, 0.0033211256377398968, 0.003518038196489215, 0.003714950755238533, 0.0039118630811572075, 0.004108775407075882, 0.004305688198655844, 0.004502600524574518, 0.004699512850493193, 0.0048964256420731544, 0.005093337967991829, 0.005290250293910503, 0.005487162619829178, 0.00568407541140914, 0.005880987737327814, 0.006077900063246489, 0.006274812389165163, 0.006471725180745125, 0.006668637506663799, 0.006865549832582474, 0.0070624626241624355, 0.00725937495008111, 0.0074562872759997845, 0.007653199601918459, 0.00785011239349842, 0.008047024719417095]}, "gradients/rgb_fn.2.bias": {"_type": "histogram", "values": [1.0, 0.0, 0.0, 0.0, 0.0, 0.0, 0.0, 0.0, 0.0, 0.0, 0.0, 0.0, 0.0, 0.0, 0.0, 0.0, 0.0, 0.0, 0.0, 0.0, 0.0, 0.0, 0.0, 0.0, 0.0, 0.0, 0.0, 0.0, 0.0, 0.0, 0.0, 0.0, 0.0, 0.0, 0.0, 0.0, 0.0, 0.0, 0.0, 0.0, 0.0, 0.0, 0.0, 0.0, 0.0, 0.0, 0.0, 0.0, 0.0, 1.0, 0.0, 0.0, 0.0, 0.0, 0.0, 0.0, 0.0, 0.0, 0.0, 0.0, 0.0, 0.0, 0.0, 1.0], "bins": [-6.896266131661832e-05, -6.724551349179819e-05, -6.552836566697806e-05, -6.381121784215793e-05, -6.20940700173378e-05, -6.037691855453886e-05, -5.865977072971873e-05, -5.694261926691979e-05, -5.522547144209966e-05, -5.350832361727953e-05, -5.17911757924594e-05, -5.007402796763927e-05, -4.835687650484033e-05, -4.66397286800202e-05, -4.492258085520007e-05, -4.3205433030379936e-05, -4.1488281567581e-05, -3.977113374276087e-05, -3.8053985917940736e-05, -3.6336838093120605e-05, -3.4619690268300474e-05, -3.2902538805501536e-05, -3.1185390980681404e-05, -2.9468243155861273e-05, -2.7751095331041142e-05, -2.6033945687231608e-05, -2.4316797862411477e-05, -2.2599648218601942e-05, -2.088250039378181e-05, -1.9165350749972276e-05, -1.7448202925152145e-05, -1.573105328134261e-05, -1.401390545652248e-05, -1.2296756722207647e-05, -1.0579607987892814e-05, -8.862459253577981e-06, -7.145310974010499e-06, -5.428162239695666e-06, -3.711013732754509e-06, -1.9938652258133516e-06, -2.7671649149851874e-07, 1.4404321291294764e-06, 3.1575807497574715e-06, 4.874729256698629e-06, 6.591877991013462e-06, 8.309026270580944e-06, 1.0026175004895777e-05, 1.174332373921061e-05, 1.3460472473525442e-05, 1.5177621207840275e-05, 1.6894769942155108e-05, 1.861191776697524e-05, 2.0329067410784774e-05, 2.2046215235604905e-05, 2.376336487941444e-05, 2.548051270423457e-05, 2.71976605290547e-05, 2.8914810172864236e-05, 3.063195981667377e-05, 3.23491076414939e-05, 3.406625546631403e-05, 3.5783403291134164e-05, 3.75005547539331e-05, 3.921770257875323e-05, 4.0934850403573364e-05]}, "gradients/rgb_fn.2.weight": {"_type": "histogram", "values": [1.0, 0.0, 0.0, 0.0, 0.0, 0.0, 0.0, 0.0, 0.0, 0.0, 0.0, 0.0, 0.0, 0.0, 0.0, 0.0, 0.0, 0.0, 0.0, 0.0, 0.0, 0.0, 0.0, 1.0, 0.0, 0.0, 0.0, 0.0, 0.0, 0.0, 0.0, 0.0, 0.0, 1.0, 0.0, 1.0, 0.0, 0.0, 0.0, 1.0, 1.0, 0.0, 0.0, 0.0, 0.0, 3.0, 3.0, 0.0, 1.0, 1.0, 1.0, 3.0, 1.0, 3.0, 1.0, 1.0, 1.0, 0.0, 6.0, 6.0, 10.0, 243.0, 71.0, 23.0], "bins": [-0.002853413810953498, -0.0028071284759789705, -0.0027608429081737995, -0.002714557573199272, -0.002668272005394101, -0.002621986670419574, -0.0025757011026144028, -0.0025294157676398754, -0.002483130432665348, -0.002436844864860177, -0.0023905595298856497, -0.0023442739620804787, -0.0022979886271059513, -0.0022517030593007803, -0.002205417724326253, -0.002159132156521082, -0.0021128468215465546, -0.002066561486572027, -0.002020275918766856, -0.001973990583792329, -0.0019277050159871578, -0.0018814196810126305, -0.0018351342296227813, -0.001788848778232932, -0.001742563326843083, -0.0016962778754532337, -0.0016499924240633845, -0.0016037069726735353, -0.001557421637699008, -0.0015111361863091588, -0.0014648507349193096, -0.0014185652835294604, -0.0013722798321396112, -0.0013259944971650839, -0.0012797090457752347, -0.0012334235943853855, -0.0011871381429955363, -0.0011408526916056871, -0.001094567240215838, -0.0010482817888259888, -0.0010019963374361396, -0.0009557109442539513, -0.0009094254928641021, -0.0008631400996819139, -0.0008168546482920647, -0.0007705691969022155, -0.0007242837455123663, -0.0006779982941225171, -0.0006317129009403288, -0.0005854274495504797, -0.0005391419981606305, -0.0004928566049784422, -0.000446571153588593, -0.0004002857021987438, -0.00035400025080889463, -0.0003077148285228759, -0.0002614294062368572, -0.000215143954847008, -0.00016885851800907403, -0.00012257308117114007, -7.628764433320612e-05, -3.000220749527216e-05, 1.6283229342661798e-05, 6.256866618059576e-05, 0.00010885410301852971]}, "gradients/rgb_fn.0.bias": {"_type": "histogram", "values": [1.0, 0.0, 1.0, 0.0, 0.0, 1.0, 0.0, 2.0, 2.0, 1.0, 0.0, 1.0, 2.0, 2.0, 3.0, 3.0, 3.0, 2.0, 4.0, 5.0, 60.0, 12.0, 1.0, 5.0, 3.0, 3.0, 0.0, 1.0, 0.0, 0.0, 0.0, 3.0, 2.0, 0.0, 0.0, 0.0, 0.0, 0.0, 0.0, 1.0, 0.0, 0.0, 0.0, 1.0, 1.0, 0.0, 0.0, 0.0, 0.0, 0.0, 1.0, 0.0, 0.0, 0.0, 0.0, 0.0, 0.0, 0.0, 0.0, 0.0, 0.0, 0.0, 0.0, 1.0], "bins": [-1.4744492546014953e-05, -1.4034073501534294e-05, -1.3323654457053635e-05, -1.2613236322067678e-05, -1.1902817277587019e-05, -1.119239823310636e-05, -1.04819791886257e-05, -9.771560144145042e-06, -9.061141099664383e-06, -8.350722964678425e-06, -7.640303920197766e-06, -6.929884875717107e-06, -6.219465831236448e-06, -5.50904724150314e-06, -4.798628197022481e-06, -4.088209607289173e-06, -3.3777905628085136e-06, -2.66737174570153e-06, -1.9569529285945464e-06, -1.2465338841138873e-06, -5.361150670069037e-07, 1.7430380694349878e-07, 8.847226808939013e-07, 1.5951416116877226e-06, 2.3055604287947062e-06, 3.01597924590169e-06, 3.7263980630086735e-06, 4.4368171074893326e-06, 5.147236151969992e-06, 5.8576547417033e-06, 6.568073786183959e-06, 7.278492375917267e-06, 7.988912329892628e-06, 8.699331374373287e-06, 9.409750418853946e-06, 1.0120168553839903e-05, 1.0830587598320562e-05, 1.1541006642801221e-05, 1.225142568728188e-05, 1.296184473176254e-05, 1.3672262866748497e-05, 1.4382681911229156e-05, 1.5093100955709815e-05, 1.5803520000190474e-05, 1.6513939044671133e-05, 1.7224358089151792e-05, 1.793477713363245e-05, 1.864519617811311e-05, 1.935561522259377e-05, 2.0066032448085025e-05, 2.0776451492565684e-05, 2.1486870537046343e-05, 2.2197289581527002e-05, 2.290770862600766e-05, 2.361812767048832e-05, 2.432854671496898e-05, 2.503896575944964e-05, 2.5749384803930297e-05, 2.6459803848410957e-05, 2.7170221073902212e-05, 2.788064011838287e-05, 2.859105916286353e-05, 2.930147820734419e-05, 3.001189725182485e-05, 3.072231629630551e-05]}, "gradients/rgb_fn.0.weight": {"_type": "histogram", "values": [1.0, 0.0, 0.0, 1.0, 2.0, 1.0, 1.0, 3.0, 6.0, 5.0, 9.0, 15.0, 12.0, 11.0, 16.0, 18.0, 27.0, 40.0, 30.0, 37.0, 50.0, 67.0, 84.0, 115.0, 118.0, 184.0, 199.0, 291.0, 343.0, 458.0, 559.0, 650.0, 12235.0, 1786.0, 664.0, 537.0, 430.0, 349.0, 246.0, 206.0, 176.0, 122.0, 104.0, 81.0, 54.0, 44.0, 36.0, 34.0, 32.0, 18.0, 19.0, 22.0, 11.0, 17.0, 4.0, 5.0, 7.0, 6.0, 2.0, 2.0, 4.0, 1.0, 0.0, 1.0], "bins": [-0.00020345707889646292, -0.00019728232291527092, -0.00019110756693407893, -0.00018493281095288694, -0.00017875805497169495, -0.00017258329899050295, -0.00016640852845739573, -0.00016023377247620374, -0.00015405901649501175, -0.00014788426051381975, -0.00014170950453262776, -0.00013553474855143577, -0.00012935999257024378, -0.00012318523658905178, -0.00011701047333190218, -0.00011083571735071018, -0.00010466096136951819, -9.84862053883262e-05, -9.23114494071342e-05, -8.61366861499846e-05, -7.99619301687926e-05, -7.378717418760061e-05, -6.761241820640862e-05, -6.143766222521663e-05, -5.526290260604583e-05, -4.9088146624853835e-05, -4.2913387005683035e-05, -3.673863102449104e-05, -3.056387504329905e-05, -2.438911542412825e-05, -1.8214359442936257e-05, -1.203960164275486e-05, -5.864843842573464e-06, 3.099135028605815e-07, 6.484670848294627e-06, 1.2659427738981321e-05, 1.8834185539162718e-05, 2.5008943339344114e-05, 3.118369932053611e-05, 3.735845893970691e-05, 4.35332149208989e-05, 4.970797090209089e-05, 5.588273052126169e-05, 6.205748650245368e-05, 6.823224248364568e-05, 7.440699846483767e-05, 8.058176172198728e-05, 8.675651770317927e-05, 9.293127368437126e-05, 9.910602966556326e-05, 0.00010528078564675525, 0.00011145554890390486, 0.00011763030488509685, 0.00012380506086628884, 0.00012997981684748083, 0.00013615457282867283, 0.00014232932880986482, 0.0001485040847910568, 0.0001546788407722488, 0.00016085361130535603, 0.00016702836728654802, 0.00017320312326774, 0.000179377879248932, 0.000185552635230124, 0.000191727391211316]}, "gradients/density_fn.0.bias": {"_type": "histogram", "values": [1.0], "bins": [-7.046503014862537e-05, -7.046503014862537e-05]}, "gradients/density_fn.0.weight": {"_type": "histogram", "values": [4.0, 2.0, 1.0, 2.0, 1.0, 5.0, 3.0, 0.0, 2.0, 1.0, 2.0, 3.0, 3.0, 5.0, 2.0, 2.0, 1.0, 3.0, 1.0, 3.0, 1.0, 1.0, 2.0, 3.0, 2.0, 2.0, 2.0, 1.0, 1.0, 3.0, 3.0, 2.0, 0.0, 2.0, 1.0, 2.0, 3.0, 1.0, 3.0, 2.0, 4.0, 4.0, 3.0, 0.0, 2.0, 1.0, 2.0, 3.0, 1.0, 6.0, 4.0, 3.0, 3.0, 0.0, 2.0, 2.0, 2.0, 2.0, 0.0, 0.0, 0.0, 0.0, 0.0, 1.0], "bins": [-0.0002444802667014301, -0.00023599188716616482, -0.00022750349307898432, -0.00021901511354371905, -0.00021052671945653856, -0.0002020383399212733, -0.00019354996038600802, -0.00018506156629882753, -0.00017657318676356226, -0.000168084807228297, -0.0001595964131411165, -0.00015110803360585123, -0.00014261965407058597, -0.00013413125998340547, -0.0001256428804481402, -0.00011715449363691732, -0.00010866610682569444, -0.00010017772001447156, -9.168933320324868e-05, -8.320095366798341e-05, -7.471256685676053e-05, -6.622418004553765e-05, -5.7735796872293577e-05, -4.92474136990495e-05, -4.075902688782662e-05, -3.227064007660374e-05, -2.3782256903359666e-05, -1.529387191112619e-05, -6.805486918892711e-06, 1.6828980733407661e-06, 1.0171283065574244e-05, 1.865966805780772e-05, 2.71480530500412e-05, 3.563643986126408e-05, 4.4124823034508154e-05, 5.261320620775223e-05, 6.110159301897511e-05, 6.958997983019799e-05, 7.807835936546326e-05, 8.656674617668614e-05, 9.505513298790902e-05, 0.0001035435197991319, 0.00011203190661035478, 0.00012052028614562005, 0.00012900866568088531, 0.0001374970597680658, 0.00014598543930333108, 0.00015447383339051157, 0.00016296221292577684, 0.0001714505924610421, 0.0001799389865482226, 0.00018842736608348787, 0.00019691576017066836, 0.00020540413970593363, 0.0002138925192411989, 0.0002223809133283794, 0.00023086929286364466, 0.00023935767239890993, 0.0002478460664860904, 0.0002563344605732709, 0.00026482282555662096, 0.00027331121964380145, 0.00028179961373098195, 0.000290287978714332, 0.0002987763728015125]}, "gradients/feature_fn.4.bias": {"_type": "histogram", "values": [1.0, 0.0, 0.0, 0.0, 1.0, 0.0, 0.0, 0.0, 1.0, 1.0, 2.0, 2.0, 0.0, 2.0, 1.0, 2.0, 5.0, 5.0, 2.0, 5.0, 2.0, 3.0, 8.0, 4.0, 3.0, 0.0, 1.0, 4.0, 3.0, 4.0, 2.0, 0.0, 1.0, 3.0, 4.0, 2.0, 6.0, 2.0, 6.0, 4.0, 2.0, 3.0, 4.0, 4.0, 3.0, 6.0, 3.0, 3.0, 0.0, 2.0, 0.0, 3.0, 0.0, 0.0, 0.0, 1.0, 0.0, 0.0, 0.0, 1.0, 0.0, 0.0, 0.0, 1.0], "bins": [-1.8260619981447235e-05, -1.7674112314125523e-05, -1.7087602827814408e-05, -1.6501095160492696e-05, -1.591458567418158e-05, -1.532807800685987e-05, -1.4741569430043455e-05, -1.4155060853227042e-05, -1.3568552276410628e-05, -1.2982043699594215e-05, -1.2395535122777801e-05, -1.1809026545961387e-05, -1.1222518878639676e-05, -1.0636010301823262e-05, -1.0049501725006849e-05, -9.462993148190435e-06, -8.876484571374021e-06, -8.289975994557608e-06, -7.703467417741194e-06, -7.116959295672132e-06, -6.530450718855718e-06, -5.943942142039305e-06, -5.357434019970242e-06, -4.770925443153828e-06, -4.184416866337415e-06, -3.5979082895210013e-06, -3.011399940078263e-06, -2.424891590635525e-06, -1.8383830138191115e-06, -1.2518745506895357e-06, -6.653660875599599e-07, -7.885762443038402e-08, 5.076490197097883e-07, 1.094157482839364e-06, 1.68066594596894e-06, 2.267174295411678e-06, 2.8536828722280916e-06, 3.440191449044505e-06, 4.026699571113568e-06, 4.613208147929981e-06, 5.199716724746395e-06, 5.7862253015628085e-06, 6.372733878379222e-06, 6.959242000448285e-06, 7.545750577264698e-06, 8.132258699333761e-06, 8.718767276150174e-06, 9.305275852966588e-06, 9.891784429783002e-06, 1.0478293006599415e-05, 1.1064801583415829e-05, 1.1651310160232242e-05, 1.2237818737048656e-05, 1.2824326404370368e-05, 1.3410834981186781e-05, 1.3997343558003195e-05, 1.4583852134819608e-05, 1.5170360711636022e-05, 1.5756868378957734e-05, 1.634337786526885e-05, 1.692988553259056e-05, 1.7516395018901676e-05, 1.8102902686223388e-05, 1.8689412172534503e-05, 1.9275919839856215e-05]}, "gradients/feature_fn.4.weight": {"_type": "histogram", "values": [2.0, 0.0, 2.0, 1.0, 3.0, 2.0, 7.0, 9.0, 8.0, 8.0, 11.0, 14.0, 22.0, 26.0, 30.0, 37.0, 41.0, 48.0, 68.0, 100.0, 130.0, 203.0, 244.0, 348.0, 548.0, 816.0, 1284.0, 9607.0, 940.0, 511.0, 339.0, 269.0, 160.0, 116.0, 76.0, 53.0, 42.0, 36.0, 35.0, 27.0, 18.0, 22.0, 18.0, 14.0, 13.0, 3.0, 9.0, 5.0, 6.0, 5.0, 5.0, 9.0, 6.0, 5.0, 5.0, 7.0, 1.0, 2.0, 2.0, 2.0, 1.0, 1.0, 1.0, 1.0], "bins": [-0.00013260359992273152, -0.00012772860645782202, -0.0001228535984409973, -0.0001179785977001302, -0.00011310359695926309, -0.00010822859621839598, -0.00010335359547752887, -9.847859473666176e-05, -9.360359399579465e-05, -8.872860053088516e-05, -8.385359979001805e-05, -7.897859904915094e-05, -7.410359830828384e-05, -6.922859756741673e-05, -6.435359682654962e-05, -5.947859608568251e-05, -5.46035953448154e-05, -4.9728594603948295e-05, -4.485359386308119e-05, -3.997859312221408e-05, -3.510359238134697e-05, -3.0228593459469266e-05, -2.535359453759156e-05, -2.0478593796724454e-05, -1.5603593055857345e-05, -1.0728592314990237e-05, -5.853592483617831e-06, -9.785921974980738e-07, 3.896408088621683e-06, 8.771408829488792e-06, 1.3646408660861198e-05, 1.8521408492233604e-05, 2.3396409233100712e-05, 2.827140997396782e-05, 3.314641071483493e-05, 3.802141145570204e-05, 4.2896412196569145e-05, 4.7771409299457446e-05, 5.2646410040324554e-05, 5.752141078119166e-05, 6.239641516003758e-05, 6.727140862494707e-05, 7.214640936581418e-05, 7.702141010668129e-05, 8.18964108475484e-05, 8.67714115884155e-05, 9.164641232928261e-05, 9.652141307014972e-05, 0.00010139641381101683, 0.00010627141455188394, 0.00011114641529275104, 0.00011602141603361815, 0.00012089641677448526, 0.00012577141751535237, 0.00013064641098026186, 0.00013552141899708658, 0.00014039641246199608, 0.0001452714204788208, 0.0001501464139437303, 0.00015502142196055502, 0.0001598964154254645, 0.00016477142344228923, 0.00016964641690719873, 0.00017452142492402345, 0.00017939641838893294]}, "gradients/feature_fn.2.bias": {"_type": "histogram", "values": [1.0, 1.0, 0.0, 0.0, 0.0, 0.0, 0.0, 0.0, 0.0, 0.0, 1.0, 0.0, 0.0, 0.0, 1.0, 1.0, 3.0, 1.0, 7.0, 4.0, 7.0, 10.0, 8.0, 12.0, 3.0, 60.0, 0.0, 0.0, 2.0, 1.0, 1.0, 0.0, 0.0, 0.0, 1.0, 1.0, 0.0, 0.0, 0.0, 0.0, 0.0, 0.0, 0.0, 0.0, 0.0, 0.0, 0.0, 0.0, 1.0, 0.0, 0.0, 0.0, 0.0, 0.0, 0.0, 0.0, 0.0, 0.0, 0.0, 0.0, 0.0, 0.0, 0.0, 1.0], "bins": [-0.0001111015590140596, -0.00010675736120902002, -0.00010241315612802282, -9.806895832298324e-05, -9.372475324198604e-05, -8.938055543694645e-05, -8.503635763190687e-05, -8.069215255090967e-05, -7.634795474587008e-05, -7.20037569408305e-05, -6.76595518598333e-05, -6.331535405479372e-05, -5.8971152611775324e-05, -5.462695116875693e-05, -5.028275336371735e-05, -4.5938551920698956e-05, -4.1594350477680564e-05, -3.725014903466217e-05, -3.290594759164378e-05, -2.8561749786604196e-05, -2.4217548343585804e-05, -1.9873346900567412e-05, -1.5529147276538424e-05, -1.1184946743014734e-05, -6.840746209491044e-06, -2.4965456759673543e-06, 1.8476548575563356e-06, 6.191855391080026e-06, 1.0536055924603716e-05, 1.4880256458127405e-05, 1.9224456991651095e-05, 2.3568656615680084e-05, 2.7912872610613704e-05, 3.2257074053632095e-05, 3.660127549665049e-05, 4.094547330169007e-05, 4.5289674744708464e-05, 4.9633876187726855e-05, 5.397807399276644e-05, 5.832227543578483e-05, 6.266647687880322e-05, 6.701067468384281e-05, 7.135487976484001e-05, 7.569907756987959e-05, 8.004327537491918e-05, 8.438748045591637e-05, 8.873167826095596e-05, 9.307588334195316e-05, 9.742008114699274e-05, 0.00010176427895203233, 0.00010610848403302953, 0.00011045268183806911, 0.00011479688691906631, 0.0001191410847241059, 0.00012348528252914548, 0.00012782948033418506, 0.00013217367813922465, 0.00013651789049617946, 0.00014086208830121905, 0.00014520628610625863, 0.00014955048391129822, 0.0001538946817163378, 0.0001582388940732926, 0.0001625830918783322, 0.00016692728968337178]}, "gradients/feature_fn.2.weight": {"_type": "histogram", "values": [1.0, 0.0, 3.0, 1.0, 2.0, 2.0, 1.0, 6.0, 5.0, 2.0, 4.0, 1.0, 3.0, 6.0, 4.0, 4.0, 3.0, 18.0, 25.0, 51.0, 100.0, 205.0, 347.0, 801.0, 1877.0, 12018.0, 430.0, 190.0, 86.0, 42.0, 20.0, 12.0, 8.0, 11.0, 12.0, 6.0, 3.0, 9.0, 1.0, 6.0, 5.0, 6.0, 6.0, 6.0, 5.0, 2.0, 6.0, 1.0, 1.0, 0.0, 6.0, 1.0, 3.0, 1.0, 2.0, 1.0, 0.0, 1.0, 2.0, 1.0, 0.0, 1.0, 0.0, 1.0], "bins": [-0.00031518423929810524, -0.00030275521567091346, -0.00029032622114755213, -0.00027789719752036035, -0.00026546817389316857, -0.0002530391502659768, -0.00024061014119070023, -0.00022818113211542368, -0.0002157521084882319, -0.00020332309941295534, -0.0001908940903376788, -0.000178465066710487, -0.00016603605763521045, -0.00015360703400801867, -0.00014117802493274212, -0.00012874900130555034, -0.00011631999223027378, -0.00010389097587903962, -9.146195952780545e-05, -7.903294317657128e-05, -6.660392682533711e-05, -5.417491411208175e-05, -4.174590139882639e-05, -2.9316885047592223e-05, -1.6887868696358055e-05, -4.458853254618589e-06, 7.970162187120877e-06, 2.039917671936564e-05, 3.282819307059981e-05, 4.525720942183398e-05, 5.768622213508934e-05, 7.01152384863235e-05, 8.254425483755767e-05, 9.497327118879184e-05, 0.00010740228754002601, 0.00011983130389126018, 0.00013226032024249434, 0.0001446893293177709, 0.00015711835294496268, 0.00016954736202023923, 0.00018197638564743102, 0.00019440539472270757, 0.00020683440379798412, 0.0002192634274251759, 0.00023169243650045246, 0.00024412146012764424, 0.0002565504692029208, 0.0002689794928301126, 0.0002814084873534739, 0.0002938375109806657, 0.00030626653460785747, 0.00031869555823504925, 0.0003311245527584106, 0.00034355357638560236, 0.00035598260001279414, 0.0003684116236399859, 0.00038084061816334724, 0.000393269641790539, 0.0004056986654177308, 0.00041812765994109213, 0.0004305566835682839, 0.0004429857071954757, 0.0004554147308226675, 0.0004678437253460288, 0.0004802727489732206]}, "gradients/feature_fn.0.bias": {"_type": "histogram", "values": [1.0, 0.0, 1.0, 0.0, 1.0, 0.0, 0.0, 0.0, 0.0, 0.0, 0.0, 1.0, 0.0, 0.0, 0.0, 0.0, 0.0, 1.0, 2.0, 2.0, 2.0, 1.0, 3.0, 0.0, 4.0, 2.0, 1.0, 8.0, 7.0, 3.0, 4.0, 3.0, 6.0, 2.0, 6.0, 3.0, 2.0, 4.0, 20.0, 1.0, 8.0, 1.0, 0.0, 2.0, 1.0, 4.0, 2.0, 2.0, 2.0, 2.0, 2.0, 2.0, 0.0, 3.0, 0.0, 1.0, 2.0, 0.0, 0.0, 0.0, 0.0, 0.0, 1.0, 2.0], "bins": [-0.00022556570183951408, -0.0002196729910792783, -0.00021378029487095773, -0.00020788758411072195, -0.00020199487335048616, -0.0001961021771421656, -0.00019020946638192981, -0.00018431675562169403, -0.00017842405941337347, -0.00017253134865313768, -0.0001666386378929019, -0.0001607459271326661, -0.00015485323092434555, -0.00014896052016410977, -0.00014306780940387398, -0.00013717511319555342, -0.00013128240243531764, -0.00012538969167508185, -0.00011949698819080368, -0.0001136042847065255, -0.00010771157394628972, -0.00010181887046201155, -9.592616697773337e-05, -9.003345621749759e-05, -8.414075273321941e-05, -7.824804924894124e-05, -7.235533848870546e-05, -6.646263500442728e-05, -6.0569927882170305e-05, -5.4677220759913325e-05, -4.878451727563515e-05, -4.2891810153378174e-05, -3.6999088479205966e-05, -3.110638135694899e-05, -2.521367605368141e-05, -1.9320970750413835e-05, -1.3428263628156856e-05, -7.535557415394578e-06, -1.6428512026323006e-06, 4.249855010129977e-06, 1.0142561222892255e-05, 1.6035268345149234e-05, 2.192797364841681e-05, 2.7820678951684386e-05, 3.3713386073941365e-05, 3.9606093196198344e-05, 4.5498796680476516e-05, 5.1391503802733496e-05, 5.7284210924990475e-05, 6.317691440926865e-05, 6.906962516950443e-05, 7.49623286537826e-05, 8.085503941401839e-05, 8.674774289829656e-05, 9.264044638257474e-05, 9.853315714281052e-05, 0.0001044258606270887, 0.00011031856411136687, 0.00011621127487160265, 0.00012210398563183844, 0.000127996681840159, 0.00013388939260039479, 0.00013978210336063057, 0.00014567479956895113, 0.00015156751032918692]}, "gradients/feature_fn.0.weight": {"_type": "histogram", "values": [2.0, 0.0, 2.0, 1.0, 0.0, 1.0, 1.0, 0.0, 2.0, 2.0, 6.0, 4.0, 3.0, 9.0, 2.0, 13.0, 9.0, 10.0, 16.0, 14.0, 22.0, 27.0, 43.0, 70.0, 90.0, 105.0, 146.0, 209.0, 286.0, 431.0, 541.0, 752.0, 1031.0, 1458.0, 1860.0, 12167.0, 1379.0, 992.0, 677.0, 496.0, 408.0, 259.0, 212.0, 145.0, 124.0, 100.0, 97.0, 52.0, 43.0, 28.0, 13.0, 17.0, 22.0, 16.0, 14.0, 6.0, 2.0, 3.0, 0.0, 0.0, 2.0, 1.0, 1.0, 4.0], "bins": [-0.0002912499476224184, -0.0002830458106473088, -0.00027484167367219925, -0.00026663753669708967, -0.0002584333997219801, -0.00025022923364304006, -0.00024202509666793048, -0.0002338209596928209, -0.00022561682271771133, -0.00021741268574260175, -0.00020920854876749218, -0.00020100439724046737, -0.0001928002602653578, -0.00018459612329024822, -0.0001763919717632234, -0.00016818783478811383, -0.00015998369781300426, -0.00015177956083789468, -0.0001435754238627851, -0.0001353712723357603, -0.00012716713536065072, -0.00011896299838554114, -0.00011075885413447395, -0.00010255470988340676, -9.435057290829718e-05, -8.61464359331876e-05, -7.794229168212041e-05, -6.973814743105322e-05, -6.153401045594364e-05, -5.332986984285526e-05, -4.5125729229766876e-05, -3.692158861667849e-05, -2.8717477107420564e-05, -2.051333649433218e-05, -1.2309195881243795e-05, -4.105055268155411e-06, 4.099085344932973e-06, 1.2303225958021358e-05, 2.0507366571109742e-05, 2.8711507184198126e-05, 3.691564779728651e-05, 4.5119788410374895e-05, 5.332392902346328e-05, 6.152807327453047e-05, 6.973221024964005e-05, 7.793634722474962e-05, 8.614049147581682e-05, 9.434463572688401e-05, 0.00010254877270199358, 0.00011075290967710316, 0.00011895705392817035, 0.00012716119817923754, 0.00013536533515434712, 0.0001435694721294567, 0.0001517736236564815, 0.00015997776063159108, 0.00016818189760670066, 0.00017638603458181024, 0.0001845901715569198, 0.00019279432308394462, 0.0002009984600590542, 0.00020920259703416377, 0.00021740674856118858, 0.00022561088553629816, 0.00023381502251140773]}, "gradients/mlp.6.bias": {"_type": "histogram", "values": [1.0, 0.0, 0.0, 1.0, 1.0, 1.0, 1.0, 2.0, 2.0, 2.0, 1.0, 1.0, 2.0, 3.0, 2.0, 5.0, 2.0, 0.0, 1.0, 4.0, 2.0, 0.0, 3.0, 1.0, 2.0, 3.0, 0.0, 0.0, 0.0, 0.0, 1.0, 3.0, 56.0, 1.0, 3.0, 0.0, 1.0, 0.0, 0.0, 0.0, 0.0, 2.0, 0.0, 1.0, 1.0, 1.0, 1.0, 1.0, 0.0, 0.0, 2.0, 0.0, 0.0, 2.0, 1.0, 2.0, 0.0, 0.0, 1.0, 2.0, 0.0, 2.0, 0.0, 1.0], "bins": [-0.0004028159601148218, -0.00039026368176564574, -0.00037771143252030015, -0.0003651591541711241, -0.00035260687582194805, -0.00034005462657660246, -0.0003275023482274264, -0.0003149500989820808, -0.00030239782063290477, -0.0002898455422837287, -0.0002772932930383831, -0.0002647410146892071, -0.0002521887654438615, -0.00023963648709468544, -0.00022708420874550939, -0.00021453194494824857, -0.00020197968115098774, -0.00018942741735372692, -0.0001768751535564661, -0.00016432287520729005, -0.00015177061141002923, -0.0001392183476127684, -0.00012666606926359236, -0.00011411380546633154, -0.00010156154166907072, -8.90092778718099e-05, -7.645700679859146e-05, -6.390473572537303e-05, -5.135247192811221e-05, -3.880020449287258e-05, -2.6247937057632953e-05, -1.3695669622393325e-05, -1.1434312909841537e-06, 1.1408836144255474e-05, 2.3961103579495102e-05, 3.651337101473473e-05, 4.906563844997436e-05, 6.161790224723518e-05, 7.417017332045361e-05, 8.672244439367205e-05, 9.927470819093287e-05, 0.00011182697198819369, 0.0001243792357854545, 0.00013693151413463056, 0.00014948377793189138, 0.0001620360417291522, 0.00017458832007832825, 0.00018714058387558907, 0.0001996928476728499, 0.00021224511147011071, 0.00022479737526737154, 0.00023734965361654758, 0.0002499019028618932, 0.0002624541812110692, 0.0002750064595602453, 0.00028755870880559087, 0.0003001109871547669, 0.00031266326550394297, 0.00032521551474928856, 0.0003377677930984646, 0.00035032007144764066, 0.00036287232069298625, 0.0003754245990421623, 0.0003879768482875079, 0.00040052912663668394]}, "gradients/mlp.6.weight": {"_type": "histogram", "values": [1.0, 0.0, 0.0, 1.0, 0.0, 4.0, 0.0, 1.0, 5.0, 6.0, 7.0, 7.0, 15.0, 15.0, 17.0, 34.0, 38.0, 31.0, 61.0, 56.0, 75.0, 101.0, 120.0, 148.0, 214.0, 263.0, 330.0, 452.0, 529.0, 626.0, 498.0, 10655.0, 358.0, 267.0, 244.0, 213.0, 152.0, 151.0, 140.0, 86.0, 78.0, 53.0, 67.0, 38.0, 35.0, 22.0, 36.0, 24.0, 22.0, 17.0, 19.0, 14.0, 9.0, 4.0, 8.0, 6.0, 4.0, 1.0, 0.0, 0.0, 0.0, 3.0, 1.0, 2.0], "bins": [-0.00031744036823511124, -0.0003073715197388083, -0.0002973026712425053, -0.0002872337936423719, -0.00027716494514606893, -0.00026709609664976597, -0.000257027248153463, -0.00024695839965716004, -0.00023688953660894185, -0.0002268206881126389, -0.0002167518250644207, -0.00020668297656811774, -0.00019661412807181478, -0.00018654526502359658, -0.00017647641652729362, -0.00016640755347907543, -0.00015633870498277247, -0.0001462698564864695, -0.00013620099343825132, -0.00012613214494194835, -0.00011606328916968778, -0.0001059944333974272, -9.592558490112424e-05, -8.585672912886366e-05, -7.578787335660309e-05, -6.571901758434251e-05, -5.565016545006074e-05, -4.558131331577897e-05, -3.5512457543518394e-05, -2.544360359024722e-05, -1.537474963697605e-05, -5.305895683704875e-06, 4.762987373396754e-06, 1.4831841326667927e-05, 2.49006952799391e-05, 3.496954741422087e-05, 4.5038403186481446e-05, 5.510725895874202e-05, 6.517610745504498e-05, 7.524496322730556e-05, 8.531381899956614e-05, 9.538267477182671e-05, 0.00010545153054408729, 0.00011552037904039025, 0.00012558922753669322, 0.0001356580905849114, 0.00014572693908121437, 0.00015579580212943256, 0.00016586465062573552, 0.00017593349912203848, 0.00018600236217025667, 0.00019607121066655964, 0.00020614007371477783, 0.0002162089222110808, 0.00022627777070738375, 0.00023634663375560194, 0.00024641549680382013, 0.0002564843453001231, 0.00026655319379642606, 0.000276622042292729, 0.000286690890789032, 0.00029675973928533494, 0.00030682861688546836, 0.0003168974653817713, 0.0003269663138780743]}, "gradients/mlp.4.bias": {"_type": "histogram", "values": [3.0, 0.0, 1.0, 1.0, 2.0, 5.0, 4.0, 2.0, 6.0, 5.0, 3.0, 4.0, 0.0, 2.0, 2.0, 2.0, 1.0, 0.0, 1.0, 1.0, 2.0, 3.0, 1.0, 1.0, 0.0, 38.0, 3.0, 2.0, 0.0, 0.0, 0.0, 1.0, 0.0, 2.0, 2.0, 2.0, 2.0, 1.0, 1.0, 1.0, 1.0, 4.0, 1.0, 1.0, 3.0, 3.0, 0.0, 2.0, 0.0, 1.0, 0.0, 2.0, 0.0, 0.0, 0.0, 2.0, 0.0, 0.0, 0.0, 0.0, 0.0, 0.0, 0.0, 1.0], "bins": [-0.0007865821244195104, -0.0007563072140328586, -0.0007260323036462069, -0.0006957573350518942, -0.0006654824246652424, -0.0006352075142785907, -0.000604932545684278, -0.0005746576352976263, -0.0005443827249109745, -0.0005141078145243227, -0.00048383287503384054, -0.0004535579355433583, -0.00042328302515670657, -0.0003930081147700548, -0.0003627331752795726, -0.0003324582357890904, -0.00030218332540243864, -0.0002719084150157869, -0.00024163347552530468, -0.0002113585505867377, -0.0001810836256481707, -0.00015080870070960373, -0.00012053377577103674, -9.025885083246976e-05, -5.998392589390278e-05, -2.9709000955335796e-05, 5.659239832311869e-07, 3.084084892179817e-05, 6.111577386036515e-05, 9.139069879893214e-05, 0.00012166562373749912, 0.0001519405486760661, 0.00018221547361463308, 0.00021249039855320007, 0.00024276532349176705, 0.00027304026298224926, 0.000303315173368901, 0.00033359008375555277, 0.000363865023246035, 0.0003941399627365172, 0.00042441487312316895, 0.0004546897835098207, 0.0004849647230003029, 0.0005152396624907851, 0.0005455145728774369, 0.0005757894832640886, 0.0006060644518584013, 0.000636339362245053, 0.0006666142726317048, 0.0006968891830183566, 0.0007271640934050083, 0.000757439061999321, 0.0007877139723859727, 0.0008179888827726245, 0.0008482638513669372, 0.0008785387617535889, 0.0009088136721402407, 0.0009390885825268924, 0.0009693634929135442, 0.0009996384615078568, 0.0010299133136868477, 0.0010601882822811604, 0.001090463250875473, 0.0011207381030544639, 0.0011510130716487765]}, "gradients/mlp.4.weight": {"_type": "histogram", "values": [1.0, 3.0, 2.0, 1.0, 3.0, 6.0, 10.0, 9.0, 10.0, 14.0, 23.0, 29.0, 37.0, 62.0, 114.0, 159.0, 225.0, 261.0, 313.0, 339.0, 419.0, 481.0, 556.0, 701.0, 1043.0, 7730.0, 923.0, 521.0, 397.0, 367.0, 307.0, 259.0, 206.0, 192.0, 150.0, 105.0, 112.0, 59.0, 49.0, 36.0, 36.0, 31.0, 18.0, 14.0, 12.0, 5.0, 7.0, 7.0, 6.0, 2.0, 4.0, 1.0, 0.0, 2.0, 2.0, 1.0, 0.0, 0.0, 0.0, 0.0, 0.0, 0.0, 1.0, 1.0], "bins": [-0.0005770763382315636, -0.0005546839674934745, -0.0005322915967553854, -0.0005098992260172963, -0.00048750685527920723, -0.0004651144554372877, -0.0004427220846991986, -0.0004203297139611095, -0.00039793734322302043, -0.00037554497248493135, -0.00035315260174684227, -0.0003307602310087532, -0.00030836783116683364, -0.00028597546042874455, -0.00026358308969065547, -0.00024119071895256639, -0.0002187983482144773, -0.00019640597747638822, -0.00017401360673829913, -0.00015162122144829482, -0.00012922885071020573, -0.00010683647997211665, -8.444410195806995e-05, -6.205172394402325e-05, -3.965935320593417e-05, -1.7266978829866275e-05, 5.1253955462016165e-06, 2.7517769922269508e-05, 4.99101442983374e-05, 7.230251503642648e-05, 9.469489305047318e-05, 0.00011708727106451988, 0.00013947964180260897, 0.00016187201254069805, 0.00018426438327878714, 0.00020665676856879145, 0.00022904913930688053, 0.00025144152459688485, 0.00027383389533497393, 0.000296226266073063, 0.0003186186368111521, 0.0003410110075492412, 0.00036340337828733027, 0.00038579574902541935, 0.0004081881488673389, 0.000430580519605428, 0.00045297289034351707, 0.00047536526108160615, 0.0004977576318196952, 0.0005201500025577843, 0.0005425423732958734, 0.0005649347440339625, 0.0005873271147720516, 0.0006097194855101407, 0.0006321118562482297, 0.0006545042269863188, 0.0006768966559320688, 0.0006992890266701579, 0.000721681397408247, 0.0007440737681463361, 0.0007664661388844252, 0.0007888585096225142, 0.0008112508803606033, 0.0008336432510986924, 0.0008560356218367815]}, "gradients/mlp.2.bias": {"_type": "histogram", "values": [1.0, 1.0, 0.0, 1.0, 1.0, 0.0, 1.0, 5.0, 3.0, 6.0, 8.0, 6.0, 3.0, 6.0, 2.0, 4.0, 3.0, 3.0, 21.0, 5.0, 3.0, 5.0, 3.0, 5.0, 4.0, 3.0, 5.0, 3.0, 5.0, 3.0, 4.0, 1.0, 1.0, 1.0, 0.0, 0.0, 0.0, 0.0, 0.0, 0.0, 0.0, 0.0, 0.0, 0.0, 1.0, 0.0, 0.0, 0.0, 0.0, 0.0, 0.0, 0.0, 0.0, 0.0, 0.0, 0.0, 0.0, 0.0, 0.0, 0.0, 0.0, 0.0, 0.0, 1.0], "bins": [-0.0022200369276106358, -0.002098717028275132, -0.0019773973617702723, -0.0018560774624347687, -0.001734757679514587, -0.0016134378965944052, -0.0014921179972589016, -0.0013707982143387198, -0.001249478431418538, -0.0011281586484983563, -0.0010068388655781746, -0.000885518966242671, -0.0007641991833224893, -0.0006428794004023075, -0.0005215595592744648, -0.00040023974725045264, -0.00027891993522644043, -0.00015760012320242822, -3.6280311178416014e-05, 8.50395008455962e-05, 0.0002063593128696084, 0.0003276791248936206, 0.0004489989369176328, 0.0005703187780454755, 0.0006916385609656572, 0.000812958343885839, 0.0009342781850136817, 0.0010555980261415243, 0.001176917809061706, 0.0012982375919818878, 0.0014195574913173914, 0.0015408772742375731, 0.001662197057157755, 0.0017835168400779366, 0.0019048366229981184, 0.002026156522333622, 0.002147476188838482, 0.0022687960881739855, 0.002390115987509489, 0.002511435654014349, 0.0026327555533498526, 0.002754075452685356, 0.002875395119190216, 0.0029967150185257196, 0.0031180349178612232, 0.003239354584366083, 0.0033606744837015867, 0.0034819941502064466, 0.0036033140495419502, 0.003724633948877454, 0.0038459536153823137, 0.003967273514717817, 0.004088593181222677, 0.0042099133133888245, 0.004331232979893684, 0.004452552646398544, 0.004573872312903404, 0.0046951924450695515, 0.004816512111574411, 0.004937831778079271, 0.0050591519102454185, 0.0051804715767502785, 0.005301791243255138, 0.005423111375421286, 0.0055444310419261456]}, "gradients/mlp.2.weight": {"_type": "histogram", "values": [1.0, 1.0, 0.0, 0.0, 3.0, 0.0, 2.0, 5.0, 7.0, 9.0, 19.0, 31.0, 63.0, 106.0, 211.0, 348.0, 457.0, 807.0, 1400.0, 6051.0, 3448.0, 1315.0, 736.0, 419.0, 307.0, 226.0, 138.0, 92.0, 37.0, 30.0, 14.0, 16.0, 18.0, 11.0, 11.0, 5.0, 4.0, 3.0, 5.0, 0.0, 2.0, 6.0, 3.0, 3.0, 4.0, 2.0, 2.0, 0.0, 1.0, 0.0, 1.0, 0.0, 1.0, 0.0, 0.0, 1.0, 1.0, 0.0, 0.0, 0.0, 0.0, 0.0, 0.0, 1.0], "bins": [-0.0022219093516469, -0.0021106358617544174, -0.0019993626046925783, -0.0018880891148000956, -0.0017768156249076128, -0.0016655422514304519, -0.0015542687615379691, -0.0014429953880608082, -0.0013317218981683254, -0.0012204485246911645, -0.0011091751512140036, -0.0009979016613215208, -0.0008866282878443599, -0.000775354856159538, -0.0006640814244747162, -0.0005528079927898943, -0.0004415345611050725, -0.00033026112942025065, -0.00021898771228734404, -0.00010771428787847981, 3.5591365303844213e-06, 0.00011483256093924865, 0.00022610598534811288, 0.0003373794024810195, 0.00044865283416584134, 0.0005599262658506632, 0.000671199697535485, 0.0007824731292203069, 0.0008937465026974678, 0.0010050199925899506, 0.0011162933660671115, 0.0012275668559595942, 0.0013388402294367552, 0.0014501136029139161, 0.0015613870928063989, 0.0016726604662835598, 0.0017839339561760426, 0.0018952073296532035, 0.0020064807031303644, 0.002117754193022847, 0.00222902768291533, 0.002340300939977169, 0.002451574429869652, 0.0025628479197621346, 0.0026741214096546173, 0.0027853946667164564, 0.002896668156608939, 0.003007941646501422, 0.003119214903563261, 0.003230488393455744, 0.0033417618833482265, 0.0034530353732407093, 0.0035643086303025484, 0.003675582120195031, 0.003786855610087514, 0.0038981290999799967, 0.004009402357041836, 0.0041206758469343185, 0.004231949336826801, 0.004343222826719284, 0.004454496316611767, 0.004565769340842962, 0.004677042830735445, 0.004788316320627928, 0.0048995898105204105]}, "gradients/mlp.0.bias": {"_type": "histogram", "values": [1.0, 0.0, 1.0, 1.0, 2.0, 0.0, 1.0, 3.0, 1.0, 2.0, 1.0, 0.0, 1.0, 3.0, 1.0, 3.0, 1.0, 2.0, 2.0, 2.0, 2.0, 5.0, 3.0, 2.0, 5.0, 8.0, 6.0, 10.0, 7.0, 4.0, 4.0, 4.0, 2.0, 3.0, 5.0, 4.0, 4.0, 2.0, 1.0, 3.0, 1.0, 3.0, 2.0, 0.0, 1.0, 0.0, 0.0, 2.0, 0.0, 0.0, 1.0, 1.0, 0.0, 2.0, 0.0, 0.0, 0.0, 0.0, 0.0, 0.0, 0.0, 0.0, 0.0, 3.0], "bins": [-0.0030188087839633226, -0.002900575054809451, -0.0027823413256555796, -0.002664107596501708, -0.0025458738673478365, -0.002427640138193965, -0.0023094064090400934, -0.002191172679886222, -0.0020729387179017067, -0.001954704988747835, -0.0018364713760092854, -0.001718237646855414, -0.0016000038012862206, -0.001481770072132349, -0.0013635363429784775, -0.001245302613824606, -0.0011270688846707344, -0.0010088351555168629, -0.0008906014263629913, -0.0007723676390014589, -0.0006541339098475873, -0.0005359001806937158, -0.0004176664224360138, -0.0002994326641783118, -0.0001811989350244403, -6.296519131865352e-05, 5.526855238713324e-05, 0.00017350229609292, 0.00029173603979870677, 0.0004099697689525783, 0.0005282035563141108, 0.0006464372854679823, 0.0007646712474524975, 0.000882904976606369, 0.0010011387057602406, 0.001119372434914112, 0.0012376061640679836, 0.001355840009637177, 0.0014740737387910485, 0.00159230746794492, 0.0017105411970987916, 0.0018287749262526631, 0.0019470086554065347, 0.002065242500975728, 0.0021834762301295996, 0.002301709959283471, 0.0024199436884373426, 0.002538177417591214, 0.0026564111467450857, 0.0027746448758989573, 0.002892878605052829, 0.0030111123342067003, 0.003129346063360572, 0.0032475797925144434, 0.003365813521668315, 0.0034840472508221865, 0.0036022812128067017, 0.003720514941960573, 0.0038387486711144447, 0.003956982400268316, 0.004075216129422188, 0.004193449858576059, 0.004311683587729931, 0.004429917316883802, 0.004548151046037674]}, "gradients/mlp.0.weight": {"_type": "histogram", "values": [2.0, 1.0, 0.0, 2.0, 6.0, 2.0, 7.0, 11.0, 16.0, 10.0, 14.0, 19.0, 24.0, 24.0, 22.0, 37.0, 53.0, 44.0, 54.0, 83.0, 103.0, 177.0, 223.0, 344.0, 567.0, 987.0, 1497.0, 1208.0, 855.0, 475.0, 297.0, 184.0, 130.0, 110.0, 104.0, 72.0, 60.0, 35.0, 32.0, 22.0, 25.0, 20.0, 12.0, 13.0, 7.0, 10.0, 8.0, 1.0, 6.0, 5.0, 10.0, 6.0, 5.0, 1.0, 1.0, 2.0, 1.0, 1.0, 3.0, 5.0, 4.0, 2.0, 2.0, 1.0], "bins": [-0.003469778224825859, -0.0033398813102394342, -0.0032099841628223658, -0.003080087248235941, -0.0029501901008188725, -0.0028202931862324476, -0.002690396038815379, -0.0025604991242289543, -0.002430601976811886, -0.002300705062225461, -0.002170808147639036, -0.0020409110002219677, -0.0019110140856355429, -0.0017811170546337962, -0.0016512200236320496, -0.001521322992630303, -0.0013914259616285563, -0.0012615289306268096, -0.001131631899625063, -0.0010017348686233163, -0.0008718378958292305, -0.0007419408648274839, -0.0006120438920333982, -0.0004821468610316515, -0.00035224983002990484, -0.00022235281358007342, -9.245579713024199e-05, 3.7441219319589436e-05, 0.00016733823576942086, 0.0002972352667711675, 0.0004271322686690837, 0.0005570292705669999, 0.0006869263015687466, 0.0008168233325704932, 0.0009467203635722399, 0.0010766173945739865, 0.0012065144255757332, 0.001336411340162158, 0.0014663083711639047, 0.0015962054021656513, 0.001726102433167398, 0.0018559994641691446, 0.0019858963787555695, 0.002115793526172638, 0.0022456904407590628, 0.0023755875881761312, 0.002505484502762556, 0.0026353816501796246, 0.0027652785647660494, 0.002895175479352474, 0.0030250726267695427, 0.0031549695413559675, 0.003284866688773036, 0.003414763603359461, 0.0035446607507765293, 0.003674557665362954, 0.003804454579949379, 0.0039343517273664474, 0.004064248874783516, 0.004194145556539297, 0.004324042703956366, 0.004453939851373434, 0.0045838369987905025, 0.004713733680546284, 0.004843630827963352]}}