{"total_loss": 0.0039554464002139866, "_timestamp": 1718110812.3300374, "rgb_loss": 0.0039554464002139866, "_runtime": 3049.4485132694244, "_step": 12300, "Rendered Images": {"_type": "images/separated", "width": 256, "height": 256, "format": "png", "count": 5, "filenames": ["media/images/Rendered Images_12000_1925541e87c27d5a9cab.png", "media/images/Rendered Images_12000_da5bad729306742e8b0a.png", "media/images/Rendered Images_12000_f2cdbdc55b52274d28fa.png", "media/images/Rendered Images_12000_2ad09dcc960433191ba6.png", "media/images/Rendered Images_12000_6e9b4ea8f6fd859f3f49.png"]}, "Ground-truth Images": {"_type": "images/separated", "width": 256, "height": 256, "format": "png", "count": 5, "filenames": ["media/images/Ground-truth Images_12004_e66caac5921126c9a542.png", "media/images/Ground-truth Images_12004_d46094b22d91d1bd7d47.png", "media/images/Ground-truth Images_12004_c1ae0e380e32a07032f8.png", "media/images/Ground-truth Images_12004_b60b263c939c62f4bc58.png", "media/images/Ground-truth Images_12004_ab3d98782f1147e7dca7.png"]}, "PSNR": 30.665149383030148, "Epoch": 3000, "gradients/graph_1rgb_fn.2.bias": {"_type": "histogram", "values": [1.0, 0.0, 0.0, 0.0, 0.0, 0.0, 0.0, 0.0, 0.0, 0.0, 0.0, 0.0, 0.0, 0.0, 0.0, 0.0, 0.0, 0.0, 0.0, 0.0, 0.0, 0.0, 0.0, 0.0, 0.0, 0.0, 0.0, 0.0, 0.0, 0.0, 0.0, 0.0, 0.0, 0.0, 0.0, 0.0, 0.0, 0.0, 0.0, 0.0, 0.0, 0.0, 0.0, 0.0, 0.0, 0.0, 0.0, 0.0, 0.0, 0.0, 0.0, 1.0, 0.0, 0.0, 0.0, 0.0, 0.0, 0.0, 0.0, 0.0, 0.0, 0.0, 0.0, 1.0], "bins": [-1.6497426258865744e-05, -1.4939223547116853e-05, -1.3381020835367963e-05, -1.1822818123619072e-05, -1.0264615411870182e-05, -8.70641179062659e-06, -7.148209078877699e-06, -5.590006367128808e-06, -4.0318036553799175e-06, -2.473600943631027e-06, -9.153980045084609e-07, 6.428048209272674e-07, 2.2010076463629957e-06, 3.7592103581118863e-06, 5.317413524608128e-06, 6.875616236357018e-06, 8.433818948105909e-06, 9.9920216598548e-06, 1.155022437160369e-05, 1.310842708335258e-05, 1.4666629795101471e-05, 1.6224832506850362e-05, 1.7783035218599252e-05, 1.9341237930348143e-05, 2.0899442461086437e-05, 2.2457645172835328e-05, 2.4015847884584218e-05, 2.557405059633311e-05, 2.7132253308082e-05, 2.869045601983089e-05, 3.024865873157978e-05, 3.180685962433927e-05, 3.336506415507756e-05, 3.4923268685815856e-05, 3.648146957857534e-05, 3.803967410931364e-05, 3.9597875002073124e-05, 4.115607953281142e-05, 4.2714280425570905e-05, 4.42724849563092e-05, 4.5830685849068686e-05, 4.738889037980698e-05, 4.894709127256647e-05, 5.050529580330476e-05, 5.206349669606425e-05, 5.362170122680254e-05, 5.517990211956203e-05, 5.6738106650300324e-05, 5.829631118103862e-05, 5.9854512073798105e-05, 6.141271296655759e-05, 6.297091749729589e-05, 6.452912202803418e-05, 6.608732655877247e-05, 6.764552381355315e-05, 6.920372834429145e-05, 7.076193287502974e-05, 7.232013740576804e-05, 7.387833466054872e-05, 7.543653919128701e-05, 7.69947437220253e-05, 7.85529482527636e-05, 8.011114550754428e-05, 8.166935003828257e-05, 8.322755456902087e-05]}, "gradients/graph_1rgb_fn.2.weight": {"_type": "histogram", "values": [1.0, 1.0, 2.0, 1.0, 1.0, 0.0, 1.0, 2.0, 1.0, 11.0, 48.0, 188.0, 19.0, 18.0, 19.0, 3.0, 1.0, 4.0, 6.0, 10.0, 2.0, 6.0, 3.0, 2.0, 5.0, 1.0, 0.0, 2.0, 1.0, 3.0, 2.0, 1.0, 0.0, 0.0, 2.0, 0.0, 0.0, 0.0, 0.0, 0.0, 2.0, 0.0, 2.0, 0.0, 1.0, 1.0, 0.0, 0.0, 1.0, 0.0, 0.0, 3.0, 0.0, 2.0, 1.0, 0.0, 0.0, 0.0, 0.0, 1.0, 1.0, 0.0, 1.0, 1.0], "bins": [-9.66575535130687e-05, -8.818648348096758e-05, -7.971540617290884e-05, -7.124433614080772e-05, -6.27732661087066e-05, -5.4302188800647855e-05, -4.583111876854673e-05, -3.73600450984668e-05, -2.8888971428386867e-05, -2.0417897758306935e-05, -1.1946825907216407e-05, -3.4757531466311775e-06, 4.995319613954052e-06, 1.3466392374539282e-05, 2.1937465135124512e-05, 3.040853698621504e-05, 3.887961065629497e-05, 4.73506843263749e-05, 5.5821757996454835e-05, 6.429282802855596e-05, 7.276389806065708e-05, 8.123497536871582e-05, 8.970604540081695e-05, 9.817712270887569e-05, 0.00010664819274097681, 0.00011511926277307793, 0.00012359033280517906, 0.0001320614101132378, 0.00014053248742129654, 0.00014900355017744005, 0.00015747462748549879, 0.00016594570479355752, 0.00017441678210161626, 0.000182887859409675, 0.0001913589221658185, 0.00019982999947387725, 0.000208301076781936, 0.0002167721395380795, 0.00022524321684613824, 0.00023371429415419698, 0.00024218537146225572, 0.00025065644877031446, 0.00025912749697454274, 0.0002675985742826015, 0.0002760696515906602, 0.00028454072889871895, 0.0002930118062067777, 0.00030148288351483643, 0.0003099539317190647, 0.00031842500902712345, 0.0003268960863351822, 0.00033536716364324093, 0.00034383824095129967, 0.0003523093182593584, 0.00036078039556741714, 0.0003692514437716454, 0.00037772252107970417, 0.0003861935983877629, 0.00039466467569582164, 0.0004031357530038804, 0.0004116068303119391, 0.0004200778785161674, 0.00042854895582422614, 0.0004370200331322849, 0.0004454911104403436]}, "gradients/graph_1rgb_fn.0.bias": {"_type": "histogram", "values": [1.0, 0.0, 0.0, 0.0, 0.0, 0.0, 1.0, 0.0, 0.0, 0.0, 0.0, 1.0, 0.0, 0.0, 0.0, 1.0, 2.0, 0.0, 1.0, 0.0, 1.0, 2.0, 1.0, 3.0, 2.0, 5.0, 4.0, 2.0, 7.0, 4.0, 4.0, 9.0, 14.0, 31.0, 8.0, 6.0, 4.0, 3.0, 0.0, 1.0, 0.0, 1.0, 3.0, 0.0, 0.0, 1.0, 0.0, 0.0, 2.0, 0.0, 0.0, 0.0, 0.0, 0.0, 0.0, 0.0, 1.0, 1.0, 0.0, 0.0, 0.0, 0.0, 0.0, 1.0], "bins": [-1.7919139281730168e-05, -1.738276296237018e-05, -1.6846388461999595e-05, -1.6310012142639607e-05, -1.577363582327962e-05, -1.5237259503919631e-05, -1.4700884094054345e-05, -1.4164508684189059e-05, -1.3628132364829071e-05, -1.3091756045469083e-05, -1.2555380635603797e-05, -1.201900522573851e-05, -1.1482628906378523e-05, -1.0946252587018535e-05, -1.0409877177153248e-05, -9.873501767287962e-06, -9.337125447927974e-06, -8.800749128567986e-06, -8.2643737187027e-06, -7.727998308837414e-06, -7.191621989477426e-06, -6.655246124864789e-06, -6.118870260252152e-06, -5.5824943956395146e-06, -5.0461185310268775e-06, -4.50974266641424e-06, -3.973366801801603e-06, -3.436990937188966e-06, -2.900615072576329e-06, -2.364239207963692e-06, -1.827863343351055e-06, -1.2914874787384178e-06, -7.551134331151843e-07, -2.1873756850254722e-07, 3.1763829611008987e-07, 8.54014160722727e-07, 1.390390025335364e-06, 1.926765889948001e-06, 2.4631417545606382e-06, 2.9995176191732753e-06, 3.5358934837859124e-06, 4.0722693483985495e-06, 4.6086452130111866e-06, 5.145021077623824e-06, 5.681396942236461e-06, 6.217772806849098e-06, 6.754148671461735e-06, 7.290524536074372e-06, 7.826900400687009e-06, 8.363276720046997e-06, 8.899652129912283e-06, 9.43602753977757e-06, 9.972403859137557e-06, 1.0508780178497545e-05, 1.1045155588362832e-05, 1.1581530998228118e-05, 1.2117907317588106e-05, 1.2654283636948094e-05, 1.319065904681338e-05, 1.3727034456678666e-05, 1.4263410776038654e-05, 1.4799787095398642e-05, 1.5336161595769227e-05, 1.5872537915129215e-05, 1.6408914234489202e-05]}, "gradients/graph_1rgb_fn.0.weight": {"_type": "histogram", "values": [1.0, 2.0, 3.0, 1.0, 0.0, 1.0, 0.0, 2.0, 0.0, 2.0, 4.0, 3.0, 4.0, 3.0, 1.0, 9.0, 14.0, 8.0, 24.0, 21.0, 37.0, 38.0, 58.0, 98.0, 199.0, 433.0, 1166.0, 15695.0, 1653.0, 511.0, 234.0, 137.0, 66.0, 56.0, 25.0, 28.0, 26.0, 9.0, 7.0, 10.0, 7.0, 1.0, 2.0, 2.0, 1.0, 0.0, 0.0, 0.0, 1.0, 1.0, 0.0, 0.0, 0.0, 0.0, 1.0, 0.0, 1.0, 0.0, 0.0, 0.0, 0.0, 1.0, 0.0, 1.0], "bins": [-0.00018442074360791594, -0.0001777391880750656, -0.00017105764709413052, -0.00016437610611319542, -0.0001576945505803451, -0.00015101299504749477, -0.00014433145406655967, -0.00013764991308562458, -0.00013096835755277425, -0.00012428680201992393, -0.00011760526103898883, -0.00011092371278209612, -0.00010424216452520341, -9.75606162683107e-05, -9.087906801141798e-05, -8.419751975452527e-05, -7.751597149763256e-05, -7.083442324073985e-05, -6.415287498384714e-05, -5.747132672695443e-05, -5.078977847006172e-05, -4.410823021316901e-05, -3.74266819562763e-05, -3.074513369938359e-05, -2.4063585442490876e-05, -1.7382037185598165e-05, -1.0700488928705454e-05, -4.018940671812743e-06, 2.662607585079968e-06, 9.344155841972679e-06, 1.602570409886539e-05, 2.27072523557581e-05, 2.9388786060735583e-05, 3.6070334317628294e-05, 4.2751882574521005e-05, 4.9433430831413716e-05, 5.611497908830643e-05, 6.279652734519914e-05, 6.947807560209185e-05, 7.615962385898456e-05, 8.284117211587727e-05, 8.952272037276998e-05, 9.620426862966269e-05, 0.0001028858168865554, 0.00010956736514344811, 0.00011624891340034083, 0.00012293046165723354, 0.00012961201719008386, 0.00013629355817101896, 0.00014297509915195405, 0.00014965665468480438, 0.0001563382102176547, 0.0001630197511985898, 0.0001697012921795249, 0.00017638284771237522, 0.00018306440324522555, 0.00018974594422616065, 0.00019642748520709574, 0.00020310904073994607, 0.0002097905962727964, 0.0002164721372537315, 0.00022315367823466659, 0.0002298352337675169, 0.00023651678930036724, 0.00024319833028130233]}, "gradients/graph_1density_fn.0.bias": {"_type": "histogram", "values": [1.0], "bins": [-2.4093547835946083e-05, -2.4093547835946083e-05]}, "gradients/graph_1density_fn.0.weight": {"_type": "histogram", "values": [1.0, 0.0, 1.0, 0.0, 0.0, 0.0, 0.0, 0.0, 0.0, 0.0, 0.0, 0.0, 0.0, 0.0, 0.0, 0.0, 0.0, 0.0, 0.0, 0.0, 1.0, 1.0, 1.0, 2.0, 2.0, 1.0, 0.0, 2.0, 0.0, 1.0, 3.0, 2.0, 7.0, 3.0, 5.0, 5.0, 3.0, 4.0, 9.0, 5.0, 5.0, 5.0, 3.0, 4.0, 9.0, 6.0, 7.0, 6.0, 4.0, 3.0, 2.0, 4.0, 2.0, 0.0, 1.0, 2.0, 2.0, 0.0, 0.0, 2.0, 0.0, 0.0, 1.0, 1.0], "bins": [-3.5354405554244295e-05, -3.450120857451111e-05, -3.364801159477793e-05, -3.279481461504474e-05, -3.194161763531156e-05, -3.1088420655578375e-05, -3.0235225494834594e-05, -2.938202851510141e-05, -2.8528831535368226e-05, -2.7675634555635042e-05, -2.682243757590186e-05, -2.5969240596168675e-05, -2.5116045435424894e-05, -2.426284845569171e-05, -2.3409651475958526e-05, -2.2556454496225342e-05, -2.1703257516492158e-05, -2.0850060536758974e-05, -1.999686355702579e-05, -1.9143666577292606e-05, -1.8290469597559422e-05, -1.7437274436815642e-05, -1.6584077457082458e-05, -1.5730880477349274e-05, -1.487768349761609e-05, -1.4024486517882906e-05, -1.3171289538149722e-05, -1.231809346791124e-05, -1.1464896488178056e-05, -1.0611699508444872e-05, -9.75850343820639e-06, -8.905306458473206e-06, -8.052109478740022e-06, -7.198912499006838e-06, -6.3457159740210045e-06, -5.492519449035171e-06, -4.6393224693019874e-06, -3.786125716942479e-06, -2.9329289645829704e-06, -2.079732212223462e-06, -1.2265354598639533e-06, -3.7333870750444476e-07, 4.798580448550638e-07, 1.3330547972145723e-06, 2.186251549574081e-06, 3.0394483019335894e-06, 3.892645054293098e-06, 4.745841579278931e-06, 5.599038559012115e-06, 6.452235538745299e-06, 7.305432063731132e-06, 8.158628588716965e-06, 9.011825568450149e-06, 9.865022548183333e-06, 1.0718218618421815e-05, 1.1571415598155e-05, 1.2424612577888183e-05, 1.3277809557621367e-05, 1.4131006537354551e-05, 1.4984202607593033e-05, 1.5837398677831516e-05, 1.66905956575647e-05, 1.7543792637297884e-05, 1.8396989617031068e-05, 1.925018659676425e-05]}, "gradients/graph_1feature_fn.4.bias": {"_type": "histogram", "values": [1.0, 0.0, 0.0, 0.0, 0.0, 0.0, 0.0, 0.0, 0.0, 1.0, 0.0, 0.0, 0.0, 0.0, 0.0, 1.0, 1.0, 0.0, 0.0, 1.0, 0.0, 2.0, 4.0, 3.0, 2.0, 2.0, 3.0, 0.0, 2.0, 4.0, 6.0, 4.0, 6.0, 2.0, 6.0, 3.0, 3.0, 3.0, 4.0, 3.0, 3.0, 3.0, 3.0, 6.0, 1.0, 5.0, 5.0, 3.0, 3.0, 3.0, 0.0, 7.0, 2.0, 3.0, 2.0, 2.0, 2.0, 3.0, 1.0, 1.0, 1.0, 1.0, 0.0, 1.0], "bins": [-3.479488077573478e-05, -3.391672726138495e-05, -3.3038573747035116e-05, -3.216042387066409e-05, -3.128227035631426e-05, -3.0404116841964424e-05, -2.952596332761459e-05, -2.864781163225416e-05, -2.7769658117904328e-05, -2.6891506422543898e-05, -2.6013352908194065e-05, -2.5135199393844232e-05, -2.4257047698483802e-05, -2.337889418413397e-05, -2.250074248877354e-05, -2.1622588974423707e-05, -2.0744435460073873e-05, -1.9866283764713444e-05, -1.898813025036361e-05, -1.810997855500318e-05, -1.7231825040653348e-05, -1.635367334529292e-05, -1.5475519830943085e-05, -1.4597367226087954e-05, -1.3719214621232823e-05, -1.284106110688299e-05, -1.1962908502027858e-05, -1.1084755897172727e-05, -1.0206603292317595e-05, -9.328450687462464e-06, -8.45029717311263e-06, -7.5721445682574995e-06, -6.693991963402368e-06, -5.815839358547237e-06, -4.9376862989447545e-06, -4.059533694089623e-06, -3.1813808618608164e-06, -2.3032280296320096e-06, -1.4250753110900405e-06, -5.469225357046525e-07, 3.312302396807354e-07, 1.2093830719095422e-06, 2.087535904138349e-06, 2.9656885089934804e-06, 3.843841113848612e-06, 4.721994173451094e-06, 5.600146778306225e-06, 6.4782998379087076e-06, 7.356452442763839e-06, 8.23460504761897e-06, 9.112757652474102e-06, 9.990911166823935e-06, 1.0869063771679066e-05, 1.1747216376534197e-05, 1.2625368981389329e-05, 1.350352158624446e-05, 1.4381674191099592e-05, 1.5259827705449425e-05, 1.6137979400809854e-05, 1.7016132915159687e-05, 1.789428642950952e-05, 1.877243812486995e-05, 1.9650591639219783e-05, 2.0528743334580213e-05, 2.1406896848930046e-05]}, "gradients/graph_1feature_fn.4.weight": {"_type": "histogram", "values": [2.0, 1.0, 0.0, 1.0, 2.0, 1.0, 3.0, 3.0, 6.0, 2.0, 7.0, 13.0, 22.0, 27.0, 48.0, 86.0, 164.0, 381.0, 1087.0, 7063.0, 5859.0, 960.0, 321.0, 141.0, 73.0, 33.0, 21.0, 5.0, 10.0, 8.0, 6.0, 5.0, 1.0, 6.0, 2.0, 2.0, 1.0, 2.0, 3.0, 0.0, 0.0, 0.0, 2.0, 0.0, 0.0, 0.0, 1.0, 1.0, 0.0, 0.0, 0.0, 0.0, 0.0, 0.0, 0.0, 0.0, 0.0, 0.0, 0.0, 0.0, 1.0, 0.0, 0.0, 1.0], "bins": [-5.0590551836648956e-05, -4.805816206499003e-05, -4.55257722933311e-05, -4.2993382521672174e-05, -4.046099275001325e-05, -3.792860297835432e-05, -3.539621320669539e-05, -3.2863823435036466e-05, -3.033143366337754e-05, -2.779904389171861e-05, -2.5266654120059684e-05, -2.2734264348400757e-05, -2.020187457674183e-05, -1.7669484805082902e-05, -1.5137095033423975e-05, -1.2604705261765048e-05, -1.007231549010612e-05, -7.5399257184471935e-06, -5.007535946788266e-06, -2.475146175129339e-06, 5.72435965295881e-08, 2.5896333681885153e-06, 5.1220231398474425e-06, 7.65441291150637e-06, 1.0186802683165297e-05, 1.2719192454824224e-05, 1.5251582226483151e-05, 1.778397199814208e-05, 2.0316361769801006e-05, 2.2848751541459933e-05, 2.538114131311886e-05, 2.7913531084777787e-05, 3.0445917218457907e-05, 3.2978306990116835e-05, 3.551069676177576e-05, 3.804308653343469e-05, 4.0575476305093616e-05, 4.3107866076752543e-05, 4.564025584841147e-05, 4.81726456200704e-05, 5.0705035391729325e-05, 5.323742516338825e-05, 5.576981493504718e-05, 5.830220470670611e-05, 6.0834594478365034e-05, 6.336698425002396e-05, 6.589937402168289e-05, 6.843176379334182e-05, 7.096415356500074e-05, 7.349654333665967e-05, 7.60289331083186e-05, 7.856132287997752e-05, 8.109371265163645e-05, 8.362610242329538e-05, 8.61584921949543e-05, 8.869088196661323e-05, 9.122327173827216e-05, 9.375566150993109e-05, 9.628805128159001e-05, 9.882044105324894e-05, 0.00010135283082490787, 0.0001038852205965668, 0.00010641761036822572, 0.00010895000013988465, 0.00011148238991154358]}, "gradients/graph_1feature_fn.2.bias": {"_type": "histogram", "values": [1.0, 0.0, 1.0, 2.0, 0.0, 0.0, 0.0, 0.0, 1.0, 0.0, 1.0, 1.0, 0.0, 0.0, 0.0, 0.0, 2.0, 1.0, 0.0, 0.0, 0.0, 1.0, 1.0, 2.0, 0.0, 2.0, 1.0, 4.0, 3.0, 3.0, 8.0, 3.0, 7.0, 10.0, 6.0, 8.0, 9.0, 18.0, 3.0, 3.0, 6.0, 1.0, 5.0, 0.0, 0.0, 1.0, 1.0, 3.0, 2.0, 1.0, 2.0, 0.0, 1.0, 1.0, 1.0, 0.0, 0.0, 0.0, 0.0, 0.0, 0.0, 0.0, 0.0, 1.0], "bins": [-6.255158950807527e-05, -6.0868929722346365e-05, -5.918626629863866e-05, -5.7503606512909755e-05, -5.5820946727180853e-05, -5.4138283303473145e-05, -5.245562351774424e-05, -5.077296373201534e-05, -4.909030394628644e-05, -4.740764052257873e-05, -4.572498073684983e-05, -4.404232095112093e-05, -4.235965752741322e-05, -4.067699774168432e-05, -3.8994337955955416e-05, -3.731167453224771e-05, -3.5629014746518806e-05, -3.3946354960789904e-05, -3.2263691537082195e-05, -3.0581031751353294e-05, -2.8898371965624392e-05, -2.7215710360906087e-05, -2.553304875618778e-05, -2.385038897045888e-05, -2.2167727365740575e-05, -2.048506576102227e-05, -1.8802405975293368e-05, -1.7119744370575063e-05, -1.5437082765856758e-05, -1.3754422980127856e-05, -1.2071761375409551e-05, -1.0389100680185948e-05, -8.706439984962344e-06, -7.023779289738741e-06, -5.3411181397677865e-06, -3.6584572171705076e-06, -1.975796294573229e-06, -2.9313537197594997e-07, 1.3895255506213289e-06, 3.0721864732186077e-06, 4.7548473958158866e-06, 6.43750809103949e-06, 8.120168786263093e-06, 9.802830390981399e-06, 1.1485491086205002e-05, 1.3168151781428605e-05, 1.485081338614691e-05, 1.6533473171875812e-05, 1.8216134776594117e-05, 1.9898796381312422e-05, 2.1581456167041324e-05, 2.326411777175963e-05, 2.494677755748853e-05, 2.6629439162206836e-05, 2.831210076692514e-05, 2.9994760552654043e-05, 3.167742397636175e-05, 3.336008376209065e-05, 3.5042743547819555e-05, 3.6725403333548456e-05, 3.8408066757256165e-05, 4.009072654298507e-05, 4.177338632871397e-05, 4.345604975242168e-05, 4.513870953815058e-05]}, "gradients/graph_1feature_fn.2.weight": {"_type": "histogram", "values": [1.0, 0.0, 0.0, 0.0, 0.0, 0.0, 0.0, 1.0, 0.0, 0.0, 2.0, 3.0, 4.0, 5.0, 0.0, 1.0, 2.0, 3.0, 2.0, 10.0, 1.0, 5.0, 8.0, 11.0, 14.0, 13.0, 22.0, 22.0, 24.0, 44.0, 45.0, 43.0, 59.0, 106.0, 136.0, 200.0, 370.0, 725.0, 1607.0, 3732.0, 6018.0, 1604.0, 637.0, 362.0, 190.0, 109.0, 83.0, 51.0, 26.0, 18.0, 17.0, 13.0, 8.0, 7.0, 6.0, 3.0, 3.0, 2.0, 1.0, 1.0, 0.0, 1.0, 2.0, 1.0], "bins": [-9.500798478256911e-05, -9.264554682886228e-05, -9.028310159919783e-05, -8.7920663645491e-05, -8.555821841582656e-05, -8.319578046211973e-05, -8.083333523245528e-05, -7.847089727874845e-05, -7.610845204908401e-05, -7.374601409537718e-05, -7.138356886571273e-05, -6.90211309120059e-05, -6.665868568234146e-05, -6.429624772863463e-05, -6.193380249897018e-05, -5.957136454526335e-05, -5.720892295357771e-05, -5.4846481361892074e-05, -5.2484039770206437e-05, -5.01215981785208e-05, -4.775915658683516e-05, -4.539671499514952e-05, -4.3034273403463885e-05, -4.067183181177825e-05, -3.830939385807142e-05, -3.594695226638578e-05, -3.358451067470014e-05, -3.12220690830145e-05, -2.8859627491328865e-05, -2.6497185899643227e-05, -2.413474430795759e-05, -2.1772302716271952e-05, -1.9409861124586314e-05, -1.7047419532900676e-05, -1.4684977941215038e-05, -1.2322537259024102e-05, -9.960095667338464e-06, -7.597654075652827e-06, -5.23521293871454e-06, -2.8727715744025772e-06, -5.103302100906149e-07, 1.8521111542213475e-06, 4.21455251853331e-06, 6.576993655471597e-06, 8.939435247157235e-06, 1.1301876838842873e-05, 1.3664317521033809e-05, 1.6026759112719446e-05, 1.8389200704405084e-05, 2.0751642296090722e-05, 2.311408388777636e-05, 2.5476525479461998e-05, 2.7838967071147636e-05, 3.020140684384387e-05, 3.256385025451891e-05, 3.492629184620455e-05, 3.728872979991138e-05, 3.965117139159702e-05, 4.2013612983282655e-05, 4.437605457496829e-05, 4.673849616665393e-05, 4.910093775833957e-05, 5.146337935002521e-05, 5.3825820941710845e-05, 5.618826253339648e-05]}, "gradients/graph_1feature_fn.0.bias": {"_type": "histogram", "values": [1.0, 0.0, 0.0, 0.0, 0.0, 0.0, 0.0, 0.0, 0.0, 3.0, 2.0, 0.0, 3.0, 0.0, 1.0, 2.0, 2.0, 2.0, 4.0, 5.0, 1.0, 4.0, 5.0, 8.0, 7.0, 5.0, 2.0, 3.0, 2.0, 3.0, 10.0, 5.0, 8.0, 5.0, 4.0, 3.0, 2.0, 3.0, 2.0, 3.0, 3.0, 3.0, 0.0, 1.0, 2.0, 1.0, 1.0, 2.0, 0.0, 1.0, 0.0, 0.0, 1.0, 0.0, 0.0, 0.0, 0.0, 0.0, 1.0, 0.0, 0.0, 0.0, 0.0, 2.0], "bins": [-7.241896673804149e-05, -7.007837120909244e-05, -6.7737782956101e-05, -6.539718742715195e-05, -6.305659917416051e-05, -6.071600364521146e-05, -5.837541175424121e-05, -5.603481986327097e-05, -5.369422797230072e-05, -5.135363608133048e-05, -4.901304419036023e-05, -4.667245229938999e-05, -4.4331856770440936e-05, -4.199126487947069e-05, -3.9650672988500446e-05, -3.73100810975302e-05, -3.4969489206559956e-05, -3.262889731558971e-05, -3.0288305424619466e-05, -2.7947711714659818e-05, -2.5607119823689573e-05, -2.3266527932719328e-05, -2.092593422275968e-05, -1.8585342331789434e-05, -1.624475044081919e-05, -1.3904158549848944e-05, -1.1563565749383997e-05, -9.22297294891905e-06, -6.882381057948805e-06, -4.5417887122312095e-06, -2.2011963665136136e-06, 1.3939597920398228e-07, 2.4799956008791924e-06, 4.820587946596788e-06, 7.161180292314384e-06, 9.501773092779331e-06, 1.1842364983749576e-05, 1.4182956874719821e-05, 1.652355058467947e-05, 1.8864142475649714e-05, 2.120473436661996e-05, 2.3545326257590204e-05, 2.588591814856045e-05, 2.8226511858520098e-05, 3.0567105568479747e-05, 3.290769745944999e-05, 3.5248289350420237e-05, 3.758888124139048e-05, 3.9929473132360727e-05, 4.227006502333097e-05, 4.4610656914301217e-05, 4.695124880527146e-05, 4.9291840696241707e-05, 5.163243622519076e-05, 5.3973028116161004e-05, 5.631362000713125e-05, 5.8654211898101494e-05, 6.099480378907174e-05, 6.333539931802079e-05, 6.567598757101223e-05, 6.801658309996128e-05, 7.035717135295272e-05, 7.269776688190177e-05, 7.503835513489321e-05, 7.737895066384226e-05]}, "gradients/graph_1feature_fn.0.weight": {"_type": "histogram", "values": [1.0, 0.0, 0.0, 1.0, 0.0, 0.0, 0.0, 0.0, 1.0, 0.0, 1.0, 1.0, 2.0, 5.0, 4.0, 2.0, 4.0, 3.0, 13.0, 21.0, 32.0, 27.0, 47.0, 55.0, 61.0, 100.0, 129.0, 172.0, 219.0, 321.0, 416.0, 591.0, 1025.0, 2313.0, 12722.0, 2711.0, 1062.0, 629.0, 481.0, 348.0, 237.0, 186.0, 127.0, 98.0, 72.0, 59.0, 40.0, 29.0, 21.0, 14.0, 11.0, 7.0, 4.0, 5.0, 2.0, 3.0, 6.0, 3.0, 3.0, 0.0, 0.0, 0.0, 0.0, 1.0], "bins": [-0.00011189503129571676, -0.00010867252422031015, -0.00010545000986894593, -0.00010222750279353932, -9.90049957181327e-05, -9.578248136676848e-05, -9.255997429136187e-05, -8.933746721595526e-05, -8.611495286459103e-05, -8.289244578918442e-05, -7.966993871377781e-05, -7.644742436241359e-05, -7.322491728700697e-05, -7.000241021160036e-05, -6.677989586023614e-05, -6.355738878482953e-05, -6.033487807144411e-05, -5.711236735805869e-05, -5.388986028265208e-05, -5.066734956926666e-05, -4.7444838855881244e-05, -4.422233178047463e-05, -4.0999821067089215e-05, -3.77773103537038e-05, -3.4554803278297186e-05, -3.133229256491177e-05, -2.810978185152635e-05, -2.4887272957130335e-05, -2.166476406273432e-05, -1.8442253349348903e-05, -1.5219744454952888e-05, -1.1997234651062172e-05, -8.774724847171456e-06, -5.552215043280739e-06, -2.329705694137374e-06, 8.928038823796669e-07, 4.115313458896708e-06, 7.337823262787424e-06, 1.0560332157183439e-05, 1.3782841961074155e-05, 1.700535176496487e-05, 2.0227860659360886e-05, 2.3450371372746304e-05, 2.6672880267142318e-05, 2.9895389161538333e-05, 3.311789987492375e-05, 3.634041058830917e-05, 3.956291766371578e-05, 4.27854283771012e-05, 4.6007939090486616e-05, 4.923044616589323e-05, 5.2452956879278645e-05, 5.567546759266406e-05, 5.8897974668070674e-05, 6.21204890194349e-05, 6.534299609484151e-05, 6.856550317024812e-05, 7.178801752161235e-05, 7.501052459701896e-05, 7.823303167242557e-05, 8.14555460237898e-05, 8.46780530991964e-05, 8.790056017460302e-05, 9.112307452596724e-05, 9.434558160137385e-05]}, "gradients/graph_1mlp.6.bias": {"_type": "histogram", "values": [1.0, 0.0, 0.0, 1.0, 1.0, 2.0, 1.0, 2.0, 2.0, 2.0, 2.0, 1.0, 1.0, 3.0, 4.0, 2.0, 1.0, 4.0, 7.0, 3.0, 4.0, 3.0, 1.0, 36.0, 1.0, 3.0, 4.0, 3.0, 0.0, 0.0, 4.0, 1.0, 1.0, 0.0, 1.0, 0.0, 0.0, 1.0, 4.0, 1.0, 1.0, 3.0, 1.0, 1.0, 0.0, 3.0, 1.0, 1.0, 0.0, 0.0, 0.0, 2.0, 1.0, 1.0, 0.0, 1.0, 0.0, 1.0, 1.0, 1.0, 0.0, 0.0, 0.0, 1.0], "bins": [-5.884594429517165e-05, -5.6337354180868715e-05, -5.3828760428586975e-05, -5.132017031428404e-05, -4.88115765620023e-05, -4.630298644769937e-05, -4.3794396333396435e-05, -4.1285802581114694e-05, -3.877721246681176e-05, -3.626862235250883e-05, -3.376002860022709e-05, -3.1251438485924155e-05, -2.8742846552631818e-05, -2.623425461933948e-05, -2.3725664505036548e-05, -2.121707257174421e-05, -1.8708480638451874e-05, -1.6199888705159537e-05, -1.3691297681361903e-05, -1.1182706657564268e-05, -8.67411472427193e-06, -6.165523245726945e-06, -3.656931767181959e-06, -1.1483402886369731e-06, 1.3602511899080127e-06, 3.868842668452999e-06, 6.3774341469979845e-06, 8.88602517079562e-06, 1.1394617104087956e-05, 1.3903209037380293e-05, 1.6411799151683226e-05, 1.8920391084975563e-05, 2.14289830182679e-05, 2.3937574951560237e-05, 2.6446166884852573e-05, 2.8954756999155506e-05, 3.146335075143725e-05, 3.397194086574018e-05, 3.648053098004311e-05, 3.8989124732324854e-05, 4.149771484662779e-05, 4.400630496093072e-05, 4.651489871321246e-05, 4.9023488827515393e-05, 5.153207894181833e-05, 5.404067269410007e-05, 5.6549262808403e-05, 5.905785656068474e-05, 6.156644667498767e-05, 6.407503678929061e-05, 6.658362690359354e-05, 6.909222429385409e-05, 7.160081440815702e-05, 7.410940452245995e-05, 7.661799463676289e-05, 7.912658475106582e-05, 8.163518214132637e-05, 8.41437722556293e-05, 8.665236236993223e-05, 8.916095248423517e-05, 9.16695425985381e-05, 9.417813271284103e-05, 9.668673010310158e-05, 9.919532021740451e-05, 0.00010170391033170745]}, "gradients/graph_1mlp.6.weight": {"_type": "histogram", "values": [2.0, 1.0, 1.0, 0.0, 2.0, 1.0, 1.0, 2.0, 7.0, 16.0, 6.0, 24.0, 24.0, 40.0, 46.0, 60.0, 97.0, 173.0, 269.0, 393.0, 694.0, 1383.0, 9402.0, 1379.0, 742.0, 448.0, 265.0, 218.0, 157.0, 110.0, 78.0, 62.0, 40.0, 55.0, 29.0, 33.0, 23.0, 24.0, 19.0, 12.0, 7.0, 10.0, 6.0, 2.0, 0.0, 4.0, 2.0, 3.0, 0.0, 3.0, 1.0, 2.0, 3.0, 0.0, 1.0, 0.0, 0.0, 1.0, 0.0, 0.0, 0.0, 0.0, 0.0, 1.0], "bins": [-2.7029334887629375e-05, -2.583241439424455e-05, -2.463549390085973e-05, -2.343857522646431e-05, -2.2241654733079486e-05, -2.1044734239694662e-05, -1.984781374630984e-05, -1.8650893252925016e-05, -1.7453974578529596e-05, -1.6257054085144773e-05, -1.506013359175995e-05, -1.3863213098375127e-05, -1.2666292604990304e-05, -1.1469373021100182e-05, -1.0272452527715359e-05, -9.075532943825237e-06, -7.878612450440414e-06, -6.681692411802942e-06, -5.48477237316547e-06, -4.287851879780646e-06, -3.090931841143174e-06, -1.894011688818864e-06, -6.97091536494554e-07, 4.99828615829756e-07, 1.696748768154066e-06, 2.8936688067915384e-06, 4.090588845429011e-06, 5.287509338813834e-06, 6.484429377451306e-06, 7.681349416088779e-06, 8.878269909473602e-06, 1.0075189493363723e-05, 1.1272109986748546e-05, 1.246903048013337e-05, 1.3665950064023491e-05, 1.4862870557408314e-05, 1.6059790141298436e-05, 1.725671063468326e-05, 1.8453631128068082e-05, 1.9650551621452905e-05, 2.0847470295848325e-05, 2.2044390789233148e-05, 2.324131128261797e-05, 2.4438231776002795e-05, 2.5635152269387618e-05, 2.683207276277244e-05, 2.802899143716786e-05, 2.9225911930552684e-05, 3.0422832423937507e-05, 3.161975109833293e-05, 3.281667159171775e-05, 3.401359208510257e-05, 3.5210512578487396e-05, 3.640743307187222e-05, 3.760435356525704e-05, 3.8801274058641866e-05, 3.999819455202669e-05, 4.119511504541151e-05, 4.2392035538796335e-05, 4.358895239420235e-05, 4.4785872887587175e-05, 4.5982793380972e-05, 4.717971387435682e-05, 4.8376634367741644e-05, 4.957355486112647e-05]}, "gradients/graph_1mlp.4.bias": {"_type": "histogram", "values": [1.0, 0.0, 0.0, 0.0, 0.0, 0.0, 0.0, 0.0, 0.0, 0.0, 0.0, 0.0, 0.0, 0.0, 1.0, 1.0, 0.0, 0.0, 0.0, 2.0, 0.0, 0.0, 2.0, 2.0, 4.0, 2.0, 8.0, 8.0, 3.0, 9.0, 30.0, 9.0, 9.0, 6.0, 5.0, 2.0, 4.0, 2.0, 2.0, 0.0, 1.0, 2.0, 5.0, 1.0, 1.0, 0.0, 1.0, 0.0, 0.0, 1.0, 1.0, 0.0, 0.0, 0.0, 0.0, 0.0, 2.0, 0.0, 0.0, 0.0, 0.0, 0.0, 0.0, 1.0], "bins": [-0.00023459928343072534, -0.00022678142704535276, -0.0002189635852118954, -0.00021114572882652283, -0.00020332787244115025, -0.0001955100306076929, -0.00018769217422232032, -0.00017987431783694774, -0.00017205646145157516, -0.0001642386196181178, -0.00015642076323274523, -0.00014860290684737265, -0.0001407850650139153, -0.00013296720862854272, -0.00012514935224317014, -0.00011733150313375518, -0.00010951365402434021, -0.00010169580491492525, -9.387794852955267e-05, -8.60600994201377e-05, -7.824224303476512e-05, -7.042439392535016e-05, -6.26065448159352e-05, -5.478869206854142e-05, -4.697083932114765e-05, -3.915298657375388e-05, -3.1335133826360106e-05, -2.351728471694514e-05, -1.569943196955137e-05, -7.8815801316523e-06, -6.372829375322908e-08, 7.754123544145841e-06, 1.557197538204491e-05, 2.3389828129438683e-05, 3.1207680876832455e-05, 3.902552998624742e-05, 4.684338273364119e-05, 5.4661235481034964e-05, 6.247908459044993e-05, 7.029694097582251e-05, 7.811479008523747e-05, 8.593263919465244e-05, 9.375049558002502e-05, 0.00010156834468943998, 0.00010938619379885495, 0.00011720405018422753, 0.0001250219065696001, 0.00013283974840305746, 0.00014065760478843004, 0.00014847546117380261, 0.00015629330300725996, 0.00016411115939263254, 0.00017192901577800512, 0.00017974685761146247, 0.00018756471399683505, 0.00019538257038220763, 0.00020320041221566498, 0.00021101826860103756, 0.00021883612498641014, 0.00022665398137178272, 0.00023447182320524007, 0.00024228967959061265, 0.00025010752142407, 0.0002579253923613578, 0.00026574323419481516]}, "gradients/graph_1mlp.4.weight": {"_type": "histogram", "values": [3.0, 1.0, 1.0, 0.0, 1.0, 0.0, 1.0, 5.0, 5.0, 8.0, 9.0, 8.0, 12.0, 19.0, 28.0, 38.0, 47.0, 62.0, 138.0, 251.0, 455.0, 812.0, 1843.0, 7311.0, 2323.0, 1145.0, 610.0, 352.0, 254.0, 153.0, 129.0, 92.0, 67.0, 34.0, 38.0, 20.0, 20.0, 19.0, 15.0, 6.0, 8.0, 4.0, 9.0, 5.0, 4.0, 1.0, 6.0, 3.0, 1.0, 1.0, 1.0, 1.0, 1.0, 0.0, 0.0, 0.0, 0.0, 0.0, 1.0, 2.0, 0.0, 0.0, 0.0, 1.0], "bins": [-5.85996858717408e-05, -5.612049062619917e-05, -5.364129538065754e-05, -5.1162100135115907e-05, -4.8682904889574274e-05, -4.620370964403264e-05, -4.372451439849101e-05, -4.124531915294938e-05, -3.876612754538655e-05, -3.628693229984492e-05, -3.380773705430329e-05, -3.1328541808761656e-05, -2.8849346563220024e-05, -2.6370151317678392e-05, -2.389095607213676e-05, -2.1411760826595128e-05, -1.8932565581053495e-05, -1.6453370335511863e-05, -1.3974175089970231e-05, -1.14949807539233e-05, -9.015785508381668e-06, -6.536590262840036e-06, -4.057395472045755e-06, -1.5782004538777983e-06, 9.009945642901585e-07, 3.380189582458115e-06, 5.859384600626072e-06, 8.338579391420353e-06, 1.0817774636961985e-05, 1.3296969882503618e-05, 1.5776164218550548e-05, 1.825535946409218e-05, 2.073455834761262e-05, 2.321375359315425e-05, 2.5692948838695884e-05, 2.8172144084237516e-05, 3.065133932977915e-05, 3.313053457532078e-05, 3.560972982086241e-05, 3.8088925066404045e-05, 4.056812031194568e-05, 4.30473119195085e-05, 4.5526507165050134e-05, 4.8005702410591766e-05, 5.04848976561334e-05, 5.296409290167503e-05, 5.544328814721666e-05, 5.7922483392758295e-05, 6.040167863829993e-05, 6.288087024586275e-05, 6.536006549140438e-05, 6.783926073694602e-05, 7.031845598248765e-05, 7.279765122802928e-05, 7.527684647357091e-05, 7.775604171911255e-05, 8.023523696465418e-05, 8.271443221019581e-05, 8.519362745573744e-05, 8.767282270127907e-05, 9.01520179468207e-05, 9.263121319236234e-05, 9.511040843790397e-05, 9.75896036834456e-05, 0.00010006879892898723]}, "gradients/graph_1mlp.2.bias": {"_type": "histogram", "values": [1.0, 0.0, 0.0, 0.0, 0.0, 0.0, 0.0, 0.0, 0.0, 0.0, 0.0, 1.0, 1.0, 1.0, 1.0, 1.0, 1.0, 2.0, 0.0, 0.0, 0.0, 0.0, 0.0, 1.0, 0.0, 3.0, 0.0, 0.0, 2.0, 1.0, 3.0, 5.0, 6.0, 9.0, 13.0, 18.0, 9.0, 10.0, 5.0, 4.0, 2.0, 5.0, 3.0, 4.0, 0.0, 1.0, 2.0, 0.0, 0.0, 2.0, 3.0, 0.0, 6.0, 0.0, 0.0, 0.0, 0.0, 0.0, 1.0, 0.0, 0.0, 0.0, 0.0, 1.0], "bins": [-0.0005561950383707881, -0.0005404410767368972, -0.0005246871151030064, -0.0005089331534691155, -0.0004931791918352246, -0.0004774252010975033, -0.00046167123946361244, -0.00044591727782972157, -0.0004301633161958307, -0.00041440935456193984, -0.00039865539292804897, -0.0003829014312941581, -0.0003671474405564368, -0.0003513934789225459, -0.00033563951728865504, -0.0003198855556547642, -0.0003041315940208733, -0.00028837763238698244, -0.0002726236707530916, -0.0002568697091192007, -0.0002411157329333946, -0.00022536177129950374, -0.00020960779511369765, -0.00019385383347980678, -0.00017809987184591591, -0.00016234591021202505, -0.00014659194857813418, -0.00013083797239232808, -0.00011508401075843722, -9.933004912454635e-05, -8.357608021469787e-05, -6.782211130484939e-05, -5.2068178774788976e-05, -3.63142135029193e-05, -2.0560248231049627e-05, -4.806282959179953e-06, 1.0947682312689722e-05, 2.6701647584559396e-05, 4.245561285642907e-05, 5.8209578128298745e-05, 7.396354340016842e-05, 8.971750503405929e-05, 0.00010547147394390777, 0.00012122544285375625, 0.00013697940448764712, 0.00015273336612153798, 0.00016848734230734408, 0.00018424130394123495, 0.0001999952655751258, 0.00021574922720901668, 0.00023150318884290755, 0.0002472571504767984, 0.00026301114121451974, 0.0002787651028484106, 0.0002945190644823015, 0.00031027302611619234, 0.0003260269877500832, 0.0003417809493839741, 0.00035753491101786494, 0.0003732888726517558, 0.0003890428342856467, 0.000404796825023368, 0.00042055078665725887, 0.00043630474829114974, 0.0004520587099250406]}, "gradients/graph_1mlp.2.weight": {"_type": "histogram", "values": [2.0, 2.0, 0.0, 0.0, 1.0, 2.0, 2.0, 3.0, 5.0, 2.0, 6.0, 6.0, 7.0, 10.0, 10.0, 6.0, 17.0, 22.0, 30.0, 32.0, 44.0, 66.0, 105.0, 150.0, 214.0, 403.0, 813.0, 3008.0, 7891.0, 1664.0, 711.0, 395.0, 218.0, 167.0, 98.0, 80.0, 54.0, 39.0, 21.0, 20.0, 12.0, 10.0, 6.0, 6.0, 4.0, 5.0, 4.0, 5.0, 0.0, 2.0, 0.0, 1.0, 1.0, 0.0, 0.0, 0.0, 0.0, 0.0, 0.0, 1.0, 0.0, 0.0, 0.0, 1.0], "bins": [-0.0003695778432302177, -0.00035650524660013616, -0.0003434326499700546, -0.0003303600533399731, -0.000317287485813722, -0.0003042148891836405, -0.00029114229255355895, -0.0002780696959234774, -0.0002649970992933959, -0.00025192450266331434, -0.00023885192058514804, -0.0002257793239550665, -0.0002127067418769002, -0.00019963414524681866, -0.00018656154861673713, -0.00017348896653857082, -0.0001604163699084893, -0.00014734377327840775, -0.00013427119120024145, -0.00012119859457015991, -0.00010812599794007838, -9.505340858595446e-05, -8.198081923183054e-05, -6.8908222601749e-05, -5.583563324762508e-05, -4.2763040255522355e-05, -2.969044908240903e-05, -1.6617857909295708e-05, -3.5452649171929806e-06, 9.527327165415045e-06, 2.259991924802307e-05, 3.5672510421136394e-05, 4.874510341323912e-05, 6.181769276736304e-05, 7.489028939744458e-05, 8.79628787515685e-05, 0.00010103547538165003, 0.00011410806473577395, 0.00012718065408989787, 0.0001402532507199794, 0.00015332584735006094, 0.00016639842942822725, 0.00017947102605830878, 0.00019254362268839031, 0.00020561620476655662, 0.00021868880139663815, 0.0002317613980267197, 0.0002448339946568012, 0.0002579065621830523, 0.00027097915881313384, 0.00028405175544321537, 0.0002971243520732969, 0.00031019694870337844, 0.00032326954533346, 0.0003363421419635415, 0.0003494147094897926, 0.0003624873061198741, 0.00037555990274995565, 0.0003886324993800372, 0.0004017050960101187, 0.00041477769264020026, 0.00042785026016645133, 0.00044092285679653287, 0.0004539954534266144, 0.00046706805005669594]}, "gradients/graph_1mlp.0.bias": {"_type": "histogram", "values": [1.0, 0.0, 0.0, 0.0, 0.0, 0.0, 0.0, 0.0, 0.0, 0.0, 0.0, 0.0, 0.0, 1.0, 1.0, 0.0, 0.0, 0.0, 0.0, 0.0, 0.0, 0.0, 0.0, 0.0, 2.0, 2.0, 6.0, 4.0, 4.0, 3.0, 2.0, 2.0, 6.0, 5.0, 10.0, 7.0, 6.0, 6.0, 9.0, 4.0, 4.0, 7.0, 4.0, 3.0, 4.0, 0.0, 3.0, 3.0, 3.0, 4.0, 3.0, 1.0, 1.0, 0.0, 0.0, 1.0, 2.0, 1.0, 0.0, 0.0, 0.0, 1.0, 1.0, 1.0], "bins": [-0.0005087541649118066, -0.0004946236149407923, -0.00048049300676211715, -0.00046636242768727243, -0.0004522318486124277, -0.000438101269537583, -0.00042397071956656873, -0.000409840140491724, -0.0003957095614168793, -0.0003815789823420346, -0.00036744840326718986, -0.00035331782419234514, -0.0003391872451175004, -0.0003250566660426557, -0.000310926086967811, -0.00029679550789296627, -0.000282664957921952, -0.0002685343788471073, -0.0002544037997722626, -0.00024027322069741786, -0.00022614264162257314, -0.00021201206254772842, -0.0001978814834728837, -0.00018375090439803898, -0.00016962032532319427, -0.00015548976080026478, -0.00014135918172542006, -0.00012722860265057534, -0.00011309802357573062, -9.896745177684352e-05, -8.48368727019988e-05, -7.07063009031117e-05, -5.657572182826698e-05, -4.244514639140107e-05, -2.8314569135545753e-05, -1.418399278918514e-05, -5.341644282452762e-08, 1.4077159903536085e-05, 2.8207736249896698e-05, 4.233831350575201e-05, 5.646888894261792e-05, 7.059946801746264e-05, 8.473003981634974e-05, 9.886061889119446e-05, 0.00011299119796603918, 0.0001271217770408839, 0.0001412523415638134, 0.0001553829206386581, 0.00016951349971350282, 0.00018364407878834754, 0.00019777465786319226, 0.00021190522238612175, 0.00022603580146096647, 0.00024016638053581119, 0.0002542969596106559, 0.0002684275386855006, 0.00028255811776034534, 0.00029668869683519006, 0.0003108192759100348, 0.00032494982588104904, 0.00033908040495589375, 0.0003532109840307385, 0.0003673415631055832, 0.0003814721421804279, 0.0003956027212552726]}, "gradients/graph_1mlp.0.weight": {"_type": "histogram", "values": [1.0, 0.0, 0.0, 1.0, 0.0, 1.0, 0.0, 0.0, 0.0, 0.0, 0.0, 1.0, 0.0, 1.0, 2.0, 0.0, 1.0, 3.0, 2.0, 3.0, 3.0, 1.0, 2.0, 6.0, 9.0, 10.0, 27.0, 38.0, 50.0, 115.0, 228.0, 463.0, 853.0, 1652.0, 1977.0, 1189.0, 650.0, 345.0, 178.0, 106.0, 49.0, 36.0, 15.0, 20.0, 13.0, 3.0, 0.0, 1.0, 3.0, 1.0, 1.0, 0.0, 0.0, 1.0, 0.0, 1.0, 0.0, 0.0, 0.0, 0.0, 0.0, 0.0, 1.0, 1.0], "bins": [-0.001311838859692216, -0.0012735293712466955, -0.0012352197663858533, -0.0011969102779403329, -0.0011586006730794907, -0.0011202911846339703, -0.0010819816961884499, -0.0010436720913276076, -0.0010053626028820872, -0.0009670530562289059, -0.0009287435095757246, -0.0008904339629225433, -0.000852124416269362, -0.0008138148696161807, -0.0007755053811706603, -0.0007371958345174789, -0.0006988862878642976, -0.0006605767412111163, -0.000622267194557935, -0.0005839577061124146, -0.0005456481594592333, -0.000507338612806052, -0.00046902906615287066, -0.0004307195486035198, -0.0003924100019503385, -0.00035410045529715717, -0.0003157909377478063, -0.000277481391094625, -0.0002391718589933589, -0.00020086232689209282, -0.0001625527802389115, -0.00012424324813764542, -8.593371603637934e-05, -4.7624180297134444e-05, -9.314644557889551e-06, 2.8994891181355342e-05, 6.730442692060024e-05, 0.00010561395902186632, 0.00014392350567504764, 0.00018223303777631372, 0.0002205425698775798, 0.0002588521165307611, 0.000297161634080112, 0.0003354711807332933, 0.0003737807273864746, 0.00041209024493582547, 0.0004503997915890068, 0.0004887093091383576, 0.000527018855791539, 0.0005653284024447203, 0.0006036379490979016, 0.000641947437543422, 0.0006802569841966033, 0.0007185665308497846, 0.0007568760775029659, 0.0007951856241561472, 0.0008334951708093286, 0.000871804659254849, 0.0009101142059080303, 0.0009484237525612116, 0.000986733241006732, 0.0010250428458675742, 0.0010633523343130946, 0.0011016619391739368, 0.0011399714276194572]}, "gradients/rgb_fn.2.bias": {"_type": "histogram", "values": [1.0, 0.0, 0.0, 0.0, 0.0, 0.0, 0.0, 0.0, 0.0, 0.0, 0.0, 0.0, 0.0, 0.0, 0.0, 0.0, 0.0, 0.0, 0.0, 0.0, 0.0, 0.0, 0.0, 0.0, 0.0, 0.0, 0.0, 0.0, 0.0, 0.0, 1.0, 0.0, 0.0, 0.0, 0.0, 0.0, 0.0, 0.0, 0.0, 0.0, 0.0, 0.0, 0.0, 0.0, 0.0, 0.0, 0.0, 0.0, 0.0, 0.0, 0.0, 0.0, 0.0, 0.0, 0.0, 0.0, 0.0, 0.0, 0.0, 0.0, 0.0, 0.0, 0.0, 1.0], "bins": [-0.00013063967344351113, -0.00012809074542019516, -0.0001255418173968792, -0.00012299288937356323, -0.00012044395407428965, -0.00011789502605097368, -0.0001153460907517001, -0.00011279716272838414, -0.00011024823470506817, -0.0001076993066817522, -0.00010515037865843624, -0.00010260144335916266, -0.00010005251533584669, -9.750358731253073e-05, -9.495465201325715e-05, -9.240572398994118e-05, -8.985679596662521e-05, -8.730786794330925e-05, -8.475893991999328e-05, -8.22100046207197e-05, -7.966107659740373e-05, -7.711214857408777e-05, -7.456321327481419e-05, -7.201428525149822e-05, -6.946535722818226e-05, -6.691642920486629e-05, -6.436750118155032e-05, -6.181856588227674e-05, -5.926963785896078e-05, -5.672070983564481e-05, -5.417177817435004e-05, -5.1622846513055265e-05, -4.907391485176049e-05, -4.652498319046572e-05, -4.397605516714975e-05, -4.1427127143833786e-05, -3.887819548253901e-05, -3.632926382124424e-05, -3.3780335797928274e-05, -3.123140777461231e-05, -2.8682476113317534e-05, -2.6133546271012165e-05, -2.3584616428706795e-05, -2.1035686586401425e-05, -1.8486756744096056e-05, -1.5937826901790686e-05, -1.3388897059485316e-05, -1.0839967217179947e-05, -8.291037374874577e-06, -5.742107532569207e-06, -3.1931776902638376e-06, -6.442478479584679e-07, 1.9046819943469018e-06, 4.4536118366522714e-06, 7.002541678957641e-06, 9.55147152126301e-06, 1.210040136356838e-05, 1.464933120587375e-05, 1.719826104817912e-05, 1.974719089048449e-05, 2.229612073278986e-05, 2.484505057509523e-05, 2.73939804174006e-05, 2.9942910259705968e-05, 3.249184010201134e-05]}, "gradients/rgb_fn.2.weight": {"_type": "histogram", "values": [2.0, 0.0, 1.0, 1.0, 0.0, 0.0, 0.0, 0.0, 0.0, 2.0, 0.0, 3.0, 0.0, 0.0, 0.0, 4.0, 0.0, 5.0, 5.0, 12.0, 12.0, 10.0, 196.0, 32.0, 8.0, 11.0, 8.0, 4.0, 5.0, 5.0, 4.0, 4.0, 1.0, 6.0, 0.0, 6.0, 6.0, 3.0, 2.0, 4.0, 2.0, 2.0, 2.0, 0.0, 4.0, 0.0, 0.0, 0.0, 0.0, 0.0, 0.0, 0.0, 1.0, 2.0, 1.0, 2.0, 1.0, 1.0, 1.0, 1.0, 0.0, 1.0, 0.0, 1.0], "bins": [-0.0005645714118145406, -0.0005398101056925952, -0.0005150488577783108, -0.0004902875516563654, -0.00046552624553442, -0.00044076493941247463, -0.0004160036623943597, -0.0003912423853762448, -0.0003664810792542994, -0.000341719773132354, -0.0003169584961142391, -0.00029219721909612417, -0.0002674359129741788, -0.00024267462140414864, -0.00021791332983411849, -0.00019315203826408833, -0.00016839074669405818, -0.00014362945512402803, -0.00011886816355399787, -9.410687198396772e-05, -6.934558041393757e-05, -4.4584288843907416e-05, -1.9822997273877263e-05, 4.93829429615289e-06, 2.9699585866183043e-05, 5.4460877436213195e-05, 7.922216900624335e-05, 0.0001039834605762735, 0.00012874475214630365, 0.0001535060437163338, 0.00017826733528636396, 0.0002030286268563941, 0.00022778997663408518, 0.00025255128275603056, 0.0002773125597741455, 0.0003020738367922604, 0.0003268351429142058, 0.00035159644903615117, 0.0003763577260542661, 0.000401119003072381, 0.0004258803091943264, 0.0004506416153162718, 0.0004754028923343867, 0.0005001641693525016, 0.000524925475474447, 0.0005496867815963924, 0.0005744480295106769, 0.0005992093356326222, 0.0006239706417545676, 0.000648731947876513, 0.0006734932539984584, 0.0006982545019127429, 0.0007230158080346882, 0.0007477771141566336, 0.0007725383620709181, 0.0007972996681928635, 0.0008220609743148088, 0.0008468222804367542, 0.0008715835865586996, 0.0008963448344729841, 0.0009211061405949295, 0.0009458674467168748, 0.0009706286946311593, 0.0009953900007531047, 0.00102015130687505]}, "gradients/rgb_fn.0.bias": {"_type": "histogram", "values": [1.0, 0.0, 0.0, 0.0, 0.0, 0.0, 1.0, 0.0, 1.0, 0.0, 0.0, 0.0, 0.0, 1.0, 0.0, 0.0, 0.0, 3.0, 2.0, 2.0, 3.0, 5.0, 3.0, 8.0, 11.0, 60.0, 18.0, 5.0, 0.0, 0.0, 0.0, 1.0, 1.0, 0.0, 0.0, 0.0, 1.0, 0.0, 0.0, 0.0, 0.0, 0.0, 0.0, 0.0, 0.0, 0.0, 0.0, 0.0, 0.0, 0.0, 0.0, 0.0, 0.0, 0.0, 0.0, 0.0, 0.0, 0.0, 0.0, 0.0, 0.0, 0.0, 0.0, 1.0], "bins": [-9.930739179253578e-05, -9.544249041937292e-05, -9.157758177025244e-05, -8.771268039708957e-05, -8.38477790239267e-05, -7.998287037480623e-05, -7.611796900164336e-05, -7.22530676284805e-05, -6.838816625531763e-05, -6.452325760619715e-05, -6.065835623303428e-05, -5.679345122189261e-05, -5.292854621075094e-05, -4.906364483758807e-05, -4.51987398264464e-05, -4.1333838453283533e-05, -3.746893344214186e-05, -3.360402843100019e-05, -2.9739127057837322e-05, -2.587422204669565e-05, -2.200931885454338e-05, -1.814441566239111e-05, -1.427951156074414e-05, -1.041460745909717e-05, -6.5497042669449e-06, -2.68480062004528e-06, 1.18010302685434e-06, 5.04500667375396e-06, 8.90991032065358e-06, 1.277481351280585e-05, 1.6639718523947522e-05, 2.050462171609979e-05, 2.436952490825206e-05, 2.823442810040433e-05, 3.20993312925566e-05, 3.596423630369827e-05, 3.982913767686114e-05, 4.369404268800281e-05, 4.755894769914448e-05, 5.142384907230735e-05, 5.528875408344902e-05, 5.9153659094590694e-05, 6.301856046775356e-05, 6.688346184091642e-05, 7.07483704900369e-05, 7.461327186319977e-05, 7.847817323636264e-05, 8.234308188548312e-05, 8.620798325864598e-05, 9.007288463180885e-05, 9.393779328092933e-05, 9.780269465409219e-05, 0.00010166759602725506, 0.00010553250467637554, 0.0001093974060495384, 0.00011326230742270127, 0.00011712721607182175, 0.00012099211744498461, 0.00012485701881814748, 0.00012872192019131035, 0.0001325868215644732, 0.0001364517374895513, 0.00014031663886271417, 0.00014418154023587704, 0.0001480464416090399]}, "gradients/rgb_fn.0.weight": {"_type": "histogram", "values": [1.0, 0.0, 0.0, 2.0, 0.0, 1.0, 1.0, 2.0, 1.0, 2.0, 2.0, 0.0, 0.0, 3.0, 3.0, 3.0, 3.0, 6.0, 4.0, 11.0, 16.0, 25.0, 30.0, 57.0, 98.0, 261.0, 1430.0, 17530.0, 683.0, 216.0, 77.0, 31.0, 23.0, 13.0, 15.0, 10.0, 13.0, 8.0, 4.0, 6.0, 5.0, 4.0, 2.0, 2.0, 0.0, 3.0, 0.0, 0.0, 0.0, 0.0, 0.0, 0.0, 0.0, 0.0, 0.0, 0.0, 0.0, 0.0, 0.0, 0.0, 0.0, 0.0, 0.0, 1.0], "bins": [-0.0009439779096283019, -0.0009094162378460169, -0.0008748545660637319, -0.0008402928942814469, -0.0008057312807068229, -0.0007711696089245379, -0.0007366079371422529, -0.000702046265359968, -0.000667484593577683, -0.000632922921795398, -0.000598361250013113, -0.000563799578230828, -0.0005292379064485431, -0.000494676292873919, -0.00046011462109163404, -0.00042555294930934906, -0.0003909912775270641, -0.0003564296057447791, -0.00032186793396249413, -0.0002873062912840396, -0.00025274461950175464, -0.00021818294771946967, -0.00018362129048909992, -0.00014905963325873017, -0.0001144979614764452, -7.993629697011784e-05, -4.5374632463790476e-05, -1.0812967957463115e-05, 2.3748696548864245e-05, 5.8310361055191606e-05, 9.287202556151897e-05, 0.00012743368279188871, 0.00016199529636651278, 0.00019655696814879775, 0.0002311186253791675, 0.00026568028260953724, 0.0003002419543918222, 0.0003348036261741072, 0.0003693652688525617, 0.0004039269406348467, 0.00043848861241713166, 0.00047305028419941664, 0.0005076119559817016, 0.0005421736277639866, 0.0005767352413386106, 0.0006112969131208956, 0.0006458585849031806, 0.0006804202566854656, 0.0007149819284677505, 0.0007495436002500355, 0.0007841052720323205, 0.0008186669438146055, 0.0008532286155968904, 0.0008877902291715145, 0.0009223519009537995, 0.0009569135727360845, 0.0009914753027260303, 0.0010260369163006544, 0.0010605985298752785, 0.0010951602598652244, 0.0011297218734398484, 0.0011642836034297943, 0.0011988452170044184, 0.0012334069469943643, 0.0012679685605689883]}, "gradients/density_fn.0.bias": {"_type": "histogram", "values": [1.0], "bins": [-1.3415475223155227e-05, -1.3415475223155227e-05]}, "gradients/density_fn.0.weight": {"_type": "histogram", "values": [2.0, 0.0, 0.0, 0.0, 1.0, 0.0, 0.0, 1.0, 0.0, 1.0, 2.0, 1.0, 1.0, 1.0, 5.0, 1.0, 3.0, 3.0, 5.0, 2.0, 1.0, 4.0, 2.0, 3.0, 4.0, 4.0, 5.0, 3.0, 3.0, 7.0, 2.0, 2.0, 6.0, 4.0, 3.0, 2.0, 2.0, 5.0, 3.0, 2.0, 2.0, 5.0, 4.0, 1.0, 3.0, 1.0, 3.0, 5.0, 0.0, 1.0, 1.0, 0.0, 2.0, 2.0, 0.0, 0.0, 1.0, 0.0, 0.0, 0.0, 0.0, 0.0, 0.0, 1.0], "bins": [-4.1239167330786586e-05, -3.989430842921138e-05, -3.854944952763617e-05, -3.7204586988082156e-05, -3.585972808650695e-05, -3.451486918493174e-05, -3.317001028335653e-05, -3.182514774380252e-05, -3.048028884222731e-05, -2.9135429940652102e-05, -2.7790571039076895e-05, -2.6445710318512283e-05, -2.5100851416937076e-05, -2.3755990696372464e-05, -2.2411131794797257e-05, -2.1066271074232645e-05, -1.9721412172657438e-05, -1.837655327108223e-05, -1.703169255051762e-05, -1.568683364894241e-05, -1.43419729283778e-05, -1.2997114026802592e-05, -1.1652254215732682e-05, -1.0307394404662773e-05, -8.962534593592864e-06, -7.617674782522954e-06, -6.2728149714530446e-06, -4.927955615130486e-06, -3.5830958040605765e-06, -2.238235992990667e-06, -8.93376409294433e-07, 4.514832880886388e-07, 1.7963429854717106e-06, 3.14120279654162e-06, 4.4860626076115295e-06, 5.830921963934088e-06, 7.175781775003998e-06, 8.520641131326556e-06, 9.865500942396466e-06, 1.1210360753466375e-05, 1.2555220564536285e-05, 1.3900080375606194e-05, 1.5244940186676104e-05, 1.6589799997746013e-05, 1.793465889932122e-05, 1.9279519619885832e-05, 2.062437852146104e-05, 2.196923924202565e-05, 2.331409814360086e-05, 2.4658957045176066e-05, 2.6003817765740678e-05, 2.7348676667315885e-05, 2.8693537387880497e-05, 3.0038396289455704e-05, 3.1383257010020316e-05, 3.272811591159552e-05, 3.407297481317073e-05, 3.541783371474594e-05, 3.6762696254299954e-05, 3.810755515587516e-05, 3.945241405745037e-05, 4.079727295902558e-05, 4.214213549857959e-05, 4.34869944001548e-05, 4.483185330173001e-05]}, "gradients/feature_fn.4.bias": {"_type": "histogram", "values": [1.0, 0.0, 0.0, 0.0, 0.0, 0.0, 0.0, 0.0, 0.0, 0.0, 1.0, 0.0, 0.0, 0.0, 0.0, 0.0, 2.0, 1.0, 3.0, 1.0, 2.0, 3.0, 3.0, 3.0, 4.0, 7.0, 7.0, 10.0, 10.0, 7.0, 5.0, 13.0, 8.0, 10.0, 5.0, 7.0, 1.0, 5.0, 2.0, 0.0, 0.0, 1.0, 1.0, 2.0, 0.0, 1.0, 0.0, 1.0, 0.0, 0.0, 0.0, 0.0, 0.0, 0.0, 0.0, 0.0, 0.0, 0.0, 0.0, 0.0, 0.0, 0.0, 0.0, 1.0], "bins": [-8.741940837353468e-05, -8.44791138661094e-05, -8.153881208272651e-05, -7.859851757530123e-05, -7.565822306787595e-05, -7.271792128449306e-05, -6.977762677706778e-05, -6.68373322696425e-05, -6.389703048625961e-05, -6.095673597883433e-05, -5.8016437833430246e-05, -5.507613968802616e-05, -5.213584518060088e-05, -4.9195547035196796e-05, -4.625524888979271e-05, -4.331495438236743e-05, -4.0374656236963347e-05, -3.743435809155926e-05, -3.449406358413398e-05, -3.15537654387299e-05, -2.861346729332581e-05, -2.567317096691113e-05, -2.2732874640496448e-05, -1.9792576495092362e-05, -1.685228016867768e-05, -1.3911982932768296e-05, -1.0971685696858913e-05, -8.03138937044423e-06, -5.091092134534847e-06, -2.1507951259991387e-06, 7.895018825365696e-07, 3.729798891072278e-06, 6.670095899607986e-06, 9.61039313551737e-06, 1.2550690371426754e-05, 1.5490986697841436e-05, 1.843128484324552e-05, 2.1371581169660203e-05, 2.4311877496074885e-05, 2.725217564147897e-05, 3.0192471967893653e-05, 3.3132768294308335e-05, 3.607306643971242e-05, 3.9013364585116506e-05, 4.1953659092541784e-05, 4.489395723794587e-05, 4.7834255383349955e-05, 5.0774549890775234e-05, 5.371484803617932e-05, 5.6655146181583405e-05, 5.959544068900868e-05, 6.253574247239158e-05, 6.547603697981685e-05, 6.841633148724213e-05, 7.135663327062503e-05, 7.42969277780503e-05, 7.723722228547558e-05, 8.017752406885847e-05, 8.311781857628375e-05, 8.605811308370903e-05, 8.899841486709192e-05, 9.19387093745172e-05, 9.487900388194248e-05, 9.781930566532537e-05, 0.00010075960017275065]}, "gradients/feature_fn.4.weight": {"_type": "histogram", "values": [1.0, 0.0, 0.0, 0.0, 0.0, 0.0, 0.0, 0.0, 0.0, 0.0, 0.0, 0.0, 1.0, 0.0, 0.0, 3.0, 2.0, 2.0, 4.0, 4.0, 3.0, 4.0, 5.0, 2.0, 4.0, 7.0, 13.0, 9.0, 24.0, 19.0, 42.0, 54.0, 78.0, 169.0, 235.0, 541.0, 1591.0, 10434.0, 1762.0, 587.0, 301.0, 154.0, 99.0, 72.0, 50.0, 31.0, 22.0, 19.0, 9.0, 4.0, 7.0, 4.0, 2.0, 1.0, 2.0, 3.0, 2.0, 0.0, 0.0, 1.0, 0.0, 0.0, 0.0, 1.0], "bins": [-0.00027090919320471585, -0.0002636939170770347, -0.0002564786409493536, -0.00024926336482167244, -0.0002420480886939913, -0.00023483281256631017, -0.00022761753643862903, -0.0002204022603109479, -0.00021318698418326676, -0.00020597170805558562, -0.0001987564319279045, -0.00019154115580022335, -0.00018432587967254221, -0.00017711060354486108, -0.00016989532741717994, -0.0001626800512894988, -0.00015546477516181767, -0.00014824949903413653, -0.0001410342229064554, -0.00013381894677877426, -0.00012660367065109313, -0.00011938839452341199, -0.00011217311839573085, -0.00010495784226804972, -9.774256614036858e-05, -9.052729001268744e-05, -8.331201388500631e-05, -7.609673775732517e-05, -6.888146162964404e-05, -6.16661855019629e-05, -5.4450909374281764e-05, -4.723563324660063e-05, -4.002035711891949e-05, -3.2805080991238356e-05, -2.558980486355722e-05, -1.8374528735876083e-05, -1.1159252608194947e-05, -3.943976480513811e-06, 3.271299647167325e-06, 1.0486575774848461e-05, 1.7701851902529597e-05, 2.4917128030210733e-05, 3.213240415789187e-05, 3.9347680285573006e-05, 4.656295641325414e-05, 5.377823254093528e-05, 6.0993508668616414e-05, 6.820878479629755e-05, 7.542406092397869e-05, 8.263933705165982e-05, 8.985461317934096e-05, 9.70698893070221e-05, 0.00010428516543470323, 0.00011150044156238437, 0.0001187157176900655, 0.00012593099381774664, 0.00013314626994542778, 0.0001403615460731089, 0.00014757682220079005, 0.00015479209832847118, 0.00016200737445615232, 0.00016922265058383346, 0.0001764379267115146, 0.00018365320283919573, 0.00019086847896687686]}, "gradients/feature_fn.2.bias": {"_type": "histogram", "values": [1.0, 0.0, 0.0, 0.0, 0.0, 0.0, 0.0, 0.0, 0.0, 0.0, 0.0, 0.0, 0.0, 0.0, 1.0, 0.0, 0.0, 1.0, 0.0, 0.0, 0.0, 0.0, 1.0, 1.0, 1.0, 1.0, 1.0, 0.0, 0.0, 2.0, 1.0, 0.0, 3.0, 1.0, 2.0, 0.0, 0.0, 2.0, 2.0, 5.0, 6.0, 6.0, 6.0, 4.0, 7.0, 6.0, 10.0, 13.0, 10.0, 5.0, 3.0, 2.0, 4.0, 0.0, 3.0, 1.0, 1.0, 3.0, 3.0, 1.0, 0.0, 3.0, 1.0, 4.0], "bins": [-0.00014094519428908825, -0.00013790927187073976, -0.00013487334945239127, -0.00013183741248212755, -0.00012880149006377906, -0.00012576556764543056, -0.00012272964522708207, -0.00011969371553277597, -0.00011665779311442748, -0.00011362187069607899, -0.00011058594100177288, -0.00010755001858342439, -0.0001045140961650759, -0.00010147816647076979, -9.84422440524213e-05, -9.54063143581152e-05, -9.23703919397667e-05, -8.933446952141821e-05, -8.629853982711211e-05, -8.326261740876362e-05, -8.022668771445751e-05, -7.719076529610902e-05, -7.415484287776053e-05, -7.111891318345442e-05, -6.808299076510593e-05, -6.504706834675744e-05, -6.201113865245134e-05, -5.8975216234102845e-05, -5.593929017777555e-05, -5.290336412144825e-05, -4.986744170309976e-05, -4.683151564677246e-05, -4.379558231448755e-05, -4.075965625816025e-05, -3.772373020183295e-05, -3.468780778348446e-05, -3.165188172715716e-05, -2.8615955670829862e-05, -2.5580031433491968e-05, -2.2544107196154073e-05, -1.9508181139826775e-05, -1.6472255083499476e-05, -1.3436330846161582e-05, -1.0400405699328985e-05, -7.3644805524963886e-06, -4.328555405663792e-06, -1.2926302588311955e-06, 1.743294888001401e-06, 4.7792200348339975e-06, 7.815145181666594e-06, 1.085107032849919e-05, 1.3886995475331787e-05, 1.6922920622164384e-05, 1.9958846678491682e-05, 2.2994770915829577e-05, 2.603069515316747e-05, 2.906662120949477e-05, 3.210254726582207e-05, 3.5138473322149366e-05, 3.817439574049786e-05, 4.1210321796825156e-05, 4.4246247853152454e-05, 4.7282170271500945e-05, 5.031809632782824e-05, 5.335402238415554e-05]}, "gradients/feature_fn.2.weight": {"_type": "histogram", "values": [1.0, 0.0, 0.0, 1.0, 0.0, 1.0, 2.0, 2.0, 2.0, 1.0, 1.0, 3.0, 3.0, 1.0, 2.0, 1.0, 1.0, 5.0, 4.0, 8.0, 4.0, 6.0, 8.0, 7.0, 12.0, 11.0, 19.0, 14.0, 16.0, 29.0, 43.0, 36.0, 65.0, 86.0, 128.0, 173.0, 296.0, 425.0, 881.0, 2039.0, 7723.0, 2361.0, 958.0, 431.0, 228.0, 142.0, 78.0, 45.0, 26.0, 11.0, 14.0, 8.0, 6.0, 7.0, 1.0, 1.0, 0.0, 2.0, 1.0, 1.0, 0.0, 1.0, 1.0, 1.0], "bins": [-0.00022078662004787475, -0.00021533999824896455, -0.00020989336189813912, -0.00020444674009922892, -0.00019900011830031872, -0.0001935534819494933, -0.0001881068601505831, -0.00018266022379975766, -0.00017721360200084746, -0.00017176698020193726, -0.00016632034385111183, -0.00016087372205220163, -0.0001554270857013762, -0.000149980463902466, -0.0001445338421035558, -0.00013908720575273037, -0.00013364058395382017, -0.00012819396215490997, -0.00012274732580408454, -0.00011730070400517434, -0.00011185407493030652, -0.00010640744585543871, -0.00010096082405652851, -9.55141949816607e-05, -9.006756590679288e-05, -8.462093683192506e-05, -7.917430775705725e-05, -7.372768595814705e-05, -6.828105688327923e-05, -6.283442780841142e-05, -5.738780237152241e-05, -5.1941176934633404e-05, -4.649454785976559e-05, -4.1047918784897774e-05, -3.560129334800877e-05, -3.0154666092130356e-05, -2.4708038836251944e-05, -1.9261411580373533e-05, -1.3814784324495122e-05, -8.36815706861671e-06, -2.9215298127382994e-06, 2.525097443140112e-06, 7.971724699018523e-06, 1.3418351954896934e-05, 1.8864979210775346e-05, 2.4311606466653757e-05, 2.9758233722532168e-05, 3.5204859159421176e-05, 4.065148823428899e-05, 4.6098117309156805e-05, 5.154474274604581e-05, 5.699136818293482e-05, 6.243799725780264e-05, 6.788462633267045e-05, 7.333124813158065e-05, 7.877787720644847e-05, 8.422450628131628e-05, 8.96711353561841e-05, 9.511776443105191e-05, 0.00010056438622996211, 0.00010601101530482993, 0.00011145764437969774, 0.00011690426617860794, 0.00012235090252943337, 0.00012779752432834357]}, "gradients/feature_fn.0.bias": {"_type": "histogram", "values": [1.0, 0.0, 0.0, 0.0, 0.0, 1.0, 0.0, 0.0, 0.0, 0.0, 1.0, 0.0, 1.0, 0.0, 1.0, 1.0, 1.0, 1.0, 0.0, 2.0, 0.0, 0.0, 1.0, 1.0, 3.0, 6.0, 1.0, 4.0, 3.0, 1.0, 3.0, 8.0, 4.0, 3.0, 6.0, 3.0, 3.0, 5.0, 6.0, 8.0, 9.0, 10.0, 4.0, 2.0, 2.0, 4.0, 4.0, 2.0, 0.0, 2.0, 2.0, 1.0, 1.0, 0.0, 0.0, 1.0, 0.0, 2.0, 0.0, 1.0, 0.0, 1.0, 0.0, 1.0], "bins": [-0.00014677549188490957, -0.00014301239571068436, -0.00013924931408837438, -0.00013548621791414917, -0.00013172313629183918, -0.00012796004011761397, -0.000124196958495304, -0.00012043386232107878, -0.00011667077342281118, -0.00011290768452454358, -0.00010914458835031837, -0.00010538149945205078, -0.00010161841055378318, -9.785532165551558e-05, -9.409223275724798e-05, -9.032914385898039e-05, -8.656605496071279e-05, -8.280295878648758e-05, -7.903986988821998e-05, -7.527678098995239e-05, -7.151369209168479e-05, -6.775060319341719e-05, -6.39875142951496e-05, -6.022442175890319e-05, -5.6461329222656786e-05, -5.269824032438919e-05, -4.893515142612159e-05, -4.5172062527853996e-05, -4.140896999160759e-05, -3.7645881093339995e-05, -3.38827921950724e-05, -3.0119701477815397e-05, -2.6356610760558397e-05, -2.2593520043301396e-05, -1.88304311450338e-05, -1.5067340427776799e-05, -1.13042506200145e-05, -7.541160812252201e-06, -3.7780705497425515e-06, -1.4980514606577344e-08, 3.748109520529397e-06, 7.5111993282916956e-06, 1.1274289136053994e-05, 1.5037379853310995e-05, 1.8800470570567995e-05, 2.2563559468835592e-05, 2.6326650186092593e-05, 3.008973908436019e-05, 3.385282980161719e-05, 3.761591869988479e-05, 4.137901123613119e-05, 4.514210013439879e-05, 4.8905189032666385e-05, 5.266828156891279e-05, 5.6431370467180386e-05, 6.019445936544798e-05, 6.395755190169439e-05, 6.772064079996198e-05, 7.148372969822958e-05, 7.524681859649718e-05, 7.900990749476478e-05, 8.277300366898999e-05, 8.653609256725758e-05, 9.029918146552518e-05, 9.406227036379278e-05]}, "gradients/feature_fn.0.weight": {"_type": "histogram", "values": [1.0, 1.0, 0.0, 3.0, 3.0, 1.0, 7.0, 1.0, 1.0, 9.0, 9.0, 13.0, 10.0, 14.0, 19.0, 15.0, 33.0, 39.0, 32.0, 48.0, 75.0, 110.0, 120.0, 156.0, 176.0, 231.0, 355.0, 455.0, 685.0, 1097.0, 2030.0, 11683.0, 3160.0, 1212.0, 710.0, 476.0, 347.0, 262.0, 199.0, 165.0, 114.0, 89.0, 66.0, 49.0, 33.0, 24.0, 24.0, 11.0, 21.0, 13.0, 14.0, 7.0, 6.0, 4.0, 3.0, 3.0, 0.0, 1.0, 1.0, 0.0, 1.0, 0.0, 0.0, 1.0], "bins": [-0.00015196010645013303, -0.0001471833820687607, -0.00014240665768738836, -0.00013762993330601603, -0.0001328532089246437, -0.00012807648454327136, -0.00012329976016189903, -0.00011852302850456908, -0.00011374630412319675, -0.00010896957974182442, -0.00010419285536045209, -9.941613097907975e-05, -9.46393993217498e-05, -8.986267494037747e-05, -8.508595055900514e-05, -8.030922617763281e-05, -7.553250179626048e-05, -7.075577741488814e-05, -6.597905303351581e-05, -6.120232865214348e-05, -5.642560063279234e-05, -5.1648876251420006e-05, -4.6872148232068866e-05, -4.2095423850696534e-05, -3.73186994693242e-05, -3.254197508795187e-05, -2.7765248887590133e-05, -2.2988522687228397e-05, -1.8211798305856064e-05, -1.343507301498903e-05, -8.658347724121995e-06, -3.881622433254961e-06, 8.950883056968451e-07, 5.671813596563879e-06, 1.0448538887430914e-05, 1.5225264178297948e-05, 2.0001989469164982e-05, 2.4778713850537315e-05, 2.955544005089905e-05, 3.433216625126079e-05, 3.910889063263312e-05, 4.388561501400545e-05, 4.8662339395377785e-05, 5.3439067414728925e-05, 5.821579179610126e-05, 6.29925198154524e-05, 6.776924419682473e-05, 7.254596857819706e-05, 7.73226929595694e-05, 8.209941734094173e-05, 8.687614172231406e-05, 9.165286610368639e-05, 9.642959048505872e-05, 0.00010120632214238867, 0.000105983046523761, 0.00011075977090513334, 0.00011553649528650567, 0.000120313219667878, 0.00012508995132520795, 0.00012986667570658028, 0.00013464340008795261, 0.00013942012446932495, 0.00014419684885069728, 0.0001489735732320696, 0.00015375029761344194]}, "gradients/mlp.6.bias": {"_type": "histogram", "values": [2.0, 0.0, 0.0, 0.0, 0.0, 0.0, 0.0, 0.0, 2.0, 0.0, 1.0, 1.0, 1.0, 0.0, 2.0, 3.0, 0.0, 3.0, 4.0, 1.0, 2.0, 4.0, 3.0, 6.0, 3.0, 3.0, 0.0, 42.0, 2.0, 5.0, 6.0, 3.0, 3.0, 1.0, 1.0, 2.0, 0.0, 3.0, 0.0, 2.0, 0.0, 1.0, 1.0, 1.0, 0.0, 1.0, 3.0, 1.0, 0.0, 1.0, 0.0, 1.0, 0.0, 0.0, 2.0, 1.0, 1.0, 0.0, 1.0, 0.0, 1.0, 0.0, 0.0, 1.0], "bins": [-8.6041989561636e-05, -8.295473526231945e-05, -7.986747368704528e-05, -7.678021938772872e-05, -7.369296508841217e-05, -7.060571078909561e-05, -6.751845648977906e-05, -6.443119491450489e-05, -6.134394061518833e-05, -5.8256686315871775e-05, -5.516942837857641e-05, -5.208217044128105e-05, -4.8994916141964495e-05, -4.590766184264794e-05, -4.282040390535258e-05, -3.9733145968057215e-05, -3.664589166874066e-05, -3.3558637369424105e-05, -3.0471379432128742e-05, -2.7384123313822784e-05, -2.4296867195516825e-05, -2.1209611077210866e-05, -1.8122354958904907e-05, -1.5035098840598948e-05, -1.194784272229299e-05, -8.86058660398703e-06, -5.773330485681072e-06, -2.686074367375113e-06, 4.0118175093084574e-07, 3.4884378692368045e-06, 6.575693987542763e-06, 9.662950105848722e-06, 1.2750213500112295e-05, 1.5837469618418254e-05, 1.8924725736724213e-05, 2.201198185503017e-05, 2.509923797333613e-05, 2.818649409164209e-05, 3.127375020994805e-05, 3.436100814724341e-05, 3.7448262446559966e-05, 4.053551674587652e-05, 4.362277468317188e-05, 4.6710032620467246e-05, 4.97972869197838e-05, 5.2884541219100356e-05, 5.597179915639572e-05, 5.905905709369108e-05, 6.214631139300764e-05, 6.523356569232419e-05, 6.832081999164075e-05, 7.140808156691492e-05, 7.449533586623147e-05, 7.758259016554803e-05, 8.06698517408222e-05, 8.375710604013875e-05, 8.68443603394553e-05, 8.993161463877186e-05, 9.301886893808842e-05, 9.610613051336259e-05, 9.919338481267914e-05, 0.0001022806391119957, 0.00010536790068726987, 0.00010845515498658642, 0.00011154240928590298]}, "gradients/mlp.6.weight": {"_type": "histogram", "values": [1.0, 0.0, 0.0, 0.0, 0.0, 0.0, 0.0, 2.0, 1.0, 2.0, 0.0, 3.0, 1.0, 2.0, 4.0, 4.0, 7.0, 15.0, 6.0, 13.0, 21.0, 29.0, 36.0, 51.0, 66.0, 103.0, 163.0, 238.0, 369.0, 639.0, 879.0, 9537.0, 1796.0, 740.0, 443.0, 307.0, 194.0, 142.0, 111.0, 107.0, 66.0, 49.0, 43.0, 36.0, 20.0, 29.0, 16.0, 23.0, 12.0, 9.0, 10.0, 5.0, 3.0, 4.0, 4.0, 3.0, 3.0, 7.0, 2.0, 1.0, 4.0, 0.0, 1.0, 2.0], "bins": [-5.189365765545517e-05, -5.0269845814909786e-05, -4.864603033638559e-05, -4.702221849584021e-05, -4.5398403017316014e-05, -4.377459117677063e-05, -4.2150775698246434e-05, -4.052696385770105e-05, -3.8903148379176855e-05, -3.727933653863147e-05, -3.565552469808608e-05, -3.403170921956189e-05, -3.2407897379016504e-05, -3.078408190049231e-05, -2.9160270059946924e-05, -2.7536456400412135e-05, -2.5912642740877345e-05, -2.4288829081342556e-05, -2.2665015421807766e-05, -2.1041201762272976e-05, -1.9417388102738187e-05, -1.77935762621928e-05, -1.616976260265801e-05, -1.4545948943123221e-05, -1.2922135283588432e-05, -1.1298321624053642e-05, -9.674507964518853e-06, -8.050695214478765e-06, -6.426881554943975e-06, -4.8030678954091854e-06, -3.1792546906217467e-06, -1.5554412584606325e-06, 6.837217370048165e-08, 1.6921856058615958e-06, 3.31599903802271e-06, 4.939812242810149e-06, 6.563625902344938e-06, 8.187439561879728e-06, 9.811252311919816e-06, 1.1435065971454605e-05, 1.3058879630989395e-05, 1.4682693290524185e-05, 1.6306506950058974e-05, 1.7930320609593764e-05, 1.955413245013915e-05, 2.117794610967394e-05, 2.280175976920873e-05, 2.442557342874352e-05, 2.604938708827831e-05, 2.7673200747813098e-05, 2.9297014407347888e-05, 3.0920826247893274e-05, 3.254464172641747e-05, 3.416845356696285e-05, 3.5792269045487046e-05, 3.741608088603243e-05, 3.903989272657782e-05, 4.066370820510201e-05, 4.22875200456474e-05, 4.391133552417159e-05, 4.553514736471698e-05, 4.715896284324117e-05, 4.8782774683786556e-05, 5.040659016231075e-05, 5.2030402002856135e-05]}, "gradients/mlp.4.bias": {"_type": "histogram", "values": [2.0, 0.0, 1.0, 0.0, 0.0, 0.0, 1.0, 0.0, 0.0, 0.0, 0.0, 1.0, 0.0, 0.0, 0.0, 0.0, 0.0, 0.0, 0.0, 0.0, 2.0, 2.0, 0.0, 0.0, 1.0, 1.0, 1.0, 1.0, 3.0, 7.0, 3.0, 8.0, 4.0, 9.0, 7.0, 30.0, 10.0, 9.0, 3.0, 5.0, 2.0, 0.0, 4.0, 1.0, 4.0, 1.0, 1.0, 0.0, 0.0, 1.0, 1.0, 0.0, 0.0, 1.0, 0.0, 0.0, 0.0, 0.0, 0.0, 0.0, 0.0, 0.0, 0.0, 1.0], "bins": [-0.00037232015165500343, -0.0003618741757236421, -0.00035142817068845034, -0.000340982194757089, -0.0003305362188257277, -0.0003200902137905359, -0.0003096442378591746, -0.00029919823282398283, -0.0002887522568926215, -0.0002783062809612602, -0.0002678602759260684, -0.0002574142999947071, -0.00024696829495951533, -0.00023652231902815402, -0.0002260763430967927, -0.00021563035261351615, -0.0002051843621302396, -0.00019473837164696306, -0.00018429238116368651, -0.0001738464052323252, -0.00016340041474904865, -0.0001529544242657721, -0.0001425084483344108, -0.00013206245785113424, -0.0001216164673678577, -0.00011117047688458115, -0.00010072449367726222, -9.027851046994328e-05, -7.983251998666674e-05, -6.938652950339019e-05, -5.894054629607126e-05, -4.849455945077352e-05, -3.804857260547578e-05, -2.7602585760178044e-05, -1.7156598914880306e-05, -6.710612069582567e-06, 3.7353747757151723e-06, 1.4181361621012911e-05, 2.462734846631065e-05, 3.507333531160839e-05, 4.551932215690613e-05, 5.596530900220387e-05, 6.64112958475016e-05, 7.685727905482054e-05, 8.730326953809708e-05, 9.774926002137363e-05, 0.00010819524322869256, 0.00011864122643601149, 0.00012908721691928804, 0.00013953320740256459, 0.00014997919788584113, 0.00016042517381720245, 0.000170871164300479, 0.00018131715478375554, 0.00019176313071511686, 0.0002022091211983934, 0.00021265511168166995, 0.0002231011021649465, 0.00023354709264822304, 0.00024399306857958436, 0.00025443907361477613, 0.00026488504954613745, 0.00027533102547749877, 0.00028577703051269054, 0.00029622300644405186]}, "gradients/mlp.4.weight": {"_type": "histogram", "values": [1.0, 0.0, 0.0, 2.0, 0.0, 1.0, 0.0, 2.0, 2.0, 1.0, 0.0, 0.0, 3.0, 1.0, 2.0, 2.0, 3.0, 1.0, 6.0, 2.0, 10.0, 9.0, 15.0, 21.0, 42.0, 51.0, 67.0, 116.0, 225.0, 375.0, 660.0, 1530.0, 9312.0, 2033.0, 791.0, 404.0, 230.0, 113.0, 88.0, 65.0, 36.0, 30.0, 29.0, 20.0, 24.0, 6.0, 12.0, 9.0, 4.0, 5.0, 7.0, 5.0, 2.0, 4.0, 0.0, 1.0, 2.0, 0.0, 0.0, 0.0, 1.0, 0.0, 0.0, 1.0], "bins": [-0.00022684434952680022, -0.00021990654931869358, -0.00021296874911058694, -0.0002060309489024803, -0.00019909314869437367, -0.00019215534848626703, -0.0001852175482781604, -0.00017827974807005376, -0.00017134196241386235, -0.0001644041622057557, -0.00015746636199764907, -0.00015052856178954244, -0.0001435907615814358, -0.00013665296137332916, -0.00012971516116522253, -0.0001227773609571159, -0.00011583956074900925, -0.00010890176054090261, -0.00010196396033279598, -9.502616012468934e-05, -8.80883599165827e-05, -8.115056698443368e-05, -7.421276677632704e-05, -6.72749665682204e-05, -6.033716636011377e-05, -5.339936615200713e-05, -4.6461565943900496e-05, -3.9523769373772666e-05, -3.258596916566603e-05, -2.5648168957559392e-05, -1.871037056844216e-05, -1.1772571269830223e-05, -4.834786523133516e-06, 2.103012775478419e-06, 9.040812074090354e-06, 1.5978610463207588e-05, 2.2916410671314225e-05, 2.985421087942086e-05, 3.679200744954869e-05, 4.372980765765533e-05, 5.0667607865761966e-05, 5.76054080738686e-05, 6.454320828197524e-05, 7.148100849008188e-05, 7.84188014222309e-05, 8.535660163033754e-05, 9.229440183844417e-05, 9.923220204655081e-05, 0.00010617000225465745, 0.00011310780246276408, 0.00012004560267087072, 0.00012698340287897736, 0.000133921203087084, 0.00014085900329519063, 0.00014779680350329727, 0.0001547346037114039, 0.00016167238936759531, 0.00016861018957570195, 0.0001755479897838086, 0.00018248578999191523, 0.00018942359020002186, 0.0001963613904081285, 0.00020329919061623514, 0.00021023699082434177, 0.0002171747910324484]}, "gradients/mlp.2.bias": {"_type": "histogram", "values": [1.0, 0.0, 0.0, 0.0, 0.0, 0.0, 0.0, 0.0, 1.0, 0.0, 1.0, 0.0, 1.0, 0.0, 0.0, 1.0, 0.0, 1.0, 0.0, 2.0, 1.0, 1.0, 4.0, 1.0, 4.0, 2.0, 4.0, 9.0, 8.0, 12.0, 21.0, 12.0, 7.0, 5.0, 4.0, 3.0, 5.0, 1.0, 2.0, 3.0, 2.0, 0.0, 0.0, 1.0, 1.0, 0.0, 1.0, 0.0, 0.0, 0.0, 1.0, 1.0, 0.0, 0.0, 1.0, 0.0, 1.0, 0.0, 0.0, 1.0, 0.0, 0.0, 0.0, 1.0], "bins": [-0.0006825813325121999, -0.0006602422217838466, -0.0006379031110554934, -0.0006155640003271401, -0.0005932248895987868, -0.0005708857206627727, -0.0005485466099344194, -0.0005262074992060661, -0.0005038683884777129, -0.0004815292777493596, -0.00045919016702100635, -0.0004368510271888226, -0.00041451191646046937, -0.0003921728057321161, -0.0003698336658999324, -0.0003474945551715791, -0.00032515544444322586, -0.0003028163337148726, -0.00028047722298651934, -0.0002581380831543356, -0.00023579897242598236, -0.0002134598616976291, -0.0001911207364173606, -0.0001687816111370921, -0.00014644250040873885, -0.0001241033896803856, -0.0001017642644001171, -7.942514639580622e-05, -5.708602839149535e-05, -3.474691038718447e-05, -1.2407792382873595e-05, 9.931325621437281e-06, 3.227044362574816e-05, 5.4609561630059034e-05, 7.694867963436991e-05, 9.928779763868079e-05, 0.00012162691564299166, 0.00014396602637134492, 0.00016630515165161341, 0.0001886442769318819, 0.00021098338766023517, 0.00023332249838858843, 0.0002556616091169417, 0.0002780007489491254, 0.00030033985967747867, 0.00032267897040583193, 0.00034501811023801565, 0.0003673572209663689, 0.0003896963316947222, 0.00041203544242307544, 0.0004343745531514287, 0.0004567136929836124, 0.0004790528037119657, 0.0005013919435441494, 0.0005237310542725027, 0.0005460701650008559, 0.0005684092757292092, 0.0005907483864575624, 0.0006130874971859157, 0.000635426607914269, 0.0006577657768502831, 0.0006801048875786364, 0.0007024439983069897, 0.0007247831090353429, 0.0007471222197636962]}, "gradients/mlp.2.weight": {"_type": "histogram", "values": [3.0, 0.0, 0.0, 1.0, 2.0, 3.0, 0.0, 2.0, 4.0, 4.0, 9.0, 10.0, 11.0, 10.0, 15.0, 30.0, 55.0, 54.0, 82.0, 132.0, 228.0, 423.0, 1170.0, 9256.0, 3190.0, 767.0, 315.0, 190.0, 95.0, 72.0, 47.0, 47.0, 28.0, 19.0, 18.0, 11.0, 11.0, 8.0, 9.0, 9.0, 4.0, 1.0, 7.0, 3.0, 4.0, 4.0, 2.0, 3.0, 2.0, 3.0, 1.0, 3.0, 2.0, 1.0, 2.0, 0.0, 0.0, 0.0, 0.0, 0.0, 0.0, 1.0, 0.0, 1.0], "bins": [-0.0007535053300671279, -0.0007218716200441122, -0.0006902378518134356, -0.0006586041417904198, -0.0006269704317674041, -0.0005953367217443883, -0.0005637030117213726, -0.000532069243490696, -0.0005004355334676802, -0.0004688018234446645, -0.0004371680843178183, -0.0004055343451909721, -0.00037390063516795635, -0.0003422669251449406, -0.0003106331860180944, -0.0002789994468912482, -0.0002473657368682325, -0.00021573201229330152, -0.00018409828771837056, -0.0001524645631434396, -0.00012083083856850863, -8.919711399357766e-05, -5.756338941864669e-05, -2.5929664843715727e-05, 5.7040597312152386e-06, 3.7337784306146204e-05, 6.897150888107717e-05, 0.00010060523345600814, 0.0001322389580309391, 0.00016387268260587007, 0.00019550640718080103, 0.000227140131755732, 0.0002587739145383239, 0.0002904076245613396, 0.0003220413636881858, 0.000353675102815032, 0.00038530881283804774, 0.0004169425228610635, 0.0004485762619879097, 0.00048021000111475587, 0.0005118437111377716, 0.0005434774211607873, 0.0005751111311838031, 0.0006067448994144797, 0.0006383786094374955, 0.0006700123194605112, 0.0007016460876911879, 0.0007332797977142036, 0.0007649135077372193, 0.0007965472177602351, 0.0008281809277832508, 0.0008598146960139275, 0.0008914484060369432, 0.0009230821160599589, 0.0009547158842906356, 0.0009863495361059904, 0.001017983304336667, 0.0010496170725673437, 0.0010812507243826985, 0.0011128844926133752, 0.00114451814442873, 0.0011761519126594067, 0.0012077856808900833, 0.0012394193327054381, 0.0012710531009361148]}, "gradients/mlp.0.bias": {"_type": "histogram", "values": [1.0, 0.0, 0.0, 0.0, 0.0, 0.0, 0.0, 0.0, 0.0, 0.0, 0.0, 0.0, 0.0, 1.0, 0.0, 0.0, 0.0, 0.0, 1.0, 0.0, 1.0, 0.0, 0.0, 3.0, 2.0, 4.0, 6.0, 3.0, 5.0, 5.0, 12.0, 17.0, 18.0, 9.0, 12.0, 6.0, 8.0, 2.0, 1.0, 1.0, 1.0, 1.0, 2.0, 1.0, 0.0, 0.0, 1.0, 0.0, 2.0, 0.0, 0.0, 0.0, 1.0, 0.0, 0.0, 0.0, 0.0, 0.0, 0.0, 0.0, 0.0, 0.0, 0.0, 1.0], "bins": [-0.0015029450878500938, -0.001456919126212597, -0.0014108932809904218, -0.0013648673193529248, -0.0013188414741307497, -0.0012728155124932528, -0.0012267895508557558, -0.0011807637056335807, -0.0011347377439960837, -0.0010887118987739086, -0.0010426859371364117, -0.0009966599754989147, -0.0009506341302767396, -0.0009046082268469036, -0.0008585822652094066, -0.0008125563617795706, -0.0007665304583497345, -0.0007205045549198985, -0.0006744786514900625, -0.0006284526898525655, -0.0005824267864227295, -0.0005364008829928935, -0.0004903749795630574, -0.00044434904702939093, -0.0003983231435995549, -0.00035229724016971886, -0.00030627130763605237, -0.00026024540420621634, -0.00021421948622446507, -0.0001681935682427138, -0.00012216766481287777, -7.614174683112651e-05, -3.0115828849375248e-05, 1.5910085494397208e-05, 6.193599983816966e-05, 0.00010796191054396331, 0.00015398782852571458, 0.00020001374650746584, 0.0002460396499373019, 0.00029206558247096837, 0.0003380914859008044, 0.00038411738933064044, 0.0004301433218643069, 0.00047616922529414296, 0.000522195128723979, 0.000568221032153815, 0.000614246993791312, 0.000660272897221148, 0.000706298800650984, 0.0007523247040808201, 0.0007983506075106561, 0.0008443765691481531, 0.0008904024725779891, 0.0009364283760078251, 0.0009824542794376612, 0.0010284802410751581, 0.0010745060862973332, 0.0011205320479348302, 0.0011665578931570053, 0.0012125838547945023, 0.0012586098164319992, 0.0013046356616541743, 0.0013506616232916713, 0.0013966874685138464, 0.0014427134301513433]}, "gradients/mlp.0.weight": {"_type": "histogram", "values": [1.0, 2.0, 4.0, 2.0, 1.0, 2.0, 1.0, 4.0, 0.0, 3.0, 2.0, 0.0, 4.0, 13.0, 16.0, 9.0, 14.0, 16.0, 22.0, 26.0, 29.0, 39.0, 54.0, 98.0, 140.0, 187.0, 322.0, 418.0, 685.0, 1110.0, 1534.0, 1097.0, 702.0, 465.0, 298.0, 181.0, 141.0, 83.0, 75.0, 56.0, 37.0, 27.0, 24.0, 19.0, 31.0, 11.0, 12.0, 11.0, 3.0, 4.0, 5.0, 3.0, 2.0, 6.0, 1.0, 5.0, 1.0, 3.0, 2.0, 0.0, 0.0, 0.0, 0.0, 1.0], "bins": [-0.0016005814541131258, -0.001548295607790351, -0.0014960096450522542, -0.0014437237987294793, -0.0013914378359913826, -0.0013391519896686077, -0.001286866026930511, -0.0012345801806077361, -0.0011822942178696394, -0.0011300083715468645, -0.0010777225252240896, -0.001025436562485993, -0.000973150716163218, -0.0009208648116327822, -0.0008685789071023464, -0.0008162930025719106, -0.0007640070980414748, -0.000711721193511039, -0.0006594352889806032, -0.0006071493844501674, -0.0005548634799197316, -0.0005025776335969567, -0.00045029172906652093, -0.00039800582453608513, -0.00034571992000564933, -0.00029343401547521353, -0.00024114812549669296, -0.00018886223551817238, -0.00013657633098773658, -8.42904337332584e-05, -3.200453647878021e-05, 2.0281360775697976e-05, 7.256737444549799e-05, 0.0001248532789759338, 0.00017713916895445436, 0.00022942505893297493, 0.00028171096346341074, 0.00033399686799384654, 0.0003862827434204519, 0.0004385686479508877, 0.0004908545524813235, 0.0005431404570117593, 0.0005954263615421951, 0.0006477122660726309, 0.0006999981123954058, 0.0007522840169258416, 0.0008045699214562774, 0.0008568558259867132, 0.000909141730517149, 0.0009614276350475848, 0.0010137135395780206, 0.0010659993859007955, 0.0011182853486388922, 0.001170571194961667, 0.0012228571576997638, 0.0012751430040225387, 0.0013274289667606354, 0.0013797148130834103, 0.0014320006594061852, 0.0014842866221442819, 0.0015365724684670568, 0.0015888584312051535, 0.0016411442775279284, 0.001693430240266025, 0.0017457160865888]}, "_wandb": {"runtime": 3067}}