{"total_loss": 0.007169573588762432, "_timestamp": 1717769892.1460385, "rgb_loss": 0.007169573588762432, "_runtime": 1128.6086854934692, "_step": 7505, "Rendered Images": {"_type": "images/separated", "width": 256, "height": 256, "format": "png", "count": 5, "filenames": ["media/images/Rendered Images_7500_b69c7df9980ffe972e63.png", "media/images/Rendered Images_7500_f4d6cee675a03397e70b.png", "media/images/Rendered Images_7500_b8f69cd3a44ef1bf1739.png", "media/images/Rendered Images_7500_332c6bfc0e51cde945c9.png", "media/images/Rendered Images_7500_72720ee5499ec3c46b08.png"]}, "Ground-truth Images": {"_type": "images/separated", "width": 256, "height": 256, "format": "png", "count": 5, "filenames": ["media/images/Ground-truth Images_7505_6aad9247d295f72616dd.png", "media/images/Ground-truth Images_7505_4ad52892a9e769b86b93.png", "media/images/Ground-truth Images_7505_cbce75bc4170ecae982c.png", "media/images/Ground-truth Images_7505_fb9f03dba8fb3b263d73.png", "media/images/Ground-truth Images_7505_d8ffbb5546a3ba1c1b89.png"]}, "PSNR": 25.174251864282734, "Epoch": 1500, "gradients/graph_1lout.bias": {"_type": "histogram", "values": [1.0, 0.0, 0.0, 0.0, 0.0, 0.0, 0.0, 0.0, 0.0, 0.0, 0.0, 0.0, 0.0, 0.0, 0.0, 0.0, 0.0, 0.0, 0.0, 0.0, 0.0, 0.0, 0.0, 0.0, 0.0, 0.0, 0.0, 0.0, 0.0, 0.0, 1.0, 0.0, 0.0, 0.0, 0.0, 0.0, 0.0, 0.0, 0.0, 0.0, 0.0, 0.0, 0.0, 0.0, 0.0, 0.0, 0.0, 0.0, 0.0, 0.0, 0.0, 0.0, 0.0, 0.0, 0.0, 0.0, 0.0, 0.0, 0.0, 0.0, 1.0, 0.0, 0.0, 1.0], "bins": [-0.0003239376819692552, -0.0003172543365508318, -0.0003105709911324084, -0.0003038876748178154, -0.000297204329399392, -0.0002905209839809686, -0.0002838376385625452, -0.0002771543222479522, -0.0002704709768295288, -0.0002637876314111054, -0.000257104285992682, -0.000250420969678089, -0.0002437376242596656, -0.0002370542788412422, -0.000230370947974734, -0.0002236876025563106, -0.0002170042716898024, -0.000210320926271379, -0.0002036375954048708, -0.0001969542499864474, -0.0001902709191199392, -0.0001835875737015158, -0.0001769042428350076, -0.0001702208974165842, -0.00016353755199816078, -0.00015685420657973737, -0.00015017087571322918, -0.00014348753029480577, -0.00013680419942829758, -0.00013012085400987417, -0.00012343752314336598, -0.00011675417772494256, -0.000110070854134392, -0.0001033875159919262, -9.670417784946039e-05, -9.002083970699459e-05, -8.333750156452879e-05, -7.665416342206299e-05, -6.997081800363958e-05, -6.328748713713139e-05, -5.6604145356686786e-05, -4.9920807214220986e-05, -4.3237469071755186e-05, -3.655412729131058e-05, -2.9870790967834182e-05, -2.318745100637898e-05, -1.650411286391318e-05, -9.820774721447378e-06, -3.1374365789815784e-06, 3.5459020182315726e-06, 1.0229240615444724e-05, 1.6912579667405225e-05, 2.3595917809871025e-05, 3.027925777132623e-05, 3.696259591379203e-05, 4.364593405625783e-05, 5.032927219872363e-05, 5.701261034118943e-05, 6.369595212163404e-05, 7.037929026409984e-05, 7.706262840656564e-05, 8.374596654903144e-05, 9.042930469149724e-05, 9.711264283396304e-05, 0.00010379598097642884]}, "gradients/graph_1lout.weight": {"_type": "histogram", "values": [1.0, 0.0, 0.0, 0.0, 0.0, 0.0, 0.0, 0.0, 0.0, 1.0, 0.0, 2.0, 0.0, 0.0, 1.0, 0.0, 0.0, 0.0, 0.0, 0.0, 0.0, 2.0, 1.0, 1.0, 2.0, 0.0, 1.0, 0.0, 0.0, 1.0, 1.0, 4.0, 2.0, 2.0, 2.0, 0.0, 0.0, 1.0, 5.0, 3.0, 5.0, 0.0, 0.0, 2.0, 0.0, 0.0, 0.0, 1.0, 2.0, 12.0, 24.0, 31.0, 31.0, 65.0, 164.0, 66.0, 19.0, 21.0, 14.0, 10.0, 2.0, 3.0, 6.0, 1.0], "bins": [-0.0025444033090025187, -0.002497372915968299, -0.0024503422901034355, -0.0024033118970692158, -0.0023562812712043524, -0.0023092508781701326, -0.0022622202523052692, -0.0022151898592710495, -0.002168159233406186, -0.0021211288403719664, -0.002074098214507103, -0.0020270678214728832, -0.00198003719560802, -0.0019330068025738, -0.0018859761767089367, -0.001838945783674717, -0.0017919153906404972, -0.0017448848811909556, -0.001697854371741414, -0.0016508238622918725, -0.001603793352842331, -0.0015567629598081112, -0.0015097323339432478, -0.001462701940909028, -0.0014156713150441647, -0.001368640805594623, -0.0013216102961450815, -0.00127457978669554, -0.0012275492772459984, -0.0011805188842117786, -0.0011334882583469152, -0.0010864578653126955, -0.001039427355863154, -0.0009923968464136124, -0.0009453663369640708, -0.0008983358275145292, -0.0008513053762726486, -0.000804274866823107, -0.0007572443573735654, -0.0007102139061316848, -0.0006631833966821432, -0.0006161528872326016, -0.0005691223777830601, -0.0005220918683335185, -0.00047506141709163785, -0.0004280309076420963, -0.0003810003981925547, -0.0003339699178468436, -0.0002869393792934716, -0.00023990888439584523, -0.0001928783894982189, -0.00014584788004867733, -9.881738515105098e-05, -5.1786890253424644e-05, -4.756380803883076e-06, 4.2274099541828036e-05, 8.93046089913696e-05, 0.00013633510388899595, 0.00018336559878662229, 0.00023039610823616385, 0.0002774266176857054, 0.00032445709803141654, 0.0003714876074809581, 0.0004185180878266692, 0.0004655485972762108]}, "gradients/graph_1layers.3.bias": {"_type": "histogram", "values": [1.0, 0.0, 0.0, 0.0, 0.0, 0.0, 0.0, 0.0, 0.0, 0.0, 2.0, 2.0, 3.0, 1.0, 3.0, 3.0, 3.0, 4.0, 3.0, 3.0, 3.0, 4.0, 4.0, 4.0, 4.0, 4.0, 7.0, 27.0, 4.0, 4.0, 4.0, 5.0, 7.0, 2.0, 5.0, 4.0, 1.0, 1.0, 3.0, 0.0, 0.0, 1.0, 0.0, 0.0, 0.0, 0.0, 0.0, 0.0, 0.0, 0.0, 0.0, 0.0, 1.0, 0.0, 0.0, 0.0, 0.0, 0.0, 0.0, 0.0, 0.0, 0.0, 0.0, 1.0], "bins": [-0.00010203647252637893, -9.830428462009877e-05, -9.457210398977622e-05, -9.083991608349606e-05, -8.71077281772159e-05, -8.337554754689336e-05, -7.96433596406132e-05, -7.591117173433304e-05, -7.217898382805288e-05, -6.844679592177272e-05, -6.471461529145017e-05, -6.098242738517001e-05, -5.725023947888985e-05, -5.35180552105885e-05, -4.978587094228715e-05, -4.605368303600699e-05, -4.2321498767705634e-05, -3.858931449940428e-05, -3.485712659312412e-05, -3.112494232482277e-05, -2.739275441854261e-05, -2.3660570150241256e-05, -1.99283840629505e-05, -1.6196197975659743e-05, -1.2464011888368987e-05, -8.73182580107823e-06, -4.999640168534825e-06, -1.2674545359914191e-06, 2.4647315512993373e-06, 6.196916729095392e-06, 9.929102816386148e-06, 1.3661288903676905e-05, 1.739347499096766e-05, 2.1125661078258418e-05, 2.4857847165549174e-05, 2.8590031433850527e-05, 3.232221934013069e-05, 3.605440360843204e-05, 3.978658787673339e-05, 4.351877578301355e-05, 4.725096368929371e-05, 5.0983147957595065e-05, 5.4715335863875225e-05, 5.844752013217658e-05, 6.217970803845674e-05, 6.59118959447369e-05, 6.964407657505944e-05, 7.33762644813396e-05, 7.710844511166215e-05, 8.084063301794231e-05, 8.457281364826486e-05, 8.830500155454502e-05, 9.203718946082518e-05, 9.576937009114772e-05, 9.950155799742788e-05, 0.00010323374590370804, 0.0001069659338099882, 0.00011069812171626836, 0.0001144303023465909, 0.00011816249025287107, 0.00012189467815915123, 0.00012562685878947377, 0.00012935904669575393, 0.0001330912346020341, 0.00013682342250831425]}, "gradients/graph_1layers.3.weight": {"_type": "histogram", "values": [1.0, 0.0, 0.0, 0.0, 0.0, 0.0, 1.0, 0.0, 0.0, 1.0, 2.0, 2.0, 1.0, 2.0, 1.0, 1.0, 3.0, 3.0, 13.0, 15.0, 24.0, 25.0, 44.0, 98.0, 155.0, 278.0, 488.0, 769.0, 1179.0, 2027.0, 6584.0, 2338.0, 1101.0, 515.0, 286.0, 142.0, 71.0, 50.0, 29.0, 20.0, 16.0, 13.0, 7.0, 8.0, 4.0, 9.0, 12.0, 5.0, 6.0, 3.0, 7.0, 4.0, 4.0, 2.0, 4.0, 0.0, 3.0, 3.0, 1.0, 2.0, 0.0, 1.0, 0.0, 1.0], "bins": [-0.0001620723051019013, -0.00015677677583880723, -0.00015148126112762839, -0.00014618573186453432, -0.00014089021715335548, -0.0001355946878902614, -0.00013029917317908257, -0.0001250036439159885, -0.00011970812920480967, -0.00011441260721767321, -0.00010911708523053676, -0.0001038215632434003, -9.852604125626385e-05, -9.32305192691274e-05, -8.793499728199095e-05, -8.263946801889688e-05, -7.734394603176042e-05, -7.204842404462397e-05, -6.675290205748752e-05, -6.145738007035106e-05, -5.616185808321461e-05, -5.086633609607816e-05, -4.55708104709629e-05, -4.0275288483826444e-05, -3.497976649668999e-05, -2.9684244509553537e-05, -2.4388722522417083e-05, -1.9093198716291226e-05, -1.3797676729154773e-05, -8.50215474201832e-06, -3.2066309358924627e-06, 2.0888910512439907e-06, 7.384413038380444e-06, 1.2679935025516897e-05, 1.797545701265335e-05, 2.3270980818779208e-05, 2.856650280591566e-05, 3.386202297406271e-05, 3.915754859917797e-05, 4.4453070586314425e-05, 4.974859257345088e-05, 5.504411456058733e-05, 6.0339636547723785e-05, 6.563516217283905e-05, 7.09306841599755e-05, 7.622620614711195e-05, 8.15217281342484e-05, 8.681725012138486e-05, 9.211277210852131e-05, 9.740829409565777e-05, 0.00010270381608279422, 0.00010799933806993067, 0.00011329486005706713, 0.00011859038204420358, 0.00012388591130729765, 0.00012918142601847649, 0.00013447695528157055, 0.00013977248454466462, 0.00014506799925584346, 0.00015036352851893753, 0.00015565904323011637, 0.00016095457249321043, 0.00016625008720438927, 0.00017154561646748334, 0.00017684113117866218]}, "gradients/graph_1layers.2.bias": {"_type": "histogram", "values": [1.0, 0.0, 0.0, 0.0, 0.0, 0.0, 0.0, 0.0, 1.0, 0.0, 0.0, 1.0, 0.0, 0.0, 2.0, 3.0, 0.0, 4.0, 3.0, 5.0, 2.0, 9.0, 8.0, 2.0, 9.0, 5.0, 7.0, 6.0, 3.0, 2.0, 5.0, 2.0, 7.0, 6.0, 2.0, 3.0, 3.0, 2.0, 1.0, 1.0, 1.0, 2.0, 0.0, 0.0, 1.0, 3.0, 5.0, 2.0, 3.0, 0.0, 0.0, 2.0, 0.0, 1.0, 0.0, 0.0, 0.0, 1.0, 0.0, 1.0, 0.0, 0.0, 0.0, 1.0], "bins": [-0.0004662216524593532, -0.00045171580859459937, -0.000437209993833676, -0.00042270414996892214, -0.0004081983061041683, -0.00039369246223941445, -0.00037918664747849107, -0.0003646808036137372, -0.0003501749597489834, -0.00033566911588422954, -0.00032116330112330616, -0.0003066574572585523, -0.00029215161339379847, -0.00027764576952904463, -0.00026313995476812124, -0.0002486341109033674, -0.00023412829614244401, -0.0002196224668296054, -0.00020511662296485156, -0.00019061079365201294, -0.0001761049497872591, -0.0001615991204744205, -0.00014709329116158187, -0.00013258744729682803, -0.00011808161798398942, -0.00010357578139519319, -8.906994480639696e-05, -7.456411549355835e-05, -6.005827890476212e-05, -4.555244231596589e-05, -3.104661300312728e-05, -1.654077641433105e-05, -2.0349689293652773e-06, 1.2470865840441547e-05, 2.6976700610248372e-05, 4.148253356106579e-05, 5.598837014986202e-05, 7.049420673865825e-05, 8.500003605149686e-05, 9.950587264029309e-05, 0.00011401170922908932, 0.00012851753854192793, 0.00014302338240668178, 0.0001575292117195204, 0.000172035041032359, 0.00018654088489711285, 0.00020104671420995146, 0.00021555254352279007, 0.00023005838738754392, 0.00024456423125229776, 0.00025907004601322114, 0.000273575889877975, 0.00028808173374272883, 0.00030258757760748267, 0.00031709339236840606, 0.0003315992362331599, 0.00034610508009791374, 0.0003606109239626676, 0.00037511673872359097, 0.0003896225825883448, 0.00040412842645309865, 0.0004186342703178525, 0.0004331400850787759, 0.0004476459289435297, 0.0004621517437044531]}, "gradients/graph_1layers.2.weight": {"_type": "histogram", "values": [2.0, 2.0, 0.0, 1.0, 0.0, 0.0, 0.0, 0.0, 4.0, 1.0, 1.0, 4.0, 1.0, 4.0, 7.0, 19.0, 10.0, 25.0, 25.0, 38.0, 38.0, 73.0, 89.0, 100.0, 116.0, 138.0, 204.0, 263.0, 475.0, 971.0, 2433.0, 5789.0, 5700.0, 1659.0, 880.0, 517.0, 292.0, 202.0, 116.0, 81.0, 56.0, 51.0, 30.0, 30.0, 26.0, 28.0, 30.0, 21.0, 12.0, 8.0, 6.0, 6.0, 3.0, 4.0, 1.0, 3.0, 1.0, 4.0, 0.0, 3.0, 1.0, 1.0, 1.0, 2.0], "bins": [-0.00046230002772063017, -0.0004479189810808748, -0.000433537905337289, -0.0004191568586975336, -0.0004047757829539478, -0.0003903947363141924, -0.00037601368967443705, -0.0003616326139308512, -0.0003472515381872654, -0.00033287049154751003, -0.0003184894158039242, -0.00030410836916416883, -0.000289727293420583, -0.00027534624678082764, -0.0002609652001410723, -0.00024658412439748645, -0.00023220307775773108, -0.00021782201656606048, -0.0002034409553743899, -0.00018905990873463452, -0.0001746788329910487, -0.00016029778635129333, -0.00014591672515962273, -0.00013153566396795213, -0.00011715460277628154, -0.00010277354158461094, -8.839248039294034e-05, -7.401142647722736e-05, -5.9630365285556763e-05, -4.524930409388617e-05, -3.0868250178173184e-05, -1.6487188986502588e-05, -2.1060986910015345e-06, 1.2274960681679659e-05, 2.665602005436085e-05, 4.103707760805264e-05, 5.541813879972324e-05, 6.979919999139383e-05, 8.418025390710682e-05, 9.856131509877741e-05, 0.00011294237629044801, 0.0001273234374821186, 0.0001417044986737892, 0.0001560855598654598, 0.00017046660650521517, 0.000184847682248801, 0.00019922872888855636, 0.00021360979008022696, 0.00022799085127189755, 0.00024237191246356815, 0.00025675297365523875, 0.0002711340202949941, 0.00028551509603857994, 0.0002998961426783353, 0.0003142771893180907, 0.0003286582650616765, 0.00034303934080526233, 0.0003574203874450177, 0.0003718014631886035, 0.0003861825098283589, 0.0004005635855719447, 0.0004149446322117001, 0.00042932567885145545, 0.0004437067545950413, 0.00045808780123479664]}, "gradients/graph_1layers.1.bias": {"_type": "histogram", "values": [1.0, 1.0, 0.0, 1.0, 0.0, 0.0, 0.0, 1.0, 0.0, 0.0, 2.0, 0.0, 1.0, 3.0, 2.0, 10.0, 19.0, 10.0, 8.0, 6.0, 8.0, 3.0, 5.0, 3.0, 4.0, 6.0, 3.0, 3.0, 3.0, 3.0, 3.0, 2.0, 1.0, 5.0, 1.0, 0.0, 1.0, 2.0, 1.0, 1.0, 0.0, 0.0, 0.0, 0.0, 2.0, 0.0, 0.0, 0.0, 2.0, 0.0, 0.0, 0.0, 0.0, 0.0, 0.0, 0.0, 0.0, 0.0, 0.0, 0.0, 0.0, 0.0, 0.0, 1.0], "bins": [-0.0017952308990061283, -0.001696853549219668, -0.0015984761994332075, -0.0015000988496467471, -0.0014017214998602867, -0.0013033442664891481, -0.001204966800287366, -0.0011065895669162273, -0.0010082121007144451, -0.0009098347509279847, -0.0008114574011415243, -0.0007130800513550639, -0.0006147027015686035, -0.000516325409989804, -0.00041794806020334363, -0.00031957071041688323, -0.00022119341883808374, -0.00012281606905162334, -2.4438733817078173e-05, 7.3938601417467e-05, 0.0001723159512039274, 0.00027069327188655734, 0.00036907062167301774, 0.00046744797145947814, 0.0005658253212459385, 0.0006642026710323989, 0.0007625800208188593, 0.0008609573123976588, 0.0009593346621841192, 0.0010577120119705796, 0.00115608936175704, 0.0012544667115435004, 0.0013528440613299608, 0.0014512214111164212, 0.0015495987609028816, 0.001647976110689342, 0.0017463534604758024, 0.001844730693846941, 0.0019431081600487232, 0.002041485393419862, 0.002139862859621644, 0.0022382400929927826, 0.002336617559194565, 0.0024349947925657034, 0.0025333722587674856, 0.002631749492138624, 0.0027301269583404064, 0.002828504191711545, 0.0029268814250826836, 0.003025258658453822, 0.0031236361246556044, 0.003222013358026743, 0.003320390824228525, 0.0034187680575996637, 0.003517145523801446, 0.0036155227571725845, 0.0037139002233743668, 0.0038122774567455053, 0.003910654690116644, 0.004009032156318426, 0.004107409622520208, 0.004205787088721991, 0.0043041640892624855, 0.004402541555464268, 0.00450091902166605]}, "gradients/graph_1layers.1.weight": {"_type": "histogram", "values": [1.0, 0.0, 1.0, 1.0, 0.0, 0.0, 0.0, 2.0, 1.0, 2.0, 1.0, 0.0, 1.0, 4.0, 8.0, 5.0, 4.0, 9.0, 13.0, 19.0, 25.0, 35.0, 48.0, 81.0, 186.0, 978.0, 10742.0, 1840.0, 816.0, 468.0, 283.0, 196.0, 177.0, 109.0, 91.0, 58.0, 36.0, 36.0, 24.0, 14.0, 16.0, 12.0, 5.0, 9.0, 4.0, 5.0, 3.0, 4.0, 3.0, 2.0, 1.0, 0.0, 2.0, 0.0, 0.0, 0.0, 0.0, 0.0, 0.0, 0.0, 1.0, 0.0, 1.0, 1.0], "bins": [-0.0030717437621206045, -0.0029563861899077892, -0.0028410283848643303, -0.002725670812651515, -0.0026103132404386997, -0.0024949556682258844, -0.002379598096013069, -0.00226424029096961, -0.002148882718756795, -0.0020335251465439796, -0.0019181674579158425, -0.0018028097692877054, -0.0016874521970748901, -0.0015720946248620749, -0.0014567369362339377, -0.0013413792476058006, -0.0012260216753929853, -0.00111066410318017, -0.000995306414552033, -0.0008799487841315567, -0.0007645911537110806, -0.0006492335232906044, -0.0005338758928701282, -0.00041851826244965196, -0.00030316063202917576, -0.00018780300160869956, -7.244537118822336e-05, 4.2912259232252836e-05, 0.00015826988965272903, 0.00027362752007320523, 0.00038898515049368143, 0.0005043427809141576, 0.0006197006441652775, 0.0007350582745857537, 0.0008504159050062299, 0.0009657735354267061, 0.0010811311658471823, 0.0011964887380599976, 0.0013118464266881347, 0.0014272041153162718, 0.001542561687529087, 0.0016579192597419024, 0.0017732769483700395, 0.0018886346369981766, 0.002003992209210992, 0.002119349781423807, 0.002234707586467266, 0.0023500651586800814, 0.0024654227308928967, 0.002580780303105712, 0.0026961378753185272, 0.002811495680361986, 0.0029268532525748014, 0.0030422108247876167, 0.0031575686298310757, 0.003272926202043891, 0.0033882837742567062, 0.0035036413464695215, 0.003618998918682337, 0.0037343567237257957, 0.003849714295938611, 0.003965071868151426, 0.004080429673194885, 0.004195787012577057, 0.004311144817620516]}, "gradients/graph_1layers.0.bias": {"_type": "histogram", "values": [1.0, 0.0, 0.0, 1.0, 0.0, 0.0, 0.0, 0.0, 0.0, 2.0, 1.0, 0.0, 1.0, 3.0, 1.0, 1.0, 4.0, 2.0, 2.0, 5.0, 8.0, 10.0, 7.0, 17.0, 16.0, 7.0, 3.0, 1.0, 1.0, 1.0, 3.0, 1.0, 1.0, 0.0, 7.0, 0.0, 1.0, 1.0, 3.0, 1.0, 1.0, 2.0, 1.0, 1.0, 0.0, 1.0, 0.0, 0.0, 0.0, 2.0, 1.0, 0.0, 0.0, 0.0, 1.0, 0.0, 1.0, 1.0, 1.0, 0.0, 1.0, 0.0, 0.0, 1.0], "bins": [-0.006154586561024189, -0.005896981339901686, -0.0056393761187791824, -0.005381770431995392, -0.0051241652108728886, -0.004866559989750385, -0.004608954302966595, -0.004351349081844091, -0.004093743860721588, -0.003836138639599085, -0.003578533185645938, -0.003320927731692791, -0.0030633225105702877, -0.0028057172894477844, -0.0025481118354946375, -0.0022905063815414906, -0.0020329011604189873, -0.0017752958228811622, -0.001517690485343337, -0.001260085147805512, -0.0010024798102676868, -0.0007448744727298617, -0.00048726913519203663, -0.00022966379765421152, 2.7941539883613586e-05, 0.0002855468774214387, 0.0005431522149592638, 0.0008007575524970889, 0.001058362890034914, 0.0013159682275727391, 0.0015735735651105642, 0.0018311789026483893, 0.002088785171508789, 0.0023463903926312923, 0.0026039958465844393, 0.002861601300537586, 0.0031192065216600895, 0.0033768117427825928, 0.0036344171967357397, 0.0038920226506888866, 0.00414962787181139, 0.004407233092933893, 0.0046648383140563965, 0.004922444000840187, 0.00518004922196269, 0.005437654443085194, 0.005695260129868984, 0.0059528653509914875, 0.006210470572113991, 0.006468075793236494, 0.006725681014358997, 0.006983286701142788, 0.007240891922265291, 0.0074984971433877945, 0.007756102830171585, 0.008013707585632801, 0.008271313272416592, 0.008528918959200382, 0.008786523714661598, 0.009044129401445389, 0.00930173508822918, 0.009559339843690395, 0.009816945530474186, 0.010074550285935402, 0.010332155972719193]}, "gradients/graph_1layers.0.weight": {"_type": "histogram", "values": [1.0, 1.0, 3.0, 1.0, 1.0, 1.0, 2.0, 1.0, 1.0, 0.0, 2.0, 5.0, 3.0, 8.0, 3.0, 9.0, 6.0, 11.0, 12.0, 9.0, 11.0, 28.0, 33.0, 31.0, 51.0, 49.0, 64.0, 69.0, 86.0, 175.0, 264.0, 547.0, 1226.0, 513.0, 266.0, 136.0, 97.0, 83.0, 61.0, 51.0, 51.0, 32.0, 29.0, 31.0, 27.0, 16.0, 20.0, 16.0, 6.0, 9.0, 5.0, 6.0, 6.0, 4.0, 7.0, 5.0, 7.0, 4.0, 5.0, 4.0, 3.0, 5.0, 2.0, 3.0], "bins": [-0.010610884055495262, -0.010283882729709148, -0.009956881403923035, -0.009629880078136921, -0.009302878752350807, -0.008975876495242119, -0.008648875169456005, -0.008321873843669891, -0.007994872517883778, -0.007667871192097664, -0.00734086986631155, -0.007013868074864149, -0.006686866749078035, -0.006359865423291922, -0.006032863631844521, -0.005705862306058407, -0.005378860980272293, -0.005051859654486179, -0.004724858328700066, -0.0043978565372526646, -0.004070855211466551, -0.003743853885680437, -0.0034168523270636797, -0.0030898507684469223, -0.0027628494426608086, -0.002435848116874695, -0.0021088465582579374, -0.0017818451160565019, -0.0014548436738550663, -0.0011278422316536307, -0.0008008407894521952, -0.0004738392308354378, -0.00014683883637189865, 0.00018016260582953691, 0.0005071640480309725, 0.000834165490232408, 0.0011611669324338436, 0.0014881683746352792, 0.0018151698168367147, 0.002142171375453472, 0.002469172701239586, 0.0027961740270256996, 0.003123175585642457, 0.0034501771442592144, 0.003777178470045328, 0.004104179795831442, 0.004431181587278843, 0.004758182913064957, 0.00508518423885107, 0.005412185564637184, 0.005739186890423298, 0.006066188681870699, 0.006393190007656813, 0.006720191333442926, 0.0070471931248903275, 0.007374194450676441, 0.007701195776462555, 0.008028197102248669, 0.008355198428034782, 0.008682199753820896, 0.00900920107960701, 0.009336203336715698, 0.009663204662501812, 0.009990205988287926, 0.01031720731407404]}, "gradients/lout.bias": {"_type": "histogram", "values": [1.0, 0.0, 0.0, 0.0, 0.0, 0.0, 0.0, 0.0, 0.0, 0.0, 0.0, 0.0, 0.0, 0.0, 0.0, 0.0, 0.0, 0.0, 0.0, 0.0, 0.0, 0.0, 0.0, 0.0, 0.0, 0.0, 0.0, 0.0, 0.0, 0.0, 0.0, 0.0, 0.0, 0.0, 0.0, 0.0, 0.0, 0.0, 0.0, 0.0, 0.0, 0.0, 0.0, 0.0, 1.0, 0.0, 0.0, 0.0, 0.0, 0.0, 0.0, 0.0, 0.0, 0.0, 0.0, 0.0, 0.0, 0.0, 0.0, 0.0, 0.0, 0.0, 1.0, 1.0], "bins": [-0.0008970326744019985, -0.000878714956343174, -0.0008603971800766885, -0.000842079462017864, -0.0008237616857513785, -0.000805443967692554, -0.0007871261914260685, -0.000768808473367244, -0.0007504906971007586, -0.000732172979041934, -0.0007138552027754486, -0.000695537484716624, -0.0006772197084501386, -0.000658901990391314, -0.0006405842141248286, -0.000622266496066004, -0.0006039487197995186, -0.000585631001740694, -0.0005673132254742086, -0.000548995507415384, -0.0005306777311488986, -0.0005123600130900741, -0.0004940422368235886, -0.00047572451876476407, -0.00045740680070593953, -0.00043908905354328454, -0.00042077130638062954, -0.00040245355921797454, -0.00038413581205531955, -0.00036581806489266455, -0.00034750031773000956, -0.000329182599671185, -0.00031086482340469956, -0.00029254707624204457, -0.00027422932907938957, -0.0002559115819167346, -0.00023759383475407958, -0.00021927608759142458, -0.00020095835498068482, -0.00018264060781802982, -0.00016432286065537483, -0.00014600511349271983, -0.00012768736633006483, -0.00010936962644336745, -9.105187928071246e-05, -7.273413211805746e-05, -5.441639223136008e-05, -3.609864506870508e-05, -1.7780897906050086e-05, 5.368474376155064e-07, 1.88545927812811e-05, 3.717233630595729e-05, 5.5490083468612283e-05, 7.380783063126728e-05, 9.212557051796466e-05, 0.00011044331768061966, 0.00012876106484327465, 0.00014707881200592965, 0.00016539655916858464, 0.0001837142917793244, 0.0002020320389419794, 0.0002203497861046344, 0.0002386675332672894, 0.0002569852804299444, 0.0002753030275925994]}, "gradients/lout.weight": {"_type": "histogram", "values": [1.0, 0.0, 0.0, 0.0, 0.0, 0.0, 0.0, 0.0, 0.0, 1.0, 0.0, 0.0, 0.0, 0.0, 0.0, 0.0, 0.0, 0.0, 0.0, 0.0, 1.0, 0.0, 1.0, 0.0, 0.0, 1.0, 1.0, 4.0, 1.0, 4.0, 1.0, 3.0, 1.0, 1.0, 1.0, 2.0, 0.0, 4.0, 1.0, 4.0, 7.0, 3.0, 4.0, 1.0, 1.0, 4.0, 4.0, 4.0, 5.0, 89.0, 241.0, 32.0, 25.0, 24.0, 9.0, 15.0, 4.0, 2.0, 2.0, 1.0, 0.0, 1.0, 0.0, 1.0], "bins": [-0.008885799907147884, -0.008708806708455086, -0.008531812578439713, -0.008354819379746914, -0.008177826181054115, -0.008000832051038742, -0.007823838852345943, -0.0076468451879918575, -0.007469851523637772, -0.007292857859283686, -0.007115864660590887, -0.006938870996236801, -0.006761877331882715, -0.006584883667528629, -0.006407890468835831, -0.006230896804481745, -0.006053903605788946, -0.00587690994143486, -0.005699916742742062, -0.005522923078387976, -0.00534592941403389, -0.005168936215341091, -0.004991942550987005, -0.004814948886632919, -0.004637955687940121, -0.004460962023586035, -0.004283968824893236, -0.00410697516053915, -0.003929981496185064, -0.003752988064661622, -0.0035759946331381798, -0.003399000968784094, -0.0032220070715993643, -0.003045013640075922, -0.002868019975721836, -0.002691026544198394, -0.0025140331126749516, -0.0023370394483208656, -0.0021600460167974234, -0.001983052585273981, -0.0018060589209198952, -0.001629065372981131, -0.001452071825042367, -0.0012750783935189247, -0.0010980848455801606, -0.0009210912976413965, -0.0007440978661179543, -0.0005671043181791902, -0.00039011077024042606, -0.00021311725140549242, -3.6123732570558786e-05, 0.0001408697571605444, 0.0003178633050993085, 0.0004948568530380726, 0.0006718502845615149, 0.000848843832500279, 0.001025837380439043, 0.0012028309283778071, 0.0013798244763165712, 0.0015568179078400135, 0.0017338114557787776, 0.0019108050037175417, 0.002087798435240984, 0.00226479209959507, 0.002441785531118512]}, "gradients/layers.3.bias": {"_type": "histogram", "values": [1.0, 0.0, 0.0, 0.0, 0.0, 0.0, 0.0, 0.0, 0.0, 0.0, 0.0, 1.0, 1.0, 0.0, 0.0, 0.0, 0.0, 0.0, 1.0, 0.0, 0.0, 2.0, 3.0, 3.0, 2.0, 1.0, 3.0, 2.0, 1.0, 4.0, 2.0, 3.0, 6.0, 3.0, 0.0, 3.0, 4.0, 5.0, 5.0, 4.0, 8.0, 16.0, 8.0, 3.0, 8.0, 3.0, 1.0, 5.0, 3.0, 2.0, 3.0, 2.0, 1.0, 0.0, 1.0, 1.0, 1.0, 1.0, 0.0, 0.0, 0.0, 0.0, 0.0, 1.0], "bins": [-0.0002265583025291562, -0.00022109178826212883, -0.00021562527399510145, -0.0002101587742799893, -0.00020469226001296192, -0.00019922574574593455, -0.0001937592460308224, -0.00018829273176379502, -0.00018282621749676764, -0.00017735970322974026, -0.00017189318896271288, -0.00016642668924760073, -0.00016096017498057336, -0.00015549366071354598, -0.00015002716099843383, -0.00014456064673140645, -0.00013909413246437907, -0.0001336276181973517, -0.00012816110393032432, -0.00012269460421521217, -0.00011722808994818479, -0.00011176157568115741, -0.00010629506869008765, -0.00010082856169901788, -9.53620474319905e-05, -8.989553316496313e-05, -8.442902617389336e-05, -7.89625191828236e-05, -7.349600491579622e-05, -6.802949064876884e-05, -6.256298365769908e-05, -5.709647302865051e-05, -5.1629962399601936e-05, -4.6163451770553365e-05, -4.0696941141504794e-05, -3.523043051245622e-05, -2.9763919883407652e-05, -2.429740925435908e-05, -1.883089862531051e-05, -1.336438799626194e-05, -7.897877367213368e-06, -2.4313667381647974e-06, 3.0351438908837736e-06, 8.501654519932345e-06, 1.3968165148980916e-05, 1.9434675778029487e-05, 2.4901186407078058e-05, 3.036769703612663e-05, 3.58342076651752e-05, 4.130071829422377e-05, 4.676722892327234e-05, 5.223373955232091e-05, 5.7700250181369483e-05, 6.316676444839686e-05, 6.863327143946663e-05, 7.409977843053639e-05, 7.956629269756377e-05, 8.503280696459115e-05, 9.049931395566091e-05, 9.596582094673067e-05, 0.00010143233521375805, 0.00010689884948078543, 0.0001123653564718552, 0.00011783186346292496, 0.00012329837772995234]}, "gradients/layers.3.weight": {"_type": "histogram", "values": [2.0, 1.0, 0.0, 0.0, 2.0, 4.0, 1.0, 3.0, 6.0, 1.0, 3.0, 4.0, 9.0, 6.0, 8.0, 10.0, 8.0, 8.0, 18.0, 19.0, 17.0, 33.0, 35.0, 52.0, 67.0, 88.0, 105.0, 172.0, 179.0, 247.0, 289.0, 376.0, 484.0, 561.0, 672.0, 939.0, 1412.0, 4251.0, 3035.0, 1129.0, 550.0, 378.0, 308.0, 226.0, 192.0, 125.0, 110.0, 74.0, 45.0, 39.0, 19.0, 13.0, 10.0, 15.0, 7.0, 6.0, 4.0, 4.0, 0.0, 1.0, 1.0, 0.0, 0.0, 1.0], "bins": [-0.00017944039427675307, -0.00017471695900894701, -0.00016999352374114096, -0.0001652700884733349, -0.00016054665320552886, -0.0001558232179377228, -0.00015109978266991675, -0.0001463763474021107, -0.00014165291213430464, -0.0001369294768664986, -0.00013220604159869254, -0.00012748260633088648, -0.00012275917106308043, -0.00011803573579527438, -0.00011331230052746832, -0.00010858886525966227, -0.00010386542999185622, -9.914199472405016e-05, -9.441855945624411e-05, -8.969512418843806e-05, -8.4971688920632e-05, -8.024825365282595e-05, -7.55248183850199e-05, -7.080138311721385e-05, -6.607794784940779e-05, -6.135451258160174e-05, -5.6631077313795686e-05, -5.190764204598963e-05, -4.718420677818358e-05, -4.2460771510377526e-05, -3.773733624257147e-05, -3.301390097476542e-05, -2.829045115504414e-05, -2.3567015887238085e-05, -1.8843580619432032e-05, -1.4120145351625979e-05, -9.396710083819926e-06, -4.673274816013873e-06, 5.016045179218054e-08, 4.773595719598234e-06, 9.497030987404287e-06, 1.422046625521034e-05, 1.8943901523016393e-05, 2.3667336790822446e-05, 2.83907720586285e-05, 3.311420732643455e-05, 3.7837642594240606e-05, 4.256107786204666e-05, 4.728451312985271e-05, 5.2007948397658765e-05, 5.673138366546482e-05, 6.145481893327087e-05, 6.617825420107692e-05, 7.090168946888298e-05, 7.562512473668903e-05, 8.034856000449508e-05, 8.507199527230114e-05, 8.979543054010719e-05, 9.451886580791324e-05, 9.92423010757193e-05, 0.00010396573634352535, 0.0001086891716113314, 0.00011341260687913746, 0.00011813604214694351, 0.00012285947741474956]}, "gradients/layers.2.bias": {"_type": "histogram", "values": [2.0, 1.0, 1.0, 0.0, 1.0, 1.0, 3.0, 1.0, 0.0, 2.0, 2.0, 3.0, 4.0, 4.0, 5.0, 4.0, 2.0, 5.0, 5.0, 2.0, 1.0, 2.0, 1.0, 6.0, 7.0, 7.0, 3.0, 3.0, 2.0, 4.0, 2.0, 4.0, 5.0, 0.0, 1.0, 1.0, 2.0, 0.0, 0.0, 2.0, 1.0, 0.0, 2.0, 2.0, 4.0, 1.0, 1.0, 1.0, 2.0, 1.0, 1.0, 0.0, 0.0, 1.0, 3.0, 2.0, 2.0, 1.0, 0.0, 1.0, 0.0, 0.0, 0.0, 1.0], "bins": [-0.0002534514933358878, -0.0002458694507367909, -0.000238287408137694, -0.0002307053655385971, -0.0002231233229395002, -0.00021554128034040332, -0.00020795923774130642, -0.00020037719514220953, -0.00019279515254311264, -0.00018521310994401574, -0.00017763106734491885, -0.00017004902474582195, -0.00016246698214672506, -0.00015488493954762816, -0.00014730289694853127, -0.00013972085434943438, -0.0001321388263022527, -0.00012455678370315582, -0.00011697474110405892, -0.00010939269850496203, -0.00010181065590586513, -9.422861330676824e-05, -8.664657798362896e-05, -7.906453538453206e-05, -7.148249278543517e-05, -6.390045018633828e-05, -5.631840758724138e-05, -4.8736368626123294e-05, -4.11543260270264e-05, -3.3572283427929506e-05, -2.599024446681142e-05, -1.8408201867714524e-05, -1.082615926861763e-05, -3.2441175790154375e-06, 4.337924110586755e-06, 1.1919964890694246e-05, 1.950200748979114e-05, 2.7084050088888034e-05, 3.466608905000612e-05, 4.2248131649103016e-05, 4.983017424819991e-05, 5.7412216847296804e-05, 6.49942594463937e-05, 7.257629476953298e-05, 8.015833736862987e-05, 8.774037996772677e-05, 9.532242256682366e-05, 0.00010290446516592056, 0.00011048650776501745, 0.00011806855036411434, 0.00012565059296321124, 0.00013323263556230813, 0.00014081467816140503, 0.00014839672076050192, 0.0001559787488076836, 0.00016356079140678048, 0.00017114283400587738, 0.00017872487660497427, 0.00018630691920407116, 0.00019388896180316806, 0.00020147100440226495, 0.00020905304700136185, 0.00021663508960045874, 0.00022421713219955564, 0.00023179917479865253]}, "gradients/layers.2.weight": {"_type": "histogram", "values": [4.0, 4.0, 5.0, 3.0, 5.0, 4.0, 12.0, 7.0, 10.0, 9.0, 13.0, 24.0, 19.0, 35.0, 20.0, 33.0, 30.0, 39.0, 45.0, 41.0, 33.0, 58.0, 56.0, 77.0, 112.0, 153.0, 181.0, 221.0, 346.0, 572.0, 1329.0, 2723.0, 5206.0, 4831.0, 1807.0, 896.0, 519.0, 263.0, 168.0, 124.0, 89.0, 80.0, 79.0, 63.0, 42.0, 27.0, 30.0, 23.0, 15.0, 15.0, 18.0, 14.0, 10.0, 12.0, 13.0, 14.0, 11.0, 4.0, 2.0, 4.0, 2.0, 1.0, 1.0, 2.0], "bins": [-0.00025094105512835085, -0.0002434255147818476, -0.00023590998898725957, -0.0002283944486407563, -0.00022087890829425305, -0.00021336338249966502, -0.00020584784215316176, -0.0001983323018066585, -0.00019081677601207048, -0.00018330123566556722, -0.0001757857098709792, -0.00016827016952447593, -0.00016075462917797267, -0.00015323910338338464, -0.0001457235630368814, -0.00013820803724229336, -0.0001306924968957901, -0.00012317695654928684, -0.0001156614234787412, -0.00010814589040819556, -0.00010063035733764991, -9.311482426710427e-05, -8.559928392060101e-05, -7.808375085005537e-05, -7.05682032275945e-05, -6.305267015704885e-05, -5.55371334485244e-05, -4.802159673999995e-05, -4.0506063669454306e-05, -3.2990526960929856e-05, -2.5474990252405405e-05, -1.795945718185976e-05, -1.0443924111314118e-05, -2.92838876703172e-06, 4.587146577250678e-06, 1.2102682376280427e-05, 1.9618217265815474e-05, 2.713375215535052e-05, 3.464928886387497e-05, 4.2164821934420615e-05, 4.9680358642945066e-05, 5.719589535146952e-05, 6.471142842201516e-05, 7.22269614925608e-05, 7.974250183906406e-05, 8.72580349096097e-05, 9.477356798015535e-05, 0.0001022891083266586, 0.00010980464139720425, 0.0001173201744677499, 0.00012483571481425315, 0.00013235124060884118, 0.00013986678095534444, 0.0001473823213018477, 0.00015489786164835095, 0.00016241338744293898, 0.00016992892778944224, 0.0001774444681359455, 0.00018495999393053353, 0.00019247553427703679, 0.00019999107462354004, 0.00020750660041812807, 0.00021502214076463133, 0.00022253766655921936, 0.00023005320690572262]}, "gradients/layers.1.bias": {"_type": "histogram", "values": [1.0, 0.0, 0.0, 0.0, 0.0, 0.0, 1.0, 0.0, 1.0, 0.0, 0.0, 0.0, 1.0, 4.0, 0.0, 3.0, 5.0, 2.0, 10.0, 4.0, 6.0, 11.0, 10.0, 6.0, 11.0, 1.0, 5.0, 5.0, 4.0, 3.0, 3.0, 4.0, 2.0, 0.0, 1.0, 2.0, 4.0, 1.0, 1.0, 2.0, 0.0, 2.0, 0.0, 1.0, 0.0, 2.0, 3.0, 1.0, 0.0, 0.0, 0.0, 0.0, 1.0, 0.0, 0.0, 0.0, 0.0, 0.0, 0.0, 2.0, 0.0, 0.0, 1.0, 1.0], "bins": [-0.001532986992970109, -0.0014724810607731342, -0.0014119750121608377, -0.001351469079963863, -0.0012909630313515663, -0.0012304570991545916, -0.0011699511669576168, -0.001109445234760642, -0.0010489391861483455, -0.0009884332539513707, -0.0009279272053390741, -0.0008674212731420994, -0.0008069152827374637, -0.000746409292332828, -0.0006859033601358533, -0.0006253973697312176, -0.000564891379326582, -0.0005043853889219463, -0.0004438794276211411, -0.00038337346632033587, -0.0003228674759157002, -0.00026236148551106453, -0.00020185552421025932, -0.0001413495629094541, -8.084357250481844e-05, -2.0337596652098e-05, 4.016837920062244e-05, 0.00010067435505334288, 0.00016118033090606332, 0.00022168632131069899, 0.0002821922826115042, 0.0003426982439123094, 0.0004032042343169451, 0.00046371022472158074, 0.0005242162151262164, 0.0005847221473231912, 0.0006452281377278268, 0.0007057341281324625, 0.0007662400603294373, 0.0008267460507340729, 0.0008872520411387086, 0.0009477580315433443, 0.00100826402194798, 0.0010687699541449547, 0.0011292758863419294, 0.001189781934954226, 0.0012502878671512008, 0.0013107939157634974, 0.001371299847960472, 0.0014318057801574469, 0.0014923118287697434, 0.0015528177609667182, 0.0016133238095790148, 0.0016738297417759895, 0.0017343356739729643, 0.001794841606169939, 0.0018553476547822356, 0.0019158535869792104, 0.001976359635591507, 0.0020368655677884817, 0.0020973714999854565, 0.002157877665013075, 0.0022183835972100496, 0.0022788895294070244, 0.002339395461603999]}, "gradients/layers.1.weight": {"_type": "histogram", "values": [1.0, 5.0, 2.0, 2.0, 0.0, 1.0, 3.0, 3.0, 7.0, 14.0, 15.0, 21.0, 26.0, 64.0, 104.0, 167.0, 297.0, 668.0, 1836.0, 8897.0, 2125.0, 751.0, 421.0, 239.0, 137.0, 135.0, 85.0, 66.0, 49.0, 41.0, 29.0, 33.0, 31.0, 20.0, 10.0, 16.0, 8.0, 10.0, 9.0, 4.0, 3.0, 6.0, 2.0, 4.0, 4.0, 4.0, 1.0, 1.0, 2.0, 1.0, 2.0, 0.0, 0.0, 0.0, 0.0, 0.0, 0.0, 1.0, 0.0, 0.0, 0.0, 0.0, 0.0, 1.0], "bins": [-0.0009453372331336141, -0.0008974623633548617, -0.0008495874935761094, -0.0008017126237973571, -0.0007538377540186048, -0.0007059628842398524, -0.000658088072668761, -0.0006102132028900087, -0.0005623383331112564, -0.000514463463332504, -0.0004665885935537517, -0.00041871375287882984, -0.0003708388831000775, -0.0003229640133213252, -0.0002750891726464033, -0.00022721430286765099, -0.00017933943308889866, -0.00013146456331014633, -8.358970808330923e-05, -3.5714852856472135e-05, 1.2160016922280192e-05, 6.003488670103252e-05, 0.00010790972737595439, 0.00015578459715470672, 0.00020365946693345904, 0.00025153433671221137, 0.0002994092064909637, 0.00034728404716588557, 0.0003951589169446379, 0.0004430337867233902, 0.0004909086273983121, 0.0005387834971770644, 0.0005866582505404949, 0.0006345331203192472, 0.0006824079900979996, 0.0007302828598767519, 0.0007781577296555042, 0.0008260325994342566, 0.000873907411005348, 0.0009217822807841003, 0.0009696571505628526, 0.001017531962133944, 0.0010654068319126964, 0.0011132817016914487, 0.001161156571470201, 0.0012090314412489533, 0.0012569063110277057, 0.001304781180806458, 0.0013526560505852103, 0.0014005309203639627, 0.001448405790142715, 0.0014962806599214673, 0.0015441555297002196, 0.001592030399478972, 0.0016399051528424025, 0.0016877800226211548, 0.0017356548923999071, 0.0017835297621786594, 0.0018314046319574118, 0.001879279501736164, 0.0019271543715149164, 0.0019750292412936687, 0.002022904111072421, 0.0020707789808511734, 0.0021186538506299257]}, "gradients/layers.0.bias": {"_type": "histogram", "values": [1.0, 0.0, 0.0, 0.0, 0.0, 1.0, 0.0, 0.0, 0.0, 2.0, 0.0, 3.0, 2.0, 2.0, 1.0, 2.0, 2.0, 3.0, 2.0, 4.0, 5.0, 7.0, 8.0, 10.0, 11.0, 8.0, 3.0, 6.0, 3.0, 2.0, 4.0, 3.0, 4.0, 5.0, 2.0, 3.0, 1.0, 3.0, 2.0, 1.0, 0.0, 0.0, 4.0, 0.0, 1.0, 1.0, 0.0, 2.0, 1.0, 0.0, 1.0, 0.0, 0.0, 0.0, 0.0, 1.0, 0.0, 0.0, 0.0, 0.0, 0.0, 0.0, 0.0, 1.0], "bins": [-0.0036031450144946575, -0.003449175273999572, -0.003295205533504486, -0.003141236025840044, -0.0029872662853449583, -0.0028332965448498726, -0.0026793270371854305, -0.002525357296690345, -0.002371387556195259, -0.0022174178157001734, -0.0020634480752050877, -0.0019094785675406456, -0.0017555088270455599, -0.0016015390865504742, -0.0014475694624707103, -0.0012935998383909464, -0.0011396300978958607, -0.000985660357400775, -0.0008316907333210111, -0.0006777210510335863, -0.0005237513687461615, -0.00036978168645873666, -0.00021581200417131186, -6.184238009154797e-05, 9.212736040353775e-05, 0.00024609704269096255, 0.00040006672497838736, 0.0005540364072658122, 0.000708006089553237, 0.0008619757718406618, 0.0010159454541280866, 0.0011699150782078505, 0.0013238852843642235, 0.0014778550248593092, 0.001631824648939073, 0.001785794273018837, 0.0019397640135139227, 0.0020937337540090084, 0.0022477032616734505, 0.002401673002168536, 0.002555642742663622, 0.0027096124831587076, 0.0028635822236537933, 0.0030175517313182354, 0.003171521471813321, 0.003325491212308407, 0.003479460719972849, 0.0036334304604679346, 0.0037874002009630203, 0.003941369708627462, 0.004095339681953192, 0.004249309189617634, 0.004403279162943363, 0.004557248670607805, 0.004711218178272247, 0.004865188151597977, 0.005019157659262419, 0.005173127166926861, 0.00532709714025259, 0.005481066647917032, 0.005635036155581474, 0.005789006128907204, 0.005942975636571646, 0.006096945144236088, 0.006250915117561817]}, "gradients/layers.0.weight": {"_type": "histogram", "values": [1.0, 0.0, 0.0, 0.0, 0.0, 0.0, 0.0, 0.0, 2.0, 0.0, 1.0, 1.0, 1.0, 0.0, 6.0, 2.0, 3.0, 2.0, 5.0, 8.0, 4.0, 14.0, 19.0, 26.0, 45.0, 39.0, 48.0, 76.0, 94.0, 152.0, 229.0, 444.0, 1124.0, 680.0, 341.0, 201.0, 126.0, 98.0, 79.0, 92.0, 43.0, 47.0, 33.0, 25.0, 17.0, 16.0, 13.0, 15.0, 11.0, 7.0, 6.0, 10.0, 0.0, 4.0, 1.0, 0.0, 2.0, 3.0, 0.0, 0.0, 1.0, 2.0, 1.0, 4.0], "bins": [-0.006534081418067217, -0.006334364879876375, -0.006134648807346821, -0.005934932269155979, -0.005735216196626425, -0.005535499658435583, -0.005335783585906029, -0.005136067047715187, -0.004936350509524345, -0.004736633971333504, -0.004536917898803949, -0.004337201360613108, -0.004137485288083553, -0.003937768749892712, -0.0037380524445325136, -0.0035383361391723156, -0.0033386198338121176, -0.0031389035284519196, -0.0029391872230917215, -0.0027394709177315235, -0.002539754379540682, -0.002340038074180484, -0.002140321768820286, -0.001940605347044766, -0.001740889041684568, -0.00154117273632437, -0.00134145631454885, -0.001141740009188652, -0.0009420236456207931, -0.0007423072820529342, -0.0005425909766927361, -0.0003428745549172163, -0.00014315824955701828, 5.6558099458925426e-05, 0.00025627444847486913, 0.0004559907829388976, 0.0006557071465067565, 0.0008554235100746155, 0.0010551398154348135, 0.0012548562372103333, 0.0014545725425705314, 0.0016542888479307294, 0.0018540052697062492, 0.0020537215750664473, 0.0022534378804266453, 0.002453154418617487, 0.0026528704911470413, 0.002852587029337883, 0.003052303334698081, 0.003252019640058279, 0.003451735945418477, 0.003651452250778675, 0.0038511687889695168, 0.004050885327160358, 0.004250601399689913, 0.0044503179378807545, 0.004650034010410309, 0.0048497505486011505, 0.005049466621130705, 0.0052491831593215466, 0.005448899231851101, 0.005648615770041943, 0.005848332308232784, 0.006048048380762339, 0.00624776491895318]}, "_wandb": {"runtime": 1142}}