{"total_loss": 0.003411200400441885, "_timestamp": 1717846580.6286411, "rgb_loss": 0.003411200400441885, "_runtime": 2417.2403452396393, "_step": 40100, "Rendered Images": {"_type": "images/separated", "width": 256, "height": 256, "format": "png", "count": 5, "filenames": ["media/images/Rendered Images_40000_d38760ab605c8642a311.png", "media/images/Rendered Images_40000_f3cd7acc9be34736477e.png", "media/images/Rendered Images_40000_294e2b027646d44741af.png", "media/images/Rendered Images_40000_02d5c40a238be614e161.png", "media/images/Rendered Images_40000_de03ac22fe779ca12712.png"]}, "Ground-truth Images": {"_type": "images/separated", "width": 256, "height": 256, "format": "png", "count": 5, "filenames": ["media/images/Ground-truth Images_40008_e66caac5921126c9a542.png", "media/images/Ground-truth Images_40008_d46094b22d91d1bd7d47.png", "media/images/Ground-truth Images_40008_c1ae0e380e32a07032f8.png", "media/images/Ground-truth Images_40008_b60b263c939c62f4bc58.png", "media/images/Ground-truth Images_40008_ab3d98782f1147e7dca7.png"]}, "PSNR": 31.852963568974605, "Epoch": 5000, "gradients/graph_1lout.bias": {"_type": "histogram", "values": [1.0, 0.0, 0.0, 0.0, 0.0, 0.0, 0.0, 0.0, 0.0, 0.0, 0.0, 0.0, 0.0, 0.0, 0.0, 0.0, 0.0, 0.0, 0.0, 0.0, 0.0, 0.0, 0.0, 0.0, 0.0, 0.0, 0.0, 0.0, 0.0, 0.0, 0.0, 0.0, 0.0, 0.0, 0.0, 0.0, 0.0, 0.0, 0.0, 0.0, 0.0, 0.0, 0.0, 0.0, 0.0, 0.0, 0.0, 0.0, 0.0, 0.0, 0.0, 1.0, 0.0, 0.0, 0.0, 0.0, 0.0, 0.0, 0.0, 1.0, 0.0, 0.0, 0.0, 1.0], "bins": [1.875211819424294e-05, 2.3485197743866593e-05, 2.8218275474500842e-05, 3.295135320513509e-05, 3.7684432754758745e-05, 4.24175123043824e-05, 4.715059185400605e-05, 5.18836677656509e-05, 5.661674731527455e-05, 6.13498268648982e-05, 6.608290277654305e-05, 7.081598596414551e-05, 7.554906187579036e-05, 8.02821377874352e-05, 8.501522097503766e-05, 8.974829688668251e-05, 9.448138007428497e-05, 9.921445598592982e-05, 0.00010394753189757466, 0.00010868061508517712, 0.00011341369099682197, 0.00011814676690846682, 0.00012287985009606928, 0.00012761293328367174, 0.00013234600191935897, 0.00013707908510696143, 0.0001418121682945639, 0.00014654523693025112, 0.00015127832011785358, 0.00015601140330545604, 0.00016074447194114327, 0.00016547755512874573, 0.0001702106383163482, 0.00017494372150395066, 0.0001796767901396379, 0.00018440987332724035, 0.0001891429565148428, 0.00019387602515053004, 0.0001986091083381325, 0.00020334219152573496, 0.00020807527471333742, 0.00021280834334902465, 0.00021754142653662711, 0.00022227450972422957, 0.0002270075783599168, 0.00023174066154751927, 0.00023647374473512173, 0.00024120681337080896, 0.0002459398820064962, 0.0002506729797460139, 0.0002554060483817011, 0.0002601391461212188, 0.00026487221475690603, 0.00026960528339259326, 0.00027433838113211095, 0.0002790714497677982, 0.0002838045184034854, 0.0002885376161430031, 0.00029327068477869034, 0.00029800375341437757, 0.00030273685115389526, 0.0003074699197895825, 0.0003122029884252697, 0.0003169360861647874, 0.00032166915480047464]}, "gradients/graph_1lout.weight": {"_type": "histogram", "values": [3.0, 36.0, 848.0, 37.0, 13.0, 7.0, 7.0, 5.0, 3.0, 4.0, 4.0, 2.0, 2.0, 1.0, 3.0, 2.0, 1.0, 1.0, 2.0, 0.0, 1.0, 1.0, 1.0, 1.0, 3.0, 0.0, 0.0, 1.0, 1.0, 1.0, 4.0, 1.0, 2.0, 1.0, 0.0, 2.0, 3.0, 1.0, 3.0, 0.0, 0.0, 0.0, 0.0, 0.0, 2.0, 0.0, 2.0, 0.0, 0.0, 1.0, 2.0, 1.0, 0.0, 1.0, 1.0, 0.0, 0.0, 0.0, 0.0, 2.0, 1.0, 0.0, 2.0, 1.0], "bins": [-0.00016159741790033877, -9.510292875347659e-05, -2.860843960661441e-05, 3.788604954024777e-05, 0.00010438053868710995, 0.0001708750205580145, 0.0002373695169808343, 0.0003038640134036541, 0.00037035849527455866, 0.00043685297714546323, 0.0005033474881201982, 0.0005698419408872724, 0.0006363364518620074, 0.0007028309628367424, 0.0007693254156038165, 0.0008358199265785515, 0.0009023144375532866, 0.0009688088903203607, 0.0010353033430874348, 0.0011017979122698307, 0.0011682923650369048, 0.001234786817803979, 0.0013012813869863749, 0.001367775839753449, 0.001434270292520523, 0.001500764861702919, 0.0015672593144699931, 0.0016337537672370672, 0.0017002483364194632, 0.0017667427891865373, 0.0018332372419536114, 0.0018997316947206855, 0.0019662261474877596, 0.0020327207166701555, 0.002099215053021908, 0.0021657096222043037, 0.0022322041913866997, 0.002298698527738452, 0.002365193096920848, 0.002431687666103244, 0.002498182002454996, 0.002564676571637392, 0.002631171140819788, 0.0026976654771715403, 0.002764160046353936, 0.002830654615536332, 0.0028971489518880844, 0.0029636435210704803, 0.0030301380902528763, 0.0030966324266046286, 0.0031631269957870245, 0.0032296213321387768, 0.0032961159013211727, 0.0033626104705035686, 0.003429104806855321, 0.003495599376037717, 0.003562093945220113, 0.003628588281571865, 0.003695082850754261, 0.003761577419936657, 0.0038280717562884092, 0.003894566325470805, 0.0039610606618225574, 0.004027555231004953, 0.004094049800187349]}, "gradients/graph_1layers.3.bias": {"_type": "histogram", "values": [1.0, 0.0, 0.0, 0.0, 0.0, 0.0, 0.0, 0.0, 0.0, 0.0, 0.0, 0.0, 0.0, 1.0, 0.0, 0.0, 0.0, 0.0, 0.0, 1.0, 0.0, 2.0, 0.0, 2.0, 3.0, 2.0, 3.0, 7.0, 11.0, 26.0, 122.0, 25.0, 11.0, 11.0, 7.0, 2.0, 2.0, 2.0, 2.0, 0.0, 1.0, 2.0, 0.0, 0.0, 1.0, 2.0, 0.0, 2.0, 2.0, 0.0, 0.0, 1.0, 0.0, 0.0, 1.0, 0.0, 0.0, 0.0, 0.0, 0.0, 0.0, 0.0, 0.0, 1.0], "bins": [-6.690456939395517e-05, -6.471036613220349e-05, -6.251617014640942e-05, -6.032197052263655e-05, -5.812777089886367e-05, -5.593356763711199e-05, -5.373936801333912e-05, -5.154516838956624e-05, -4.935096876579337e-05, -4.7156769142020494e-05, -4.496256951824762e-05, -4.2768369894474745e-05, -4.057416663272306e-05, -3.837996700895019e-05, -3.6185767385177314e-05, -3.399156776140444e-05, -3.1797368137631565e-05, -2.960316851385869e-05, -2.7408968890085816e-05, -2.521476744732354e-05, -2.3020567823550664e-05, -2.082636819977779e-05, -1.863216675701551e-05, -1.6437967133242637e-05, -1.4243767509469762e-05, -1.2049567885696888e-05, -9.855367352429312e-06, -7.661166819161735e-06, -5.466967195388861e-06, -3.2727671168686356e-06, -1.0785670383484103e-06, 1.115633040171815e-06, 3.3098258427344263e-06, 5.504025921254652e-06, 7.698225999774877e-06, 9.892426533042453e-06, 1.2086626156815328e-05, 1.4280825780588202e-05, 1.647502722335048e-05, 1.8669226847123355e-05, 2.086342647089623e-05, 2.3057626094669104e-05, 2.5251825718441978e-05, 2.7446027161204256e-05, 2.964022678497713e-05, 3.183442822773941e-05, 3.402862785151228e-05, 3.622282747528516e-05, 3.841702709905803e-05, 4.0611226722830907e-05, 4.280542634660378e-05, 4.4999625970376655e-05, 4.719382559414953e-05, 4.938802885590121e-05, 5.1582228479674086e-05, 5.377642810344696e-05, 5.5970627727219835e-05, 5.816482735099271e-05, 6.0359026974765584e-05, 6.255322659853846e-05, 6.474742986029014e-05, 6.694162584608421e-05, 6.913582910783589e-05, 7.133002509362996e-05, 7.352422835538164e-05]}, "gradients/graph_1layers.3.weight": {"_type": "histogram", "values": [1.0, 0.0, 1.0, 3.0, 0.0, 0.0, 0.0, 0.0, 1.0, 2.0, 4.0, 1.0, 2.0, 2.0, 1.0, 1.0, 5.0, 6.0, 4.0, 3.0, 5.0, 4.0, 7.0, 9.0, 17.0, 13.0, 29.0, 20.0, 41.0, 66.0, 104.0, 225.0, 629.0, 53586.0, 9065.0, 819.0, 332.0, 174.0, 97.0, 73.0, 67.0, 40.0, 19.0, 14.0, 8.0, 7.0, 9.0, 4.0, 3.0, 2.0, 1.0, 5.0, 2.0, 1.0, 0.0, 0.0, 1.0, 0.0, 0.0, 0.0, 0.0, 0.0, 0.0, 1.0], "bins": [-0.0002166235208278522, -0.00021024630405008793, -0.00020386907272040844, -0.00019749185594264418, -0.00019111463916487992, -0.00018473740783520043, -0.00017836019105743617, -0.0001719829742796719, -0.00016560574294999242, -0.00015922852617222816, -0.0001528513093944639, -0.00014647409261669964, -0.00014009686128702015, -0.00013371964450925589, -0.00012734242773149163, -0.00012096520367776975, -0.00011458797962404788, -0.000108210755570326, -0.00010183353879256174, -9.545631473883986e-05, -8.90790979610756e-05, -8.270187390735373e-05, -7.632464985363185e-05, -6.99474330758676e-05, -6.357020902214572e-05, -5.719298860640265e-05, -5.081576819065958e-05, -4.443854413693771e-05, -3.806132372119464e-05, -3.168410330545157e-05, -2.53068810707191e-05, -1.892965883598663e-05, -1.2552423868328333e-05, -6.175202543090563e-06, 2.0201878214720637e-07, 6.579240107384976e-06, 1.2956461432622746e-05, 1.9333681848365813e-05, 2.5710904083098285e-05, 3.2088126317830756e-05, 3.8465346733573824e-05, 4.484256714931689e-05, 5.121978756505996e-05, 5.7597011618781835e-05, 6.397423567250371e-05, 7.035145245026797e-05, 7.672867650398985e-05, 8.31058932817541e-05, 8.948311733547598e-05, 9.586034138919786e-05, 0.00010223755816696212, 0.00010861478222068399, 0.00011499199899844825, 0.00012136922305217013, 0.000127746447105892, 0.00013412366388365626, 0.00014050089521333575, 0.0001468781119911, 0.00015325532876886427, 0.00015963254554662853, 0.00016600977687630802, 0.00017238699365407228, 0.00017876421043183655, 0.00018514144176151603, 0.0001915186585392803]}, "gradients/graph_1layers.2.bias": {"_type": "histogram", "values": [1.0, 0.0, 0.0, 0.0, 0.0, 0.0, 0.0, 0.0, 0.0, 1.0, 1.0, 0.0, 1.0, 0.0, 0.0, 0.0, 1.0, 1.0, 0.0, 1.0, 0.0, 1.0, 0.0, 0.0, 1.0, 0.0, 0.0, 1.0, 0.0, 1.0, 5.0, 3.0, 11.0, 6.0, 22.0, 18.0, 31.0, 57.0, 30.0, 15.0, 4.0, 7.0, 4.0, 2.0, 3.0, 4.0, 4.0, 1.0, 3.0, 4.0, 3.0, 0.0, 1.0, 2.0, 0.0, 0.0, 1.0, 1.0, 0.0, 0.0, 1.0, 1.0, 0.0, 1.0], "bins": [-0.0001623872376512736, -0.0001580567186465487, -0.000153726214193739, -0.00014939569518901408, -0.00014506519073620439, -0.00014073467173147947, -0.00013640415272675455, -0.00013207364827394485, -0.00012774312926921993, -0.00012341262481641024, -0.00011908210581168532, -0.00011475159408291802, -0.00011042108235415071, -0.00010609057062538341, -0.00010176005162065849, -9.742953989189118e-05, -9.309902816312388e-05, -8.876851643435657e-05, -8.443800470558926e-05, -8.010748570086434e-05, -7.577697397209704e-05, -7.144646224332973e-05, -6.711595051456243e-05, -6.278543878579512e-05, -5.845492341904901e-05, -5.4124411690281704e-05, -4.979389632353559e-05, -4.5463384594768286e-05, -4.113287286600098e-05, -3.680235749925487e-05, -3.247184577048756e-05, -2.8141332222730853e-05, -2.3810825950931758e-05, -1.948031240317505e-05, -1.5149799764913041e-05, -1.0819287126651034e-05, -6.488773578894325e-06, -2.1582604858849663e-06, 2.172252607124392e-06, 6.50276570013375e-06, 1.0833278793143108e-05, 1.5163792340899818e-05, 1.9494305888656527e-05, 2.3824817617423832e-05, 2.815533116518054e-05, 3.248584471293725e-05, 3.6816356441704556e-05, 4.114687180845067e-05, 4.5477383537217975e-05, 4.980789526598528e-05, 5.413841063273139e-05, 5.84689223614987e-05, 6.279943772824481e-05, 6.712994945701212e-05, 7.146046118577942e-05, 7.579097291454673e-05, 8.012149191927165e-05, 8.445200364803895e-05, 8.878251537680626e-05, 9.311302710557356e-05, 9.744353883434087e-05, 0.00010177405056310818, 0.0001061045695678331, 0.0001104350812966004, 0.00011476559302536771]}, "gradients/graph_1layers.2.weight": {"_type": "histogram", "values": [1.0, 0.0, 0.0, 1.0, 1.0, 0.0, 0.0, 1.0, 2.0, 2.0, 3.0, 3.0, 1.0, 4.0, 1.0, 6.0, 9.0, 12.0, 7.0, 19.0, 20.0, 16.0, 19.0, 21.0, 26.0, 23.0, 48.0, 76.0, 101.0, 126.0, 201.0, 376.0, 721.0, 1652.0, 6436.0, 58272.0, 3098.0, 1043.0, 524.0, 306.0, 209.0, 152.0, 111.0, 87.0, 60.0, 41.0, 35.0, 25.0, 18.0, 15.0, 7.0, 15.0, 11.0, 5.0, 2.0, 1.0, 2.0, 2.0, 3.0, 0.0, 4.0, 0.0, 0.0, 1.0], "bins": [-0.00020499761740211397, -0.0001991910976357758, -0.00019338457786943763, -0.00018757804355118424, -0.00018177152378484607, -0.0001759650040185079, -0.00017015848425216973, -0.00016435196448583156, -0.0001585454447194934, -0.00015273891040124, -0.00014693239063490182, -0.00014112587086856365, -0.00013531935110222548, -0.0001295128313358873, -0.00012370629701763391, -0.00011789977725129575, -0.00011209325748495758, -0.0001062867377186194, -0.00010048021067632362, -9.467369090998545e-05, -8.886716386768967e-05, -8.30606441013515e-05, -7.725412433501333e-05, -7.144759729271755e-05, -6.564107752637938e-05, -5.98345541220624e-05, -5.402803071774542e-05, -4.8221510951407254e-05, -4.241498754709028e-05, -3.66084641427733e-05, -3.080194437643513e-05, -2.4995420972118154e-05, -1.918888301588595e-05, -1.3382360521063674e-05, -7.575838026241399e-06, -1.7693155314191245e-06, 4.0372069634031504e-06, 9.843729458225425e-06, 1.56502519530477e-05, 2.1456773538375273e-05, 2.726329694269225e-05, 3.306982034700923e-05, 3.88763437513262e-05, 4.468286351766437e-05, 5.048938692198135e-05, 5.6295910326298326e-05, 6.21024300926365e-05, 6.790895713493228e-05, 7.371547690127045e-05, 7.952199666760862e-05, 8.53285237099044e-05, 9.113504347624257e-05, 9.694157051853836e-05, 0.00010274809028487653, 0.0001085546100512147, 0.00011436113709351048, 0.00012016765685984865, 0.00012597418390214443, 0.0001317807036684826, 0.00013758722343482077, 0.00014339374320115894, 0.0001492002629674971, 0.0001550067972857505, 0.00016081331705208868, 0.00016661983681842685]}, "gradients/graph_1layers.1.bias": {"_type": "histogram", "values": [1.0, 0.0, 0.0, 1.0, 0.0, 0.0, 0.0, 1.0, 1.0, 0.0, 1.0, 1.0, 0.0, 0.0, 0.0, 3.0, 0.0, 1.0, 3.0, 4.0, 2.0, 6.0, 9.0, 16.0, 23.0, 67.0, 32.0, 22.0, 17.0, 12.0, 6.0, 4.0, 6.0, 2.0, 1.0, 2.0, 3.0, 1.0, 3.0, 1.0, 0.0, 0.0, 0.0, 0.0, 0.0, 0.0, 0.0, 0.0, 1.0, 0.0, 0.0, 0.0, 0.0, 1.0, 1.0, 0.0, 0.0, 0.0, 0.0, 0.0, 0.0, 0.0, 0.0, 1.0], "bins": [-0.00034262763801962137, -0.00032937966170720756, -0.0003161316562909633, -0.0003028836799785495, -0.00028963570366613567, -0.0002763876982498914, -0.0002631397219374776, -0.0002498917456250638, -0.0002366437402088195, -0.0002233957638964057, -0.00021014777303207666, -0.00019689978216774762, -0.0001836518058553338, -0.00017040381499100477, -0.00015715582412667572, -0.0001439078478142619, -0.00013065985694993287, -0.00011741187336156145, -0.00010416388249723241, -9.091589890886098e-05, -7.766790804453194e-05, -6.441992445616052e-05, -5.117194086778909e-05, -3.792395364143886e-05, -2.4675966415088624e-05, -1.1427980098233093e-05, 1.8200062186224386e-06, 1.506799253547797e-05, 2.83159788523335e-05, 4.1563966078683734e-05, 5.481194966705516e-05, 6.80599405313842e-05, 8.130792411975563e-05, 9.455590770812705e-05, 0.00010780389857245609, 0.00012105188216082752, 0.00013429987302515656, 0.00014754784933757037, 0.0001607958402018994, 0.00017404383106622845, 0.0001872918219305575, 0.0002005397982429713, 0.00021378778910730034, 0.00022703577997162938, 0.0002402837562840432, 0.000253531732596457, 0.0002667797380127013, 0.0002800277143251151, 0.0002932756906375289, 0.00030652369605377316, 0.000319771672366187, 0.00033301967778243124, 0.00034626765409484506, 0.00035951563040725887, 0.00037276363582350314, 0.00038601161213591695, 0.00039925958844833076, 0.00041250759386457503, 0.00042575557017698884, 0.00043900354648940265, 0.0004522515519056469, 0.00046549952821806073, 0.00047874750453047454, 0.0004919954808428884, 0.0005052434862591326]}, "gradients/graph_1layers.1.weight": {"_type": "histogram", "values": [1.0, 0.0, 0.0, 1.0, 0.0, 2.0, 0.0, 0.0, 2.0, 2.0, 2.0, 1.0, 1.0, 5.0, 5.0, 3.0, 6.0, 4.0, 11.0, 16.0, 23.0, 32.0, 61.0, 82.0, 122.0, 294.0, 783.0, 3423.0, 56595.0, 2519.0, 703.0, 340.0, 184.0, 93.0, 61.0, 36.0, 36.0, 18.0, 12.0, 11.0, 6.0, 10.0, 9.0, 5.0, 5.0, 1.0, 3.0, 1.0, 1.0, 1.0, 1.0, 0.0, 1.0, 0.0, 0.0, 0.0, 1.0, 0.0, 0.0, 0.0, 0.0, 0.0, 0.0, 1.0], "bins": [-0.0005208831280469894, -0.0005025570862926543, -0.0004842310445383191, -0.0004659049736801535, -0.0004475789319258183, -0.00042925289017148316, -0.00041092681931331754, -0.00039260077755898237, -0.0003742747358046472, -0.00035594869405031204, -0.0003376226522959769, -0.00031929658143781126, -0.0003009705396834761, -0.0002826444979291409, -0.0002643184270709753, -0.00024599238531664014, -0.00022766634356230497, -0.0002093403018079698, -0.00019101424550171942, -0.00017268818919546902, -0.00015436214744113386, -0.0001360361056867987, -0.0001177100493805483, -9.938400035025552e-05, -8.105795131996274e-05, -6.273190228966996e-05, -4.440585325937718e-05, -2.6079804229084402e-05, -7.753755198791623e-06, 1.0572293831501156e-05, 2.8898342861793935e-05, 4.7224391892086715e-05, 6.555038271471858e-05, 8.387643174501136e-05, 0.00010220248077530414, 0.00012052852980559692, 0.0001388545788358897, 0.00015718062059022486, 0.00017550667689647526, 0.00019383273320272565, 0.00021215877495706081, 0.00023048481671139598, 0.00024881085846573114, 0.00026713692932389677, 0.00028546297107823193, 0.0003037890128325671, 0.0003221150836907327, 0.0003404411254450679, 0.00035876716719940305, 0.0003770932089537382, 0.0003954192507080734, 0.000413745321566239, 0.00043207136332057416, 0.00045039740507490933, 0.00046872347593307495, 0.0004870495176874101, 0.0005053755594417453, 0.0005237016011960804, 0.0005420276429504156, 0.0005603536847047508, 0.0005786797264590859, 0.000597005826421082, 0.0006153318681754172, 0.0006336579099297523, 0.0006519839516840875]}, "gradients/graph_1layers.0.bias": {"_type": "histogram", "values": [2.0, 0.0, 0.0, 0.0, 1.0, 1.0, 1.0, 2.0, 0.0, 3.0, 1.0, 0.0, 3.0, 2.0, 2.0, 4.0, 6.0, 6.0, 7.0, 6.0, 8.0, 7.0, 8.0, 9.0, 10.0, 19.0, 39.0, 17.0, 16.0, 10.0, 11.0, 8.0, 8.0, 3.0, 3.0, 4.0, 4.0, 4.0, 3.0, 2.0, 1.0, 1.0, 1.0, 1.0, 2.0, 0.0, 1.0, 2.0, 1.0, 0.0, 0.0, 1.0, 0.0, 0.0, 2.0, 0.0, 1.0, 1.0, 0.0, 0.0, 0.0, 0.0, 0.0, 1.0], "bins": [-0.0005470128380693495, -0.0005266699008643627, -0.0005063270218670368, -0.00048598408466205, -0.00046564117656089365, -0.0004452982684597373, -0.00042495536035858095, -0.0004046124522574246, -0.0003842695150524378, -0.00036392660695128143, -0.0003435836988501251, -0.0003232407907489687, -0.00030289788264781237, -0.000282554974546656, -0.0002622120373416692, -0.00024186912924051285, -0.0002215262211393565, -0.00020118331303820014, -0.00018084039038512856, -0.0001604974822839722, -0.00014015455963090062, -0.00011981165152974427, -9.946874342858791e-05, -7.912582805147395e-05, -5.878291267435998e-05, -3.843999729724601e-05, -1.8097085558110848e-05, 2.2458280000137165e-06, 2.258874155813828e-05, 4.293165693525225e-05, 6.32745650364086e-05, 8.361748041352257e-05, 0.00010396039579063654, 0.0001243033038917929, 0.00014464622654486448, 0.00016498913464602083, 0.0001853320572990924, 0.00020567496540024877, 0.00022601787350140512, 0.0002463607816025615, 0.0002667037188075483, 0.00028704662690870464, 0.000307389535009861, 0.00032773244311101735, 0.0003480753512121737, 0.00036841825931333005, 0.00038876119651831686, 0.0004091041046194732, 0.00042944701272062957, 0.0004497899208217859, 0.0004701328289229423, 0.0004904757370240986, 0.0005108186742290854, 0.0005311615532264113, 0.0005515044904313982, 0.000571847427636385, 0.0005921903066337109, 0.0006125332438386977, 0.0006328761228360236, 0.0006532190600410104, 0.0006735619972459972, 0.0006939048762433231, 0.0007142478134483099, 0.0007345906924456358, 0.0007549336296506226]}, "gradients/graph_1layers.0.weight": {"_type": "histogram", "values": [3.0, 0.0, 3.0, 3.0, 2.0, 2.0, 10.0, 6.0, 6.0, 6.0, 6.0, 12.0, 23.0, 18.0, 27.0, 27.0, 28.0, 47.0, 39.0, 42.0, 77.0, 93.0, 145.0, 136.0, 203.0, 261.0, 298.0, 397.0, 503.0, 816.0, 1916.0, 840.0, 592.0, 386.0, 303.0, 247.0, 162.0, 119.0, 136.0, 97.0, 80.0, 53.0, 41.0, 45.0, 22.0, 28.0, 21.0, 17.0, 11.0, 18.0, 13.0, 12.0, 8.0, 7.0, 6.0, 9.0, 4.0, 3.0, 3.0, 1.0, 3.0, 0.0, 1.0, 5.0], "bins": [-0.000670132227241993, -0.0006481977179646492, -0.0006262632086873055, -0.0006043286412023008, -0.000582394131924957, -0.0005604596226476133, -0.0005385251133702695, -0.0005165905458852649, -0.0004946560366079211, -0.0004727215273305774, -0.0004507870180532336, -0.0004288524796720594, -0.00040691797039471567, -0.00038498343201354146, -0.0003630489227361977, -0.0003411143843550235, -0.00031917987507767975, -0.000297245365800336, -0.0002753108274191618, -0.00025337631814181805, -0.00023144177976064384, -0.0002095072704833001, -0.0001875727466540411, -0.00016563822282478213, -0.00014370369899552315, -0.00012176917516626418, -9.98346513370052e-05, -7.790013478370383e-05, -5.5965610954444855e-05, -3.403108712518588e-05, -1.2096566933905706e-05, 9.837955076363869e-06, 3.1772477086633444e-05, 5.370700091589242e-05, 7.56415247451514e-05, 9.757604129845276e-05, 0.00011951056512771174, 0.0001414450816810131, 0.00016337960551027209, 0.00018531412933953106, 0.00020724865316879004, 0.00022918317699804902, 0.00025111768627539277, 0.000273052224656567, 0.00029498673393391073, 0.00031692127231508493, 0.0003388557815924287, 0.0003607903199736029, 0.00038272482925094664, 0.0004046593385282904, 0.0004265938769094646, 0.00044852838618680835, 0.00047046292456798255, 0.0004923974629491568, 0.0005143319722265005, 0.0005362664815038443, 0.000558200990781188, 0.0005801355000585318, 0.0006020700675435364, 0.0006240045768208802, 0.0006459390860982239, 0.0006678735953755677, 0.0006898081628605723, 0.0007117426721379161, 0.0007336771814152598]}, "gradients/lout.bias": {"_type": "histogram", "values": [1.0, 0.0, 0.0, 0.0, 0.0, 0.0, 0.0, 0.0, 0.0, 0.0, 0.0, 0.0, 0.0, 0.0, 0.0, 0.0, 1.0, 0.0, 0.0, 0.0, 1.0, 0.0, 0.0, 0.0, 0.0, 0.0, 0.0, 0.0, 0.0, 0.0, 0.0, 0.0, 0.0, 0.0, 0.0, 0.0, 0.0, 0.0, 0.0, 0.0, 0.0, 0.0, 0.0, 0.0, 0.0, 0.0, 0.0, 0.0, 0.0, 0.0, 0.0, 0.0, 0.0, 0.0, 0.0, 0.0, 0.0, 0.0, 0.0, 0.0, 0.0, 0.0, 0.0, 1.0], "bins": [-0.0004011373675893992, -0.0003956360451411456, -0.00039013472269289196, -0.0003846334002446383, -0.0003791320777963847, -0.00037363075534813106, -0.00036812943289987743, -0.0003626281104516238, -0.0003571267588995397, -0.0003516254364512861, -0.00034612411400303245, -0.0003406227915547788, -0.0003351214691065252, -0.00032962014665827155, -0.0003241188242100179, -0.0003186175017617643, -0.00031311617931351066, -0.000307614856865257, -0.0003021135344170034, -0.00029661221196874976, -0.00029111088952049613, -0.0002856095670722425, -0.00028010824462398887, -0.00027460692217573524, -0.0002691055997274816, -0.0002636042481753975, -0.0002581029257271439, -0.00025260160327889025, -0.0002471002808306366, -0.000241598958382383, -0.00023609763593412936, -0.00023059631348587573, -0.00022509497648570687, -0.00021959365403745323, -0.0002140923315891996, -0.00020859100914094597, -0.0002030896721407771, -0.00019758834969252348, -0.00019208702724426985, -0.00018658570479601622, -0.00018108438234776258, -0.00017558305989950895, -0.00017008173745125532, -0.0001645804150030017, -0.00015907909255474806, -0.0001535777555545792, -0.00014807643310632557, -0.00014257511065807194, -0.0001370737882098183, -0.00013157246576156467, -0.00012607114331331104, -0.0001205698135890998, -0.00011506849114084616, -0.00010956716869259253, -0.00010406583896838129, -9.856451652012765e-05, -9.306319407187402e-05, -8.756187162362039e-05, -8.206054917536676e-05, -7.655921945115551e-05, -7.105789700290188e-05, -6.555657455464825e-05, -6.005524846841581e-05, -5.455392238218337e-05, -4.905259993392974e-05]}, "gradients/lout.weight": {"_type": "histogram", "values": [1.0, 0.0, 0.0, 0.0, 0.0, 0.0, 0.0, 0.0, 0.0, 0.0, 0.0, 0.0, 0.0, 0.0, 0.0, 0.0, 1.0, 1.0, 0.0, 0.0, 0.0, 0.0, 0.0, 0.0, 0.0, 0.0, 0.0, 0.0, 0.0, 0.0, 0.0, 0.0, 1.0, 1.0, 0.0, 0.0, 0.0, 1.0, 2.0, 1.0, 3.0, 1.0, 1.0, 1.0, 4.0, 2.0, 2.0, 3.0, 3.0, 3.0, 2.0, 1.0, 4.0, 2.0, 4.0, 6.0, 6.0, 9.0, 22.0, 46.0, 876.0, 5.0, 5.0, 4.0], "bins": [-0.00523360213264823, -0.005147140473127365, -0.005060678813606501, -0.004974217154085636, -0.004887755494564772, -0.004801293835043907, -0.004714832175523043, -0.004628370516002178, -0.004541908856481314, -0.004455447196960449, -0.004368985537439585, -0.00428252387791872, -0.004196062218397856, -0.004109600558876991, -0.004023138899356127, -0.003936677239835262, -0.003850215347483754, -0.0037637536879628897, -0.003677292028442025, -0.0035908303689211607, -0.003504368709400296, -0.0034179070498794317, -0.0033314453903585672, -0.0032449837308377028, -0.0031585218384861946, -0.00307206017896533, -0.0029855985194444656, -0.002899136859923601, -0.0028126752004027367, -0.002726213540881872, -0.0026397518813610077, -0.002553290221840143, -0.0024668285623192787, -0.0023803669027984142, -0.0022939052432775497, -0.0022074435837566853, -0.0021209819242358208, -0.0020345202647149563, -0.00194805848877877, -0.0018615968292579055, -0.001775135169737041, -0.0016886735102161765, -0.001602211850695312, -0.0015157501911744475, -0.0014292884152382612, -0.0013428267557173967, -0.0012563650961965322, -0.0011699034366756678, -0.0010834417771548033, -0.0009969801176339388, -0.0009105184581130743, -0.0008240567403845489, -0.0007375950808636844, -0.0006511334213428199, -0.0005646717036142945, -0.00047821004409343004, -0.00039174838457256556, -0.00030528672505170107, -0.00021882503642700613, -0.0001323633623542264, -4.5901688281446695e-05, 4.055998579133302e-05, 0.00012702165986411273, 0.00021348333393689245, 0.00029994500800967216]}, "gradients/layers.3.bias": {"_type": "histogram", "values": [1.0, 0.0, 0.0, 0.0, 0.0, 0.0, 0.0, 0.0, 0.0, 0.0, 0.0, 0.0, 0.0, 0.0, 0.0, 0.0, 0.0, 0.0, 0.0, 0.0, 0.0, 0.0, 0.0, 0.0, 0.0, 0.0, 0.0, 0.0, 0.0, 1.0, 3.0, 1.0, 2.0, 4.0, 8.0, 9.0, 33.0, 155.0, 16.0, 9.0, 2.0, 2.0, 1.0, 2.0, 2.0, 0.0, 0.0, 1.0, 2.0, 0.0, 0.0, 1.0, 0.0, 0.0, 0.0, 0.0, 0.0, 0.0, 0.0, 0.0, 0.0, 0.0, 0.0, 1.0], "bins": [-0.0001311739906668663, -0.00012766700820066035, -0.00012416004028636962, -0.00012065305782016367, -0.00011714608262991533, -0.00011363910743966699, -0.00011013212497346103, -0.00010662514978321269, -0.00010311817459296435, -9.96111921267584e-05, -9.610421693651006e-05, -9.259724174626172e-05, -8.909026655601338e-05, -8.558328408980742e-05, -8.207630889955908e-05, -7.856933370931074e-05, -7.50623585190624e-05, -7.155537605285645e-05, -6.80484008626081e-05, -6.454142567235976e-05, -6.103444684413262e-05, -5.752746801590547e-05, -5.402049282565713e-05, -5.051351399742998e-05, -4.7006535169202834e-05, -4.3499559978954494e-05, -3.9992581150727347e-05, -3.6485605960479006e-05, -3.297862713225186e-05, -2.9471650123014115e-05, -2.596467311377637e-05, -2.2457696104538627e-05, -1.8950719095300883e-05, -1.544374208606314e-05, -1.1936765076825395e-05, -8.42978715809295e-06, -4.922810148855206e-06, -1.4158329122437863e-06, 2.091144324367633e-06, 5.598121788352728e-06, 9.105098797590472e-06, 1.2612075806828216e-05, 1.611905281606596e-05, 1.9626029825303704e-05, 2.313300865353085e-05, 2.6639985662768595e-05, 3.014696267200634e-05, 3.365393786225468e-05, 3.716091669048183e-05, 4.0667895518708974e-05, 4.4174870708957314e-05, 4.768184953718446e-05, 5.11888247274328e-05, 5.469580355565995e-05, 5.820277874590829e-05, 6.170975393615663e-05, 6.521673640236259e-05, 6.872371159261093e-05, 7.223068678285927e-05, 7.573766924906522e-05, 7.924464443931356e-05, 8.27516196295619e-05, 8.625859481981024e-05, 8.97655772860162e-05, 9.327255247626454e-05]}, "gradients/layers.3.weight": {"_type": "histogram", "values": [1.0, 0.0, 1.0, 0.0, 0.0, 0.0, 0.0, 0.0, 0.0, 0.0, 0.0, 0.0, 1.0, 0.0, 0.0, 0.0, 2.0, 1.0, 2.0, 0.0, 3.0, 2.0, 0.0, 1.0, 3.0, 0.0, 2.0, 2.0, 0.0, 4.0, 9.0, 7.0, 9.0, 5.0, 15.0, 28.0, 39.0, 97.0, 243.0, 1092.0, 62267.0, 1161.0, 235.0, 124.0, 72.0, 36.0, 24.0, 10.0, 9.0, 8.0, 4.0, 4.0, 3.0, 2.0, 3.0, 1.0, 2.0, 0.0, 0.0, 0.0, 0.0, 0.0, 1.0, 1.0], "bins": [-0.0004565236158668995, -0.00044526017154566944, -0.0004339967272244394, -0.00042273325379937887, -0.0004114698094781488, -0.00040020636515691876, -0.0003889429208356887, -0.00037767947651445866, -0.00036641600308939815, -0.0003551525587681681, -0.00034388911444693804, -0.000332625670125708, -0.00032136222580447793, -0.0003100987814832479, -0.00029883530805818737, -0.0002875718637369573, -0.00027630841941572726, -0.0002650449750944972, -0.00025378153077326715, -0.00024251807190012187, -0.00023125461302697659, -0.00021999116870574653, -0.00020872772438451648, -0.0001974642655113712, -0.00018620082119014114, -0.0001749373768689111, -0.0001636739179957658, -0.00015241047367453575, -0.0001411470293533057, -0.00012988357048016042, -0.00011862012615893036, -0.00010735667456174269, -9.609325206838548e-05, -8.482980047119781e-05, -7.356634887401015e-05, -6.230290455278009e-05, -5.1039452955592424e-05, -3.9776001358404756e-05, -2.8512553399195895e-05, -1.724910362099763e-05, -5.9856538427993655e-06, 5.277795935398899e-06, 1.6541245713597164e-05, 2.7804695491795428e-05, 3.906814526999369e-05, 5.033159686718136e-05, 6.159504118841141e-05, 7.285849278559908e-05, 8.412194438278675e-05, 9.538539597997442e-05, 0.00010664884757716209, 0.00011791229189839214, 0.00012917575077153742, 0.00014043919509276748, 0.00015170263941399753, 0.0001629660982871428, 0.00017422954260837287, 0.00018549298692960292, 0.0001967564458027482, 0.00020801989012397826, 0.0002192833344452083, 0.0002305467933183536, 0.00024181023763958365, 0.00025307369651272893, 0.000264337140833959]}, "gradients/layers.2.bias": {"_type": "histogram", "values": [1.0, 1.0, 1.0, 0.0, 0.0, 0.0, 0.0, 0.0, 0.0, 0.0, 0.0, 0.0, 1.0, 0.0, 0.0, 0.0, 0.0, 0.0, 0.0, 0.0, 0.0, 0.0, 1.0, 1.0, 0.0, 2.0, 1.0, 0.0, 1.0, 2.0, 3.0, 3.0, 5.0, 10.0, 11.0, 16.0, 28.0, 33.0, 33.0, 14.0, 16.0, 15.0, 10.0, 7.0, 6.0, 4.0, 5.0, 4.0, 5.0, 5.0, 0.0, 0.0, 0.0, 1.0, 2.0, 2.0, 0.0, 1.0, 1.0, 1.0, 0.0, 2.0, 0.0, 1.0], "bins": [-0.00012153130955994129, -0.00011834309407277033, -0.00011515487858559936, -0.0001119666630984284, -0.00010877844761125743, -0.00010559022484812886, -0.00010240200936095789, -9.921379387378693e-05, -9.602557838661596e-05, -9.2837362899445e-05, -8.964914741227403e-05, -8.646093192510307e-05, -8.327270916197449e-05, -8.008449367480353e-05, -7.689627818763256e-05, -7.37080627004616e-05, -7.051984721329063e-05, -6.733163172611967e-05, -6.41434162389487e-05, -6.095519711379893e-05, -5.776698162662797e-05, -5.4578766139457e-05, -5.139054701430723e-05, -4.8202331527136266e-05, -4.50141160399653e-05, -4.182590055279434e-05, -3.863768506562337e-05, -3.54494659404736e-05, -3.226125045330264e-05, -2.9073034966131672e-05, -2.5884817659971304e-05, -2.2696600353810936e-05, -1.9508392142597586e-05, -1.632017665542662e-05, -1.3131959349266253e-05, -9.943742952600587e-06, -6.755526555934921e-06, -3.5673101592692547e-06, -3.790937626035884e-07, 2.809122634062078e-06, 5.997339030727744e-06, 9.18555542739341e-06, 1.2373771824059077e-05, 1.5561989130219445e-05, 1.875020461739041e-05, 2.1938420104561374e-05, 2.512663741072174e-05, 2.831485471688211e-05, 3.1503070204053074e-05, 3.469128569122404e-05, 3.7879501178395e-05, 4.1067720303544775e-05, 4.425593579071574e-05, 4.7444151277886704e-05, 5.0632370403036475e-05, 5.382058589020744e-05, 5.7008801377378404e-05, 6.019701686454937e-05, 6.338523235172033e-05, 6.65734478388913e-05, 6.976166332606226e-05, 7.294988608919084e-05, 7.61381015763618e-05, 7.932631706353277e-05, 8.251453255070373e-05]}, "gradients/layers.2.weight": {"_type": "histogram", "values": [1.0, 0.0, 0.0, 0.0, 0.0, 0.0, 0.0, 0.0, 1.0, 0.0, 0.0, 0.0, 0.0, 0.0, 1.0, 2.0, 2.0, 6.0, 5.0, 0.0, 7.0, 8.0, 8.0, 13.0, 14.0, 17.0, 15.0, 25.0, 35.0, 65.0, 75.0, 117.0, 180.0, 307.0, 536.0, 1057.0, 2518.0, 19558.0, 43285.0, 3030.0, 1302.0, 676.0, 393.0, 214.0, 162.0, 83.0, 61.0, 53.0, 31.0, 36.0, 15.0, 17.0, 14.0, 10.0, 4.0, 8.0, 3.0, 3.0, 2.0, 4.0, 2.0, 1.0, 1.0, 1.0], "bins": [-0.0002058151876553893, -0.00020040135132148862, -0.00019498752953950316, -0.00018957369320560247, -0.000184159871423617, -0.00017874603508971632, -0.00017333221330773085, -0.00016791837697383016, -0.0001625045551918447, -0.000157090718857944, -0.00015167689707595855, -0.00014626306074205786, -0.0001408492389600724, -0.0001354354026261717, -0.00013002158084418625, -0.00012460774451028556, -0.00011919391545234248, -0.0001137800863943994, -0.00010836625733645633, -0.00010295242827851325, -9.753859922057018e-05, -9.21247701626271e-05, -8.671094110468403e-05, -8.129711204674095e-05, -7.588327571284026e-05, -7.046944665489718e-05, -6.505561759695411e-05, -5.964179217698984e-05, -5.4227959481067955e-05, -4.881413042312488e-05, -4.3400301365181804e-05, -3.798647230723873e-05, -3.257264324929565e-05, -2.7158814191352576e-05, -2.17449851334095e-05, -1.633115425647702e-05, -1.0917325198533945e-05, -5.503495685843518e-06, -8.966617315309122e-08, 5.3241633395373356e-06, 1.0737992852227762e-05, 1.6151821910170838e-05, 2.1565650968113914e-05, 2.6979481845046394e-05, 3.239331272197887e-05, 3.780714177992195e-05, 4.3220970837865025e-05, 4.86347998958081e-05, 5.4048628953751177e-05, 5.946245801169425e-05, 6.487628706963733e-05, 7.02901161275804e-05, 7.570394518552348e-05, 8.111777424346656e-05, 8.653160330140963e-05, 9.194543235935271e-05, 9.73592686932534e-05, 0.00010277309775119647, 0.00010818692680913955, 0.00011360075586708263, 0.0001190145849250257, 0.00012442840670701116, 0.00012984224304091185, 0.00013525606482289732, 0.000140669901156798]}, "gradients/layers.1.bias": {"_type": "histogram", "values": [1.0, 0.0, 0.0, 1.0, 0.0, 0.0, 1.0, 0.0, 0.0, 0.0, 0.0, 0.0, 1.0, 0.0, 0.0, 1.0, 0.0, 0.0, 0.0, 0.0, 1.0, 1.0, 2.0, 1.0, 6.0, 2.0, 3.0, 5.0, 7.0, 12.0, 18.0, 23.0, 43.0, 48.0, 14.0, 11.0, 12.0, 14.0, 9.0, 4.0, 5.0, 2.0, 1.0, 2.0, 1.0, 1.0, 1.0, 1.0, 0.0, 0.0, 0.0, 0.0, 0.0, 0.0, 0.0, 0.0, 0.0, 0.0, 0.0, 0.0, 0.0, 0.0, 0.0, 1.0], "bins": [-0.0003682979731820524, -0.00035710129304789007, -0.00034590461291372776, -0.0003347079618833959, -0.0003235112817492336, -0.0003123146016150713, -0.000301117921480909, -0.0002899212413467467, -0.00027872459031641483, -0.0002675279101822525, -0.0002563312300480902, -0.0002451345499139279, -0.0002339378697797656, -0.00022274120419751853, -0.00021154452406335622, -0.00020034785848110914, -0.00018915117834694684, -0.00017795449821278453, -0.00016675783263053745, -0.00015556115249637514, -0.00014436448691412807, -0.00013316780677996576, -0.00012197112664580345, -0.00011077445378759876, -9.957778092939407e-05, -8.838110807118937e-05, -7.718443521298468e-05, -6.598775507882237e-05, -5.479108222061768e-05, -4.359440936241299e-05, -3.239773286622949e-05, -2.1201058189035393e-05, -1.000435440801084e-05, 1.1923202691832557e-06, 1.2388994946377352e-05, 2.3585669623571448e-05, 3.4782344300765544e-05, 4.597901715897024e-05, 5.7175693655153736e-05, 6.837237015133724e-05, 7.956904300954193e-05, 9.076571586774662e-05, 0.00010196238872595131, 0.00011315906886011362, 0.00012435574899427593, 0.000135552414576523, 0.0001467490947106853, 0.0001579457602929324, 0.0001691424404270947, 0.000180339120561257, 0.00019153578614350408, 0.0002027324662776664, 0.00021392913185991347, 0.00022512581199407578, 0.00023632249212823808, 0.0002475191722624004, 0.00025871582329273224, 0.00026991250342689455, 0.00028110918356105685, 0.00029230586369521916, 0.00030350254382938147, 0.00031469922396354377, 0.0003258958749938756, 0.00033709255512803793, 0.00034828923526220024]}, "gradients/layers.1.weight": {"_type": "histogram", "values": [2.0, 0.0, 0.0, 0.0, 1.0, 0.0, 0.0, 1.0, 0.0, 0.0, 0.0, 0.0, 0.0, 0.0, 2.0, 1.0, 0.0, 0.0, 0.0, 0.0, 2.0, 3.0, 6.0, 2.0, 5.0, 12.0, 11.0, 8.0, 15.0, 21.0, 44.0, 57.0, 84.0, 147.0, 282.0, 486.0, 1471.0, 13861.0, 46314.0, 1657.0, 504.0, 221.0, 125.0, 63.0, 35.0, 28.0, 24.0, 11.0, 4.0, 9.0, 3.0, 2.0, 2.0, 2.0, 1.0, 2.0, 1.0, 1.0, 1.0, 0.0, 1.0, 0.0, 0.0, 1.0], "bins": [-0.0005779386847279966, -0.0005627385107800364, -0.0005475382786244154, -0.0005323381046764553, -0.0005171379307284951, -0.0005019376985728741, -0.00048673752462491393, -0.00047153732157312334, -0.00045633711852133274, -0.0004411369445733726, -0.000425936741521582, -0.0004107365384697914, -0.0003955363645218313, -0.0003803361614700407, -0.0003651359584182501, -0.00034993578447028995, -0.00033473558141849935, -0.00031953537836670876, -0.0003043352044187486, -0.000289135001366958, -0.0002739347983151674, -0.0002587346243672073, -0.0002435344213154167, -0.0002283342182636261, -0.00021313402976375073, -0.00019793384126387537, -0.00018273363821208477, -0.0001675334497122094, -0.00015233326121233404, -0.00013713305816054344, -0.00012193286966066808, -0.0001067326738848351, -9.153247810900211e-05, -7.633228233316913e-05, -6.113208655733615e-05, -4.5931898057460785e-05, -3.0731702281627804e-05, -1.5531508324784227e-05, -3.313143679406494e-07, 1.4868879588902928e-05, 3.0069073545746505e-05, 4.5269269321579486e-05, 6.046946145943366e-05, 7.566965359728783e-05, 9.086984937312081e-05, 0.0001060700451489538, 0.00012127023364882916, 0.00013647043670061976, 0.00015167062520049512, 0.0001668708137003705, 0.00018207101675216109, 0.00019727120525203645, 0.00021247140830382705, 0.00022767159680370241, 0.00024287178530357778, 0.0002580719883553684, 0.0002732721623033285, 0.0002884723653551191, 0.0003036725684069097, 0.0003188727714587003, 0.00033407294540666044, 0.00034927314845845103, 0.00036447335151024163, 0.00037967352545820177, 0.00039487372850999236]}, "gradients/layers.0.bias": {"_type": "histogram", "values": [1.0, 0.0, 0.0, 0.0, 0.0, 0.0, 0.0, 0.0, 0.0, 0.0, 0.0, 3.0, 0.0, 0.0, 1.0, 2.0, 3.0, 0.0, 0.0, 1.0, 1.0, 4.0, 1.0, 3.0, 3.0, 1.0, 7.0, 4.0, 4.0, 5.0, 11.0, 12.0, 17.0, 15.0, 52.0, 15.0, 16.0, 16.0, 3.0, 4.0, 10.0, 5.0, 5.0, 5.0, 3.0, 7.0, 4.0, 2.0, 3.0, 0.0, 0.0, 2.0, 0.0, 0.0, 2.0, 1.0, 0.0, 0.0, 1.0, 0.0, 0.0, 0.0, 0.0, 1.0], "bins": [-0.0008739890763536096, -0.0008485350990667939, -0.0008230811799876392, -0.0007976272027008235, -0.0007721732254140079, -0.0007467193063348532, -0.0007212653290480375, -0.0006958113517612219, -0.0006703573744744062, -0.0006449034553952515, -0.0006194494781084359, -0.0005939955008216202, -0.0005685415817424655, -0.0005430876044556499, -0.0005176336271688342, -0.0004921797080896795, -0.00046672573080286384, -0.00044127178261987865, -0.000415817805333063, -0.0003903638571500778, -0.0003649098798632622, -0.000339455931680277, -0.0003140019834972918, -0.00028854800621047616, -0.000263094058027491, -0.00023764009529259056, -0.00021218613255769014, -0.00018673218437470496, -0.00016127822163980454, -0.00013582425890490413, -0.00011037030344596133, -8.491634798701853e-05, -5.946238525211811e-05, -3.40084261551965e-05, -8.554467058274895e-06, 1.6899492038646713e-05, 4.235345113556832e-05, 6.780741387046874e-05, 9.326136932941154e-05, 0.00011871532478835434, 0.00014416928752325475, 0.00016962325025815517, 0.00019507721299305558, 0.00022053116117604077, 0.00024598510935902596, 0.0002714390866458416, 0.0002968930348288268, 0.00032234701211564243, 0.0003478009602986276, 0.0003732549084816128, 0.00039870888576842844, 0.00042416283395141363, 0.0004496168112382293, 0.00047507075942121446, 0.0005005247076041996, 0.0005259786848910153, 0.00055143260397017, 0.0005768865812569857, 0.0006023405585438013, 0.000627794535830617, 0.0006532484549097717, 0.0006787024321965873, 0.000704156409483403, 0.0007296103285625577, 0.0007550643058493733]}, "gradients/layers.0.weight": {"_type": "histogram", "values": [2.0, 2.0, 0.0, 0.0, 0.0, 2.0, 0.0, 1.0, 0.0, 2.0, 8.0, 6.0, 11.0, 7.0, 13.0, 11.0, 20.0, 15.0, 17.0, 26.0, 39.0, 46.0, 50.0, 64.0, 83.0, 87.0, 106.0, 149.0, 165.0, 235.0, 320.0, 479.0, 702.0, 2266.0, 1065.0, 603.0, 427.0, 294.0, 212.0, 185.0, 143.0, 112.0, 109.0, 64.0, 69.0, 63.0, 33.0, 25.0, 14.0, 10.0, 20.0, 15.0, 9.0, 10.0, 5.0, 7.0, 4.0, 1.0, 3.0, 0.0, 2.0, 1.0, 2.0, 7.0], "bins": [-0.0008457507938146591, -0.0008207412320189178, -0.0007957316702231765, -0.0007707221084274352, -0.0007457125466316938, -0.0007207029848359525, -0.0006956934230402112, -0.0006706838612444699, -0.0006456742994487286, -0.0006206647958606482, -0.0005956552340649068, -0.0005706456722691655, -0.0005456361104734242, -0.0005206265486776829, -0.0004956169868819416, -0.00047060742508620024, -0.0004455978632904589, -0.0004205883014947176, -0.0003955787396989763, -0.00037056917790323496, -0.00034555961610749364, -0.0003205500834155828, -0.00029554052161984146, -0.00027053095982410014, -0.0002455213980283588, -0.0002205118362326175, -0.00019550227443687618, -0.0001704927271930501, -0.00014548316539730877, -0.00012047360360156745, -9.546404908178374e-05, -7.045449456200004e-05, -4.5444932766258717e-05, -2.0435374608496204e-05, 4.5741835492663085e-06, 2.958374170702882e-05, 5.4593299864791334e-05, 7.960286166053265e-05, 0.00010461241618031636, 0.00012962197070010006, 0.00015463153249584138, 0.0001796410942915827, 0.00020465065608732402, 0.00022966020333115011, 0.0002546697505749762, 0.0002796793123707175, 0.00030468887416645885, 0.00032969843596220016, 0.0003547079977579415, 0.0003797175595536828, 0.0004047271213494241, 0.00042973668314516544, 0.00045474624494090676, 0.0004797557776328176, 0.0005047653685323894, 0.0005297749303281307, 0.0005547844339162111, 0.0005797939957119524, 0.0006048035575076938, 0.0006298131193034351, 0.0006548226810991764, 0.0006798322428949177, 0.000704841804690659, 0.0007298513664864004, 0.0007548609282821417]}, "_wandb": {"runtime": 2420}}