{"total_loss": 0.0023253412998747083, "_timestamp": 1717969909.9092321, "rgb_loss": 0.0023253412998747083, "_runtime": 4182.870308160782, "_step": 40100, "Rendered Images": {"_type": "images/separated", "width": 256, "height": 256, "format": "png", "count": 5, "filenames": ["media/images/Rendered Images_40000_1b5e2544b16efc11237a.png", "media/images/Rendered Images_40000_49550c53736c1a49d7cc.png", "media/images/Rendered Images_40000_8bc4f7fb0b8392095cd6.png", "media/images/Rendered Images_40000_f03fd7d6b8a466f7119d.png", "media/images/Rendered Images_40000_db9fa61724b66687efcc.png"]}, "Ground-truth Images": {"_type": "images/separated", "width": 256, "height": 256, "format": "png", "count": 5, "filenames": ["media/images/Ground-truth Images_40008_e66caac5921126c9a542.png", "media/images/Ground-truth Images_40008_d46094b22d91d1bd7d47.png", "media/images/Ground-truth Images_40008_c1ae0e380e32a07032f8.png", "media/images/Ground-truth Images_40008_b60b263c939c62f4bc58.png", "media/images/Ground-truth Images_40008_ab3d98782f1147e7dca7.png"]}, "PSNR": 33.74301619362264, "Epoch": 5000, "gradients/graph_1rgb_fn.2.bias": {"_type": "histogram", "values": [1.0, 0.0, 0.0, 0.0, 0.0, 0.0, 1.0, 0.0, 0.0, 0.0, 0.0, 0.0, 0.0, 0.0, 0.0, 0.0, 0.0, 0.0, 0.0, 0.0, 0.0, 0.0, 0.0, 0.0, 0.0, 0.0, 0.0, 0.0, 0.0, 0.0, 0.0, 0.0, 0.0, 0.0, 0.0, 0.0, 0.0, 0.0, 0.0, 0.0, 0.0, 0.0, 0.0, 0.0, 0.0, 0.0, 0.0, 0.0, 0.0, 0.0, 0.0, 0.0, 0.0, 0.0, 0.0, 0.0, 0.0, 0.0, 0.0, 0.0, 0.0, 0.0, 0.0, 1.0], "bins": [-0.0002070397895295173, -0.00020390497229527682, -0.00020077015506103635, -0.0001976353523787111, -0.00019450053514447063, -0.00019136571791023016, -0.0001882309006759897, -0.00018509609799366444, -0.00018196128075942397, -0.0001788264635251835, -0.00017569164629094303, -0.00017255682905670255, -0.0001694220263743773, -0.00016628720914013684, -0.00016315239190589637, -0.0001600175746716559, -0.00015688277198933065, -0.00015374795475509018, -0.0001506131375208497, -0.00014747832028660923, -0.00014434350305236876, -0.00014120870037004352, -0.00013807388313580304, -0.00013493906590156257, -0.0001318042486673221, -0.00012866943143308163, -0.00012553462875075638, -0.0001223998115165159, -0.00011926499428227544, -0.00011613018432399258, -0.00011299536708975211, -0.00010986055713146925, -0.00010672573262127116, -0.0001035909226629883, -0.00010045610542874783, -9.732129547046497e-05, -9.41864782362245e-05, -9.105166100198403e-05, -8.791685104370117e-05, -8.47820338094607e-05, -8.164722385117784e-05, -7.851240661693737e-05, -7.537759665865451e-05, -7.224277942441404e-05, -6.910796219017357e-05, -6.597315223189071e-05, -6.283833499765024e-05, -5.970352503936738e-05, -5.6568707805126905e-05, -5.343389420886524e-05, -5.0299080612603575e-05, -4.716426701634191e-05, -4.4029453420080245e-05, -4.089463982381858e-05, -3.7759826227556914e-05, -3.462501263129525e-05, -3.1490199035033584e-05, -2.8355383619782515e-05, -2.5220568204531446e-05, -2.208575460826978e-05, -1.8950941012008116e-05, -1.581612741574645e-05, -1.2681312909990083e-05, -9.546498404233716e-06, -6.411684807972051e-06]}, "gradients/graph_1rgb_fn.2.weight": {"_type": "histogram", "values": [1.0, 0.0, 1.0, 0.0, 2.0, 0.0, 0.0, 0.0, 0.0, 0.0, 0.0, 0.0, 0.0, 0.0, 0.0, 0.0, 0.0, 0.0, 0.0, 3.0, 2.0, 8.0, 705.0, 31.0, 4.0, 0.0, 1.0, 0.0, 1.0, 3.0, 0.0, 3.0, 0.0, 0.0, 0.0, 0.0, 0.0, 0.0, 2.0, 0.0, 0.0, 0.0, 0.0, 0.0, 0.0, 0.0, 0.0, 0.0, 0.0, 0.0, 0.0, 0.0, 0.0, 0.0, 0.0, 0.0, 0.0, 0.0, 0.0, 0.0, 0.0, 0.0, 0.0, 1.0], "bins": [-0.0008935666410252452, -0.0008544297888875008, -0.0008152928785420954, -0.000776156026404351, -0.0007370191160589457, -0.0006978822639212012, -0.0006587453535757959, -0.0006196085014380515, -0.0005804715910926461, -0.0005413347389549017, -0.0005021978868171573, -0.00046306097647175193, -0.0004239241243340075, -0.0003847872430924326, -0.00034565036185085773, -0.00030651348060928285, -0.00026737659936770797, -0.00022823971812613308, -0.0001891028368845582, -0.00014996597019489855, -0.00011082908895332366, -7.169220771174878e-05, -3.255533374613151e-05, 6.581543857464567e-06, 4.571842146106064e-05, 8.485530270263553e-05, 0.0001239921839442104, 0.00016312905063387007, 0.00020226593187544495, 0.00024140281311701983, 0.0002805396798066795, 0.00031967656104825437, 0.00035881344228982925, 0.00039795032353140414, 0.000437087204772979, 0.0004762240860145539, 0.0005153609672561288, 0.0005544978193938732, 0.0005936347297392786, 0.000632771581877023, 0.0006719084922224283, 0.0007110453443601727, 0.0007501821964979172, 0.0007893191068433225, 0.0008284559589810669, 0.0008675928693264723, 0.0009067297214642167, 0.000945866631809622, 0.0009850035421550274, 0.0010241403942927718, 0.0010632772464305162, 0.0011024140985682607, 0.001141550950706005, 0.0011806879192590714, 0.0012198247713968158, 0.0012589616235345602, 0.0012980984756723046, 0.001337235327810049, 0.0013763722963631153, 0.0014155091485008597, 0.0014546460006386042, 0.0014937828527763486, 0.0015329198213294148, 0.0015720566734671593, 0.0016111935256049037]}, "gradients/graph_1rgb_fn.0.bias": {"_type": "histogram", "values": [1.0, 1.0, 0.0, 0.0, 0.0, 0.0, 0.0, 1.0, 0.0, 1.0, 2.0, 4.0, 6.0, 4.0, 3.0, 7.0, 14.0, 23.0, 122.0, 38.0, 12.0, 7.0, 2.0, 1.0, 2.0, 2.0, 0.0, 0.0, 2.0, 0.0, 0.0, 0.0, 0.0, 0.0, 0.0, 0.0, 0.0, 0.0, 0.0, 0.0, 0.0, 0.0, 0.0, 0.0, 0.0, 0.0, 0.0, 0.0, 0.0, 0.0, 0.0, 0.0, 0.0, 0.0, 0.0, 0.0, 0.0, 0.0, 0.0, 0.0, 0.0, 0.0, 0.0, 1.0], "bins": [-5.234554009803105e-06, -4.957082182954764e-06, -4.679609901359072e-06, -4.402138074510731e-06, -4.124665792915039e-06, -3.847193966066698e-06, -3.5697221392183565e-06, -3.29225008499634e-06, -3.0147780307743233e-06, -2.7373059765523067e-06, -2.45983392233029e-06, -2.182362095481949e-06, -1.9048900412599323e-06, -1.6274179870379157e-06, -1.3499460465027369e-06, -1.072474105967558e-06, -7.950020517455414e-07, -5.175300543669437e-07, -2.400580569883459e-07, 3.741394039025181e-08, 3.1488593776884954e-07, 5.923579351474473e-07, 8.69829932526045e-07, 1.1473018730612239e-06, 1.4247739272832405e-06, 1.702245981505257e-06, 1.9797180357272737e-06, 2.257189862575615e-06, 2.5346619167976314e-06, 2.812133971019648e-06, 3.089605797867989e-06, 3.3670778520900058e-06, 3.6445489968173206e-06, 3.922020823665662e-06, 4.199493105261354e-06, 4.476964932109695e-06, 4.754437213705387e-06, 5.031909040553728e-06, 5.309380867402069e-06, 5.586853148997761e-06, 5.8643249758461025e-06, 6.141796802694444e-06, 6.419269084290136e-06, 6.696740911138477e-06, 6.974212737986818e-06, 7.25168501958251e-06, 7.529156846430851e-06, 7.806628673279192e-06, 8.084100954874884e-06, 8.361573236470576e-06, 8.639044608571567e-06, 8.916516890167259e-06, 9.19398917176295e-06, 9.471460543863941e-06, 9.748932825459633e-06, 1.0026405107055325e-05, 1.0303876479156315e-05, 1.0581348760752007e-05, 1.08588210423477e-05, 1.1136293323943391e-05, 1.1413764696044382e-05, 1.1691236977640074e-05, 1.1968709259235766e-05, 1.2246180631336756e-05, 1.2523652912932448e-05]}, "gradients/graph_1rgb_fn.0.weight": {"_type": "histogram", "values": [1.0, 0.0, 0.0, 0.0, 0.0, 0.0, 1.0, 0.0, 0.0, 0.0, 0.0, 0.0, 0.0, 0.0, 0.0, 0.0, 0.0, 0.0, 1.0, 0.0, 0.0, 0.0, 0.0, 0.0, 2.0, 1.0, 1.0, 0.0, 3.0, 3.0, 4.0, 16.0, 213.0, 73678.0, 37.0, 10.0, 2.0, 1.0, 1.0, 0.0, 2.0, 0.0, 0.0, 0.0, 1.0, 1.0, 0.0, 0.0, 0.0, 0.0, 1.0, 0.0, 1.0, 1.0, 0.0, 0.0, 0.0, 1.0, 0.0, 0.0, 0.0, 0.0, 0.0, 1.0], "bins": [-0.0006922761676833034, -0.0006714834598824382, -0.000650690752081573, -0.0006298979860730469, -0.0006091052782721817, -0.0005883125704713166, -0.0005675198626704514, -0.0005467270966619253, -0.0005259343888610601, -0.000505141681060195, -0.0004843489732593298, -0.00046355623635463417, -0.000442763528553769, -0.00042197079164907336, -0.0004011780838482082, -0.00038038534694351256, -0.0003595926391426474, -0.0003387999313417822, -0.0003180071944370866, -0.0002972144866362214, -0.0002764217497315258, -0.0002556290419306606, -0.0002348363195778802, -0.0002140435972250998, -0.0001932508748723194, -0.000172458152519539, -0.0001516654301667586, -0.0001308727078139782, -0.00011007999273715541, -8.9287270384375e-05, -6.849455530755222e-05, -4.770183295477182e-05, -2.6909110601991415e-05, -6.116390068200417e-06, 1.4676330465590581e-05, 3.5469049180392176e-05, 5.626177153317258e-05, 7.705449388595298e-05, 9.784720896277577e-05, 0.00011863993131555617, 0.00013943265366833657, 0.00016022537602111697, 0.00018101809837389737, 0.00020181082072667778, 0.00022260352852754295, 0.00024339625088032335, 0.00026418897323310375, 0.0002849817101377994, 0.00030577441793866456, 0.00032656712573952973, 0.00034735986264422536, 0.00036815257044509053, 0.00038894530734978616, 0.00040973801515065134, 0.00043053075205534697, 0.00045132345985621214, 0.0004721161676570773, 0.0004929088754579425, 0.0005137016414664686, 0.0005344943492673337, 0.0005552870570681989, 0.0005760797648690641, 0.0005968725308775902, 0.0006176652386784554, 0.0006384579464793205]}, "gradients/graph_1density_fn.0.bias": {"_type": "histogram", "values": [1.0], "bins": [-5.404927287600003e-05, -5.404927287600003e-05]}, "gradients/graph_1density_fn.0.weight": {"_type": "histogram", "values": [1.0, 0.0, 0.0, 0.0, 0.0, 0.0, 0.0, 0.0, 0.0, 0.0, 1.0, 0.0, 0.0, 0.0, 0.0, 0.0, 0.0, 2.0, 1.0, 0.0, 0.0, 1.0, 1.0, 0.0, 1.0, 0.0, 0.0, 1.0, 5.0, 2.0, 1.0, 2.0, 8.0, 22.0, 37.0, 67.0, 50.0, 16.0, 8.0, 6.0, 3.0, 0.0, 3.0, 1.0, 2.0, 2.0, 1.0, 2.0, 1.0, 2.0, 0.0, 0.0, 1.0, 0.0, 1.0, 0.0, 0.0, 0.0, 0.0, 2.0, 0.0, 1.0, 0.0, 1.0], "bins": [-0.000319287006277591, -0.00031034444691613317, -0.0003014019166585058, -0.00029245935729704797, -0.00028351679793559015, -0.0002745742676779628, -0.00026563170831650496, -0.00025668914895504713, -0.00024774661869741976, -0.00023880405933596194, -0.00022986151452641934, -0.00022091896971687675, -0.00021197641035541892, -0.00020303386554587632, -0.00019409132073633373, -0.0001851487613748759, -0.0001762062165653333, -0.0001672636717557907, -0.00015832111239433289, -0.0001493785675847903, -0.0001404360227752477, -0.00013149346341378987, -0.00012255091860424727, -0.00011360837379470468, -0.00010466582170920447, -9.572326962370425e-05, -8.678072481416166e-05, -7.783817272866145e-05, -6.889562064316124e-05, -5.995307583361864e-05, -5.101052374811843e-05, -4.206797530059703e-05, -3.3125426853075624e-05, -2.418287840555422e-05, -1.5240328139043413e-05, -6.297778782027308e-06, 2.6447705749887973e-06, 1.1587319932004903e-05, 2.0529869289021008e-05, 2.9472419555531815e-05, 3.841496800305322e-05, 4.735751645057462e-05, 5.6300064898096025e-05, 6.524261698359624e-05, 7.418516906909645e-05, 8.312771387863904e-05, 9.207026596413925e-05, 0.00010101281077368185, 0.00010995536285918206, 0.00011889791494468227, 0.00012784046703018248, 0.00013678301183972508, 0.00014572555664926767, 0.0001546681160107255, 0.0001636106608202681, 0.0001725532056298107, 0.00018149576499126852, 0.0001904383098008111, 0.0001993808546103537, 0.0002083233994198963, 0.00021726595878135413, 0.00022620850359089673, 0.00023515104840043932, 0.00024409360776189715, 0.00025303615257143974]}, "gradients/graph_1feature_fn.2.bias": {"_type": "histogram", "values": [1.0, 0.0, 0.0, 0.0, 0.0, 0.0, 0.0, 1.0, 0.0, 0.0, 0.0, 1.0, 0.0, 1.0, 1.0, 1.0, 0.0, 2.0, 3.0, 5.0, 7.0, 29.0, 71.0, 84.0, 31.0, 10.0, 2.0, 3.0, 1.0, 0.0, 0.0, 0.0, 0.0, 0.0, 0.0, 0.0, 0.0, 0.0, 0.0, 0.0, 0.0, 0.0, 0.0, 0.0, 0.0, 0.0, 0.0, 0.0, 0.0, 0.0, 0.0, 0.0, 0.0, 0.0, 0.0, 0.0, 0.0, 0.0, 0.0, 0.0, 1.0, 0.0, 0.0, 1.0], "bins": [-3.9969228964764625e-05, -3.8237856642808765e-05, -3.6506484320852906e-05, -3.477510836091824e-05, -3.304373603896238e-05, -3.131236371700652e-05, -2.9580989576061256e-05, -2.7849615435115993e-05, -2.6118243113160133e-05, -2.4386870791204274e-05, -2.265549665025901e-05, -2.0924122509313747e-05, -1.9192750187357888e-05, -1.7461377865402028e-05, -1.5730003724456765e-05, -1.3998630493006203e-05, -1.2267257261555642e-05, -1.053588403010508e-05, -8.804510798654519e-06, -7.073137567203958e-06, -5.341764335753396e-06, -3.6103911043028347e-06, -1.8790178728522733e-06, -1.4764464140171185e-07, 1.5837285900488496e-06, 3.315101821499411e-06, 5.0464750529499725e-06, 6.777848284400534e-06, 8.509221515851095e-06, 1.0240594747301657e-05, 1.1971967978752218e-05, 1.370334121020278e-05, 1.543471444165334e-05, 1.71660867636092e-05, 1.8897460904554464e-05, 2.0628835045499727e-05, 2.2360207367455587e-05, 2.4091579689411446e-05, 2.582295383035671e-05, 2.7554327971301973e-05, 2.9285700293257833e-05, 3.101707261521369e-05, 3.274844493716955e-05, 3.447982089710422e-05, 3.621119321906008e-05, 3.794256554101594e-05, 3.9673941500950605e-05, 4.1405313822906464e-05, 4.3136686144862324e-05, 4.4868058466818184e-05, 4.659943078877404e-05, 4.833080674870871e-05, 5.006217907066457e-05, 5.179355139262043e-05, 5.3524927352555096e-05, 5.5256299674510956e-05, 5.6987671996466815e-05, 5.8719044318422675e-05, 6.0450416640378535e-05, 6.21817889623344e-05, 6.391316128429025e-05, 6.564454088220373e-05, 6.737591320415959e-05, 6.910728552611545e-05, 7.083865784807131e-05]}, "gradients/graph_1feature_fn.2.weight": {"_type": "histogram", "values": [1.0, 1.0, 0.0, 0.0, 1.0, 0.0, 0.0, 2.0, 1.0, 3.0, 3.0, 0.0, 3.0, 6.0, 11.0, 8.0, 7.0, 18.0, 14.0, 28.0, 22.0, 41.0, 132.0, 954.0, 63627.0, 453.0, 86.0, 31.0, 27.0, 12.0, 10.0, 1.0, 4.0, 3.0, 1.0, 0.0, 0.0, 1.0, 2.0, 2.0, 3.0, 1.0, 0.0, 0.0, 2.0, 1.0, 3.0, 1.0, 1.0, 1.0, 0.0, 1.0, 0.0, 0.0, 1.0, 0.0, 1.0, 0.0, 1.0, 0.0, 0.0, 2.0, 0.0, 1.0], "bins": [-0.0001248412299901247, -0.00011972552601946518, -0.00011460982932476327, -0.00010949412535410374, -0.00010437842865940183, -9.926272468874231e-05, -9.41470279940404e-05, -8.903132402338088e-05, -8.391562732867897e-05, -7.879992335801944e-05, -7.368421938735992e-05, -6.856852269265801e-05, -6.345281872199848e-05, -5.8337118389317766e-05, -5.322141805663705e-05, -4.810571772395633e-05, -4.2990017391275615e-05, -3.78743170585949e-05, -3.275861672591418e-05, -2.764291457424406e-05, -2.2527214241563343e-05, -1.7411513908882625e-05, -1.2295812666707207e-05, -7.1801118792791385e-06, -2.0644110918510705e-06, 3.0512896955769975e-06, 8.166990483005065e-06, 1.3282691725180484e-05, 1.83983920578612e-05, 2.351409239054192e-05, 2.862979454221204e-05, 3.3745494874892756e-05, 3.8861195207573473e-05, 4.397689554025419e-05, 4.909259587293491e-05, 5.4208296205615625e-05, 5.932399653829634e-05, 6.443970050895587e-05, 6.955539720365778e-05, 7.46711011743173e-05, 7.978679786901921e-05, 8.490250183967873e-05, 9.001820581033826e-05, 9.513390250504017e-05, 0.00010024960647569969, 0.0001053653031704016, 0.00011048100714106113, 0.00011559670383576304, 0.00012071240780642256, 0.00012582811177708209, 0.000130943808471784, 0.0001360595051664859, 0.00014117521641310304, 0.00014629091310780495, 0.00015140660980250686, 0.00015652230649720877, 0.0001616380177438259, 0.00016675371443852782, 0.00017186941113322973, 0.00017698512237984687, 0.00018210081907454878, 0.0001872165157692507, 0.0001923322124639526, 0.00019744792371056974, 0.00020256362040527165]}, "gradients/graph_1feature_fn.0.bias": {"_type": "histogram", "values": [1.0, 0.0, 0.0, 0.0, 0.0, 0.0, 0.0, 0.0, 0.0, 0.0, 0.0, 0.0, 0.0, 0.0, 0.0, 0.0, 0.0, 0.0, 0.0, 1.0, 1.0, 2.0, 0.0, 0.0, 0.0, 0.0, 0.0, 0.0, 0.0, 2.0, 0.0, 0.0, 0.0, 0.0, 0.0, 0.0, 0.0, 1.0, 1.0, 3.0, 0.0, 1.0, 2.0, 2.0, 2.0, 2.0, 2.0, 3.0, 4.0, 18.0, 48.0, 129.0, 13.0, 8.0, 3.0, 2.0, 1.0, 1.0, 1.0, 1.0, 0.0, 0.0, 0.0, 1.0], "bins": [-7.76078668422997e-05, -7.608798478031531e-05, -7.456810271833092e-05, -7.304822065634653e-05, -7.152833859436214e-05, -7.000845653237775e-05, -6.848857447039336e-05, -6.696869240840897e-05, -6.544881034642458e-05, -6.39289355603978e-05, -6.240905349841341e-05, -6.088916779845022e-05, -5.9369289374444634e-05, -5.7849407312460244e-05, -5.6329525250475854e-05, -5.4809643188491464e-05, -5.3289761126507074e-05, -5.1769879064522684e-05, -5.0249997002538294e-05, -4.8730114940553904e-05, -4.7210232878569514e-05, -4.569035445456393e-05, -4.417047239257954e-05, -4.265059033059515e-05, -4.113070826861076e-05, -3.961082620662637e-05, -3.809094414464198e-05, -3.657106208265759e-05, -3.505118365865201e-05, -3.353130159666762e-05, -3.201141953468323e-05, -3.0491537472698838e-05, -2.8971659048693255e-05, -2.7451776986708865e-05, -2.5931894924724475e-05, -2.4412014681729488e-05, -2.2892132619745098e-05, -2.1372250557760708e-05, -1.985237031476572e-05, -1.833248825278133e-05, -1.681260619079694e-05, -1.529272412881255e-05, -1.3772842976322863e-05, -1.2252961823833175e-05, -1.0733079761848785e-05, -9.213197699864395e-06, -7.693316547374707e-06, -6.173434940137668e-06, -4.6535533329006284e-06, -3.1336717256635893e-06, -1.6137901184265502e-06, -9.390851118951105e-08, 1.425973096047528e-06, 2.9458547032845672e-06, 4.465736310521606e-06, 5.9856179177586455e-06, 7.505499524995685e-06, 9.025381586980075e-06, 1.0545262739469763e-05, 1.2065143891959451e-05, 1.3585025953943841e-05, 1.5104908015928231e-05, 1.6624788258923218e-05, 1.8144670320907608e-05, 1.9664552382891998e-05]}, "gradients/graph_1feature_fn.0.weight": {"_type": "histogram", "values": [1.0, 0.0, 1.0, 1.0, 1.0, 1.0, 0.0, 1.0, 3.0, 1.0, 3.0, 2.0, 1.0, 2.0, 7.0, 4.0, 4.0, 3.0, 10.0, 3.0, 14.0, 25.0, 35.0, 25.0, 26.0, 49.0, 62.0, 112.0, 205.0, 496.0, 2459.0, 69042.0, 909.0, 225.0, 107.0, 49.0, 29.0, 15.0, 11.0, 9.0, 3.0, 3.0, 6.0, 3.0, 3.0, 0.0, 0.0, 3.0, 2.0, 1.0, 0.0, 0.0, 0.0, 3.0, 0.0, 0.0, 1.0, 1.0, 0.0, 0.0, 1.0, 0.0, 0.0, 1.0], "bins": [-0.0001374771964037791, -0.00013308774214237928, -0.0001286983024328947, -0.0001243088481714949, -0.0001199193939100951, -0.0001155299469246529, -0.00011114049993921071, -0.00010675104567781091, -0.00010236159869236872, -9.797215170692652e-05, -9.358269744552672e-05, -8.919325046008453e-05, -8.480380347464234e-05, -8.041434921324253e-05, -7.602490222780034e-05, -7.163544796640053e-05, -6.724600098095834e-05, -6.285655399551615e-05, -5.8467099734116346e-05, -5.4077652748674154e-05, -4.9688202125253156e-05, -4.529875150183216e-05, -4.0909304516389966e-05, -3.651985389296897e-05, -3.213040326954797e-05, -2.774095264612697e-05, -2.3351503841695376e-05, -1.896205503726378e-05, -1.4572604413842782e-05, -1.0183154699916486e-05, -5.793704985990189e-06, -1.4042552720638923e-06, 2.985179889947176e-06, 7.374629603873473e-06, 1.176407931779977e-05, 1.6153528122231364e-05, 2.0542978745652363e-05, 2.493242936907336e-05, 2.9321878173504956e-05, 3.371132697793655e-05, 3.810077760135755e-05, 4.249022822477855e-05, 4.6879678848199546e-05, 5.126912583364174e-05, 5.5658576457062736e-05, 6.0048027080483735e-05, 6.443747406592593e-05, 6.882692832732573e-05, 7.321637531276792e-05, 7.760582229821011e-05, 8.199527655960992e-05, 8.638472354505211e-05, 9.077417780645192e-05, 9.516362479189411e-05, 9.95530717773363e-05, 0.0001039425260387361, 0.0001083319730241783, 0.00011272142000962049, 0.0001171108742710203, 0.00012150032125646248, 0.00012588976824190468, 0.00013027922250330448, 0.0001346686767647043, 0.00013905811647418886, 0.00014344757073558867]}, "gradients/graph_1mlp.6.bias": {"_type": "histogram", "values": [1.0, 1.0, 0.0, 0.0, 0.0, 0.0, 0.0, 0.0, 0.0, 0.0, 0.0, 0.0, 0.0, 0.0, 0.0, 0.0, 0.0, 0.0, 0.0, 0.0, 0.0, 0.0, 1.0, 0.0, 1.0, 0.0, 0.0, 0.0, 0.0, 0.0, 1.0, 0.0, 0.0, 1.0, 3.0, 3.0, 1.0, 13.0, 29.0, 108.0, 54.0, 26.0, 3.0, 4.0, 1.0, 0.0, 2.0, 1.0, 0.0, 0.0, 0.0, 0.0, 0.0, 0.0, 0.0, 0.0, 0.0, 1.0, 0.0, 0.0, 0.0, 0.0, 0.0, 1.0], "bins": [-0.00010326338815502822, -0.00010067433322547004, -9.808527829591185e-05, -9.549622336635366e-05, -9.290716843679547e-05, -9.031811350723729e-05, -8.772906585363671e-05, -8.514001092407852e-05, -8.255095599452034e-05, -7.996190106496215e-05, -7.737284613540396e-05, -7.478379120584577e-05, -7.219473627628759e-05, -6.96056813467294e-05, -6.701662641717121e-05, -6.442757148761302e-05, -6.183852383401245e-05, -5.9249465266475454e-05, -5.6660410336917266e-05, -5.4071359045337886e-05, -5.14823041157797e-05, -4.889324918622151e-05, -4.630419425666332e-05, -4.3715139327105135e-05, -4.112608439754695e-05, -3.8537033105967566e-05, -3.594797817640938e-05, -3.335892324685119e-05, -3.0769868317293e-05, -2.818081520672422e-05, -2.559176027716603e-05, -2.3002707166597247e-05, -2.041365223703906e-05, -1.782459730748087e-05, -1.5235544196912088e-05, -1.26464892673539e-05, -1.0057435247290414e-05, -7.468381227226928e-06, -4.879326752416091e-06, -2.2902725049789296e-06, 2.9878174245823175e-07, 2.887835989895393e-06, 5.4768902373325545e-06, 8.065944712143391e-06, 1.0654998732206877e-05, 1.3244052752270363e-05, 1.583310768182855e-05, 1.8422160792397335e-05, 2.1011215721955523e-05, 2.360027065151371e-05, 2.6189323762082495e-05, 2.8778378691640683e-05, 3.136743180220947e-05, 3.3956486731767654e-05, 3.654554166132584e-05, 3.913459659088403e-05, 4.172365152044222e-05, 4.43127028120216e-05, 4.6901757741579786e-05, 4.9490812671137974e-05, 5.207986760069616e-05, 5.466892253025435e-05, 5.725797382183373e-05, 5.984702875139192e-05, 6.24360836809501e-05]}, "gradients/graph_1mlp.6.weight": {"_type": "histogram", "values": [1.0, 0.0, 1.0, 0.0, 0.0, 2.0, 0.0, 1.0, 1.0, 0.0, 3.0, 2.0, 4.0, 1.0, 0.0, 1.0, 3.0, 2.0, 6.0, 3.0, 2.0, 5.0, 6.0, 9.0, 7.0, 9.0, 5.0, 9.0, 27.0, 23.0, 35.0, 92.0, 179.0, 489.0, 2127.0, 59126.0, 2547.0, 435.0, 163.0, 77.0, 45.0, 18.0, 17.0, 15.0, 14.0, 5.0, 3.0, 4.0, 1.0, 1.0, 2.0, 2.0, 2.0, 1.0, 1.0, 0.0, 0.0, 0.0, 0.0, 0.0, 0.0, 0.0, 1.0, 1.0], "bins": [-0.0001572084438521415, -0.00015279048238880932, -0.00014837253547739238, -0.00014395458856597543, -0.00013953662710264325, -0.00013511866563931108, -0.00013070071872789413, -0.00012628277181647718, -0.000121864810353145, -0.00011744685616577044, -0.00011302890197839588, -0.00010861094779102132, -0.00010419299360364676, -9.977503941627219e-05, -9.535708522889763e-05, -9.093913104152307e-05, -8.652117685414851e-05, -8.210322266677395e-05, -7.768526847939938e-05, -7.326731429202482e-05, -6.884936010465026e-05, -6.44314059172757e-05, -6.0013451729901135e-05, -5.559549754252657e-05, -5.117754335515201e-05, -4.675958916777745e-05, -4.234163498040289e-05, -3.7923680793028325e-05, -3.350572660565376e-05, -2.90877724182792e-05, -2.466981823090464e-05, -2.0251864043530077e-05, -1.5833895304240286e-05, -1.1415941116865724e-05, -6.997986929491162e-06, -2.5800327421166003e-06, 1.8379214452579618e-06, 6.255875632632524e-06, 1.0673829820007086e-05, 1.5091784007381648e-05, 1.950973819475621e-05, 2.3927692382130772e-05, 2.8345646569505334e-05, 3.2763600756879896e-05, 3.718155494425446e-05, 4.159950913162902e-05, 4.601746331900358e-05, 5.0435417506378144e-05, 5.4853371693752706e-05, 5.927132588112727e-05, 6.368928006850183e-05, 6.810723425587639e-05, 7.252518844325095e-05, 7.694314263062552e-05, 8.136109681800008e-05, 8.577905100537464e-05, 9.01970051927492e-05, 9.461495938012376e-05, 9.903291356749833e-05, 0.00010345086775487289, 0.00010786882194224745, 0.00011228677612962201, 0.00011670473031699657, 0.00012112268450437114, 0.0001255406386917457]}, "gradients/graph_1mlp.4.bias": {"_type": "histogram", "values": [1.0, 0.0, 2.0, 0.0, 1.0, 0.0, 0.0, 2.0, 1.0, 3.0, 1.0, 1.0, 1.0, 4.0, 4.0, 0.0, 1.0, 4.0, 11.0, 9.0, 7.0, 23.0, 19.0, 52.0, 44.0, 11.0, 15.0, 6.0, 6.0, 4.0, 6.0, 3.0, 0.0, 3.0, 1.0, 0.0, 0.0, 1.0, 1.0, 0.0, 1.0, 0.0, 2.0, 0.0, 0.0, 0.0, 0.0, 2.0, 0.0, 1.0, 0.0, 0.0, 0.0, 1.0, 0.0, 0.0, 0.0, 0.0, 0.0, 0.0, 0.0, 0.0, 0.0, 1.0], "bins": [-9.353044151794165e-05, -8.958958642324433e-05, -8.5648731328547e-05, -8.170787623384967e-05, -7.776702113915235e-05, -7.382615876849741e-05, -6.988530367380008e-05, -6.594444857910275e-05, -6.200359348440543e-05, -5.80627383897081e-05, -5.4121883295010775e-05, -5.018102456233464e-05, -4.6240169467637315e-05, -4.229931437293999e-05, -3.8358455640263855e-05, -3.441760054556653e-05, -3.0476745450869203e-05, -2.6535890356171876e-05, -2.2595033442485146e-05, -1.8654176528798416e-05, -1.471332143410109e-05, -1.0772465429909062e-05, -6.8316094257170334e-06, -2.8907534215250053e-06, 1.050102582667023e-06, 4.990958586859051e-06, 8.93181459105108e-06, 1.2872670595243108e-05, 1.6813526599435136e-05, 2.0754381694132462e-05, 2.4695238607819192e-05, 2.8636095521505922e-05, 3.257695061620325e-05, 3.6517805710900575e-05, 4.04586608055979e-05, 4.4399519538274035e-05, 4.834037463297136e-05, 5.228122972766869e-05, 5.622208846034482e-05, 6.016294355504215e-05, 6.410379864973947e-05, 6.80446537444368e-05, 7.198550883913413e-05, 7.592636393383145e-05, 7.98672263044864e-05, 8.380808139918372e-05, 8.774893649388105e-05, 9.168979158857837e-05, 9.56306466832757e-05, 9.957150177797303e-05, 0.00010351235687267035, 0.00010745321196736768, 0.000111394067062065, 0.00011533492943271995, 0.00011927578452741727, 0.0001232166396221146, 0.0001271574874408543, 0.00013109834981150925, 0.0001350392121821642, 0.0001389800600009039, 0.00014292092237155885, 0.00014686177019029856, 0.0001508026325609535, 0.0001547434803796932, 0.00015868434275034815]}, "gradients/graph_1mlp.4.weight": {"_type": "histogram", "values": [2.0, 0.0, 0.0, 1.0, 0.0, 0.0, 1.0, 0.0, 0.0, 1.0, 1.0, 0.0, 1.0, 3.0, 4.0, 3.0, 10.0, 9.0, 10.0, 16.0, 20.0, 31.0, 42.0, 57.0, 62.0, 105.0, 160.0, 270.0, 559.0, 1404.0, 11769.0, 48029.0, 1709.0, 532.0, 231.0, 122.0, 66.0, 68.0, 44.0, 37.0, 29.0, 22.0, 20.0, 13.0, 12.0, 9.0, 9.0, 8.0, 3.0, 6.0, 7.0, 3.0, 2.0, 1.0, 1.0, 1.0, 3.0, 0.0, 0.0, 1.0, 3.0, 3.0, 0.0, 1.0], "bins": [-0.00015260427608154714, -0.0001476910401834175, -0.00014277780428528786, -0.00013786456838715822, -0.00013295131793711334, -0.0001280380820389837, -0.00012312484614085406, -0.00011821161024272442, -0.00011329837434459478, -0.00010838513117050752, -0.00010347189527237788, -9.855865937424824e-05, -9.364541620016098e-05, -8.873218030203134e-05, -8.38189444039017e-05, -7.890570122981444e-05, -7.39924653316848e-05, -6.907922943355516e-05, -6.41659862594679e-05, -5.925275036133826e-05, -5.4339514463208616e-05, -4.942627492710017e-05, -4.451303539099172e-05, -3.9599799492862076e-05, -3.4686559956753626e-05, -2.977332223963458e-05, -2.4860084522515535e-05, -1.9946844986407086e-05, -1.503360726928804e-05, -1.0120369552168995e-05, -5.207130925555248e-06, -2.9389275368885137e-07, 4.619345418177545e-06, 9.53258313529659e-06, 1.4445821761910338e-05, 1.9359060388524085e-05, 2.427229810564313e-05, 2.9185535822762176e-05, 3.4098775358870625e-05, 3.901201125700027e-05, 4.3925250793108717e-05, 4.8838490329217166e-05, 5.375172622734681e-05, 5.866496576345526e-05, 6.35782052995637e-05, 6.849144119769335e-05, 7.340467709582299e-05, 7.831792026991025e-05, 8.323115616803989e-05, 8.814439206616953e-05, 9.305763524025679e-05, 9.797087113838643e-05, 0.00010288410703651607, 0.00010779735021060333, 0.00011271058610873297, 0.00011762382200686261, 0.00012253706518094987, 0.0001274503010790795, 0.00013236353697720915, 0.0001372767728753388, 0.00014219000877346843, 0.0001471032592235133, 0.00015201649512164295, 0.0001569297310197726, 0.00016184296691790223]}, "gradients/graph_1mlp.2.bias": {"_type": "histogram", "values": [1.0, 0.0, 1.0, 0.0, 1.0, 0.0, 1.0, 0.0, 1.0, 1.0, 1.0, 2.0, 2.0, 4.0, 3.0, 4.0, 7.0, 18.0, 41.0, 108.0, 28.0, 10.0, 4.0, 4.0, 2.0, 1.0, 1.0, 1.0, 0.0, 1.0, 2.0, 1.0, 0.0, 1.0, 0.0, 1.0, 0.0, 0.0, 1.0, 0.0, 0.0, 0.0, 0.0, 1.0, 0.0, 0.0, 0.0, 0.0, 0.0, 0.0, 0.0, 0.0, 0.0, 0.0, 0.0, 0.0, 0.0, 0.0, 0.0, 0.0, 0.0, 0.0, 0.0, 1.0], "bins": [-0.00031914078863337636, -0.0003026895865332335, -0.0002862383844330907, -0.0002697872114367783, -0.00025333600933663547, -0.00023688480723649263, -0.00022043361968826503, -0.00020398243214003742, -0.00018753123003989458, -0.00017108002793975174, -0.00015462884039152414, -0.00013817765284329653, -0.00012172645074315369, -0.00010527525591896847, -8.882406109478325e-05, -7.237286627059802e-05, -5.59216714464128e-05, -3.947047662222758e-05, -2.3019281798042357e-05, -6.568086973857135e-06, 9.883107850328088e-06, 2.633430267451331e-05, 4.278549749869853e-05, 5.9236692322883755e-05, 7.568788714706898e-05, 9.21390819712542e-05, 0.00010859027679543942, 0.00012504146434366703, 0.00014149266644380987, 0.0001579438685439527, 0.0001743950560921803, 0.00019084624364040792, 0.00020729738753288984, 0.00022374858963303268, 0.0002401997771812603, 0.0002566509647294879, 0.00027310216682963073, 0.00028955336892977357, 0.00030600454192608595, 0.0003224557440262288, 0.0003389069461263716, 0.00035535814822651446, 0.0003718093503266573, 0.0003882605233229697, 0.0004047117254231125, 0.00042116292752325535, 0.00043761410051956773, 0.00045406530261971056, 0.0004705165047198534, 0.00048696770681999624, 0.0005034189089201391, 0.0005198700819164515, 0.0005363213131204247, 0.0005527724861167371, 0.0005692236591130495, 0.0005856748903170228, 0.0006021260633133352, 0.0006185772363096476, 0.0006350284675136209, 0.0006514796405099332, 0.0006679308135062456, 0.0006843820447102189, 0.0007008332177065313, 0.0007172844489105046, 0.000733735621906817]}, "gradients/graph_1mlp.2.weight": {"_type": "histogram", "values": [1.0, 0.0, 0.0, 0.0, 0.0, 1.0, 0.0, 0.0, 0.0, 0.0, 1.0, 0.0, 0.0, 0.0, 1.0, 3.0, 2.0, 1.0, 1.0, 0.0, 2.0, 3.0, 2.0, 3.0, 2.0, 1.0, 3.0, 7.0, 6.0, 10.0, 25.0, 40.0, 66.0, 131.0, 361.0, 2544.0, 61017.0, 692.0, 247.0, 125.0, 73.0, 41.0, 28.0, 19.0, 10.0, 20.0, 9.0, 8.0, 5.0, 3.0, 4.0, 2.0, 4.0, 0.0, 3.0, 2.0, 3.0, 0.0, 1.0, 0.0, 0.0, 1.0, 1.0, 1.0], "bins": [-0.0010941668879240751, -0.0010640467517077923, -0.0010339266154915094, -0.0010038064792752266, -0.0009736863430589437, -0.0009435662068426609, -0.0009134460706263781, -0.0008833259344100952, -0.0008532057981938124, -0.0008230856619775295, -0.0007929655257612467, -0.0007628453895449638, -0.000732725253328681, -0.0007026051171123981, -0.0006724849808961153, -0.0006423648446798325, -0.0006122447084635496, -0.0005821246304549277, -0.0005520044942386448, -0.000521884358022362, -0.0004917642218060791, -0.00046164405648596585, -0.000431523920269683, -0.00040140378405340016, -0.00037128367694094777, -0.0003411635407246649, -0.0003110434045083821, -0.00028092326829209924, -0.0002508031320758164, -0.00022068299585953355, -0.0001905628596432507, -0.00016044272342696786, -0.00013032258721068501, -0.00010020245099440217, -7.008231477811933e-05, -3.9962185837794095e-05, -9.84204962151125e-06, 2.027808477578219e-05, 5.039821917307563e-05, 8.051835175137967e-05, 0.00011063848796766251, 0.00014075862418394536, 0.0001708787604002282, 0.00020099889661651105, 0.00023111901828087866, 0.0002612391544971615, 0.00029135929071344435, 0.0003214794269297272, 0.00035159956314601004, 0.0003817196993622929, 0.00041183983557857573, 0.0004419599717948586, 0.0004720801080111414, 0.0005022002151235938, 0.0005323203513398767, 0.0005624404875561595, 0.0005925606237724423, 0.0006226807599887252, 0.000652800896205008, 0.0006829210324212909, 0.0007130411686375737, 0.0007431613048538566, 0.0007732814410701394, 0.0008034015772864223, 0.0008335217135027051]}, "gradients/graph_1mlp.0.bias": {"_type": "histogram", "values": [1.0, 0.0, 0.0, 0.0, 0.0, 0.0, 0.0, 0.0, 0.0, 1.0, 1.0, 1.0, 0.0, 0.0, 2.0, 2.0, 3.0, 2.0, 1.0, 6.0, 4.0, 3.0, 12.0, 17.0, 21.0, 92.0, 34.0, 24.0, 7.0, 5.0, 2.0, 3.0, 3.0, 1.0, 0.0, 0.0, 1.0, 0.0, 0.0, 1.0, 0.0, 0.0, 1.0, 0.0, 0.0, 0.0, 2.0, 0.0, 1.0, 1.0, 0.0, 0.0, 0.0, 0.0, 0.0, 0.0, 0.0, 0.0, 0.0, 0.0, 0.0, 0.0, 0.0, 1.0], "bins": [-0.0014709890820086002, -0.001413755351677537, -0.0013565217377617955, -0.0012992880074307323, -0.001242054277099669, -0.0011848206631839275, -0.0011275869328528643, -0.001070353202521801, -0.0010131194721907377, -0.0009558858582749963, -0.000898652127943933, -0.0008414184558205307, -0.0007841847836971283, -0.000726951053366065, -0.0006697173812426627, -0.0006124836509115994, -0.000555249978788197, -0.0004980163066647947, -0.0004407825763337314, -0.00038354890421032906, -0.00032631520298309624, -0.00026908150175586343, -0.00021184781508054584, -0.00015461412840522826, -9.738042717799544e-05, -4.0146733226720244e-05, 1.7086960724554956e-05, 7.432065467583016e-05, 0.00013155434862710536, 0.00018878804985433817, 0.0002460217219777405, 0.00030325542320497334, 0.00036048912443220615, 0.00041772282565943897, 0.0004749565268866718, 0.0005321901990100741, 0.0005894239293411374, 0.0006466576014645398, 0.0007038912735879421, 0.0007611250039190054, 0.0008183586760424078, 0.0008755923481658101, 0.0009328260784968734, 0.0009900598088279366, 0.001047293422743678, 0.0011045271530747414, 0.0011617608834058046, 0.001218994497321546, 0.0012762282276526093, 0.0013334619579836726, 0.001390695571899414, 0.0014479293022304773, 0.0015051630325615406, 0.001562396646477282, 0.0016196303768083453, 0.0016768641071394086, 0.00173409772105515, 0.0017913314513862133, 0.0018485651817172766, 0.0019057989120483398, 0.001963032642379403, 0.0020202661398798227, 0.002077499870210886, 0.0021347336005419493, 0.0021919673308730125]}, "gradients/graph_1mlp.0.weight": {"_type": "histogram", "values": [1.0, 1.0, 0.0, 0.0, 1.0, 0.0, 2.0, 0.0, 3.0, 5.0, 0.0, 3.0, 2.0, 4.0, 1.0, 1.0, 10.0, 11.0, 6.0, 18.0, 16.0, 22.0, 29.0, 48.0, 50.0, 61.0, 114.0, 135.0, 265.0, 617.0, 2549.0, 3173.0, 576.0, 207.0, 142.0, 96.0, 61.0, 34.0, 31.0, 17.0, 25.0, 11.0, 17.0, 5.0, 6.0, 9.0, 8.0, 6.0, 14.0, 6.0, 11.0, 3.0, 2.0, 2.0, 1.0, 0.0, 1.0, 1.0, 0.0, 1.0, 2.0, 0.0, 1.0, 4.0], "bins": [-0.0020345274824649096, -0.001968902535736561, -0.0019032773561775684, -0.0018376522930338979, -0.0017720272298902273, -0.0017064022831618786, -0.001640777220018208, -0.0015751521568745375, -0.001509527093730867, -0.0014439020305871964, -0.0013782769674435258, -0.0013126519042998552, -0.0012470269575715065, -0.001181401894427836, -0.0011157768312841654, -0.0010501517681404948, -0.0009845267049968243, -0.0009189016418531537, -0.0008532765787094831, -0.0007876515737734735, -0.0007220265106298029, -0.0006564014474861324, -0.0005907764425501227, -0.0005251513794064522, -0.0004595263162627816, -0.00039390125311911106, -0.00032827621907927096, -0.00026265118503943086, -0.0001970261218957603, -0.00013140107330400497, -6.577602471224964e-05, -1.509761204943061e-07, 6.547407247126102e-05, 0.00013109912106301636, 0.00019672416965477169, 0.0002623492036946118, 0.00032797426683828235, 0.0003935993299819529, 0.000459224364021793, 0.0005248493980616331, 0.0005904744612053037, 0.0006560995243489742, 0.0007217245874926448, 0.0007873495924286544, 0.000852974655572325, 0.0009185997187159956, 0.0009842247236520052, 0.0010498497867956758, 0.0011154748499393463, 0.0011810999130830169, 0.0012467249762266874, 0.001312350039370358, 0.0013779751025140285, 0.0014436000492423773, 0.0015092251123860478, 0.0015748501755297184, 0.001640475238673389, 0.0017061003018170595, 0.00177172536496073, 0.0018373504281044006, 0.0019029753748327494, 0.0019686005543917418, 0.0020342255011200905, 0.002099850680679083, 0.0021654756274074316]}, "gradients/rgb_fn.2.bias": {"_type": "histogram", "values": [1.0, 0.0, 0.0, 0.0, 0.0, 0.0, 0.0, 0.0, 0.0, 0.0, 0.0, 0.0, 0.0, 0.0, 0.0, 0.0, 0.0, 0.0, 0.0, 0.0, 0.0, 0.0, 0.0, 0.0, 0.0, 0.0, 0.0, 0.0, 0.0, 0.0, 0.0, 0.0, 0.0, 0.0, 0.0, 0.0, 0.0, 0.0, 0.0, 0.0, 0.0, 0.0, 0.0, 0.0, 0.0, 0.0, 0.0, 0.0, 0.0, 0.0, 0.0, 0.0, 0.0, 1.0, 0.0, 0.0, 0.0, 0.0, 0.0, 0.0, 0.0, 0.0, 0.0, 1.0], "bins": [-0.0002283954672748223, -0.00022677049855701625, -0.00022514554439112544, -0.0002235205756733194, -0.0002218956215074286, -0.00022027065278962255, -0.00021864569862373173, -0.0002170207299059257, -0.00021539576118811965, -0.00021377080702222884, -0.0002121458383044228, -0.00021052088413853198, -0.00020889591542072594, -0.00020727096125483513, -0.0002056459925370291, -0.00020402103837113827, -0.00020239606965333223, -0.0002007711009355262, -0.00019914614676963538, -0.00019752117805182934, -0.00019589622388593853, -0.00019427125516813248, -0.00019264630100224167, -0.00019102133228443563, -0.00018939637811854482, -0.00018777140940073878, -0.00018614644068293273, -0.00018452148651704192, -0.00018289651779923588, -0.00018127156363334507, -0.00017964659491553903, -0.0001780216407496482, -0.00017639667203184217, -0.00017477170331403613, -0.00017314674914814532, -0.00017152178043033928, -0.00016989682626444846, -0.00016827185754664242, -0.0001666469033807516, -0.00016502193466294557, -0.00016339696594513953, -0.00016177201177924871, -0.00016014704306144267, -0.00015852208889555186, -0.00015689712017774582, -0.000155272166011855, -0.00015364719729404896, -0.00015202224312815815, -0.0001503972744103521, -0.00014877230569254607, -0.00014714735152665526, -0.00014552238280884922, -0.0001438974286429584, -0.00014227245992515236, -0.00014064750575926155, -0.0001390225370414555, -0.0001373975828755647, -0.00013577261415775865, -0.0001341476454399526, -0.0001325226912740618, -0.00013089772255625576, -0.00012927276839036494, -0.0001276477996725589, -0.0001260228455066681, -0.00012439787678886205]}, "gradients/rgb_fn.2.weight": {"_type": "histogram", "values": [1.0, 0.0, 0.0, 0.0, 0.0, 0.0, 1.0, 1.0, 0.0, 0.0, 0.0, 0.0, 0.0, 0.0, 0.0, 0.0, 0.0, 0.0, 0.0, 0.0, 0.0, 0.0, 0.0, 0.0, 0.0, 0.0, 1.0, 0.0, 2.0, 0.0, 0.0, 2.0, 0.0, 0.0, 2.0, 1.0, 0.0, 1.0, 0.0, 1.0, 0.0, 1.0, 0.0, 1.0, 4.0, 4.0, 7.0, 18.0, 688.0, 26.0, 2.0, 1.0, 0.0, 1.0, 0.0, 0.0, 0.0, 0.0, 0.0, 0.0, 1.0, 0.0, 0.0, 1.0], "bins": [-0.002019510604441166, -0.0019782530143857002, -0.0019369956571608782, -0.0018957380671054125, -0.0018544805934652686, -0.0018132231198251247, -0.0017719656461849809, -0.001730708172544837, -0.0016894505824893713, -0.0016481931088492274, -0.0016069356352090836, -0.0015656781615689397, -0.0015244206879287958, -0.001483163214288652, -0.0014419056242331862, -0.0014006481505930424, -0.0013593906769528985, -0.0013181332033127546, -0.0012768757296726108, -0.001235618139617145, -0.0011943606659770012, -0.0011531031923368573, -0.0011118457186967134, -0.0010705882450565696, -0.0010293307714164257, -0.00098807318136096, -0.0009468157077208161, -0.0009055582340806723, -0.0008643007604405284, -0.0008230432285927236, -0.0007817857549525797, -0.000740528223104775, -0.0006992707494646311, -0.0006580132758244872, -0.0006167557439766824, -0.0005754982703365386, -0.0005342407384887338, -0.0004929832648485899, -0.000451725791208446, -0.0004104682884644717, -0.00036921078572049737, -0.00032795328297652304, -0.0002866957802325487, -0.00024543830659240484, -0.00020418080384843051, -0.00016292330110445619, -0.00012166581291239709, -8.040831744438037e-05, -3.915082197636366e-05, 2.106673491653055e-06, 4.336416895966977e-05, 8.462166442768648e-05, 0.0001258791598957032, 0.00016713666263967752, 0.00020839415083173662, 0.0002496516390237957, 0.00029090914176777005, 0.0003321666445117444, 0.0003734241472557187, 0.0004146816208958626, 0.0004559391236398369, 0.0004971966263838112, 0.0005384541000239551, 0.0005797116318717599, 0.0006209691055119038]}, "gradients/rgb_fn.0.bias": {"_type": "histogram", "values": [1.0, 0.0, 0.0, 0.0, 0.0, 1.0, 1.0, 0.0, 1.0, 2.0, 6.0, 5.0, 10.0, 11.0, 120.0, 63.0, 15.0, 9.0, 2.0, 2.0, 1.0, 2.0, 1.0, 0.0, 0.0, 1.0, 0.0, 0.0, 0.0, 0.0, 0.0, 0.0, 0.0, 0.0, 0.0, 0.0, 0.0, 0.0, 0.0, 0.0, 0.0, 0.0, 0.0, 0.0, 0.0, 0.0, 0.0, 0.0, 0.0, 0.0, 0.0, 0.0, 0.0, 0.0, 1.0, 0.0, 0.0, 0.0, 0.0, 0.0, 0.0, 0.0, 0.0, 1.0], "bins": [-1.0622838090057485e-05, -9.914212569128722e-06, -9.205587048199959e-06, -8.496961527271196e-06, -7.788336006342433e-06, -7.0797104854136705e-06, -6.371084964484908e-06, -5.662459443556145e-06, -4.953833922627382e-06, -4.245208401698619e-06, -3.5365828807698563e-06, -2.8279573598410934e-06, -2.1193318389123306e-06, -1.4107063179835677e-06, -7.020807970548049e-07, 6.544723873957992e-09, 7.151702448027208e-07, 1.4237957657314837e-06, 2.1324212866602466e-06, 2.8410468075890094e-06, 3.5496723285177723e-06, 4.258297849446535e-06, 4.966923370375298e-06, 5.675548891304061e-06, 6.384174412232824e-06, 7.0927999331615865e-06, 7.80142545409035e-06, 8.510050975019112e-06, 9.218676495947875e-06, 9.927302016876638e-06, 1.06359275378054e-05, 1.1344553058734164e-05, 1.2053176760673523e-05, 1.2761802281602286e-05, 1.3470427802531049e-05, 1.4179053323459812e-05, 1.4887678844388574e-05, 1.5596304365317337e-05, 1.63049298862461e-05, 1.7013555407174863e-05, 1.7722180928103626e-05, 1.843080644903239e-05, 1.913943196996115e-05, 1.9848057490889914e-05, 2.0556683011818677e-05, 2.126530853274744e-05, 2.1973934053676203e-05, 2.2682559574604966e-05, 2.339118509553373e-05, 2.409981061646249e-05, 2.4808436137391254e-05, 2.5517061658320017e-05, 2.622568717924878e-05, 2.6934312700177543e-05, 2.7642938221106306e-05, 2.835156374203507e-05, 2.906018926296383e-05, 2.9768814783892594e-05, 3.0477440304821357e-05, 3.1186064006760716e-05, 3.189469134667888e-05, 3.260331868659705e-05, 3.331194238853641e-05, 3.402056609047577e-05, 3.4729193430393934e-05]}, "gradients/rgb_fn.0.weight": {"_type": "histogram", "values": [1.0, 0.0, 0.0, 0.0, 0.0, 1.0, 0.0, 1.0, 0.0, 0.0, 1.0, 1.0, 1.0, 1.0, 1.0, 2.0, 2.0, 1.0, 2.0, 0.0, 2.0, 1.0, 0.0, 8.0, 12.0, 15.0, 19.0, 93.0, 9904.0, 63739.0, 103.0, 34.0, 10.0, 6.0, 5.0, 3.0, 3.0, 2.0, 1.0, 3.0, 1.0, 0.0, 1.0, 0.0, 1.0, 0.0, 0.0, 1.0, 0.0, 0.0, 0.0, 0.0, 0.0, 0.0, 0.0, 0.0, 0.0, 1.0, 0.0, 0.0, 0.0, 0.0, 0.0, 1.0], "bins": [-0.00040909950621426105, -0.00039499724516645074, -0.0003808949841186404, -0.00036679269396699965, -0.00035269043291918933, -0.000338588171871379, -0.00032448588171973825, -0.00031038362067192793, -0.0002962813596241176, -0.0002821790985763073, -0.000268076837528497, -0.0002539745473768562, -0.0002398722863290459, -0.00022577002528123558, -0.00021166774968151003, -0.0001975654740817845, -0.00018346321303397417, -0.00016936095198616385, -0.0001552586763864383, -0.00014115640078671277, -0.00012705413973890245, -0.00011295187141513452, -9.884960309136659e-05, -8.474733476759866e-05, -7.064506644383073e-05, -5.65427981200628e-05, -4.244052979629487e-05, -2.8338261472526938e-05, -1.4235993148759007e-05, -1.3372482499107718e-07, 1.3968543498776853e-05, 2.8070811822544783e-05, 4.2173080146312714e-05, 5.6275348470080644e-05, 7.037761679384857e-05, 8.44798851176165e-05, 9.858215344138443e-05, 0.00011268442176515236, 0.0001267866900889203, 0.00014088896568864584, 0.00015499122673645616, 0.00016909348778426647, 0.00018319576338399202, 0.00019729803898371756, 0.00021140030003152788, 0.0002255025610793382, 0.00023960483667906374, 0.0002537071122787893, 0.0002678093733265996, 0.0002819116343744099, 0.00029601389542222023, 0.000310116185573861, 0.0003242184466216713, 0.00033832070766948164, 0.0003524229978211224, 0.0003665252588689327, 0.00038062751991674304, 0.00039472978096455336, 0.00040883204201236367, 0.00042293433216400445, 0.00043703659321181476, 0.0004511388542596251, 0.00046524114441126585, 0.00047934340545907617, 0.0004934456665068865]}, "gradients/density_fn.0.bias": {"_type": "histogram", "values": [1.0], "bins": [-7.158498192438856e-05, -7.158498192438856e-05]}, "gradients/density_fn.0.weight": {"_type": "histogram", "values": [1.0, 0.0, 0.0, 0.0, 0.0, 1.0, 2.0, 0.0, 0.0, 1.0, 0.0, 2.0, 0.0, 0.0, 0.0, 0.0, 0.0, 1.0, 0.0, 1.0, 2.0, 0.0, 2.0, 4.0, 4.0, 14.0, 17.0, 50.0, 49.0, 48.0, 19.0, 14.0, 5.0, 5.0, 1.0, 2.0, 1.0, 1.0, 0.0, 0.0, 0.0, 0.0, 1.0, 1.0, 1.0, 2.0, 0.0, 1.0, 0.0, 2.0, 0.0, 0.0, 0.0, 0.0, 0.0, 0.0, 0.0, 0.0, 0.0, 0.0, 0.0, 0.0, 0.0, 1.0], "bins": [-0.00014283740893006325, -0.00013782446330878884, -0.0001328115031355992, -0.00012779855751432478, -0.00012278559734113514, -0.00011777265171986073, -0.00011275970609858632, -0.0001077467532013543, -0.00010273380030412227, -9.772084740689024e-05, -9.270789450965822e-05, -8.76949488883838e-05, -8.268199599115178e-05, -7.766904309391975e-05, -7.265609747264534e-05, -6.764314457541332e-05, -6.263019167818129e-05, -5.7617238780949265e-05, -5.2604289521696046e-05, -4.759134026244283e-05, -4.25783873652108e-05, -3.7565434467978776e-05, -3.255248520872556e-05, -2.7539534130482934e-05, -2.2526583052240312e-05, -1.751363197399769e-05, -1.2500680895755067e-05, -7.487729817512445e-06, -2.474778739269823e-06, 2.5381723389727995e-06, 7.551123417215422e-06, 1.2564074495458044e-05, 1.7577025573700666e-05, 2.258997665194329e-05, 2.760292773018591e-05, 3.261587698943913e-05, 3.7628829886671156e-05, 4.264178278390318e-05, 4.76547320431564e-05, 5.266768130240962e-05, 5.7680634199641645e-05, 6.269358709687367e-05, 6.77065399941057e-05, 7.271948561538011e-05, 7.773243851261213e-05, 8.274539140984416e-05, 8.775833703111857e-05, 9.27712899283506e-05, 9.778424282558262e-05, 0.00010279719572281465, 0.00010781014862004668, 0.00011282309424132109, 0.00011783604713855311, 0.00012284900003578514, 0.00012786194565705955, 0.0001328749058302492, 0.0001378878514515236, 0.00014290079707279801, 0.00014791375724598765, 0.00015292670286726207, 0.00015793964848853648, 0.00016295260866172612, 0.00016796555428300053, 0.00017297851445619017, 0.00017799146007746458]}, "gradients/feature_fn.2.bias": {"_type": "histogram", "values": [1.0, 0.0, 0.0, 0.0, 0.0, 0.0, 0.0, 0.0, 0.0, 0.0, 0.0, 0.0, 0.0, 1.0, 0.0, 0.0, 1.0, 0.0, 0.0, 0.0, 0.0, 1.0, 0.0, 1.0, 1.0, 0.0, 1.0, 2.0, 5.0, 11.0, 42.0, 101.0, 66.0, 8.0, 5.0, 2.0, 0.0, 0.0, 0.0, 0.0, 0.0, 0.0, 1.0, 2.0, 0.0, 0.0, 0.0, 1.0, 0.0, 0.0, 1.0, 1.0, 0.0, 0.0, 0.0, 0.0, 0.0, 0.0, 0.0, 0.0, 0.0, 0.0, 0.0, 1.0], "bins": [-0.00010826563811860979, -0.00010485168604645878, -0.00010143772669835016, -9.802376735024154e-05, -9.460981527809054e-05, -9.119586320593953e-05, -8.778190385783091e-05, -8.436794450972229e-05, -8.095399243757129e-05, -7.754004036542028e-05, -7.412608101731166e-05, -7.071212166920304e-05, -6.729816959705204e-05, -6.388421752490103e-05, -6.047025817679241e-05, -5.70563024666626e-05, -5.364234675653279e-05, -5.0228391046402976e-05, -4.6814435336273164e-05, -4.340047962614335e-05, -3.998652391601354e-05, -3.6572568205883726e-05, -3.3158612495753914e-05, -2.9744656785624102e-05, -2.633070107549429e-05, -2.2916745365364477e-05, -1.9502789655234665e-05, -1.6088833945104852e-05, -1.267487823497504e-05, -9.260922524845228e-06, -5.846966814715415e-06, -2.433011104585603e-06, 9.809446055442095e-07, 4.394900315674022e-06, 7.808856025803834e-06, 1.1222811735933647e-05, 1.4636767446063459e-05, 1.805072315619327e-05, 2.1464678866323084e-05, 2.4878634576452896e-05, 2.829259028658271e-05, 3.170654599671252e-05, 3.512050170684233e-05, 3.8534457416972145e-05, 4.194841312710196e-05, 4.536236883723177e-05, 4.877632454736158e-05, 5.2190280257491395e-05, 5.560423596762121e-05, 5.901819167775102e-05, 6.243214738788083e-05, 6.584610673598945e-05, 6.926005880814046e-05, 7.267401088029146e-05, 7.608797022840008e-05, 7.95019295765087e-05, 8.29158816486597e-05, 8.632983372081071e-05, 8.974379306891933e-05, 9.315775241702795e-05, 9.657170448917896e-05, 9.998565656132996e-05, 0.00010339961590943858, 0.0001068135752575472, 0.0001102275273296982]}, "gradients/feature_fn.2.weight": {"_type": "histogram", "values": [1.0, 0.0, 0.0, 0.0, 0.0, 0.0, 0.0, 0.0, 0.0, 0.0, 1.0, 0.0, 0.0, 0.0, 3.0, 1.0, 2.0, 0.0, 0.0, 1.0, 2.0, 2.0, 0.0, 4.0, 5.0, 9.0, 9.0, 12.0, 40.0, 91.0, 438.0, 63481.0, 1153.0, 154.0, 47.0, 14.0, 12.0, 10.0, 7.0, 8.0, 4.0, 5.0, 5.0, 0.0, 3.0, 1.0, 1.0, 0.0, 3.0, 2.0, 0.0, 2.0, 0.0, 1.0, 0.0, 0.0, 0.0, 0.0, 1.0, 0.0, 0.0, 0.0, 0.0, 1.0], "bins": [-0.00025783656747080386, -0.00024969351943582296, -0.00024155047140084207, -0.00023340742336586118, -0.00022526437533088028, -0.00021712131274398416, -0.00020897826470900327, -0.00020083521667402238, -0.00019269216863904148, -0.0001845491206040606, -0.0001764060725690797, -0.0001682630245340988, -0.00016011996194720268, -0.0001519769139122218, -0.0001438338658772409, -0.00013569081784226, -0.0001275477698072791, -0.00011940472177229822, -0.00011126167373731732, -0.00010311861842637882, -9.497557039139792e-05, -8.683252235641703e-05, -7.868946704547852e-05, -7.054641901049763e-05, -6.240337097551674e-05, -5.426032294053584e-05, -4.611727126757614e-05, -3.797421959461644e-05, -2.983117155963555e-05, -2.1688121705665253e-05, -1.3545071851694956e-05, -5.40202199772466e-06, 2.74099875241518e-06, 1.0884048606385477e-05, 1.9027098460355774e-05, 2.717014831432607e-05, 3.531319816829637e-05, 4.345624620327726e-05, 5.159929787623696e-05, 5.974234954919666e-05, 6.788539758417755e-05, 7.602844561915845e-05, 8.417149365413934e-05, 9.231454896507785e-05, 0.00010045759700005874, 0.00010860064503503963, 0.00011674370034597814, 0.00012488674838095903, 0.00013302979641593993, 0.00014117284445092082, 0.0001493158924859017, 0.0001574589405208826, 0.0001656019885558635, 0.00017374505114275962, 0.00018188809917774051, 0.0001900311472127214, 0.0001981741952477023, 0.0002063172432826832, 0.0002144602913176641, 0.00022260333935264498, 0.0002307464019395411, 0.000238889449974522, 0.0002470324980095029, 0.0002551755460444838, 0.0002633185940794647]}, "gradients/feature_fn.0.bias": {"_type": "histogram", "values": [1.0, 0.0, 0.0, 0.0, 0.0, 0.0, 0.0, 0.0, 0.0, 0.0, 0.0, 0.0, 0.0, 1.0, 0.0, 0.0, 0.0, 0.0, 0.0, 0.0, 0.0, 0.0, 1.0, 0.0, 0.0, 0.0, 0.0, 0.0, 0.0, 1.0, 0.0, 0.0, 1.0, 0.0, 2.0, 1.0, 1.0, 0.0, 0.0, 1.0, 0.0, 3.0, 3.0, 6.0, 5.0, 7.0, 4.0, 13.0, 14.0, 37.0, 104.0, 17.0, 14.0, 7.0, 3.0, 4.0, 0.0, 0.0, 0.0, 3.0, 1.0, 0.0, 0.0, 1.0], "bins": [-7.274950621649623e-05, -7.130041194614023e-05, -6.985131767578423e-05, -6.840222340542823e-05, -6.695312913507223e-05, -6.550403486471623e-05, -6.405493331840262e-05, -6.260583904804662e-05, -6.115674477769062e-05, -5.970765050733462e-05, -5.825855623697862e-05, -5.680946196662262e-05, -5.536036769626662e-05, -5.391127342591062e-05, -5.2462175517575815e-05, -5.1013081247219816e-05, -4.9563986976863816e-05, -4.811489270650782e-05, -4.666579843615182e-05, -4.521670052781701e-05, -4.376760625746101e-05, -4.231851198710501e-05, -4.086941771674901e-05, -3.942032344639301e-05, -3.7971229176037014e-05, -3.652213126770221e-05, -3.507303699734621e-05, -3.362394272699021e-05, -3.217484845663421e-05, -3.072575418627821e-05, -2.9276658096932806e-05, -2.7827562007587403e-05, -2.6378464099252596e-05, -2.4929369828896597e-05, -2.3480273739551194e-05, -2.2031179469195195e-05, -2.058208337984979e-05, -1.9132989109493792e-05, -1.7683894839137793e-05, -1.623479874979239e-05, -1.478570447943639e-05, -1.3336609299585689e-05, -1.1887514119734988e-05, -1.0438419849378988e-05, -8.989324669528287e-06, -7.540229489677586e-06, -6.091134764574235e-06, -4.642040039470885e-06, -3.1929448596201837e-06, -1.743849907143158e-06, -2.947549546661321e-07, 1.1543399978108937e-06, 2.6034349502879195e-06, 4.052530130138621e-06, 5.501624855241971e-06, 6.9507195803453214e-06, 8.399814760196023e-06, 9.848909940046724e-06, 1.1298005119897425e-05, 1.2747099390253425e-05, 1.4196194570104126e-05, 1.5645289749954827e-05, 1.7094384020310827e-05, 1.854348010965623e-05, 1.999257438001223e-05]}, "gradients/feature_fn.0.weight": {"_type": "histogram", "values": [1.0, 2.0, 0.0, 0.0, 0.0, 1.0, 2.0, 0.0, 1.0, 1.0, 0.0, 1.0, 0.0, 2.0, 0.0, 0.0, 0.0, 2.0, 4.0, 0.0, 5.0, 8.0, 5.0, 1.0, 9.0, 11.0, 11.0, 10.0, 25.0, 33.0, 43.0, 78.0, 103.0, 152.0, 359.0, 933.0, 5542.0, 65035.0, 998.0, 285.0, 135.0, 59.0, 36.0, 27.0, 17.0, 7.0, 8.0, 7.0, 3.0, 4.0, 3.0, 1.0, 2.0, 4.0, 2.0, 1.0, 2.0, 0.0, 1.0, 0.0, 0.0, 0.0, 0.0, 2.0], "bins": [-0.00015981994511093944, -0.00015551771502941847, -0.0001512154849478975, -0.0001469132403144613, -0.00014261101023294032, -0.00013830878015141934, -0.00013400655006989837, -0.0001297043199883774, -0.00012540208990685642, -0.00012109985254937783, -0.00011679761519189924, -0.00011249538511037827, -0.00010819315502885729, -0.0001038909176713787, -9.958868758985773e-05, -9.528645023237914e-05, -9.098422015085816e-05, -8.668199006933719e-05, -8.23797527118586e-05, -7.807752263033763e-05, -7.377528527285904e-05, -6.947305519133806e-05, -6.517082510981709e-05, -6.0868591390317306e-05, -5.6566357670817524e-05, -5.226412395131774e-05, -4.796189023181796e-05, -4.3659660150296986e-05, -3.9357426430797204e-05, -3.505519271129742e-05, -3.075296262977645e-05, -2.6450728910276666e-05, -2.2148480638861656e-05, -1.7846246919361874e-05, -1.3544015018851496e-05, -9.241782208846416e-06, -4.939549398841336e-06, -6.373165888362564e-07, 3.6649162211688235e-06, 7.967149031173903e-06, 1.2269381841178983e-05, 1.6571615560678765e-05, 2.0873847461189143e-05, 2.517607936169952e-05, 2.9478313081199303e-05, 3.3780546800699085e-05, 3.808277688222006e-05, 4.238501060171984e-05, 4.668724432121962e-05, 5.0989478040719405e-05, 5.5291711760219187e-05, 5.959394184174016e-05, 6.389617919921875e-05, 6.819840928073972e-05, 7.25006393622607e-05, 7.680287671973929e-05, 8.110510680126026e-05, 8.540733688278124e-05, 8.970957424025983e-05, 9.40118043217808e-05, 9.831403440330178e-05, 0.00010261627176078036, 0.00010691850184230134, 0.00011122073919977993, 0.0001155229692813009]}, "gradients/mlp.6.bias": {"_type": "histogram", "values": [1.0, 0.0, 0.0, 0.0, 0.0, 0.0, 0.0, 0.0, 0.0, 0.0, 0.0, 0.0, 0.0, 0.0, 0.0, 0.0, 0.0, 1.0, 0.0, 0.0, 1.0, 0.0, 1.0, 0.0, 0.0, 0.0, 2.0, 4.0, 3.0, 15.0, 16.0, 38.0, 87.0, 37.0, 16.0, 11.0, 2.0, 4.0, 3.0, 1.0, 5.0, 2.0, 0.0, 0.0, 1.0, 0.0, 0.0, 1.0, 0.0, 0.0, 2.0, 0.0, 0.0, 0.0, 0.0, 1.0, 0.0, 0.0, 0.0, 0.0, 0.0, 0.0, 0.0, 1.0], "bins": [-7.797007856424898e-05, -7.557649223599583e-05, -7.318289863178506e-05, -7.078931230353191e-05, -6.839571869932115e-05, -6.6002132371068e-05, -6.360853876685724e-05, -6.121495243860409e-05, -5.882135883439332e-05, -5.642777250614017e-05, -5.4034182539908215e-05, -5.164059257367626e-05, -4.92470026074443e-05, -4.6853412641212344e-05, -4.445982267498039e-05, -4.206623270874843e-05, -3.967264274251647e-05, -3.7279052776284516e-05, -3.488546281005256e-05, -3.24918728438206e-05, -3.0098282877588645e-05, -2.770469473034609e-05, -2.5311104764114134e-05, -2.2917514797882177e-05, -2.052392483165022e-05, -1.8130334865418263e-05, -1.5736744899186306e-05, -1.334315584244905e-05, -1.0949565876217093e-05, -8.555975909985136e-06, -6.16238639850053e-06, -3.7687966596422484e-06, -1.3752069207839668e-06, 1.0183828180743149e-06, 3.4119725569325965e-06, 5.805562068417203e-06, 8.19915203464916e-06, 1.0592742000881117e-05, 1.2986331057618372e-05, 1.537992102385033e-05, 1.7773510990082286e-05, 2.0167100956314243e-05, 2.25606909225462e-05, 2.4954280888778158e-05, 2.734786903602071e-05, 2.9741459002252668e-05, 3.2135048968484625e-05, 3.452863893471658e-05, 3.692222890094854e-05, 3.9315818867180496e-05, 4.1709408833412454e-05, 4.410299879964441e-05, 4.649658876587637e-05, 4.8890178732108325e-05, 5.128376869834028e-05, 5.367735866457224e-05, 5.607094499282539e-05, 5.8464534959057346e-05, 6.08581249252893e-05, 6.325171852950007e-05, 6.564530485775322e-05, 6.803889846196398e-05, 7.043248479021713e-05, 7.28260783944279e-05, 7.521966472268105e-05]}, "gradients/mlp.6.weight": {"_type": "histogram", "values": [1.0, 0.0, 0.0, 0.0, 0.0, 0.0, 0.0, 1.0, 0.0, 0.0, 0.0, 0.0, 2.0, 2.0, 1.0, 2.0, 2.0, 0.0, 4.0, 3.0, 5.0, 10.0, 8.0, 11.0, 12.0, 17.0, 15.0, 34.0, 51.0, 80.0, 110.0, 204.0, 373.0, 848.0, 3263.0, 55887.0, 2732.0, 878.0, 361.0, 214.0, 121.0, 75.0, 48.0, 39.0, 33.0, 22.0, 10.0, 8.0, 9.0, 8.0, 5.0, 6.0, 6.0, 1.0, 3.0, 4.0, 0.0, 3.0, 2.0, 0.0, 0.0, 0.0, 0.0, 2.0], "bins": [-0.00011452738544903696, -0.00011129594349768013, -0.0001080645015463233, -0.00010483306687092409, -0.00010160162491956726, -9.837018296821043e-05, -9.51387410168536e-05, -9.190730634145439e-05, -8.867586439009756e-05, -8.544442243874073e-05, -8.22129804873839e-05, -7.898153853602707e-05, -7.575010386062786e-05, -7.251866190927103e-05, -6.92872199579142e-05, -6.605577800655738e-05, -6.282434333115816e-05, -5.9592897741822526e-05, -5.6361459428444505e-05, -5.3130017477087677e-05, -4.9898579163709655e-05, -4.666713721235283e-05, -4.3435698898974806e-05, -4.020425694761798e-05, -3.697281499626115e-05, -3.374137668288313e-05, -3.0509936550515704e-05, -2.727849641814828e-05, -2.404705446679145e-05, -2.0815614334424026e-05, -1.75841742020566e-05, -1.4352734069689177e-05, -1.1121293937321752e-05, -7.889853804954328e-06, -4.658413217839552e-06, -1.426972858098452e-06, 1.8044675016426481e-06, 5.035907634010073e-06, 8.2673486758722e-06, 1.1498788808239624e-05, 1.4730228940607049e-05, 1.7961669072974473e-05, 2.1193109205341898e-05, 2.4424549337709323e-05, 2.765599128906615e-05, 3.088742960244417e-05, 3.4118871553801e-05, 3.735030986717902e-05, 4.058175181853585e-05, 4.381319376989268e-05, 4.70446320832707e-05, 5.027607403462753e-05, 5.350751234800555e-05, 5.6738954299362376e-05, 5.99703926127404e-05, 6.320183456409723e-05, 6.643327651545405e-05, 6.966471846681088e-05, 7.28961531422101e-05, 7.612759509356692e-05, 7.935903704492375e-05, 8.259047899628058e-05, 8.58219136716798e-05, 8.905335562303662e-05, 9.228479757439345e-05]}, "gradients/mlp.4.bias": {"_type": "histogram", "values": [1.0, 0.0, 1.0, 0.0, 0.0, 0.0, 0.0, 0.0, 0.0, 0.0, 0.0, 0.0, 1.0, 0.0, 1.0, 0.0, 1.0, 1.0, 2.0, 1.0, 2.0, 2.0, 3.0, 2.0, 1.0, 1.0, 3.0, 5.0, 4.0, 9.0, 12.0, 14.0, 22.0, 30.0, 42.0, 19.0, 24.0, 8.0, 11.0, 4.0, 3.0, 5.0, 2.0, 3.0, 2.0, 6.0, 0.0, 0.0, 1.0, 2.0, 0.0, 2.0, 0.0, 0.0, 0.0, 2.0, 0.0, 0.0, 0.0, 0.0, 0.0, 0.0, 0.0, 1.0], "bins": [-0.00011930210894206539, -0.00011581920989556238, -0.00011233631084905937, -0.00010885341907851398, -0.00010537052003201097, -0.00010188762098550797, -9.840472193900496e-05, -9.492182289250195e-05, -9.143892384599894e-05, -8.795603207545355e-05, -8.447313302895054e-05, -8.099023398244753e-05, -7.750733493594453e-05, -7.402443588944152e-05, -7.054154411889613e-05, -6.705864507239312e-05, -6.357574602589011e-05, -6.0092846979387105e-05, -5.6609951570862904e-05, -5.31270525243599e-05, -4.9644157115835696e-05, -4.616125806933269e-05, -4.267835902282968e-05, -3.919546361430548e-05, -3.5712564567802474e-05, -3.2229665521299466e-05, -2.8746770112775266e-05, -2.526387106627226e-05, -2.1780973838758655e-05, -1.829807661124505e-05, -1.4815178474236745e-05, -1.133228033722844e-05, -7.849375833757222e-06, -4.366478151496267e-06, -8.835804692353122e-07, 2.5993172130256426e-06, 6.082214895286597e-06, 9.565112122800201e-06, 1.3048010259808507e-05, 1.6530908396816812e-05, 2.0013805624330416e-05, 2.349670285184402e-05, 2.6979600079357624e-05, 3.046249912586063e-05, 3.394539817236364e-05, 3.742829358088784e-05, 4.0911192627390847e-05, 4.439408803591505e-05, 4.7876987082418054e-05, 5.135988612892106e-05, 5.484278153744526e-05, 5.832568058394827e-05, 6.180857599247247e-05, 6.529147503897548e-05, 6.877437408547848e-05, 7.225727313198149e-05, 7.57401721784845e-05, 7.922306394902989e-05, 8.27059629955329e-05, 8.618886204203591e-05, 8.967176108853891e-05, 9.315466013504192e-05, 9.663755190558732e-05, 0.00010012045095209032, 0.00010360334999859333]}, "gradients/mlp.4.weight": {"_type": "histogram", "values": [1.0, 0.0, 0.0, 0.0, 0.0, 1.0, 0.0, 0.0, 0.0, 0.0, 1.0, 1.0, 1.0, 2.0, 2.0, 2.0, 2.0, 4.0, 5.0, 6.0, 3.0, 9.0, 8.0, 9.0, 10.0, 16.0, 21.0, 41.0, 38.0, 50.0, 94.0, 120.0, 231.0, 426.0, 1095.0, 5392.0, 54456.0, 2171.0, 572.0, 262.0, 169.0, 86.0, 56.0, 38.0, 26.0, 15.0, 20.0, 14.0, 12.0, 11.0, 6.0, 10.0, 3.0, 6.0, 2.0, 2.0, 2.0, 4.0, 0.0, 0.0, 0.0, 1.0, 0.0, 1.0], "bins": [-0.00021212059073150158, -0.00020627013873308897, -0.00020041968673467636, -0.00019456923473626375, -0.00018871878273785114, -0.00018286833073943853, -0.00017701787874102592, -0.00017116742674261332, -0.0001653169747442007, -0.0001594665227457881, -0.0001536160707473755, -0.00014776561874896288, -0.00014191516675055027, -0.00013606471475213766, -0.00013021426275372505, -0.00012436381075531244, -0.00011851335875689983, -0.00011266290675848722, -0.00010681245476007462, -0.000100962002761662, -9.51115507632494e-05, -8.926109876483679e-05, -8.341064676642418e-05, -7.756019476801157e-05, -7.170974276959896e-05, -6.585929077118635e-05, -6.000883877277374e-05, -5.4158386774361134e-05, -4.8307934775948524e-05, -4.2457482777535915e-05, -3.6607030779123306e-05, -3.07565787807107e-05, -2.490611223038286e-05, -1.905566023197025e-05, -1.3205208233557642e-05, -7.354756235145032e-06, -1.5043042367324233e-06, 4.346147761680186e-06, 1.0196599760092795e-05, 1.6047051758505404e-05, 2.1897503756918013e-05, 2.7747955755330622e-05, 3.359840775374323e-05, 3.944885975215584e-05, 4.529931175056845e-05, 5.114976374898106e-05, 5.700021574739367e-05, 6.285066774580628e-05, 6.870111974421889e-05, 7.45515717426315e-05, 8.04020237410441e-05, 8.625247573945671e-05, 9.210292773786932e-05, 9.795337973628193e-05, 0.00010380383173469454, 0.00010965428373310715, 0.00011550473573151976, 0.00012135518772993237, 0.00012720563972834498, 0.00013305609172675759, 0.0001389065437251702, 0.0001447569957235828, 0.0001506074477219954, 0.00015645789972040802, 0.00016230835171882063]}, "gradients/mlp.2.bias": {"_type": "histogram", "values": [1.0, 0.0, 0.0, 0.0, 0.0, 0.0, 0.0, 0.0, 0.0, 0.0, 1.0, 0.0, 2.0, 1.0, 0.0, 0.0, 0.0, 2.0, 0.0, 0.0, 0.0, 1.0, 1.0, 2.0, 1.0, 3.0, 1.0, 4.0, 5.0, 7.0, 15.0, 24.0, 83.0, 34.0, 11.0, 7.0, 7.0, 4.0, 9.0, 6.0, 4.0, 2.0, 4.0, 3.0, 2.0, 0.0, 0.0, 1.0, 0.0, 1.0, 2.0, 0.0, 1.0, 1.0, 0.0, 0.0, 0.0, 0.0, 0.0, 0.0, 0.0, 0.0, 0.0, 3.0], "bins": [-0.000412546971347183, -0.0003999483596999198, -0.00038734974805265665, -0.000374751107301563, -0.00036215249565429986, -0.0003495538840070367, -0.00033695524325594306, -0.0003243566316086799, -0.0003117580199614167, -0.00029915940831415355, -0.0002865607966668904, -0.00027396215591579676, -0.0002613635442685336, -0.0002487649326212704, -0.00023616630642209202, -0.00022356768022291362, -0.00021096906857565045, -0.00019837045692838728, -0.0001857718307292089, -0.0001731732045300305, -0.00016057459288276732, -0.00014797598123550415, -0.00013537735503632575, -0.00012277872883714736, -0.00011018011718988419, -9.75814982666634e-05, -8.498287934344262e-05, -7.238426042022184e-05, -5.978564149700105e-05, -4.718702257378027e-05, -3.4588403650559485e-05, -2.19897847273387e-05, -9.391165804117918e-06, 3.2074531191028655e-06, 1.580607204232365e-05, 2.8404690965544432e-05, 4.1003309888765216e-05, 5.3601928811986e-05, 6.620054773520678e-05, 7.879916665842757e-05, 9.139778558164835e-05, 0.00010399640450486913, 0.00011659502342808992, 0.00012919364962726831, 0.00014179226127453148, 0.00015439087292179465, 0.00016698949912097305, 0.00017958812532015145, 0.00019218673696741462, 0.0002047853486146778, 0.00021738397481385618, 0.00022998260101303458, 0.00024258121266029775, 0.0002551798243075609, 0.00026777846505865455, 0.0002803770767059177, 0.0002929756883531809, 0.00030557430000044405, 0.0003181729116477072, 0.00033077155239880085, 0.000343370164046064, 0.0003559687756933272, 0.0003685674164444208, 0.000381166028091684, 0.00039376463973894715]}, "gradients/mlp.2.weight": {"_type": "histogram", "values": [1.0, 0.0, 1.0, 0.0, 2.0, 0.0, 1.0, 1.0, 0.0, 4.0, 3.0, 5.0, 10.0, 4.0, 11.0, 13.0, 12.0, 12.0, 23.0, 41.0, 53.0, 83.0, 133.0, 201.0, 554.0, 3401.0, 58159.0, 1475.0, 551.0, 248.0, 166.0, 103.0, 73.0, 43.0, 33.0, 30.0, 22.0, 12.0, 9.0, 6.0, 6.0, 5.0, 3.0, 5.0, 2.0, 5.0, 1.0, 3.0, 2.0, 1.0, 0.0, 0.0, 0.0, 1.0, 0.0, 0.0, 1.0, 0.0, 1.0, 0.0, 0.0, 0.0, 0.0, 1.0], "bins": [-0.0004929096321575344, -0.0004741675511468202, -0.000455425470136106, -0.0004366833600215614, -0.0004179412790108472, -0.00039919919800013304, -0.0003804570878855884, -0.00036171500687487423, -0.00034297292586416006, -0.0003242308448534459, -0.0003054887638427317, -0.0002867466537281871, -0.0002680045727174729, -0.00024926249170675874, -0.00023052039614412934, -0.00021177830058149993, -0.00019303621957078576, -0.0001742941385600716, -0.00015555204299744219, -0.00013680994743481278, -0.00011806786642409861, -9.932577813742682e-05, -8.058368985075504e-05, -6.184160156408325e-05, -4.309951327741146e-05, -2.4357424990739673e-05, -5.615336704067886e-06, 1.3126751582603902e-05, 3.186883986927569e-05, 5.061092815594748e-05, 6.935301644261926e-05, 8.809510472929105e-05, 0.00010683713480830193, 0.0001255792158190161, 0.0001443213113816455, 0.0001630634069442749, 0.00018180548795498908, 0.00020054756896570325, 0.00021928966452833265, 0.00023803176009096205, 0.0002567738411016762, 0.0002755159221123904, 0.00029425800312310457, 0.0003130001132376492, 0.0003317421942483634, 0.00035048427525907755, 0.0003692263853736222, 0.00038796846638433635, 0.0004067105473950505, 0.0004254526284057647, 0.00044419470941647887, 0.0004629368195310235, 0.0004816789005417377, 0.0005004209815524518, 0.0005191630916669965, 0.0005379051435738802, 0.0005566472536884248, 0.0005753893638029695, 0.0005941314157098532, 0.0006128735258243978, 0.0006316156359389424, 0.0006503576878458261, 0.0006690997979603708, 0.0006878418498672545, 0.0007065839599817991]}, "gradients/mlp.0.bias": {"_type": "histogram", "values": [1.0, 0.0, 3.0, 2.0, 0.0, 2.0, 0.0, 0.0, 1.0, 1.0, 0.0, 0.0, 1.0, 1.0, 1.0, 6.0, 2.0, 1.0, 8.0, 14.0, 14.0, 34.0, 80.0, 18.0, 18.0, 10.0, 5.0, 4.0, 2.0, 6.0, 6.0, 4.0, 2.0, 0.0, 0.0, 1.0, 1.0, 0.0, 0.0, 1.0, 0.0, 0.0, 0.0, 3.0, 0.0, 0.0, 0.0, 1.0, 0.0, 0.0, 0.0, 0.0, 0.0, 0.0, 1.0, 0.0, 0.0, 0.0, 0.0, 0.0, 0.0, 0.0, 0.0, 1.0], "bins": [-0.0010412532137706876, -0.0009943771874532104, -0.0009475011611357331, -0.0009006251348182559, -0.0008537491085007787, -0.0008068731403909624, -0.0007599971140734851, -0.0007131210877560079, -0.0006662450614385307, -0.0006193690351210535, -0.0005724930088035762, -0.000525616982486099, -0.00047874098527245224, -0.000431864958954975, -0.00038498896174132824, -0.000338112935423851, -0.0002912369091063738, -0.00024436088278889656, -0.00019748487102333456, -0.00015060885925777256, -0.00010373283294029534, -5.6856813898775727e-05, -9.980794857256114e-06, 3.68952241842635e-05, 8.377124322578311e-05, 0.00013064726954326034, 0.00017752328130882233, 0.00022439929307438433, 0.00027127531939186156, 0.0003181513457093388, 0.00036502734292298555, 0.0004119033692404628, 0.0004587792791426182, 0.0005056553054600954, 0.0005525313317775726, 0.0005994073580950499, 0.0006462833844125271, 0.0006931593525223434, 0.0007400353788398206, 0.0007869114051572978, 0.0008337874314747751, 0.0008806634577922523, 0.0009275394841097295, 0.0009744155104272068, 0.001021291478537023, 0.0010681675048545003, 0.0011150435311719775, 0.0011619195574894547, 0.001208795583806932, 0.0012556716101244092, 0.0013025476364418864, 0.0013494236627593637, 0.0013962996890768409, 0.001443175715394318, 0.0014900517417117953, 0.0015369277680292726, 0.001583803677931428, 0.0016306797042489052, 0.0016775557305663824, 0.0017244317568838596, 0.0017713077832013369, 0.001818183809518814, 0.0018650598358362913, 0.0019119358621537685, 0.0019588118884712458]}, "gradients/mlp.0.weight": {"_type": "histogram", "values": [1.0, 0.0, 1.0, 0.0, 0.0, 1.0, 0.0, 1.0, 1.0, 0.0, 2.0, 1.0, 3.0, 10.0, 8.0, 13.0, 26.0, 19.0, 11.0, 24.0, 14.0, 20.0, 20.0, 39.0, 28.0, 84.0, 105.0, 199.0, 374.0, 722.0, 3876.0, 1346.0, 607.0, 268.0, 156.0, 109.0, 97.0, 67.0, 31.0, 23.0, 12.0, 20.0, 7.0, 15.0, 12.0, 9.0, 12.0, 14.0, 5.0, 9.0, 4.0, 3.0, 2.0, 3.0, 1.0, 2.0, 4.0, 1.0, 0.0, 1.0, 0.0, 1.0, 1.0, 3.0], "bins": [-0.0017913677729666233, -0.0017331975977867842, -0.001675027422606945, -0.0016168573638424277, -0.0015586871886625886, -0.0015005170134827495, -0.0014423469547182322, -0.001384176779538393, -0.0013260066043585539, -0.0012678364291787148, -0.0012096662539988756, -0.0011514961952343583, -0.0010933260200545192, -0.00103515584487468, -0.0009769857861101627, -0.0009188156109303236, -0.0008606454357504845, -0.0008024752605706453, -0.0007443051435984671, -0.0006861350266262889, -0.0006279648514464498, -0.0005697946762666106, -0.0005116245592944324, -0.0004534544132184237, -0.00039528426714241505, -0.00033711412106640637, -0.0002789439749903977, -0.00022077382891438901, -0.00016260368283838034, -0.00010443353676237166, -4.626339068636298e-05, 1.1906755389645696e-05, 7.007690146565437e-05, 0.00012824704754166305, 0.00018641719361767173, 0.0002445873396936804, 0.0003027574857696891, 0.00036092763184569776, 0.00041909777792170644, 0.0004772679239977151, 0.0005354380700737238, 0.0005936082452535629, 0.0006517783622257411, 0.0007099484791979194, 0.0007681186543777585, 0.0008262888295575976, 0.0008844589465297759, 0.0009426290635019541, 0.0010007992386817932, 0.0010589694138616323, 0.0011171395890414715, 0.0011753096478059888, 0.001233479822985828, 0.001291649998165667, 0.0013498200569301844, 0.0014079902321100235, 0.0014661604072898626, 0.0015243305824697018, 0.001582500757649541, 0.0016406708164140582, 0.0016988409915938973, 0.0017570111667737365, 0.0018151812255382538, 0.001873351400718093, 0.001931521575897932]}, "_wandb": {"runtime": 4188}}