{"total_loss": 0.0020383479562588037, "_timestamp": 1718077268.7232928, "rgb_loss": 0.0020383479562588037, "_runtime": 11322.902820825577, "_step": 96100, "Rendered Images": {"_type": "images/separated", "width": 256, "height": 256, "format": "png", "count": 5, "filenames": ["media/images/Rendered Images_96000_478d21616ba821de51d0.png", "media/images/Rendered Images_96000_104804d6b40181cf7ca9.png", "media/images/Rendered Images_96000_fdc81ee08b5220ee620c.png", "media/images/Rendered Images_96000_d26763df543015d04fe8.png", "media/images/Rendered Images_96000_0a7e252fcaa1778875f2.png"]}, "Ground-truth Images": {"_type": "images/separated", "width": 256, "height": 256, "format": "png", "count": 5, "filenames": ["media/images/Ground-truth Images_96008_e66caac5921126c9a542.png", "media/images/Ground-truth Images_96008_d46094b22d91d1bd7d47.png", "media/images/Ground-truth Images_96008_c1ae0e380e32a07032f8.png", "media/images/Ground-truth Images_96008_b60b263c939c62f4bc58.png", "media/images/Ground-truth Images_96008_ab3d98782f1147e7dca7.png"]}, "PSNR": 33.30588025909135, "Epoch": 12000, "gradients/graph_1rgb_fn.2.bias": {"_type": "histogram", "values": [1.0, 0.0, 0.0, 0.0, 0.0, 0.0, 0.0, 0.0, 0.0, 0.0, 0.0, 0.0, 0.0, 0.0, 0.0, 0.0, 0.0, 0.0, 0.0, 0.0, 0.0, 0.0, 0.0, 0.0, 0.0, 0.0, 0.0, 0.0, 0.0, 1.0, 0.0, 0.0, 0.0, 0.0, 0.0, 0.0, 0.0, 0.0, 0.0, 0.0, 0.0, 0.0, 0.0, 0.0, 0.0, 0.0, 0.0, 0.0, 0.0, 0.0, 0.0, 0.0, 0.0, 0.0, 0.0, 0.0, 0.0, 0.0, 0.0, 0.0, 0.0, 0.0, 0.0, 1.0], "bins": [-0.00014702731277793646, -0.00014610966900363564, -0.00014519203978125006, -0.00014427439600694925, -0.00014335676678456366, -0.00014243912301026285, -0.00014152149378787726, -0.00014060385001357645, -0.00013968620623927563, -0.00013876857701689005, -0.00013785093324258924, -0.00013693330402020365, -0.00013601566024590284, -0.00013509801647160202, -0.00013418038724921644, -0.00013326274347491562, -0.00013234511425253004, -0.00013142747047822922, -0.00013050984125584364, -0.00012959219748154283, -0.000128674553707242, -0.00012775692448485643, -0.0001268392807105556, -0.00012592165148817003, -0.00012500400771386921, -0.00012408637849148363, -0.00012316873471718282, -0.000122251090942882, -0.00012133346172049642, -0.0001204158179461956, -0.0001194981814478524, -0.0001185805449495092, -0.000117662908451166, -0.0001167452719528228, -0.0001158276354544796, -0.0001149099989561364, -0.00011399235518183559, -0.00011307471868349239, -0.00011215708218514919, -0.000111239445686806, -0.0001103218091884628, -0.0001094041726901196, -0.00010848652891581878, -0.00010756889241747558, -0.00010665125591913238, -0.00010573361942078918, -0.00010481598292244598, -0.00010389834642410278, -0.00010298070264980197, -0.00010206306615145877, -0.00010114542965311557, -0.00010022779315477237, -9.931015665642917e-05, -9.839252015808597e-05, -9.747488365974277e-05, -9.655723988544196e-05, -9.563960338709876e-05, -9.472196688875556e-05, -9.380433039041236e-05, -9.288669389206916e-05, -9.196905739372596e-05, -9.105141361942515e-05, -9.013377712108195e-05, -8.921614062273875e-05, -8.829850412439555e-05]}, "gradients/graph_1rgb_fn.2.weight": {"_type": "histogram", "values": [1.0, 1.0, 1.0, 1.0, 0.0, 0.0, 0.0, 1.0, 0.0, 1.0, 0.0, 0.0, 2.0, 0.0, 0.0, 1.0, 0.0, 0.0, 0.0, 0.0, 2.0, 1.0, 1.0, 1.0, 2.0, 1.0, 2.0, 1.0, 1.0, 1.0, 2.0, 1.0, 1.0, 2.0, 3.0, 2.0, 1.0, 2.0, 5.0, 2.0, 14.0, 210.0, 53.0, 27.0, 16.0, 6.0, 4.0, 3.0, 3.0, 2.0, 0.0, 1.0, 0.0, 1.0, 0.0, 0.0, 0.0, 0.0, 0.0, 0.0, 0.0, 0.0, 0.0, 1.0], "bins": [-0.0005876142531633377, -0.0005735876620747149, -0.000559561129193753, -0.0005455345381051302, -0.0005315079470165074, -0.0005174814141355455, -0.0005034548230469227, -0.0004894282319582999, -0.000475401699077338, -0.00046137510798871517, -0.0004473485460039228, -0.00043332198401913047, -0.00041929539293050766, -0.0004052688309457153, -0.00039124226896092296, -0.00037721567787230015, -0.0003631891158875078, -0.00034916255390271544, -0.00033513596281409264, -0.0003211094008293003, -0.00030708283884450793, -0.0002930562477558851, -0.00027902968577109277, -0.0002650031237863004, -0.0002509765326976776, -0.00023694997071288526, -0.0002229234087280929, -0.00020889683219138533, -0.00019487025565467775, -0.0001808436936698854, -0.00016681711713317782, -0.00015279055514838547, -0.00013876394950784743, -0.00012473737297113985, -0.0001107108109863475, -9.668423444963992e-05, -8.265766518888995e-05, -6.863109592813998e-05, -5.460452302941121e-05, -4.057795013068244e-05, -2.6551380869932473e-05, -1.2524809790193103e-05, 1.5017612895462662e-06, 1.5528332369285636e-05, 2.9554903449025005e-05, 4.358147270977497e-05, 5.7608045608503744e-05, 7.163461850723252e-05, 8.566118776798248e-05, 9.968775702873245e-05, 0.00011371432628948241, 0.00012774090282619, 0.00014176746481098235, 0.00015579404134768993, 0.0001698206178843975, 0.00018384717986918986, 0.00019787375640589744, 0.00021190033294260502, 0.00022592689492739737, 0.00023995347146410495, 0.00025398004800081253, 0.0002680066099856049, 0.00028203317197039723, 0.00029605976305902004, 0.0003100863250438124]}, "gradients/graph_1rgb_fn.0.bias": {"_type": "histogram", "values": [1.0, 0.0, 0.0, 0.0, 0.0, 0.0, 0.0, 0.0, 0.0, 1.0, 0.0, 0.0, 0.0, 0.0, 0.0, 0.0, 0.0, 0.0, 0.0, 0.0, 0.0, 2.0, 0.0, 1.0, 2.0, 2.0, 7.0, 6.0, 3.0, 4.0, 1.0, 7.0, 19.0, 34.0, 11.0, 7.0, 3.0, 2.0, 2.0, 5.0, 1.0, 0.0, 1.0, 1.0, 0.0, 1.0, 0.0, 0.0, 0.0, 0.0, 0.0, 1.0, 0.0, 0.0, 0.0, 2.0, 0.0, 0.0, 0.0, 0.0, 0.0, 0.0, 0.0, 1.0], "bins": [-5.3012649004813284e-05, -5.141476140124723e-05, -4.9816870159702376e-05, -4.821897891815752e-05, -4.662109131459147e-05, -4.502320371102542e-05, -4.342531246948056e-05, -4.18274212279357e-05, -4.022953362436965e-05, -3.86316460208036e-05, -3.703375477925874e-05, -3.5435863537713885e-05, -3.3837975934147835e-05, -3.2240088330581784e-05, -3.064219708903693e-05, -2.9044307666481473e-05, -2.744641824392602e-05, -2.5848528821370564e-05, -2.425063939881511e-05, -2.2652749976259656e-05, -2.1054860553704202e-05, -1.9456971131148748e-05, -1.7859081708593294e-05, -1.626119228603784e-05, -1.4663302863482386e-05, -1.3065413440926932e-05, -1.1467524018371478e-05, -9.869634595816024e-06, -8.27174517326057e-06, -6.6738557507051155e-06, -5.075966328149661e-06, -3.4780769055942073e-06, -1.8801838450599462e-06, -2.822944225044921e-07, 1.315595000050962e-06, 2.913484422606416e-06, 4.51137384516187e-06, 6.109263267717324e-06, 7.707152690272778e-06, 9.305042112828232e-06, 1.0902931535383686e-05, 1.250082095793914e-05, 1.4098710380494595e-05, 1.569659980305005e-05, 1.7294489225605503e-05, 1.8892378648160957e-05, 2.049026807071641e-05, 2.2088157493271865e-05, 2.368604691582732e-05, 2.5283936338382773e-05, 2.6881825760938227e-05, 2.847971518349368e-05, 3.0077604606049135e-05, 3.167549584759399e-05, 3.3273383451160043e-05, 3.4871271054726094e-05, 3.646916229627095e-05, 3.806705353781581e-05, 3.966494114138186e-05, 4.126282874494791e-05, 4.286071998649277e-05, 4.4458611228037626e-05, 4.6056498831603676e-05, 4.7654386435169727e-05, 4.9252277676714584e-05]}, "gradients/graph_1rgb_fn.0.weight": {"_type": "histogram", "values": [1.0, 1.0, 1.0, 0.0, 0.0, 1.0, 0.0, 0.0, 2.0, 1.0, 2.0, 1.0, 0.0, 1.0, 2.0, 2.0, 6.0, 5.0, 4.0, 14.0, 11.0, 13.0, 20.0, 28.0, 36.0, 59.0, 82.0, 127.0, 216.0, 623.0, 8849.0, 24783.0, 676.0, 218.0, 126.0, 83.0, 55.0, 44.0, 35.0, 25.0, 13.0, 11.0, 9.0, 8.0, 7.0, 3.0, 5.0, 4.0, 3.0, 3.0, 0.0, 1.0, 1.0, 1.0, 0.0, 0.0, 1.0, 0.0, 0.0, 0.0, 0.0, 0.0, 0.0, 1.0], "bins": [-0.0006686561391688883, -0.0006471089436672628, -0.0006255618063732982, -0.0006040146108716726, -0.0005824674153700471, -0.0005609202198684216, -0.000539373024366796, -0.0005178258870728314, -0.0004962786915712059, -0.0004747314960695803, -0.00045318432967178524, -0.00043163716327399015, -0.0004100899677723646, -0.0003885427722707391, -0.000366995605872944, -0.0003454484394751489, -0.0003239012439735234, -0.00030235404847189784, -0.00028080688207410276, -0.0002592597156763077, -0.00023771252017468214, -0.00021616533922497183, -0.00019461815827526152, -0.0001730709773255512, -0.0001515237963758409, -0.0001299766154261306, -0.00010842943447642028, -8.688225352670997e-05, -6.533507257699966e-05, -4.3787891627289355e-05, -2.2240710677579045e-05, -6.935297278687358e-07, 2.0853651221841574e-05, 4.240083217155188e-05, 6.394801312126219e-05, 8.54951940709725e-05, 0.00010704237502068281, 0.00012858955597039312, 0.00015013673692010343, 0.00017168391786981374, 0.00019323109881952405, 0.00021477827976923436, 0.00023632546071894467, 0.00025787262711673975, 0.0002794198226183653, 0.0003009670181199908, 0.0003225141845177859, 0.000344061350915581, 0.0003656085464172065, 0.00038715574191883206, 0.00040870290831662714, 0.0004302500747144222, 0.00045179727021604776, 0.0004733444657176733, 0.0004948916612192988, 0.0005164387985132635, 0.000537985994014889, 0.0005595331895165145, 0.0005810803268104792, 0.0006026275223121047, 0.0006241747178137302, 0.0006457219133153558, 0.0006672691088169813, 0.0006888162461109459, 0.0007103634416125715]}, "gradients/graph_1density_fn.0.bias": {"_type": "histogram", "values": [1.0], "bins": [-5.479896572069265e-05, -5.479896572069265e-05]}, "gradients/graph_1density_fn.0.weight": {"_type": "histogram", "values": [1.0, 0.0, 0.0, 0.0, 2.0, 0.0, 0.0, 0.0, 2.0, 0.0, 1.0, 2.0, 0.0, 2.0, 6.0, 1.0, 3.0, 0.0, 0.0, 2.0, 1.0, 3.0, 6.0, 8.0, 5.0, 7.0, 4.0, 9.0, 11.0, 9.0, 13.0, 7.0, 9.0, 7.0, 16.0, 10.0, 14.0, 13.0, 6.0, 17.0, 4.0, 2.0, 3.0, 9.0, 3.0, 7.0, 2.0, 2.0, 3.0, 4.0, 1.0, 1.0, 2.0, 2.0, 2.0, 3.0, 0.0, 3.0, 2.0, 2.0, 0.0, 0.0, 1.0, 1.0], "bins": [-6.518523150589317e-05, -6.327475421130657e-05, -6.136426964076236e-05, -5.945379234617576e-05, -5.754331505158916e-05, -5.5632834119023755e-05, -5.372235318645835e-05, -5.181187589187175e-05, -4.9901394959306344e-05, -4.799091402674094e-05, -4.608043673215434e-05, -4.4169955799588934e-05, -4.225947486702353e-05, -4.034899757243693e-05, -3.843851663987152e-05, -3.6528039345284924e-05, -3.461755841271952e-05, -3.270707748015411e-05, -3.079660018556751e-05, -2.8886119253002107e-05, -2.6975640139426105e-05, -2.5065161025850102e-05, -2.3154680093284696e-05, -2.1244200979708694e-05, -1.933372186613269e-05, -1.742324275255669e-05, -1.5512763638980687e-05, -1.360228270641528e-05, -1.1691803592839278e-05, -9.781324479263276e-06, -7.870844456192572e-06, -5.960364887869218e-06, -4.049885319545865e-06, -2.1394057512225118e-06, -2.2892618289915845e-07, 1.6815533854241949e-06, 3.592032953747548e-06, 5.5025125220709015e-06, 7.412992090394255e-06, 9.323472113464959e-06, 1.1233951227040961e-05, 1.3144430340616964e-05, 1.5054910363687668e-05, 1.6965390386758372e-05, 1.8875869500334375e-05, 2.0786348613910377e-05, 2.2696829546475783e-05, 2.4607308660051785e-05, 2.6517787773627788e-05, 2.842826688720379e-05, 3.0338746000779793e-05, 3.22492269333452e-05, 3.41597042279318e-05, 3.6070185160497203e-05, 3.798066609306261e-05, 3.989114338764921e-05, 4.1801624320214614e-05, 4.371210525278002e-05, 4.562258254736662e-05, 4.7533063479932025e-05, 4.944354441249743e-05, 5.135402170708403e-05, 5.3264502639649436e-05, 5.5174979934236035e-05, 5.708546086680144e-05]}, "gradients/graph_1feature_fn.4.bias": {"_type": "histogram", "values": [2.0, 0.0, 0.0, 0.0, 1.0, 3.0, 0.0, 1.0, 2.0, 3.0, 2.0, 1.0, 3.0, 2.0, 0.0, 3.0, 5.0, 6.0, 3.0, 6.0, 5.0, 5.0, 7.0, 8.0, 10.0, 9.0, 13.0, 7.0, 9.0, 9.0, 9.0, 15.0, 14.0, 9.0, 8.0, 10.0, 7.0, 4.0, 6.0, 6.0, 6.0, 0.0, 6.0, 2.0, 5.0, 3.0, 0.0, 4.0, 3.0, 5.0, 1.0, 1.0, 2.0, 1.0, 0.0, 2.0, 0.0, 1.0, 0.0, 0.0, 0.0, 0.0, 0.0, 1.0], "bins": [-7.278040720848367e-05, -7.028429536148906e-05, -6.778818351449445e-05, -6.529207166749984e-05, -6.279595982050523e-05, -6.029985161148943e-05, -5.780373976449482e-05, -5.530762791750021e-05, -5.2811516070505604e-05, -5.0315404223510996e-05, -4.781929237651639e-05, -4.532318052952178e-05, -4.282707232050598e-05, -4.033096047351137e-05, -3.783484862651676e-05, -3.533873677952215e-05, -3.284262493252754e-05, -3.0346513085532933e-05, -2.7850401238538325e-05, -2.535429121053312e-05, -2.285817936353851e-05, -2.0362067516543902e-05, -1.7865957488538697e-05, -1.536984564154409e-05, -1.287373379454948e-05, -1.0377621947554871e-05, -7.881511010054965e-06, -5.385399617807707e-06, -2.889288225560449e-06, -3.931768333131913e-07, 2.1029345589340664e-06, 4.599045951181324e-06, 7.095150067470968e-06, 9.591261914465576e-06, 1.2087372851965483e-05, 1.458348378946539e-05, 1.707959563646e-05, 1.9575707483454607e-05, 2.2071817511459813e-05, 2.456792935845442e-05, 2.706404120544903e-05, 2.956015305244364e-05, 3.205626489943825e-05, 3.4552376746432856e-05, 3.704848495544866e-05, 3.9544596802443266e-05, 4.2040708649437875e-05, 4.453682049643248e-05, 4.703293234342709e-05, 4.95290441904217e-05, 5.202515603741631e-05, 5.452126788441092e-05, 5.7017379731405526e-05, 5.951348794042133e-05, 6.200960342539474e-05, 6.450571527238935e-05, 6.700181984342635e-05, 6.949793169042096e-05, 7.199404353741556e-05, 7.449015538441017e-05, 7.698626723140478e-05, 7.948237907839939e-05, 8.1978490925394e-05, 8.447460277238861e-05, 8.697071461938322e-05]}, "gradients/graph_1feature_fn.4.weight": {"_type": "histogram", "values": [4.0, 0.0, 1.0, 4.0, 2.0, 2.0, 7.0, 4.0, 11.0, 7.0, 9.0, 13.0, 20.0, 12.0, 20.0, 17.0, 30.0, 32.0, 39.0, 73.0, 88.0, 109.0, 176.0, 251.0, 380.0, 592.0, 935.0, 1635.0, 3372.0, 9591.0, 31025.0, 9571.0, 3274.0, 1594.0, 880.0, 560.0, 336.0, 217.0, 156.0, 130.0, 79.0, 70.0, 40.0, 30.0, 31.0, 17.0, 21.0, 15.0, 8.0, 5.0, 10.0, 7.0, 11.0, 1.0, 2.0, 3.0, 1.0, 0.0, 0.0, 1.0, 2.0, 1.0, 0.0, 2.0], "bins": [-6.887760537210852e-05, -6.661696534138173e-05, -6.435632531065494e-05, -6.209567800397053e-05, -5.983503797324374e-05, -5.757439794251695e-05, -5.531375791179016e-05, -5.3053114243084565e-05, -5.0792474212357774e-05, -4.8531834181630984e-05, -4.6271190512925386e-05, -4.4010550482198596e-05, -4.1749910451471806e-05, -3.948926678276621e-05, -3.722862675203942e-05, -3.496798308333382e-05, -3.270734305260703e-05, -3.0446701202890836e-05, -2.8186059353174642e-05, -2.592541932244785e-05, -2.3664777472731657e-05, -2.1404135623015463e-05, -1.9143495592288673e-05, -1.688285374257248e-05, -1.4622211892856285e-05, -1.2361570043140091e-05, -1.0100929102918599e-05, -7.840288162697107e-06, -5.579646312980913e-06, -3.3190049180120695e-06, -1.0583635230432265e-06, 1.2022778719256166e-06, 3.462926542852074e-06, 5.723567937820917e-06, 7.98420933278976e-06, 1.0244850273011252e-05, 1.2505492122727446e-05, 1.476613397244364e-05, 1.702677400317043e-05, 1.9287415852886625e-05, 2.154805770260282e-05, 2.3808699552319013e-05, 2.6069341402035207e-05, 2.8329981432761997e-05, 3.059062146348879e-05, 3.2851265132194385e-05, 3.5111905162921175e-05, 3.737254883162677e-05, 3.963318886235356e-05, 4.1893828893080354e-05, 4.415447256178595e-05, 4.641511259251274e-05, 4.867575626121834e-05, 5.093639629194513e-05, 5.319703632267192e-05, 5.545767999137752e-05, 5.771832002210431e-05, 5.99789600528311e-05, 6.22396037215367e-05, 6.450024375226349e-05, 6.676088378299028e-05, 6.902152381371707e-05, 7.128217112040147e-05, 7.354281115112826e-05, 7.580345118185505e-05]}, "gradients/graph_1feature_fn.2.bias": {"_type": "histogram", "values": [1.0, 0.0, 0.0, 0.0, 0.0, 0.0, 0.0, 0.0, 0.0, 0.0, 0.0, 1.0, 1.0, 0.0, 0.0, 0.0, 0.0, 1.0, 0.0, 3.0, 1.0, 1.0, 0.0, 4.0, 2.0, 3.0, 2.0, 0.0, 3.0, 2.0, 5.0, 6.0, 7.0, 9.0, 10.0, 23.0, 22.0, 24.0, 36.0, 28.0, 13.0, 9.0, 9.0, 5.0, 3.0, 3.0, 4.0, 0.0, 2.0, 5.0, 1.0, 0.0, 1.0, 1.0, 0.0, 0.0, 1.0, 0.0, 1.0, 2.0, 0.0, 0.0, 0.0, 1.0], "bins": [-0.0002883065608330071, -0.0002807794662658125, -0.00027325237169861794, -0.00026572527713142335, -0.0002581981825642288, -0.0002506710879970342, -0.0002431439934298396, -0.00023561689886264503, -0.00022808980429545045, -0.00022056270972825587, -0.0002130356151610613, -0.0002055085205938667, -0.00019798142602667212, -0.00019045433145947754, -0.00018292723689228296, -0.00017540014232508838, -0.0001678730477578938, -0.000160345938638784, -0.0001528188440715894, -0.00014529174950439483, -0.00013776465493720025, -0.00013023756037000567, -0.00012271046580281109, -0.00011518337851157412, -0.00010765627666842192, -0.00010012918210122734, -9.260208753403276e-05, -8.507499296683818e-05, -7.75478983996436e-05, -7.002080383244902e-05, -6.249370926525444e-05, -5.496661469805986e-05, -4.7439520130865276e-05, -3.9912425563670695e-05, -3.2385330996476114e-05, -2.485823461029213e-05, -1.7331140043097548e-05, -9.804045475902967e-06, -2.2769499992136844e-06, 5.2501450227282476e-06, 1.277724004467018e-05, 2.030433461186476e-05, 2.783142917905934e-05, 3.535852374625392e-05, 4.288562195142731e-05, 5.041271651862189e-05, 5.793981108581647e-05, 6.546690565301105e-05, 7.299400022020563e-05, 8.052109478740022e-05, 8.80481893545948e-05, 9.557528392178938e-05, 0.00010310237848898396, 0.00011062947305617854, 0.00011815656762337312, 0.00012568366946652532, 0.0001332107640337199, 0.00014073785860091448, 0.00014826495316810906, 0.00015579204773530364, 0.00016331914230249822, 0.0001708462368696928, 0.00017837333143688738, 0.00018590042600408196, 0.00019342752057127655]}, "gradients/graph_1feature_fn.2.weight": {"_type": "histogram", "values": [1.0, 0.0, 0.0, 0.0, 0.0, 0.0, 0.0, 0.0, 0.0, 0.0, 1.0, 1.0, 0.0, 1.0, 0.0, 0.0, 1.0, 0.0, 0.0, 0.0, 1.0, 2.0, 2.0, 4.0, 2.0, 5.0, 5.0, 7.0, 1.0, 12.0, 25.0, 18.0, 27.0, 33.0, 52.0, 82.0, 137.0, 195.0, 347.0, 634.0, 1729.0, 8075.0, 46572.0, 5257.0, 1257.0, 486.0, 260.0, 142.0, 68.0, 29.0, 22.0, 24.0, 3.0, 2.0, 6.0, 2.0, 2.0, 0.0, 2.0, 0.0, 0.0, 0.0, 1.0, 1.0], "bins": [-0.00048168160719797015, -0.00047032503061927855, -0.0004589684249367565, -0.0004476118483580649, -0.00043625524267554283, -0.00042489866609685123, -0.00041354208951815963, -0.00040218548383563757, -0.00039082890725694597, -0.0003794723015744239, -0.0003681157249957323, -0.0003567591484170407, -0.00034540254273451865, -0.00033404596615582705, -0.000322689360473305, -0.0003113327838946134, -0.0002999762073159218, -0.0002886196016333997, -0.0002772630250547081, -0.00026590641937218606, -0.00025454984279349446, -0.00024319325166288763, -0.0002318366605322808, -0.00022048006940167397, -0.00020912347827106714, -0.00019776690169237554, -0.0001864103105617687, -0.00017505371943116188, -0.00016369712830055505, -0.00015234053716994822, -0.00014098396059125662, -0.0001296273694606498, -0.00011827077833004296, -0.00010691418719943613, -9.555760334478691e-05, -8.420101221418008e-05, -7.284442835953087e-05, -6.148783722892404e-05, -5.0131246098317206e-05, -3.877465860568918e-05, -2.741807111306116e-05, -1.6061483620433137e-05, -4.70489430881571e-06, 6.6516940933070146e-06, 1.800828249542974e-05, 2.9364869988057762e-05, 4.072146111866459e-05, 5.2078048611292616e-05, 6.343463610392064e-05, 7.479122723452747e-05, 8.614781108917668e-05, 9.750440221978351e-05, 0.00010886098607443273, 0.00012021757720503956, 0.0001315741683356464, 0.00014293075946625322, 0.00015428735059686005, 0.00016564392717555165, 0.00017700051830615848, 0.0001883571094367653, 0.00019971370056737214, 0.00021107029169797897, 0.00022242686827667058, 0.0002337834594072774, 0.00024514005053788424]}, "gradients/graph_1feature_fn.0.bias": {"_type": "histogram", "values": [1.0, 0.0, 0.0, 3.0, 1.0, 2.0, 4.0, 2.0, 0.0, 2.0, 0.0, 1.0, 1.0, 3.0, 2.0, 4.0, 8.0, 6.0, 11.0, 12.0, 18.0, 14.0, 9.0, 17.0, 22.0, 16.0, 16.0, 21.0, 10.0, 6.0, 5.0, 5.0, 2.0, 1.0, 1.0, 3.0, 4.0, 2.0, 6.0, 4.0, 0.0, 0.0, 1.0, 3.0, 0.0, 0.0, 1.0, 0.0, 2.0, 1.0, 0.0, 0.0, 1.0, 0.0, 0.0, 0.0, 0.0, 1.0, 0.0, 0.0, 0.0, 0.0, 0.0, 1.0], "bins": [-0.0001954525796463713, -0.00018768696463666856, -0.0001799213350750506, -0.00017215572006534785, -0.00016439009050372988, -0.00015662447549402714, -0.00014885884593240917, -0.00014109323092270643, -0.00013332761591300368, -0.0001255619863513857, -0.00011779636406572536, -0.000110030741780065, -0.00010226512677036226, -9.44995044847019e-05, -8.673388219904155e-05, -7.896825991338119e-05, -7.120263762772083e-05, -6.343701534206048e-05, -5.567139305640012e-05, -4.790577440871857e-05, -4.0140152123058215e-05, -3.237452983739786e-05, -2.4608909370726906e-05, -1.6843288904055953e-05, -9.077666618395597e-06, -1.3120452422299422e-06, 6.453576133935712e-06, 1.4219197510101367e-05, 2.198481888626702e-05, 2.9750441171927378e-05, 3.751605981960893e-05, 4.528168210526928e-05, 5.304731894284487e-05, 6.0812941228505224e-05, 6.857856351416558e-05, 7.634418579982594e-05, 8.410980808548629e-05, 9.187542309518903e-05, 9.964104538084939e-05, 0.00010740666766650975, 0.0001151722899521701, 0.00012293791223783046, 0.0001307035272475332, 0.00013846915680915117, 0.00014623477181885391, 0.00015400040138047189, 0.00016176601639017463, 0.0001695316459517926, 0.00017729726096149534, 0.00018506287597119808, 0.00019282850553281605, 0.0002005941205425188, 0.00020835975010413677, 0.0002161253651138395, 0.00022389099467545748, 0.00023165660968516022, 0.00023942222469486296, 0.00024718785425648093, 0.0002549534838180989, 0.0002627190842758864, 0.0002704847138375044, 0.00027825034339912236, 0.00028601597296074033, 0.00029378157341852784, 0.0003015472029801458]}, "gradients/graph_1feature_fn.0.weight": {"_type": "histogram", "values": [1.0, 0.0, 1.0, 3.0, 2.0, 3.0, 2.0, 0.0, 4.0, 6.0, 10.0, 14.0, 41.0, 47.0, 56.0, 59.0, 84.0, 96.0, 177.0, 238.0, 365.0, 560.0, 861.0, 1407.0, 2600.0, 9409.0, 56623.0, 4167.0, 1733.0, 998.0, 658.0, 435.0, 277.0, 207.0, 152.0, 92.0, 63.0, 56.0, 46.0, 19.0, 24.0, 13.0, 7.0, 10.0, 11.0, 7.0, 1.0, 6.0, 1.0, 4.0, 4.0, 2.0, 1.0, 0.0, 0.0, 0.0, 0.0, 0.0, 0.0, 0.0, 0.0, 0.0, 0.0, 1.0], "bins": [-0.0003019045398104936, -0.0002904271532315761, -0.0002789497666526586, -0.0002674723800737411, -0.0002559949643909931, -0.0002445175778120756, -0.0002330401912331581, -0.0002215628046542406, -0.0002100854180753231, -0.0001986080314964056, -0.0001871306449174881, -0.00017565324378665537, -0.00016417585720773786, -0.00015269847062882036, -0.00014122106949798763, -0.00012974368291907012, -0.00011826629634015262, -0.00010678890976123512, -9.531151590636e-05, -8.383412205148488e-05, -7.235673547256738e-05, -6.087934525567107e-05, -4.940195503877476e-05, -3.792456482187845e-05, -2.6447174604982138e-05, -1.4969784388085827e-05, -3.4923941711895168e-06, 7.984996045706794e-06, 1.9462386262603104e-05, 3.0939776479499415e-05, 4.2417166696395725e-05, 5.3894556913292035e-05, 6.53719762340188e-05, 7.68493628129363e-05, 8.832675666781142e-05, 9.980415052268654e-05, 0.00011128153710160404, 0.00012275892368052155, 0.00013423632481135428, 0.00014571371139027178, 0.00015719109796918929, 0.0001686684845481068, 0.0001801458711270243, 0.00019162327225785702, 0.00020310065883677453, 0.00021457804541569203, 0.00022605544654652476, 0.00023753283312544227, 0.00024901021970435977, 0.0002604876062832773, 0.0002719649928621948, 0.0002834423794411123, 0.0002949197660200298, 0.00030639718170277774, 0.00031787456828169525, 0.00032935195486061275, 0.00034082934143953025, 0.00035230672801844776, 0.00036378411459736526, 0.00037526150117628276, 0.0003867389168590307, 0.0003982163034379482, 0.00040969369001686573, 0.00042117107659578323, 0.00043264846317470074]}, "gradients/graph_1mlp.6.bias": {"_type": "histogram", "values": [1.0, 0.0, 1.0, 0.0, 1.0, 1.0, 0.0, 3.0, 1.0, 2.0, 2.0, 0.0, 2.0, 1.0, 1.0, 0.0, 3.0, 5.0, 4.0, 1.0, 2.0, 5.0, 5.0, 9.0, 6.0, 6.0, 3.0, 5.0, 9.0, 11.0, 42.0, 20.0, 12.0, 11.0, 6.0, 9.0, 5.0, 2.0, 5.0, 3.0, 1.0, 2.0, 5.0, 0.0, 7.0, 4.0, 1.0, 2.0, 2.0, 3.0, 3.0, 5.0, 0.0, 3.0, 3.0, 1.0, 2.0, 1.0, 2.0, 0.0, 0.0, 2.0, 0.0, 2.0], "bins": [-0.0003099300665780902, -0.00029973036726005375, -0.0002895306970458478, -0.00027933099772781134, -0.0002691312984097749, -0.0002589316281955689, -0.0002487319288775325, -0.00023853222955949605, -0.00022833254479337484, -0.00021813286002725363, -0.0002079331607092172, -0.00019773347594309598, -0.00018753379117697477, -0.00017733409185893834, -0.00016713440709281713, -0.0001569347077747807, -0.00014673502300865948, -0.00013653533824253827, -0.00012633563892450184, -0.00011613595415838063, -0.0001059362621163018, -9.573657007422298e-05, -8.553688530810177e-05, -7.533719326602295e-05, -6.513750122394413e-05, -5.4937809181865305e-05, -4.473812077776529e-05, -3.453843237366527e-05, -2.433874033158645e-05, -1.4139050108497031e-05, -3.939359885407612e-06, 6.260330337681808e-06, 1.6460049664601684e-05, 2.6659739887691103e-05, 3.685943011078052e-05, 4.705911851488054e-05, 5.725881055695936e-05, 6.745850259903818e-05, 7.765818736515939e-05, 8.785787940723822e-05, 9.805757144931704e-05, 0.00010825726349139586, 0.00011845695553347468, 0.0001286566402995959, 0.0001388563250657171, 0.00014905602438375354, 0.00015925570914987475, 0.00016945540846791118, 0.0001796550932340324, 0.0001898547780001536, 0.00020005447731819004, 0.00021025416208431125, 0.00022045386140234768, 0.0002306535461684689, 0.0002408532309345901, 0.00025105293025262654, 0.000261252629570663, 0.00027145229978486896, 0.0002816519991029054, 0.00029185169842094183, 0.0003020513686351478, 0.00031225106795318425, 0.0003224507672712207, 0.00033265043748542666, 0.0003428501368034631]}, "gradients/graph_1mlp.6.weight": {"_type": "histogram", "values": [2.0, 1.0, 0.0, 1.0, 1.0, 1.0, 2.0, 1.0, 4.0, 1.0, 3.0, 4.0, 4.0, 9.0, 3.0, 7.0, 6.0, 17.0, 8.0, 21.0, 23.0, 32.0, 45.0, 48.0, 73.0, 140.0, 194.0, 424.0, 739.0, 1620.0, 4185.0, 41163.0, 10075.0, 2970.0, 1352.0, 780.0, 459.0, 306.0, 174.0, 167.0, 110.0, 71.0, 63.0, 50.0, 32.0, 26.0, 20.0, 17.0, 14.0, 12.0, 12.0, 8.0, 7.0, 4.0, 9.0, 5.0, 2.0, 3.0, 2.0, 2.0, 1.0, 0.0, 0.0, 1.0], "bins": [-0.00015361820987891406, -0.00014878330694045871, -0.00014394838945008814, -0.0001391134865116328, -0.00013427858357317746, -0.00012944368063472211, -0.00012460877769626677, -0.0001197738602058962, -0.00011493895726744086, -0.00011010405432898551, -0.00010526914411457255, -0.0001004342339001596, -9.559933096170425e-05, -9.076442802324891e-05, -8.592951780883595e-05, -8.1094607594423e-05, -7.625970465596765e-05, -7.142480171751231e-05, -6.658989150309935e-05, -6.17549812886864e-05, -5.692007835023105e-05, -5.20851717737969e-05, -4.725026519736275e-05, -4.24153586209286e-05, -3.758045204449445e-05, -3.27455454680603e-05, -2.791063889162615e-05, -2.3075732315192e-05, -1.824082573875785e-05, -1.3405919162323698e-05, -8.571012585889548e-06, -3.7361060094553977e-06, 1.098815118893981e-06, 5.933721695328131e-06, 1.0768628271762282e-05, 1.5603534848196432e-05, 2.0438441424630582e-05, 2.5273348001064733e-05, 3.0108254577498883e-05, 3.494316115393303e-05, 3.9778067730367184e-05, 4.4612974306801334e-05, 4.9447880883235484e-05, 5.4282787459669635e-05, 5.9117694036103785e-05, 6.395259697455913e-05, 6.878750718897209e-05, 7.362241740338504e-05, 7.845732034184039e-05, 8.329222328029573e-05, 8.812713349470869e-05, 9.296204370912164e-05, 9.779694664757699e-05, 0.00010263184958603233, 0.00010746675980044529, 0.00011230167001485825, 0.00011713657295331359, 0.00012197147589176893, 0.00012680637883022428, 0.00013164129632059485, 0.0001364761992590502, 0.00014131110219750553, 0.0001461460196878761, 0.00015098092262633145, 0.0001558158255647868]}, "gradients/graph_1mlp.4.bias": {"_type": "histogram", "values": [1.0, 0.0, 0.0, 0.0, 0.0, 1.0, 0.0, 0.0, 0.0, 1.0, 0.0, 2.0, 0.0, 0.0, 0.0, 0.0, 3.0, 1.0, 0.0, 1.0, 4.0, 4.0, 4.0, 10.0, 10.0, 13.0, 13.0, 28.0, 40.0, 23.0, 25.0, 11.0, 12.0, 9.0, 5.0, 8.0, 2.0, 6.0, 1.0, 3.0, 1.0, 1.0, 2.0, 1.0, 1.0, 2.0, 0.0, 0.0, 1.0, 3.0, 0.0, 0.0, 0.0, 1.0, 1.0, 0.0, 0.0, 0.0, 0.0, 0.0, 0.0, 0.0, 0.0, 1.0], "bins": [-0.0011189767392352223, -0.0010800022864714265, -0.0010410277172923088, -0.001002053264528513, -0.0009630786953493953, -0.0009241042425855994, -0.0008851297316141427, -0.0008461552206426859, -0.0008071807096712291, -0.0007682061986997724, -0.0007292316877283156, -0.0006902571767568588, -0.000651282723993063, -0.0006123082130216062, -0.0005733337020501494, -0.0005343591910786927, -0.0004953846801072359, -0.00045641016913577914, -0.0004174356581643224, -0.00037846117629669607, -0.0003394866653252393, -0.00030051215435378253, -0.0002615376724861562, -0.00022256316151469946, -0.0001835886505432427, -0.00014461413957178593, -0.00010563964315224439, -6.666513945674524e-05, -2.7690635761246085e-05, 1.1283867934253067e-05, 5.025837162975222e-05, 8.923287532525137e-05, 0.00012820749543607235, 0.00016718200640752912, 0.00020615650282707065, 0.0002451309992466122, 0.00028410551021806896, 0.0003230800211895257, 0.00036205450305715203, 0.0004010290140286088, 0.00044000352500006557, 0.00047897803597152233, 0.0005179525469429791, 0.0005569270579144359, 0.0005959015106782317, 0.0006348760216496885, 0.0006738505326211452, 0.000712825043592602, 0.0007517995545640588, 0.0007907740655355155, 0.0008297485765069723, 0.0008687230874784291, 0.0009076975984498858, 0.0009466720512136817, 0.0009856466203927994, 0.0010246210731565952, 0.001063595525920391, 0.0011025700950995088, 0.0011415445478633046, 0.0011805191170424223, 0.0012194935698062181, 0.0012584681389853358, 0.0012974425917491317, 0.0013364171609282494, 0.0013753916136920452]}, "gradients/graph_1mlp.4.weight": {"_type": "histogram", "values": [1.0, 0.0, 0.0, 2.0, 2.0, 1.0, 2.0, 3.0, 0.0, 7.0, 3.0, 6.0, 9.0, 4.0, 19.0, 31.0, 21.0, 41.0, 53.0, 84.0, 117.0, 261.0, 566.0, 1915.0, 52467.0, 7289.0, 1256.0, 512.0, 263.0, 188.0, 118.0, 57.0, 44.0, 40.0, 30.0, 32.0, 16.0, 15.0, 13.0, 6.0, 7.0, 10.0, 5.0, 5.0, 4.0, 1.0, 1.0, 0.0, 1.0, 1.0, 1.0, 2.0, 0.0, 2.0, 0.0, 0.0, 0.0, 1.0, 0.0, 0.0, 0.0, 0.0, 0.0, 1.0], "bins": [-0.0005469520692713559, -0.0005248744273558259, -0.000502796727232635, -0.00048071908531710505, -0.0004586414434015751, -0.00043656377238221467, -0.00041448610136285424, -0.0003924084594473243, -0.00037033078842796385, -0.00034825311740860343, -0.00032617547549307346, -0.00030409780447371304, -0.0002820201334543526, -0.00025994249153882265, -0.00023786482051946223, -0.00021578716405201703, -0.00019370950758457184, -0.00017163185111712664, -0.00014955419464968145, -0.00012747652363032103, -0.00010539886716287583, -8.332121069543064e-05, -6.124354695202783e-05, -3.9165886846603826e-05, -1.7088226741179824e-05, 4.989433364244178e-06, 2.706709346966818e-05, 4.914475357509218e-05, 7.122241368051618e-05, 9.330007014796138e-05, 0.00011537773389136419, 0.000137455397634767, 0.0001595330541022122, 0.00018161071056965739, 0.00020368836703710258, 0.000225766038056463, 0.00024784367997199297, 0.0002699213509913534, 0.0002919990220107138, 0.0003140766639262438, 0.0003361543349456042, 0.00035823200596496463, 0.0003803096478804946, 0.000402387318899855, 0.00042446498991921544, 0.0004465426318347454, 0.00046862030285410583, 0.0004906979738734663, 0.0005127756157889962, 0.0005348532577045262, 0.0005569309578277171, 0.000579008599743247, 0.000601086241658777, 0.0006231639417819679, 0.0006452415836974978, 0.0006673192256130278, 0.0006893968675285578, 0.0007114745676517487, 0.0007335522095672786, 0.0007556298514828086, 0.0007777075516059995, 0.0007997851935215294, 0.0008218628354370594, 0.0008439405355602503, 0.0008660181774757802]}, "gradients/graph_1mlp.2.bias": {"_type": "histogram", "values": [1.0, 0.0, 0.0, 0.0, 1.0, 0.0, 0.0, 0.0, 0.0, 0.0, 0.0, 1.0, 1.0, 0.0, 0.0, 0.0, 0.0, 1.0, 1.0, 2.0, 1.0, 1.0, 1.0, 7.0, 5.0, 8.0, 19.0, 49.0, 82.0, 31.0, 16.0, 4.0, 3.0, 3.0, 4.0, 1.0, 1.0, 1.0, 1.0, 2.0, 1.0, 0.0, 1.0, 0.0, 0.0, 0.0, 0.0, 0.0, 0.0, 1.0, 0.0, 0.0, 0.0, 0.0, 1.0, 1.0, 0.0, 1.0, 1.0, 0.0, 0.0, 0.0, 0.0, 1.0], "bins": [-0.0019435195717960596, -0.0018750563031062484, -0.0018065930344164371, -0.001738129765726626, -0.0016696664970368147, -0.0016012033447623253, -0.001532740076072514, -0.0014642768073827028, -0.0013958135386928916, -0.0013273502700030804, -0.0012588870013132691, -0.001190423732623458, -0.0011219605803489685, -0.0010534973116591573, -0.000985034042969346, -0.0009165707742795348, -0.0008481075055897236, -0.0007796442368999124, -0.0007111809682101011, -0.0006427177577279508, -0.0005742544890381396, -0.0005057912203483284, -0.0004373279807623476, -0.0003688647411763668, -0.0003004014724865556, -0.00023193821834865957, -0.00016347496421076357, -9.501171007286757e-05, -2.654845593497157e-05, 4.191479820292443e-05, 0.00011037805234082043, 0.00017884130647871643, 0.0002473043277859688, 0.00031576759647578, 0.0003842308360617608, 0.00045269407564774156, 0.0005211573443375528, 0.000589620613027364, 0.0006580838235095143, 0.0007265470921993256, 0.0007950103608891368, 0.000863473629578948, 0.0009319368982687593, 0.0010004001669585705, 0.0010688633192330599, 0.0011373265879228711, 0.0012057898566126823, 0.0012742531253024936, 0.0013427163939923048, 0.001411179662682116, 0.0014796429313719273, 0.0015481062000617385, 0.0016165694687515497, 0.0016850326210260391, 0.0017534958897158504, 0.0018219591584056616, 0.0018904224270954728, 0.001958885695785284, 0.0020273488480597734, 0.0020958122331649065, 0.002164275385439396, 0.002232738770544529, 0.0023012019228190184, 0.0023696653079241514, 0.002438128460198641]}, "gradients/graph_1mlp.2.weight": {"_type": "histogram", "values": [1.0, 0.0, 0.0, 0.0, 0.0, 1.0, 2.0, 0.0, 1.0, 1.0, 2.0, 5.0, 2.0, 3.0, 5.0, 6.0, 4.0, 10.0, 10.0, 13.0, 14.0, 24.0, 27.0, 42.0, 48.0, 72.0, 102.0, 181.0, 397.0, 1030.0, 7124.0, 53145.0, 1750.0, 532.0, 253.0, 144.0, 121.0, 74.0, 66.0, 53.0, 43.0, 27.0, 31.0, 24.0, 23.0, 15.0, 13.0, 17.0, 12.0, 11.0, 11.0, 9.0, 9.0, 2.0, 3.0, 6.0, 3.0, 1.0, 3.0, 0.0, 3.0, 1.0, 3.0, 1.0], "bins": [-0.0021913163363933563, -0.002121101599186659, -0.002050887094810605, -0.0019806725904345512, -0.0019104578532278538, -0.0018402432324364781, -0.0017700286116451025, -0.0016998139908537269, -0.0016295993700623512, -0.0015593847492709756, -0.0014891701284796, -0.0014189555076882243, -0.0013487408868968487, -0.001278526266105473, -0.0012083116453140974, -0.0011380970245227218, -0.0010678824037313461, -0.0009976677829399705, -0.0009274531621485949, -0.0008572385413572192, -0.0007870239205658436, -0.0007168092997744679, -0.0006465946789830923, -0.0005763800581917167, -0.000506165437400341, -0.0004359508166089654, -0.00036573619581758976, -0.0002955215750262141, -0.00022530695423483849, -0.00015509233344346285, -8.487771265208721e-05, -1.4663091860711575e-05, 5.5551761761307716e-05, 0.00012576638255268335, 0.000195981003344059, 0.00026619562413543463, 0.00033641024492681026, 0.0004066248657181859, 0.00047683948650956154, 0.0005470541073009372, 0.0006172687280923128, 0.0006874833488836884, 0.0007576979696750641, 0.0008279125904664397, 0.0008981272112578154, 0.000968341832049191, 0.0010385564528405666, 0.0011087710736319423, 0.001178985694423318, 0.0012492003152146935, 0.0013194149360060692, 0.0013896295567974448, 0.0014598441775888205, 0.001530058798380196, 0.0016002734191715717, 0.0016704880399629474, 0.001740702660754323, 0.0018109172815456986, 0.0018811319023370743, 0.00195134652312845, 0.0020215611439198256, 0.0020917756482958794, 0.002161990385502577, 0.0022322051227092743, 0.002302419627085328]}, "gradients/graph_1mlp.0.bias": {"_type": "histogram", "values": [1.0, 0.0, 0.0, 0.0, 1.0, 0.0, 0.0, 0.0, 0.0, 0.0, 1.0, 0.0, 2.0, 0.0, 0.0, 1.0, 3.0, 0.0, 3.0, 1.0, 4.0, 0.0, 7.0, 6.0, 4.0, 8.0, 10.0, 17.0, 22.0, 29.0, 39.0, 25.0, 14.0, 7.0, 8.0, 4.0, 6.0, 3.0, 8.0, 3.0, 3.0, 1.0, 0.0, 2.0, 3.0, 0.0, 1.0, 0.0, 2.0, 0.0, 0.0, 2.0, 0.0, 1.0, 0.0, 1.0, 1.0, 0.0, 0.0, 0.0, 1.0, 0.0, 0.0, 1.0], "bins": [-0.0019946489483118057, -0.001927633653394878, -0.001860618474893272, -0.0017936031799763441, -0.0017265878850594163, -0.0016595727065578103, -0.0015925574116408825, -0.0015255421167239547, -0.0014585268218070269, -0.0013915116433054209, -0.001324496348388493, -0.0012574810534715652, -0.0011904658749699593, -0.0011234505800530314, -0.0010564352851361036, -0.0009894201066344976, -0.0009224048117175698, -0.0008553895750083029, -0.0007883742800913751, -0.0007213590433821082, -0.0006543437484651804, -0.0005873285117559135, -0.0005203132750466466, -0.00045329800923354924, -0.0003862827434204519, -0.0003192674776073545, -0.00025225221179425716, -0.00018523697508499026, -0.0001182217092718929, -5.120645073475316e-05, 1.5808807802386582e-05, 8.282406633952633e-05, 0.00014983932487666607, 0.00021685459068976343, 0.0002838698565028608, 0.0003508850932121277, 0.00041790035902522504, 0.0004849156248383224, 0.0005519308615475893, 0.0006189461564645171, 0.000685961393173784, 0.0007529766298830509, 0.0008199919247999787, 0.0008870071615092456, 0.0009540223982185125, 0.0010210376931354403, 0.0010880529880523682, 0.0011550681665539742, 0.001222083461470902, 0.0012890987563878298, 0.0013561139348894358, 0.0014231292298063636, 0.0014901445247232914, 0.0015571597032248974, 0.0016241749981418252, 0.001691190293058753, 0.001758205471560359, 0.0018252207664772868, 0.0018922360613942146, 0.0019592512398958206, 0.0020262666512280703, 0.0020932818297296762, 0.0021602970082312822, 0.002227312419563532, 0.002294327598065138]}, "gradients/graph_1mlp.0.weight": {"_type": "histogram", "values": [4.0, 5.0, 6.0, 3.0, 2.0, 0.0, 7.0, 5.0, 7.0, 7.0, 7.0, 21.0, 15.0, 28.0, 25.0, 27.0, 43.0, 48.0, 64.0, 71.0, 96.0, 111.0, 188.0, 253.0, 391.0, 578.0, 991.0, 2138.0, 4522.0, 2804.0, 1285.0, 633.0, 432.0, 296.0, 198.0, 167.0, 131.0, 82.0, 62.0, 44.0, 70.0, 50.0, 24.0, 24.0, 21.0, 31.0, 11.0, 23.0, 12.0, 12.0, 11.0, 7.0, 6.0, 4.0, 2.0, 4.0, 4.0, 2.0, 10.0, 2.0, 0.0, 0.0, 0.0, 1.0], "bins": [-0.0021777981892228127, -0.0021017498802393675, -0.002025701804086566, -0.0019496534951031208, -0.0018736053025349975, -0.0017975571099668741, -0.0017215089173987508, -0.0016454607248306274, -0.0015694124158471823, -0.001493364223279059, -0.0014173160307109356, -0.0013412678381428123, -0.001265219645574689, -0.0011891714530065656, -0.0011131231440231204, -0.001037074951454997, -0.0009610267588868737, -0.0008849785663187504, -0.0008089303155429661, -0.0007328821229748428, -0.0006568338721990585, -0.0005807856796309352, -0.0005047374870628119, -0.00042868926539085805, -0.00035264104371890426, -0.00027659282204695046, -0.0002005446149269119, -0.00012449640780687332, -4.8448186134919524e-05, 2.760002826107666e-05, 0.00010364824265707284, 0.0001796964497771114, 0.0002557446714490652, 0.000331792893121019, 0.0004078411147929728, 0.00048388930736109614, 0.0005599375581368804, 0.0006359857507050037, 0.0007120339432731271, 0.0007880821940489113, 0.0008641303866170347, 0.000940178579185158, 0.0010162268299609423, 0.0010922750225290656, 0.001168323215097189, 0.0012443714076653123, 0.0013204197166487575, 0.0013964679092168808, 0.0014725161017850041, 0.0015485642943531275, 0.0016246124869212508, 0.001700660795904696, 0.0017767089884728193, 0.0018527571810409427, 0.001928805373609066, 0.002004853682592511, 0.0020809017587453127, 0.002156950067728758, 0.0022329981438815594, 0.0023090464528650045, 0.0023850947618484497, 0.0024611428380012512, 0.0025371911469846964, 0.002613239223137498, 0.002689287532120943]}, "gradients/rgb_fn.2.bias": {"_type": "histogram", "values": [1.0, 0.0, 0.0, 0.0, 0.0, 0.0, 0.0, 0.0, 0.0, 0.0, 1.0, 0.0, 0.0, 0.0, 0.0, 0.0, 0.0, 0.0, 0.0, 0.0, 0.0, 0.0, 0.0, 0.0, 0.0, 0.0, 0.0, 0.0, 0.0, 0.0, 0.0, 0.0, 0.0, 0.0, 0.0, 0.0, 0.0, 0.0, 0.0, 0.0, 0.0, 0.0, 0.0, 0.0, 0.0, 0.0, 0.0, 0.0, 0.0, 0.0, 0.0, 0.0, 0.0, 0.0, 0.0, 0.0, 0.0, 0.0, 0.0, 0.0, 0.0, 0.0, 0.0, 1.0], "bins": [-0.0002971132635138929, -0.0002959462581202388, -0.0002947792527265847, -0.00029361224733293056, -0.00029244524193927646, -0.00029127823654562235, -0.00029011123115196824, -0.00028894422575831413, -0.00028777722036466, -0.0002866102149710059, -0.0002854432095773518, -0.0002842762041836977, -0.0002831091987900436, -0.0002819421933963895, -0.0002807751880027354, -0.00027960818260908127, -0.00027844117721542716, -0.0002772742009256035, -0.0002761071955319494, -0.0002749401901382953, -0.0002737731847446412, -0.0002726061793509871, -0.00027143917395733297, -0.00027027216856367886, -0.00026910516317002475, -0.00026793815777637064, -0.00026677115238271654, -0.00026560414698906243, -0.0002644371415954083, -0.0002632701362017542, -0.0002621031308081001, -0.000260936125414446, -0.0002597691200207919, -0.0002586021146271378, -0.00025743510923348367, -0.00025626810383982956, -0.00025510109844617546, -0.00025393409305252135, -0.00025276708765886724, -0.00025160008226521313, -0.000250433076871559, -0.0002492660714779049, -0.0002480990660842508, -0.0002469320606905967, -0.0002457650552969426, -0.0002445980499032885, -0.0002434310590615496, -0.0002422640536678955, -0.0002410970482742414, -0.00023993004288058728, -0.00023876303748693317, -0.00023759603209327906, -0.00023642902669962496, -0.00023526202130597085, -0.00023409501591231674, -0.00023292801051866263, -0.00023176101967692375, -0.00023059401428326964, -0.00022942700888961554, -0.00022826000349596143, -0.00022709299810230732, -0.0002259259927086532, -0.0002247589873149991, -0.000223591981921345, -0.0002224249765276909]}, "gradients/rgb_fn.2.weight": {"_type": "histogram", "values": [1.0, 0.0, 0.0, 0.0, 0.0, 0.0, 1.0, 0.0, 0.0, 0.0, 0.0, 0.0, 1.0, 1.0, 0.0, 4.0, 0.0, 1.0, 1.0, 2.0, 0.0, 1.0, 1.0, 1.0, 1.0, 1.0, 2.0, 0.0, 2.0, 3.0, 2.0, 1.0, 1.0, 1.0, 1.0, 2.0, 1.0, 1.0, 2.0, 4.0, 5.0, 3.0, 2.0, 0.0, 2.0, 1.0, 1.0, 4.0, 3.0, 2.0, 6.0, 3.0, 1.0, 3.0, 1.0, 3.0, 7.0, 5.0, 8.0, 15.0, 58.0, 183.0, 22.0, 6.0], "bins": [-0.00042772985761985183, -0.0004207450256217271, -0.0004137601936236024, -0.00040677536162547767, -0.00039979052962735295, -0.00039280569762922823, -0.0003858208656311035, -0.00037883600452914834, -0.0003718511725310236, -0.0003648663405328989, -0.0003578815085347742, -0.00035089667653664947, -0.00034391184453852475, -0.00033692701254040003, -0.0003299421805422753, -0.0003229573485441506, -0.00031597251654602587, -0.00030898768454790115, -0.00030200285254977643, -0.0002950180205516517, -0.00028803315944969654, -0.0002810483274515718, -0.0002740634954534471, -0.0002670786634553224, -0.00026009383145719767, -0.00025310899945907295, -0.00024612416746094823, -0.0002391393354628235, -0.0002321545034646988, -0.00022516965691465884, -0.00021818482491653413, -0.0002111999929184094, -0.00020421517547219992, -0.00019723032892215997, -0.00019024549692403525, -0.00018326066492591053, -0.00017627583292778581, -0.0001692910009296611, -0.00016230616893153638, -0.00015532132238149643, -0.0001483364903833717, -0.000141351658385247, -0.00013436682638712227, -0.00012738199438899755, -0.00012039715511491522, -0.0001134123231167905, -0.00010642749111866578, -9.944265184458345e-05, -9.245781984645873e-05, -8.547298784833401e-05, -7.848814857425168e-05, -7.150331657612696e-05, -6.451848457800224e-05, -5.753364894189872e-05, -5.054881330579519e-05, -4.3563981307670474e-05, -3.657914567156695e-05, -2.9594311854452826e-05, -2.2609478037338704e-05, -1.5624642401235178e-05, -8.639808584121056e-06, -1.6549743122595828e-06, 5.32985995960189e-06, 1.2314694686210714e-05, 1.9299528503324836e-05]}, "gradients/rgb_fn.0.bias": {"_type": "histogram", "values": [1.0, 0.0, 0.0, 0.0, 0.0, 1.0, 0.0, 1.0, 0.0, 0.0, 0.0, 0.0, 0.0, 0.0, 0.0, 0.0, 1.0, 1.0, 4.0, 2.0, 4.0, 2.0, 3.0, 8.0, 14.0, 44.0, 15.0, 9.0, 2.0, 4.0, 0.0, 1.0, 0.0, 2.0, 0.0, 0.0, 2.0, 1.0, 1.0, 0.0, 1.0, 0.0, 0.0, 0.0, 0.0, 0.0, 0.0, 1.0, 0.0, 0.0, 0.0, 1.0, 0.0, 1.0, 0.0, 0.0, 0.0, 0.0, 0.0, 0.0, 0.0, 0.0, 0.0, 1.0], "bins": [-8.041698310989887e-05, -7.729410572210327e-05, -7.417122833430767e-05, -7.104835094651207e-05, -6.792547355871648e-05, -6.480259617092088e-05, -6.167971878312528e-05, -5.8556841395329684e-05, -5.543396400753409e-05, -5.231108661973849e-05, -4.918820923194289e-05, -4.6065331844147295e-05, -4.29424544563517e-05, -3.98195770685561e-05, -3.66966996807605e-05, -3.3573822292964906e-05, -3.0450944905169308e-05, -2.732806751737371e-05, -2.4205190129578114e-05, -2.1082312741782516e-05, -1.795943535398692e-05, -1.4836557966191322e-05, -1.1713680578395724e-05, -8.590803190600127e-06, -5.46792580280453e-06, -2.3450484150089324e-06, 7.77828972786665e-07, 3.900706360582262e-06, 7.02358374837786e-06, 1.0146461136173457e-05, 1.3269338523969054e-05, 1.639221591176465e-05, 1.951509329956025e-05, 2.2637970687355846e-05, 2.5760848075151443e-05, 2.888372546294704e-05, 3.200660285074264e-05, 3.5129480238538235e-05, 3.825235762633383e-05, 4.137523501412943e-05, 4.449811240192503e-05, 4.7620989789720625e-05, 5.074386717751622e-05, 5.386674456531182e-05, 5.698962195310742e-05, 6.0112499340903014e-05, 6.323537672869861e-05, 6.635825411649421e-05, 6.94811315042898e-05, 7.26040088920854e-05, 7.5726886279881e-05, 7.88497636676766e-05, 8.19726410554722e-05, 8.509551844326779e-05, 8.821839583106339e-05, 9.134127321885899e-05, 9.446415060665458e-05, 9.758702799445018e-05, 0.00010070990538224578, 0.00010383278277004138, 0.00010695566015783697, 0.00011007853754563257, 0.00011320141493342817, 0.00011632429232122377, 0.00011944716970901936]}, "gradients/rgb_fn.0.weight": {"_type": "histogram", "values": [1.0, 0.0, 0.0, 2.0, 1.0, 0.0, 3.0, 2.0, 2.0, 4.0, 3.0, 4.0, 5.0, 4.0, 12.0, 12.0, 12.0, 15.0, 22.0, 20.0, 27.0, 46.0, 58.0, 71.0, 126.0, 167.0, 300.0, 768.0, 6819.0, 25694.0, 989.0, 354.0, 188.0, 123.0, 87.0, 61.0, 44.0, 32.0, 23.0, 19.0, 23.0, 10.0, 12.0, 10.0, 6.0, 7.0, 9.0, 6.0, 4.0, 2.0, 0.0, 5.0, 2.0, 1.0, 1.0, 0.0, 1.0, 2.0, 1.0, 1.0, 0.0, 0.0, 0.0, 1.0], "bins": [-0.0004313284298405051, -0.0004164975543972105, -0.0004016667080577463, -0.00038683583261445165, -0.00037200498627498746, -0.0003571741108316928, -0.00034234323538839817, -0.000327512389048934, -0.00031268151360563934, -0.00029785066726617515, -0.0002830197918228805, -0.00026818891637958586, -0.0002533580700401217, -0.00023852720914874226, -0.00022369633370544761, -0.0002088654728140682, -0.00019403461192268878, -0.00017920375103130937, -0.00016437289013992995, -0.0001495420146966353, -0.0001347111538052559, -0.00011988029291387647, -0.00010504943202249706, -9.021856385516003e-05, -7.538770296378061e-05, -6.055683843442239e-05, -4.5725973905064166e-05, -3.089511301368475e-05, -1.6064248484326527e-05, -1.2333848644630052e-06, 1.3597478755400516e-05, 2.8428341465769336e-05, 4.325920599512756e-05, 5.809007052448578e-05, 7.2920935053844e-05, 8.775179594522342e-05, 0.00010258266411256045, 0.00011741352500393987, 0.00013224438589531928, 0.0001470752467866987, 0.00016190612222999334, 0.00017673698312137276, 0.00019156784401275218, 0.0002063987049041316, 0.000221229565795511, 0.00023606042668689042, 0.00025089128757826984, 0.0002657221630215645, 0.00028055300936102867, 0.0002953838848043233, 0.00031021476024761796, 0.00032504560658708215, 0.0003398764820303768, 0.000354707328369841, 0.0003695382038131356, 0.00038436907925643027, 0.00039919992559589446, 0.0004140308010391891, 0.0004288616473786533, 0.00044369252282194793, 0.0004585233982652426, 0.00047335424460470676, 0.0004881851200480014, 0.000503015995491296, 0.0005178468418307602]}, "gradients/density_fn.0.bias": {"_type": "histogram", "values": [1.0], "bins": [-4.11194414482452e-05, -4.11194414482452e-05]}, "gradients/density_fn.0.weight": {"_type": "histogram", "values": [2.0, 0.0, 0.0, 0.0, 0.0, 1.0, 1.0, 0.0, 1.0, 2.0, 2.0, 4.0, 2.0, 3.0, 5.0, 3.0, 5.0, 2.0, 5.0, 6.0, 4.0, 7.0, 4.0, 5.0, 4.0, 11.0, 8.0, 11.0, 6.0, 9.0, 8.0, 7.0, 4.0, 14.0, 8.0, 11.0, 8.0, 7.0, 17.0, 10.0, 6.0, 6.0, 4.0, 5.0, 5.0, 5.0, 6.0, 5.0, 2.0, 1.0, 0.0, 0.0, 1.0, 1.0, 0.0, 1.0, 0.0, 0.0, 0.0, 0.0, 0.0, 0.0, 0.0, 1.0], "bins": [-3.55055344698485e-05, -3.434593600104563e-05, -3.318634117022157e-05, -3.20267427014187e-05, -3.086714423261583e-05, -2.9707547582802363e-05, -2.8547950932988897e-05, -2.738835428317543e-05, -2.6228757633361965e-05, -2.5069159164559096e-05, -2.390956251474563e-05, -2.2749965864932165e-05, -2.1590367396129295e-05, -2.043077074631583e-05, -1.9271174096502364e-05, -1.8111575627699494e-05, -1.695197897788603e-05, -1.5792382328072563e-05, -1.4632784768764395e-05, -1.3473187209456228e-05, -1.2313590559642762e-05, -1.1153993000334594e-05, -9.994395441026427e-06, -8.834798791212961e-06, -7.675201231904794e-06, -6.515604127343977e-06, -5.35600702278316e-06, -4.196409463474993e-06, -3.036812358914176e-06, -1.8772151406665216e-06, -7.176179224188672e-07, 4.4197929582878714e-07, 1.6015765140764415e-06, 2.761173618637258e-06, 3.920770723198075e-06, 5.080368282506242e-06, 6.239965387067059e-06, 7.399562491627876e-06, 8.559160050936043e-06, 9.718756700749509e-06, 1.0878354260057677e-05, 1.2037951819365844e-05, 1.319754846917931e-05, 1.4357146028487477e-05, 1.5516743587795645e-05, 1.667634023760911e-05, 1.7835936887422577e-05, 1.8995535356225446e-05, 2.015513200603891e-05, 2.1314728655852377e-05, 2.2474327124655247e-05, 2.3633923774468713e-05, 2.4793520424282178e-05, 2.5953118893085048e-05, 2.7112715542898513e-05, 2.827231219271198e-05, 2.943191066151485e-05, 3.059150549233891e-05, 3.175110396114178e-05, 3.291070242994465e-05, 3.407029726076871e-05, 3.522989572957158e-05, 3.638949419837445e-05, 3.754908902919851e-05, 3.870868749800138e-05]}, "gradients/feature_fn.4.bias": {"_type": "histogram", "values": [2.0, 0.0, 0.0, 0.0, 0.0, 2.0, 1.0, 1.0, 3.0, 0.0, 0.0, 2.0, 2.0, 1.0, 3.0, 8.0, 5.0, 7.0, 4.0, 7.0, 16.0, 13.0, 15.0, 11.0, 13.0, 7.0, 11.0, 11.0, 7.0, 9.0, 21.0, 7.0, 5.0, 6.0, 15.0, 9.0, 5.0, 3.0, 4.0, 5.0, 0.0, 3.0, 2.0, 3.0, 0.0, 0.0, 0.0, 1.0, 0.0, 0.0, 1.0, 0.0, 1.0, 0.0, 0.0, 2.0, 0.0, 0.0, 0.0, 0.0, 1.0, 0.0, 0.0, 1.0], "bins": [-9.278658399125561e-05, -8.941139094531536e-05, -8.603620517533273e-05, -8.266101212939247e-05, -7.928581908345222e-05, -7.591063331346959e-05, -7.253544026752934e-05, -6.91602544975467e-05, -6.578506145160645e-05, -6.24098684056662e-05, -5.9034682635683566e-05, -5.5659489589743316e-05, -5.228430018178187e-05, -4.890911077382043e-05, -4.553391772788018e-05, -4.215872831991874e-05, -3.8783538911957294e-05, -3.540834950399585e-05, -3.203316009603441e-05, -2.8657967050094157e-05, -2.5282777642132714e-05, -2.190758823417127e-05, -1.8532397007220425e-05, -1.515720668976428e-05, -1.1782016372308135e-05, -8.40682605485199e-06, -5.031635737395845e-06, -1.6564454199397005e-06, 1.7187448975164443e-06, 5.093935214972589e-06, 8.469125532428734e-06, 1.1844315849884879e-05, 1.5219513443298638e-05, 1.859470285126008e-05, 2.1969894078210928e-05, 2.5345085305161774e-05, 2.8720274713123217e-05, 3.209546412108466e-05, 3.547065716702491e-05, 3.8845846574986354e-05, 4.2221035982947797e-05, 4.559622539090924e-05, 4.897141479887068e-05, 5.234660784481093e-05, 5.5721797252772376e-05, 5.909698666073382e-05, 6.247217970667407e-05, 6.58473654766567e-05, 6.922255852259696e-05, 7.25977515685372e-05, 7.597293733851984e-05, 7.934813038446009e-05, 8.272331615444273e-05, 8.609850920038298e-05, 8.947370224632323e-05, 9.284888801630586e-05, 9.622408106224611e-05, 9.959927410818636e-05, 0.000102974459878169, 0.00010634965292410925, 0.0001097248459700495, 0.00011310003174003214, 0.00011647522478597239, 0.00011985041055595502, 0.00012322560360189527]}, "gradients/feature_fn.4.weight": {"_type": "histogram", "values": [2.0, 3.0, 2.0, 2.0, 2.0, 4.0, 5.0, 5.0, 13.0, 17.0, 20.0, 29.0, 31.0, 39.0, 56.0, 65.0, 113.0, 144.0, 181.0, 279.0, 416.0, 583.0, 922.0, 1716.0, 3149.0, 7664.0, 28584.0, 12373.0, 4033.0, 1930.0, 1042.0, 640.0, 402.0, 270.0, 196.0, 118.0, 99.0, 82.0, 61.0, 29.0, 32.0, 35.0, 30.0, 26.0, 20.0, 11.0, 13.0, 8.0, 4.0, 3.0, 5.0, 3.0, 5.0, 5.0, 3.0, 3.0, 3.0, 4.0, 1.0, 0.0, 0.0, 0.0, 0.0, 1.0], "bins": [-5.910448089707643e-05, -5.6895507441367954e-05, -5.468653398565948e-05, -5.2477560529951006e-05, -5.026858707424253e-05, -4.805960998055525e-05, -4.585063652484678e-05, -4.3641663069138303e-05, -4.143268961342983e-05, -3.9223716157721356e-05, -3.701474270201288e-05, -3.480576924630441e-05, -3.259679215261713e-05, -3.0387820515898056e-05, -2.817884524120018e-05, -2.5969871785491705e-05, -2.376089832978323e-05, -2.1551924874074757e-05, -1.9342951418366283e-05, -1.7133976143668406e-05, -1.4925002687959932e-05, -1.2716029232251458e-05, -1.0507054867048282e-05, -8.298080501845106e-06, -6.0891070461366326e-06, -3.880133135680808e-06, -1.671159225224983e-06, 5.378146852308419e-07, 2.7467885956866667e-06, 4.9557625061424915e-06, 7.164736416598316e-06, 9.373710781801492e-06, 1.158269151346758e-05, 1.3791664969176054e-05, 1.6000638424884528e-05, 1.8209613699582405e-05, 2.041858715529088e-05, 2.2627560610999353e-05, 2.483653588569723e-05, 2.7045509341405705e-05, 2.925448279711418e-05, 3.146345625282265e-05, 3.3672429708531126e-05, 3.58814031642396e-05, 3.809038025792688e-05, 4.0299353713635355e-05, 4.250832716934383e-05, 4.47173006250523e-05, 4.692627408076078e-05, 4.913524753646925e-05, 5.1344220992177725e-05, 5.35531944478862e-05, 5.576216790359467e-05, 5.7971144997281954e-05, 6.018011845299043e-05, 6.23890882707201e-05, 6.459806172642857e-05, 6.680704245809466e-05, 6.901601591380313e-05, 7.12249893695116e-05, 7.343396282522008e-05, 7.564293628092855e-05, 7.785190973663703e-05, 8.00608831923455e-05, 8.226985664805397e-05]}, "gradients/feature_fn.2.bias": {"_type": "histogram", "values": [1.0, 0.0, 2.0, 1.0, 2.0, 1.0, 0.0, 1.0, 1.0, 1.0, 4.0, 1.0, 2.0, 1.0, 3.0, 5.0, 10.0, 3.0, 6.0, 4.0, 10.0, 9.0, 8.0, 10.0, 15.0, 10.0, 10.0, 27.0, 19.0, 11.0, 12.0, 10.0, 10.0, 12.0, 7.0, 2.0, 4.0, 2.0, 2.0, 4.0, 1.0, 2.0, 0.0, 2.0, 1.0, 1.0, 1.0, 0.0, 0.0, 0.0, 0.0, 1.0, 0.0, 0.0, 0.0, 2.0, 0.0, 0.0, 1.0, 0.0, 0.0, 0.0, 0.0, 1.0], "bins": [-0.00021225554519332945, -0.00020462246902752668, -0.00019698940741363913, -0.00018935633124783635, -0.0001817232696339488, -0.00017409019346814603, -0.00016645711730234325, -0.0001588240556884557, -0.00015119097952265292, -0.00014355790335685015, -0.0001359248417429626, -0.00012829176557715982, -0.00012065869668731466, -0.0001130256277974695, -0.00010539255163166672, -9.775948274182156e-05, -9.01264138519764e-05, -8.249334496213123e-05, -7.486027607228607e-05, -6.722719990648329e-05, -5.959413101663813e-05, -5.196106212679297e-05, -4.4327989598969e-05, -3.669491707114503e-05, -2.9061848181299865e-05, -2.14287774724653e-05, -1.3795706763630733e-05, -6.162636054796167e-06, 1.4704346540383995e-06, 9.103505362872966e-06, 1.6736576071707532e-05, 2.4369646780542098e-05, 3.200268838554621e-05, 3.963575727539137e-05, 4.726882980321534e-05, 5.490190233103931e-05, 6.253497122088447e-05, 7.016804011072963e-05, 7.780111627653241e-05, 8.543418516637757e-05, 9.306725405622274e-05, 0.0001007003229460679, 0.00010833339183591306, 0.00011596646800171584, 0.00012359954416751862, 0.00013123260578140616, 0.00013886568194720894, 0.0001464987435610965, 0.00015413181972689927, 0.00016176489589270204, 0.0001693979575065896, 0.00017703103367239237, 0.00018466409528627992, 0.0001922971714520827, 0.00019993024761788547, 0.00020756330923177302, 0.0002151963853975758, 0.00022282946156337857, 0.00023046252317726612, 0.0002380955993430689, 0.0002457286755088717, 0.0002533617371227592, 0.00026099479873664677, 0.0002686278894543648, 0.0002762609510682523]}, "gradients/feature_fn.2.weight": {"_type": "histogram", "values": [3.0, 0.0, 1.0, 2.0, 2.0, 2.0, 5.0, 5.0, 7.0, 11.0, 8.0, 8.0, 11.0, 15.0, 13.0, 16.0, 19.0, 32.0, 38.0, 62.0, 68.0, 102.0, 153.0, 183.0, 285.0, 476.0, 802.0, 1553.0, 3211.0, 8075.0, 34722.0, 9284.0, 3126.0, 1295.0, 705.0, 382.0, 226.0, 163.0, 113.0, 85.0, 79.0, 54.0, 27.0, 21.0, 26.0, 10.0, 15.0, 9.0, 7.0, 7.0, 2.0, 1.0, 0.0, 1.0, 2.0, 1.0, 0.0, 1.0, 2.0, 0.0, 0.0, 0.0, 0.0, 2.0], "bins": [-0.0002058428799500689, -0.0001991078897845, -0.00019237289961893111, -0.000185637894901447, -0.0001789029047358781, -0.00017216791457030922, -0.00016543292440474033, -0.00015869793423917145, -0.00015196294407360256, -0.00014522793935611844, -0.00013849294919054955, -0.00013175795902498066, -0.00012502296885941178, -0.00011828797141788527, -0.00011155298125231639, -0.00010481798381078988, -9.8082993645221e-05, -9.13480034796521e-05, -8.46130060381256e-05, -7.787801587255672e-05, -7.114301843103021e-05, -6.440802826546133e-05, -5.767303809989244e-05, -5.093804429634474e-05, -4.420305049279705e-05, -3.746805668924935e-05, -3.0733062885701656e-05, -2.3998072720132768e-05, -1.7263078916585073e-05, -1.052808602253208e-05, -3.793093128479086e-06, 2.9418997655739076e-06, 9.67690721154213e-06, 1.6411901015089825e-05, 2.3146892999648117e-05, 2.9881884984206408e-05, 3.6616878787754104e-05, 4.33518725913018e-05, 5.008686275687069e-05, 5.682185656041838e-05, 6.355685036396608e-05, 7.029184052953497e-05, 7.702683797106147e-05, 8.376182813663036e-05, 9.049681830219924e-05, 9.723181574372575e-05, 0.00010396680590929464, 0.00011070180335082114, 0.00011743679351639003, 0.00012417178368195891, 0.0001309067738475278, 0.00013764177856501192, 0.0001443767687305808, 0.0001511117588961497, 0.00015784674906171858, 0.00016458173922728747, 0.00017131672939285636, 0.00017805173411034048, 0.00018478672427590936, 0.00019152171444147825, 0.00019825670460704714, 0.00020499169477261603, 0.00021172669949010015, 0.00021846168965566903, 0.00022519667982123792]}, "gradients/feature_fn.0.bias": {"_type": "histogram", "values": [1.0, 0.0, 0.0, 0.0, 0.0, 2.0, 0.0, 1.0, 0.0, 1.0, 0.0, 3.0, 0.0, 1.0, 3.0, 1.0, 4.0, 6.0, 16.0, 5.0, 4.0, 10.0, 22.0, 20.0, 20.0, 21.0, 16.0, 17.0, 19.0, 8.0, 8.0, 2.0, 4.0, 6.0, 4.0, 1.0, 5.0, 3.0, 2.0, 3.0, 0.0, 1.0, 3.0, 2.0, 0.0, 1.0, 1.0, 2.0, 2.0, 0.0, 0.0, 1.0, 0.0, 0.0, 0.0, 0.0, 0.0, 1.0, 1.0, 0.0, 0.0, 0.0, 1.0, 1.0], "bins": [-0.00029699417063966393, -0.0002855677157640457, -0.0002741412608884275, -0.00026271483511663973, -0.0002512883802410215, -0.0002398619253654033, -0.0002284354850417003, -0.00021700903016608208, -0.0002055825898423791, -0.00019415613496676087, -0.00018272968009114265, -0.00017130323976743966, -0.00015987678489182144, -0.00014845034456811845, -0.00013702388969250023, -0.00012559744936879724, -0.00011417099449317902, -0.00010274454689351842, -9.131809929385781e-05, -7.989165169419721e-05, -6.84652040945366e-05, -5.703875285689719e-05, -4.561230161925778e-05, -3.418585401959717e-05, -2.2759406419936568e-05, -1.133295791078126e-05, 9.349059837404639e-08, 1.1519939107529353e-05, 2.294638761668466e-05, 3.4372835216345266e-05, 4.579928645398468e-05, 5.722573405364528e-05, 6.865218165330589e-05, 8.00786292529665e-05, 9.15050768526271e-05, 0.0001029315244522877, 0.00011435797205194831, 0.00012578442692756653, 0.00013721086725126952, 0.00014863732212688774, 0.00016006376245059073, 0.00017149021732620895, 0.00018291667220182717, 0.00019434311252553016, 0.00020576956740114838, 0.00021719600772485137, 0.0002286224626004696, 0.00024004890292417258, 0.00025147537235170603, 0.0002629017981234938, 0.000274328252999112, 0.00028575470787473023, 0.00029718116275034845, 0.0003086075885221362, 0.00032003404339775443, 0.00033146049827337265, 0.00034288695314899087, 0.0003543134080246091, 0.00036573983379639685, 0.00037716628867201507, 0.0003885927435476333, 0.0004000191984232515, 0.00041144562419503927, 0.0004228720790706575, 0.0004342985339462757]}, "gradients/feature_fn.0.weight": {"_type": "histogram", "values": [1.0, 1.0, 0.0, 1.0, 0.0, 0.0, 2.0, 2.0, 0.0, 4.0, 4.0, 5.0, 6.0, 5.0, 10.0, 14.0, 17.0, 26.0, 36.0, 37.0, 39.0, 62.0, 79.0, 76.0, 137.0, 177.0, 207.0, 329.0, 459.0, 623.0, 1016.0, 1891.0, 4296.0, 61281.0, 5071.0, 1926.0, 1161.0, 761.0, 462.0, 297.0, 226.0, 201.0, 131.0, 119.0, 89.0, 61.0, 60.0, 58.0, 35.0, 35.0, 28.0, 23.0, 15.0, 7.0, 10.0, 10.0, 9.0, 2.0, 11.0, 5.0, 2.0, 3.0, 1.0, 2.0], "bins": [-0.0004712622903753072, -0.0004572336911223829, -0.00044320509186945856, -0.00042917649261653423, -0.00041514792246744037, -0.00040111932321451604, -0.0003870907239615917, -0.0003730621247086674, -0.0003590335254557431, -0.00034500492620281875, -0.00033097632694989443, -0.0003169477276969701, -0.0003029191284440458, -0.0002888905582949519, -0.0002748619590420276, -0.00026083335978910327, -0.00024680476053617895, -0.00023277616128325462, -0.0002187475620303303, -0.0002047189773293212, -0.00019069037807639688, -0.00017666177882347256, -0.00016263319412246346, -0.00014860459486953914, -0.00013457599561661482, -0.0001205473963636905, -0.00010651880438672379, -9.249021240975708e-05, -7.846161315683275e-05, -6.443301390390843e-05, -5.040442192694172e-05, -3.637582631199621e-05, -2.2347201593220234e-05, -8.318605978274718e-06, 5.709989636670798e-06, 1.9738585251616314e-05, 3.376718086656183e-05, 4.7795776481507346e-05, 6.182437209645286e-05, 7.585296407341957e-05, 8.98815633263439e-05, 0.00010391016257926822, 0.00011793875455623493, 0.00013196734653320163, 0.00014599594578612596, 0.00016002454503905028, 0.00017405312974005938, 0.0001880817289929837, 0.00020211032824590802, 0.00021613892749883235, 0.00023016752675175667, 0.000244196126004681, 0.0002582247252576053, 0.0002722532954066992, 0.0002862818946596235, 0.0003003104939125478, 0.00031433909316547215, 0.0003283676924183965, 0.0003423962916713208, 0.0003564248909242451, 0.000370453461073339, 0.0003844820603262633, 0.00039851065957918763, 0.00041253925883211195, 0.0004265678580850363]}, "gradients/mlp.6.bias": {"_type": "histogram", "values": [1.0, 0.0, 2.0, 1.0, 0.0, 1.0, 0.0, 1.0, 1.0, 0.0, 1.0, 1.0, 7.0, 4.0, 3.0, 7.0, 12.0, 6.0, 4.0, 12.0, 16.0, 12.0, 24.0, 57.0, 9.0, 13.0, 11.0, 9.0, 4.0, 4.0, 2.0, 5.0, 1.0, 3.0, 2.0, 2.0, 2.0, 3.0, 1.0, 1.0, 0.0, 3.0, 0.0, 2.0, 1.0, 2.0, 0.0, 0.0, 0.0, 1.0, 0.0, 0.0, 0.0, 0.0, 0.0, 1.0, 0.0, 0.0, 0.0, 0.0, 0.0, 0.0, 0.0, 1.0], "bins": [-0.00021966075291857123, -0.00021014042431488633, -0.00020062009571120143, -0.00019109976710751653, -0.00018157943850383162, -0.0001720590953482315, -0.0001625387667445466, -0.0001530184381408617, -0.0001434981095371768, -0.00013397778093349189, -0.00012445745232980698, -0.00011493711645016447, -0.00010541678784647956, -9.589645924279466e-05, -8.637612336315215e-05, -7.685579475946724e-05, -6.733546615578234e-05, -5.781513755209744e-05, -4.829480531043373e-05, -3.877447306877002e-05, -2.925414446508512e-05, -1.9733814042410813e-05, -1.0213483619736508e-05, -6.931531970622018e-07, 8.827177225612104e-06, 1.834750764828641e-05, 2.7867838070960715e-05, 3.7388170312624425e-05, 4.690849891630933e-05, 5.642882751999423e-05, 6.594916339963675e-05, 7.546949200332165e-05, 8.498979150317609e-05, 9.4510120106861e-05, 0.0001040304487105459, 0.00011355078459018841, 0.0001230711059179157, 0.00013259144907351583, 0.00014211177767720073, 0.00015163210628088564, 0.00016115243488457054, 0.00017067276348825544, 0.00018019309209194034, 0.00018971342069562525, 0.00019923376385122538, 0.00020875409245491028, 0.00021827442105859518, 0.00022779474966228008, 0.00023731507826596498, 0.0002468354068696499, 0.0002563557354733348, 0.0002658760640770197, 0.0002753963926807046, 0.0002849167212843895, 0.0002944370498880744, 0.0003039573784917593, 0.0003134777070954442, 0.00032299806480295956, 0.00033251839340664446, 0.00034203872201032937, 0.00035155905061401427, 0.00036107937921769917, 0.00037059970782138407, 0.000380120036425069, 0.0003896403650287539]}, "gradients/mlp.6.weight": {"_type": "histogram", "values": [2.0, 0.0, 0.0, 1.0, 0.0, 2.0, 2.0, 0.0, 0.0, 5.0, 8.0, 4.0, 4.0, 7.0, 9.0, 22.0, 20.0, 29.0, 29.0, 40.0, 54.0, 110.0, 116.0, 198.0, 313.0, 550.0, 1190.0, 2945.0, 14834.0, 39010.0, 2738.0, 1122.0, 582.0, 421.0, 313.0, 229.0, 145.0, 112.0, 80.0, 46.0, 48.0, 29.0, 36.0, 24.0, 15.0, 14.0, 11.0, 7.0, 8.0, 10.0, 3.0, 11.0, 4.0, 9.0, 4.0, 1.0, 2.0, 0.0, 3.0, 0.0, 0.0, 2.0, 1.0, 2.0], "bins": [-0.00013033684808760881, -0.00012585168587975204, -0.0001213665382238105, -0.00011688137601595372, -0.00011239622108405456, -0.0001079110661521554, -0.00010342590394429862, -9.894074901239946e-05, -9.44555940805003e-05, -8.997043914860114e-05, -8.548528421670198e-05, -8.100012200884521e-05, -7.651496707694605e-05, -7.202981214504689e-05, -6.754464993719012e-05, -6.305949500529096e-05, -5.8574340073391795e-05, -5.4089185141492635e-05, -4.960402657161467e-05, -4.51188680017367e-05, -4.063371306983754e-05, -3.614855813793838e-05, -3.166339956806041e-05, -2.717824281717185e-05, -2.2693086066283286e-05, -1.8207929315394722e-05, -1.3722772564506158e-05, -9.237615813617595e-06, -4.752459062729031e-06, -2.6730231184046715e-07, 4.2178544390480965e-06, 8.70301118993666e-06, 1.3188167940825224e-05, 1.7673324691713788e-05, 2.215848144260235e-05, 2.6643638193490915e-05, 3.112879494437948e-05, 3.561394987627864e-05, 4.0099108446156606e-05, 4.458426701603457e-05, 4.9069421947933733e-05, 5.3554576879832894e-05, 5.803973544971086e-05, 6.252489401958883e-05, 6.701004895148799e-05, 7.149520388338715e-05, 7.598036609124392e-05, 8.046552102314308e-05, 8.495067595504224e-05, 8.94358308869414e-05, 9.392098581884056e-05, 9.840614802669734e-05, 0.0001028913029585965, 0.00010737645789049566, 0.00011186162009835243, 0.00011634677503025159, 0.00012083192996215075, 0.00012531709217000753, 0.00012980223982594907, 0.00013428740203380585, 0.00013877256424166262, 0.00014325771189760417, 0.00014774287410546094, 0.0001522280217614025, 0.00015671318396925926]}, "gradients/mlp.4.bias": {"_type": "histogram", "values": [1.0, 1.0, 1.0, 2.0, 3.0, 0.0, 6.0, 2.0, 4.0, 3.0, 4.0, 6.0, 14.0, 12.0, 25.0, 29.0, 58.0, 29.0, 21.0, 9.0, 4.0, 5.0, 2.0, 2.0, 3.0, 3.0, 1.0, 0.0, 0.0, 1.0, 0.0, 1.0, 0.0, 0.0, 2.0, 0.0, 0.0, 0.0, 0.0, 0.0, 0.0, 1.0, 0.0, 0.0, 0.0, 0.0, 0.0, 0.0, 0.0, 0.0, 0.0, 0.0, 0.0, 0.0, 0.0, 0.0, 0.0, 0.0, 0.0, 0.0, 0.0, 0.0, 0.0, 1.0], "bins": [-0.0005090483464300632, -0.00047792642726562917, -0.0004468045081011951, -0.00041568255983293056, -0.0003845606406684965, -0.0003534387215040624, -0.0003223167732357979, -0.0002911948540713638, -0.00026007293490692973, -0.00022895101574249566, -0.00019782908202614635, -0.00016670714830979705, -0.00013558522914536297, -0.00010446330270497128, -7.33413762645796e-05, -4.2219449824187905e-05, -1.1097523383796215e-05, 2.0024403056595474e-05, 5.1146329496987164e-05, 8.226825593737885e-05, 0.00011339018237777054, 0.00014451210154220462, 0.00017563403525855392, 0.00020675596897490323, 0.0002378778881393373, 0.0002689998073037714, 0.00030012172646820545, 0.00033124367473647, 0.00036236559390090406, 0.00039348751306533813, 0.00042460946133360267, 0.00045573138049803674, 0.00048685341607779264, 0.0005179753643460572, 0.0005490972544066608, 0.0005802192026749253, 0.000611341092735529, 0.0006424630410037935, 0.000673584989272058, 0.0007047068793326616, 0.0007358288276009262, 0.0007669507758691907, 0.0007980726659297943, 0.0008291946141980588, 0.0008603165624663234, 0.000891438452526927, 0.0009225604007951915, 0.0009536822908557951, 0.0009848042391240597, 0.0010159261291846633, 0.0010470481356605887, 0.0010781700257211924, 0.001109291915781796, 0.0011404139222577214, 0.001171535812318325, 0.0012026577023789287, 0.0012337795924395323, 0.0012649015989154577, 0.0012960234889760613, 0.001327145379036665, 0.0013582673855125904, 0.001389389275573194, 0.0014205111656337976, 0.001451633172109723, 0.0014827550621703267]}, "gradients/mlp.4.weight": {"_type": "histogram", "values": [2.0, 1.0, 1.0, 1.0, 2.0, 2.0, 5.0, 8.0, 6.0, 7.0, 20.0, 24.0, 46.0, 69.0, 105.0, 177.0, 378.0, 1020.0, 6025.0, 54567.0, 1856.0, 569.0, 229.0, 122.0, 83.0, 47.0, 39.0, 34.0, 16.0, 12.0, 16.0, 5.0, 9.0, 3.0, 2.0, 7.0, 5.0, 3.0, 1.0, 2.0, 0.0, 0.0, 1.0, 0.0, 2.0, 1.0, 3.0, 0.0, 0.0, 0.0, 0.0, 0.0, 0.0, 0.0, 0.0, 0.0, 1.0, 0.0, 0.0, 0.0, 1.0, 0.0, 0.0, 1.0], "bins": [-0.00042473486973904073, -0.00040269261808134615, -0.0003806503664236516, -0.000358608114765957, -0.0003365658631082624, -0.00031452361145056784, -0.00029248135979287326, -0.0002704391081351787, -0.0002483968564774841, -0.00022635460481978953, -0.00020431235316209495, -0.00018227010150440037, -0.0001602278498467058, -0.00013818559818901122, -0.00011614334653131664, -9.410109487362206e-05, -7.205884321592748e-05, -5.0016591558232903e-05, -2.7974339900538325e-05, -5.932088242843747e-06, 1.611016341485083e-05, 3.815241507254541e-05, 6.019466673023999e-05, 8.223691838793457e-05, 0.00010427917004562914, 0.00012632142170332372, 0.0001483636733610183, 0.00017040592501871288, 0.00019244817667640746, 0.00021449042833410203, 0.0002365326799917966, 0.0002585749316494912, 0.0002806171542033553, 0.0003026594058610499, 0.00032470165751874447, 0.00034674390917643905, 0.0003687861608341336, 0.0003908284124918282, 0.0004128706641495228, 0.00043491291580721736, 0.00045695516746491194, 0.0004789974191226065, 0.0005010396707803011, 0.0005230819224379957, 0.0005451241740956903, 0.0005671664257533848, 0.0005892086774110794, 0.000611250929068774, 0.0006332931807264686, 0.0006553354323841631, 0.0006773776840418577, 0.0006994199356995523, 0.0007214621873572469, 0.0007435044390149415, 0.000765546690672636, 0.0007875889423303306, 0.0008096311939880252, 0.0008316734456457198, 0.0008537156973034143, 0.0008757579489611089, 0.0008978002006188035, 0.0009198424522764981, 0.0009418847039341927, 0.0009639269555918872, 0.0009859692072495818]}, "gradients/mlp.2.bias": {"_type": "histogram", "values": [1.0, 0.0, 0.0, 0.0, 0.0, 0.0, 0.0, 0.0, 0.0, 0.0, 0.0, 0.0, 0.0, 0.0, 0.0, 0.0, 1.0, 0.0, 0.0, 0.0, 0.0, 1.0, 0.0, 0.0, 0.0, 1.0, 0.0, 0.0, 2.0, 1.0, 4.0, 3.0, 1.0, 6.0, 12.0, 17.0, 41.0, 70.0, 37.0, 10.0, 7.0, 14.0, 5.0, 3.0, 3.0, 2.0, 2.0, 1.0, 0.0, 3.0, 0.0, 2.0, 0.0, 1.0, 0.0, 1.0, 0.0, 1.0, 0.0, 0.0, 2.0, 0.0, 0.0, 1.0], "bins": [-0.0017973913345485926, -0.0017492416081950068, -0.0017010917654260993, -0.0016529420390725136, -0.001604792196303606, -0.0015566424699500203, -0.0015084926271811128, -0.001460342900827527, -0.0014121930580586195, -0.0013640433317050338, -0.001315893605351448, -0.0012677437625825405, -0.0012195940362289548, -0.0011714441934600472, -0.0011232944671064615, -0.001075144624337554, -0.0010269948979839683, -0.0009788451716303825, -0.000930695328861475, -0.0008825455443002284, -0.0008343957597389817, -0.000786246033385396, -0.0007380962488241494, -0.0006899464642629027, -0.0006417966797016561, -0.0005936468951404095, -0.0005454971105791628, -0.0004973473260179162, -0.0004491975705605, -0.0004010477859992534, -0.0003528980305418372, -0.0003047482459805906, -0.00025659846141934395, -0.00020844867685809731, -0.0001602989068487659, -0.00011214912956347689, -6.399935227818787e-05, -1.584957499289885e-05, 3.230020229239017e-05, 8.044997957767919e-05, 0.0001285997568629682, 0.00017674954142421484, 0.00022489931143354625, 0.00027304908144287765, 0.0003211988660041243, 0.0003693486505653709, 0.0004174984060227871, 0.00046564819058403373, 0.0005137979751452804, 0.000561947759706527, 0.0006100975442677736, 0.0006582473288290203, 0.0007063971133902669, 0.0007545468397438526, 0.0008026966243050992, 0.0008508464088663459, 0.0008989961934275925, 0.0009471459779888391, 0.0009952957043424249, 0.0010434455471113324, 0.0010915952734649181, 0.0011397451162338257, 0.0011878948425874114, 0.001236044685356319, 0.0012841944117099047]}, "gradients/mlp.2.weight": {"_type": "histogram", "values": [1.0, 0.0, 0.0, 0.0, 0.0, 0.0, 0.0, 0.0, 2.0, 0.0, 1.0, 2.0, 1.0, 1.0, 3.0, 1.0, 0.0, 3.0, 0.0, 5.0, 5.0, 4.0, 3.0, 10.0, 8.0, 7.0, 8.0, 16.0, 26.0, 37.0, 64.0, 89.0, 254.0, 493.0, 1558.0, 19056.0, 39482.0, 2104.0, 947.0, 461.0, 263.0, 150.0, 115.0, 82.0, 72.0, 41.0, 51.0, 27.0, 16.0, 14.0, 11.0, 12.0, 11.0, 2.0, 5.0, 2.0, 4.0, 1.0, 1.0, 1.0, 0.0, 0.0, 1.0, 2.0], "bins": [-0.0018097413703799248, -0.0017595052486285567, -0.0017092691268771887, -0.0016590330051258206, -0.0016087967669591308, -0.0015585606452077627, -0.0015083245234563947, -0.0014580884017050266, -0.0014078522799536586, -0.0013576161582022905, -0.0013073799200356007, -0.0012571437982842326, -0.0012069076765328646, -0.0011566715547814965, -0.0011064354330301285, -0.0010561993112787604, -0.0010059631895273924, -0.0009557270095683634, -0.0009054908296093345, -0.0008552547078579664, -0.0008050185861065984, -0.0007547824061475694, -0.0007045462843962014, -0.0006543101626448333, -0.0006040739826858044, -0.0005538378609344363, -0.0005036017391830683, -0.0004533655883278698, -0.00040312943747267127, -0.0003528933157213032, -0.0003026571648661047, -0.0002524210431147367, -0.00020218489225953817, -0.0001519487559562549, -0.00010171261237701401, -5.147647243575193e-05, -1.2403324944898486e-06, 4.899580744677223e-05, 9.923194738803431e-05, 0.0001494680909672752, 0.00019970422727055848, 0.000249940378125757, 0.000300176499877125, 0.00035041265073232353, 0.00040064880158752203, 0.0004508849233388901, 0.0005011210450902581, 0.0005513572250492871, 0.0006015933468006551, 0.0006518294685520232, 0.0007020656485110521, 0.0007523017702624202, 0.0008025378920137882, 0.0008527740719728172, 0.0009030101937241852, 0.0009532463154755533, 0.0010034824954345822, 0.0010537186171859503, 0.0011039547389373183, 0.0011541908606886864, 0.0012044269824400544, 0.0012546632206067443, 0.0013048993423581123, 0.0013551354641094804, 0.0014053715858608484]}, "gradients/mlp.0.bias": {"_type": "histogram", "values": [1.0, 1.0, 0.0, 1.0, 0.0, 2.0, 1.0, 5.0, 2.0, 4.0, 6.0, 5.0, 7.0, 4.0, 9.0, 10.0, 16.0, 13.0, 22.0, 27.0, 35.0, 15.0, 8.0, 12.0, 8.0, 7.0, 5.0, 4.0, 2.0, 5.0, 4.0, 0.0, 2.0, 1.0, 1.0, 2.0, 0.0, 2.0, 2.0, 1.0, 1.0, 0.0, 1.0, 0.0, 0.0, 0.0, 0.0, 0.0, 0.0, 0.0, 0.0, 0.0, 0.0, 0.0, 0.0, 0.0, 0.0, 1.0, 0.0, 0.0, 0.0, 0.0, 0.0, 1.0], "bins": [-0.0008795487228780985, -0.000834438600577414, -0.0007893284782767296, -0.0007442182977683842, -0.0006991081754676998, -0.0006539980531670153, -0.0006088879308663309, -0.0005637778085656464, -0.000518667628057301, -0.00047355753486044705, -0.00042844738345593214, -0.0003833372611552477, -0.00033822713885456324, -0.00029311698745004833, -0.0002480068651493639, -0.0002028967282967642, -0.00015778659144416451, -0.00011267645459156483, -6.756632501492277e-05, -2.2456191800301895e-05, 2.265394141431898e-05, 6.776407826691866e-05, 0.00011287420784356073, 0.0001579843374202028, 0.00020309447427280247, 0.0002482045965734869, 0.00029331474797800183, 0.0003384248702786863, 0.00038353499257937074, 0.00042864514398388565, 0.0004737552662845701, 0.000518865417689085, 0.0005639755399897695, 0.0006090856622904539, 0.0006541957845911384, 0.0006993059650994837, 0.0007444160874001682, 0.0007895262097008526, 0.0008346363320015371, 0.0008797464543022215, 0.0009248566348105669, 0.0009699667571112514, 0.0010150768794119358, 0.0010601870017126203, 0.0011052971240133047, 0.0011504072463139892, 0.0011955173686146736, 0.001240627490915358, 0.0012857376132160425, 0.0013308478519320488, 0.0013759579742327332, 0.0014210680965334177, 0.0014661782188341022, 0.0015112883411347866, 0.001556398463435471, 0.0016015085857361555, 0.00164661870803684, 0.0016917288303375244, 0.0017368389526382089, 0.0017819491913542151, 0.0018270593136548996, 0.001872169435955584, 0.0019172795582562685, 0.001962389564141631, 0.0020074998028576374]}, "gradients/mlp.0.weight": {"_type": "histogram", "values": [1.0, 0.0, 2.0, 1.0, 2.0, 1.0, 1.0, 0.0, 3.0, 1.0, 1.0, 2.0, 6.0, 0.0, 5.0, 8.0, 7.0, 20.0, 23.0, 23.0, 44.0, 56.0, 111.0, 141.0, 198.0, 323.0, 449.0, 685.0, 1068.0, 1960.0, 4039.0, 2905.0, 1447.0, 821.0, 546.0, 367.0, 242.0, 160.0, 110.0, 76.0, 47.0, 39.0, 53.0, 28.0, 26.0, 14.0, 14.0, 3.0, 5.0, 4.0, 4.0, 1.0, 3.0, 2.0, 1.0, 5.0, 1.0, 5.0, 5.0, 1.0, 1.0, 0.0, 4.0, 7.0], "bins": [-0.0018544329795986414, -0.0017941422993317246, -0.001733851619064808, -0.0016735609387978911, -0.0016132703749462962, -0.0015529796946793795, -0.0014926890144124627, -0.001432398334145546, -0.0013721076538786292, -0.0013118169736117125, -0.0012515264097601175, -0.0011912357294932008, -0.001130945049226284, -0.0010706543689593673, -0.0010103636886924505, -0.0009500730666331947, -0.0008897823863662779, -0.0008294917060993612, -0.0007692010840401053, -0.0007089104037731886, -0.0006486197235062718, -0.000588329101447016, -0.0005280384211800992, -0.0004677477409131825, -0.0004074570897500962, -0.0003471664385870099, -0.00028687575832009315, -0.00022658510715700686, -0.00016629444144200534, -0.00010600377572700381, -4.5713117287959903e-05, 1.4577544789062813e-05, 7.486820686608553e-05, 0.00013515887258108705, 0.00019544953829608858, 0.00025574018945917487, 0.0003160308697260916, 0.0003763215208891779, 0.0004366121720522642, 0.000496902852319181, 0.0005571935325860977, 0.0006174841546453536, 0.0006777748349122703, 0.0007380655151791871, 0.0007983561372384429, 0.0008586468175053596, 0.0009189374977722764, 0.0009792281780391932, 0.001039518741890788, 0.0010998094221577048, 0.0011601001024246216, 0.0012203907826915383, 0.001280681462958455, 0.0013409721432253718, 0.0014012628234922886, 0.0014615533873438835, 0.0015218440676108003, 0.001582134747877717, 0.0016424254281446338, 0.0017027161084115505, 0.0017630067886784673, 0.0018232973525300622, 0.001883588032796979, 0.0019438787130638957, 0.0020041693933308125]}, "_wandb": {"runtime": 11329}}