{"total_loss": 0.0031683038047049194, "_timestamp": 1718039377.267593, "rgb_loss": 0.0031683038047049194, "_runtime": 3554.6487839221954, "_step": 16700, "Rendered Images": {"_type": "images/separated", "width": 256, "height": 256, "format": "png", "count": 5, "filenames": ["media/images/Rendered Images_16000_4ee9d334bd8ee6e5db76.png", "media/images/Rendered Images_16000_78510baabdf899cfc74c.png", "media/images/Rendered Images_16000_c3d0b35eb37b86ad54b1.png", "media/images/Rendered Images_16000_1e709d9799845b1a5fcc.png", "media/images/Rendered Images_16000_832d861eb6d4c64aae83.png"]}, "Ground-truth Images": {"_type": "images/separated", "width": 256, "height": 256, "format": "png", "count": 5, "filenames": ["media/images/Ground-truth Images_16008_e66caac5921126c9a542.png", "media/images/Ground-truth Images_16008_d46094b22d91d1bd7d47.png", "media/images/Ground-truth Images_16008_c1ae0e380e32a07032f8.png", "media/images/Ground-truth Images_16008_b60b263c939c62f4bc58.png", "media/images/Ground-truth Images_16008_ab3d98782f1147e7dca7.png"]}, "PSNR": 31.55364651636731, "Epoch": 2000, "gradients/graph_1rgb_fn.2.bias": {"_type": "histogram", "values": [1.0, 0.0, 0.0, 0.0, 0.0, 0.0, 0.0, 0.0, 0.0, 0.0, 0.0, 0.0, 0.0, 0.0, 0.0, 0.0, 0.0, 0.0, 0.0, 0.0, 0.0, 0.0, 0.0, 0.0, 0.0, 0.0, 0.0, 0.0, 0.0, 0.0, 0.0, 0.0, 0.0, 0.0, 0.0, 0.0, 0.0, 0.0, 1.0, 0.0, 0.0, 0.0, 0.0, 0.0, 0.0, 0.0, 0.0, 0.0, 0.0, 0.0, 0.0, 0.0, 0.0, 0.0, 0.0, 0.0, 0.0, 0.0, 0.0, 0.0, 0.0, 0.0, 0.0, 1.0], "bins": [-7.080991053953767e-06, -4.525703843683004e-06, -1.970416633412242e-06, 5.848705768585205e-07, 3.140157787129283e-06, 5.695444997400045e-06, 8.250732207670808e-06, 1.080601941794157e-05, 1.3361306628212333e-05, 1.5916593838483095e-05, 1.8471881048753858e-05, 2.102716825902462e-05, 2.3582455469295382e-05, 2.6137742679566145e-05, 2.8693029889836907e-05, 3.124831710010767e-05, 3.380360431037843e-05, 3.6358891520649195e-05, 3.891417873091996e-05, 4.146946594119072e-05, 4.402475315146148e-05, 4.6580040361732244e-05, 4.913532757200301e-05, 5.169061478227377e-05, 5.424590199254453e-05, 5.6801189202815294e-05, 5.935647641308606e-05, 6.191176362335682e-05, 6.446705083362758e-05, 6.702233804389834e-05, 6.95776252541691e-05, 7.213291246443987e-05, 7.468819967471063e-05, 7.72434868849814e-05, 7.979877409525216e-05, 8.235406130552292e-05, 8.490934851579368e-05, 8.746463572606444e-05, 9.00199229363352e-05, 9.257521014660597e-05, 9.513049735687673e-05, 9.76857845671475e-05, 0.00010024107177741826, 0.00010279635898768902, 0.00010535164619795978, 0.00010790693340823054, 0.0001104622206185013, 0.00011301750782877207, 0.00011557279503904283, 0.00011812808224931359, 0.00012068336945958436, 0.00012323865666985512, 0.00012579394388012588, 0.00012834923109039664, 0.0001309045183006674, 0.00013345980551093817, 0.00013601509272120893, 0.0001385703799314797, 0.00014112566714175045, 0.00014368095435202122, 0.00014623624156229198, 0.00014879152877256274, 0.0001513468159828335, 0.00015390210319310427, 0.00015645739040337503]}, "gradients/graph_1rgb_fn.2.weight": {"_type": "histogram", "values": [1.0, 0.0, 0.0, 1.0, 0.0, 0.0, 0.0, 0.0, 2.0, 1.0, 2.0, 1.0, 0.0, 1.0, 0.0, 1.0, 0.0, 0.0, 1.0, 1.0, 1.0, 1.0, 2.0, 0.0, 8.0, 302.0, 19.0, 7.0, 3.0, 4.0, 7.0, 1.0, 1.0, 2.0, 2.0, 1.0, 0.0, 2.0, 1.0, 1.0, 2.0, 0.0, 0.0, 1.0, 1.0, 0.0, 1.0, 1.0, 0.0, 0.0, 0.0, 0.0, 0.0, 0.0, 0.0, 0.0, 0.0, 0.0, 0.0, 0.0, 0.0, 0.0, 0.0, 1.0], "bins": [-0.0005808108253404498, -0.0005582580924965441, -0.0005357053014449775, -0.0005131525686010718, -0.0004905998357571661, -0.00046804707380943, -0.00044549431186169386, -0.00042294157901778817, -0.00040038881707005203, -0.0003778360551223159, -0.0003552833222784102, -0.00033273056033067405, -0.0003101777983829379, -0.0002876250655390322, -0.0002650723035912961, -0.00024251955619547516, -0.00021996680879965425, -0.00019741406140383333, -0.00017486131400801241, -0.00015230855206027627, -0.00012975580466445535, -0.00010720305726863444, -8.46502953208983e-05, -6.209754792507738e-05, -3.954480052925646e-05, -1.699204949545674e-05, 5.5607015383429825e-06, 2.8113456210121512e-05, 5.066620360594243e-05, 7.321895100176334e-05, 9.577171294949949e-05, 0.0001183244603453204, 0.00014087726594880223, 0.00016343001334462315, 0.00018598276074044406, 0.0002085355226881802, 0.00023108827008400112, 0.00025364101747982204, 0.0002761937794275582, 0.00029874651227146387, 0.0003212992742192, 0.00034385203616693616, 0.00036640476901084185, 0.000388957530958578, 0.00041151029290631413, 0.0004340630257502198, 0.00045661578769795597, 0.0004791685496456921, 0.0005017212824895978, 0.0005242740153335035, 0.0005468268063850701, 0.0005693795392289758, 0.0005919322720728815, 0.0006144850049167871, 0.0006370377959683537, 0.0006595905288122594, 0.0006821432616561651, 0.0007046959945000708, 0.0007272487855516374, 0.0007498015183955431, 0.0007723542512394488, 0.0007949069840833545, 0.0008174597751349211, 0.0008400125079788268, 0.0008625652990303934]}, "gradients/graph_1rgb_fn.0.bias": {"_type": "histogram", "values": [1.0, 0.0, 0.0, 0.0, 0.0, 0.0, 0.0, 0.0, 1.0, 0.0, 0.0, 0.0, 0.0, 0.0, 0.0, 0.0, 0.0, 0.0, 0.0, 0.0, 0.0, 1.0, 0.0, 1.0, 0.0, 0.0, 0.0, 2.0, 0.0, 0.0, 0.0, 1.0, 0.0, 3.0, 2.0, 6.0, 12.0, 62.0, 8.0, 6.0, 2.0, 4.0, 2.0, 3.0, 0.0, 1.0, 2.0, 1.0, 2.0, 0.0, 0.0, 0.0, 2.0, 0.0, 0.0, 0.0, 0.0, 1.0, 0.0, 1.0, 0.0, 0.0, 0.0, 1.0], "bins": [-2.6493979021324776e-05, -2.5779874704312533e-05, -2.5065772206289694e-05, -2.435166788927745e-05, -2.3637563572265208e-05, -2.2923459255252965e-05, -2.2209354938240722e-05, -2.1495252440217882e-05, -2.078114812320564e-05, -2.0067043806193396e-05, -1.9352941308170557e-05, -1.8638836991158314e-05, -1.792473267414607e-05, -1.7210628357133828e-05, -1.6496524040121585e-05, -1.5782421542098746e-05, -1.5068317225086503e-05, -1.435421290807426e-05, -1.3640109500556719e-05, -1.2926006093039177e-05, -1.2211901776026934e-05, -1.1497797459014691e-05, -1.078369405149715e-05, -1.0069590643979609e-05, -9.355486326967366e-06, -8.641382009955123e-06, -7.927278602437582e-06, -7.21317474017269e-06, -6.499070877907798e-06, -5.784967015642906e-06, -5.0708631533780135e-06, -4.3567592911131214e-06, -3.642657247837633e-06, -2.928553385572741e-06, -2.2144495233078487e-06, -1.5003456610429566e-06, -7.862417987780645e-07, -7.213793651317246e-08, 6.419659257517196e-07, 1.3560697880166117e-06, 2.070173650281504e-06, 2.784277512546396e-06, 3.498381374811288e-06, 4.21248523707618e-06, 4.926589099341072e-06, 5.640692961605964e-06, 6.354796823870856e-06, 7.068900686135748e-06, 7.78300454840064e-06, 8.497108865412883e-06, 9.211212272930425e-06, 9.925315680447966e-06, 1.0639419997460209e-05, 1.1353524314472452e-05, 1.2067627721989993e-05, 1.2781731129507534e-05, 1.3495835446519777e-05, 1.420993976353202e-05, 1.4924043171049561e-05, 1.5638146578567103e-05, 1.6352250895579346e-05, 1.706635521259159e-05, 1.7780457710614428e-05, 1.849456202762667e-05, 1.9208666344638914e-05]}, "gradients/graph_1rgb_fn.0.weight": {"_type": "histogram", "values": [1.0, 0.0, 0.0, 0.0, 0.0, 0.0, 0.0, 0.0, 0.0, 2.0, 0.0, 0.0, 1.0, 0.0, 1.0, 1.0, 0.0, 2.0, 0.0, 0.0, 0.0, 0.0, 4.0, 2.0, 0.0, 0.0, 7.0, 4.0, 10.0, 25.0, 40.0, 83.0, 275.0, 18452.0, 1404.0, 154.0, 65.0, 37.0, 15.0, 7.0, 2.0, 2.0, 3.0, 1.0, 0.0, 0.0, 1.0, 0.0, 0.0, 1.0, 0.0, 0.0, 0.0, 1.0, 0.0, 1.0, 1.0, 2.0, 0.0, 0.0, 0.0, 0.0, 0.0, 1.0], "bins": [-0.0003734709753189236, -0.00036243212525732815, -0.00035139324609190226, -0.0003403543960303068, -0.0003293155459687114, -0.00031827669590711594, -0.0003072378458455205, -0.0002961989666800946, -0.00028516011661849916, -0.0002741212665569037, -0.0002630823873914778, -0.0002520435373298824, -0.00024100468726828694, -0.0002299658372066915, -0.00021892697259318084, -0.00020788810797967017, -0.00019684925791807473, -0.0001858104078564793, -0.00017477154324296862, -0.00016373267862945795, -0.0001526938285678625, -0.00014165497850626707, -0.0001306161138927564, -0.00011957725655520335, -0.0001085383992176503, -9.749954188009724e-05, -8.646068454254419e-05, -7.542182720499113e-05, -6.438296986743808e-05, -5.3344112529885024e-05, -4.230525519233197e-05, -3.1266397854778916e-05, -2.0227569621056318e-05, -9.188712283503264e-06, 1.85014505404979e-06, 1.2889002391602844e-05, 2.3927859729155898e-05, 3.496671706670895e-05, 4.6005574404262006e-05, 5.704443174181506e-05, 6.808328907936811e-05, 7.912214641692117e-05, 9.016100375447422e-05, 0.00010119986109202728, 0.00011223871842958033, 0.00012327756849117577, 0.00013431643310468644, 0.0001453552977181971, 0.00015639414777979255, 0.000167432997841388, 0.00017847186245489866, 0.00018951072706840932, 0.00020054957713000476, 0.0002115884271916002, 0.00022262729180511087, 0.00023366615641862154, 0.000244705006480217, 0.0002557438565418124, 0.00026678270660340786, 0.00027782158576883376, 0.0002888604358304292, 0.00029989928589202464, 0.00031093816505745053, 0.00032197701511904597, 0.0003330158651806414]}, "gradients/graph_1density_fn.0.bias": {"_type": "histogram", "values": [1.0], "bins": [5.312579742167145e-05, 5.312579742167145e-05]}, "gradients/graph_1density_fn.0.weight": {"_type": "histogram", "values": [1.0, 0.0, 0.0, 1.0, 0.0, 0.0, 0.0, 0.0, 1.0, 1.0, 1.0, 1.0, 0.0, 0.0, 2.0, 3.0, 1.0, 1.0, 1.0, 0.0, 2.0, 2.0, 3.0, 4.0, 3.0, 2.0, 2.0, 7.0, 5.0, 6.0, 4.0, 5.0, 7.0, 11.0, 5.0, 9.0, 8.0, 2.0, 10.0, 1.0, 1.0, 1.0, 2.0, 2.0, 2.0, 0.0, 0.0, 1.0, 1.0, 3.0, 0.0, 0.0, 2.0, 0.0, 0.0, 0.0, 0.0, 0.0, 0.0, 0.0, 0.0, 0.0, 0.0, 1.0], "bins": [-4.568101940094493e-05, -4.425325823831372e-05, -4.2825497075682506e-05, -4.139773591305129e-05, -3.9969978388398886e-05, -3.854221722576767e-05, -3.711445606313646e-05, -3.5686694900505245e-05, -3.425893373787403e-05, -3.283117257524282e-05, -3.1403411412611604e-05, -2.9975652068969794e-05, -2.854789090633858e-05, -2.7120129743707366e-05, -2.5692370400065556e-05, -2.4264609237434343e-05, -2.283684807480313e-05, -2.1409086912171915e-05, -1.99813257495407e-05, -1.855356640589889e-05, -1.7125805243267678e-05, -1.5698044080636464e-05, -1.4270283827499952e-05, -1.284252357436344e-05, -1.1414762411732227e-05, -9.987001249101013e-06, -8.559240995964501e-06, -7.131480288080638e-06, -5.7037195801967755e-06, -4.275958872312913e-06, -2.84819816442905e-06, -1.420437911292538e-06, 7.32688931748271e-09, 1.4350875972013455e-06, 2.8628483050852083e-06, 4.290609012969071e-06, 5.718369720852934e-06, 7.146130428736797e-06, 8.57389113662066e-06, 1.0001651389757171e-05, 1.1429412552388385e-05, 1.2857173715019599e-05, 1.428493396815611e-05, 1.5712694221292622e-05, 1.7140455383923836e-05, 1.856821654655505e-05, 1.999597589019686e-05, 2.1423737052828074e-05, 2.2851498215459287e-05, 2.42792593780905e-05, 2.5707020540721714e-05, 2.7134779884363525e-05, 2.8562541046994738e-05, 2.9990302209625952e-05, 3.141806155326776e-05, 3.2845822715898976e-05, 3.427358387853019e-05, 3.57013450411614e-05, 3.712910620379262e-05, 3.855686736642383e-05, 3.998462489107624e-05, 4.141238605370745e-05, 4.2840147216338664e-05, 4.426790837896988e-05, 4.569566954160109e-05]}, "gradients/graph_1feature_fn.2.bias": {"_type": "histogram", "values": [2.0, 1.0, 1.0, 1.0, 0.0, 1.0, 0.0, 0.0, 1.0, 0.0, 0.0, 1.0, 0.0, 0.0, 1.0, 1.0, 0.0, 0.0, 1.0, 0.0, 0.0, 1.0, 3.0, 3.0, 2.0, 3.0, 6.0, 6.0, 11.0, 12.0, 10.0, 14.0, 12.0, 9.0, 4.0, 2.0, 2.0, 1.0, 2.0, 3.0, 0.0, 0.0, 3.0, 0.0, 1.0, 1.0, 0.0, 0.0, 0.0, 1.0, 0.0, 0.0, 1.0, 0.0, 0.0, 0.0, 0.0, 0.0, 0.0, 1.0, 1.0, 1.0, 0.0, 1.0], "bins": [-7.457128958776593e-05, -7.211751653812826e-05, -6.966373621253297e-05, -6.720996316289529e-05, -6.47561828373e-05, -6.230240978766233e-05, -5.984863673802465e-05, -5.739486005040817e-05, -5.494108336279169e-05, -5.2487306675175205e-05, -5.003352998755872e-05, -4.757975693792105e-05, -4.5125980250304565e-05, -4.267220356268808e-05, -4.021843051305041e-05, -3.7764653825433925e-05, -3.531087713781744e-05, -3.285710045020096e-05, -3.040332558157388e-05, -2.7949550712946802e-05, -2.549577402533032e-05, -2.3041997337713838e-05, -2.058822246908676e-05, -1.813444760045968e-05, -1.5680670912843198e-05, -1.3226895134721417e-05, -1.0773119356599636e-05, -8.319343578477856e-06, -5.865567800356075e-06, -3.4117920222342946e-06, -9.58016244112514e-07, 1.4957586245145649e-06, 3.9495425880886614e-06, 6.403318366210442e-06, 8.857094144332223e-06, 1.1310869922454003e-05, 1.3764645700575784e-05, 1.6218422388192266e-05, 1.8672197256819345e-05, 2.1125972125446424e-05, 2.3579748813062906e-05, 2.603352550067939e-05, 2.8487300369306467e-05, 3.0941075237933546e-05, 3.339485192555003e-05, 3.584862861316651e-05, 3.8302401662804186e-05, 4.075617835042067e-05, 4.320995503803715e-05, 4.5663731725653633e-05, 4.8117508413270116e-05, 5.057128146290779e-05, 5.3025058150524274e-05, 5.5478834838140756e-05, 5.793260788777843e-05, 6.0386384575394914e-05, 6.28401612630114e-05, 6.529393431264907e-05, 6.774771463824436e-05, 7.020148768788204e-05, 7.265526801347733e-05, 7.5109041063115e-05, 7.756281411275268e-05, 8.001658716239035e-05, 8.247036748798564e-05]}, "gradients/graph_1feature_fn.2.weight": {"_type": "histogram", "values": [2.0, 1.0, 0.0, 2.0, 1.0, 0.0, 1.0, 3.0, 0.0, 0.0, 3.0, 1.0, 1.0, 2.0, 3.0, 4.0, 2.0, 3.0, 3.0, 10.0, 10.0, 15.0, 23.0, 24.0, 39.0, 53.0, 64.0, 100.0, 203.0, 479.0, 1318.0, 10011.0, 2707.0, 628.0, 275.0, 124.0, 67.0, 57.0, 35.0, 25.0, 17.0, 18.0, 10.0, 12.0, 4.0, 5.0, 3.0, 1.0, 2.0, 2.0, 1.0, 1.0, 0.0, 1.0, 0.0, 1.0, 1.0, 0.0, 0.0, 1.0, 0.0, 1.0, 2.0, 2.0], "bins": [-7.718152482993901e-05, -7.474786980310455e-05, -7.231421477627009e-05, -6.988055974943563e-05, -6.744690472260118e-05, -6.50132424198091e-05, -6.257959466893226e-05, -6.014593236614019e-05, -5.771227733930573e-05, -5.527862231247127e-05, -5.284496728563681e-05, -5.0411312258802354e-05, -4.797765359398909e-05, -4.554399856715463e-05, -4.311034354032017e-05, -4.067668487550691e-05, -3.824303348665126e-05, -3.58093784598168e-05, -3.337572343298234e-05, -3.0942064768169075e-05, -2.8508409741334617e-05, -2.607475471450016e-05, -2.36410996876657e-05, -2.120744284184184e-05, -1.877378781500738e-05, -1.6340132788172923e-05, -1.3906475942349061e-05, -1.1472820915514603e-05, -9.039164979185443e-06, -6.6055090428562835e-06, -4.171854016021825e-06, -1.7381971701979637e-06, 6.954578566364944e-07, 3.129113565591979e-06, 5.562769274547463e-06, 7.996424756129272e-06, 1.0430080692458432e-05, 1.2863736628787592e-05, 1.529739165562205e-05, 1.7731048501445912e-05, 2.016470352828037e-05, 2.2598358555114828e-05, 2.503201540093869e-05, 2.7465670427773148e-05, 2.9899325454607606e-05, 3.2332980481442064e-05, 3.476663550827652e-05, 3.720029417308979e-05, 3.9633949199924245e-05, 4.2067604226758704e-05, 4.450125925359316e-05, 4.693491791840643e-05, 4.9368572945240885e-05, 5.180222797207534e-05, 5.42358829989098e-05, 5.666953802574426e-05, 5.910319305257872e-05, 6.153684807941318e-05, 6.397050310624763e-05, 6.640415813308209e-05, 6.883781315991655e-05, 7.127146818675101e-05, 7.370513048954308e-05, 7.613878551637754e-05, 7.8572440543212e-05]}, "gradients/graph_1feature_fn.0.bias": {"_type": "histogram", "values": [1.0, 0.0, 0.0, 0.0, 0.0, 0.0, 1.0, 0.0, 1.0, 0.0, 0.0, 2.0, 1.0, 2.0, 4.0, 2.0, 5.0, 8.0, 16.0, 14.0, 12.0, 8.0, 8.0, 4.0, 9.0, 4.0, 8.0, 2.0, 3.0, 2.0, 0.0, 1.0, 3.0, 0.0, 3.0, 2.0, 0.0, 0.0, 0.0, 0.0, 0.0, 0.0, 0.0, 0.0, 0.0, 0.0, 0.0, 0.0, 0.0, 0.0, 0.0, 0.0, 0.0, 0.0, 0.0, 0.0, 0.0, 0.0, 0.0, 0.0, 1.0, 0.0, 0.0, 1.0], "bins": [-5.909285391680896e-05, -5.6075103202601895e-05, -5.305735248839483e-05, -5.003960177418776e-05, -4.702185105998069e-05, -4.400410034577362e-05, -4.0986349631566554e-05, -3.7968598917359486e-05, -3.495084820315242e-05, -3.193309748894535e-05, -2.8915346774738282e-05, -2.5897596060531214e-05, -2.2879845346324146e-05, -1.9862094632117078e-05, -1.684434391791001e-05, -1.3826593203702942e-05, -1.0808842489495873e-05, -7.791091775288805e-06, -4.773341061081737e-06, -1.7555903468746692e-06, 1.2621603673323989e-06, 4.279911081539467e-06, 7.297661795746535e-06, 1.0315412509953603e-05, 1.3333163224160671e-05, 1.635091393836774e-05, 1.9368664652574807e-05, 2.2386415366781875e-05, 2.5404166080988944e-05, 2.842191679519601e-05, 3.143966750940308e-05, 3.445741822361015e-05, 3.7475168937817216e-05, 4.0492919652024284e-05, 4.351067036623135e-05, 4.652842108043842e-05, 4.954617179464549e-05, 5.2563922508852556e-05, 5.5581673223059624e-05, 5.859942393726669e-05, 6.161717465147376e-05, 6.463492172770202e-05, 6.76526760798879e-05, 7.067043043207377e-05, 7.368817750830203e-05, 7.67059245845303e-05, 7.972367893671617e-05, 8.274143328890204e-05, 8.57591803651303e-05, 8.877692744135857e-05, 9.179468179354444e-05, 9.481243614573032e-05, 9.783018322195858e-05, 0.00010084793029818684, 0.00010386568465037271, 0.00010688343900255859, 0.00010990118607878685, 0.00011291893315501511, 0.00011593668750720099, 0.00011895444185938686, 0.00012197218893561512, 0.00012498993601184338, 0.00012800769763998687, 0.00013102544471621513, 0.0001340431917924434]}, "gradients/graph_1feature_fn.0.weight": {"_type": "histogram", "values": [3.0, 0.0, 0.0, 1.0, 1.0, 2.0, 2.0, 9.0, 7.0, 5.0, 10.0, 28.0, 28.0, 40.0, 60.0, 82.0, 141.0, 213.0, 381.0, 998.0, 13252.0, 2911.0, 927.0, 498.0, 316.0, 211.0, 126.0, 93.0, 51.0, 42.0, 50.0, 27.0, 21.0, 15.0, 2.0, 7.0, 5.0, 2.0, 3.0, 4.0, 2.0, 3.0, 3.0, 5.0, 2.0, 3.0, 2.0, 0.0, 1.0, 2.0, 1.0, 2.0, 2.0, 3.0, 1.0, 1.0, 0.0, 0.0, 0.0, 0.0, 0.0, 0.0, 0.0, 1.0], "bins": [-7.973515312187374e-05, -7.589566666865721e-05, -7.205618021544069e-05, -6.821669376222417e-05, -6.437720730900764e-05, -6.053772449376993e-05, -5.669824167853221e-05, -5.285875522531569e-05, -4.901926877209917e-05, -4.5179782318882644e-05, -4.134029586566612e-05, -3.7500813050428405e-05, -3.366132659721188e-05, -2.982184014399536e-05, -2.598235550976824e-05, -2.214287087554112e-05, -1.8303384422324598e-05, -1.4463898878602777e-05, -1.0624413334880956e-05, -6.784927791159134e-06, -2.945442247437313e-06, 8.940442057792097e-07, 4.733528840006329e-06, 8.573013474233449e-06, 1.2412499927449971e-05, 1.6251986380666494e-05, 2.0091471014893614e-05, 2.3930955649120733e-05, 2.7770442102337256e-05, 3.160992855555378e-05, 3.5449411370791495e-05, 3.928889782400802e-05, 4.312838427722454e-05, 4.6967870730441064e-05, 5.0807357183657587e-05, 5.46468399988953e-05, 5.8486326452111825e-05, 6.232580926734954e-05, 6.616529572056606e-05, 7.000478217378259e-05, 7.384426862699911e-05, 7.768375508021563e-05, 8.152324153343216e-05, 8.536272798664868e-05, 8.920220716390759e-05, 9.304170089308172e-05, 9.688118007034063e-05, 0.00010072066652355716, 0.00010456015297677368, 0.0001083996394299902, 0.00011223912588320673, 0.00011607861233642325, 0.00011991809878963977, 0.00012375757796689868, 0.00012759707169607282, 0.00013143655087333173, 0.00013527603005059063, 0.00013911550922784954, 0.00014295500295702368, 0.0001467944821342826, 0.00015063397586345673, 0.00015447345504071563, 0.00015831294876988977, 0.00016215242794714868, 0.00016599192167632282]}, "gradients/graph_1mlp.6.bias": {"_type": "histogram", "values": [1.0, 0.0, 0.0, 0.0, 0.0, 0.0, 0.0, 1.0, 0.0, 0.0, 0.0, 0.0, 0.0, 2.0, 0.0, 0.0, 1.0, 0.0, 0.0, 0.0, 0.0, 2.0, 0.0, 1.0, 1.0, 1.0, 2.0, 1.0, 0.0, 1.0, 2.0, 2.0, 1.0, 3.0, 4.0, 3.0, 3.0, 5.0, 5.0, 6.0, 9.0, 8.0, 19.0, 3.0, 6.0, 6.0, 4.0, 6.0, 0.0, 2.0, 2.0, 3.0, 4.0, 1.0, 2.0, 1.0, 0.0, 1.0, 0.0, 2.0, 0.0, 0.0, 0.0, 1.0], "bins": [-0.00014983596338424832, -0.0001463160151615739, -0.00014279606693889946, -0.00013927611871622503, -0.0001357561704935506, -0.00013223622227087617, -0.0001287162594962865, -0.0001251963258255273, -0.00012167637032689527, -0.00011815642210422084, -0.00011463647388154641, -0.00011111651838291436, -0.00010759657016023993, -0.0001040766219375655, -0.00010055667371489108, -9.703672549221665e-05, -9.351677726954222e-05, -8.999682904686779e-05, -8.647688082419336e-05, -8.295693260151893e-05, -7.943697710288689e-05, -7.591702888021246e-05, -7.239708065753803e-05, -6.88771324348636e-05, -6.535717693623155e-05, -6.183722871355712e-05, -5.831727685290389e-05, -5.479732863022946e-05, -5.127738040755503e-05, -4.775742854690179e-05, -4.423748032422736e-05, -4.0717532101552933e-05, -3.7197583878878504e-05, -3.3677635656204075e-05, -3.015768561454024e-05, -2.663773557287641e-05, -2.311778735020198e-05, -1.9597837308538146e-05, -1.6077887266874313e-05, -1.2557939044199884e-05, -9.037989002536051e-06, -5.51803987036692e-06, -1.9980902834504377e-06, 1.5218593034660444e-06, 5.0418084356351756e-06, 8.561757567804307e-06, 1.208170760946814e-05, 1.560165583214257e-05, 1.9121605873806402e-05, 2.2641555915470235e-05, 2.6161504138144664e-05, 2.9681454179808497e-05, 3.320140240248293e-05, 3.6721350625157356e-05, 4.024130248581059e-05, 4.376125070848502e-05, 4.728120256913826e-05, 5.080115079181269e-05, 5.4321102652465925e-05, 5.7841050875140354e-05, 6.136100273579359e-05, 6.488095095846802e-05, 6.840089918114245e-05, 7.192084740381688e-05, 7.544079562649131e-05]}, "gradients/graph_1mlp.6.weight": {"_type": "histogram", "values": [1.0, 0.0, 0.0, 0.0, 0.0, 0.0, 0.0, 0.0, 0.0, 0.0, 0.0, 0.0, 0.0, 3.0, 2.0, 2.0, 2.0, 2.0, 3.0, 1.0, 10.0, 10.0, 10.0, 20.0, 20.0, 27.0, 30.0, 46.0, 62.0, 82.0, 124.0, 166.0, 333.0, 604.0, 1452.0, 10705.0, 1498.0, 530.0, 249.0, 146.0, 78.0, 52.0, 39.0, 21.0, 20.0, 7.0, 9.0, 3.0, 5.0, 5.0, 2.0, 1.0, 0.0, 1.0, 0.0, 0.0, 0.0, 0.0, 0.0, 0.0, 0.0, 0.0, 0.0, 1.0], "bins": [-0.00010365639900555834, -0.00010074296005768701, -9.782951383385807e-05, -9.491607488598675e-05, -9.20026286621578e-05, -8.908918971428648e-05, -8.617574349045753e-05, -8.326230454258621e-05, -8.034886559471488e-05, -7.743542664684355e-05, -7.452198042301461e-05, -7.160854147514328e-05, -6.869509525131434e-05, -6.578165630344301e-05, -6.286821735557169e-05, -5.9954771131742746e-05, -5.704132854589261e-05, -5.412788596004248e-05, -5.121444337419234e-05, -4.830100078834221e-05, -4.538756184047088e-05, -4.2474119254620746e-05, -3.956067666877061e-05, -3.6647237720899284e-05, -3.373379149707034e-05, -3.082034891122021e-05, -2.7906908144359477e-05, -2.4993465558509342e-05, -2.208002479164861e-05, -1.9166582205798477e-05, -1.6253139619948342e-05, -1.3339698853087611e-05, -1.042625808622688e-05, -7.512816409871448e-06, -4.599374278768664e-06, -1.6859321476658806e-06, 1.227509528689552e-06, 4.140951205044985e-06, 7.054393790895119e-06, 9.96783455775585e-06, 1.2881277143605985e-05, 1.579471972945612e-05, 1.870816049631685e-05, 2.1621603082166985e-05, 2.453504566801712e-05, 2.744848643487785e-05, 3.0361929020727985e-05, 3.3275369787588716e-05, 3.618881237343885e-05, 3.9102254959288985e-05, 4.201569754513912e-05, 4.4929140130989254e-05, 4.784257907886058e-05, 5.0756021664710715e-05, 5.366946425056085e-05, 5.658290319843218e-05, 5.949634942226112e-05, 6.240978837013245e-05, 6.532323459396139e-05, 6.823667354183272e-05, 7.115011976566166e-05, 7.406355871353298e-05, 7.697699766140431e-05, 7.989044388523325e-05, 8.280388283310458e-05]}, "gradients/graph_1mlp.4.bias": {"_type": "histogram", "values": [1.0, 0.0, 0.0, 0.0, 0.0, 1.0, 0.0, 0.0, 1.0, 0.0, 1.0, 0.0, 1.0, 0.0, 1.0, 0.0, 3.0, 1.0, 2.0, 1.0, 1.0, 0.0, 2.0, 2.0, 5.0, 2.0, 9.0, 8.0, 10.0, 12.0, 11.0, 14.0, 8.0, 3.0, 7.0, 5.0, 4.0, 0.0, 1.0, 1.0, 0.0, 0.0, 1.0, 0.0, 1.0, 2.0, 2.0, 0.0, 1.0, 0.0, 1.0, 0.0, 0.0, 0.0, 0.0, 0.0, 0.0, 0.0, 1.0, 0.0, 0.0, 0.0, 0.0, 1.0], "bins": [-0.00022611752501688898, -0.0002186181372962892, -0.00021111874957568944, -0.00020361936185508966, -0.0001961199741344899, -0.00018862058641389012, -0.00018112119869329035, -0.00017362181097269058, -0.0001661224232520908, -0.00015862303553149104, -0.00015112364781089127, -0.0001436242600902915, -0.00013612487236969173, -0.00012862548464909196, -0.00012112609692849219, -0.00011362670920789242, -0.00010612731421133503, -9.862792649073526e-05, -9.112853877013549e-05, -8.362915104953572e-05, -7.612976332893595e-05, -6.863036833237857e-05, -6.11309806117788e-05, -5.363159652915783e-05, -4.613220880855806e-05, -3.863282108795829e-05, -3.113343336735852e-05, -2.3634043827769347e-05, -1.6134656107169576e-05, -8.635266567580402e-06, -1.1358788469806314e-06, 6.363508873619139e-06, 1.386289659421891e-05, 2.136228431481868e-05, 2.886167203541845e-05, 3.636105975601822e-05, 4.386044747661799e-05, 5.135983883519657e-05, 5.885922655579634e-05, 6.63586106384173e-05, 7.385799835901707e-05, 8.135738607961684e-05, 8.885677380021662e-05, 9.635616152081639e-05, 0.00010385554924141616, 0.00011135493696201593, 0.0001188543246826157, 0.00012635371240321547, 0.00013385311467573047, 0.00014135250239633024, 0.00014885189011693, 0.00015635127783752978, 0.00016385066555812955, 0.00017135005327872932, 0.0001788494409993291, 0.00018634882871992886, 0.00019384821644052863, 0.0002013476041611284, 0.00020884699188172817, 0.00021634637960232794, 0.0002238457673229277, 0.00023134515504352748, 0.00023884454276412725, 0.000246343930484727, 0.0002538433182053268]}, "gradients/graph_1mlp.4.weight": {"_type": "histogram", "values": [1.0, 0.0, 0.0, 1.0, 0.0, 0.0, 0.0, 0.0, 0.0, 1.0, 0.0, 0.0, 1.0, 3.0, 1.0, 1.0, 2.0, 3.0, 2.0, 1.0, 10.0, 5.0, 16.0, 16.0, 15.0, 39.0, 34.0, 58.0, 98.0, 152.0, 258.0, 543.0, 1415.0, 10190.0, 2047.0, 644.0, 313.0, 187.0, 118.0, 53.0, 42.0, 23.0, 16.0, 11.0, 19.0, 10.0, 5.0, 8.0, 10.0, 1.0, 4.0, 1.0, 1.0, 2.0, 0.0, 0.0, 1.0, 0.0, 0.0, 0.0, 1.0, 0.0, 0.0, 1.0], "bins": [-0.0001893736916827038, -0.0001837519957916811, -0.00017813029990065843, -0.00017250861856155097, -0.0001668869226705283, -0.0001612652267795056, -0.00015564353088848293, -0.00015002183499746025, -0.00014440013910643756, -0.00013877844321541488, -0.0001331567473243922, -0.00012753505143336952, -0.00012191337009426206, -0.00011629167420323938, -0.0001106699783122167, -0.00010504828242119402, -9.942660108208656e-05, -9.380490519106388e-05, -8.818321657599881e-05, -8.256152068497613e-05, -7.693983206991106e-05, -7.131813617888838e-05, -6.56964402878657e-05, -6.007474803482182e-05, -5.445305578177795e-05, -4.883136352873407e-05, -4.32096712756902e-05, -3.7587975384667516e-05, -3.196628313162364e-05, -2.6344590878579766e-05, -2.0722894987557083e-05, -1.5101202734513208e-05, -9.479525033384562e-06, -3.857831870845985e-06, 1.7638612916925922e-06, 7.385555363725871e-06, 1.3007247616769746e-05, 1.862893986981362e-05, 2.4250635760836303e-05, 2.987232801388018e-05, 3.5494020266924053e-05, 4.111571251996793e-05, 4.6737404773011804e-05, 5.2359100664034486e-05, 5.798079291707836e-05, 6.360248517012224e-05, 6.922418106114492e-05, 7.484586967620999e-05, 8.046756556723267e-05, 8.608926145825535e-05, 9.171095007332042e-05, 9.73326459643431e-05, 0.00010295433457940817, 0.00010857603047043085, 0.00011419772636145353, 0.00011981942225247622, 0.0001254411181434989, 0.00013106281403452158, 0.00013668450992554426, 0.00014230620581656694, 0.0001479278871556744, 0.00015354958304669708, 0.00015917127893771976, 0.00016479297482874244, 0.0001704146561678499]}, "gradients/graph_1mlp.2.bias": {"_type": "histogram", "values": [1.0, 0.0, 0.0, 0.0, 0.0, 1.0, 0.0, 0.0, 0.0, 2.0, 0.0, 0.0, 1.0, 0.0, 1.0, 0.0, 1.0, 2.0, 2.0, 1.0, 0.0, 0.0, 1.0, 2.0, 0.0, 0.0, 6.0, 2.0, 9.0, 5.0, 4.0, 8.0, 11.0, 4.0, 16.0, 12.0, 6.0, 4.0, 6.0, 2.0, 1.0, 2.0, 1.0, 4.0, 0.0, 1.0, 3.0, 1.0, 0.0, 0.0, 0.0, 0.0, 2.0, 0.0, 0.0, 0.0, 1.0, 0.0, 0.0, 0.0, 0.0, 1.0, 0.0, 1.0], "bins": [-0.0005696409498341382, -0.000553186924662441, -0.0005367328994907439, -0.0005202788161113858, -0.0005038247909396887, -0.00048737076576799154, -0.0004709167405962944, -0.00045446271542459726, -0.00043800866114906967, -0.00042155463597737253, -0.00040510058170184493, -0.0003886465565301478, -0.00037219253135845065, -0.00035573847708292305, -0.0003392844519112259, -0.0003228303976356983, -0.0003063763724640012, -0.00028992234729230404, -0.00027346829301677644, -0.0002570142678450793, -0.00024056022812146693, -0.00022410618839785457, -0.00020765216322615743, -0.00019119812350254506, -0.0001747440837789327, -0.00015829004405532032, -0.00014183600433170795, -0.00012538197916001081, -0.00010892793943639845, -9.247389971278608e-05, -7.601986726513132e-05, -5.956583481747657e-05, -4.31117950938642e-05, -2.665775900823064e-05, -1.020372292259708e-05, 6.2503131630364805e-06, 2.270434924867004e-05, 3.915838897228241e-05, 5.5612421419937164e-05, 7.206645386759192e-05, 8.852049359120429e-05, 0.00010497453331481665, 0.00012142856576247141, 0.00013788259821012616, 0.00015433663793373853, 0.0001707906776573509, 0.00018724470282904804, 0.0002036987425526604, 0.00022015278227627277, 0.00023660682199988514, 0.0002530608617234975, 0.00026951488689519465, 0.00028596894117072225, 0.0003024229663424194, 0.0003188769915141165, 0.00033533101668581367, 0.00035178507096134126, 0.0003682390961330384, 0.000384693150408566, 0.00040114717558026314, 0.0004176012007519603, 0.0004340552550274879, 0.000450509280199185, 0.0004669633344747126, 0.00048341735964640975]}, "gradients/graph_1mlp.2.weight": {"_type": "histogram", "values": [1.0, 0.0, 0.0, 0.0, 0.0, 1.0, 0.0, 0.0, 0.0, 0.0, 0.0, 0.0, 1.0, 0.0, 3.0, 3.0, 4.0, 2.0, 1.0, 2.0, 6.0, 8.0, 8.0, 8.0, 14.0, 20.0, 26.0, 32.0, 38.0, 52.0, 74.0, 128.0, 187.0, 272.0, 450.0, 989.0, 10106.0, 2571.0, 643.0, 284.0, 136.0, 114.0, 47.0, 36.0, 32.0, 23.0, 8.0, 13.0, 10.0, 7.0, 1.0, 7.0, 5.0, 2.0, 1.0, 2.0, 1.0, 0.0, 0.0, 2.0, 0.0, 0.0, 1.0, 2.0], "bins": [-0.0006573252030648291, -0.0006394973024725914, -0.0006216694018803537, -0.000603841501288116, -0.0005860135424882174, -0.0005681856418959796, -0.0005503577413037419, -0.0005325298407115042, -0.0005147019401192665, -0.0004968740395270288, -0.00047904610983096063, -0.0004612182092387229, -0.0004433903086464852, -0.00042556237895041704, -0.00040773447835817933, -0.0003899065777659416, -0.00037207864806987345, -0.00035425074747763574, -0.0003364228177815676, -0.00031859491718932986, -0.00030076701659709215, -0.00028293911600485444, -0.0002651111863087863, -0.00024728328571654856, -0.00022945537057239562, -0.00021162745542824268, -0.00019379955483600497, -0.00017597163969185203, -0.0001581437245476991, -0.00014031582395546138, -0.00012248790881130844, -0.00010466000821907073, -8.683206397108734e-05, -6.900415610289201e-05, -5.117624459671788e-05, -3.334833309054375e-05, -1.5520425222348422e-05, 2.3074826458469033e-06, 2.0135397789999843e-05, 3.7963298382237554e-05, 5.579121352639049e-05, 7.361912139458582e-05, 9.144702926278114e-05, 0.00010927494440693408, 0.00012710285955108702, 0.00014493076014332473, 0.00016275867528747767, 0.00018058657587971538, 0.00019841449102386832, 0.00021624240616802126, 0.00023407030676025897, 0.0002518982219044119, 0.0002697261224966496, 0.0002875540521927178, 0.0003053819527849555, 0.0003232098533771932, 0.0003410377539694309, 0.00035886565456166863, 0.0003766935842577368, 0.0003945214848499745, 0.0004123493854422122, 0.0004301773151382804, 0.0004480052157305181, 0.0004658331163227558, 0.000483661046018824]}, "gradients/graph_1mlp.0.bias": {"_type": "histogram", "values": [1.0, 0.0, 0.0, 0.0, 0.0, 0.0, 0.0, 0.0, 0.0, 0.0, 1.0, 0.0, 0.0, 0.0, 2.0, 0.0, 1.0, 3.0, 0.0, 1.0, 2.0, 2.0, 0.0, 2.0, 0.0, 3.0, 0.0, 1.0, 2.0, 3.0, 6.0, 4.0, 9.0, 6.0, 9.0, 13.0, 21.0, 6.0, 6.0, 4.0, 2.0, 1.0, 2.0, 1.0, 2.0, 1.0, 2.0, 1.0, 1.0, 3.0, 1.0, 1.0, 0.0, 0.0, 1.0, 0.0, 0.0, 0.0, 0.0, 0.0, 0.0, 0.0, 0.0, 1.0], "bins": [-0.0019137653289362788, -0.0018608447862789035, -0.0018079242436215281, -0.0017550038173794746, -0.0017020832747220993, -0.001649162732064724, -0.0015962421894073486, -0.0015433216467499733, -0.0014904012205079198, -0.0014374806778505445, -0.0013845601351931691, -0.0013316397089511156, -0.0012787191662937403, -0.001225798623636365, -0.0011728780809789896, -0.0011199575383216143, -0.001067036995664239, -0.0010141164530068636, -0.0009611959685571492, -0.0009082754258997738, -0.0008553549414500594, -0.0008024343987926841, -0.0007495138561353087, -0.0006965933716855943, -0.0006436728872358799, -0.0005907523445785046, -0.0005378318601287901, -0.0004849113174714148, -0.0004319908330217004, -0.00037907029036432505, -0.00032614977681078017, -0.0002732292632572353, -0.00022030877880752087, -0.000167388265253976, -0.0001144677444244735, -6.1547223594971e-05, -8.626710041426122e-06, 4.4293818064033985e-05, 9.721433161757886e-05, 0.00015013484517112374, 0.00020305535872466862, 0.0002559758722782135, 0.0003088963858317584, 0.00036181689938530326, 0.0004147374420426786, 0.0004676579555962235, 0.0005205784691497684, 0.0005734990118071437, 0.0006264194962568581, 0.0006793400389142334, 0.0007322605233639479, 0.0007851810660213232, 0.0008381015504710376, 0.000891022093128413, 0.0009439425775781274, 0.0009968631202355027, 0.001049783662892878, 0.0011027042055502534, 0.0011556247482076287, 0.0012085451744496822, 0.0012614657171070576, 0.001314386259764433, 0.0013673068024218082, 0.0014202273450791836, 0.001473147771321237]}, "gradients/graph_1mlp.0.weight": {"_type": "histogram", "values": [4.0, 0.0, 0.0, 4.0, 1.0, 0.0, 0.0, 0.0, 2.0, 3.0, 2.0, 2.0, 1.0, 0.0, 10.0, 7.0, 13.0, 9.0, 16.0, 26.0, 22.0, 25.0, 24.0, 27.0, 31.0, 35.0, 57.0, 74.0, 90.0, 146.0, 175.0, 253.0, 388.0, 1006.0, 762.0, 245.0, 184.0, 131.0, 99.0, 65.0, 56.0, 44.0, 32.0, 29.0, 34.0, 27.0, 18.0, 11.0, 7.0, 1.0, 9.0, 4.0, 1.0, 4.0, 1.0, 0.0, 0.0, 0.0, 3.0, 2.0, 0.0, 0.0, 1.0, 1.0], "bins": [-0.0019128291169181466, -0.0018565681530162692, -0.00180030707269907, -0.0017440461087971926, -0.0016877851448953152, -0.0016315241809934378, -0.0015752632170915604, -0.0015190021367743611, -0.0014627411728724837, -0.0014064802089706063, -0.001350219128653407, -0.0012939581647515297, -0.0012376972008496523, -0.0011814362369477749, -0.0011251752730458975, -0.0010689141927286983, -0.0010126532288268209, -0.0009563922649249434, -0.0009001312428154051, -0.0008438702207058668, -0.0007876092568039894, -0.000731348292902112, -0.0006750872707925737, -0.0006188262486830354, -0.000562565284781158, -0.0005063043208792806, -0.00045004329876974225, -0.0003937823057640344, -0.00033752131275832653, -0.00028126031975261867, -0.0002249993267469108, -0.00016873833374120295, -0.00011247734073549509, -5.621634772978723e-05, 4.46452759206295e-08, 5.630563828162849e-05, 0.00011256663128733635, 0.0001688276242930442, 0.00022508861729875207, 0.00028134961030445993, 0.0003376106033101678, 0.00039387159631587565, 0.0004501325893215835, 0.0005063936114311218, 0.0005626545753329992, 0.0006189155392348766, 0.000675176561344415, 0.0007314375834539533, 0.0007876985473558307, 0.0008439595112577081, 0.0009002205333672464, 0.0009564815554767847, 0.0010127425193786621, 0.0010690034832805395, 0.001125264447182417, 0.0011815255274996161, 0.0012377864914014935, 0.001294047455303371, 0.0013503085356205702, 0.0014065694995224476, 0.001462830463424325, 0.0015190914273262024, 0.0015753523912280798, 0.001631613471545279, 0.0016878744354471564]}, "gradients/rgb_fn.2.bias": {"_type": "histogram", "values": [1.0, 0.0, 0.0, 0.0, 0.0, 0.0, 0.0, 0.0, 0.0, 0.0, 0.0, 0.0, 0.0, 0.0, 0.0, 0.0, 0.0, 0.0, 0.0, 0.0, 0.0, 0.0, 0.0, 0.0, 0.0, 0.0, 0.0, 0.0, 0.0, 0.0, 0.0, 0.0, 0.0, 0.0, 0.0, 0.0, 0.0, 0.0, 0.0, 0.0, 0.0, 0.0, 0.0, 0.0, 0.0, 0.0, 0.0, 0.0, 0.0, 0.0, 0.0, 0.0, 0.0, 0.0, 0.0, 0.0, 0.0, 0.0, 1.0, 0.0, 0.0, 0.0, 0.0, 1.0], "bins": [4.5712076826021075e-05, 4.7065739636309445e-05, 4.8419402446597815e-05, 4.9773065256886184e-05, 5.1126728067174554e-05, 5.2480390877462924e-05, 5.383405368775129e-05, 5.518771649803966e-05, 5.654137930832803e-05, 5.78950421186164e-05, 5.924870492890477e-05, 6.060236773919314e-05, 6.195603054948151e-05, 6.330969335976988e-05, 6.466335617005825e-05, 6.601701898034662e-05, 6.737068179063499e-05, 6.872434460092336e-05, 7.007800741121173e-05, 7.14316702215001e-05, 7.278533303178847e-05, 7.413899584207684e-05, 7.549265865236521e-05, 7.684632146265358e-05, 7.819998427294195e-05, 7.955364708323032e-05, 8.090730989351869e-05, 8.226097270380706e-05, 8.361463551409543e-05, 8.49682983243838e-05, 8.632196113467216e-05, 8.767562394496053e-05, 8.90292867552489e-05, 9.038294956553727e-05, 9.173661237582564e-05, 9.309027518611401e-05, 9.444393799640238e-05, 9.579760080669075e-05, 9.715126361697912e-05, 9.850492642726749e-05, 9.985858923755586e-05, 0.00010121225204784423, 0.0001025659148581326, 0.00010391957766842097, 0.00010527324047870934, 0.00010662690328899771, 0.00010798056609928608, 0.00010933422890957445, 0.00011068789171986282, 0.00011204155453015119, 0.00011339521734043956, 0.00011474888015072793, 0.0001161025429610163, 0.00011745620577130467, 0.00011880986858159304, 0.0001201635313918814, 0.00012151719420216978, 0.00012287085701245815, 0.00012422451982274652, 0.00012557818263303488, 0.00012693184544332325, 0.00012828550825361162, 0.0001296391710639, 0.00013099283387418836, 0.00013234649668447673]}, "gradients/rgb_fn.2.weight": {"_type": "histogram", "values": [1.0, 0.0, 0.0, 0.0, 1.0, 0.0, 1.0, 0.0, 0.0, 2.0, 0.0, 3.0, 0.0, 2.0, 4.0, 3.0, 30.0, 282.0, 14.0, 8.0, 7.0, 1.0, 1.0, 1.0, 4.0, 1.0, 1.0, 1.0, 1.0, 4.0, 0.0, 3.0, 0.0, 0.0, 2.0, 1.0, 0.0, 1.0, 1.0, 0.0, 0.0, 0.0, 0.0, 0.0, 0.0, 0.0, 0.0, 0.0, 0.0, 0.0, 0.0, 1.0, 0.0, 0.0, 0.0, 0.0, 0.0, 0.0, 0.0, 0.0, 1.0, 0.0, 0.0, 1.0], "bins": [-0.00024024650338105857, -0.0002261773042846471, -0.00021210810518823564, -0.0001980389206437394, -0.00018396972154732794, -0.00016990052245091647, -0.00015583133790642023, -0.00014176213881000876, -0.0001276929397135973, -0.00011362374061718583, -9.955454879673198e-05, -8.548535697627813e-05, -7.141615787986666e-05, -5.734695878345519e-05, -4.327776696300134e-05, -2.9208575142547488e-05, -1.5139376046136022e-05, -1.0701805877033621e-06, 1.2999014870729297e-05, 2.7068210329161957e-05, 4.1137405787594616e-05, 5.520660488400608e-05, 6.927579670445994e-05, 8.334498852491379e-05, 9.741418762132525e-05, 0.00011148338671773672, 0.0001255525858141482, 0.00013962177035864443, 0.0001536909694550559, 0.00016776016855146736, 0.0001818293530959636, 0.00019589855219237506, 0.000209967780392617, 0.00022403697948902845, 0.00023810617858543992, 0.0002521753776818514, 0.00026624457677826285, 0.0002803137758746743, 0.00029438294586725533, 0.0003084521449636668, 0.00032252134406007826, 0.00033659054315648973, 0.0003506597422529012, 0.00036472894134931266, 0.0003787981113418937, 0.00039286731043830514, 0.0004069365095347166, 0.00042100570863112807, 0.00043507490772753954, 0.000449144106823951, 0.00046321330592036247, 0.00047728250501677394, 0.0004913517041131854, 0.0005054209032095969, 0.0005194901023060083, 0.0005335592431947589, 0.0005476285004988313, 0.0005616976995952427, 0.0005757668986916542, 0.0005898360977880657, 0.0006039052968844771, 0.0006179744959808886, 0.0006320436950773001, 0.0006461128359660506, 0.0006601820350624621]}, "gradients/rgb_fn.0.bias": {"_type": "histogram", "values": [1.0, 0.0, 0.0, 0.0, 0.0, 0.0, 0.0, 0.0, 0.0, 0.0, 0.0, 0.0, 0.0, 0.0, 0.0, 0.0, 0.0, 0.0, 0.0, 0.0, 0.0, 0.0, 0.0, 0.0, 0.0, 0.0, 0.0, 0.0, 0.0, 0.0, 0.0, 0.0, 2.0, 0.0, 0.0, 3.0, 0.0, 2.0, 3.0, 7.0, 27.0, 57.0, 10.0, 6.0, 4.0, 1.0, 0.0, 0.0, 0.0, 0.0, 1.0, 1.0, 0.0, 1.0, 1.0, 0.0, 0.0, 0.0, 0.0, 0.0, 0.0, 0.0, 0.0, 1.0], "bins": [-5.0724400352919474e-05, -4.949400317855179e-05, -4.8263602366205305e-05, -4.7033205191837624e-05, -4.580280801746994e-05, -4.457241084310226e-05, -4.334201366873458e-05, -4.211161285638809e-05, -4.088121568202041e-05, -3.965081850765273e-05, -3.842041769530624e-05, -3.719002052093856e-05, -3.595962334657088e-05, -3.47292261722032e-05, -3.349882899783552e-05, -3.226842818548903e-05, -3.103803101112135e-05, -2.9807633836753666e-05, -2.8577234843396582e-05, -2.7346835850039497e-05, -2.6116438675671816e-05, -2.4886041501304135e-05, -2.365564250794705e-05, -2.2425243514589965e-05, -2.1194846340222284e-05, -1.9964449165854603e-05, -1.873405017249752e-05, -1.7503651179140434e-05, -1.6273254004772753e-05, -1.504285592091037e-05, -1.3812457837047987e-05, -1.2582059753185604e-05, -1.1351665307302028e-05, -1.0121267223439645e-05, -8.890869139577262e-06, -7.66047105571488e-06, -6.430072971852496e-06, -5.199674887990113e-06, -3.9692768041277304e-06, -2.7388787202653475e-06, -1.5084806364029646e-06, -2.7808255254058167e-07, 9.523155313218012e-07, 2.182713615184184e-06, 3.413111699046567e-06, 4.64350978290895e-06, 5.873907866771333e-06, 7.104305950633716e-06, 8.334704034496099e-06, 9.565102118358482e-06, 1.0795500202220865e-05, 1.2025898286083248e-05, 1.325629636994563e-05, 1.4486694453808013e-05, 1.5717092537670396e-05, 1.694749153102748e-05, 1.8177888705395162e-05, 1.9408285879762843e-05, 2.0638684873119928e-05, 2.1869083866477013e-05, 2.3099481040844694e-05, 2.4329878215212375e-05, 2.556027720856946e-05, 2.6790676201926544e-05, 2.8021073376294225e-05]}, "gradients/rgb_fn.0.weight": {"_type": "histogram", "values": [1.0, 0.0, 0.0, 0.0, 1.0, 0.0, 0.0, 0.0, 0.0, 0.0, 0.0, 1.0, 0.0, 0.0, 2.0, 0.0, 2.0, 3.0, 0.0, 4.0, 1.0, 7.0, 9.0, 10.0, 18.0, 41.0, 60.0, 242.0, 18893.0, 1081.0, 116.0, 48.0, 28.0, 9.0, 9.0, 2.0, 5.0, 3.0, 3.0, 1.0, 0.0, 1.0, 1.0, 0.0, 0.0, 1.0, 1.0, 0.0, 1.0, 0.0, 1.0, 1.0, 0.0, 0.0, 0.0, 0.0, 0.0, 0.0, 0.0, 0.0, 0.0, 0.0, 0.0, 1.0], "bins": [-0.00028777573606930673, -0.00027776777278631926, -0.00026775983860716224, -0.0002577519044280052, -0.00024774394114501774, -0.0002377359924139455, -0.00022772804368287325, -0.000217720094951801, -0.00020771214622072875, -0.0001977041974896565, -0.00018769624875858426, -0.00017768830002751201, -0.00016768035129643977, -0.00015767240256536752, -0.00014766445383429527, -0.00013765650510322303, -0.00012764855637215078, -0.00011764060764107853, -0.00010763265891000628, -9.762471017893404e-05, -8.761676144786179e-05, -7.760881271678954e-05, -6.76008639857173e-05, -5.759291525464505e-05, -4.75849665235728e-05, -3.7577017792500556e-05, -2.756906906142831e-05, -1.756112033035606e-05, -7.5531715992838144e-06, 2.4547771317884326e-06, 1.246272586286068e-05, 2.2470674593932927e-05, 3.247859422117472e-05, 4.2486542952246964e-05, 5.249449168331921e-05, 6.250244041439146e-05, 7.25103891454637e-05, 8.251833787653595e-05, 9.25262866076082e-05, 0.00010253423533868045, 0.00011254218406975269, 0.00012255013280082494, 0.0001325580815318972, 0.00014256603026296943, 0.00015257397899404168, 0.00016258192772511393, 0.00017258987645618618, 0.00018259782518725842, 0.00019260577391833067, 0.00020261372264940292, 0.00021262167138047516, 0.0002226296201115474, 0.00023263756884261966, 0.0002426455175736919, 0.00025265346630476415, 0.0002626614295877516, 0.00027266936376690865, 0.00028267729794606566, 0.00029268526122905314, 0.0003026932245120406, 0.00031270115869119763, 0.00032270909287035465, 0.00033271705615334213, 0.0003427250194363296, 0.0003527329536154866]}, "gradients/density_fn.0.bias": {"_type": "histogram", "values": [1.0], "bins": [-6.807651516282931e-05, -6.807651516282931e-05]}, "gradients/density_fn.0.weight": {"_type": "histogram", "values": [2.0, 0.0, 0.0, 1.0, 0.0, 0.0, 0.0, 1.0, 1.0, 0.0, 1.0, 1.0, 3.0, 0.0, 0.0, 1.0, 0.0, 4.0, 1.0, 2.0, 1.0, 6.0, 6.0, 6.0, 7.0, 7.0, 8.0, 10.0, 3.0, 10.0, 8.0, 4.0, 6.0, 5.0, 3.0, 1.0, 2.0, 2.0, 3.0, 0.0, 1.0, 1.0, 2.0, 1.0, 1.0, 1.0, 2.0, 1.0, 0.0, 0.0, 0.0, 0.0, 0.0, 1.0, 0.0, 0.0, 0.0, 0.0, 0.0, 0.0, 0.0, 0.0, 0.0, 1.0], "bins": [-5.278151002130471e-05, -5.0727612688206136e-05, -4.867371535510756e-05, -4.6619818022008985e-05, -4.45659170509316e-05, -4.251201971783303e-05, -4.045812238473445e-05, -3.8404225051635876e-05, -3.63503277185373e-05, -3.4296430385438725e-05, -3.224253305234015e-05, -3.018863390025217e-05, -2.8134734748164192e-05, -2.6080837415065616e-05, -2.402694008196704e-05, -2.1973042748868465e-05, -1.9919141777791083e-05, -1.7865244444692507e-05, -1.581134529260453e-05, -1.3757447959505953e-05, -1.1703549716912676e-05, -9.649651474319398e-06, -7.595754141220823e-06, -5.541855898627546e-06, -3.4879576560342684e-06, -1.4340596408146666e-06, 6.198383744049352e-07, 2.6737361622508615e-06, 4.727634404844139e-06, 6.781532647437416e-06, 8.835429980535991e-06, 1.0889328223129269e-05, 1.2943222827743739e-05, 1.4997121070337016e-05, 1.7051019312930293e-05, 1.910491664602887e-05, 2.1158815798116848e-05, 2.3212713131215423e-05, 2.5266610464314e-05, 2.7320507797412574e-05, 2.9374406949500553e-05, 3.142830610158853e-05, 3.348220343468711e-05, 3.553610076778568e-05, 3.758999810088426e-05, 3.964389907196164e-05, 4.169779276708141e-05, 4.375169373815879e-05, 4.580559107125737e-05, 4.785948840435594e-05, 4.991338573745452e-05, 5.1967283070553094e-05, 5.402118404163048e-05, 5.607508137472905e-05, 5.812897870782763e-05, 6.01828760409262e-05, 6.223677337402478e-05, 6.429067434510216e-05, 6.634456804022193e-05, 6.839846901129931e-05, 7.045236270641908e-05, 7.250626367749646e-05, 7.456015737261623e-05, 7.661405834369361e-05, 7.8667959314771e-05]}, "gradients/feature_fn.2.bias": {"_type": "histogram", "values": [1.0, 3.0, 1.0, 0.0, 0.0, 0.0, 1.0, 0.0, 0.0, 0.0, 0.0, 1.0, 2.0, 0.0, 2.0, 1.0, 2.0, 4.0, 4.0, 3.0, 4.0, 10.0, 12.0, 19.0, 12.0, 12.0, 6.0, 6.0, 2.0, 5.0, 0.0, 0.0, 0.0, 0.0, 1.0, 2.0, 2.0, 1.0, 0.0, 0.0, 0.0, 1.0, 0.0, 2.0, 0.0, 0.0, 1.0, 0.0, 0.0, 0.0, 0.0, 0.0, 2.0, 1.0, 0.0, 0.0, 0.0, 0.0, 0.0, 0.0, 0.0, 1.0, 0.0, 1.0], "bins": [-6.400473648682237e-05, -6.131005648057908e-05, -5.861537647433579e-05, -5.59206964680925e-05, -5.322601646184921e-05, -5.0531336455605924e-05, -4.783666008734144e-05, -4.5141980081098154e-05, -4.2447300074854866e-05, -3.975262006861158e-05, -3.705794006236829e-05, -3.436326369410381e-05, -3.166858368786052e-05, -2.8973901862627827e-05, -2.627922367537394e-05, -2.3584543669130653e-05, -2.0889863662887365e-05, -1.8195183656644076e-05, -1.5500503650400788e-05, -1.2805825463146903e-05, -1.0111145456903614e-05, -7.416465450660326e-06, -4.721787263406441e-06, -2.027107257163152e-06, 6.675727490801364e-07, 3.362252300576074e-06, 6.056931852072012e-06, 8.751610948820598e-06, 1.1446290955063887e-05, 1.4140970961307175e-05, 1.683564914856106e-05, 1.953032915480435e-05, 2.2225001885090023e-05, 2.4919681891333312e-05, 2.76143618975766e-05, 3.0309040084830485e-05, 3.300372191006318e-05, 3.5698401916306466e-05, 3.839307828457095e-05, 4.1087758290814236e-05, 4.3782438297057524e-05, 4.647711830330081e-05, 4.91717983095441e-05, 5.186647467780858e-05, 5.456115468405187e-05, 5.725583469029516e-05, 5.995051469653845e-05, 6.264519470278174e-05, 6.533987470902503e-05, 6.803455471526831e-05, 7.07292347215116e-05, 7.342391472775489e-05, 7.611859473399818e-05, 7.881327474024147e-05, 8.150795474648476e-05, 8.420263475272804e-05, 8.689731475897133e-05, 8.959199476521462e-05, 9.228667477145791e-05, 9.49813547777012e-05, 9.767603478394449e-05, 0.00010037071479018778, 0.00010306539479643106, 0.00010576007480267435, 0.00010845474753296003]}, "gradients/feature_fn.2.weight": {"_type": "histogram", "values": [1.0, 3.0, 1.0, 1.0, 0.0, 0.0, 0.0, 0.0, 1.0, 2.0, 1.0, 5.0, 4.0, 2.0, 5.0, 6.0, 7.0, 3.0, 12.0, 31.0, 34.0, 48.0, 103.0, 238.0, 674.0, 5085.0, 8919.0, 715.0, 229.0, 96.0, 54.0, 32.0, 18.0, 13.0, 10.0, 2.0, 4.0, 4.0, 4.0, 3.0, 0.0, 4.0, 1.0, 0.0, 1.0, 2.0, 0.0, 0.0, 0.0, 0.0, 0.0, 1.0, 0.0, 0.0, 2.0, 0.0, 1.0, 0.0, 0.0, 0.0, 0.0, 1.0, 0.0, 1.0], "bins": [-8.156537660397589e-05, -7.843611820135266e-05, -7.530685979872942e-05, -7.217760139610618e-05, -6.904834299348295e-05, -6.591908459085971e-05, -6.278982618823647e-05, -5.9660571423592046e-05, -5.653131302096881e-05, -5.3402054618345574e-05, -5.027279621572234e-05, -4.714354145107791e-05, -4.401428304845467e-05, -4.0885024645831436e-05, -3.77557662432082e-05, -3.4626507840584964e-05, -3.149724943796173e-05, -2.836799103533849e-05, -2.5238732632715255e-05, -2.2109476049081422e-05, -1.8980217646458186e-05, -1.585095924383495e-05, -1.2721702660201117e-05, -9.592444257577881e-06, -6.463185854954645e-06, -3.3339279070787597e-06, -2.0466995920287445e-07, 2.92458753392566e-06, 6.053845936548896e-06, 9.183104339172132e-06, 1.2312360922805965e-05, 1.54416193254292e-05, 1.8570870452094823e-05, 2.170012885471806e-05, 2.4829387257341295e-05, 2.7958643840975128e-05, 3.108790406258777e-05, 3.4217162465211004e-05, 3.734641722985543e-05, 4.047567563247867e-05, 4.3604934035101905e-05, 4.673419243772514e-05, 4.986345084034838e-05, 5.299270560499281e-05, 5.612196400761604e-05, 5.925122241023928e-05, 6.238048081286252e-05, 6.550973921548575e-05, 6.863899761810899e-05, 7.176825602073222e-05, 7.489751442335546e-05, 7.80267728259787e-05, 8.115603122860193e-05, 8.428528963122517e-05, 8.74145480338484e-05, 9.054380643647164e-05, 9.367306483909488e-05, 9.680232324171811e-05, 9.993158164434135e-05, 0.00010306084004696459, 0.00010619009844958782, 0.00010931935685221106, 0.0001124486152548343, 0.00011557787365745753, 0.00011870712478412315]}, "gradients/feature_fn.0.bias": {"_type": "histogram", "values": [1.0, 0.0, 0.0, 0.0, 0.0, 0.0, 0.0, 0.0, 0.0, 0.0, 0.0, 0.0, 0.0, 0.0, 1.0, 0.0, 0.0, 0.0, 1.0, 1.0, 0.0, 0.0, 1.0, 0.0, 1.0, 0.0, 1.0, 2.0, 2.0, 5.0, 7.0, 4.0, 11.0, 10.0, 11.0, 24.0, 18.0, 6.0, 5.0, 5.0, 4.0, 2.0, 0.0, 1.0, 0.0, 1.0, 0.0, 0.0, 0.0, 0.0, 1.0, 0.0, 0.0, 0.0, 1.0, 0.0, 0.0, 0.0, 0.0, 0.0, 0.0, 0.0, 0.0, 1.0], "bins": [-9.201073407894e-05, -8.943489228840917e-05, -8.685905049787834e-05, -8.428320870734751e-05, -8.170736691681668e-05, -7.913152512628585e-05, -7.655568333575502e-05, -7.397984154522419e-05, -7.140399975469336e-05, -6.882815796416253e-05, -6.62523161736317e-05, -6.367647438310087e-05, -6.110063259257004e-05, -5.8524790802039206e-05, -5.5948949011508375e-05, -5.3373107220977545e-05, -5.079726906842552e-05, -4.822142727789469e-05, -4.564558548736386e-05, -4.306974369683303e-05, -4.04939019063022e-05, -3.791806011577137e-05, -3.5342221963219345e-05, -3.2766380172688514e-05, -3.019053656316828e-05, -2.761469477263745e-05, -2.503885298210662e-05, -2.246301301056519e-05, -1.988717122003436e-05, -1.731132942950353e-05, -1.47354876389727e-05, -1.2159645848441869e-05, -9.583804057911038e-06, -7.007962267380208e-06, -4.432120931596728e-06, -1.8562795958132483e-06, 7.195621947175823e-07, 3.295403985248413e-06, 5.871244866284542e-06, 8.447086656815372e-06, 1.1022928447346203e-05, 1.3598770237877034e-05, 1.6174612028407864e-05, 1.875045199994929e-05, 2.1326293790480122e-05, 2.3902135581010953e-05, 2.6477977371541783e-05, 2.9053819162072614e-05, 3.1629660952603444e-05, 3.4205502743134275e-05, 3.6781344533665106e-05, 3.9357186324195936e-05, 4.193302811472677e-05, 4.45088699052576e-05, 4.708470805780962e-05, 4.966054984834045e-05, 5.223639163887128e-05, 5.481223342940211e-05, 5.7388075219932944e-05, 5.9963917010463774e-05, 6.25397588009946e-05, 6.511560059152544e-05, 6.769144238205627e-05, 7.02672841725871e-05, 7.284312596311793e-05]}, "gradients/feature_fn.0.weight": {"_type": "histogram", "values": [1.0, 1.0, 1.0, 0.0, 1.0, 2.0, 0.0, 3.0, 1.0, 0.0, 1.0, 5.0, 1.0, 1.0, 1.0, 4.0, 3.0, 6.0, 8.0, 6.0, 7.0, 6.0, 19.0, 14.0, 16.0, 23.0, 30.0, 54.0, 109.0, 147.0, 258.0, 520.0, 1330.0, 14628.0, 2141.0, 547.0, 276.0, 146.0, 76.0, 41.0, 38.0, 23.0, 21.0, 19.0, 10.0, 9.0, 9.0, 13.0, 2.0, 6.0, 2.0, 3.0, 2.0, 4.0, 5.0, 3.0, 1.0, 1.0, 0.0, 0.0, 0.0, 0.0, 1.0, 2.0], "bins": [-0.00012064242037013173, -0.00011706517398124561, -0.0001134879348683171, -0.00010991068847943097, -0.00010633344936650246, -0.00010275620297761634, -9.917895658873022e-05, -9.56017174758017e-05, -9.202447108691558e-05, -8.844722469802946e-05, -8.486998558510095e-05, -8.129273919621482e-05, -7.77154928073287e-05, -7.413825369440019e-05, -7.056100730551407e-05, -6.698376091662794e-05, -6.340652180369943e-05, -5.982927905279212e-05, -5.62520363018848e-05, -5.2674789912998676e-05, -4.909754716209136e-05, -4.552030441118404e-05, -4.194305802229792e-05, -3.83658152713906e-05, -3.4788572520483285e-05, -3.121132976957597e-05, -2.7634085199679248e-05, -2.4056840629782528e-05, -2.047959787887521e-05, -1.6902355127967894e-05, -1.3325110558071174e-05, -9.747865988174453e-06, -6.170630513224751e-06, -2.593386852822732e-06, 9.838568075792864e-07, 4.561100467981305e-06, 8.138344128383324e-06, 1.171558687929064e-05, 1.529283144918736e-05, 1.887007601908408e-05, 2.2447318769991398e-05, 2.6024561520898715e-05, 2.9601806090795435e-05, 3.3179050660692155e-05, 3.675629341159947e-05, 4.033353616250679e-05, 4.391078255139291e-05, 4.748802530230023e-05, 5.1065268053207546e-05, 5.464251080411486e-05, 5.821975355502218e-05, 6.17969999439083e-05, 6.537424633279443e-05, 6.895148544572294e-05, 7.252873183460906e-05, 7.610597822349519e-05, 7.96832173364237e-05, 8.326046372530982e-05, 8.683770283823833e-05, 9.041494922712445e-05, 9.399218834005296e-05, 9.756943472893909e-05, 0.00010114668111782521, 0.00010472392023075372, 0.00010830116661963984]}, "gradients/mlp.6.bias": {"_type": "histogram", "values": [1.0, 0.0, 0.0, 0.0, 0.0, 2.0, 0.0, 0.0, 1.0, 0.0, 0.0, 1.0, 1.0, 2.0, 1.0, 1.0, 2.0, 1.0, 1.0, 3.0, 2.0, 4.0, 5.0, 3.0, 8.0, 12.0, 15.0, 25.0, 5.0, 7.0, 5.0, 3.0, 2.0, 2.0, 1.0, 1.0, 1.0, 1.0, 1.0, 1.0, 0.0, 0.0, 0.0, 1.0, 1.0, 0.0, 0.0, 1.0, 0.0, 2.0, 0.0, 0.0, 0.0, 1.0, 0.0, 0.0, 0.0, 0.0, 0.0, 0.0, 0.0, 0.0, 0.0, 1.0], "bins": [-8.402422099607065e-05, -8.092715142993256e-05, -7.783008186379448e-05, -7.473301229765639e-05, -7.163593545556068e-05, -6.85388658894226e-05, -6.544179632328451e-05, -6.234472675714642e-05, -5.924765719100833e-05, -5.615058762487024e-05, -5.305351805873215e-05, -4.9956444854615256e-05, -4.685937528847717e-05, -4.376230572233908e-05, -4.066523251822218e-05, -3.7568162952084094e-05, -3.4471093385946006e-05, -3.137402381980792e-05, -2.8276952434680425e-05, -2.5179881049552932e-05, -2.2082811483414844e-05, -1.8985741917276755e-05, -1.5888670532149263e-05, -1.279159914702177e-05, -9.694529580883682e-06, -6.597459105250891e-06, -3.500388629618101e-06, -4.0331815398531035e-07, 2.69375232164748e-06, 5.790821887785569e-06, 8.887893272913061e-06, 1.1984964658040553e-05, 1.5082041500136256e-05, 1.8179111066274345e-05, 2.1276182451401837e-05, 2.437325383652933e-05, 2.7470323402667418e-05, 3.056739296880551e-05, 3.36644661729224e-05, 3.676153573906049e-05, 3.985860530519858e-05, 4.295567487133667e-05, 4.605274443747476e-05, 4.914981764159165e-05, 5.224688720772974e-05, 5.534395677386783e-05, 5.8441029977984726e-05, 6.153809954412282e-05, 6.46351691102609e-05, 6.773223867639899e-05, 7.082930824253708e-05, 7.392637780867517e-05, 7.702344737481326e-05, 8.012051694095135e-05, 8.321759378304705e-05, 8.631466334918514e-05, 8.941173291532323e-05, 9.250880248146132e-05, 9.56058720475994e-05, 9.87029416137375e-05, 0.0001018000184558332, 0.00010489708802197129, 0.00010799415758810937, 0.00011109122715424746, 0.00011418829672038555]}, "gradients/mlp.6.weight": {"_type": "histogram", "values": [1.0, 0.0, 0.0, 0.0, 0.0, 0.0, 0.0, 0.0, 0.0, 0.0, 2.0, 0.0, 1.0, 0.0, 1.0, 0.0, 3.0, 3.0, 4.0, 1.0, 6.0, 10.0, 11.0, 8.0, 16.0, 22.0, 36.0, 52.0, 49.0, 121.0, 172.0, 340.0, 738.0, 9316.0, 4257.0, 540.0, 241.0, 123.0, 77.0, 48.0, 43.0, 29.0, 20.0, 11.0, 15.0, 7.0, 13.0, 7.0, 9.0, 9.0, 1.0, 4.0, 3.0, 0.0, 4.0, 2.0, 1.0, 2.0, 0.0, 1.0, 0.0, 2.0, 1.0, 1.0], "bins": [-8.995736425276846e-05, -8.731065463507548e-05, -8.466395229334012e-05, -8.201724267564714e-05, -7.937054033391178e-05, -7.67238307162188e-05, -7.407712837448344e-05, -7.143041875679046e-05, -6.87837164150551e-05, -6.613700679736212e-05, -6.349030445562676e-05, -6.0843598475912586e-05, -5.8196892496198416e-05, -5.5550186516484246e-05, -5.2903480536770076e-05, -5.02567709190771e-05, -4.761006493936293e-05, -4.496335895964876e-05, -4.231665297993459e-05, -3.966994700022042e-05, -3.702324102050625e-05, -3.437653504079208e-05, -3.17298254230991e-05, -2.9083121262374334e-05, -2.6436415282660164e-05, -2.3789709302945994e-05, -2.1143003323231824e-05, -1.849629552452825e-05, -1.584958954481408e-05, -1.3202884474594612e-05, -1.055617758538574e-05, -7.90947160567157e-06, -5.2627656259574e-06, -2.616059418869554e-06, 3.0646788218291476e-08, 2.6773532226798125e-06, 5.3240592023939826e-06, 7.970765182108153e-06, 1.0617472071317025e-05, 1.3264178051031195e-05, 1.5910884030745365e-05, 1.8557590010459535e-05, 2.1204295990173705e-05, 2.385100378887728e-05, 2.649770976859145e-05, 2.914441574830562e-05, 3.179112172801979e-05, 3.443782770773396e-05, 3.708453368744813e-05, 3.97312396671623e-05, 4.237794564687647e-05, 4.502465162659064e-05, 4.767135760630481e-05, 5.031806358601898e-05, 5.296477320371196e-05, 5.561147554544732e-05, 5.82581851631403e-05, 6.090489114285447e-05, 6.355159712256864e-05, 6.619830674026161e-05, 6.884500908199698e-05, 7.149171869968995e-05, 7.413842104142532e-05, 7.67851306591183e-05, 7.943183300085366e-05]}, "gradients/mlp.4.bias": {"_type": "histogram", "values": [1.0, 0.0, 0.0, 0.0, 0.0, 0.0, 0.0, 0.0, 0.0, 0.0, 0.0, 0.0, 1.0, 0.0, 0.0, 0.0, 1.0, 0.0, 0.0, 0.0, 0.0, 0.0, 1.0, 0.0, 0.0, 1.0, 3.0, 3.0, 10.0, 9.0, 17.0, 19.0, 19.0, 11.0, 7.0, 5.0, 5.0, 4.0, 2.0, 1.0, 0.0, 1.0, 1.0, 1.0, 1.0, 0.0, 0.0, 1.0, 0.0, 1.0, 0.0, 0.0, 0.0, 1.0, 0.0, 0.0, 0.0, 0.0, 0.0, 0.0, 0.0, 0.0, 0.0, 1.0], "bins": [-0.00023152156791184098, -0.00022427988005802035, -0.0002170381776522845, -0.00020979648979846388, -0.00020255480194464326, -0.0001953130995389074, -0.0001880714116850868, -0.00018082972383126616, -0.00017358802142553031, -0.0001663463335717097, -0.00015910463116597384, -0.00015186294331215322, -0.00014462124090641737, -0.00013737955305259675, -0.00013013786519877613, -0.00012289616279304028, -0.00011565447493921965, -0.00010841277980944142, -0.00010117108467966318, -9.392939682584256e-05, -8.668770169606432e-05, -7.944600656628609e-05, -7.220431871246547e-05, -6.496262358268723e-05, -5.772092845290899e-05, -5.047923332313076e-05, -4.323754183133133e-05, -3.59958503395319e-05, -2.8754155209753662e-05, -2.1512460079975426e-05, -1.4270768588175997e-05, -7.029077096376568e-06, 2.1263258531689644e-07, 7.454325896105729e-06, 1.4696019206894562e-05, 2.1937712517683394e-05, 2.9179405828472227e-05, 3.642110095825046e-05, 4.366279245004989e-05, 5.090448394184932e-05, 5.814617907162756e-05, 6.53878742014058e-05, 7.262956933118403e-05, 7.987125718500465e-05, 8.711295231478289e-05, 9.435464744456112e-05, 0.00010159633529838175, 0.00010883803042815998, 0.00011607972555793822, 0.00012332141341175884, 0.0001305631158174947, 0.0001378048036713153, 0.00014504650607705116, 0.00015228819393087178, 0.0001595298817846924, 0.00016677158419042826, 0.00017401327204424888, 0.0001812549598980695, 0.00018849666230380535, 0.00019573835015762597, 0.0002029800380114466, 0.00021022174041718245, 0.00021746342827100307, 0.0002247051161248237, 0.00023194681853055954]}, "gradients/mlp.4.weight": {"_type": "histogram", "values": [1.0, 0.0, 0.0, 0.0, 1.0, 1.0, 0.0, 1.0, 0.0, 1.0, 0.0, 0.0, 1.0, 2.0, 3.0, 1.0, 1.0, 4.0, 2.0, 4.0, 2.0, 2.0, 5.0, 5.0, 5.0, 9.0, 13.0, 15.0, 37.0, 71.0, 169.0, 374.0, 1622.0, 12019.0, 1142.0, 367.0, 194.0, 107.0, 51.0, 35.0, 24.0, 17.0, 20.0, 8.0, 7.0, 7.0, 8.0, 2.0, 7.0, 3.0, 2.0, 1.0, 3.0, 3.0, 0.0, 1.0, 0.0, 0.0, 0.0, 2.0, 1.0, 0.0, 0.0, 1.0], "bins": [-0.00021282496163621545, -0.00020646511984523386, -0.00020010527805425227, -0.0001937454508151859, -0.00018738560902420431, -0.00018102576723322272, -0.00017466592544224113, -0.00016830608365125954, -0.00016194625641219318, -0.0001555864146212116, -0.00014922657283023, -0.00014286674559116364, -0.00013650690380018204, -0.00013014706200920045, -0.00012378722021821886, -0.00011742738570319489, -0.0001110675439122133, -0.0001047077021212317, -9.834786760620773e-05, -9.198802581522614e-05, -8.562819130020216e-05, -7.926834950922057e-05, -7.29085149941966e-05, -6.6548673203215e-05, -6.018883505021222e-05, -5.3828996897209436e-05, -4.746915874420665e-05, -4.110932059120387e-05, -3.474947880022228e-05, -2.8389640647219494e-05, -2.202980249421671e-05, -1.5669964341213927e-05, -9.310126188211143e-06, -2.9502875804610085e-06, 3.409551027289126e-06, 9.769390089786611e-06, 1.6129228242789395e-05, 2.2489068214781582e-05, 2.8848906367784366e-05, 3.520874452078715e-05, 4.156858267378993e-05, 4.792842082679272e-05, 5.42882589797955e-05, 6.0648097132798284e-05, 6.700793892377988e-05, 7.336777343880385e-05, 7.972761522978544e-05, 8.608745702076703e-05, 9.244729153579101e-05, 9.88071333267726e-05, 0.00010516696784179658, 0.00011152680963277817, 0.00011788664414780214, 0.00012424649321474135, 0.0001306063204538077, 0.0001369661622447893, 0.0001433260040357709, 0.00014968584582675248, 0.00015604568761773407, 0.00016240551485680044, 0.00016876535664778203, 0.00017512519843876362, 0.0001814850402297452, 0.0001878448820207268, 0.00019420470925979316]}, "gradients/mlp.2.bias": {"_type": "histogram", "values": [1.0, 2.0, 0.0, 0.0, 1.0, 0.0, 1.0, 1.0, 0.0, 0.0, 0.0, 3.0, 4.0, 1.0, 5.0, 3.0, 2.0, 5.0, 13.0, 14.0, 21.0, 15.0, 8.0, 5.0, 3.0, 3.0, 1.0, 1.0, 2.0, 0.0, 2.0, 2.0, 2.0, 1.0, 0.0, 0.0, 1.0, 0.0, 1.0, 0.0, 0.0, 1.0, 0.0, 0.0, 0.0, 0.0, 0.0, 1.0, 0.0, 0.0, 0.0, 0.0, 0.0, 0.0, 0.0, 1.0, 0.0, 0.0, 0.0, 0.0, 0.0, 0.0, 0.0, 1.0], "bins": [-0.00029039185028523207, -0.00027619340107776225, -0.0002619949809741229, -0.00024779653176665306, -0.00023359808255918324, -0.00021939964790362865, -0.00020520121324807405, -0.00019100276404060423, -0.0001768043148331344, -0.00016260588017757982, -0.00014840743097011, -0.0001342089963145554, -0.00012001054710708559, -0.00010581211245153099, -9.161367052001879e-05, -7.741522858850658e-05, -6.321679393295199e-05, -4.901835200143978e-05, -3.481991006992757e-05, -2.0621471776394174e-05, -6.423029844881967e-06, 7.775408448651433e-06, 2.197385038016364e-05, 3.6172292311675847e-05, 5.037073424318805e-05, 6.456917617470026e-05, 7.876761810621247e-05, 9.296606003772467e-05, 0.00010716449469327927, 0.00012136293662479147, 0.00013556137855630368, 0.00014975981321185827, 0.0001639582624193281, 0.00017815669707488269, 0.0001923551462823525, 0.0002065535809379071, 0.00022075203014537692, 0.0002349504648009315, 0.0002491488994564861, 0.0002633473486639559, 0.00027754579787142575, 0.00029174424707889557, 0.00030594266718253493, 0.00032014111639000475, 0.0003343395655974746, 0.00034853798570111394, 0.00036273643490858376, 0.0003769348841160536, 0.00039113330421969295, 0.00040533175342716277, 0.00041953017353080213, 0.00043372862273827195, 0.00044792707194574177, 0.0004621255211532116, 0.00047632394125685096, 0.0004905223613604903, 0.0005047208396717906, 0.00051891925977543, 0.0005331177380867302, 0.0005473161581903696, 0.000561514578294009, 0.0005757130566053092, 0.0005899114767089486, 0.0006041099550202489, 0.0006183083751238883]}, "gradients/mlp.2.weight": {"_type": "histogram", "values": [2.0, 0.0, 0.0, 2.0, 2.0, 1.0, 6.0, 5.0, 2.0, 2.0, 1.0, 8.0, 9.0, 12.0, 17.0, 20.0, 27.0, 38.0, 45.0, 91.0, 169.0, 318.0, 794.0, 9486.0, 3798.0, 735.0, 292.0, 150.0, 91.0, 49.0, 42.0, 32.0, 22.0, 18.0, 9.0, 20.0, 8.0, 8.0, 10.0, 3.0, 6.0, 4.0, 5.0, 4.0, 3.0, 2.0, 0.0, 2.0, 3.0, 1.0, 1.0, 2.0, 0.0, 0.0, 1.0, 1.0, 1.0, 0.0, 1.0, 0.0, 1.0, 1.0, 0.0, 1.0], "bins": [-0.0003713463665917516, -0.00035584732540883124, -0.00034034825512208045, -0.0003248492139391601, -0.0003093501436524093, -0.000293851102469489, -0.00027835206128656864, -0.00026285299099981785, -0.00024735392071306705, -0.0002318548649782315, -0.00021635580924339592, -0.0002008567680604756, -0.0001853576977737248, -0.00016985865659080446, -0.0001543596008559689, -0.00013886054512113333, -0.000123361503938213, -0.00010786244820337743, -9.236339246854186e-05, -7.686434400966391e-05, -6.136528827482834e-05, -4.586623253999278e-05, -3.036718408111483e-05, -1.4868128346279263e-05, 6.309273885563016e-07, 1.6129981304402463e-05, 3.1629035220248625e-05, 4.712808731710538e-05, 6.262714305194095e-05, 7.812619878677651e-05, 9.362524724565446e-05, 0.00010912430298049003, 0.0001246233587153256, 0.00014012241445016116, 0.00015562147018499672, 0.00017112051136791706, 0.00018661958165466785, 0.0002021186228375882, 0.00021761767857242376, 0.00023311673430725932, 0.0002486158045940101, 0.00026411484577693045, 0.00027961391606368124, 0.0002951129572466016, 0.0003106120275333524, 0.0003261110687162727, 0.00034161010989919305, 0.00035710918018594384, 0.0003726082213688642, 0.0003881072625517845, 0.0004036063328385353, 0.00041910537402145565, 0.00043460444430820644, 0.0004501034854911268, 0.00046560255577787757, 0.0004811015969607979, 0.0004966006381437182, 0.000512099708430469, 0.0005275987205095589, 0.0005430977907963097, 0.0005585968610830605, 0.0005740959313698113, 0.0005895949434489012, 0.000605094013735652, 0.0006205930840224028]}, "gradients/mlp.0.bias": {"_type": "histogram", "values": [1.0, 0.0, 0.0, 0.0, 0.0, 0.0, 0.0, 0.0, 0.0, 0.0, 0.0, 0.0, 1.0, 0.0, 0.0, 2.0, 0.0, 0.0, 0.0, 0.0, 1.0, 1.0, 0.0, 2.0, 3.0, 3.0, 2.0, 5.0, 6.0, 12.0, 22.0, 17.0, 15.0, 4.0, 7.0, 3.0, 3.0, 1.0, 3.0, 0.0, 1.0, 3.0, 1.0, 0.0, 1.0, 0.0, 1.0, 3.0, 1.0, 1.0, 0.0, 1.0, 0.0, 0.0, 0.0, 0.0, 0.0, 0.0, 0.0, 0.0, 0.0, 0.0, 0.0, 1.0], "bins": [-0.001319307368248701, -0.001276799594052136, -0.0012342918198555708, -0.0011917841620743275, -0.0011492763878777623, -0.0011067686136811972, -0.0010642609558999538, -0.0010217531817033887, -0.0009792454075068235, -0.0009367376333102584, -0.0008942299173213542, -0.0008517222013324499, -0.0008092144271358848, -0.0007667066529393196, -0.0007241989369504154, -0.0006816912209615111, -0.000639183446764946, -0.0005966756725683808, -0.0005541679565794766, -0.0005116602405905724, -0.0004691524663940072, -0.0004266447213012725, -0.0003841369762085378, -0.0003416292311158031, -0.00029912148602306843, -0.00025661374093033373, -0.00021410599583759904, -0.00017159825074486434, -0.00012909050565212965, -8.658276055939496e-05, -4.407501546666026e-05, -1.5672703739255667e-06, 4.094047471880913e-05, 8.344821981154382e-05, 0.00012595596490427852, 0.0001684637099970132, 0.0002109714550897479, 0.0002534792001824826, 0.0002959869452752173, 0.000338494690367952, 0.0003810024354606867, 0.0004235101805534214, 0.00046601792564615607, 0.0005085256416350603, 0.0005510334158316255, 0.0005935411900281906, 0.0006360489060170949, 0.0006785566220059991, 0.0007210643962025642, 0.0007635721703991294, 0.0008060798863880336, 0.0008485876023769379, 0.000891095376573503, 0.0009336031507700682, 0.0009761108667589724, 0.0010186185827478766, 0.0010611263569444418, 0.001103634131141007, 0.001146141905337572, 0.0011886495631188154, 0.0012311573373153806, 0.0012736651115119457, 0.001316172769293189, 0.0013586805434897542, 0.0014011883176863194]}, "gradients/mlp.0.weight": {"_type": "histogram", "values": [5.0, 2.0, 1.0, 0.0, 0.0, 0.0, 0.0, 3.0, 1.0, 1.0, 5.0, 2.0, 3.0, 7.0, 4.0, 6.0, 8.0, 3.0, 10.0, 8.0, 19.0, 27.0, 26.0, 28.0, 37.0, 50.0, 69.0, 142.0, 193.0, 383.0, 871.0, 1089.0, 432.0, 197.0, 162.0, 78.0, 51.0, 55.0, 31.0, 29.0, 27.0, 33.0, 20.0, 15.0, 11.0, 10.0, 18.0, 14.0, 10.0, 6.0, 3.0, 4.0, 1.0, 3.0, 3.0, 0.0, 0.0, 0.0, 0.0, 1.0, 0.0, 1.0, 2.0, 4.0], "bins": [-0.0013208531308919191, -0.0012783787678927183, -0.0012359044048935175, -0.0011934300418943167, -0.001150955562479794, -0.0011084811994805932, -0.0010660068364813924, -0.0010235324734821916, -0.000981057994067669, -0.0009385836310684681, -0.0008961092098616064, -0.0008536348468624055, -0.0008111604256555438, -0.000768686062656343, -0.0007262116996571422, -0.0006837373366579413, -0.0006412629736587405, -0.0005987886106595397, -0.000556314189452678, -0.0005138398264534771, -0.00047136543435044587, -0.0004288910422474146, -0.00038641667924821377, -0.0003439422871451825, -0.0003014678950421512, -0.00025899350293911994, -0.00021651912538800389, -0.00017404474783688784, -0.00013157035573385656, -8.909596363082528e-05, -4.662160063162446e-05, -4.1472085285931826e-06, 3.832729998975992e-05, 8.080168481683359e-05, 0.00012327606964390725, 0.0001657504471950233, 0.00020822483929805458, 0.00025069923140108585, 0.0002931735944002867, 0.00033564798650331795, 0.00037812237860634923, 0.0004205967707093805, 0.0004630711628124118, 0.0005055455258116126, 0.0005480198888108134, 0.0005904943100176752, 0.000632968673016876, 0.0006754430942237377, 0.0007179174572229385, 0.0007603918202221394, 0.0008028662414290011, 0.0008453406044282019, 0.0008878150256350636, 0.0009302893886342645, 0.0009727637516334653, 0.0010152381146326661, 0.0010577125940471888, 0.0011001869570463896, 0.0011426613200455904, 0.0011851356830447912, 0.0012276101624593139, 0.0012700845254585147, 0.0013125588884577155, 0.0013550332514569163, 0.0013975076144561172]}}