{"total_loss": 0.0022265886224340646, "_timestamp": 1717784591.3474178, "rgb_loss": 0.0022265886224340646, "_runtime": 8213.287096738815, "_step": 63900, "Rendered Images": {"_type": "images/separated", "width": 256, "height": 256, "format": "png", "count": 5, "filenames": ["media/images/Rendered Images_60000_59a68ccad5c0400578bd.png", "media/images/Rendered Images_60000_f0680d4371573dc7f694.png", "media/images/Rendered Images_60000_9515fbd541a6c30e00b0.png", "media/images/Rendered Images_60000_169da147589b2530a355.png", "media/images/Rendered Images_60000_9a66bfdc25bdb8cec2ca.png"]}, "Ground-truth Images": {"_type": "images/separated", "width": 256, "height": 256, "format": "png", "count": 5, "filenames": ["media/images/Ground-truth Images_60008_6aad9247d295f72616dd.png", "media/images/Ground-truth Images_60008_4ad52892a9e769b86b93.png", "media/images/Ground-truth Images_60008_cbce75bc4170ecae982c.png", "media/images/Ground-truth Images_60008_fb9f03dba8fb3b263d73.png", "media/images/Ground-truth Images_60008_d8ffbb5546a3ba1c1b89.png"]}, "PSNR": 32.092689909327234, "Epoch": 7500, "gradients/graph_1lout.bias": {"_type": "histogram", "values": [1.0, 0.0, 0.0, 0.0, 0.0, 0.0, 0.0, 0.0, 0.0, 0.0, 0.0, 0.0, 0.0, 0.0, 0.0, 0.0, 0.0, 0.0, 0.0, 0.0, 0.0, 0.0, 0.0, 0.0, 0.0, 0.0, 0.0, 0.0, 0.0, 0.0, 0.0, 0.0, 0.0, 0.0, 0.0, 0.0, 0.0, 1.0, 0.0, 0.0, 0.0, 0.0, 0.0, 0.0, 0.0, 0.0, 0.0, 0.0, 0.0, 0.0, 0.0, 0.0, 0.0, 0.0, 0.0, 0.0, 0.0, 1.0, 0.0, 0.0, 0.0, 0.0, 0.0, 1.0], "bins": [1.5830953543627402e-06, 2.3527095436293166e-06, 3.1223235055222176e-06, 3.891937467415119e-06, 4.66155142930802e-06, 5.4311658459482715e-06, 6.2007798078411724e-06, 6.9703937697340734e-06, 7.740008186374325e-06, 8.509621693519875e-06, 9.279236110160127e-06, 1.004885052680038e-05, 1.081846403394593e-05, 1.1588078450586181e-05, 1.2357691957731731e-05, 1.3127306374371983e-05, 1.3896920791012235e-05, 1.4666534298157785e-05, 1.5436147805303335e-05, 1.6205762221943587e-05, 1.697537663858384e-05, 1.774499105522409e-05, 1.8514605471864343e-05, 1.9284219888504595e-05, 2.0053832486155443e-05, 2.0823446902795695e-05, 2.1593061319435947e-05, 2.23626757360762e-05, 2.313229015271645e-05, 2.39019027503673e-05, 2.467151716700755e-05, 2.5441131583647802e-05, 2.6210746000288054e-05, 2.6980360416928306e-05, 2.7749974833568558e-05, 2.8519587431219406e-05, 2.9289201847859658e-05, 3.005881626449991e-05, 3.082842886215076e-05, 3.159804327879101e-05, 3.236765769543126e-05, 3.3137272112071514e-05, 3.3906886528711766e-05, 3.467650094535202e-05, 3.544611536199227e-05, 3.621572977863252e-05, 3.6985344195272774e-05, 3.7754958611913025e-05, 3.852457302855328e-05, 3.929418380721472e-05, 4.0063798223854974e-05, 4.0833412640495226e-05, 4.160302705713548e-05, 4.237264147377573e-05, 4.314225589041598e-05, 4.391187030705623e-05, 4.4681484723696485e-05, 4.545109914033674e-05, 4.622071355697699e-05, 4.6990324335638434e-05, 4.7759938752278686e-05, 4.852955316891894e-05, 4.929916758555919e-05, 5.006878200219944e-05, 5.083839641883969e-05]}, "gradients/graph_1lout.weight": {"_type": "histogram", "values": [1.0, 0.0, 0.0, 0.0, 0.0, 0.0, 1.0, 1.0, 1.0, 1.0, 1.0, 3.0, 2.0, 2.0, 3.0, 6.0, 8.0, 13.0, 18.0, 27.0, 104.0, 753.0, 11.0, 5.0, 9.0, 7.0, 8.0, 6.0, 4.0, 3.0, 2.0, 4.0, 2.0, 4.0, 0.0, 1.0, 1.0, 1.0, 1.0, 0.0, 1.0, 0.0, 0.0, 1.0, 0.0, 0.0, 1.0, 1.0, 0.0, 0.0, 0.0, 0.0, 0.0, 1.0, 1.0, 1.0, 0.0, 0.0, 0.0, 0.0, 0.0, 0.0, 2.0, 1.0], "bins": [-0.00044697403791360557, -0.0004258494300302118, -0.00040472482214681804, -0.0003836002142634243, -0.00036247557727620006, -0.0003413509693928063, -0.0003202263615094125, -0.00029910175362601876, -0.000277977145742625, -0.00025685253785923123, -0.00023572792997583747, -0.00021460330754052848, -0.0001934786996571347, -0.00017235409177374095, -0.00015122946933843195, -0.0001301048614550382, -0.00010898025357164443, -8.785564568825066e-05, -6.673103052889928e-05, -4.560641900752671e-05, -2.448180748615414e-05, -3.3571959647815675e-06, 1.7767415556591004e-05, 3.8892027077963576e-05, 6.001663859933615e-05, 8.114124648272991e-05, 0.00010226586164208129, 0.00012339047680143267, 0.00014451508468482643, 0.0001656396925682202, 0.0001867643150035292, 0.00020788892288692296, 0.00022901355987414718, 0.00025013816775754094, 0.0002712627756409347, 0.00029238738352432847, 0.00031351199140772223, 0.00033463662839494646, 0.0003557612362783402, 0.000376885844161734, 0.00039801045204512775, 0.0004191350599285215, 0.0004402596678119153, 0.00046138427569530904, 0.00048250891268253326, 0.000503633520565927, 0.0005247581284493208, 0.0005458827363327146, 0.0005670073442161083, 0.0005881319520995021, 0.0006092565599828959, 0.0006303811678662896, 0.0006515057757496834, 0.0006726303836330771, 0.0006937549915164709, 0.0007148795993998647, 0.0007360042072832584, 0.0007571288733743131, 0.0007782534812577069, 0.0007993780891411006, 0.0008205026970244944, 0.0008416273049078882, 0.0008627519127912819, 0.0008838765206746757, 0.0009050011285580695]}, "gradients/graph_1layers.3.bias": {"_type": "histogram", "values": [1.0, 0.0, 0.0, 0.0, 0.0, 1.0, 0.0, 1.0, 0.0, 0.0, 0.0, 0.0, 0.0, 0.0, 2.0, 0.0, 0.0, 0.0, 0.0, 0.0, 1.0, 0.0, 0.0, 0.0, 0.0, 0.0, 0.0, 1.0, 1.0, 3.0, 1.0, 1.0, 1.0, 2.0, 2.0, 1.0, 3.0, 1.0, 5.0, 8.0, 11.0, 7.0, 20.0, 107.0, 24.0, 14.0, 10.0, 4.0, 3.0, 4.0, 0.0, 2.0, 2.0, 4.0, 2.0, 3.0, 1.0, 0.0, 1.0, 0.0, 0.0, 0.0, 0.0, 1.0], "bins": [-1.9689236069098115e-05, -1.923980744322762e-05, -1.8790378817357123e-05, -1.8340950191486627e-05, -1.789152156561613e-05, -1.7442092939745635e-05, -1.6992662494885735e-05, -1.654323386901524e-05, -1.6093805243144743e-05, -1.5644376617274247e-05, -1.5194947991403751e-05, -1.4745519365533255e-05, -1.4296090739662759e-05, -1.3846662113792263e-05, -1.3397232578427065e-05, -1.2947803952556569e-05, -1.2498375326686073e-05, -1.2048946700815577e-05, -1.1599518074945081e-05, -1.1150088539579883e-05, -1.0700659913709387e-05, -1.0251231287838891e-05, -9.801802661968395e-06, -9.352374036097899e-06, -8.902945410227403e-06, -8.453515874862205e-06, -8.00408724899171e-06, -7.554658623121213e-06, -7.105229997250717e-06, -6.65580091663287e-06, -6.206372290762374e-06, -5.756943210144527e-06, -5.307514584274031e-06, -4.858085958403535e-06, -4.408656877785688e-06, -3.959228251915192e-06, -3.5097993986710208e-06, -3.0603705454268493e-06, -2.6109419195563532e-06, -2.1615130663121818e-06, -1.7120842130680103e-06, -1.2626553598238388e-06, -8.13226620266505e-07, -3.6379782386575243e-07, 8.563097253500018e-08, 5.350597689357528e-07, 9.844885653365054e-07, 1.4339173048938392e-06, 1.8833461581380107e-06, 2.332775011382182e-06, 2.7822038646263536e-06, 3.2316324904968496e-06, 3.681061343741021e-06, 4.130490196985193e-06, 4.579918822855689e-06, 5.0293479034735356e-06, 5.478776529344032e-06, 5.928205155214528e-06, 6.3776342358323745e-06, 6.827062861702871e-06, 7.276491487573367e-06, 7.725920113443863e-06, 8.17534964880906e-06, 8.624778274679556e-06, 9.074206900550053e-06]}, "gradients/graph_1layers.3.weight": {"_type": "histogram", "values": [1.0, 0.0, 0.0, 0.0, 0.0, 0.0, 0.0, 2.0, 0.0, 2.0, 3.0, 1.0, 0.0, 1.0, 3.0, 0.0, 3.0, 1.0, 2.0, 3.0, 3.0, 7.0, 8.0, 10.0, 4.0, 6.0, 9.0, 14.0, 19.0, 17.0, 24.0, 27.0, 29.0, 47.0, 67.0, 95.0, 130.0, 148.0, 190.0, 442.0, 976.0, 3778.0, 56620.0, 1585.0, 518.0, 270.0, 149.0, 102.0, 60.0, 58.0, 28.0, 19.0, 13.0, 15.0, 5.0, 5.0, 4.0, 3.0, 5.0, 0.0, 2.0, 0.0, 1.0, 2.0], "bins": [-5.531271017389372e-05, -5.400406735134311e-05, -5.26954245287925e-05, -5.1386778068263084e-05, -5.0078135245712474e-05, -4.8769492423161864e-05, -4.746084596263245e-05, -4.615220314008184e-05, -4.484356031753123e-05, -4.353491749498062e-05, -4.222627467243001e-05, -4.091762821190059e-05, -3.960898538934998e-05, -3.830034256679937e-05, -3.6991696106269956e-05, -3.5683053283719346e-05, -3.4374410461168736e-05, -3.3065767638618127e-05, -3.175712481606752e-05, -3.04484783555381e-05, -2.913983553298749e-05, -2.783119271043688e-05, -2.6522548068896867e-05, -2.5213903427356854e-05, -2.3905260604806244e-05, -2.2596617782255635e-05, -2.128797314071562e-05, -1.9979328499175608e-05, -1.8670685676625e-05, -1.736204285407439e-05, -1.6053398212534375e-05, -1.4744754480489064e-05, -1.3436107110464945e-05, -1.2127463378419634e-05, -1.0818819646374322e-05, -9.510175914329011e-06, -8.2015321822837e-06, -6.892888450238388e-06, -5.5842447181930766e-06, -4.275600986147765e-06, -2.9669572541024536e-06, -1.6583135220571421e-06, -3.4966979001183063e-07, 9.589739420334809e-07, 2.2676176740787923e-06, 3.576261406124104e-06, 4.884905138169415e-06, 6.193548870214727e-06, 7.502192602260038e-06, 8.81083633430535e-06, 1.0119480066350661e-05, 1.1428123798395973e-05, 1.2736767530441284e-05, 1.4045411262486596e-05, 1.5354054994531907e-05, 1.666269963607192e-05, 1.797134245862253e-05, 1.927998528117314e-05, 2.0588629922713153e-05, 2.1897274564253166e-05, 2.3205917386803776e-05, 2.4514560209354386e-05, 2.58232048508944e-05, 2.7131849492434412e-05, 2.8440492314985022e-05]}, "gradients/graph_1layers.2.bias": {"_type": "histogram", "values": [1.0, 0.0, 0.0, 0.0, 1.0, 1.0, 0.0, 0.0, 1.0, 0.0, 0.0, 0.0, 0.0, 0.0, 0.0, 3.0, 0.0, 0.0, 0.0, 1.0, 4.0, 1.0, 1.0, 2.0, 2.0, 4.0, 4.0, 5.0, 4.0, 4.0, 7.0, 18.0, 14.0, 10.0, 27.0, 34.0, 21.0, 21.0, 19.0, 12.0, 9.0, 2.0, 3.0, 2.0, 2.0, 6.0, 2.0, 0.0, 0.0, 2.0, 0.0, 2.0, 1.0, 0.0, 1.0, 0.0, 0.0, 1.0, 0.0, 0.0, 0.0, 0.0, 0.0, 1.0], "bins": [-2.4952172680059448e-05, -2.425693855911959e-05, -2.3561706257169135e-05, -2.2866472136229277e-05, -2.2171239834278822e-05, -2.1476005713338964e-05, -2.0780771592399105e-05, -2.008553929044865e-05, -1.9390305169508792e-05, -1.8695071048568934e-05, -1.799983874661848e-05, -1.730460462567862e-05, -1.6609370504738763e-05, -1.5914138202788308e-05, -1.521890408184845e-05, -1.4523670870403294e-05, -1.3828437658958137e-05, -1.313320444751298e-05, -1.2437971236067824e-05, -1.1742737115127966e-05, -1.104750390368281e-05, -1.0352270692237653e-05, -9.657036571297795e-06, -8.961803359852638e-06, -8.266570148407482e-06, -7.571336936962325e-06, -6.876103270769818e-06, -6.18086960457731e-06, -5.485636393132154e-06, -4.790403181686997e-06, -4.09516951549449e-06, -3.399936076675658e-06, -2.704702637856826e-06, -2.0094691990379943e-06, -1.3142357602191623e-06, -6.190023214003304e-07, 7.623111741850153e-08, 7.714645562373335e-07, 1.4666979950561654e-06, 2.1619314338749973e-06, 2.8571648726938292e-06, 3.552398311512661e-06, 4.247631750331493e-06, 4.9428654165240005e-06, 5.638098627969157e-06, 6.3333318394143134e-06, 7.028565505606821e-06, 7.723799171799328e-06, 8.419032383244485e-06, 9.114265594689641e-06, 9.809498806134798e-06, 1.0504732927074656e-05, 1.1199966138519812e-05, 1.1895199349964969e-05, 1.2590433470904827e-05, 1.3285666682349984e-05, 1.398089989379514e-05, 1.4676133105240297e-05, 1.5371366316685453e-05, 1.606660043762531e-05, 1.676183455856517e-05, 1.7457066860515624e-05, 1.8152300981455483e-05, 1.8847533283405937e-05, 1.9542767404345796e-05]}, "gradients/graph_1layers.2.weight": {"_type": "histogram", "values": [1.0, 1.0, 0.0, 0.0, 0.0, 0.0, 0.0, 0.0, 0.0, 1.0, 0.0, 4.0, 5.0, 2.0, 9.0, 4.0, 10.0, 5.0, 16.0, 13.0, 10.0, 27.0, 33.0, 36.0, 51.0, 80.0, 125.0, 153.0, 238.0, 382.0, 550.0, 1088.0, 1982.0, 4865.0, 49847.0, 9620.0, 2373.0, 989.0, 506.0, 284.0, 198.0, 124.0, 66.0, 61.0, 68.0, 31.0, 34.0, 20.0, 17.0, 10.0, 9.0, 5.0, 4.0, 7.0, 2.0, 4.0, 2.0, 3.0, 1.0, 3.0, 1.0, 1.0, 2.0, 1.0], "bins": [-3.666415796033107e-05, -3.560932236723602e-05, -3.455448677414097e-05, -3.349965118104592e-05, -3.244481194997206e-05, -3.1389976356877014e-05, -3.0335140763781965e-05, -2.9280305170686916e-05, -2.8225469577591866e-05, -2.7170633984496817e-05, -2.6115798391401768e-05, -2.5060960979317315e-05, -2.4006125386222266e-05, -2.2951289793127216e-05, -2.1896452381042764e-05, -2.0841616787947714e-05, -1.9786781194852665e-05, -1.8731945601757616e-05, -1.7677110008662567e-05, -1.6622272596578114e-05, -1.5567437003483064e-05, -1.4512601410388015e-05, -1.3457764907798264e-05, -1.2402928405208513e-05, -1.1348092812113464e-05, -1.0293257219018415e-05, -9.238420716428664e-06, -8.183584213838913e-06, -7.128748620743863e-06, -6.073912572901463e-06, -5.019076525059063e-06, -3.964240477216663e-06, -2.9094080673530698e-06, -1.8545720195106696e-06, -7.997359716682695e-07, 2.5510007617413066e-07, 1.3099361240165308e-06, 2.364772171858931e-06, 3.419608219701331e-06, 4.474444267543731e-06, 5.529280315386131e-06, 6.5841163632285316e-06, 7.638952411070932e-06, 8.693788913660683e-06, 9.748624506755732e-06, 1.0803460099850781e-05, 1.1858296602440532e-05, 1.2913133105030283e-05, 1.3967968698125333e-05, 1.5022804291220382e-05, 1.607763988431543e-05, 1.7132477296399884e-05, 1.8187312889494933e-05, 1.9242148482589982e-05, 2.0296985894674435e-05, 2.1351821487769485e-05, 2.2406657080864534e-05, 2.3461492673959583e-05, 2.4516328267054632e-05, 2.5571165679139085e-05, 2.6626001272234134e-05, 2.7680836865329184e-05, 2.8735674277413636e-05, 2.9790509870508686e-05, 3.0845345463603735e-05]}, "gradients/graph_1layers.1.bias": {"_type": "histogram", "values": [1.0, 0.0, 0.0, 0.0, 0.0, 0.0, 0.0, 2.0, 0.0, 0.0, 3.0, 2.0, 4.0, 4.0, 4.0, 5.0, 5.0, 11.0, 12.0, 14.0, 16.0, 13.0, 32.0, 23.0, 28.0, 14.0, 12.0, 5.0, 12.0, 6.0, 4.0, 1.0, 2.0, 3.0, 1.0, 1.0, 2.0, 0.0, 3.0, 2.0, 2.0, 0.0, 3.0, 0.0, 0.0, 0.0, 0.0, 0.0, 1.0, 0.0, 0.0, 1.0, 0.0, 0.0, 0.0, 0.0, 0.0, 0.0, 0.0, 0.0, 0.0, 1.0, 0.0, 1.0], "bins": [-4.8307621909771115e-05, -4.6188131818780676e-05, -4.4068641727790236e-05, -4.1949155274778605e-05, -3.9829665183788165e-05, -3.7710175092797726e-05, -3.5590688639786094e-05, -3.3471198548795655e-05, -3.1351708457805216e-05, -2.9232218366814777e-05, -2.7112730094813742e-05, -2.4993241822812706e-05, -2.2873751731822267e-05, -2.0754261640831828e-05, -1.8634773368830793e-05, -1.6515285096829757e-05, -1.4395795005839318e-05, -1.227630582434358e-05, -1.0156816642847843e-05, -8.037327461352106e-06, -5.917838279856369e-06, -3.7983490983606316e-06, -1.6788599168648943e-06, 4.4062926463084295e-07, 2.5601184461265802e-06, 4.6796076276223175e-06, 6.799096809118055e-06, 8.918585990613792e-06, 1.103807517210953e-05, 1.3157564353605267e-05, 1.5277053535101004e-05, 1.739654180710204e-05, 1.9516039174050093e-05, 2.1635529265040532e-05, 2.3755017537041567e-05, 2.5874505809042603e-05, 2.7993995900033042e-05, 3.011348599102348e-05, 3.223297244403511e-05, 3.435246253502555e-05, 3.647195262601599e-05, 3.859144271700643e-05, 4.071093280799687e-05, 4.28304192610085e-05, 4.494990935199894e-05, 4.706939944298938e-05, 4.918888589600101e-05, 5.130837598699145e-05, 5.342786607798189e-05, 5.554735616897233e-05, 5.766684625996277e-05, 5.97863327129744e-05, 6.190582644194365e-05, 6.402531289495528e-05, 6.614479934796691e-05, 6.826429307693616e-05, 7.038377952994779e-05, 7.250326598295942e-05, 7.462275971192867e-05, 7.67422461649403e-05, 7.886173261795193e-05, 8.098122634692118e-05, 8.310071279993281e-05, 8.522020652890205e-05, 8.733969298191369e-05]}, "gradients/graph_1layers.1.weight": {"_type": "histogram", "values": [1.0, 1.0, 0.0, 1.0, 1.0, 3.0, 1.0, 3.0, 0.0, 5.0, 6.0, 5.0, 17.0, 12.0, 40.0, 49.0, 65.0, 103.0, 213.0, 366.0, 782.0, 1815.0, 5957.0, 49673.0, 3617.0, 1276.0, 587.0, 318.0, 185.0, 132.0, 81.0, 52.0, 34.0, 36.0, 16.0, 14.0, 11.0, 9.0, 7.0, 8.0, 4.0, 7.0, 5.0, 1.0, 1.0, 3.0, 3.0, 2.0, 0.0, 1.0, 1.0, 1.0, 1.0, 0.0, 0.0, 0.0, 0.0, 0.0, 0.0, 1.0, 1.0, 1.0, 0.0, 1.0], "bins": [-5.874874841538258e-05, -5.6229640904348344e-05, -5.3710537031292915e-05, -5.119142952025868e-05, -4.8672322009224445e-05, -4.615321449819021e-05, -4.3634106987155974e-05, -4.1115003114100546e-05, -3.859589560306631e-05, -3.6076788092032075e-05, -3.355768421897665e-05, -3.103857670794241e-05, -2.8519469196908176e-05, -2.600036168587394e-05, -2.348125599382911e-05, -2.0962150301784277e-05, -1.844304279075004e-05, -1.5923935279715806e-05, -1.3404829587670974e-05, -1.0885722986131441e-05, -8.366616384591907e-06, -5.847509783052374e-06, -3.32840318151284e-06, -8.092965799733065e-07, 1.709810021566227e-06, 4.228916623105761e-06, 6.748023224645294e-06, 9.267129826184828e-06, 1.1786236427724361e-05, 1.4305343029263895e-05, 1.682444963080343e-05, 1.934355532284826e-05, 2.186265919590369e-05, 2.4381766706937924e-05, 2.6900872398982756e-05, 2.9419978091027588e-05, 3.193908560206182e-05, 3.445819311309606e-05, 3.697729698615149e-05, 3.949640449718572e-05, 4.201551200821996e-05, 4.453461951925419e-05, 4.705372703028843e-05, 4.9572830903343856e-05, 5.209193841437809e-05, 5.461104592541233e-05, 5.7130149798467755e-05, 5.964925730950199e-05, 6.216836482053623e-05, 6.468746869359165e-05, 6.72065798426047e-05, 6.972568371566013e-05, 7.224478758871555e-05, 7.47638987377286e-05, 7.728300261078402e-05, 7.980211375979707e-05, 8.23212176328525e-05, 8.484032150590792e-05, 8.735943265492097e-05, 8.98785365279764e-05, 9.239764767698944e-05, 9.491675155004486e-05, 9.743585542310029e-05, 9.995496657211334e-05, 0.00010247407044516876]}, "gradients/graph_1layers.0.bias": {"_type": "histogram", "values": [1.0, 0.0, 0.0, 0.0, 0.0, 0.0, 0.0, 0.0, 0.0, 0.0, 0.0, 1.0, 1.0, 1.0, 0.0, 1.0, 0.0, 0.0, 2.0, 2.0, 1.0, 4.0, 3.0, 2.0, 3.0, 6.0, 7.0, 7.0, 6.0, 13.0, 16.0, 21.0, 41.0, 19.0, 21.0, 12.0, 10.0, 13.0, 8.0, 4.0, 2.0, 3.0, 5.0, 4.0, 3.0, 1.0, 4.0, 0.0, 0.0, 1.0, 1.0, 0.0, 1.0, 0.0, 1.0, 1.0, 0.0, 0.0, 0.0, 1.0, 0.0, 1.0, 0.0, 1.0], "bins": [-0.00021776680659968406, -0.00021100667072460055, -0.00020424652029760182, -0.0001974863844225183, -0.00019072623399551958, -0.00018396609812043607, -0.00017720594769343734, -0.00017044581181835383, -0.0001636856613913551, -0.0001569255255162716, -0.00015016537508927286, -0.00014340523921418935, -0.00013664508878719062, -0.0001298849529121071, -0.00012312480248510838, -0.00011636466661002487, -0.00010960452345898375, -0.00010284438030794263, -9.608423715690151e-05, -8.932409400586039e-05, -8.256395085481927e-05, -7.580380770377815e-05, -6.904366455273703e-05, -6.228352140169591e-05, -5.5523381888633594e-05, -4.8763238737592474e-05, -4.200309558655135e-05, -3.524295243551023e-05, -2.8482811103458516e-05, -2.1722667952417396e-05, -1.4962525710870977e-05, -8.202383469324559e-06, -1.4422403182834387e-06, 5.317902378010331e-06, 1.20780450743041e-05, 1.883818731585052e-05, 2.559833046689164e-05, 3.2358471798943356e-05, 3.9118614949984476e-05, 4.5878758101025596e-05, 5.2638901252066717e-05, 5.939904440310784e-05, 6.615918391617015e-05, 7.291932706721127e-05, 7.967947021825239e-05, 8.643961336929351e-05, 9.319975652033463e-05, 9.995989967137575e-05, 0.00010672004282241687, 0.00011348018597345799, 0.00012024032912449911, 0.00012700047227554023, 0.00013376060815062374, 0.00014052075857762247, 0.00014728089445270598, 0.00015404104487970471, 0.00016080118075478822, 0.00016756133118178695, 0.00017432146705687046, 0.0001810816174838692, 0.0001878417533589527, 0.00019460190378595144, 0.00020136203966103494, 0.00020812219008803368, 0.00021488232596311718]}, "gradients/graph_1layers.0.weight": {"_type": "histogram", "values": [2.0, 0.0, 1.0, 2.0, 0.0, 3.0, 0.0, 1.0, 2.0, 1.0, 4.0, 2.0, 0.0, 2.0, 9.0, 8.0, 9.0, 15.0, 14.0, 11.0, 35.0, 44.0, 58.0, 71.0, 81.0, 143.0, 167.0, 223.0, 283.0, 372.0, 679.0, 2252.0, 1418.0, 705.0, 495.0, 323.0, 267.0, 168.0, 119.0, 95.0, 82.0, 62.0, 49.0, 37.0, 23.0, 8.0, 24.0, 22.0, 8.0, 11.0, 3.0, 6.0, 6.0, 4.0, 2.0, 5.0, 1.0, 5.0, 1.0, 4.0, 0.0, 0.0, 0.0, 1.0], "bins": [-0.0002451396139804274, -0.0002374611794948578, -0.00022978273045737296, -0.00022210429597180337, -0.00021442586148623377, -0.00020674741244874895, -0.00019906897796317935, -0.00019139054347760975, -0.00018371210899204016, -0.00017603365995455533, -0.00016835522546898574, -0.00016067679098341614, -0.00015299834194593132, -0.00014531990746036172, -0.00013764147297479212, -0.0001299630239373073, -0.0001222845894517377, -0.00011460614769021049, -0.0001069277132046409, -9.924927144311368e-05, -9.157083695754409e-05, -8.389239519601688e-05, -7.621395343448967e-05, -6.853551894892007e-05, -6.085707718739286e-05, -5.317863906384446e-05, -4.5500200940296054e-05, -3.7821759178768843e-05, -3.014332105522044e-05, -2.2464882931672037e-05, -1.478644298913423e-05, -7.1080039560911246e-06, 5.704350769519806e-07, 8.248874109995086e-06, 1.592731314303819e-05, 2.3605753085575998e-05, 3.12841912091244e-05, 3.8962629332672805e-05, 4.6641071094200015e-05, 5.431950921774842e-05, 6.199794734129682e-05, 6.967638910282403e-05, 7.735482358839363e-05, 8.503326534992084e-05, 9.271170711144805e-05, 0.00010039014159701765, 0.00010806858335854486, 0.00011574701784411445, 0.00012342545960564166, 0.00013110389409121126, 0.00013878234312869608, 0.00014646077761426568, 0.00015413921209983528, 0.0001618176611373201, 0.0001694960956228897, 0.0001771745301084593, 0.00018485297914594412, 0.00019253141363151371, 0.0002002098481170833, 0.0002078882826026529, 0.00021556673164013773, 0.00022324516612570733, 0.00023092360061127692, 0.00023860204964876175, 0.00024628048413433135]}, "gradients/lout.bias": {"_type": "histogram", "values": [1.0, 0.0, 0.0, 0.0, 0.0, 0.0, 0.0, 0.0, 0.0, 0.0, 0.0, 0.0, 0.0, 0.0, 0.0, 0.0, 0.0, 0.0, 0.0, 0.0, 0.0, 0.0, 0.0, 0.0, 0.0, 0.0, 0.0, 0.0, 0.0, 0.0, 0.0, 0.0, 0.0, 0.0, 0.0, 0.0, 0.0, 0.0, 0.0, 0.0, 0.0, 0.0, 0.0, 0.0, 0.0, 0.0, 0.0, 0.0, 0.0, 0.0, 0.0, 0.0, 0.0, 0.0, 0.0, 0.0, 1.0, 0.0, 0.0, 0.0, 0.0, 0.0, 0.0, 2.0], "bins": [-0.00016721327847335488, -0.00016453949501737952, -0.00016186571156140417, -0.00015919192810542881, -0.00015651814464945346, -0.0001538443611934781, -0.00015117057773750275, -0.00014849677972961217, -0.00014582299627363682, -0.00014314921281766146, -0.0001404754293616861, -0.00013780164590571076, -0.0001351278624497354, -0.00013245407899376005, -0.0001297802955377847, -0.00012710651208180934, -0.000124432728625834, -0.00012175893789390102, -0.00011908515443792567, -0.00011641137098195031, -0.00011373758752597496, -0.0001110638040699996, -0.00010839002061402425, -0.00010571622988209128, -0.00010304244642611593, -0.00010036866297014058, -9.769487951416522e-05, -9.502109605818987e-05, -9.234731260221452e-05, -8.967352187028155e-05, -8.69997384143062e-05, -8.432595495833084e-05, -8.165217150235549e-05, -7.897838804638013e-05, -7.630460459040478e-05, -7.363082113442943e-05, -7.095703040249646e-05, -6.82832469465211e-05, -6.560946349054575e-05, -6.29356800345704e-05, -6.026189657859504e-05, -5.758810948464088e-05, -5.491432602866553e-05, -5.2240542572690174e-05, -4.956675547873601e-05, -4.689297202276066e-05, -4.4219188566785306e-05, -4.1545401472831145e-05, -3.887161801685579e-05, -3.619783456088044e-05, -3.352404746692628e-05, -3.085026401095092e-05, -2.817648055497557e-05, -2.5502695280010812e-05, -2.2828910005046055e-05, -2.01551265490707e-05, -1.7481341274105944e-05, -1.4807556908635888e-05, -1.2133772543165833e-05, -9.459987268201075e-06, -6.78620290273102e-06, -4.1124185372609645e-06, -1.4386337170435581e-06, 1.2351508758001728e-06, 3.908935468643904e-06]}, "gradients/lout.weight": {"_type": "histogram", "values": [1.0, 0.0, 0.0, 0.0, 0.0, 0.0, 0.0, 0.0, 0.0, 0.0, 0.0, 0.0, 0.0, 0.0, 0.0, 0.0, 0.0, 0.0, 1.0, 0.0, 0.0, 0.0, 0.0, 0.0, 0.0, 0.0, 0.0, 2.0, 3.0, 0.0, 1.0, 1.0, 0.0, 3.0, 0.0, 2.0, 0.0, 1.0, 4.0, 2.0, 2.0, 3.0, 4.0, 3.0, 8.0, 12.0, 19.0, 82.0, 808.0, 28.0, 9.0, 6.0, 2.0, 1.0, 3.0, 2.0, 1.0, 2.0, 3.0, 1.0, 1.0, 1.0, 0.0, 2.0], "bins": [-0.0009966103825718164, -0.000975893228314817, -0.0009551760740578175, -0.000934458919800818, -0.0009137417655438185, -0.0008930246694944799, -0.0008723075152374804, -0.0008515903609804809, -0.0008308732067234814, -0.0008101560524664819, -0.0007894388982094824, -0.0007687217439524829, -0.0007480046479031444, -0.0007272874936461449, -0.0007065703393891454, -0.0006858531851321459, -0.0006651360308751464, -0.0006444188766181469, -0.0006237017223611474, -0.0006029845681041479, -0.0005822674138471484, -0.0005615503177978098, -0.0005408331635408103, -0.0005201160092838109, -0.0004993988550268114, -0.00047868170076981187, -0.0004579645465128124, -0.00043724742135964334, -0.00041653026710264385, -0.00039581311284564435, -0.0003750959876924753, -0.0003543788334354758, -0.0003336617082823068, -0.0003129445540253073, -0.00029222742887213826, -0.00027151027461513877, -0.0002507931203581393, -0.00023007596610113978, -0.00020935882639605552, -0.00018864168669097126, -0.00016792453243397176, -0.00014720737817697227, -0.000126490238471888, -0.00010577309149084613, -8.505594450980425e-05, -6.433879752876237e-05, -4.362165054772049e-05, -2.2904503566678613e-05, -2.187356585636735e-06, 1.8529790395405143e-05, 3.924693737644702e-05, 5.99640843574889e-05, 8.068123133853078e-05, 0.00010139837831957266, 0.00012211552530061454, 0.0001428326650056988, 0.0001635498192626983, 0.00018426697351969779, 0.00020498411322478205, 0.00022570125292986631, 0.0002464184071868658, 0.0002671355614438653, 0.0002878527157008648, 0.00030856984085403383, 0.0003292869951110333]}, "gradients/layers.3.bias": {"_type": "histogram", "values": [1.0, 0.0, 0.0, 0.0, 0.0, 0.0, 0.0, 0.0, 0.0, 1.0, 0.0, 0.0, 1.0, 1.0, 0.0, 1.0, 0.0, 0.0, 1.0, 1.0, 1.0, 0.0, 0.0, 1.0, 2.0, 1.0, 1.0, 2.0, 3.0, 5.0, 8.0, 13.0, 18.0, 21.0, 126.0, 24.0, 8.0, 2.0, 3.0, 1.0, 2.0, 2.0, 0.0, 1.0, 0.0, 1.0, 0.0, 0.0, 0.0, 1.0, 0.0, 0.0, 0.0, 0.0, 0.0, 1.0, 0.0, 0.0, 0.0, 0.0, 0.0, 0.0, 0.0, 1.0], "bins": [-2.114248309226241e-05, -2.0531213522190228e-05, -1.9919943952118047e-05, -1.930867620103527e-05, -1.8697406630963087e-05, -1.8086137060890906e-05, -1.7474867490818724e-05, -1.6863597920746543e-05, -1.625232835067436e-05, -1.5641060599591583e-05, -1.5029791029519401e-05, -1.441852145944722e-05, -1.3807251889375038e-05, -1.3195983228797559e-05, -1.2584713658725377e-05, -1.1973444998147897e-05, -1.1362175428075716e-05, -1.0750905858003534e-05, -1.0139637197426055e-05, -9.528367627353873e-06, -8.917098966776393e-06, -8.305829396704212e-06, -7.69455982663203e-06, -7.0832907113072e-06, -6.472021595982369e-06, -5.860752480657538e-06, -5.249483365332708e-06, -4.638213795260526e-06, -4.026944679935696e-06, -3.415675564610865e-06, -2.804406221912359e-06, -2.193136879213853e-06, -1.5818659448996186e-06, -9.705967158879503e-07, -3.593274868762819e-07, 2.5194174213538645e-07, 8.632109711470548e-07, 1.4744802001587232e-06, 2.0857494291703915e-06, 2.6970187718688976e-06, 3.3082878871937282e-06, 3.919557002518559e-06, 4.5308261178433895e-06, 5.142095687915571e-06, 5.753364803240402e-06, 6.364633918565232e-06, 6.975903488637414e-06, 7.5871726039622445e-06, 8.198441719287075e-06, 8.809711289359257e-06, 9.420979949936736e-06, 1.0032249520008918e-05, 1.0643518180586398e-05, 1.125478775065858e-05, 1.186605732073076e-05, 1.247732598130824e-05, 1.3088595551380422e-05, 1.3699865121452603e-05, 1.4311133782030083e-05, 1.4922403352102265e-05, 1.5533672922174446e-05, 1.6144942492246628e-05, 1.6756210243329406e-05, 1.7367479813401587e-05, 1.797874938347377e-05]}, "gradients/layers.3.weight": {"_type": "histogram", "values": [1.0, 0.0, 0.0, 0.0, 0.0, 0.0, 1.0, 0.0, 0.0, 0.0, 0.0, 0.0, 2.0, 2.0, 3.0, 2.0, 4.0, 6.0, 2.0, 4.0, 14.0, 5.0, 8.0, 13.0, 24.0, 18.0, 30.0, 46.0, 64.0, 91.0, 130.0, 272.0, 645.0, 2411.0, 59461.0, 1406.0, 389.0, 181.0, 98.0, 60.0, 47.0, 27.0, 18.0, 10.0, 13.0, 9.0, 2.0, 1.0, 2.0, 1.0, 4.0, 2.0, 2.0, 1.0, 0.0, 1.0, 1.0, 0.0, 0.0, 0.0, 0.0, 0.0, 1.0, 1.0], "bins": [-6.818876136094332e-05, -6.621492502745241e-05, -6.42410886939615e-05, -6.226725236047059e-05, -6.0293416026979685e-05, -5.8319583331467584e-05, -5.6345746997976676e-05, -5.437191066448577e-05, -5.239807433099486e-05, -5.042423799750395e-05, -4.845040166401304e-05, -4.6476565330522135e-05, -4.4502732635010034e-05, -4.2528896301519126e-05, -4.055505996802822e-05, -3.858122363453731e-05, -3.66073873010464e-05, -3.463355096755549e-05, -3.2659714634064585e-05, -3.068587830057368e-05, -2.8712043786072172e-05, -2.6738207452581264e-05, -2.476437293807976e-05, -2.279053660458885e-05, -2.0816700271097943e-05, -1.8842863937607035e-05, -1.6869027604116127e-05, -1.4895193089614622e-05, -1.2921356756123714e-05, -1.0947520422632806e-05, -8.9736849986366e-06, -6.999849119893042e-06, -5.026020517107099e-06, -3.052184638363542e-06, -1.0783487596199848e-06, 8.954871191235725e-07, 2.8693229978671297e-06, 4.843158876610687e-06, 6.816994755354244e-06, 8.79083017935045e-06, 1.0764666512841359e-05, 1.2738502846332267e-05, 1.4712338270328473e-05, 1.668617369432468e-05, 1.8660010027815588e-05, 2.0633846361306496e-05, 2.2607680875808e-05, 2.458151720929891e-05, 2.6555353542789817e-05, 2.8529189876280725e-05, 3.0503026209771633e-05, 3.247686254326254e-05, 3.445069887675345e-05, 3.642453157226555e-05, 3.839836790575646e-05, 4.037220423924737e-05, 4.2346040572738275e-05, 4.431987690622918e-05, 4.629371323972009e-05, 4.8267549573211e-05, 5.02413822687231e-05, 5.221521860221401e-05, 5.418905493570492e-05, 5.6162891269195825e-05, 5.813672760268673e-05]}, "gradients/layers.2.bias": {"_type": "histogram", "values": [1.0, 1.0, 0.0, 0.0, 0.0, 0.0, 0.0, 1.0, 1.0, 0.0, 0.0, 0.0, 1.0, 0.0, 0.0, 1.0, 2.0, 1.0, 4.0, 0.0, 5.0, 6.0, 7.0, 11.0, 9.0, 11.0, 11.0, 19.0, 17.0, 15.0, 41.0, 23.0, 18.0, 10.0, 8.0, 2.0, 3.0, 4.0, 7.0, 1.0, 2.0, 2.0, 2.0, 2.0, 1.0, 0.0, 1.0, 0.0, 0.0, 0.0, 0.0, 1.0, 1.0, 0.0, 0.0, 0.0, 0.0, 0.0, 0.0, 0.0, 0.0, 1.0, 0.0, 2.0], "bins": [-2.841973036993295e-05, -2.7490681532071903e-05, -2.6561630875221454e-05, -2.5632582037360407e-05, -2.4703531380509958e-05, -2.377448254264891e-05, -2.2845433704787865e-05, -2.1916383047937416e-05, -2.098733421007637e-05, -2.0058285372215323e-05, -1.9129234715364873e-05, -1.8200185877503827e-05, -1.727113703964278e-05, -1.634208638279233e-05, -1.5413037544931285e-05, -1.4483987797575537e-05, -1.3554938050219789e-05, -1.2625888302864041e-05, -1.1696838555508293e-05, -1.0767789717647247e-05, -9.838739970291499e-06, -8.909690222935751e-06, -7.980641385074705e-06, -7.051591637718957e-06, -6.122541890363209e-06, -5.193492143007461e-06, -4.264442850399064e-06, -3.3353933304169914e-06, -2.406343810434919e-06, -1.4772942904528463e-06, -5.482447704707738e-07, 3.808047495112987e-07, 1.3098542694933712e-06, 2.2389037894754438e-06, 3.1679533094575163e-06, 4.097002602065913e-06, 5.026052349421661e-06, 5.955102096777409e-06, 6.884151389385806e-06, 7.813200681994203e-06, 8.742250429349951e-06, 9.6713001767057e-06, 1.0600349924061447e-05, 1.1529398761922494e-05, 1.2458448509278242e-05, 1.338749825663399e-05, 1.4316547094495036e-05, 1.5245596841850784e-05, 1.617464658920653e-05, 1.7103695427067578e-05, 1.8032746083918028e-05, 1.8961794921779074e-05, 1.9890845578629524e-05, 2.081989441649057e-05, 2.1748943254351616e-05, 2.2677993911202066e-05, 2.3607042749063112e-05, 2.4536091586924158e-05, 2.5465142243774608e-05, 2.6394191081635654e-05, 2.73232399194967e-05, 2.825229057634715e-05, 2.9181339414208196e-05, 3.0110390071058646e-05, 3.103943890891969e-05]}, "gradients/layers.2.weight": {"_type": "histogram", "values": [1.0, 0.0, 2.0, 0.0, 0.0, 0.0, 1.0, 1.0, 0.0, 2.0, 0.0, 0.0, 3.0, 5.0, 5.0, 14.0, 15.0, 13.0, 18.0, 28.0, 23.0, 49.0, 94.0, 141.0, 254.0, 581.0, 1230.0, 3573.0, 58303.0, 7071.0, 1310.0, 546.0, 244.0, 155.0, 84.0, 44.0, 28.0, 26.0, 25.0, 12.0, 16.0, 14.0, 17.0, 7.0, 7.0, 5.0, 2.0, 2.0, 3.0, 3.0, 0.0, 1.0, 0.0, 1.0, 1.0, 0.0, 2.0, 1.0, 0.0, 0.0, 0.0, 0.0, 0.0, 1.0], "bins": [-6.204362580319867e-05, -5.988391058053821e-05, -5.772419535787776e-05, -5.556448013521731e-05, -5.340476491255686e-05, -5.1245049689896405e-05, -4.908533446723595e-05, -4.69256192445755e-05, -4.476590402191505e-05, -4.26061924372334e-05, -4.044647721457295e-05, -3.82867619919125e-05, -3.612704676925205e-05, -3.3967331546591595e-05, -3.180761632393114e-05, -2.964790110127069e-05, -2.748818587861024e-05, -2.5328470655949786e-05, -2.3168755433289334e-05, -2.1009040210628882e-05, -1.884932498796843e-05, -1.668961158429738e-05, -1.452989636163693e-05, -1.2370181138976477e-05, -1.0210465916316025e-05, -8.050750693655573e-06, -5.891035925742472e-06, -3.731320930455695e-06, -1.5716059351689182e-06, 5.881090601178585e-07, 2.747824055404635e-06, 4.907538823317736e-06, 7.0672540459781885e-06, 9.22696926863864e-06, 1.1386684491299093e-05, 1.3546398804464843e-05, 1.5706114936619997e-05, 1.7865828340291046e-05, 2.0025543562951498e-05, 2.218525878561195e-05, 2.4344974008272402e-05, 2.6504689230932854e-05, 2.8664404453593306e-05, 3.0824117857264355e-05, 3.298383307992481e-05, 3.514354830258526e-05, 3.730326352524571e-05, 3.946297874790616e-05, 4.1622693970566615e-05, 4.378240919322707e-05, 4.594212441588752e-05, 4.810183963854797e-05, 5.0261554861208424e-05, 5.2421270083868876e-05, 5.458098530652933e-05, 5.674070052918978e-05, 5.8900412113871425e-05, 6.106012733653188e-05, 6.321984255919233e-05, 6.537955778185278e-05, 6.753927300451323e-05, 6.969898822717369e-05, 7.185870344983414e-05, 7.401841867249459e-05, 7.617813389515504e-05]}, "gradients/layers.1.bias": {"_type": "histogram", "values": [1.0, 1.0, 0.0, 1.0, 0.0, 0.0, 0.0, 0.0, 0.0, 0.0, 0.0, 1.0, 1.0, 1.0, 0.0, 1.0, 0.0, 1.0, 1.0, 3.0, 2.0, 2.0, 5.0, 3.0, 2.0, 6.0, 5.0, 21.0, 27.0, 36.0, 33.0, 22.0, 22.0, 5.0, 10.0, 3.0, 7.0, 4.0, 4.0, 5.0, 2.0, 4.0, 3.0, 2.0, 0.0, 1.0, 1.0, 1.0, 1.0, 1.0, 1.0, 0.0, 0.0, 0.0, 0.0, 0.0, 1.0, 1.0, 0.0, 0.0, 0.0, 0.0, 0.0, 1.0], "bins": [-8.19144697743468e-05, -7.916658069007099e-05, -7.641868432983756e-05, -7.367079524556175e-05, -7.092290616128594e-05, -6.817501707701012e-05, -6.54271207167767e-05, -6.267923163250089e-05, -5.9931342548225075e-05, -5.7183449825970456e-05, -5.443555710371584e-05, -5.1687668019440025e-05, -4.8939775297185406e-05, -4.6191886212909594e-05, -4.3443993490654975e-05, -4.069610440637916e-05, -3.7948211684124544e-05, -3.5200318961869925e-05, -3.245242987759411e-05, -2.9704538974328898e-05, -2.6956648071063682e-05, -2.4208755348809063e-05, -2.1460864445543848e-05, -1.8712973542278633e-05, -1.5965082639013417e-05, -1.3217191735748202e-05, -1.0469300832482986e-05, -7.721409019723069e-06, -4.9735181164578535e-06, -2.2256269858189626e-06, 5.222641448199283e-07, 3.2701552754588192e-06, 6.01804640609771e-06, 8.765937309362926e-06, 1.1513828212628141e-05, 1.4261720025388058e-05, 1.7009610019158572e-05, 1.975750274141319e-05, 2.2505393644678406e-05, 2.5253284547943622e-05, 2.8001175451208837e-05, 3.074906635447405e-05, 3.349695907672867e-05, 3.6244848161004484e-05, 3.89927408832591e-05, 4.1740629967534915e-05, 4.4488522689789534e-05, 4.7236411774065346e-05, 4.9984304496319965e-05, 5.2732197218574584e-05, 5.5480086302850395e-05, 5.8227979025105014e-05, 6.0975868109380826e-05, 6.372376083163545e-05, 6.647164991591126e-05, 6.921953900018707e-05, 7.19674353604205e-05, 7.471532444469631e-05, 7.746321352897212e-05, 8.021110988920555e-05, 8.295899897348136e-05, 8.570688805775717e-05, 8.845477714203298e-05, 9.120267350226641e-05, 9.395056258654222e-05]}, "gradients/layers.1.weight": {"_type": "histogram", "values": [2.0, 1.0, 2.0, 1.0, 0.0, 1.0, 0.0, 1.0, 0.0, 0.0, 1.0, 3.0, 3.0, 9.0, 7.0, 10.0, 7.0, 13.0, 12.0, 16.0, 29.0, 27.0, 48.0, 59.0, 94.0, 159.0, 444.0, 1741.0, 55885.0, 5013.0, 1108.0, 404.0, 156.0, 89.0, 59.0, 46.0, 20.0, 17.0, 13.0, 6.0, 6.0, 4.0, 3.0, 4.0, 2.0, 2.0, 0.0, 4.0, 1.0, 1.0, 1.0, 0.0, 0.0, 0.0, 0.0, 0.0, 0.0, 0.0, 0.0, 0.0, 1.0, 0.0, 0.0, 1.0], "bins": [-0.00015420465206261724, -0.0001488247507950291, -0.00014344484952744097, -0.00013806494825985283, -0.00013268503244034946, -0.00012730513117276132, -0.00012192522990517318, -0.00011654532863758504, -0.0001111654273699969, -0.00010578552610240877, -0.00010040562483482063, -9.502571629127488e-05, -8.964581502368674e-05, -8.42659137560986e-05, -7.888600521255285e-05, -7.350610394496471e-05, -6.812620267737657e-05, -6.274630140978843e-05, -5.7366396504221484e-05, -5.198649159865454e-05, -4.66065903310664e-05, -4.122668906347826e-05, -3.5846784157911316e-05, -3.0466881071333773e-05, -2.508697798475623e-05, -1.970707489817869e-05, -1.4327171811601147e-05, -8.947268725023605e-06, -3.567365638446063e-06, 1.8125374481314793e-06, 7.1924405347090214e-06, 1.2572343621286564e-05, 1.7952232155948877e-05, 2.333213524252642e-05, 2.871203832910396e-05, 3.409194323467091e-05, 3.9471844502259046e-05, 4.4851745769847184e-05, 5.023165067541413e-05, 5.5611555580981076e-05, 6.0991456848569214e-05, 6.637135811615735e-05, 7.175125938374549e-05, 7.713116792729124e-05, 8.251106919487938e-05, 8.789097046246752e-05, 9.327087900601327e-05, 9.865078027360141e-05, 0.00010403068154118955, 0.00010941058280877769, 0.00011479048407636583, 0.00012017039261991158, 0.0001255502866115421, 0.00013093020243104547, 0.0001363101036986336, 0.00014169000496622175, 0.0001470699062338099, 0.00015244980750139803, 0.00015782970876898617, 0.0001632096100365743, 0.00016858952585607767, 0.0001739694271236658, 0.00017934932839125395, 0.0001847292296588421, 0.00019010913092643023]}, "gradients/layers.0.bias": {"_type": "histogram", "values": [1.0, 0.0, 0.0, 0.0, 1.0, 0.0, 0.0, 0.0, 1.0, 0.0, 0.0, 0.0, 0.0, 0.0, 1.0, 0.0, 1.0, 0.0, 0.0, 3.0, 3.0, 0.0, 4.0, 3.0, 3.0, 4.0, 5.0, 6.0, 6.0, 17.0, 20.0, 24.0, 54.0, 14.0, 17.0, 13.0, 6.0, 10.0, 6.0, 3.0, 7.0, 6.0, 3.0, 2.0, 0.0, 2.0, 1.0, 0.0, 3.0, 1.0, 1.0, 0.0, 0.0, 0.0, 0.0, 0.0, 2.0, 1.0, 0.0, 0.0, 0.0, 0.0, 0.0, 1.0], "bins": [-0.000258777872659266, -0.0002507407625671476, -0.0002427036815788597, -0.00023466658603865653, -0.00022662949049845338, -0.000218592380406335, -0.00021055528486613184, -0.0002025181893259287, -0.00019448109378572553, -0.00018644399824552238, -0.00017840690270531923, -0.00017036980716511607, -0.0001623326970729977, -0.00015429560153279454, -0.00014625850599259138, -0.00013822141045238823, -0.00013018431491218507, -0.00012214721937198192, -0.00011411012383177876, -0.000106073021015618, -9.803592547541484e-05, -8.999882993521169e-05, -8.196172711905092e-05, -7.392463157884777e-05, -6.588753603864461e-05, -5.785044049844146e-05, -4.9813341320259497e-05, -4.1776242142077535e-05, -3.373914660187438e-05, -2.5702049242681824e-05, -1.7664951883489266e-05, -9.627854524296708e-06, -1.5907862689346075e-06, 6.44631109025795e-06, 1.4483408449450508e-05, 2.2520505808643065e-05, 3.055760316783562e-05, 3.859469870803878e-05, 4.663179788622074e-05, 5.46688970644027e-05, 6.270599260460585e-05, 7.074308814480901e-05, 7.878018368501216e-05, 8.681728650117293e-05, 9.485438204137608e-05, 0.00010289147758157924, 0.00011092858039774, 0.00011896567593794316, 0.00012700277147814631, 0.00013503986701834947, 0.00014307696255855262, 0.00015111405809875578, 0.00015915115363895893, 0.0001671882637310773, 0.00017522535927128047, 0.00018326245481148362, 0.00019129955035168678, 0.00019933664589188993, 0.00020737374143209308, 0.00021541083697229624, 0.00022344794706441462, 0.00023148504260461777, 0.00023952213814482093, 0.00024755921913310885, 0.00025559632922522724]}, "gradients/layers.0.weight": {"_type": "histogram", "values": [1.0, 0.0, 0.0, 0.0, 0.0, 0.0, 0.0, 0.0, 0.0, 0.0, 2.0, 1.0, 4.0, 4.0, 5.0, 4.0, 7.0, 9.0, 1.0, 11.0, 12.0, 19.0, 17.0, 42.0, 66.0, 89.0, 121.0, 202.0, 300.0, 550.0, 991.0, 3218.0, 1073.0, 613.0, 360.0, 207.0, 160.0, 135.0, 65.0, 34.0, 25.0, 22.0, 19.0, 9.0, 7.0, 8.0, 8.0, 11.0, 3.0, 3.0, 1.0, 4.0, 1.0, 0.0, 1.0, 1.0, 0.0, 1.0, 0.0, 0.0, 0.0, 0.0, 0.0, 1.0], "bins": [-0.00039010634645819664, -0.0003777306992560625, -0.0003653550520539284, -0.00035297940485179424, -0.0003406037576496601, -0.000328228110447526, -0.0003158524341415614, -0.00030347678693942726, -0.0002911011397372931, -0.000278725492535159, -0.00026634984533302486, -0.0002539741981308907, -0.0002415985509287566, -0.00022922290372662246, -0.0002168472419725731, -0.00020447159477043897, -0.00019209594756830484, -0.0001797203003661707, -0.00016734465316403657, -0.0001549689914099872, -0.00014259334420785308, -0.00013021769700571895, -0.00011784204980358481, -0.00010546639532549307, -9.309074812335894e-05, -8.07151009212248e-05, -6.833944644313306e-05, -5.5963799240998924e-05, -4.3588148400885984e-05, -3.1212497560773045e-05, -1.883684853964951e-05, -6.461198609031271e-06, 5.9144513215869665e-06, 1.8290102161699906e-05, 3.0665753001812845e-05, 4.304140020394698e-05, 5.541705104405992e-05, 6.779270188417286e-05, 8.016834908630699e-05, 9.254400356439874e-05, 0.00010491965076653287, 0.000117295297968667, 0.00012967095244675875, 0.00014204659964889288, 0.000154422246851027, 0.00016679789405316114, 0.0001791735558072105, 0.00019154920300934464, 0.00020392485021147877, 0.0002163004974136129, 0.00022867614461574703, 0.0002410518063697964, 0.00025342745357193053, 0.00026580310077406466, 0.0002781787479761988, 0.0002905543951783329, 0.00030293004238046706, 0.0003153056895826012, 0.0003276813367847353, 0.0003400570130906999, 0.00035243266029283404, 0.0003648083074949682, 0.0003771839546971023, 0.00038955960189923644, 0.0004019352491013706]}, "_wandb": {"runtime": 8212}}