{"total_loss": 0.008992611956782639, "_timestamp": 1718050369.33658, "rgb_loss": 0.008992611956782639, "_runtime": 406.05481600761414, "_step": 3100, "Rendered Images": {"_type": "images/separated", "width": 256, "height": 256, "format": "png", "count": 5, "filenames": ["media/images/Rendered Images_0_0cfdb132ac09c4d7819e.png", "media/images/Rendered Images_0_e89fbd049fc6cc427ef3.png", "media/images/Rendered Images_0_19fe4126d0720e8d6a97.png", "media/images/Rendered Images_0_dabdc9deee24d80f84f0.png", "media/images/Rendered Images_0_320cd689ba0fcaa49bcf.png"]}, "Ground-truth Images": {"_type": "images/separated", "width": 256, "height": 256, "format": "png", "count": 5, "filenames": ["media/images/Ground-truth Images_8_e66caac5921126c9a542.png", "media/images/Ground-truth Images_8_d46094b22d91d1bd7d47.png", "media/images/Ground-truth Images_8_c1ae0e380e32a07032f8.png", "media/images/Ground-truth Images_8_b60b263c939c62f4bc58.png", "media/images/Ground-truth Images_8_ab3d98782f1147e7dca7.png"]}, "PSNR": 8.938105437326298, "Epoch": 0, "gradients/graph_1rgb_fn.2.bias": {"_type": "histogram", "values": [1.0, 0.0, 0.0, 0.0, 0.0, 0.0, 0.0, 0.0, 0.0, 0.0, 0.0, 0.0, 0.0, 0.0, 0.0, 0.0, 0.0, 0.0, 0.0, 0.0, 0.0, 0.0, 0.0, 0.0, 0.0, 0.0, 0.0, 0.0, 0.0, 0.0, 0.0, 0.0, 0.0, 0.0, 0.0, 0.0, 0.0, 0.0, 0.0, 0.0, 0.0, 0.0, 0.0, 0.0, 0.0, 0.0, 0.0, 0.0, 0.0, 0.0, 0.0, 0.0, 0.0, 0.0, 1.0, 0.0, 0.0, 0.0, 0.0, 0.0, 0.0, 0.0, 0.0, 1.0], "bins": [-0.0009627555846236646, -0.0009606701205484569, -0.0009585846564732492, -0.0009564992506057024, -0.0009544137865304947, -0.000952328322455287, -0.0009502428583800793, -0.0009481573943048716, -0.0009460719884373248, -0.000943986524362117, -0.0009419010602869093, -0.0009398155962117016, -0.0009377301321364939, -0.0009356447262689471, -0.0009335592621937394, -0.0009314737981185317, -0.000929388334043324, -0.0009273028699681163, -0.0009252174641005695, -0.0009231320000253618, -0.0009210465359501541, -0.0009189610718749464, -0.0009168756077997386, -0.0009147902019321918, -0.0009127047378569841, -0.0009106192737817764, -0.0009085338097065687, -0.000906448345631361, -0.0009043629397638142, -0.0009022774756886065, -0.0009001920116133988, -0.0008981065475381911, -0.0008960211416706443, -0.0008939356775954366, -0.0008918502135202289, -0.0008897647494450212, -0.0008876792853698134, -0.0008855938795022666, -0.0008835084154270589, -0.0008814229513518512, -0.0008793374872766435, -0.0008772520232014358, -0.000875166617333889, -0.0008730811532586813, -0.0008709956891834736, -0.0008689102251082659, -0.0008668247610330582, -0.0008647393551655114, -0.0008626538910903037, -0.000860568427015096, -0.0008584829629398882, -0.0008563974988646805, -0.0008543120929971337, -0.000852226628921926, -0.0008501411648467183, -0.0008480557007715106, -0.0008459702366963029, -0.0008438848308287561, -0.0008417993667535484, -0.0008397139026783407, -0.000837628438603133, -0.0008355429745279253, -0.0008334575686603785, -0.0008313721045851707, -0.000829286640509963]}, "gradients/graph_1rgb_fn.2.weight": {"_type": "histogram", "values": [1.0, 0.0, 0.0, 0.0, 0.0, 0.0, 0.0, 0.0, 0.0, 0.0, 1.0, 1.0, 0.0, 0.0, 0.0, 0.0, 0.0, 0.0, 0.0, 0.0, 0.0, 0.0, 1.0, 0.0, 1.0, 0.0, 4.0, 0.0, 1.0, 0.0, 1.0, 2.0, 2.0, 7.0, 1.0, 1.0, 1.0, 1.0, 4.0, 3.0, 3.0, 2.0, 2.0, 7.0, 4.0, 0.0, 3.0, 3.0, 4.0, 6.0, 3.0, 7.0, 7.0, 9.0, 6.0, 3.0, 3.0, 7.0, 7.0, 1.0, 3.0, 12.0, 31.0, 218.0], "bins": [-0.011615806259214878, -0.0114337969571352, -0.011251787655055523, -0.01106977928429842, -0.010887769982218742, -0.010705760680139065, -0.010523751378059387, -0.01034174207597971, -0.010159732773900032, -0.009977724403142929, -0.009795715101063251, -0.009613705798983574, -0.009431696496903896, -0.009249687194824219, -0.009067677892744541, -0.008885669521987438, -0.00870366021990776, -0.008521650917828083, -0.008339641615748405, -0.008157632313668728, -0.00797562301158905, -0.00779361417517066, -0.00761160533875227, -0.007429596036672592, -0.007247586734592915, -0.007065577898174524, -0.006883568596094847, -0.006701559294015169, -0.006519550457596779, -0.006337541155517101, -0.006155531853437424, -0.005973523017019033, -0.005791513714939356, -0.005609504878520966, -0.005427495576441288, -0.005245486740022898, -0.00506347743794322, -0.0048814681358635426, -0.004699459299445152, -0.004517449997365475, -0.004335440695285797, -0.004153431858867407, -0.003971422556787729, -0.0037894134875386953, -0.0036074041854590178, -0.003425395116209984, -0.00324338604696095, -0.0030613767448812723, -0.0028793676756322384, -0.0026973586063832045, -0.002515349304303527, -0.002333340235054493, -0.002151331165805459, -0.0019693218637257814, -0.0017873127944767475, -0.0016053037252277136, -0.0014232945395633578, -0.001241285353899002, -0.0010592762846499681, -0.0008772670989856124, -0.0006952579715289176, -0.0005132488440722227, -0.0003312396875116974, -0.0001492305309511721, 3.277860741945915e-05]}, "gradients/graph_1rgb_fn.0.bias": {"_type": "histogram", "values": [1.0, 0.0, 0.0, 0.0, 0.0, 0.0, 0.0, 0.0, 0.0, 0.0, 0.0, 0.0, 0.0, 0.0, 0.0, 1.0, 0.0, 0.0, 0.0, 0.0, 0.0, 0.0, 0.0, 1.0, 1.0, 0.0, 0.0, 0.0, 0.0, 0.0, 1.0, 0.0, 1.0, 0.0, 1.0, 2.0, 1.0, 1.0, 0.0, 0.0, 2.0, 1.0, 2.0, 3.0, 5.0, 50.0, 9.0, 4.0, 5.0, 6.0, 3.0, 5.0, 3.0, 4.0, 2.0, 2.0, 0.0, 2.0, 3.0, 3.0, 0.0, 1.0, 0.0, 2.0], "bins": [-0.0003685310948640108, -0.00036044366424903274, -0.0003523562045302242, -0.00034426877391524613, -0.0003361813141964376, -0.0003280938835814595, -0.00032000645296648145, -0.0003119189932476729, -0.00030383156263269484, -0.0002957441029138863, -0.00028765667229890823, -0.00027956924168393016, -0.0002714817819651216, -0.00026339435135014355, -0.000255306891631335, -0.00024721946101635695, -0.00023913201584946364, -0.00023104457068257034, -0.00022295712551567703, -0.00021486969490069896, -0.00020678224973380566, -0.00019869480456691235, -0.00019060735940001905, -0.00018251991423312575, -0.00017443246906623244, -0.00016634503845125437, -0.00015825759328436106, -0.00015017014811746776, -0.00014208270295057446, -0.00013399525778368115, -0.00012590782716870308, -0.00011782038200180978, -0.00010973293683491647, -0.00010164549166802317, -9.355805377708748e-05, -8.547060861019418e-05, -7.738317071925849e-05, -6.929572555236518e-05, -6.120828038547188e-05, -5.3120838856557384e-05, -4.503339732764289e-05, -3.694595579872839e-05, -2.885851245082449e-05, -2.0771069102920592e-05, -1.2683627574006096e-05, -4.5961851355968975e-06, 3.4912573028123006e-06, 1.1578699741221499e-05, 1.9666142179630697e-05, 2.7753583708545193e-05, 3.584102523745969e-05, 4.392847040435299e-05, 5.201591193326749e-05, 6.0103353462181985e-05, 6.819079862907529e-05, 7.627823652001098e-05, 8.436568168690428e-05, 9.245312685379758e-05, 0.00010054056474473327, 0.00010862800991162658, 0.00011671545507851988, 0.00012480290024541318, 0.00013289033086039126, 0.00014097777602728456, 0.00014906522119417787]}, "gradients/graph_1rgb_fn.0.weight": {"_type": "histogram", "values": [1.0, 0.0, 0.0, 0.0, 0.0, 0.0, 1.0, 2.0, 0.0, 2.0, 2.0, 2.0, 3.0, 4.0, 1.0, 1.0, 7.0, 9.0, 10.0, 3.0, 7.0, 11.0, 9.0, 16.0, 23.0, 23.0, 39.0, 68.0, 106.0, 162.0, 250.0, 379.0, 486.0, 654.0, 1123.0, 11953.0, 1721.0, 853.0, 568.0, 428.0, 306.0, 201.0, 139.0, 82.0, 43.0, 35.0, 20.0, 19.0, 11.0, 7.0, 12.0, 6.0, 4.0, 5.0, 3.0, 4.0, 3.0, 2.0, 1.0, 5.0, 1.0, 1.0, 1.0, 2.0], "bins": [-0.0025734903756529093, -0.0025013487320393324, -0.0024292070884257555, -0.002357065211981535, -0.002284923568367958, -0.002212781924754381, -0.0021406402811408043, -0.0020684986375272274, -0.0019963569939136505, -0.0019242152338847518, -0.001852073473855853, -0.0017799318302422762, -0.0017077901866286993, -0.0016356484265998006, -0.0015635067829862237, -0.001491365022957325, -0.001419223379343748, -0.0013470817357301712, -0.0012749399757012725, -0.0012027983320876956, -0.0011306565720587969, -0.00105851492844522, -0.000986373284831643, -0.0009142315830104053, -0.0008420898811891675, -0.0007699481793679297, -0.0006978064775466919, -0.000625664833933115, -0.0005535231321118772, -0.0004813814302906394, -0.00040923975757323205, -0.0003370980848558247, -0.0002649563830345869, -0.00019281469576526433, -0.00012067300849594176, -4.8531321226619184e-05, 2.361036604270339e-05, 9.575205331202596e-05, 0.00016789374058134854, 0.0002400354278506711, 0.0003121771151199937, 0.0003843188169412315, 0.00045646048965863883, 0.0005286021623760462, 0.000600743864197284, 0.0006728855660185218, 0.0007450272096320987, 0.0008171689114533365, 0.0008893106132745743, 0.0009614523150958121, 0.0010335940169170499, 0.0011057356605306268, 0.0011778774205595255, 0.0012500190641731024, 0.0013221607077866793, 0.001394302467815578, 0.0014664441114291549, 0.0015385857550427318, 0.0016107275150716305, 0.0016828691586852074, 0.0017550108022987843, 0.001827152562327683, 0.0018992942059412599, 0.0019714359659701586, 0.0020435776095837355]}, "gradients/graph_1density_fn.0.bias": {"_type": "histogram", "values": [1.0], "bins": [-1.256335963262245e-05, -1.256335963262245e-05]}, "gradients/graph_1density_fn.0.weight": {"_type": "histogram", "values": [1.0, 0.0, 0.0, 2.0, 0.0, 0.0, 0.0, 0.0, 1.0, 0.0, 2.0, 2.0, 2.0, 0.0, 2.0, 3.0, 4.0, 3.0, 3.0, 2.0, 1.0, 1.0, 2.0, 4.0, 2.0, 4.0, 4.0, 3.0, 3.0, 2.0, 6.0, 0.0, 5.0, 4.0, 3.0, 1.0, 0.0, 4.0, 2.0, 7.0, 4.0, 2.0, 1.0, 7.0, 4.0, 3.0, 5.0, 1.0, 3.0, 5.0, 0.0, 2.0, 3.0, 0.0, 1.0, 0.0, 0.0, 0.0, 0.0, 0.0, 1.0, 0.0, 0.0, 1.0], "bins": [-0.00010414090502308682, -0.00010109833237947896, -9.80557597358711e-05, -9.501318709226325e-05, -9.197060717269778e-05, -8.892803452908993e-05, -8.588546188548207e-05, -8.284288924187422e-05, -7.980031659826636e-05, -7.675774395465851e-05, -7.371517131105065e-05, -7.06725986674428e-05, -6.763002602383494e-05, -6.458744610426947e-05, -6.154487346066162e-05, -5.8502300817053765e-05, -5.545972817344591e-05, -5.2417155529838055e-05, -4.93745828862302e-05, -4.633200660464354e-05, -4.3289433961035684e-05, -4.024686131742783e-05, -3.720428503584117e-05, -3.416171239223331e-05, -3.111913974862546e-05, -2.8076567105017602e-05, -2.5033992642420344e-05, -2.1991418179823086e-05, -1.894884553621523e-05, -1.5906272892607376e-05, -1.2863698430010118e-05, -9.821124876907561e-06, -6.77854404784739e-06, -3.7359704947448336e-06, -6.933969416422769e-07, 2.3491766114602797e-06, 5.391750164562836e-06, 8.434323717665393e-06, 1.147689727076795e-05, 1.4519470823870506e-05, 1.7562044376973063e-05, 2.0604617020580918e-05, 2.3647191483178176e-05, 2.6689765945775434e-05, 2.973233858938329e-05, 3.2774911232991144e-05, 3.5817487514577806e-05, 3.886006015818566e-05, 4.1902632801793516e-05, 4.494520544540137e-05, 4.7987778089009225e-05, 5.103035437059589e-05, 5.407292701420374e-05, 5.71154996578116e-05, 6.015807593939826e-05, 6.320064858300611e-05, 6.624322122661397e-05, 6.928579387022182e-05, 7.232836651382968e-05, 7.537093915743753e-05, 7.8413519077003e-05, 8.145609172061086e-05, 8.449866436421871e-05, 8.754123700782657e-05, 9.058380965143442e-05]}, "gradients/graph_1feature_fn.4.bias": {"_type": "histogram", "values": [3.0, 0.0, 0.0, 0.0, 1.0, 0.0, 1.0, 0.0, 0.0, 0.0, 0.0, 0.0, 1.0, 3.0, 0.0, 1.0, 0.0, 0.0, 1.0, 0.0, 2.0, 4.0, 3.0, 2.0, 0.0, 2.0, 5.0, 3.0, 2.0, 3.0, 3.0, 10.0, 3.0, 8.0, 7.0, 10.0, 7.0, 8.0, 4.0, 3.0, 4.0, 2.0, 5.0, 1.0, 1.0, 3.0, 3.0, 1.0, 2.0, 1.0, 0.0, 1.0, 0.0, 1.0, 0.0, 0.0, 0.0, 1.0, 1.0, 0.0, 0.0, 0.0, 0.0, 1.0], "bins": [-0.00027322693495079875, -0.0002654090931173414, -0.0002575912803877145, -0.00024977343855425715, -0.00024195561127271503, -0.00023413776943925768, -0.00022631994215771556, -0.00021850211487617344, -0.00021068428759463131, -0.00020286644576117396, -0.00019504861847963184, -0.00018723079119808972, -0.00017941294936463237, -0.00017159512208309025, -0.00016377729480154812, -0.00015595945296809077, -0.00014814162568654865, -0.00014032379840500653, -0.00013250595657154918, -0.00012468812929000705, -0.00011687030200846493, -0.0001090524674509652, -0.00010123463289346546, -9.341680561192334e-05, -8.55989710544236e-05, -7.778113649692386e-05, -6.996330921538174e-05, -6.2145474657882e-05, -5.4327643738361076e-05, -4.6509812818840146e-05, -3.869197826134041e-05, -3.087414734181948e-05, -2.305631642229855e-05, -1.523848459328292e-05, -7.420652764267288e-06, 3.971790647483431e-07, 8.215010893763974e-06, 1.6032841813284904e-05, 2.3850674551795237e-05, 3.166850729030557e-05, 3.94863382098265e-05, 4.730416912934743e-05, 5.512200004886836e-05, 6.29398346063681e-05, 7.075766916386783e-05, 7.857549644540995e-05, 8.639333100290969e-05, 9.421115828445181e-05, 0.00010202899284195155, 0.00010984682739945129, 0.00011766465468099341, 0.00012548248923849314, 0.00013330031652003527, 0.00014111815835349262, 0.00014893598563503474, 0.00015675381291657686, 0.0001645716547500342, 0.00017238948203157634, 0.00018020730931311846, 0.00018802513659466058, 0.00019584297842811793, 0.00020366080570966005, 0.00021147863299120218, 0.00021929647482465953, 0.00022711430210620165]}, "gradients/graph_1feature_fn.4.weight": {"_type": "histogram", "values": [3.0, 0.0, 0.0, 3.0, 5.0, 8.0, 9.0, 5.0, 14.0, 14.0, 11.0, 18.0, 16.0, 12.0, 25.0, 20.0, 28.0, 37.0, 35.0, 34.0, 47.0, 43.0, 81.0, 95.0, 131.0, 120.0, 161.0, 216.0, 247.0, 324.0, 388.0, 568.0, 834.0, 1529.0, 7743.0, 1160.0, 638.0, 412.0, 302.0, 224.0, 185.0, 149.0, 110.0, 84.0, 78.0, 47.0, 35.0, 29.0, 19.0, 16.0, 13.0, 14.0, 11.0, 9.0, 4.0, 2.0, 5.0, 5.0, 3.0, 3.0, 1.0, 1.0, 0.0, 1.0], "bins": [-0.0006076599820517004, -0.000589944189414382, -0.0005722283967770636, -0.0005545126623474061, -0.0005367968697100878, -0.0005190810770727694, -0.000501365284435451, -0.0004836495209019631, -0.00046593372826464474, -0.00044821793562732637, -0.00043050217209383845, -0.0004127863794565201, -0.0003950705868192017, -0.0003773548232857138, -0.0003596390306483954, -0.0003419232671149075, -0.00032420747447758913, -0.00030649168184027076, -0.00028877591830678284, -0.00027106012566946447, -0.00025334436213597655, -0.00023562856949865818, -0.0002179127768613398, -0.00020019699877593666, -0.00018248122069053352, -0.00016476544260513037, -0.00014704966451972723, -0.00012933387188240886, -0.00011161809379700571, -9.390231571160257e-05, -7.618653035024181e-05, -5.847074862685986e-05, -4.075502511113882e-05, -2.303924338775687e-05, -5.323461664374918e-06, 1.2392320059007034e-05, 3.0108101782388985e-05, 4.7823883505770937e-05, 6.553966522915289e-05, 8.325545059051365e-05, 0.00010097122867591679, 0.00011868700676131994, 0.00013640278484672308, 0.00015411857748404145, 0.0001718343555694446, 0.00018955013365484774, 0.00020726592629216611, 0.00022498170437756926, 0.0002426974824629724, 0.0002604132751002908, 0.0002781290386337787, 0.00029584483127109706, 0.000313560594804585, 0.00033127638744190335, 0.0003489921800792217, 0.00036670794361270964, 0.000384423736250028, 0.0004021395288873464, 0.0004198552924208343, 0.0004375710850581527, 0.00045528687769547105, 0.00047300264122895896, 0.0004907184047624469, 0.0005084341973997653, 0.0005261499900370836]}, "gradients/graph_1feature_fn.2.bias": {"_type": "histogram", "values": [1.0, 0.0, 0.0, 0.0, 0.0, 0.0, 0.0, 0.0, 0.0, 0.0, 0.0, 0.0, 0.0, 0.0, 0.0, 0.0, 0.0, 0.0, 0.0, 0.0, 0.0, 0.0, 0.0, 0.0, 0.0, 0.0, 0.0, 1.0, 0.0, 1.0, 0.0, 1.0, 1.0, 3.0, 1.0, 4.0, 5.0, 6.0, 2.0, 2.0, 3.0, 6.0, 38.0, 5.0, 5.0, 10.0, 7.0, 6.0, 2.0, 6.0, 3.0, 3.0, 0.0, 1.0, 2.0, 1.0, 1.0, 0.0, 0.0, 0.0, 0.0, 0.0, 0.0, 1.0], "bins": [-0.0008960565901361406, -0.0008751400746405125, -0.0008542236173525453, -0.0008333071018569171, -0.000812390586361289, -0.0007914740708656609, -0.0007705575553700328, -0.0007496410980820656, -0.0007287245825864375, -0.0007078080670908093, -0.0006868916098028421, -0.000665975094307214, -0.0006450585788115859, -0.0006241420633159578, -0.0006032255478203297, -0.0005823090905323625, -0.0005613925750367343, -0.0005404760595411062, -0.000519559602253139, -0.0004986430867575109, -0.0004777265712618828, -0.00045681005576625466, -0.000435893569374457, -0.00041497708298265934, -0.0003940605674870312, -0.0003731440519914031, -0.00035222756559960544, -0.0003313110792078078, -0.00031039456371217966, -0.00028947804821655154, -0.0002685615618247539, -0.0002476450754329562, -0.0002267285599373281, -0.0002058120589936152, -0.00018489555804990232, -0.00016397905710618943, -0.00014306255616247654, -0.00012214605521876365, -0.00010122955427505076, -8.031305333133787e-05, -5.939655238762498e-05, -3.848005144391209e-05, -1.75635505001992e-05, 3.3529504435136914e-06, 2.426945138722658e-05, 4.518595233093947e-05, 6.610245327465236e-05, 8.701895421836525e-05, 0.00010793545516207814, 0.00012885195610579103, 0.00014976845704950392, 0.0001706849579932168, 0.0001916014589369297, 0.0002125179598806426, 0.00023343446082435548, 0.00025435094721615314, 0.00027526746271178126, 0.0002961839782074094, 0.00031710046459920704, 0.0003380169509910047, 0.0003589334664866328, 0.00037984998198226094, 0.0004007664683740586, 0.00042168295476585627, 0.0004425994702614844]}, "gradients/graph_1feature_fn.2.weight": {"_type": "histogram", "values": [1.0, 0.0, 0.0, 1.0, 0.0, 0.0, 2.0, 3.0, 2.0, 6.0, 3.0, 3.0, 1.0, 2.0, 1.0, 2.0, 4.0, 1.0, 2.0, 2.0, 2.0, 4.0, 0.0, 1.0, 1.0, 1.0, 2.0, 1.0, 1.0, 12.0, 12.0, 10.0, 22.0, 32.0, 47.0, 57.0, 93.0, 158.0, 258.0, 355.0, 388.0, 554.0, 2036.0, 8248.0, 1378.0, 846.0, 544.0, 387.0, 258.0, 200.0, 148.0, 100.0, 60.0, 51.0, 28.0, 21.0, 9.0, 5.0, 8.0, 5.0, 3.0, 1.0, 0.0, 1.0], "bins": [-0.0009364929283037782, -0.0009148371173068881, -0.000893181306309998, -0.0008715255535207689, -0.0008498697425238788, -0.0008282139315269887, -0.0008065581205300987, -0.0007849023677408695, -0.0007632465567439795, -0.0007415907457470894, -0.0007199349347501993, -0.0006982791237533092, -0.0006766233709640801, -0.00065496755996719, -0.0006333117489703, -0.0006116559379734099, -0.0005900001851841807, -0.0005683443741872907, -0.0005466885631904006, -0.0005250327521935105, -0.0005033769411966205, -0.00048172115930356085, -0.00046006537741050124, -0.0004384095664136112, -0.0004167537554167211, -0.0003950979735236615, -0.0003734421625267714, -0.0003517863806337118, -0.00033013056963682175, -0.00030847478774376214, -0.00028681897674687207, -0.00026516319485381246, -0.00024350741296075284, -0.000221851616515778, -0.00020019582007080317, -0.00017854002362582833, -0.00015688422718085349, -0.00013522841618396342, -0.00011357261973898858, -9.191682329401374e-05, -7.02610268490389e-05, -4.860523040406406e-05, -2.6949430321110412e-05, -5.293632057146169e-06, 1.6362166206818074e-05, 3.8017962651792914e-05, 5.967376273474656e-05, 8.132956281770021e-05, 0.00010298535926267505, 0.0001246411557076499, 0.00014629695215262473, 0.00016795274859759957, 0.0001896085450425744, 0.00021126435603946447, 0.0002329201524844393, 0.00025457594892941415, 0.00027623173082247376, 0.00029788754181936383, 0.0003195433528162539, 0.0003411991347093135, 0.0003628549457062036, 0.0003845107275992632, 0.00040616653859615326, 0.00042782232048921287, 0.00044947813148610294]}, "gradients/graph_1feature_fn.0.bias": {"_type": "histogram", "values": [1.0, 1.0, 2.0, 1.0, 1.0, 2.0, 1.0, 0.0, 1.0, 0.0, 0.0, 1.0, 6.0, 1.0, 1.0, 1.0, 3.0, 2.0, 1.0, 3.0, 2.0, 1.0, 5.0, 3.0, 4.0, 9.0, 1.0, 2.0, 6.0, 5.0, 5.0, 2.0, 6.0, 4.0, 5.0, 1.0, 5.0, 3.0, 4.0, 1.0, 1.0, 3.0, 1.0, 2.0, 3.0, 5.0, 1.0, 0.0, 2.0, 0.0, 1.0, 0.0, 0.0, 1.0, 1.0, 1.0, 1.0, 0.0, 0.0, 1.0, 0.0, 0.0, 0.0, 1.0], "bins": [-0.0003458352293819189, -0.0003322310221847147, -0.00031862678588368, -0.00030502257868647575, -0.0002914183714892715, -0.00027781413518823683, -0.0002642099279910326, -0.00025060572079382837, -0.0002370014990447089, -0.00022339727729558945, -0.00020979307009838521, -0.00019618884834926575, -0.0001825846266001463, -0.00016898041940294206, -0.0001553761976538226, -0.00014177199045661837, -0.0001281677687074989, -0.00011456355423433706, -0.00010095933976117522, -8.735511801205575e-05, -7.375090353889391e-05, -6.014668906573206e-05, -4.654247095459141e-05, -3.2938252843450755e-05, -1.933403837028891e-05, -5.7298220781376585e-06, 7.874394214013591e-06, 2.147861050616484e-05, 3.508282679831609e-05, 4.868704127147794e-05, 6.22912630205974e-05, 7.589547749375924e-05, 8.949969196692109e-05, 0.00010310390644008294, 0.00011670812091324478, 0.00013031234266236424, 0.00014391654985956848, 0.00015752077160868794, 0.0001711249933578074, 0.00018472920055501163, 0.0001983334223041311, 0.00021193764405325055, 0.00022554185125045478, 0.00023914607299957424, 0.0002527502947486937, 0.00026635450194589794, 0.00027995870914310217, 0.00029356294544413686, 0.0003071671526413411, 0.0003207713598385453, 0.00033437559613958, 0.00034797980333678424, 0.0003615840105339885, 0.00037518824683502316, 0.0003887924540322274, 0.00040239666122943163, 0.0004160008975304663, 0.00042960510472767055, 0.0004432093119248748, 0.000456813519122079, 0.0004704177554231137, 0.00048402196262031794, 0.0004976261989213526, 0.0005112303770147264, 0.0005248346133157611]}, "gradients/graph_1feature_fn.0.weight": {"_type": "histogram", "values": [4.0, 4.0, 4.0, 6.0, 13.0, 8.0, 14.0, 15.0, 17.0, 17.0, 20.0, 18.0, 30.0, 46.0, 61.0, 83.0, 100.0, 132.0, 174.0, 240.0, 256.0, 385.0, 524.0, 761.0, 1096.0, 1808.0, 7843.0, 3570.0, 2310.0, 1373.0, 911.0, 607.0, 513.0, 317.0, 263.0, 181.0, 127.0, 97.0, 103.0, 60.0, 40.0, 45.0, 42.0, 43.0, 38.0, 30.0, 18.0, 11.0, 8.0, 11.0, 7.0, 3.0, 7.0, 7.0, 5.0, 7.0, 4.0, 4.0, 2.0, 1.0, 0.0, 1.0, 2.0, 1.0], "bins": [-0.0003724047273863107, -0.0003585326485335827, -0.00034466059878468513, -0.0003307885490357876, -0.0003169164701830596, -0.00030304439133033156, -0.000289172341581434, -0.00027530029183253646, -0.00026142821297980845, -0.00024755613412708044, -0.0002336840843781829, -0.0002198120200773701, -0.00020593995577655733, -0.00019206789147574455, -0.00017819582717493176, -0.00016432376287411898, -0.0001504516985733062, -0.00013657963427249342, -0.00012270756997168064, -0.00010883550567086786, -9.496344137005508e-05, -8.10913770692423e-05, -6.721931276842952e-05, -5.334724846761674e-05, -3.9475184166803956e-05, -2.5603119865991175e-05, -1.1731055565178394e-05, 2.1410087356343865e-06, 1.6013073036447167e-05, 2.9885137337259948e-05, 4.375720163807273e-05, 5.762926593888551e-05, 7.150130113586783e-05, 8.537336543668061e-05, 9.92454297374934e-05, 0.00011311749403830618, 0.00012698955833911896, 0.00014086162263993174, 0.00015473368694074452, 0.0001686057512415573, 0.00018247781554237008, 0.00019634987984318286, 0.00021022194414399564, 0.00022409400844480842, 0.0002379660727456212, 0.00025183812249451876, 0.00026571020134724677, 0.0002795822801999748, 0.00029345432994887233, 0.0003073263796977699, 0.0003211984585504979, 0.0003350705374032259, 0.00034894258715212345, 0.000362814636901021, 0.000376686715753749, 0.000390558794606477, 0.0004044308443553746, 0.00041830289410427213, 0.00043217497295700014, 0.00044604705180972815, 0.0004599191015586257, 0.00047379115130752325, 0.00048766323016025126, 0.0005015353090129793, 0.0005154073587618768]}, "gradients/graph_1mlp.6.bias": {"_type": "histogram", "values": [1.0, 0.0, 0.0, 0.0, 0.0, 0.0, 0.0, 0.0, 0.0, 0.0, 0.0, 0.0, 0.0, 0.0, 0.0, 0.0, 0.0, 0.0, 0.0, 1.0, 0.0, 0.0, 0.0, 0.0, 0.0, 0.0, 0.0, 1.0, 0.0, 1.0, 0.0, 0.0, 2.0, 1.0, 3.0, 0.0, 3.0, 3.0, 4.0, 31.0, 1.0, 6.0, 4.0, 4.0, 6.0, 2.0, 4.0, 8.0, 8.0, 8.0, 4.0, 2.0, 6.0, 0.0, 1.0, 5.0, 2.0, 3.0, 1.0, 0.0, 1.0, 0.0, 0.0, 1.0], "bins": [-0.0012463617604225874, -0.001215023803524673, -0.0011836859630420804, -0.001152348006144166, -0.0011210101656615734, -0.001089672208763659, -0.0010583342518657446, -0.001026996411383152, -0.0009956584544852376, -0.0009643205557949841, -0.0009329826571047306, -0.0009016447002068162, -0.0008703068015165627, -0.0008389689028263092, -0.0008076309459283948, -0.0007762930472381413, -0.0007449551485478878, -0.0007136172498576343, -0.0006822793511673808, -0.0006509413942694664, -0.0006196034955792129, -0.0005882655968889594, -0.000556927639991045, -0.0005255897413007915, -0.000494251842610538, -0.0004629139439202845, -0.00043157601612620056, -0.0004002380883321166, -0.0003689001896418631, -0.0003375622909516096, -0.00030622436315752566, -0.0002748864353634417, -0.0002435484784655273, -0.00021221056522335857, -0.00018087265198118985, -0.00014953473873902112, -0.0001181968254968524, -8.685891225468367e-05, -5.552099901251495e-05, -2.4183085770346224e-05, 7.1548274718225e-06, 3.8492740713991225e-05, 6.983065395615995e-05, 0.00010116856719832867, 0.0001325064804404974, 0.00016384439368266612, 0.00019518230692483485, 0.00022652022016700357, 0.0002578581334091723, 0.0002891960320994258, 0.00032053395989350975, 0.0003518718876875937, 0.0003832097863778472, 0.0004145476850681007, 0.00044588561286218464, 0.0004772235406562686, 0.0005085614393465221, 0.0005398993380367756, 0.00057123729493469, 0.0006025751936249435, 0.000633913092315197, 0.0006652509910054505, 0.000696588889695704, 0.0007279268465936184, 0.0007592647452838719]}, "gradients/graph_1mlp.6.weight": {"_type": "histogram", "values": [1.0, 0.0, 0.0, 0.0, 0.0, 0.0, 0.0, 0.0, 1.0, 0.0, 1.0, 1.0, 1.0, 2.0, 5.0, 2.0, 5.0, 2.0, 4.0, 8.0, 11.0, 15.0, 20.0, 33.0, 59.0, 61.0, 97.0, 168.0, 264.0, 437.0, 708.0, 1291.0, 7490.0, 1377.0, 1187.0, 882.0, 681.0, 508.0, 355.0, 215.0, 146.0, 104.0, 71.0, 50.0, 35.0, 25.0, 18.0, 11.0, 7.0, 7.0, 3.0, 6.0, 0.0, 3.0, 0.0, 3.0, 0.0, 2.0, 0.0, 0.0, 0.0, 0.0, 0.0, 1.0], "bins": [-0.00041016560862772167, -0.000397421041270718, -0.00038467650301754475, -0.00037193193566054106, -0.00035918736830353737, -0.00034644283005036414, -0.00033369826269336045, -0.00032095369533635676, -0.0003082091570831835, -0.00029546458972617984, -0.00028272002236917615, -0.00026997545501217246, -0.00025723091675899923, -0.00024448634940199554, -0.00023174179659690708, -0.0002189972292399034, -0.00020625267643481493, -0.00019350812362972647, -0.00018076355627272278, -0.00016801900346763432, -0.00015527443611063063, -0.00014252988330554217, -0.0001297853305004537, -0.00011704077041940764, -0.00010429621033836156, -9.155165025731549e-05, -7.880709017626941e-05, -6.606253737118095e-05, -5.331797729013488e-05, -4.05734172090888e-05, -2.7828860766021535e-05, -1.5084302503964864e-05, -2.339715138077736e-06, 1.0404843123978935e-05, 2.3149401386035606e-05, 3.5893957829102874e-05, 4.863851791014895e-05, 6.138307799119502e-05, 7.412763079628348e-05, 8.687219087732956e-05, 9.961675095837563e-05, 0.00011236131103942171, 0.00012510587112046778, 0.00013785042392555624, 0.0001505949767306447, 0.0001633395440876484, 0.00017608409689273685, 0.00018882866424974054, 0.000201573217054829, 0.00021431776985991746, 0.00022706233721692115, 0.0002398068900220096, 0.0002525514573790133, 0.00026529599563218653, 0.0002780405629891902, 0.0002907851303461939, 0.00030352966859936714, 0.00031627423595637083, 0.0003290188033133745, 0.0003417633706703782, 0.00035450790892355144, 0.00036725247628055513, 0.0003799970436375588, 0.00039274158189073205, 0.00040548614924773574]}, "gradients/graph_1mlp.4.bias": {"_type": "histogram", "values": [1.0, 0.0, 0.0, 0.0, 1.0, 0.0, 0.0, 0.0, 0.0, 0.0, 1.0, 2.0, 0.0, 1.0, 2.0, 0.0, 1.0, 2.0, 2.0, 1.0, 3.0, 7.0, 2.0, 1.0, 3.0, 5.0, 4.0, 2.0, 12.0, 3.0, 4.0, 4.0, 4.0, 5.0, 3.0, 0.0, 3.0, 5.0, 7.0, 6.0, 2.0, 2.0, 5.0, 3.0, 3.0, 2.0, 2.0, 0.0, 2.0, 2.0, 2.0, 1.0, 0.0, 2.0, 0.0, 2.0, 0.0, 0.0, 0.0, 0.0, 0.0, 0.0, 0.0, 1.0], "bins": [-0.0013764449395239353, -0.0013275300152599812, -0.001278615090996027, -0.001229700050316751, -0.0011807851260527968, -0.0011318702017888427, -0.0010829551611095667, -0.0010340402368456125, -0.0009851253125816584, -0.0009362103883177042, -0.0008872954058460891, -0.000838380423374474, -0.0007894654991105199, -0.0007405505748465657, -0.0006916355923749506, -0.0006427206099033356, -0.0005938056856393814, -0.0005448907613754272, -0.0004959757789038122, -0.00044706082553602755, -0.00039814587216824293, -0.0003492309188004583, -0.0003003159654326737, -0.0002514010120648891, -0.00020248605869710445, -0.00015357110532931983, -0.00010465615196153522, -5.5741198593750596e-05, -6.826245225965977e-06, 4.208870814181864e-05, 9.100366150960326e-05, 0.00013991861487738788, 0.0001888335682451725, 0.00023774852161295712, 0.00028666347498074174, 0.00033557842834852636, 0.000384493381716311, 0.0004334083350840956, 0.0004823232884518802, 0.0005312382709234953, 0.0005801531951874495, 0.0006290681194514036, 0.0006779831019230187, 0.0007268980843946338, 0.0007758130086585879, 0.0008247279329225421, 0.0008736429153941572, 0.0009225578978657722, 0.0009714728221297264, 0.0010203877463936806, 0.0010693026706576347, 0.0011182177113369107, 0.0011671326356008649, 0.001216047559864819, 0.001264962600544095, 0.0013138775248080492, 0.0013627924490720034, 0.0014117073733359575, 0.0014606222975999117, 0.0015095373382791877, 0.0015584522625431418, 0.001607367186807096, 0.001656282227486372, 0.0017051971517503262, 0.0017541120760142803]}, "gradients/graph_1mlp.4.weight": {"_type": "histogram", "values": [2.0, 1.0, 3.0, 1.0, 3.0, 2.0, 5.0, 5.0, 3.0, 9.0, 7.0, 8.0, 9.0, 13.0, 19.0, 24.0, 29.0, 47.0, 48.0, 90.0, 88.0, 130.0, 155.0, 238.0, 271.0, 308.0, 414.0, 641.0, 1123.0, 4939.0, 2242.0, 1414.0, 899.0, 620.0, 512.0, 383.0, 324.0, 282.0, 210.0, 176.0, 148.0, 109.0, 80.0, 65.0, 67.0, 41.0, 50.0, 24.0, 21.0, 32.0, 12.0, 11.0, 7.0, 4.0, 1.0, 3.0, 2.0, 2.0, 3.0, 1.0, 0.0, 3.0, 0.0, 1.0], "bins": [-0.0006483339820988476, -0.0006264457479119301, -0.0006045575719326735, -0.0005826693377457559, -0.0005607811035588384, -0.0005388928693719208, -0.0005170046351850033, -0.0004951164592057467, -0.0004732282250188291, -0.00045133999083191156, -0.0004294517857488245, -0.0004075635806657374, -0.00038567534647881985, -0.0003637871122919023, -0.0003418989072088152, -0.00032001070212572813, -0.0002981224679388106, -0.00027623423375189304, -0.00025434602866880596, -0.00023245780903380364, -0.00021056958939880133, -0.000188681369763799, -0.0001667931501287967, -0.00014490493049379438, -0.00012301671085879207, -0.00010112849122378975, -7.924027158878744e-05, -5.735205195378512e-05, -3.5463832318782806e-05, -1.3575612683780491e-05, 8.312606951221824e-06, 3.020082658622414e-05, 5.208898801356554e-05, 7.397720764856786e-05, 9.586542728357017e-05, 0.00011775364691857249, 0.0001396418665535748, 0.00016153008618857712, 0.00018341830582357943, 0.00020530652545858175, 0.00022719474509358406, 0.0002490829792805016, 0.0002709711843635887, 0.0002928593894466758, 0.0003147476236335933, 0.00033663585782051086, 0.00035852406290359795, 0.00038041226798668504, 0.0004023005021736026, 0.0004241887363605201, 0.0004460769414436072, 0.0004679651465266943, 0.0004898533807136118, 0.0005117416149005294, 0.000533629790879786, 0.0005555180250667036, 0.0005774062592536211, 0.0005992944934405386, 0.0006211827276274562, 0.0006430709036067128, 0.0006649591377936304, 0.0006868473719805479, 0.0007087355479598045, 0.0007306237821467221, 0.0007525120163336396]}, "gradients/graph_1mlp.2.bias": {"_type": "histogram", "values": [1.0, 0.0, 0.0, 0.0, 0.0, 0.0, 0.0, 0.0, 1.0, 0.0, 0.0, 1.0, 0.0, 0.0, 0.0, 0.0, 0.0, 0.0, 0.0, 0.0, 0.0, 0.0, 0.0, 0.0, 1.0, 0.0, 0.0, 0.0, 0.0, 1.0, 0.0, 3.0, 1.0, 1.0, 2.0, 5.0, 2.0, 1.0, 2.0, 1.0, 2.0, 4.0, 3.0, 5.0, 4.0, 14.0, 9.0, 8.0, 5.0, 5.0, 6.0, 12.0, 10.0, 4.0, 4.0, 3.0, 2.0, 2.0, 2.0, 0.0, 0.0, 0.0, 0.0, 1.0], "bins": [-0.006833433173596859, -0.006683120969682932, -0.006532809231430292, -0.006382497027516365, -0.006232185289263725, -0.006081873085349798, -0.005931560881435871, -0.005781249143183231, -0.005630936939269304, -0.0054806252010166645, -0.005330312997102737, -0.00518000079318881, -0.005029689054936171, -0.0048793768510222435, -0.004729065112769604, -0.004578752908855677, -0.00442844070494175, -0.00427812896668911, -0.004127816762775183, -0.003977505024522543, -0.003827192820608616, -0.0036768808495253325, -0.003526568878442049, -0.0033762569073587656, -0.003225944936275482, -0.003075632732361555, -0.0029253207612782717, -0.0027750087901949883, -0.002624696819111705, -0.0024743848480284214, -0.0023240726441144943, -0.002173760673031211, -0.0020234487019479275, -0.001873136730864644, -0.0017228246433660388, -0.0015725126722827554, -0.0014222005847841501, -0.0012718886137008667, -0.0011215766426175833, -0.0009712646133266389, -0.0008209525840356946, -0.0006706405547447503, -0.0005203285254538059, -0.0003700165543705225, -0.00021970452507957816, -6.939251034054905e-05, 8.091950439848006e-05, 0.00023123151913750917, 0.0003815435338765383, 0.0005318555631674826, 0.000682167592458427, 0.0008324795635417104, 0.0009827916510403156, 0.001133103622123599, 0.0012834155932068825, 0.0014337276807054877, 0.0015840396517887712, 0.0017343516228720546, 0.0018846637103706598, 0.0020349756814539433, 0.0021852876525372267, 0.00233559962362051, 0.002485911827534437, 0.0026362237986177206, 0.002786535769701004]}, "gradients/graph_1mlp.2.weight": {"_type": "histogram", "values": [2.0, 1.0, 0.0, 0.0, 1.0, 1.0, 2.0, 2.0, 2.0, 1.0, 3.0, 2.0, 5.0, 2.0, 2.0, 6.0, 1.0, 2.0, 2.0, 3.0, 6.0, 9.0, 3.0, 7.0, 10.0, 5.0, 11.0, 10.0, 14.0, 21.0, 22.0, 35.0, 37.0, 54.0, 57.0, 82.0, 98.0, 146.0, 199.0, 302.0, 437.0, 1164.0, 7855.0, 3000.0, 1143.0, 697.0, 384.0, 212.0, 139.0, 73.0, 48.0, 23.0, 18.0, 10.0, 5.0, 2.0, 2.0, 2.0, 0.0, 0.0, 0.0, 1.0, 0.0, 1.0], "bins": [-0.005603681318461895, -0.005472119897603989, -0.005340558476746082, -0.005208997055888176, -0.00507743563503027, -0.004945874214172363, -0.004814312793314457, -0.004682751372456551, -0.004551189951598644, -0.004419628996402025, -0.004288067575544119, -0.0041565061546862125, -0.004024944733828306, -0.0038933833129704, -0.0037618218921124935, -0.003630260471254587, -0.003498699050396681, -0.0033671376295387745, -0.003235576208680868, -0.003104014787822962, -0.0029724533669650555, -0.0028408921789377928, -0.0027093307580798864, -0.00257776933722198, -0.0024462079163640738, -0.0023146464955061674, -0.002183085074648261, -0.0020515236537903547, -0.0019199623493477702, -0.0017884009284898639, -0.0016568396240472794, -0.001525278203189373, -0.0013937163166701794, -0.001262154895812273, -0.0011305934749543667, -0.0009990321705117822, -0.0008674707496538758, -0.0007359093287959695, -0.0006043479661457241, -0.0004727865743916482, -0.0003412251826375723, -0.0002096637908834964, -7.810239912942052e-05, 5.3458992624655366e-05, 0.00018502038437873125, 0.00031658177613280714, 0.000448143167886883, 0.0005797045305371284, 0.0007112659513950348, 0.0008428273722529411, 0.0009743887349031866, 0.001105950097553432, 0.0012375115184113383, 0.0013690729392692447, 0.0015006342437118292, 0.0016321956645697355, 0.0017637570854276419, 0.0018953185062855482, 0.0020268799271434546, 0.002158441348001361, 0.0022900025360286236, 0.00242156395688653, 0.0025531253777444363, 0.0026846867986023426, 0.002816248219460249]}, "gradients/graph_1mlp.0.bias": {"_type": "histogram", "values": [1.0, 0.0, 0.0, 0.0, 0.0, 0.0, 0.0, 0.0, 0.0, 0.0, 0.0, 0.0, 2.0, 0.0, 0.0, 0.0, 0.0, 0.0, 0.0, 0.0, 0.0, 0.0, 0.0, 0.0, 0.0, 0.0, 1.0, 1.0, 1.0, 0.0, 0.0, 0.0, 0.0, 1.0, 0.0, 1.0, 0.0, 1.0, 4.0, 2.0, 1.0, 1.0, 2.0, 1.0, 7.0, 4.0, 12.0, 6.0, 17.0, 12.0, 8.0, 4.0, 11.0, 6.0, 3.0, 3.0, 3.0, 0.0, 3.0, 3.0, 0.0, 2.0, 2.0, 2.0], "bins": [-0.010250043123960495, -0.010041039437055588, -0.009832034818828106, -0.009623031131923199, -0.009414026513695717, -0.00920502282679081, -0.008996019139885902, -0.00878701452165842, -0.008578010834753513, -0.008369007147848606, -0.008160002529621124, -0.007950998842716217, -0.0077419946901500225, -0.007532990537583828, -0.007323986850678921, -0.007114982698112726, -0.006905978545546532, -0.006696974392980337, -0.006487970240414143, -0.006278966553509235, -0.006069962400943041, -0.005860958248376846, -0.005651954561471939, -0.0054429504089057446, -0.00523394625633955, -0.0050249421037733555, -0.004815937951207161, -0.004606934264302254, -0.004397930111736059, -0.004188925959169865, -0.003979922272264957, -0.003770918119698763, -0.003561913501471281, -0.0033529093489050865, -0.0031439054291695356, -0.0029349015094339848, -0.0027258973568677902, -0.0025168932043015957, -0.002307889284566045, -0.002098885364830494, -0.0018898812122642994, -0.0016808771761134267, -0.001471873139962554, -0.0012628691038116813, -0.0010538650676608086, -0.0008448610315099359, -0.0006358569953590631, -0.00042685295920819044, -0.00021784892305731773, -8.844886906445026e-06, 0.00020015914924442768, 0.0004091631853953004, 0.0006181672215461731, 0.0008271712576970458, 0.0010361752938479185, 0.0012451793299987912, 0.001454183366149664, 0.0016631874023005366, 0.0018721914384514093, 0.0020811953581869602, 0.0022901995107531548, 0.0024992036633193493, 0.0027082075830549, 0.002917211502790451, 0.0031262156553566456]}, "gradients/graph_1mlp.0.weight": {"_type": "histogram", "values": [4.0, 0.0, 1.0, 3.0, 2.0, 0.0, 1.0, 0.0, 10.0, 6.0, 6.0, 7.0, 4.0, 2.0, 6.0, 3.0, 1.0, 9.0, 11.0, 15.0, 9.0, 16.0, 18.0, 13.0, 19.0, 41.0, 65.0, 88.0, 116.0, 192.0, 316.0, 721.0, 1571.0, 2539.0, 953.0, 481.0, 267.0, 172.0, 105.0, 73.0, 54.0, 32.0, 36.0, 14.0, 15.0, 5.0, 9.0, 4.0, 7.0, 1.0, 3.0, 1.0, 5.0, 4.0, 0.0, 1.0, 1.0, 2.0, 1.0, 1.0, 0.0, 0.0, 1.0, 1.0], "bins": [-0.010240396484732628, -0.009932122193276882, -0.009623847901821136, -0.009315574541687965, -0.00900730025023222, -0.008699025958776474, -0.008390752598643303, -0.008082478307187557, -0.0077742040157318115, -0.007465929724276066, -0.0071576558984816074, -0.006849382072687149, -0.006541107781231403, -0.006232833489775658, -0.005924559663981199, -0.005616285838186741, -0.005308011546730995, -0.0049997372552752495, -0.004691463429480791, -0.004383189603686333, -0.004074915312230587, -0.003766641253605485, -0.003458367194980383, -0.003150093136355281, -0.002841819077730179, -0.002533545019105077, -0.0022252709604799747, -0.0019169969018548727, -0.0016087228432297707, -0.0013004487846046686, -0.0009921747259795666, -0.0006839006673544645, -0.0003756275400519371, -6.735348142683506e-05, 0.00024092057719826698, 0.000549194635823369, 0.0008574686944484711, 0.0011657427530735731, 0.0014740168116986752, 0.0017822908703237772, 0.0020905649289488792, 0.0023988389875739813, 0.0027071130461990833, 0.0030153871048241854, 0.0033236611634492874, 0.0036319352220743895, 0.0039402092806994915, 0.00424848310649395, 0.004556757397949696, 0.004865031689405441, 0.0051733055151999, 0.005481579340994358, 0.005789853632450104, 0.0060981279239058495, 0.006406401749700308, 0.006714675575494766, 0.007022949866950512, 0.007331224158406258, 0.007639497984200716, 0.007947771809995174, 0.00825604610145092, 0.008564320392906666, 0.008872594684362411, 0.009180868044495583, 0.009489142335951328]}, "gradients/rgb_fn.2.bias": {"_type": "histogram", "values": [1.0, 0.0, 0.0, 0.0, 0.0, 0.0, 0.0, 0.0, 0.0, 0.0, 0.0, 0.0, 0.0, 0.0, 0.0, 0.0, 0.0, 0.0, 0.0, 0.0, 0.0, 0.0, 0.0, 0.0, 0.0, 0.0, 0.0, 0.0, 0.0, 0.0, 0.0, 0.0, 0.0, 0.0, 0.0, 0.0, 0.0, 0.0, 0.0, 0.0, 0.0, 1.0, 0.0, 0.0, 0.0, 0.0, 0.0, 0.0, 0.0, 0.0, 0.0, 0.0, 0.0, 0.0, 0.0, 0.0, 0.0, 0.0, 0.0, 0.0, 0.0, 0.0, 0.0, 1.0], "bins": [-0.0005090085905976593, -0.0005032637855038047, -0.0004975190386176109, -0.0004917742335237563, -0.00048602945753373206, -0.0004802846524398774, -0.0004745398764498532, -0.00046879510045982897, -0.0004630502953659743, -0.0004573055193759501, -0.0004515607433859259, -0.0004458159382920712, -0.000440071162302047, -0.0004343263863120228, -0.00042858158121816814, -0.00042283680522814393, -0.0004170920292381197, -0.00041134722414426506, -0.00040560244815424085, -0.00039985767216421664, -0.00039411286707036197, -0.00038836809108033776, -0.00038262331509031355, -0.0003768785099964589, -0.0003711337340064347, -0.00036538895801641047, -0.0003596441529225558, -0.0003538993769325316, -0.0003481546009425074, -0.0003424097958486527, -0.0003366650198586285, -0.0003309202438686043, -0.0003251754678785801, -0.00031943066278472543, -0.0003136858867947012, -0.000307941110804677, -0.00030219630571082234, -0.00029645152972079813, -0.0002907067537307739, -0.00028496194863691926, -0.00027921717264689505, -0.00027347239665687084, -0.0002677275915630162, -0.00026198281557299197, -0.00025623803958296776, -0.0002504932344891131, -0.0002447484584990889, -0.00023900366795714945, -0.00023325887741521, -0.0002275141014251858, -0.00022176931088324636, -0.00021602453489322215, -0.00021027974435128272, -0.00020453495380934328, -0.00019879017781931907, -0.00019304538727737963, -0.0001873005967354402, -0.00018155582074541599, -0.00017581103020347655, -0.0001700662396615371, -0.0001643214636715129, -0.00015857667312957346, -0.00015283188258763403, -0.00014708710659760982, -0.00014134231605567038]}, "gradients/rgb_fn.2.weight": {"_type": "histogram", "values": [1.0, 0.0, 0.0, 0.0, 0.0, 0.0, 0.0, 0.0, 0.0, 0.0, 0.0, 0.0, 0.0, 1.0, 0.0, 0.0, 1.0, 0.0, 0.0, 0.0, 0.0, 1.0, 2.0, 1.0, 0.0, 0.0, 2.0, 0.0, 0.0, 0.0, 1.0, 0.0, 2.0, 2.0, 0.0, 2.0, 0.0, 0.0, 3.0, 3.0, 3.0, 1.0, 3.0, 1.0, 0.0, 3.0, 6.0, 2.0, 7.0, 4.0, 3.0, 4.0, 7.0, 4.0, 5.0, 5.0, 3.0, 7.0, 11.0, 11.0, 15.0, 13.0, 181.0, 63.0], "bins": [-0.006142898462712765, -0.006044822279363871, -0.005946746561676264, -0.00584867037832737, -0.005750594660639763, -0.005652518477290869, -0.005554442759603262, -0.005456366576254368, -0.005358290858566761, -0.005260214675217867, -0.005162138491868973, -0.005064062774181366, -0.004965986590832472, -0.004867910873144865, -0.004769834689795971, -0.004671758972108364, -0.00457368278875947, -0.004475606605410576, -0.004377530887722969, -0.004279454704374075, -0.004181378986686468, -0.004083302803337574, -0.003985227085649967, -0.003887150902301073, -0.0037890749517828226, -0.003690999001264572, -0.0035929230507463217, -0.003494847100228071, -0.003396770916879177, -0.0032986949663609266, -0.003200619015842676, -0.0031025430653244257, -0.003004467347636819, -0.0029063913971185684, -0.002808315446600318, -0.0027102394960820675, -0.0026121633127331734, -0.002514087362214923, -0.0024160114116966724, -0.002317935461178422, -0.0022198595106601715, -0.002121783560141921, -0.0020237076096236706, -0.0019256315426900983, -0.0018275555921718478, -0.0017294795252382755, -0.001631403574720025, -0.0015333276242017746, -0.0014352516736835241, -0.0013371757231652737, -0.0012390996562317014, -0.001141023705713451, -0.0010429477551952004, -0.0009448717464692891, -0.0008467957377433777, -0.0007487197872251272, -0.0006506438367068768, -0.0005525678279809654, -0.00045449184835888445, -0.00035641586873680353, -0.0002583398891147226, -0.0001602639094926417, -6.218792987056077e-05, 3.588804975152016e-05, 0.00013396402937360108]}, "gradients/rgb_fn.0.bias": {"_type": "histogram", "values": [1.0, 0.0, 0.0, 0.0, 0.0, 0.0, 0.0, 0.0, 1.0, 0.0, 0.0, 0.0, 0.0, 0.0, 0.0, 1.0, 0.0, 1.0, 0.0, 0.0, 0.0, 1.0, 1.0, 0.0, 0.0, 1.0, 1.0, 0.0, 1.0, 0.0, 1.0, 0.0, 2.0, 0.0, 1.0, 0.0, 1.0, 3.0, 1.0, 3.0, 1.0, 9.0, 42.0, 13.0, 5.0, 5.0, 3.0, 1.0, 4.0, 2.0, 2.0, 0.0, 2.0, 2.0, 0.0, 0.0, 2.0, 2.0, 5.0, 4.0, 1.0, 0.0, 1.0, 1.0], "bins": [-0.00010403379565104842, -0.0001015934903989546, -9.915318514686078e-05, -9.671287989476696e-05, -9.427257464267313e-05, -9.183226939057931e-05, -8.939196413848549e-05, -8.695165888639167e-05, -8.451135363429785e-05, -8.207105565816164e-05, -7.963075040606782e-05, -7.7190445153974e-05, -7.475013990188017e-05, -7.230983464978635e-05, -6.986952939769253e-05, -6.742922414559871e-05, -6.498891889350489e-05, -6.254861364141107e-05, -6.0108308389317244e-05, -5.766800313722342e-05, -5.52276978851296e-05, -5.2787396271014586e-05, -5.0347091018920764e-05, -4.790678576682694e-05, -4.546648051473312e-05, -4.30261752626393e-05, -4.058587001054548e-05, -3.8145564758451656e-05, -3.570526314433664e-05, -3.326495789224282e-05, -3.0824652640149e-05, -2.8384347388055176e-05, -2.5944042135961354e-05, -2.3503736883867532e-05, -2.106343163177371e-05, -1.8623128198669292e-05, -1.618282294657547e-05, -1.3742517694481649e-05, -1.1302213351882529e-05, -8.861909009283409e-06, -6.421603757189587e-06, -3.981298959843116e-06, -1.540994162496645e-06, 8.993106348498259e-07, 3.3396154321962968e-06, 5.779920229542768e-06, 8.220225026889239e-06, 1.0660529369488358e-05, 1.310083462158218e-05, 1.5541139873676002e-05, 1.7981445125769824e-05, 2.0421748558874242e-05, 2.2862053810968064e-05, 2.5302359063061886e-05, 2.7742662496166304e-05, 3.0182967748260126e-05, 3.262327300035395e-05, 3.506357825244777e-05, 3.750388350454159e-05, 3.994418875663541e-05, 4.238449037075043e-05, 4.482479562284425e-05, 4.726510087493807e-05, 4.970540612703189e-05, 5.2145711379125714e-05]}, "gradients/rgb_fn.0.weight": {"_type": "histogram", "values": [1.0, 2.0, 0.0, 1.0, 3.0, 5.0, 5.0, 2.0, 3.0, 4.0, 7.0, 9.0, 7.0, 8.0, 8.0, 14.0, 21.0, 20.0, 30.0, 49.0, 50.0, 64.0, 98.0, 109.0, 147.0, 192.0, 245.0, 283.0, 333.0, 358.0, 502.0, 1295.0, 11820.0, 1552.0, 551.0, 326.0, 305.0, 257.0, 239.0, 205.0, 158.0, 119.0, 92.0, 74.0, 63.0, 44.0, 35.0, 23.0, 16.0, 17.0, 9.0, 11.0, 9.0, 6.0, 3.0, 5.0, 5.0, 6.0, 3.0, 3.0, 3.0, 2.0, 2.0, 2.0], "bins": [-0.0008898379746824503, -0.0008625005139037967, -0.000835163111332804, -0.0008078256505541503, -0.0007804882479831576, -0.000753150787204504, -0.0007258133264258504, -0.0006984759238548577, -0.0006711384630762041, -0.0006438010022975504, -0.0006164635997265577, -0.0005891261389479041, -0.0005617886781692505, -0.0005344512755982578, -0.0005071138148196042, -0.000479776383144781, -0.00045243895146995783, -0.00042510151979513466, -0.0003977640881203115, -0.0003704266273416579, -0.0003430891956668347, -0.00031575176399201155, -0.0002884143032133579, -0.00026107687153853476, -0.0002337394398637116, -0.00020640200818888843, -0.00017906456196215004, -0.00015172711573541164, -0.00012438968406058848, -9.70522451098077e-05, -6.971480615902692e-05, -4.237736720824614e-05, -1.5039870049804449e-05, 1.229756890097633e-05, 3.963500785175711e-05, 6.697244680253789e-05, 9.430988575331867e-05, 0.00012164732470409945, 0.00014898476365488023, 0.00017632220988161862, 0.00020365964155644178, 0.00023099707323126495, 0.0002583345049060881, 0.00028567196568474174, 0.0003130093973595649, 0.00034034682903438807, 0.0003676842898130417, 0.00039502172148786485, 0.000422359153162688, 0.0004496965848375112, 0.00047703401651233435, 0.000504371477290988, 0.0005317089380696416, 0.0005590463406406343, 0.0005863838014192879, 0.0006137212039902806, 0.0006410586647689342, 0.0006683961255475879, 0.0006957335281185806, 0.0007230709888972342, 0.0007504083914682269, 0.0007777458522468805, 0.0008050833130255342, 0.0008324207155965269, 0.0008597581763751805]}, "gradients/density_fn.0.bias": {"_type": "histogram", "values": [1.0], "bins": [-1.781042738002725e-05, -1.781042738002725e-05]}, "gradients/density_fn.0.weight": {"_type": "histogram", "values": [1.0, 0.0, 0.0, 0.0, 0.0, 0.0, 0.0, 0.0, 1.0, 1.0, 0.0, 0.0, 1.0, 2.0, 0.0, 0.0, 1.0, 2.0, 2.0, 2.0, 3.0, 2.0, 3.0, 1.0, 2.0, 3.0, 2.0, 2.0, 1.0, 4.0, 2.0, 3.0, 3.0, 1.0, 3.0, 3.0, 1.0, 2.0, 3.0, 2.0, 7.0, 5.0, 3.0, 3.0, 3.0, 6.0, 3.0, 0.0, 4.0, 3.0, 3.0, 6.0, 3.0, 4.0, 1.0, 0.0, 6.0, 1.0, 0.0, 4.0, 2.0, 0.0, 0.0, 2.0], "bins": [-0.00010495626338524744, -0.00010213744826614857, -9.931864042300731e-05, -9.649982530390844e-05, -9.368101018480957e-05, -9.08621950657107e-05, -8.804338722256944e-05, -8.522457210347056e-05, -8.240575698437169e-05, -7.958694914123043e-05, -7.676813402213156e-05, -7.394931890303269e-05, -7.113050378393382e-05, -6.831169594079256e-05, -6.549288082169369e-05, -6.267406570259482e-05, -5.985525422147475e-05, -5.703644274035469e-05, -5.4217627621255815e-05, -5.139881614013575e-05, -4.858000102103688e-05, -4.576118953991681e-05, -4.294237442081794e-05, -4.0123562939697877e-05, -3.730475145857781e-05, -3.448593633947894e-05, -3.1667124858358875e-05, -2.8848309739260003e-05, -2.6029498258139938e-05, -2.321068495803047e-05, -2.0391871657921e-05, -1.7573058357811533e-05, -1.4754245057702065e-05, -1.1935431757592596e-05, -9.116618457483128e-06, -6.297806066868361e-06, -3.4789927667588927e-06, -6.601796940230997e-07, 2.1586333787126932e-06, 4.977446224074811e-06, 7.796259524184279e-06, 1.0615072824293748e-05, 1.3433886124403216e-05, 1.6252699424512684e-05, 1.907151090563275e-05, 2.1890324205742218e-05, 2.4709137505851686e-05, 2.7527950805961154e-05, 3.0346764106070623e-05, 3.316557558719069e-05, 3.598439070628956e-05, 3.8803202187409624e-05, 4.1622017306508496e-05, 4.444082878762856e-05, 4.725964390672743e-05, 5.00784553878475e-05, 5.289726686896756e-05, 5.5716081988066435e-05, 5.85348934691865e-05, 6.135370495030656e-05, 6.417252006940544e-05, 6.699133518850431e-05, 6.981015030760318e-05, 7.262895815074444e-05, 7.544777326984331e-05]}, "gradients/feature_fn.4.bias": {"_type": "histogram", "values": [1.0, 0.0, 0.0, 0.0, 0.0, 0.0, 0.0, 0.0, 0.0, 0.0, 0.0, 0.0, 0.0, 0.0, 0.0, 0.0, 1.0, 1.0, 0.0, 0.0, 0.0, 1.0, 0.0, 1.0, 0.0, 1.0, 4.0, 4.0, 4.0, 2.0, 2.0, 1.0, 4.0, 4.0, 3.0, 4.0, 8.0, 6.0, 5.0, 10.0, 6.0, 8.0, 3.0, 10.0, 7.0, 5.0, 3.0, 1.0, 1.0, 2.0, 1.0, 2.0, 1.0, 3.0, 0.0, 0.0, 2.0, 1.0, 0.0, 0.0, 1.0, 1.0, 1.0, 2.0], "bins": [-0.00010994711919920519, -0.00010709791240515187, -0.00010424871288705617, -0.00010139950609300286, -9.855030657490715e-05, -9.570109978085384e-05, -9.285190026275814e-05, -9.000269346870482e-05, -8.71534866746515e-05, -8.43042871565558e-05, -8.145508036250249e-05, -7.860588084440678e-05, -7.575667405035347e-05, -7.290747453225777e-05, -7.005826773820445e-05, -6.720906822010875e-05, -6.435986142605543e-05, -6.151065463200212e-05, -5.866145511390641e-05, -5.5812251957831904e-05, -5.2963048801757395e-05, -5.011384200770408e-05, -4.726463885162957e-05, -4.441543569555506e-05, -4.156623253948055e-05, -3.871702938340604e-05, -3.5867826227331534e-05, -3.3018623071257025e-05, -3.0169418096193112e-05, -2.7320214940118603e-05, -2.447100996505469e-05, -2.1621806808980182e-05, -1.877259637694806e-05, -1.592339322087355e-05, -1.3074189155304339e-05, -1.0224985089735128e-05, -7.375781933660619e-06, -4.526578322838759e-06, -1.6773747120168991e-06, 1.1718288988049608e-06, 4.021032509626821e-06, 6.870236120448681e-06, 9.71943973127054e-06, 1.2568643796839751e-05, 1.541784695291426e-05, 1.826705010898877e-05, 2.1116255084052682e-05, 2.396545824012719e-05, 2.68146613962017e-05, 2.966386455227621e-05, 3.251306770835072e-05, 3.536227086442523e-05, 3.8211474020499736e-05, 4.106068081455305e-05, 4.390988397062756e-05, 4.675908712670207e-05, 4.960829028277658e-05, 5.245749343885109e-05, 5.53066965949256e-05, 5.8155899751000106e-05, 6.100510654505342e-05, 6.385430606314912e-05, 6.670351285720244e-05, 6.955271237529814e-05, 7.240191916935146e-05]}, "gradients/feature_fn.4.weight": {"_type": "histogram", "values": [1.0, 0.0, 0.0, 0.0, 1.0, 0.0, 1.0, 1.0, 0.0, 3.0, 3.0, 1.0, 1.0, 5.0, 2.0, 2.0, 1.0, 5.0, 3.0, 3.0, 9.0, 9.0, 8.0, 15.0, 12.0, 20.0, 28.0, 54.0, 79.0, 107.0, 144.0, 225.0, 323.0, 416.0, 656.0, 1191.0, 9286.0, 1231.0, 728.0, 484.0, 332.0, 243.0, 173.0, 117.0, 83.0, 87.0, 65.0, 45.0, 37.0, 29.0, 28.0, 26.0, 17.0, 16.0, 7.0, 5.0, 8.0, 3.0, 1.0, 3.0, 0.0, 0.0, 0.0, 1.0], "bins": [-0.0006082926993258297, -0.0005915634683333337, -0.0005748341791331768, -0.0005581049481406808, -0.0005413756589405239, -0.0005246464279480278, -0.0005079171387478709, -0.0004911879077553749, -0.00047445864765904844, -0.00045772938756272197, -0.0004410001274663955, -0.000424270867370069, -0.000407541636377573, -0.00039081237628124654, -0.00037408311618492007, -0.0003573538560885936, -0.00034062459599226713, -0.00032389533589594066, -0.0003071660757996142, -0.0002904368157032877, -0.00027370755560696125, -0.00025697832461446524, -0.00024024906451813877, -0.0002235198044218123, -0.00020679054432548583, -0.00019006128422915936, -0.00017333202413283288, -0.00015660277858842164, -0.00013987351849209517, -0.0001231442583957687, -0.00010641500557539985, -8.968575275503099e-05, -7.295655086636543e-05, -5.622729440801777e-05, -3.9498037949670106e-05, -2.2768781491322443e-05, -6.03952503297478e-06, 1.0689731425372884e-05, 2.7418987883720547e-05, 4.414824434206821e-05, 6.0877500800415874e-05, 7.760676089674234e-05, 9.43360137171112e-05, 0.00011106526653748006, 0.00012779452663380653, 0.000144523786730133, 0.00016125303227454424, 0.0001779822923708707, 0.00019471155246719718, 0.00021144081256352365, 0.00022817007265985012, 0.0002448993327561766, 0.00026162859285250306, 0.0002783578238449991, 0.00029508708394132555, 0.000311816344037652, 0.0003285456041339785, 0.00034527486423030496, 0.0003620041243266314, 0.0003787333844229579, 0.0003954626154154539, 0.0004121918755117804, 0.00042892113560810685, 0.0004456503957044333, 0.0004623796558007598]}, "gradients/feature_fn.2.bias": {"_type": "histogram", "values": [1.0, 0.0, 2.0, 0.0, 1.0, 0.0, 1.0, 0.0, 0.0, 0.0, 2.0, 2.0, 1.0, 5.0, 5.0, 4.0, 7.0, 5.0, 6.0, 43.0, 9.0, 8.0, 3.0, 7.0, 3.0, 1.0, 3.0, 0.0, 1.0, 1.0, 0.0, 2.0, 0.0, 1.0, 0.0, 0.0, 0.0, 0.0, 0.0, 0.0, 0.0, 0.0, 0.0, 0.0, 0.0, 1.0, 2.0, 0.0, 0.0, 0.0, 0.0, 0.0, 0.0, 0.0, 0.0, 0.0, 0.0, 0.0, 0.0, 0.0, 0.0, 0.0, 0.0, 1.0], "bins": [-0.00012036989210173488, -0.00011414253094699234, -0.00010791516251629218, -0.00010168780136154965, -9.546043293084949e-05, -8.923307177610695e-05, -8.30057033454068e-05, -7.677834219066426e-05, -7.055097375996411e-05, -6.432361260522157e-05, -5.8096247812500224e-05, -5.186888301977888e-05, -4.564152186503634e-05, -3.941415707231499e-05, -3.3186792279593647e-05, -2.69594274868723e-05, -2.0732062694150954e-05, -1.4504697901429608e-05, -8.277334018202964e-06, -2.049969680228969e-06, 4.177394657745026e-06, 1.0404759450466372e-05, 1.6632122424198315e-05, 2.285948721691966e-05, 2.9086852009641007e-05, 3.531421680236235e-05, 4.15415815950837e-05, 4.7768946387805045e-05, 5.3996307542547584e-05, 6.022367233526893e-05, 6.645103712799028e-05, 7.267840555869043e-05, 7.890576671343297e-05, 8.51331278681755e-05, 9.136049629887566e-05, 9.75878574536182e-05, 0.00010381522588431835, 0.00011004258703906089, 0.00011626995546976104, 0.0001224973239004612, 0.00012872468505520374, 0.00013495204620994627, 0.00014117940736468881, 0.00014740676851943135, 0.00015363414422608912, 0.00015986150538083166, 0.0001660888665355742, 0.00017231622769031674, 0.00017854358884505928, 0.00018477096455171704, 0.00019099832570645958, 0.00019722568686120212, 0.00020345304801594466, 0.00020968042372260243, 0.00021590778487734497, 0.0002221351460320875, 0.00022836250718683004, 0.00023458986834157258, 0.00024081724404823035, 0.0002470446052029729, 0.00025327198090963066, 0.00025949932751245797, 0.00026572670321911573, 0.00027195404982194304, 0.0002781814255286008]}, "gradients/feature_fn.2.weight": {"_type": "histogram", "values": [2.0, 0.0, 1.0, 1.0, 0.0, 0.0, 1.0, 6.0, 6.0, 5.0, 4.0, 11.0, 16.0, 16.0, 24.0, 34.0, 38.0, 46.0, 60.0, 72.0, 128.0, 230.0, 575.0, 1750.0, 10659.0, 1252.0, 560.0, 351.0, 179.0, 70.0, 56.0, 47.0, 25.0, 22.0, 20.0, 11.0, 12.0, 9.0, 13.0, 12.0, 10.0, 7.0, 7.0, 5.0, 7.0, 5.0, 3.0, 5.0, 3.0, 3.0, 0.0, 1.0, 0.0, 0.0, 1.0, 1.0, 0.0, 1.0, 0.0, 0.0, 0.0, 0.0, 0.0, 1.0], "bins": [-0.0004235404485370964, -0.00040612785960547626, -0.00038871527067385614, -0.000371302681742236, -0.00035389012191444635, -0.00033647753298282623, -0.0003190649440512061, -0.000301652355119586, -0.00028423976618796587, -0.00026682717725634575, -0.00024941458832472563, -0.00023200201394502074, -0.00021458942501340061, -0.0001971768360817805, -0.0001797642617020756, -0.00016235167277045548, -0.00014493908383883536, -0.00012752649490721524, -0.00011011391325155273, -9.270133159589022e-05, -7.52887426642701e-05, -5.787615737062879e-05, -4.0463572076987475e-05, -2.305098678334616e-05, -5.638401489704847e-06, 1.1774183803936467e-05, 2.918676909757778e-05, 4.6599354391219094e-05, 6.401193968486041e-05, 8.142452861648053e-05, 9.883711027214304e-05, 0.00011624969192780554, 0.00013366230996325612, 0.00015107489889487624, 0.00016848748782649636, 0.00018590006220620126, 0.00020331265113782138, 0.0002207252400694415, 0.0002381378144491464, 0.0002555504033807665, 0.00027296299231238663, 0.00029037558124400675, 0.0003077881701756269, 0.000325200759107247, 0.00034261331893503666, 0.0003600259078666568, 0.0003774384967982769, 0.000394851085729897, 0.00041226367466151714, 0.00042967626359313726, 0.0004470888525247574, 0.0004645014414563775, 0.00048191403038799763, 0.0004993266193196177, 0.0005167392082512379, 0.000534151797182858, 0.0005515643861144781, 0.0005689769168384373, 0.0005863895057700574, 0.0006038020947016776, 0.0006212146836332977, 0.0006386272725649178, 0.0006560398614965379, 0.000673452450428158, 0.0006908650393597782]}, "gradients/feature_fn.0.bias": {"_type": "histogram", "values": [1.0, 0.0, 0.0, 0.0, 0.0, 0.0, 0.0, 3.0, 0.0, 1.0, 0.0, 0.0, 0.0, 1.0, 0.0, 0.0, 2.0, 0.0, 1.0, 1.0, 0.0, 1.0, 4.0, 0.0, 1.0, 1.0, 1.0, 2.0, 6.0, 4.0, 2.0, 5.0, 2.0, 3.0, 5.0, 10.0, 5.0, 9.0, 4.0, 8.0, 10.0, 4.0, 5.0, 5.0, 3.0, 1.0, 2.0, 3.0, 2.0, 2.0, 1.0, 1.0, 0.0, 0.0, 1.0, 0.0, 2.0, 0.0, 0.0, 0.0, 0.0, 1.0, 0.0, 2.0], "bins": [-0.00029191860812716186, -0.0002836708736140281, -0.0002754231682047248, -0.000267175433691591, -0.0002589277282822877, -0.00025067999376915395, -0.00024243227380793542, -0.00023418455384671688, -0.00022593683388549834, -0.0002176891139242798, -0.00020944139396306127, -0.00020119367400184274, -0.00019294593948870897, -0.00018469821952749044, -0.0001764504995662719, -0.00016820277960505337, -0.00015995505964383483, -0.0001517073396826163, -0.00014345961972139776, -0.00013521189976017922, -0.00012696417979896069, -0.00011871645256178454, -0.00011046872532460839, -0.00010222100536338985, -9.397328540217131e-05, -8.572556544095278e-05, -7.747784547973424e-05, -6.923011824255809e-05, -6.0982398281339556e-05, -5.273467832012102e-05, -4.448695472092368e-05, -3.6239231121726334e-05, -2.7991540264338255e-05, -1.9743818484130315e-05, -1.1496096703922376e-05, -3.2483749237144366e-06, 4.999346856493503e-06, 1.3247068636701442e-05, 2.1494790416909382e-05, 2.974251219711732e-05, 3.799023397732526e-05, 4.6237953938543797e-05, 5.448567753774114e-05, 6.273340113693848e-05, 7.098112109815702e-05, 7.922884105937555e-05, 8.74765682965517e-05, 9.572428825777024e-05, 0.00010397200821898878, 0.00011221972818020731, 0.00012046744814142585, 0.00012871516810264438, 0.00013696288806386292, 0.00014521062257699668, 0.00015345834253821522, 0.00016170606249943376, 0.0001699537824606523, 0.00017820150242187083, 0.00018644922238308936, 0.0001946969423443079, 0.00020294467685744166, 0.0002111923968186602, 0.00021944011677987874, 0.00022768783674109727, 0.0002359355567023158]}, "gradients/feature_fn.0.weight": {"_type": "histogram", "values": [1.0, 0.0, 1.0, 0.0, 0.0, 3.0, 3.0, 2.0, 2.0, 5.0, 2.0, 7.0, 6.0, 10.0, 16.0, 16.0, 30.0, 40.0, 41.0, 60.0, 64.0, 105.0, 142.0, 223.0, 338.0, 457.0, 735.0, 1292.0, 3178.0, 11674.0, 2595.0, 1438.0, 773.0, 401.0, 213.0, 144.0, 95.0, 64.0, 67.0, 48.0, 28.0, 30.0, 24.0, 8.0, 17.0, 9.0, 6.0, 5.0, 5.0, 6.0, 1.0, 3.0, 1.0, 3.0, 2.0, 1.0, 0.0, 1.0, 0.0, 3.0, 2.0, 1.0, 0.0, 1.0], "bins": [-0.0005270103574730456, -0.0005090265185572207, -0.0004910426796413958, -0.0004730588407255709, -0.000455075001809746, -0.00043709116289392114, -0.00041910732397809625, -0.00040112348506227136, -0.00038313964614644647, -0.0003651558072306216, -0.0003471719683147967, -0.0003291881293989718, -0.0003112042904831469, -0.000293220451567322, -0.0002752366126514971, -0.00025725277373567224, -0.00023926893481984735, -0.00022128509590402246, -0.00020330125698819757, -0.00018531741807237267, -0.00016733357915654778, -0.0001493497402407229, -0.000131365901324898, -0.00011338206240907311, -9.539822349324822e-05, -7.741438457742333e-05, -5.9430545661598444e-05, -4.1446706745773554e-05, -2.3462867829948664e-05, -5.4790289141237736e-06, 1.2504810001701117e-05, 3.0488648917526007e-05, 4.84724878333509e-05, 6.645632674917579e-05, 8.444016566500068e-05, 0.00010242400458082557, 0.00012040784349665046, 0.00013839168241247535, 0.00015637552132830024, 0.00017435936024412513, 0.00019234319915995002, 0.0002103270380757749, 0.0002283108769915998, 0.0002462947159074247, 0.0002642785548232496, 0.00028226239373907447, 0.00030024623265489936, 0.00031823007157072425, 0.00033621391048654914, 0.00035419774940237403, 0.0003721815883181989, 0.0003901654272340238, 0.0004081492661498487, 0.0004261331050656736, 0.0004441169439814985, 0.00046210078289732337, 0.00048008462181314826, 0.0004980684607289732, 0.000516052299644798, 0.0005340361385606229, 0.0005520199774764478, 0.0005700038163922727, 0.0005879876553080976, 0.0006059714942239225, 0.0006239553331397474]}, "gradients/mlp.6.bias": {"_type": "histogram", "values": [1.0, 0.0, 0.0, 0.0, 0.0, 0.0, 0.0, 0.0, 0.0, 0.0, 0.0, 0.0, 0.0, 0.0, 0.0, 0.0, 0.0, 0.0, 0.0, 0.0, 1.0, 0.0, 0.0, 0.0, 0.0, 1.0, 1.0, 0.0, 1.0, 0.0, 0.0, 1.0, 2.0, 1.0, 2.0, 2.0, 2.0, 3.0, 5.0, 39.0, 0.0, 5.0, 10.0, 5.0, 4.0, 4.0, 2.0, 3.0, 4.0, 5.0, 6.0, 2.0, 5.0, 3.0, 0.0, 1.0, 0.0, 1.0, 1.0, 1.0, 1.0, 2.0, 0.0, 1.0], "bins": [-0.0004151610191911459, -0.0004046488320454955, -0.0003941366448998451, -0.0003836244286503643, -0.0003731122415047139, -0.0003626000543590635, -0.00035208783810958266, -0.0003415756509639323, -0.0003310634638182819, -0.0003205512766726315, -0.0003100390895269811, -0.00029952687327750027, -0.0002890146861318499, -0.0002785024989861995, -0.00026799028273671865, -0.00025747809559106827, -0.0002469659084454179, -0.0002364537212997675, -0.00022594151960220188, -0.00021542931790463626, -0.00020491713075898588, -0.0001944049436133355, -0.00018389274191576988, -0.00017338054021820426, -0.00016286835307255387, -0.00015235616592690349, -0.00014184396422933787, -0.00013133176253177226, -0.00012081957538612187, -0.00011030738096451387, -9.979518654290587e-05, -8.928299212129787e-05, -7.877079769968987e-05, -6.825860327808186e-05, -5.774640885647386e-05, -4.723421443486586e-05, -3.672202001325786e-05, -2.620982559164986e-05, -1.569763117004186e-05, -5.185436748433858e-06, 5.326757673174143e-06, 1.5838952094782144e-05, 2.6351146516390145e-05, 3.6863340937998146e-05, 4.737553535960615e-05, 5.788772978121415e-05, 6.839992420282215e-05, 7.891211862443015e-05, 8.942431304603815e-05, 9.993650746764615e-05, 0.00011044870188925415, 0.00012096089631086215, 0.00013147309073247015, 0.00014198527787812054, 0.00015249747957568616, 0.00016300968127325177, 0.00017352186841890216, 0.00018403405556455255, 0.00019454625726211816, 0.00020505845895968378, 0.00021557064610533416, 0.00022608283325098455, 0.00023659503494855016, 0.0002471072366461158, 0.00025761942379176617]}, "gradients/mlp.6.weight": {"_type": "histogram", "values": [1.0, 0.0, 1.0, 0.0, 0.0, 0.0, 1.0, 0.0, 0.0, 0.0, 0.0, 2.0, 1.0, 1.0, 2.0, 5.0, 0.0, 3.0, 3.0, 3.0, 6.0, 7.0, 13.0, 11.0, 21.0, 35.0, 39.0, 46.0, 87.0, 98.0, 120.0, 189.0, 268.0, 408.0, 766.0, 8484.0, 1541.0, 977.0, 731.0, 563.0, 395.0, 368.0, 303.0, 229.0, 173.0, 121.0, 112.0, 72.0, 46.0, 34.0, 29.0, 18.0, 18.0, 9.0, 6.0, 4.0, 4.0, 1.0, 2.0, 1.0, 3.0, 0.0, 1.0, 2.0], "bins": [-0.00022811767121311277, -0.00022176260245032609, -0.0002154075336875394, -0.0002090524649247527, -0.00020269739616196603, -0.00019634232739917934, -0.00018998725863639265, -0.00018363218987360597, -0.00017727712111081928, -0.0001709220523480326, -0.0001645669835852459, -0.00015821191482245922, -0.00015185684605967253, -0.00014550177729688585, -0.00013914670853409916, -0.00013279163977131248, -0.0001264365710085258, -0.0001200815022457391, -0.00011372643348295242, -0.00010737136472016573, -0.00010101629595737904, -9.466122719459236e-05, -8.830615843180567e-05, -8.195108966901898e-05, -7.55960209062323e-05, -6.924095214344561e-05, -6.288588338065892e-05, -5.653081461787224e-05, -5.017574585508555e-05, -4.3820677092298865e-05, -3.746560832951218e-05, -3.111053956672549e-05, -2.4755470803938806e-05, -1.840040204115212e-05, -1.2045333278365433e-05, -5.690264515578747e-06, 6.648042472079396e-07, 7.019873009994626e-06, 1.3374941772781312e-05, 1.9730010535568e-05, 2.6085079298354685e-05, 3.244014806114137e-05, 3.879521682392806e-05, 4.5150285586714745e-05, 5.150535434950143e-05, 5.786042311228812e-05, 6.42154918750748e-05, 7.057056063786149e-05, 7.692562940064818e-05, 8.328069816343486e-05, 8.963576692622155e-05, 9.599083568900824e-05, 0.00010234590445179492, 0.00010870097321458161, 0.0001150560419773683, 0.00012141111074015498, 0.00012776617950294167, 0.00013412124826572835, 0.00014047631702851504, 0.00014683138579130173, 0.00015318645455408841, 0.0001595415233168751, 0.0001658965920796618, 0.00017225166084244847, 0.00017860672960523516]}, "gradients/mlp.4.bias": {"_type": "histogram", "values": [1.0, 0.0, 0.0, 1.0, 0.0, 0.0, 1.0, 0.0, 0.0, 0.0, 0.0, 1.0, 1.0, 0.0, 0.0, 0.0, 0.0, 2.0, 1.0, 0.0, 2.0, 2.0, 2.0, 1.0, 4.0, 3.0, 2.0, 6.0, 6.0, 3.0, 26.0, 4.0, 5.0, 6.0, 6.0, 4.0, 7.0, 5.0, 5.0, 5.0, 1.0, 4.0, 3.0, 0.0, 1.0, 1.0, 2.0, 1.0, 0.0, 1.0, 0.0, 0.0, 0.0, 0.0, 0.0, 0.0, 0.0, 0.0, 1.0, 0.0, 0.0, 0.0, 0.0, 1.0], "bins": [-0.000941247446462512, -0.0009103640913963318, -0.0008794807363301516, -0.0008485974394716322, -0.000817714084405452, -0.0007868307293392718, -0.0007559473742730916, -0.0007250640192069113, -0.000694180722348392, -0.0006632973672822118, -0.0006324140122160316, -0.0006015306571498513, -0.0005706473020836711, -0.0005397639470174909, -0.0005088806501589715, -0.0004779972950927913, -0.0004471139400266111, -0.00041623058496043086, -0.0003853472589980811, -0.00035446390393190086, -0.0003235805779695511, -0.00029269722290337086, -0.00026181386783719063, -0.00023093052732292563, -0.00020004718680866063, -0.00016916384629439563, -0.00013828050578013062, -0.0001073971507139504, -7.65138101996854e-05, -4.563046604744159e-05, -1.4747121895197779e-05, 1.613622225704603e-05, 4.701956640928984e-05, 7.790290692355484e-05, 0.00010878625471377745, 0.00013966960250400007, 0.00017055294301826507, 0.00020143628353253007, 0.0002323196385987103, 0.00026320296456106007, 0.0002940863196272403, 0.00032496967469342053, 0.0003558530006557703, 0.00038673635572195053, 0.00041761971078813076, 0.00044850303675048053, 0.00047938639181666076, 0.0005102697177790105, 0.0005411530728451908, 0.000572036427911371, 0.0006029197829775512, 0.0006338030798360705, 0.0006646864349022508, 0.000695569789968431, 0.0007264531450346112, 0.0007573365001007915, 0.0007882198551669717, 0.000819103152025491, 0.0008499865070916712, 0.0008808698621578515, 0.0009117532172240317, 0.0009426365722902119, 0.0009735198691487312, 0.0010044032242149115, 0.0010352865792810917]}, "gradients/mlp.4.weight": {"_type": "histogram", "values": [4.0, 0.0, 1.0, 1.0, 2.0, 3.0, 1.0, 3.0, 8.0, 1.0, 10.0, 25.0, 19.0, 36.0, 44.0, 52.0, 89.0, 97.0, 109.0, 161.0, 176.0, 292.0, 333.0, 435.0, 527.0, 721.0, 1071.0, 1974.0, 4699.0, 1313.0, 915.0, 697.0, 549.0, 441.0, 364.0, 270.0, 223.0, 165.0, 123.0, 96.0, 82.0, 60.0, 42.0, 30.0, 29.0, 19.0, 17.0, 11.0, 12.0, 9.0, 6.0, 4.0, 2.0, 1.0, 2.0, 2.0, 2.0, 2.0, 1.0, 0.0, 0.0, 0.0, 0.0, 1.0], "bins": [-0.0004496548499446362, -0.00043359617120586336, -0.0004175374924670905, -0.0004014788137283176, -0.0003854201640933752, -0.00036936148535460234, -0.00035330280661582947, -0.0003372441278770566, -0.00032118544913828373, -0.00030512677039951086, -0.000289068091660738, -0.0002730094129219651, -0.00025695073418319225, -0.0002408920699963346, -0.00022483340580947697, -0.0002087747270707041, -0.00019271604833193123, -0.00017665736959315836, -0.0001605986908543855, -0.00014454002666752785, -0.00012848134792875499, -0.00011242266918998212, -9.636399772716686e-05, -8.03053262643516e-05, -6.424664752557874e-05, -4.8187972424784675e-05, -3.212929732399061e-05, -1.607062222319655e-05, -1.1947122402489185e-08, 1.6046727978391573e-05, 3.2105403079185635e-05, 4.81640781799797e-05, 6.42227241769433e-05, 8.028140291571617e-05, 9.634007437853143e-05, 0.00011239874584134668, 0.00012845742458011955, 0.00014451610331889242, 0.00016057476750575006, 0.00017663344624452293, 0.0001926921249832958, 0.00020875080372206867, 0.00022480948246084154, 0.00024086814664769918, 0.0002569268108345568, 0.0002729854895733297, 0.00028904416831210256, 0.0003051028470508754, 0.0003211615257896483, 0.00033722020452842116, 0.00035327888326719403, 0.0003693375620059669, 0.00038539624074473977, 0.0004014548903796822, 0.00041751356911845505, 0.0004335722478572279, 0.0004496309265960008, 0.00046568960533477366, 0.00048174828407354653, 0.0004978069337084889, 0.0005138656124472618, 0.0005299242911860347, 0.0005459829699248075, 0.0005620416486635804, 0.0005781003274023533]}, "gradients/mlp.2.bias": {"_type": "histogram", "values": [2.0, 0.0, 0.0, 0.0, 0.0, 0.0, 0.0, 0.0, 0.0, 1.0, 0.0, 0.0, 0.0, 1.0, 2.0, 1.0, 1.0, 1.0, 0.0, 0.0, 0.0, 0.0, 1.0, 1.0, 2.0, 3.0, 4.0, 5.0, 9.0, 6.0, 15.0, 16.0, 18.0, 15.0, 4.0, 4.0, 2.0, 3.0, 2.0, 1.0, 0.0, 1.0, 1.0, 1.0, 0.0, 1.0, 1.0, 0.0, 0.0, 0.0, 0.0, 0.0, 2.0, 0.0, 0.0, 0.0, 0.0, 0.0, 0.0, 0.0, 0.0, 0.0, 0.0, 1.0], "bins": [-0.0038691218942403793, -0.0037435628473758698, -0.00361800380051136, -0.003492444520816207, -0.0033668854739516973, -0.0032413264270871878, -0.0031157671473920345, -0.002990208100527525, -0.0028646490536630154, -0.0027390900067985058, -0.002613530959933996, -0.002487971680238843, -0.0023624126333743334, -0.002236853586509824, -0.0021112943068146706, -0.001985735259950161, -0.0018601762130856514, -0.0017346171662211418, -0.0016090580029413104, -0.001483498839661479, -0.0013579397927969694, -0.0012323807459324598, -0.0011068215826526284, -0.000981262419372797, -0.0008557033725082874, -0.0007301442674361169, -0.0006045851623639464, -0.00047902605729177594, -0.00035346695221960545, -0.00022790784714743495, -0.00010234874207526445, 2.3210362996906042e-05, 0.00014876900240778923, 0.0002743281074799597, 0.0003998872125521302, 0.0005254463176243007, 0.0006510054226964712, 0.0007765645277686417, 0.0009021236328408122, 0.0010276827961206436, 0.0011532418429851532, 0.0012788008898496628, 0.0014043600531294942, 0.0015299192164093256, 0.0016554782632738352, 0.0017810373101383448, 0.0019065964734181762, 0.0020321556366980076, 0.002157714683562517, 0.0022832737304270267, 0.0024088327772915363, 0.0025343920569866896, 0.002659951103851199, 0.0027855101507157087, 0.002911069430410862, 0.0030366284772753716, 0.003162187524139881, 0.0032877465710043907, 0.0034133056178689003, 0.0035388648975640535, 0.003664423944428563, 0.0037899829912930727, 0.003915542270988226, 0.0040411013178527355, 0.004166660364717245]}, "gradients/mlp.2.weight": {"_type": "histogram", "values": [1.0, 0.0, 0.0, 1.0, 1.0, 1.0, 1.0, 0.0, 3.0, 2.0, 4.0, 1.0, 6.0, 4.0, 3.0, 7.0, 6.0, 10.0, 18.0, 15.0, 23.0, 29.0, 35.0, 52.0, 52.0, 82.0, 96.0, 176.0, 266.0, 482.0, 1088.0, 5839.0, 5181.0, 1455.0, 668.0, 323.0, 178.0, 81.0, 47.0, 44.0, 12.0, 20.0, 19.0, 11.0, 9.0, 6.0, 3.0, 3.0, 2.0, 3.0, 2.0, 2.0, 1.0, 0.0, 3.0, 1.0, 2.0, 1.0, 1.0, 1.0, 0.0, 0.0, 0.0, 1.0], "bins": [-0.004779414739459753, -0.004629900213330984, -0.004480385687202215, -0.004330871161073446, -0.004181357100605965, -0.004031842574477196, -0.003882328048348427, -0.003732813522219658, -0.003583298996090889, -0.00343378446996212, -0.003284269943833351, -0.003134755650535226, -0.002985241124406457, -0.002835726598277688, -0.0026862123049795628, -0.002536697778850794, -0.002387183252722025, -0.002237668726593256, -0.002088154200464487, -0.0019386399071663618, -0.0017891253810375929, -0.001639610854908824, -0.0014900964451953769, -0.0013405820354819298, -0.0011910675093531609, -0.001041552983224392, -0.0008920385735109448, -0.0007425241055898368, -0.0005930096376687288, -0.0004434951697476208, -0.0002939807018265128, -0.0001444662339054048, 5.048234015703201e-06, 0.0001545627019368112, 0.0003040771698579192, 0.0004535916377790272, 0.0006031061057001352, 0.0007526205736212432, 0.0009021350415423512, 0.0010516494512557983, 0.0012011639773845673, 0.0013506785035133362, 0.0015001929132267833, 0.0016497073229402304, 0.0017992218490689993, 0.0019487363751977682, 0.0020982506684958935, 0.0022477651946246624, 0.0023972797207534313, 0.0025467942468822002, 0.002696308773010969, 0.0028458230663090944, 0.0029953375924378633, 0.0031448521185666323, 0.0032943664118647575, 0.0034438809379935265, 0.0035933954641222954, 0.0037429099902510643, 0.0038924245163798332, 0.004041939042508602, 0.004191453568637371, 0.004340967629104853, 0.004490482155233622, 0.0046399966813623905, 0.0047895112074911594]}, "gradients/mlp.0.bias": {"_type": "histogram", "values": [1.0, 1.0, 0.0, 0.0, 0.0, 0.0, 0.0, 0.0, 2.0, 0.0, 0.0, 0.0, 0.0, 0.0, 0.0, 0.0, 1.0, 0.0, 0.0, 0.0, 0.0, 0.0, 0.0, 0.0, 2.0, 1.0, 0.0, 2.0, 2.0, 5.0, 0.0, 7.0, 3.0, 4.0, 3.0, 5.0, 10.0, 8.0, 12.0, 12.0, 5.0, 9.0, 4.0, 8.0, 5.0, 4.0, 1.0, 1.0, 2.0, 0.0, 3.0, 2.0, 0.0, 0.0, 0.0, 0.0, 1.0, 0.0, 0.0, 0.0, 0.0, 0.0, 1.0, 1.0], "bins": [-0.006890746299177408, -0.006712717469781637, -0.006534688174724579, -0.006356659345328808, -0.006178630515933037, -0.0060006012208759785, -0.0058225723914802074, -0.005644543562084436, -0.005466514267027378, -0.005288485437631607, -0.005110456608235836, -0.004932427778840065, -0.004754398483783007, -0.004576369654387236, -0.004398340824991465, -0.004220311529934406, -0.004042282700538635, -0.0038642536383122206, -0.0036862248089164495, -0.003508195746690035, -0.003330166917294264, -0.003152137855067849, -0.0029741087928414345, -0.0027960799634456635, -0.0026180509012192488, -0.002440021838992834, -0.002261993009597063, -0.0020839639473706484, -0.0019059350015595555, -0.0017279060557484627, -0.001549876993522048, -0.0013718480477109551, -0.0011938191018998623, -0.0010157901560887694, -0.0008377611520700157, -0.0006597321480512619, -0.00048170320224016905, -0.00030367422732524574, -0.00012564525241032243, 5.238372250460088e-05, 0.0002304126974195242, 0.0004084416723344475, 0.0005864706472493708, 0.0007644996512681246, 0.0009425285970792174, 0.0011205575428903103, 0.001298586605116725, 0.0014766155509278178, 0.0016546444967389107, 0.0018326734425500035, 0.0020107023883610964, 0.002188731450587511, 0.002366760279983282, 0.0025447893422096968, 0.0027228184044361115, 0.0029008472338318825, 0.003078876296058297, 0.003256905358284712, 0.003434934187680483, 0.0036129632499068975, 0.0037909923121333122, 0.003969021141529083, 0.004147049970924854, 0.004325079265981913, 0.004503108095377684]}, "gradients/mlp.0.weight": {"_type": "histogram", "values": [1.0, 1.0, 2.0, 1.0, 4.0, 3.0, 3.0, 11.0, 4.0, 3.0, 12.0, 7.0, 9.0, 7.0, 4.0, 5.0, 2.0, 14.0, 10.0, 9.0, 18.0, 18.0, 45.0, 43.0, 66.0, 155.0, 202.0, 259.0, 407.0, 676.0, 1325.0, 1944.0, 1045.0, 667.0, 374.0, 227.0, 147.0, 95.0, 58.0, 48.0, 23.0, 21.0, 12.0, 9.0, 11.0, 10.0, 14.0, 0.0, 0.0, 3.0, 3.0, 7.0, 2.0, 2.0, 3.0, 4.0, 2.0, 1.0, 1.0, 1.0, 2.0, 0.0, 1.0, 1.0], "bins": [-0.008921545930206776, -0.00863680150359869, -0.008352057076990604, -0.008067312650382519, -0.007782568223774433, -0.00749782333150506, -0.0072130789048969746, -0.006928334478288889, -0.006643590051680803, -0.006358845625072718, -0.006074101198464632, -0.005789356771856546, -0.0055046118795871735, -0.005219867452979088, -0.004935123026371002, -0.0046503785997629166, -0.004365634173154831, -0.004080889746546745, -0.0037961453199386597, -0.0035114006604999304, -0.0032266562338918447, -0.002941911807283759, -0.00265716714784503, -0.002372422721236944, -0.0020876782946288586, -0.001802933868020773, -0.0015181893249973655, -0.001233444781973958, -0.0009487003553658724, -0.0006639558705501258, -0.0003792113857343793, -9.446690091863275e-05, 0.00019027665257453918, 0.00047502113739028573, 0.0007597656222060323, 0.0010445101652294397, 0.0013292545918375254, 0.001613999018445611, 0.0018987435614690185, 0.002183488104492426, 0.0024682325311005116, 0.002752976957708597, 0.003037721384316683, 0.003322466043755412, 0.0036072104703634977, 0.0038919548969715834, 0.004176699556410313, 0.004461443983018398, 0.004746188409626484, 0.0050309328362345695, 0.005315677262842655, 0.005600421689450741, 0.0058851661160588264, 0.006169911008328199, 0.006454655434936285, 0.006739399861544371, 0.007024144288152456, 0.007308888714760542, 0.0075936331413686275, 0.007878378033638, 0.008163122460246086, 0.008447866886854172, 0.008732611313462257, 0.009017355740070343, 0.009302100166678429]}}