{"total_loss": 0.0019304181664483622, "_timestamp": 1718123447.6151438, "rgb_loss": 0.0019304181664483622, "_runtime": 12514.042571783066, "_step": 40004, "Rendered Images": {"_type": "images/separated", "width": 256, "height": 256, "format": "png", "count": 5, "filenames": ["media/images/Rendered Images_40000_20c5c0621589eaf1e9a0.png", "media/images/Rendered Images_40000_b3c4063ddd5f5ca33e72.png", "media/images/Rendered Images_40000_9786838a6a8f80ac2475.png", "media/images/Rendered Images_40000_24eea9edf037c1acd4c5.png", "media/images/Rendered Images_40000_59006f8ae674bf1ad202.png"]}, "Ground-truth Images": {"_type": "images/separated", "width": 256, "height": 256, "format": "png", "count": 5, "filenames": ["media/images/Ground-truth Images_40004_e66caac5921126c9a542.png", "media/images/Ground-truth Images_40004_d46094b22d91d1bd7d47.png", "media/images/Ground-truth Images_40004_c1ae0e380e32a07032f8.png", "media/images/Ground-truth Images_40004_b60b263c939c62f4bc58.png", "media/images/Ground-truth Images_40004_ab3d98782f1147e7dca7.png"]}, "PSNR": 33.67781529270967, "Epoch": 10000, "gradients/graph_1rgb_fn.2.bias": {"_type": "histogram", "values": [1.0, 0.0, 0.0, 0.0, 0.0, 0.0, 0.0, 0.0, 0.0, 0.0, 0.0, 0.0, 0.0, 0.0, 0.0, 0.0, 0.0, 0.0, 0.0, 0.0, 0.0, 0.0, 0.0, 0.0, 0.0, 0.0, 0.0, 0.0, 0.0, 0.0, 0.0, 0.0, 0.0, 0.0, 0.0, 0.0, 0.0, 0.0, 0.0, 0.0, 0.0, 0.0, 0.0, 0.0, 0.0, 0.0, 0.0, 0.0, 0.0, 0.0, 0.0, 0.0, 0.0, 1.0, 0.0, 0.0, 0.0, 0.0, 0.0, 0.0, 0.0, 0.0, 0.0, 1.0], "bins": [-6.788286555092782e-05, -6.715576455462724e-05, -6.642865628236905e-05, -6.570155528606847e-05, -6.497445428976789e-05, -6.42473460175097e-05, -6.352024502120912e-05, -6.279313674895093e-05, -6.206603575265035e-05, -6.133893475634977e-05, -6.061183012207039e-05, -5.9884725487791e-05, -5.9157620853511617e-05, -5.843051985721104e-05, -5.770341522293165e-05, -5.697631058865227e-05, -5.624920595437288e-05, -5.5522104958072305e-05, -5.479500032379292e-05, -5.4067895689513534e-05, -5.3340794693212956e-05, -5.261369005893357e-05, -5.1886585424654186e-05, -5.11594807903748e-05, -5.043237979407422e-05, -4.970527515979484e-05, -4.897817052551545e-05, -4.8251069529214874e-05, -4.752396489493549e-05, -4.6796860260656103e-05, -4.606975562637672e-05, -4.534265463007614e-05, -4.4615549995796755e-05, -4.388844536151737e-05, -4.316134436521679e-05, -4.2434239730937406e-05, -4.170713509665802e-05, -4.0980030462378636e-05, -4.025292946607806e-05, -3.952582483179867e-05, -3.879872019751929e-05, -3.807161920121871e-05, -3.7344514566939324e-05, -3.661740993265994e-05, -3.5890305298380554e-05, -3.5163204302079976e-05, -3.443609966780059e-05, -3.3708995033521205e-05, -3.298189403722063e-05, -3.225478940294124e-05, -3.152768476866186e-05, -3.080058013438247e-05, -3.007347731909249e-05, -2.9346374503802508e-05, -2.8619269869523123e-05, -2.789216705423314e-05, -2.716506423894316e-05, -2.6437959604663774e-05, -2.5710856789373793e-05, -2.4983752155094407e-05, -2.4256649339804426e-05, -2.352954470552504e-05, -2.280244189023506e-05, -2.2075337255955674e-05, -2.1348234440665692e-05]}, "gradients/graph_1rgb_fn.2.weight": {"_type": "histogram", "values": [2.0, 0.0, 0.0, 0.0, 0.0, 0.0, 0.0, 0.0, 1.0, 0.0, 1.0, 1.0, 0.0, 1.0, 0.0, 0.0, 1.0, 2.0, 0.0, 0.0, 0.0, 0.0, 0.0, 0.0, 1.0, 0.0, 2.0, 0.0, 0.0, 0.0, 0.0, 0.0, 1.0, 1.0, 1.0, 0.0, 0.0, 2.0, 3.0, 4.0, 2.0, 3.0, 4.0, 4.0, 1.0, 2.0, 5.0, 5.0, 8.0, 14.0, 211.0, 53.0, 18.0, 9.0, 5.0, 4.0, 3.0, 1.0, 4.0, 2.0, 0.0, 0.0, 1.0, 1.0], "bins": [-0.0003511795657686889, -0.00034428088110871613, -0.0003373821673449129, -0.0003304834826849401, -0.00032358476892113686, -0.00031668608426116407, -0.0003097873704973608, -0.00030288868583738804, -0.00029599000117741525, -0.000289091287413612, -0.0002821926027536392, -0.000275293888989836, -0.0002683952043298632, -0.0002614965196698904, -0.00025459780590608716, -0.0002476991212461144, -0.00024080040748231113, -0.00023390172282233834, -0.00022700302361045033, -0.0002201043243985623, -0.0002132056251866743, -0.00020630692597478628, -0.00019940822676289827, -0.00019250954210292548, -0.00018561084289103746, -0.00017871214367914945, -0.00017181344446726143, -0.00016491474525537342, -0.0001580160460434854, -0.00015111736138351262, -0.0001442186621716246, -0.00013731996295973659, -0.00013042126374784857, -0.00012352256453596056, -0.00011662387260003015, -0.00010972517338814214, -0.00010282647417625412, -9.592778224032372e-05, -8.902908302843571e-05, -8.213038381654769e-05, -7.523168460465968e-05, -6.833299266872928e-05, -6.143429345684126e-05, -5.453559788293205e-05, -4.7636902309022844e-05, -4.073820309713483e-05, -3.383950752322562e-05, -2.694081013032701e-05, -2.0042112737428397e-05, -1.3143415344529785e-05, -6.244718861125875e-06, 6.539780770253856e-07, 7.552675015176646e-06, 1.4451372408075258e-05, 2.1350067981984466e-05, 2.8248765374883078e-05, 3.514746276778169e-05, 4.20461583416909e-05, 4.894485755357891e-05, 5.584355312748812e-05, 6.274224870139733e-05, 6.964094791328534e-05, 7.653964712517336e-05, 8.343833906110376e-05, 9.033703827299178e-05]}, "gradients/graph_1rgb_fn.0.bias": {"_type": "histogram", "values": [1.0, 0.0, 0.0, 0.0, 0.0, 0.0, 0.0, 0.0, 0.0, 1.0, 0.0, 0.0, 0.0, 0.0, 0.0, 0.0, 1.0, 1.0, 0.0, 0.0, 1.0, 1.0, 2.0, 1.0, 6.0, 4.0, 4.0, 5.0, 17.0, 46.0, 10.0, 3.0, 2.0, 3.0, 4.0, 3.0, 1.0, 1.0, 1.0, 2.0, 0.0, 2.0, 0.0, 1.0, 0.0, 1.0, 0.0, 1.0, 0.0, 0.0, 0.0, 0.0, 0.0, 1.0, 0.0, 0.0, 0.0, 0.0, 0.0, 0.0, 0.0, 0.0, 0.0, 1.0], "bins": [-2.0360066628200002e-05, -1.966630770766642e-05, -1.897255060612224e-05, -1.8278791685588658e-05, -1.7585032765055075e-05, -1.6891275663510896e-05, -1.6197516742977314e-05, -1.5503759641433135e-05, -1.4810000720899552e-05, -1.4116242709860671e-05, -1.342248469882179e-05, -1.2728725778288208e-05, -1.2034967767249327e-05, -1.1341209756210446e-05, -1.0647450835676864e-05, -9.953692824637983e-06, -9.259934813599102e-06, -8.566176802560221e-06, -7.87241879152134e-06, -7.178659870987758e-06, -6.484901859948877e-06, -5.7911438489099964e-06, -5.097385383123765e-06, -4.403626917337533e-06, -3.7098689062986523e-06, -3.016110667886096e-06, -2.32235242947354e-06, -1.6285941910609836e-06, -9.348359526484273e-07, -2.410777142358711e-07, 4.5268052417668514e-07, 1.1464387625892414e-06, 1.8401988199912012e-06, 2.5339570584037574e-06, 3.2277152968163136e-06, 3.921473762602545e-06, 4.615231773641426e-06, 5.308989784680307e-06, 6.002748250466539e-06, 6.69650671625277e-06, 7.390264727291651e-06, 8.084022738330532e-06, 8.777780749369413e-06, 9.471539669902995e-06, 1.0165297680941876e-05, 1.0859055691980757e-05, 1.155281461251434e-05, 1.224657262355322e-05, 1.2940330634592101e-05, 1.3634088645630982e-05, 1.4327846656669863e-05, 1.5021605577203445e-05, 1.5715362678747624e-05, 1.6409121599281207e-05, 1.710288051981479e-05, 1.779663762135897e-05, 1.849039654189255e-05, 1.9184155462426133e-05, 1.9877912563970312e-05, 2.0571671484503895e-05, 2.1265430405037478e-05, 2.1959187506581657e-05, 2.265294642711524e-05, 2.3346703528659418e-05, 2.4040462449193e-05]}, "gradients/graph_1rgb_fn.0.weight": {"_type": "histogram", "values": [1.0, 0.0, 0.0, 4.0, 1.0, 2.0, 0.0, 1.0, 1.0, 4.0, 0.0, 5.0, 6.0, 8.0, 8.0, 15.0, 11.0, 14.0, 32.0, 54.0, 101.0, 245.0, 857.0, 20965.0, 13278.0, 873.0, 227.0, 111.0, 57.0, 26.0, 20.0, 15.0, 14.0, 7.0, 11.0, 8.0, 4.0, 0.0, 0.0, 1.0, 0.0, 0.0, 0.0, 0.0, 1.0, 0.0, 0.0, 0.0, 0.0, 0.0, 0.0, 0.0, 1.0, 0.0, 0.0, 0.0, 0.0, 0.0, 0.0, 0.0, 0.0, 0.0, 1.0, 2.0], "bins": [-0.00011481158435344696, -0.00011002668179571629, -0.00010524177923798561, -0.00010045687668025494, -9.567197412252426e-05, -9.088706428883597e-05, -8.61021617311053e-05, -8.131725917337462e-05, -7.653235661564395e-05, -7.174745405791327e-05, -6.69625515001826e-05, -6.217764894245192e-05, -5.739274274674244e-05, -5.260784018901177e-05, -4.7822933993302286e-05, -4.303803143557161e-05, -3.8253128877840936e-05, -3.346822632011026e-05, -2.8683321943390183e-05, -2.3898417566670105e-05, -1.911351500893943e-05, -1.4328611541714054e-05, -9.543708074488677e-06, -4.7588046072633006e-06, 2.609885996207595e-08, 4.8110023271874525e-06, 9.595905794412829e-06, 1.4380809261638205e-05, 1.9165712728863582e-05, 2.3950615286594257e-05, 2.8735519663314335e-05, 3.352042404003441e-05, 3.830531204584986e-05, 4.3090214603580534e-05, 4.787511716131121e-05, 5.266002335702069e-05, 5.7444925914751366e-05, 6.222983211046085e-05, 6.701473466819152e-05, 7.17996372259222e-05, 7.658453978365287e-05, 8.136944234138355e-05, 8.615434489911422e-05, 9.09392474568449e-05, 9.572415729053319e-05, 0.00010050905984826386, 0.00010529396240599453, 0.00011007886496372521, 0.00011486376752145588, 0.00011964867007918656, 0.00012443357263691723, 0.0001292184751946479, 0.00013400337775237858, 0.00013878828031010926, 0.00014357318286783993, 0.0001483580854255706, 0.00015314298798330128, 0.00015792790509294719, 0.00016271280765067786, 0.00016749771020840853, 0.0001722826127661392, 0.00017706751532386988, 0.00018185241788160056, 0.00018663732043933123, 0.0001914222229970619]}, "gradients/graph_1density_fn.0.bias": {"_type": "histogram", "values": [1.0], "bins": [-1.2218197298352607e-07, -1.2218197298352607e-07]}, "gradients/graph_1density_fn.0.weight": {"_type": "histogram", "values": [2.0, 1.0, 0.0, 0.0, 0.0, 0.0, 0.0, 1.0, 3.0, 0.0, 3.0, 4.0, 1.0, 0.0, 4.0, 1.0, 3.0, 2.0, 5.0, 8.0, 14.0, 12.0, 17.0, 11.0, 13.0, 18.0, 19.0, 24.0, 11.0, 14.0, 6.0, 9.0, 6.0, 10.0, 6.0, 3.0, 3.0, 4.0, 2.0, 2.0, 1.0, 1.0, 1.0, 3.0, 3.0, 1.0, 0.0, 1.0, 0.0, 0.0, 1.0, 1.0, 0.0, 0.0, 0.0, 0.0, 0.0, 0.0, 0.0, 0.0, 0.0, 0.0, 0.0, 1.0], "bins": [-6.699669484078186e-06, -6.445794042519992e-06, -6.191918600961799e-06, -5.938043159403605e-06, -5.684167717845412e-06, -5.4302922762872186e-06, -5.176416834729025e-06, -4.922541393170832e-06, -4.668665951612638e-06, -4.414790510054445e-06, -4.1609150684962515e-06, -3.907039626938058e-06, -3.6531641853798646e-06, -3.3992887438216712e-06, -3.145413302263478e-06, -2.8915378607052844e-06, -2.637662419147091e-06, -2.3837869775888976e-06, -2.129911536030704e-06, -1.8760360944725107e-06, -1.6221606529143173e-06, -1.368285211356124e-06, -1.1144097697979305e-06, -8.605343282397371e-07, -6.066588866815437e-07, -3.5278344512335025e-07, -9.890800356515683e-08, 1.5496743799303658e-07, 4.0884287955123e-07, 6.627183211094234e-07, 9.165937626676168e-07, 1.1704692042258102e-06, 1.4243451005313545e-06, 1.678220542089548e-06, 1.9320959836477414e-06, 2.185971425205935e-06, 2.439846866764128e-06, 2.6937223083223216e-06, 2.947597749880515e-06, 3.2014731914387085e-06, 3.455348632996902e-06, 3.7092240745550953e-06, 3.963099516113289e-06, 4.216974957671482e-06, 4.4708503992296755e-06, 4.724725840787869e-06, 4.978601282346062e-06, 5.232476723904256e-06, 5.486352165462449e-06, 5.740227607020643e-06, 5.994103048578836e-06, 6.2479784901370294e-06, 6.501853931695223e-06, 6.755729373253416e-06, 7.00960481481161e-06, 7.263480256369803e-06, 7.5173556979279965e-06, 7.77123113948619e-06, 8.025106581044383e-06, 8.278982022602577e-06, 8.53285746416077e-06, 8.786732905718964e-06, 9.040608347277157e-06, 9.29448378883535e-06, 9.548359230393544e-06]}, "gradients/graph_1feature_fn.4.bias": {"_type": "histogram", "values": [1.0, 0.0, 0.0, 0.0, 0.0, 0.0, 0.0, 0.0, 0.0, 1.0, 0.0, 1.0, 0.0, 0.0, 1.0, 1.0, 3.0, 1.0, 1.0, 1.0, 1.0, 3.0, 8.0, 5.0, 4.0, 5.0, 8.0, 6.0, 12.0, 14.0, 11.0, 16.0, 24.0, 20.0, 14.0, 13.0, 16.0, 10.0, 6.0, 13.0, 7.0, 5.0, 4.0, 5.0, 2.0, 1.0, 1.0, 1.0, 2.0, 1.0, 1.0, 1.0, 2.0, 0.0, 1.0, 0.0, 0.0, 0.0, 0.0, 0.0, 1.0, 0.0, 0.0, 1.0], "bins": [-2.276811756019015e-05, -2.2066988094593398e-05, -2.1365858628996648e-05, -2.0664727344410494e-05, -1.9963597878813744e-05, -1.9262468413216993e-05, -1.8561338947620243e-05, -1.7860209482023492e-05, -1.7159080016426742e-05, -1.6457948731840588e-05, -1.5756819266243838e-05, -1.5055689800647087e-05, -1.4354560335050337e-05, -1.3653429959958885e-05, -1.2952300494362134e-05, -1.2251170119270682e-05, -1.1550040653673932e-05, -1.0848911188077182e-05, -1.014778081298573e-05, -9.446651347388979e-06, -8.745520972297527e-06, -8.044391506700777e-06, -7.343262041104026e-06, -6.642132120759925e-06, -5.941002200415824e-06, -5.239872280071722e-06, -4.538742359727621e-06, -3.837612894130871e-06, -3.1364829737867694e-06, -2.435353053442668e-06, -1.7342233604722423e-06, -1.0330935538149788e-06, -3.3196374715771526e-07, 3.691660594995483e-07, 1.0702958661568118e-06, 1.7714256728140754e-06, 2.472555479471339e-06, 3.17368539981544e-06, 3.8748148654121906e-06, 4.575944785756292e-06, 5.277074706100393e-06, 5.978204626444494e-06, 6.679334546788596e-06, 7.380464012385346e-06, 8.081593477982096e-06, 8.782723853073549e-06, 9.483853318670299e-06, 1.0184983693761751e-05, 1.0886113159358501e-05, 1.1587242624955252e-05, 1.2288373000046704e-05, 1.2989502465643454e-05, 1.3690632840734906e-05, 1.4391762306331657e-05, 1.5092891771928407e-05, 1.5794021237525158e-05, 1.649515252211131e-05, 1.7196281987708062e-05, 1.7897411453304812e-05, 1.8598540918901563e-05, 1.9299670384498313e-05, 2.0000799850095063e-05, 2.0701931134681217e-05, 2.1403060600277968e-05, 2.2104190065874718e-05]}, "gradients/graph_1feature_fn.4.weight": {"_type": "histogram", "values": [1.0, 0.0, 1.0, 1.0, 1.0, 1.0, 2.0, 0.0, 2.0, 1.0, 2.0, 1.0, 3.0, 4.0, 2.0, 4.0, 6.0, 6.0, 9.0, 14.0, 18.0, 18.0, 20.0, 37.0, 39.0, 75.0, 104.0, 151.0, 279.0, 575.0, 1758.0, 14542.0, 43444.0, 2644.0, 767.0, 359.0, 212.0, 107.0, 77.0, 49.0, 50.0, 44.0, 23.0, 18.0, 15.0, 7.0, 4.0, 8.0, 3.0, 3.0, 2.0, 4.0, 4.0, 2.0, 4.0, 1.0, 5.0, 0.0, 2.0, 0.0, 0.0, 0.0, 0.0, 1.0], "bins": [-4.582689143717289e-05, -4.4401120248949155e-05, -4.297534906072542e-05, -4.1549577872501686e-05, -4.012380668427795e-05, -3.869803549605422e-05, -3.727226430783048e-05, -3.584649311960675e-05, -3.4420721931383014e-05, -3.299495074315928e-05, -3.1569179554935545e-05, -3.014340836671181e-05, -2.8717637178488076e-05, -2.729186599026434e-05, -2.5866094802040607e-05, -2.4440323613816872e-05, -2.3014552425593138e-05, -2.1588781237369403e-05, -2.016301004914567e-05, -1.8737238860921934e-05, -1.73114676726982e-05, -1.5885696484474465e-05, -1.445992529625073e-05, -1.3034154108026996e-05, -1.1608382919803262e-05, -1.0182611731579527e-05, -8.756840543355793e-06, -7.331069355132058e-06, -5.905298166908324e-06, -4.479526978684589e-06, -3.0537557904608548e-06, -1.6279846022371203e-06, -2.0221341401338577e-07, 1.2235577742103487e-06, 2.6493289624340832e-06, 4.075100150657818e-06, 5.500871338881552e-06, 6.926642527105287e-06, 8.352413715329021e-06, 9.778184903552756e-06, 1.120395609177649e-05, 1.2629727280000225e-05, 1.405549846822396e-05, 1.5481269656447694e-05, 1.6907040844671428e-05, 1.8332812032895163e-05, 1.9758583221118897e-05, 2.1184354409342632e-05, 2.2610125597566366e-05, 2.40358967857901e-05, 2.5461667974013835e-05, 2.688743916223757e-05, 2.8313210350461304e-05, 2.973898153868504e-05, 3.116475272690877e-05, 3.259052391513251e-05, 3.401629510335624e-05, 3.544206629157998e-05, 3.686783747980371e-05, 3.8293608668027446e-05, 3.971937985625118e-05, 4.1145151044474915e-05, 4.257092223269865e-05, 4.3996693420922384e-05, 4.542246460914612e-05]}, "gradients/graph_1feature_fn.2.bias": {"_type": "histogram", "values": [1.0, 0.0, 0.0, 0.0, 0.0, 0.0, 0.0, 0.0, 0.0, 0.0, 1.0, 0.0, 0.0, 0.0, 1.0, 1.0, 0.0, 1.0, 0.0, 0.0, 1.0, 1.0, 1.0, 2.0, 2.0, 2.0, 6.0, 4.0, 9.0, 11.0, 16.0, 21.0, 32.0, 46.0, 13.0, 31.0, 12.0, 9.0, 4.0, 4.0, 5.0, 2.0, 2.0, 3.0, 2.0, 1.0, 2.0, 0.0, 3.0, 0.0, 0.0, 0.0, 0.0, 0.0, 0.0, 1.0, 0.0, 1.0, 1.0, 0.0, 0.0, 0.0, 0.0, 1.0], "bins": [-4.823644121643156e-05, -4.678613186115399e-05, -4.533582250587642e-05, -4.3885513150598854e-05, -4.2435203795321286e-05, -4.098489444004372e-05, -3.953458508476615e-05, -3.808427572948858e-05, -3.663396637421101e-05, -3.518365338095464e-05, -3.373334402567707e-05, -3.22830346703995e-05, -3.0832725315121934e-05, -2.9382415959844366e-05, -2.7932106604566798e-05, -2.648179724928923e-05, -2.503148789401166e-05, -2.3581178538734093e-05, -2.2130869183456525e-05, -2.0680559828178957e-05, -1.923025047290139e-05, -1.7779939298634417e-05, -1.632962994335685e-05, -1.4879320588079281e-05, -1.3429011232801713e-05, -1.1978701877524145e-05, -1.0528392522246577e-05, -9.078082257474307e-06, -7.627772902196739e-06, -6.177463546919171e-06, -4.727153736894252e-06, -3.2768441542430082e-06, -1.8265345715917647e-06, -3.7622498894052114e-07, 1.0740845937107224e-06, 2.524394176361966e-06, 3.9747037590132095e-06, 5.425013114290778e-06, 6.875322924315697e-06, 8.325632734340616e-06, 9.775942089618184e-06, 1.1226251444895752e-05, 1.267656080017332e-05, 1.412687106494559e-05, 1.557718132971786e-05, 1.7027490684995428e-05, 1.8477800040272996e-05, 1.9928109395550564e-05, 2.1378418750828132e-05, 2.28287281061057e-05, 2.4279037461383268e-05, 2.5729346816660836e-05, 2.7179656171938404e-05, 2.8629967346205376e-05, 3.0080276701482944e-05, 3.153058423777111e-05, 3.2980897231027484e-05, 3.443120658630505e-05, 3.588151594158262e-05, 3.733182529686019e-05, 3.8782134652137756e-05, 4.0232444007415324e-05, 4.168275336269289e-05, 4.313306271797046e-05, 4.458337207324803e-05]}, "gradients/graph_1feature_fn.2.weight": {"_type": "histogram", "values": [1.0, 0.0, 0.0, 1.0, 0.0, 0.0, 0.0, 0.0, 0.0, 1.0, 1.0, 0.0, 0.0, 1.0, 0.0, 0.0, 0.0, 1.0, 1.0, 2.0, 1.0, 1.0, 2.0, 3.0, 3.0, 6.0, 4.0, 9.0, 20.0, 15.0, 26.0, 64.0, 112.0, 238.0, 589.0, 2242.0, 46860.0, 12776.0, 1488.0, 437.0, 222.0, 115.0, 78.0, 66.0, 38.0, 24.0, 18.0, 13.0, 15.0, 12.0, 6.0, 5.0, 2.0, 3.0, 4.0, 0.0, 2.0, 2.0, 2.0, 0.0, 1.0, 0.0, 2.0, 1.0], "bins": [-0.0001296451227972284, -0.00012612680438905954, -0.00012260850053280592, -0.00011909018212463707, -0.00011557186371646821, -0.00011205354530829936, -0.00010853523417608812, -0.00010501692304387689, -0.00010149860463570803, -9.798028622753918e-05, -9.446197509532794e-05, -9.09436639631167e-05, -8.742534555494785e-05, -8.3907027146779e-05, -8.038871601456776e-05, -7.687040488235652e-05, -7.335208647418767e-05, -6.983376806601882e-05, -6.631545693380758e-05, -6.279714580159634e-05, -5.927882739342749e-05, -5.5760512623237446e-05, -5.22421978530474e-05, -4.8723883082857355e-05, -4.520556831266731e-05, -4.1687253542477265e-05, -3.816893877228722e-05, -3.4650624002097175e-05, -3.113230923190713e-05, -2.7613994461717084e-05, -2.409567969152704e-05, -2.0577364921336994e-05, -1.705905015114695e-05, -1.3540735380956903e-05, -1.0022420610766858e-05, -6.504105840576813e-06, -2.9857910703867674e-06, 5.325236998032779e-07, 4.050838469993323e-06, 7.569153240183368e-06, 1.1087468010373414e-05, 1.4605782780563459e-05, 1.8124097550753504e-05, 2.164241232094355e-05, 2.5160727091133595e-05, 2.867904186132364e-05, 3.2197356631513685e-05, 3.571567140170373e-05, 3.9233986171893775e-05, 4.275230094208382e-05, 4.6270615712273866e-05, 4.978893048246391e-05, 5.3307245252653956e-05, 5.6825560022844e-05, 6.034387479303405e-05, 6.386218592524529e-05, 6.738050433341414e-05, 7.089882274158299e-05, 7.441713387379423e-05, 7.793544500600547e-05, 8.145376341417432e-05, 8.497208182234317e-05, 8.849039295455441e-05, 9.200870408676565e-05, 9.55270224949345e-05]}, "gradients/graph_1feature_fn.0.bias": {"_type": "histogram", "values": [1.0, 1.0, 2.0, 2.0, 1.0, 1.0, 2.0, 3.0, 2.0, 4.0, 5.0, 1.0, 5.0, 7.0, 1.0, 5.0, 8.0, 10.0, 12.0, 12.0, 15.0, 11.0, 13.0, 13.0, 18.0, 23.0, 17.0, 5.0, 5.0, 8.0, 5.0, 6.0, 3.0, 3.0, 4.0, 1.0, 1.0, 5.0, 2.0, 4.0, 0.0, 0.0, 0.0, 0.0, 2.0, 0.0, 1.0, 1.0, 0.0, 0.0, 0.0, 1.0, 1.0, 1.0, 0.0, 0.0, 0.0, 0.0, 0.0, 0.0, 0.0, 1.0, 0.0, 1.0], "bins": [-2.7503567253006622e-05, -2.62797148025129e-05, -2.5055862352019176e-05, -2.3832009901525453e-05, -2.260815745103173e-05, -2.1384305000538006e-05, -2.0160452550044283e-05, -1.893660009955056e-05, -1.7712747649056837e-05, -1.6488895198563114e-05, -1.526504274806939e-05, -1.4041190297575668e-05, -1.2817337847081944e-05, -1.1593485396588221e-05, -1.0369632946094498e-05, -9.145780495600775e-06, -7.921928045107052e-06, -6.6980755946133286e-06, -5.474223144119605e-06, -4.250370693625882e-06, -3.026518243132159e-06, -1.802665792638436e-06, -5.788133421447128e-07, 6.450391083490103e-07, 1.8688915588427335e-06, 3.0927440093364567e-06, 4.31659645983018e-06, 5.540448910323903e-06, 6.764301360817626e-06, 7.98815381131135e-06, 9.212006261805072e-06, 1.0435858712298796e-05, 1.1659707524813712e-05, 1.2883559975307435e-05, 1.4107412425801158e-05, 1.533126487629488e-05, 1.6555117326788604e-05, 1.7778969777282327e-05, 1.900282222777605e-05, 2.0226674678269774e-05, 2.1450527128763497e-05, 2.267437957925722e-05, 2.3898232029750943e-05, 2.5122084480244666e-05, 2.634593693073839e-05, 2.7569789381232113e-05, 2.8793641831725836e-05, 3.001749428221956e-05, 3.124134673271328e-05, 3.2465199183207005e-05, 3.368905163370073e-05, 3.491290408419445e-05, 3.6136756534688175e-05, 3.73606089851819e-05, 3.858446143567562e-05, 3.9808313886169344e-05, 4.103216633666307e-05, 4.225601878715679e-05, 4.3479871237650514e-05, 4.470372368814424e-05, 4.592757613863796e-05, 4.715142858913168e-05, 4.8375281039625406e-05, 4.959913349011913e-05, 5.082298594061285e-05]}, "gradients/graph_1feature_fn.0.weight": {"_type": "histogram", "values": [1.0, 1.0, 0.0, 1.0, 0.0, 0.0, 2.0, 0.0, 2.0, 4.0, 3.0, 2.0, 2.0, 3.0, 5.0, 17.0, 16.0, 28.0, 37.0, 45.0, 61.0, 100.0, 133.0, 186.0, 246.0, 355.0, 468.0, 708.0, 1165.0, 1951.0, 4189.0, 20511.0, 39585.0, 5146.0, 2323.0, 1395.0, 923.0, 570.0, 405.0, 270.0, 197.0, 147.0, 112.0, 87.0, 57.0, 38.0, 28.0, 22.0, 27.0, 14.0, 16.0, 10.0, 12.0, 11.0, 8.0, 2.0, 3.0, 0.0, 2.0, 2.0, 1.0, 4.0, 1.0, 4.0], "bins": [-5.1100556447636336e-05, -4.950682705384679e-05, -4.791309402207844e-05, -4.6319364628288895e-05, -4.472563159652054e-05, -4.3131902202731e-05, -4.1538169170962647e-05, -3.99444397771731e-05, -3.835070674540475e-05, -3.6756977351615205e-05, -3.516324795782566e-05, -3.356951492605731e-05, -3.1975785532267764e-05, -3.0382054319488816e-05, -2.8788323106709868e-05, -2.719459189393092e-05, -2.560086068115197e-05, -2.4007129468373023e-05, -2.2413398255594075e-05, -2.0819667042815126e-05, -1.9225935830036178e-05, -1.7632206436246634e-05, -1.6038475223467685e-05, -1.4444744010688737e-05, -1.2851012797909789e-05, -1.125728158513084e-05, -9.663550372351892e-06, -8.069820069067646e-06, -6.4760888562886976e-06, -4.882357643509749e-06, -3.288626885478152e-06, -1.6948959000728792e-06, -1.0116127668879926e-07, 1.4925697087164735e-06, 3.0863006941217463e-06, 4.680031452153344e-06, 6.273762664932292e-06, 7.86749387771124e-06, 9.461224180995487e-06, 1.1054955393774435e-05, 1.2648686606553383e-05, 1.4242417819332331e-05, 1.583614903211128e-05, 1.7429880244890228e-05, 1.9023609638679773e-05, 2.061734085145872e-05, 2.221107206423767e-05, 2.3804803277016617e-05, 2.5398534489795566e-05, 2.6992265702574514e-05, 2.8585996915353462e-05, 3.017972812813241e-05, 3.177345934091136e-05, 3.33671887347009e-05, 3.4960921766469255e-05, 3.65546511602588e-05, 3.814838419202715e-05, 3.9742113585816696e-05, 4.133584297960624e-05, 4.292957601137459e-05, 4.452330540516414e-05, 4.611703843693249e-05, 4.7710767830722034e-05, 4.9304500862490386e-05, 5.089823025627993e-05]}, "gradients/graph_1mlp.6.bias": {"_type": "histogram", "values": [1.0, 1.0, 0.0, 0.0, 0.0, 0.0, 0.0, 0.0, 4.0, 7.0, 4.0, 2.0, 1.0, 1.0, 1.0, 5.0, 11.0, 7.0, 6.0, 9.0, 17.0, 13.0, 12.0, 37.0, 15.0, 21.0, 14.0, 7.0, 8.0, 9.0, 8.0, 6.0, 5.0, 3.0, 3.0, 2.0, 3.0, 4.0, 0.0, 2.0, 1.0, 1.0, 2.0, 0.0, 0.0, 0.0, 1.0, 0.0, 0.0, 0.0, 0.0, 0.0, 0.0, 0.0, 0.0, 1.0, 0.0, 0.0, 0.0, 0.0, 0.0, 0.0, 0.0, 1.0], "bins": [-4.572935722535476e-05, -4.379791425890289e-05, -4.1866471292451024e-05, -3.9935028325999156e-05, -3.800358535954729e-05, -3.6072146031074226e-05, -3.414070306462236e-05, -3.220926009817049e-05, -3.027781713171862e-05, -2.8346374165266752e-05, -2.6414931198814884e-05, -2.448349005135242e-05, -2.255204708490055e-05, -2.0620604118448682e-05, -1.8689162970986217e-05, -1.675772000453435e-05, -1.482627703808248e-05, -1.2894834071630612e-05, -1.0963392014673445e-05, -9.031949957716279e-06, -7.10050699126441e-06, -5.169064479559893e-06, -3.2376219678553753e-06, -1.3061794561508577e-06, 6.252630555536598e-07, 2.5567055672581773e-06, 4.488148078962695e-06, 6.419590590667212e-06, 8.35103310237173e-06, 1.0282476068823598e-05, 1.2213918125780765e-05, 1.4145360182737932e-05, 1.6076795873232186e-05, 1.8008238839684054e-05, 1.9939681806135923e-05, 2.1871122953598388e-05, 2.3802565920050256e-05, 2.5734008886502124e-05, 2.766545003396459e-05, 2.9596893000416458e-05, 3.1528335966868326e-05, 3.3459778933320194e-05, 3.539122189977206e-05, 3.732266486622393e-05, 3.925410419469699e-05, 4.118554716114886e-05, 4.311699012760073e-05, 4.50484330940526e-05, 4.6979876060504466e-05, 4.8911319026956335e-05, 5.08427619934082e-05, 5.277420495986007e-05, 5.470564792631194e-05, 5.6637087254785e-05, 5.856853022123687e-05, 6.049997318768874e-05, 6.24314125161618e-05, 6.436285912059247e-05, 6.629429844906554e-05, 6.822574505349621e-05, 7.015718438196927e-05, 7.208863098639995e-05, 7.402007031487301e-05, 7.595151691930369e-05, 7.788295624777675e-05]}, "gradients/graph_1mlp.6.weight": {"_type": "histogram", "values": [1.0, 0.0, 1.0, 0.0, 1.0, 0.0, 0.0, 0.0, 0.0, 1.0, 0.0, 0.0, 0.0, 2.0, 0.0, 1.0, 1.0, 2.0, 2.0, 5.0, 11.0, 9.0, 17.0, 21.0, 24.0, 27.0, 32.0, 63.0, 92.0, 150.0, 292.0, 456.0, 935.0, 2500.0, 12612.0, 42313.0, 3463.0, 1199.0, 531.0, 243.0, 148.0, 116.0, 84.0, 41.0, 35.0, 32.0, 17.0, 18.0, 11.0, 7.0, 7.0, 4.0, 1.0, 1.0, 2.0, 0.0, 2.0, 0.0, 0.0, 1.0, 0.0, 0.0, 1.0, 1.0], "bins": [-5.815951953991316e-05, -5.650363164022565e-05, -5.4847743740538135e-05, -5.3191852202871814e-05, -5.15359643031843e-05, -4.988007640349679e-05, -4.822418850380927e-05, -4.656830060412176e-05, -4.4912412704434246e-05, -4.3256521166767925e-05, -4.160063326708041e-05, -3.99447453673929e-05, -3.8288857467705384e-05, -3.663296956801787e-05, -3.497707803035155e-05, -3.3321190130664036e-05, -3.166530223097652e-05, -3.0009414331289008e-05, -2.835352461261209e-05, -2.6697636712924577e-05, -2.504174699424766e-05, -2.3385859094560146e-05, -2.1729971194872633e-05, -2.0074081476195715e-05, -1.84181935765082e-05, -1.6762305676820688e-05, -1.510641595814377e-05, -1.3450528058456257e-05, -1.1794639249274042e-05, -1.0138750440091826e-05, -8.482862540404312e-06, -6.826973731222097e-06, -5.1710885600186884e-06, -3.5151999782101484e-06, -1.8593113964016084e-06, -2.0342281459306832e-07, 1.4524657672154717e-06, 3.1083543490240118e-06, 4.764242930832552e-06, 6.420131285267416e-06, 8.076020094449632e-06, 9.731908903631847e-06, 1.1387797712814063e-05, 1.3043685612501577e-05, 1.4699574421683792e-05, 1.6355463230866008e-05, 1.801135113055352e-05, 1.966724084923044e-05, 2.1323128748917952e-05, 2.2979016648605466e-05, 2.4634906367282383e-05, 2.6290794266969897e-05, 2.7946683985646814e-05, 2.9602571885334328e-05, 3.125845978502184e-05, 3.2914347684709355e-05, 3.457023558439687e-05, 3.622612712206319e-05, 3.7882015021750703e-05, 3.953790292143822e-05, 4.119379082112573e-05, 4.2849678720813245e-05, 4.4505570258479565e-05, 4.616145815816708e-05, 4.781734605785459e-05]}, "gradients/graph_1mlp.4.bias": {"_type": "histogram", "values": [2.0, 0.0, 0.0, 0.0, 1.0, 1.0, 0.0, 1.0, 1.0, 2.0, 1.0, 0.0, 1.0, 0.0, 1.0, 1.0, 3.0, 1.0, 6.0, 3.0, 8.0, 7.0, 3.0, 12.0, 8.0, 17.0, 12.0, 15.0, 33.0, 23.0, 14.0, 14.0, 6.0, 10.0, 8.0, 6.0, 8.0, 3.0, 4.0, 3.0, 1.0, 2.0, 4.0, 1.0, 1.0, 2.0, 1.0, 0.0, 1.0, 1.0, 1.0, 1.0, 0.0, 0.0, 0.0, 0.0, 0.0, 0.0, 0.0, 0.0, 0.0, 0.0, 0.0, 1.0], "bins": [-0.00010318958084098995, -9.961250907508656e-05, -9.603543730918318e-05, -9.24583655432798e-05, -8.888129377737641e-05, -8.530422201147303e-05, -8.172714296961203e-05, -7.815007120370865e-05, -7.457299943780527e-05, -7.099592767190188e-05, -6.74188559059985e-05, -6.384178414009511e-05, -6.026471237419173e-05, -5.668764060828835e-05, -5.311056520440616e-05, -4.9533493438502774e-05, -4.595642167259939e-05, -4.237934990669601e-05, -3.880227814079262e-05, -3.522520273691043e-05, -3.164813097100705e-05, -2.8071059205103666e-05, -2.4493987439200282e-05, -2.0916913854307495e-05, -1.733984208840411e-05, -1.3762769413006026e-05, -1.0185696737607941e-05, -6.6086249717045575e-06, -3.0315522963064723e-06, 5.455201517179376e-07, 4.122592599742347e-06, 7.699664820393082e-06, 1.1276737495791167e-05, 1.4853810171189252e-05, 1.8430882846587338e-05, 2.200795461249072e-05, 2.5585028197383508e-05, 2.916209996328689e-05, 3.2739171729190275e-05, 3.631624349509366e-05, 3.989331889897585e-05, 4.347039066487923e-05, 4.7047462430782616e-05, 5.0624534196686e-05, 5.420160596258938e-05, 5.777867772849277e-05, 6.135574949439615e-05, 6.493282126029953e-05, 6.850989302620292e-05, 7.208697206806391e-05, 7.56640438339673e-05, 7.924111559987068e-05, 8.281818736577407e-05, 8.639525913167745e-05, 8.997233089758083e-05, 9.354940266348422e-05, 9.71264744293876e-05, 0.00010070354619529098, 0.00010428061796119437, 0.00010785769700305536, 0.00011143476876895875, 0.00011501184053486213, 0.00011858891230076551, 0.00012216597679071128, 0.00012574305583257228]}, "gradients/graph_1mlp.4.weight": {"_type": "histogram", "values": [1.0, 0.0, 0.0, 0.0, 0.0, 0.0, 0.0, 0.0, 0.0, 1.0, 0.0, 0.0, 0.0, 0.0, 2.0, 3.0, 1.0, 2.0, 1.0, 4.0, 2.0, 7.0, 15.0, 24.0, 35.0, 56.0, 85.0, 168.0, 326.0, 690.0, 1643.0, 6702.0, 50494.0, 3222.0, 988.0, 455.0, 232.0, 128.0, 84.0, 49.0, 29.0, 24.0, 11.0, 13.0, 16.0, 6.0, 5.0, 2.0, 3.0, 3.0, 1.0, 1.0, 1.0, 0.0, 0.0, 0.0, 0.0, 0.0, 0.0, 0.0, 0.0, 0.0, 0.0, 1.0], "bins": [-0.00014002398529555649, -0.00013568952272180468, -0.0001313550746999681, -0.0001270206121262163, -0.0001226861641043797, -0.0001183517015306279, -0.00011401724623283371, -0.00010968279093503952, -0.00010534833563724533, -0.00010101388033945113, -9.667942504165694e-05, -9.234496974386275e-05, -8.801050717011094e-05, -8.367605187231675e-05, -7.934159657452255e-05, -7.500714127672836e-05, -7.067268597893417e-05, -6.633823068113998e-05, -6.200377538334578e-05, -5.766931644757278e-05, -5.333486114977859e-05, -4.9000405851984397e-05, -4.4665946916211396e-05, -4.0331491618417203e-05, -3.599703632062301e-05, -3.166258102282882e-05, -2.732812390604522e-05, -2.2993666789261624e-05, -1.865921149146743e-05, -1.4324755284178536e-05, -9.990299076889642e-06, -5.655842869600747e-06, -1.321386662311852e-06, 3.013069544977043e-06, 7.347525752265938e-06, 1.1681981959554832e-05, 1.6016438166843727e-05, 2.035089346463792e-05, 2.4685350581421517e-05, 2.9019807698205113e-05, 3.3354262995999306e-05, 3.76887182937935e-05, 4.202317359158769e-05, 4.635763252736069e-05, 5.0692087825154886e-05, 5.502654312294908e-05, 5.936100205872208e-05, 6.369545735651627e-05, 6.802991265431046e-05, 7.236436795210466e-05, 7.669882324989885e-05, 8.103327854769304e-05, 8.536773384548724e-05, 8.970219641923904e-05, 9.403665171703324e-05, 9.837110701482743e-05, 0.00010270556231262162, 0.00010704001761041582, 0.00011137447290821001, 0.0001157089282060042, 0.00012004339077975601, 0.0001243778388015926, 0.0001287123013753444, 0.00013304674939718097, 0.00013738121197093278]}, "gradients/graph_1mlp.2.bias": {"_type": "histogram", "values": [1.0, 0.0, 0.0, 0.0, 0.0, 2.0, 0.0, 1.0, 1.0, 0.0, 0.0, 1.0, 0.0, 1.0, 1.0, 0.0, 1.0, 1.0, 0.0, 0.0, 2.0, 0.0, 2.0, 4.0, 3.0, 1.0, 1.0, 9.0, 6.0, 1.0, 7.0, 7.0, 18.0, 20.0, 15.0, 54.0, 13.0, 21.0, 11.0, 9.0, 7.0, 3.0, 6.0, 3.0, 1.0, 3.0, 1.0, 2.0, 0.0, 2.0, 3.0, 1.0, 1.0, 0.0, 1.0, 2.0, 3.0, 1.0, 1.0, 0.0, 0.0, 0.0, 0.0, 1.0], "bins": [-0.000195804430404678, -0.00019029664690606296, -0.00018478886340744793, -0.00017928109446074814, -0.0001737733109621331, -0.00016826552746351808, -0.00016275774396490306, -0.00015724996046628803, -0.00015174219151958823, -0.0001462344080209732, -0.00014072662452235818, -0.00013521884102374315, -0.00012971105752512813, -0.0001242032740265131, -0.00011869549780385569, -0.00011318772158119828, -0.00010767993808258325, -0.00010217215458396822, -9.666437836131081e-05, -9.115659486269578e-05, -8.564881864003837e-05, -8.014103514142334e-05, -7.463325164280832e-05, -6.91254754201509e-05, -6.361769192153588e-05, -5.810991206089966e-05, -5.260213220026344e-05, -4.7094348701648414e-05, -4.1586568841012195e-05, -3.6078788980375975e-05, -3.057100548176095e-05, -2.506322562112473e-05, -1.955544576048851e-05, -1.4047664990357589e-05, -8.539884220226668e-06, -3.0321034500957467e-06, 2.4756773200351745e-06, 7.983458090166096e-06, 1.3491238860297017e-05, 1.899902053992264e-05, 2.450680040055886e-05, 3.001458026119508e-05, 3.55223601218313e-05, 4.1030143620446324e-05, 4.6537923481082544e-05, 5.204570334171876e-05, 5.755348684033379e-05, 6.30612630629912e-05, 6.856904656160623e-05, 7.407683006022125e-05, 7.958460628287867e-05, 8.50923897814937e-05, 9.06001660041511e-05, 9.610794950276613e-05, 0.00010161573300138116, 0.00010712350922403857, 0.0001126312927226536, 0.00011813907622126862, 0.00012364685244392604, 0.00012915463594254106, 0.0001346624194411561, 0.00014017020293977112, 0.00014567797188647091, 0.00015118575538508594, 0.00015669353888370097]}, "gradients/graph_1mlp.2.weight": {"_type": "histogram", "values": [1.0, 0.0, 0.0, 0.0, 0.0, 0.0, 0.0, 0.0, 0.0, 2.0, 0.0, 0.0, 0.0, 3.0, 1.0, 6.0, 5.0, 5.0, 10.0, 14.0, 22.0, 26.0, 31.0, 40.0, 54.0, 56.0, 103.0, 113.0, 171.0, 276.0, 401.0, 684.0, 1320.0, 2937.0, 16158.0, 36629.0, 3180.0, 1244.0, 657.0, 378.0, 239.0, 201.0, 158.0, 105.0, 81.0, 49.0, 47.0, 33.0, 24.0, 17.0, 9.0, 14.0, 7.0, 4.0, 2.0, 4.0, 4.0, 3.0, 1.0, 1.0, 4.0, 0.0, 0.0, 2.0], "bins": [-0.00023720142780803144, -0.0002304392692167312, -0.00022367712517734617, -0.00021691496658604592, -0.00021015280799474567, -0.00020339066395536065, -0.0001966285053640604, -0.00018986634677276015, -0.0001831041881814599, -0.00017634204414207488, -0.00016957988555077463, -0.00016281772695947438, -0.00015605558292008936, -0.00014929342432878911, -0.00014253126573748887, -0.00013576912169810385, -0.0001290069631068036, -0.00012224480451550335, -0.00011548265320016071, -0.00010872050188481808, -0.00010195834329351783, -9.519619197817519e-05, -8.843404066283256e-05, -8.167188207153231e-05, -7.490973075618967e-05, -6.814757944084704e-05, -6.138542084954679e-05, -5.4623269534204155e-05, -4.786111458088271e-05, -4.109895962756127e-05, -3.4336808312218636e-05, -2.7574653358897194e-05, -2.0812483853660524e-05, -1.4050329809833784e-05, -7.288175766007043e-06, -5.260217221803032e-07, 6.236132321646437e-06, 1.2998286365473177e-05, 1.9760440409299918e-05, 2.6522593543631956e-05, 3.32847484969534e-05, 4.004690345027484e-05, 4.680905840359628e-05, 5.357120971893892e-05, 6.033336467226036e-05, 6.70955196255818e-05, 7.385767094092444e-05, 8.061982953222468e-05, 8.738198084756732e-05, 9.414413216290995e-05, 0.0001009062907542102, 0.00010766844206955284, 0.00011443060066085309, 0.00012119275197619572, 0.00012795490329153836, 0.0001347170618828386, 0.00014147922047413886, 0.00014824136451352388, 0.00015500352310482413, 0.00016176568169612437, 0.0001685278257355094, 0.00017528998432680964, 0.0001820521429181099, 0.00018881428695749491, 0.00019557644554879516]}, "gradients/graph_1mlp.0.bias": {"_type": "histogram", "values": [1.0, 0.0, 0.0, 0.0, 0.0, 0.0, 0.0, 0.0, 0.0, 1.0, 0.0, 1.0, 1.0, 1.0, 1.0, 0.0, 0.0, 0.0, 0.0, 1.0, 0.0, 1.0, 0.0, 2.0, 4.0, 0.0, 3.0, 3.0, 0.0, 7.0, 4.0, 7.0, 4.0, 9.0, 7.0, 10.0, 18.0, 22.0, 20.0, 23.0, 16.0, 21.0, 16.0, 6.0, 5.0, 6.0, 6.0, 5.0, 4.0, 3.0, 1.0, 5.0, 2.0, 1.0, 2.0, 1.0, 1.0, 0.0, 1.0, 0.0, 1.0, 1.0, 0.0, 1.0], "bins": [-0.0005045230500400066, -0.0004916660254821181, -0.00047880897182039917, -0.00046595194726251066, -0.0004530948936007917, -0.0004402378690429032, -0.0004273808153811842, -0.0004145237908232957, -0.00040166673716157675, -0.00038880971260368824, -0.00037595268804579973, -0.00036309563438408077, -0.00035023860982619226, -0.0003373815561644733, -0.0003245245316065848, -0.0003116674779448658, -0.0002988104533869773, -0.0002859534288290888, -0.00027309637516736984, -0.00026023935060948133, -0.00024738229694776237, -0.00023452527238987386, -0.00022166823328007013, -0.0002088111941702664, -0.00019595415506046265, -0.00018309711595065892, -0.00017024007684085518, -0.00015738303773105145, -0.00014452601317316294, -0.0001316689740633592, -0.00011881193495355546, -0.00010595489584375173, -9.309785673394799e-05, -8.024081762414426e-05, -6.738377851434052e-05, -5.45267466804944e-05, -4.166970757069066e-05, -2.881267027987633e-05, -1.5955632989061996e-05, -3.0985956982476637e-06, 9.758441592566669e-06, 2.2615478883381e-05, 3.5472516174195334e-05, 4.8329551646020263e-05, 6.1186590755824e-05, 7.404362986562774e-05, 8.690066169947386e-05, 9.97577008092776e-05, 0.00011261473991908133, 0.00012547177902888507, 0.0001383288181386888, 0.00015118585724849254, 0.00016404289635829628, 0.00017689992091618478, 0.00018975696002598852, 0.00020261399913579226, 0.000215471038245596, 0.00022832807735539973, 0.00024118511646520346, 0.0002540421555750072, 0.0002668991801328957, 0.00027975623379461467, 0.0002926132583525032, 0.00030547031201422215, 0.00031832733657211065]}, "gradients/graph_1mlp.0.weight": {"_type": "histogram", "values": [2.0, 1.0, 0.0, 3.0, 3.0, 1.0, 0.0, 1.0, 2.0, 7.0, 9.0, 7.0, 11.0, 7.0, 6.0, 10.0, 10.0, 25.0, 21.0, 62.0, 59.0, 58.0, 93.0, 100.0, 154.0, 204.0, 287.0, 415.0, 571.0, 1012.0, 1699.0, 2703.0, 3005.0, 2029.0, 1209.0, 664.0, 449.0, 330.0, 226.0, 166.0, 125.0, 73.0, 69.0, 61.0, 49.0, 19.0, 27.0, 16.0, 18.0, 12.0, 10.0, 11.0, 8.0, 3.0, 2.0, 1.0, 2.0, 0.0, 0.0, 0.0, 0.0, 0.0, 0.0, 1.0], "bins": [-0.0004990383749827743, -0.0004835319414269179, -0.000468025536974892, -0.0004525191034190357, -0.0004370126989670098, -0.00042150626541115344, -0.0004059998318552971, -0.0003904934274032712, -0.00037498699384741485, -0.0003594805602915585, -0.0003439741558395326, -0.00032846772228367627, -0.0003129612887278199, -0.00029745488427579403, -0.0002819484507199377, -0.0002664420462679118, -0.00025093561271205544, -0.00023542919370811433, -0.0002199227747041732, -0.00020441634114831686, -0.00018890992214437574, -0.00017340350314043462, -0.00015789706958457828, -0.00014239065058063716, -0.00012688423157669604, -0.00011137781257275492, -9.587138629285619e-05, -8.036496001295745e-05, -6.485854100901634e-05, -4.935211836709641e-05, -3.3845695725176483e-05, -1.8339273083256558e-05, -2.8328504413366318e-06, 1.2673572200583294e-05, 2.817999484250322e-05, 4.3686417484423146e-05, 5.919284012634307e-05, 7.469925913028419e-05, 9.020568541018292e-05, 0.00010571211169008166, 0.00012121853069402277, 0.0001367249496979639, 0.000152231368701905, 0.00016773780225776136, 0.00018324422126170248, 0.0001987506402656436, 0.00021425707382149994, 0.00022976349282544106, 0.0002452699118293822, 0.00026077634538523853, 0.0002762827498372644, 0.00029178918339312077, 0.00030729558784514666, 0.000322802021401003, 0.00033830845495685935, 0.00035381485940888524, 0.0003693212929647416, 0.00038482772652059793, 0.0004003341309726238, 0.00041584056452848017, 0.0004313469980843365, 0.0004468534025363624, 0.00046235983609221876, 0.00047786624054424465, 0.000493372674100101]}, "gradients/rgb_fn.2.bias": {"_type": "histogram", "values": [1.0, 0.0, 0.0, 0.0, 0.0, 0.0, 0.0, 0.0, 0.0, 0.0, 0.0, 0.0, 0.0, 0.0, 0.0, 0.0, 0.0, 0.0, 0.0, 0.0, 0.0, 0.0, 0.0, 0.0, 0.0, 0.0, 1.0, 0.0, 0.0, 0.0, 0.0, 0.0, 0.0, 0.0, 0.0, 0.0, 0.0, 0.0, 0.0, 0.0, 0.0, 0.0, 0.0, 0.0, 0.0, 0.0, 0.0, 0.0, 0.0, 0.0, 0.0, 0.0, 0.0, 0.0, 0.0, 0.0, 0.0, 0.0, 0.0, 0.0, 0.0, 0.0, 0.0, 1.0], "bins": [-1.740680636430625e-05, -1.7103293430409394e-05, -1.679978049651254e-05, -1.6496267562615685e-05, -1.619275462871883e-05, -1.5889241694821976e-05, -1.558572876092512e-05, -1.5282215827028267e-05, -1.497870198363671e-05, -1.4675189049739856e-05, -1.4371676115843002e-05, -1.4068163181946147e-05, -1.3764649338554591e-05, -1.3461136404657736e-05, -1.3157623470760882e-05, -1.2854110536864027e-05, -1.2550597602967173e-05, -1.2247084669070318e-05, -1.1943571735173464e-05, -1.164005880127661e-05, -1.1336545867379755e-05, -1.1033032023988198e-05, -1.0729519090091344e-05, -1.042600615619449e-05, -1.0122493222297635e-05, -9.81898028840078e-06, -9.515467354503926e-06, -9.211954420607071e-06, -8.908440577215515e-06, -8.60492764331866e-06, -8.301414709421806e-06, -7.997901775524952e-06, -7.694388841628097e-06, -7.3908759077312425e-06, -7.087362973834388e-06, -6.7838495851901826e-06, -6.480336651293328e-06, -6.1768237173964735e-06, -5.873310328752268e-06, -5.569797394855414e-06, -5.266284460958559e-06, -4.9627715270617045e-06, -4.65925859316485e-06, -4.355745204520645e-06, -4.05223227062379e-06, -3.7487193367269356e-06, -3.4452061754564056e-06, -3.1416930141858757e-06, -2.838180080289021e-06, -2.5346671463921666e-06, -2.2311539851216367e-06, -1.9276408238511067e-06, -1.6241278899542522e-06, -1.32061484237056e-06, -1.0171017947868677e-06, -7.135887472031754e-07, -4.100756996194832e-07, -1.0656265203579096e-07, 1.9695039554790128e-07, 5.004634431315935e-07, 8.039764907152858e-07, 1.107489538298978e-06, 1.4110025858826702e-06, 1.7145156334663625e-06, 2.0180286810500547e-06]}, "gradients/rgb_fn.2.weight": {"_type": "histogram", "values": [1.0, 0.0, 0.0, 0.0, 0.0, 0.0, 0.0, 0.0, 0.0, 0.0, 0.0, 1.0, 2.0, 2.0, 0.0, 0.0, 0.0, 1.0, 0.0, 2.0, 3.0, 1.0, 2.0, 2.0, 4.0, 1.0, 1.0, 5.0, 2.0, 8.0, 5.0, 2.0, 1.0, 3.0, 4.0, 9.0, 28.0, 234.0, 30.0, 10.0, 9.0, 3.0, 2.0, 2.0, 0.0, 0.0, 1.0, 0.0, 0.0, 0.0, 0.0, 0.0, 0.0, 0.0, 0.0, 1.0, 0.0, 0.0, 0.0, 0.0, 0.0, 0.0, 0.0, 2.0], "bins": [-0.0002260104811284691, -0.00021992504480294883, -0.00021383959392551333, -0.00020775415759999305, -0.00020166872127447277, -0.00019558327039703727, -0.000189497834071517, -0.00018341239774599671, -0.0001773269468685612, -0.00017124151054304093, -0.00016515607421752065, -0.00015907062334008515, -0.00015298518701456487, -0.0001468997506890446, -0.0001408142998116091, -0.0001347288634860888, -0.0001286434126086533, -0.00012255797628313303, -0.00011647253995761275, -0.00011038709635613486, -0.00010430165275465697, -9.82162164291367e-05, -9.21307728276588e-05, -8.604532922618091e-05, -7.995989290066063e-05, -7.387444929918274e-05, -6.778900569770485e-05, -6.170356209622696e-05, -5.5618125770706683e-05, -4.953268216922879e-05, -4.344724220572971e-05, -3.736179860425182e-05, -3.127635864075273e-05, -2.5190916858264245e-05, -1.9105475075775757e-05, -1.3020035112276673e-05, -6.934593329788186e-06, -8.491520020470489e-07, 5.236289325694088e-06, 1.1321730198687874e-05, 1.740717198117636e-05, 2.349261376366485e-05, 2.9578055546153337e-05, 3.566349550965242e-05, 4.1748935473151505e-05, 4.7834379074629396e-05, 5.391981903812848e-05, 6.000526263960637e-05, 6.609070260310546e-05, 7.217614620458335e-05, 7.826158253010362e-05, 8.434702613158152e-05, 9.04324697330594e-05, 9.651790605857968e-05, 0.00010260334966005757, 0.00010868879326153547, 0.00011477422958705574, 0.00012085967318853363, 0.00012694511679001153, 0.0001330305531155318, 0.0001391160039929673, 0.00014520144031848758, 0.00015128687664400786, 0.00015737232752144337, 0.00016345776384696364]}, "gradients/rgb_fn.0.bias": {"_type": "histogram", "values": [1.0, 0.0, 0.0, 0.0, 0.0, 0.0, 0.0, 0.0, 0.0, 0.0, 0.0, 0.0, 0.0, 0.0, 0.0, 0.0, 0.0, 1.0, 0.0, 0.0, 0.0, 0.0, 1.0, 0.0, 0.0, 0.0, 0.0, 0.0, 1.0, 0.0, 1.0, 3.0, 1.0, 8.0, 6.0, 49.0, 31.0, 6.0, 2.0, 3.0, 0.0, 4.0, 2.0, 2.0, 3.0, 0.0, 1.0, 1.0, 0.0, 0.0, 0.0, 0.0, 0.0, 0.0, 0.0, 0.0, 0.0, 0.0, 0.0, 0.0, 0.0, 0.0, 0.0, 1.0], "bins": [-3.450310759944841e-05, -3.35405784426257e-05, -3.25780529237818e-05, -3.1615523766959086e-05, -3.065299824811518e-05, -2.969046909129247e-05, -2.8727941753459163e-05, -2.7765414415625855e-05, -2.6802885258803144e-05, -2.5840357920969836e-05, -2.487783058313653e-05, -2.391530324530322e-05, -2.2952775907469913e-05, -2.1990248569636606e-05, -2.1027719412813894e-05, -2.0065192074980587e-05, -1.910266473714728e-05, -1.814013739931397e-05, -1.7177610061480664e-05, -1.6215080904657952e-05, -1.5252553566824645e-05, -1.4290026228991337e-05, -1.332749889115803e-05, -1.236497064383002e-05, -1.1402443305996712e-05, -1.0439915968163405e-05, -9.477387720835395e-06, -8.514860383002087e-06, -7.552332590421429e-06, -6.58980479784077e-06, -5.627277460007463e-06, -4.664749667426804e-06, -3.7022218748461455e-06, -2.739694082265487e-06, -1.7771665170585038e-06, -8.14638838164683e-07, 1.4788884072913788e-07, 1.1104165196229587e-06, 2.0729441985167796e-06, 3.0354717637237627e-06, 3.997999556304421e-06, 4.96052734888508e-06, 5.923055141465738e-06, 6.885582479299046e-06, 7.848109817132354e-06, 8.810638064460363e-06, 9.773165402293671e-06, 1.073569364962168e-05, 1.1698220987454988e-05, 1.2660748325288296e-05, 1.3623276572616305e-05, 1.4585803910449613e-05, 1.5548332157777622e-05, 1.651085949561093e-05, 1.7473386833444238e-05, 1.8435914171277545e-05, 1.9398441509110853e-05, 2.0360970665933564e-05, 2.1323498003766872e-05, 2.228602534160018e-05, 2.3248552679433487e-05, 2.4211080017266795e-05, 2.5173609174089506e-05, 2.6136136511922814e-05, 2.709866384975612e-05]}, "gradients/rgb_fn.0.weight": {"_type": "histogram", "values": [1.0, 0.0, 0.0, 0.0, 0.0, 1.0, 0.0, 0.0, 0.0, 0.0, 0.0, 0.0, 0.0, 1.0, 1.0, 1.0, 1.0, 0.0, 4.0, 2.0, 4.0, 2.0, 7.0, 5.0, 4.0, 11.0, 20.0, 30.0, 54.0, 124.0, 485.0, 32206.0, 3465.0, 319.0, 100.0, 48.0, 33.0, 15.0, 14.0, 9.0, 6.0, 4.0, 1.0, 2.0, 4.0, 1.0, 3.0, 1.0, 0.0, 0.0, 1.0, 0.0, 0.0, 0.0, 0.0, 0.0, 0.0, 0.0, 0.0, 1.0, 0.0, 0.0, 0.0, 1.0], "bins": [-0.00023902341490611434, -0.0002315191231900826, -0.00022401483147405088, -0.00021651053975801915, -0.00020900626259390265, -0.00020150197087787092, -0.0001939976791618392, -0.00018649338744580746, -0.00017898909572977573, -0.000171484804013744, -0.0001639805268496275, -0.00015647623513359576, -0.00014897194341756403, -0.0001414676517015323, -0.00013396335998550057, -0.00012645906826946884, -0.00011895478382939473, -0.000111450492113363, -0.00010394620767328888, -9.644191595725715e-05, -8.893762424122542e-05, -8.14333398011513e-05, -7.392904808511958e-05, -6.642475636908785e-05, -5.892046829103492e-05, -5.1416180212982e-05, -4.391188849695027e-05, -3.6407600418897346e-05, -2.890331052185502e-05, -2.1399020624812692e-05, -1.3894731637265068e-05, -6.390442194970092e-06, 1.113847247324884e-06, 8.61813714436721e-06, 1.6122427041409537e-05, 2.362671511946246e-05, 3.113100683549419e-05, 3.8635294913547114e-05, 4.613958299160004e-05, 5.364387470763177e-05, 6.11481664236635e-05, 6.865245086373761e-05, 7.615674257976934e-05, 8.366103429580107e-05, 9.116531873587519e-05, 9.866961045190692e-05, 0.00010617390216793865, 0.00011367818660801277, 0.0001211824783240445, 0.0001286867627641186, 0.00013619105448015034, 0.00014369534619618207, 0.0001511996379122138, 0.00015870392962824553, 0.00016620822134427726, 0.00017371249850839376, 0.0001812167902244255, 0.00018872108194045722, 0.00019622537365648896, 0.00020372966537252069, 0.00021123395708855242, 0.00021873823425266892, 0.00022624252596870065, 0.00023374681768473238, 0.0002412511094007641]}, "gradients/density_fn.0.bias": {"_type": "histogram", "values": [1.0], "bins": [1.8867529433919117e-05, 1.8867529433919117e-05]}, "gradients/density_fn.0.weight": {"_type": "histogram", "values": [1.0, 0.0, 0.0, 0.0, 0.0, 0.0, 0.0, 0.0, 0.0, 0.0, 0.0, 0.0, 0.0, 0.0, 0.0, 0.0, 0.0, 0.0, 1.0, 0.0, 0.0, 0.0, 1.0, 2.0, 0.0, 2.0, 3.0, 4.0, 6.0, 3.0, 5.0, 7.0, 19.0, 20.0, 35.0, 26.0, 27.0, 20.0, 14.0, 15.0, 12.0, 5.0, 6.0, 8.0, 3.0, 5.0, 0.0, 1.0, 0.0, 0.0, 1.0, 0.0, 1.0, 0.0, 0.0, 1.0, 1.0, 0.0, 0.0, 0.0, 0.0, 0.0, 0.0, 1.0], "bins": [-5.690848047379404e-05, -5.5302345572272316e-05, -5.3696214308729395e-05, -5.209007940720767e-05, -5.048394450568594e-05, -4.887781324214302e-05, -4.727167834062129e-05, -4.5665543439099565e-05, -4.405940853757784e-05, -4.245327727403492e-05, -4.084714237251319e-05, -3.924100747099146e-05, -3.763487620744854e-05, -3.6028741305926815e-05, -3.442260640440509e-05, -3.281647514086217e-05, -3.121034023934044e-05, -2.9604207156808116e-05, -2.7998072255286388e-05, -2.6391939172754064e-05, -2.4785804271232337e-05, -2.3179671188700013e-05, -2.157353810616769e-05, -1.996740320464596e-05, -1.8361270122113638e-05, -1.6755137039581314e-05, -1.5149002138059586e-05, -1.3542869055527262e-05, -1.1936735063500237e-05, -1.0330601071473211e-05, -8.724467988940887e-06, -7.1183339969138615e-06, -5.512203642865643e-06, -3.906069650838617e-06, -2.2999361135589425e-06, -6.938023489055922e-07, 9.12331415747758e-07, 2.5184651804011082e-06, 4.1245989450544585e-06, 5.730732482334133e-06, 7.336866474361159e-06, 8.943000466388185e-06, 1.054913445841521e-05, 1.2155267540947534e-05, 1.376140153297456e-05, 1.5367535525001585e-05, 1.697366860753391e-05, 1.8579803509055637e-05, 2.018593659158796e-05, 2.1792069674120285e-05, 2.3398204575642012e-05, 2.5004337658174336e-05, 2.6610472559696063e-05, 2.8216605642228387e-05, 2.982273872476071e-05, 3.142887362628244e-05, 3.3035008527804166e-05, 3.4641139791347086e-05, 3.6247274692868814e-05, 3.785340959439054e-05, 3.945954085793346e-05, 4.106567575945519e-05, 4.2671810660976917e-05, 4.427794192451984e-05, 4.5884076826041564e-05]}, "gradients/feature_fn.4.bias": {"_type": "histogram", "values": [1.0, 1.0, 0.0, 1.0, 0.0, 0.0, 2.0, 0.0, 3.0, 2.0, 2.0, 1.0, 1.0, 1.0, 3.0, 8.0, 3.0, 11.0, 10.0, 9.0, 10.0, 13.0, 13.0, 10.0, 25.0, 16.0, 17.0, 15.0, 12.0, 12.0, 9.0, 6.0, 8.0, 5.0, 6.0, 0.0, 2.0, 3.0, 1.0, 3.0, 1.0, 1.0, 0.0, 1.0, 0.0, 0.0, 1.0, 0.0, 0.0, 0.0, 0.0, 1.0, 0.0, 0.0, 0.0, 0.0, 0.0, 0.0, 2.0, 1.0, 0.0, 0.0, 0.0, 3.0], "bins": [-1.8527009160607122e-05, -1.775963573891204e-05, -1.6992262317216955e-05, -1.6224887076532468e-05, -1.5457513654837385e-05, -1.4690140233142301e-05, -1.3922766811447218e-05, -1.3155392480257433e-05, -1.238801905856235e-05, -1.1620645636867266e-05, -1.0853271305677481e-05, -1.0085897883982398e-05, -9.318524462287314e-06, -8.551150131097529e-06, -7.783776709402446e-06, -7.0164028329600114e-06, -6.249028956517577e-06, -5.481655080075143e-06, -4.714281203632709e-06, -3.946907781937625e-06, -3.179533905495191e-06, -2.4121600290527567e-06, -1.644786379983998e-06, -8.774126172284014e-07, -1.1003885447280481e-07, 6.573349082827917e-07, 1.4247086710383883e-06, 2.192082320107147e-06, 2.9594561965495814e-06, 3.7268300729920156e-06, 4.494203494687099e-06, 5.261577371129533e-06, 6.028953066561371e-06, 6.796326943003805e-06, 7.56370081944624e-06, 8.331074241141323e-06, 9.098448572331108e-06, 9.865821994026192e-06, 1.0633195415721275e-05, 1.140056974691106e-05, 1.2167943168606143e-05, 1.2935316590301227e-05, 1.3702690921491012e-05, 1.4470064343186095e-05, 1.5237437764881179e-05, 1.6004811186576262e-05, 1.677218642726075e-05, 1.7539559848955832e-05, 1.8306933270650916e-05, 1.9074306692346e-05, 1.9841680114041083e-05, 2.060905535472557e-05, 2.1376428776420653e-05, 2.2143802198115736e-05, 2.291117561981082e-05, 2.3678549041505903e-05, 2.4445922463200986e-05, 2.5213297703885473e-05, 2.5980671125580557e-05, 2.674804454727564e-05, 2.7515417968970723e-05, 2.8282791390665807e-05, 2.9050166631350294e-05, 2.9817540053045377e-05, 3.058491347474046e-05]}, "gradients/feature_fn.4.weight": {"_type": "histogram", "values": [2.0, 1.0, 0.0, 1.0, 0.0, 0.0, 2.0, 0.0, 0.0, 1.0, 2.0, 2.0, 2.0, 6.0, 4.0, 7.0, 7.0, 8.0, 10.0, 19.0, 10.0, 26.0, 35.0, 56.0, 83.0, 155.0, 225.0, 393.0, 917.0, 5398.0, 52051.0, 4047.0, 921.0, 419.0, 201.0, 130.0, 111.0, 50.0, 59.0, 42.0, 23.0, 25.0, 23.0, 15.0, 4.0, 8.0, 4.0, 6.0, 4.0, 2.0, 3.0, 3.0, 4.0, 2.0, 4.0, 0.0, 0.0, 0.0, 0.0, 1.0, 0.0, 0.0, 0.0, 2.0], "bins": [-4.939244536217302e-05, -4.776794230565429e-05, -4.6143439249135554e-05, -4.451893619261682e-05, -4.289443313609809e-05, -4.1269926441600546e-05, -3.964542338508181e-05, -3.802092032856308e-05, -3.6396417272044346e-05, -3.477191421552561e-05, -3.314741115900688e-05, -3.1522908102488145e-05, -2.9898403226980008e-05, -2.8273900170461275e-05, -2.6649395294953138e-05, -2.5024892238434404e-05, -2.340038918191567e-05, -2.1775886125396937e-05, -2.0151383068878204e-05, -1.8526878193370067e-05, -1.6902375136851333e-05, -1.52778720803326e-05, -1.3653368114319164e-05, -1.2028864148305729e-05, -1.0404361091786996e-05, -8.779858035268262e-06, -7.155354069254827e-06, -5.530850557988742e-06, -3.906347046722658e-06, -2.2818435354565736e-06, -6.573400241904892e-07, 9.671634870755952e-07, 2.5916706363204867e-06, 4.216174147586571e-06, 5.8406776588526554e-06, 7.46518117011874e-06, 9.089684681384824e-06, 1.0714187737903558e-05, 1.2338691703916993e-05, 1.3963195669930428e-05, 1.5587698726449162e-05, 1.7212201782967895e-05, 1.883670483948663e-05, 2.0461209714994766e-05, 2.20857127715135e-05, 2.3710215828032233e-05, 2.533472070354037e-05, 2.6959223760059103e-05, 2.8583726816577837e-05, 3.020822987309657e-05, 3.1832732929615304e-05, 3.345723598613404e-05, 3.508174268063158e-05, 3.670624573715031e-05, 3.8330748793669045e-05, 3.995525185018778e-05, 4.157975490670651e-05, 4.3204257963225245e-05, 4.482876101974398e-05, 4.645326407626271e-05, 4.8077767132781446e-05, 4.9702273827278987e-05, 5.132677688379772e-05, 5.2951279940316454e-05, 5.457578299683519e-05]}, "gradients/feature_fn.2.bias": {"_type": "histogram", "values": [1.0, 0.0, 0.0, 0.0, 0.0, 0.0, 0.0, 0.0, 0.0, 0.0, 0.0, 0.0, 0.0, 0.0, 0.0, 0.0, 0.0, 2.0, 0.0, 0.0, 0.0, 0.0, 1.0, 0.0, 6.0, 0.0, 0.0, 1.0, 4.0, 4.0, 6.0, 7.0, 5.0, 12.0, 28.0, 44.0, 27.0, 26.0, 21.0, 10.0, 9.0, 6.0, 8.0, 3.0, 5.0, 6.0, 3.0, 2.0, 3.0, 2.0, 0.0, 0.0, 1.0, 0.0, 0.0, 0.0, 0.0, 0.0, 0.0, 0.0, 0.0, 1.0, 1.0, 1.0], "bins": [-5.182032327866182e-05, -5.037762821302749e-05, -4.893493314739317e-05, -4.749223808175884e-05, -4.6049546654103324e-05, -4.4606851588469e-05, -4.3164156522834674e-05, -4.172146145720035e-05, -4.027876639156602e-05, -3.88360713259317e-05, -3.739337989827618e-05, -3.5950684832641855e-05, -3.450798976700753e-05, -3.3065294701373205e-05, -3.162259963573888e-05, -3.0179906389093958e-05, -2.8737211323459633e-05, -2.7294516257825308e-05, -2.5851823011180386e-05, -2.440912794554606e-05, -2.2966432879911736e-05, -2.1523739633266814e-05, -2.008104456763249e-05, -1.8638349501998164e-05, -1.7195656255353242e-05, -1.5752961189718917e-05, -1.4310266124084592e-05, -1.2867571967944968e-05, -1.1424877811805345e-05, -9.98218274617102e-06, -8.539488590031397e-06, -7.096793979144422e-06, -5.654099368257448e-06, -4.211404757370474e-06, -2.768710373857175e-06, -1.3260158766570385e-06, 1.1667862054309808e-07, 1.5593731177432346e-06, 3.002067614943371e-06, 4.44476199845667e-06, 5.887456609343644e-06, 7.3301512202306185e-06, 8.772845831117593e-06, 1.0215539987257216e-05, 1.165823414339684e-05, 1.3100929209031165e-05, 1.4543623365170788e-05, 1.598631752131041e-05, 1.7429012586944737e-05, 1.887170765257906e-05, 2.0314400899223983e-05, 2.175709596485831e-05, 2.3199791030492634e-05, 2.4642484277137555e-05, 2.608517934277188e-05, 2.7527874408406205e-05, 2.8970567655051127e-05, 3.0413262720685452e-05, 3.185595778631978e-05, 3.32986528519541e-05, 3.474134791758843e-05, 3.6184039345243946e-05, 3.762673441087827e-05, 3.9069429476512596e-05, 4.051212454214692e-05]}, "gradients/feature_fn.2.weight": {"_type": "histogram", "values": [1.0, 0.0, 0.0, 0.0, 0.0, 0.0, 0.0, 0.0, 0.0, 1.0, 1.0, 1.0, 1.0, 2.0, 1.0, 0.0, 2.0, 2.0, 4.0, 0.0, 3.0, 6.0, 6.0, 3.0, 8.0, 13.0, 18.0, 15.0, 27.0, 29.0, 30.0, 53.0, 104.0, 158.0, 239.0, 469.0, 1325.0, 6065.0, 47270.0, 6209.0, 1754.0, 724.0, 372.0, 213.0, 151.0, 90.0, 44.0, 34.0, 28.0, 16.0, 16.0, 5.0, 6.0, 7.0, 3.0, 1.0, 2.0, 2.0, 0.0, 1.0, 0.0, 0.0, 0.0, 1.0], "bins": [-8.986677130451426e-05, -8.753079600865021e-05, -8.519482798874378e-05, -8.285885269287974e-05, -8.05228846729733e-05, -7.818690937710926e-05, -7.585094135720283e-05, -7.351496606133878e-05, -7.117899804143235e-05, -6.88430227455683e-05, -6.650705472566187e-05, -6.417107942979783e-05, -6.18351114098914e-05, -5.949913611402735e-05, -5.716316445614211e-05, -5.4827192798256874e-05, -5.2491221140371636e-05, -5.01552494824864e-05, -4.781927782460116e-05, -4.548330616671592e-05, -4.314733450883068e-05, -4.081136285094544e-05, -3.8475391193060204e-05, -3.6139419535174966e-05, -3.380344423931092e-05, -3.146747258142568e-05, -2.9131502742529847e-05, -2.6795531084644608e-05, -2.4459557607769966e-05, -2.2123585949884728e-05, -1.978761429199949e-05, -1.745164263411425e-05, -1.5115670976229012e-05, -1.2779699318343773e-05, -1.0443727660458535e-05, -8.107755093078595e-06, -5.771783435193356e-06, -3.435811549934442e-06, -1.0998396646755282e-06, 1.2361322205833858e-06, 3.5721041058422998e-06, 5.908075763727538e-06, 8.244047421612777e-06, 1.0580019988992717e-05, 1.2915991646877956e-05, 1.5251963304763194e-05, 1.7587935872143134e-05, 1.9923907530028373e-05, 2.225987918791361e-05, 2.459585084579885e-05, 2.693182250368409e-05, 2.9267794161569327e-05, 3.1603765819454566e-05, 3.3939737477339804e-05, 3.627570913522504e-05, 3.861168079311028e-05, 4.094765608897433e-05, 4.3283627746859565e-05, 4.5619599404744804e-05, 4.795557106263004e-05, 5.029154272051528e-05, 5.262751437840052e-05, 5.496348603628576e-05, 5.7299457694170997e-05, 5.9635429352056235e-05]}, "gradients/feature_fn.0.bias": {"_type": "histogram", "values": [1.0, 0.0, 3.0, 1.0, 2.0, 0.0, 3.0, 0.0, 2.0, 0.0, 2.0, 2.0, 3.0, 0.0, 3.0, 3.0, 2.0, 3.0, 2.0, 3.0, 8.0, 10.0, 5.0, 9.0, 8.0, 10.0, 13.0, 14.0, 13.0, 8.0, 11.0, 13.0, 13.0, 12.0, 8.0, 4.0, 6.0, 7.0, 8.0, 5.0, 5.0, 6.0, 1.0, 2.0, 5.0, 6.0, 1.0, 6.0, 0.0, 0.0, 0.0, 1.0, 0.0, 0.0, 0.0, 0.0, 0.0, 0.0, 1.0, 0.0, 0.0, 1.0, 0.0, 1.0], "bins": [-3.1101819331524894e-05, -2.9994156648172066e-05, -2.8886493964819238e-05, -2.777883128146641e-05, -2.667116859811358e-05, -2.5563507733750157e-05, -2.445584505039733e-05, -2.33481823670445e-05, -2.2240519683691673e-05, -2.1132857000338845e-05, -2.0025194316986017e-05, -1.891753163363319e-05, -1.7809870769269764e-05, -1.6702208085916936e-05, -1.559454540256411e-05, -1.448688271921128e-05, -1.3379220035858452e-05, -1.2271557352505624e-05, -1.1163894669152796e-05, -1.005623289529467e-05, -8.948570211941842e-06, -7.840907528589014e-06, -6.733245299983537e-06, -5.62558307137806e-06, -4.517920388025232e-06, -3.410257932046079e-06, -2.3025954760669265e-06, -1.194933020087774e-06, -8.727056410862133e-08, 1.0203918918705313e-06, 2.128054347849684e-06, 3.2357168038288364e-06, 4.343375621829182e-06, 5.45103830518201e-06, 6.558700533787487e-06, 7.666362762392964e-06, 8.774025445745792e-06, 9.88168812909862e-06, 1.0989349902956747e-05, 1.2097012586309575e-05, 1.3204675269662403e-05, 1.431233795301523e-05, 1.542000063636806e-05, 1.6527663319720887e-05, 1.763532418408431e-05, 1.874298686743714e-05, 1.9850649550789967e-05, 2.0958312234142795e-05, 2.2065974917495623e-05, 2.317363760084845e-05, 2.428130028420128e-05, 2.5388962967554107e-05, 2.6496625650906935e-05, 2.760428651527036e-05, 2.8711949198623188e-05, 2.9819611881976016e-05, 3.092727274633944e-05, 3.203493542969227e-05, 3.3142598113045096e-05, 3.4250260796397924e-05, 3.535792347975075e-05, 3.646558616310358e-05, 3.757324884645641e-05, 3.8680911529809237e-05, 3.9788574213162065e-05]}, "gradients/feature_fn.0.weight": {"_type": "histogram", "values": [1.0, 0.0, 1.0, 0.0, 1.0, 1.0, 1.0, 2.0, 1.0, 1.0, 3.0, 8.0, 6.0, 15.0, 27.0, 40.0, 58.0, 63.0, 94.0, 138.0, 170.0, 262.0, 368.0, 606.0, 954.0, 1668.0, 3556.0, 22996.0, 41424.0, 4013.0, 1890.0, 1095.0, 710.0, 440.0, 315.0, 194.0, 172.0, 131.0, 65.0, 50.0, 28.0, 19.0, 30.0, 14.0, 12.0, 5.0, 4.0, 4.0, 2.0, 3.0, 0.0, 1.0, 0.0, 0.0, 0.0, 1.0, 0.0, 0.0, 0.0, 0.0, 0.0, 0.0, 0.0, 1.0], "bins": [-6.085175846237689e-05, -5.8680743677541614e-05, -5.650972525472753e-05, -5.433871046989225e-05, -5.216769204707816e-05, -4.9996677262242883e-05, -4.7825662477407604e-05, -4.565464405459352e-05, -4.348362926975824e-05, -4.131261448492296e-05, -3.9141596062108874e-05, -3.6970581277273595e-05, -3.4799566492438316e-05, -3.262854806962423e-05, -3.045753328478895e-05, -2.828651668096427e-05, -2.6115500077139586e-05, -2.3944483473314904e-05, -2.177346686949022e-05, -1.9602452084654942e-05, -1.743143548083026e-05, -1.5260418877005577e-05, -1.3089403182675596e-05, -1.0918387488345616e-05, -8.747370884520933e-06, -6.576354735443601e-06, -4.40533858636627e-06, -2.234322437288938e-06, -6.330628821160644e-08, 2.107709860865725e-06, 4.278726009943057e-06, 6.4497421590203885e-06, 8.620751032140106e-06, 1.0791767635964788e-05, 1.296278333029477e-05, 1.513379902462475e-05, 1.7304815628449433e-05, 1.9475832232274115e-05, 2.1646847017109394e-05, 2.3817863620934077e-05, 2.598888022475876e-05, 2.815989682858344e-05, 3.0330913432408124e-05, 3.25019282172434e-05, 3.467294300207868e-05, 3.684396142489277e-05, 3.901497620972805e-05, 4.118599463254213e-05, 4.335700941737741e-05, 4.552802420221269e-05, 4.769904262502678e-05, 4.9870057409862056e-05, 5.204107583267614e-05, 5.421209061751142e-05, 5.63831054023467e-05, 5.8554123825160787e-05, 6.0725138609996065e-05, 6.289615703281015e-05, 6.506717181764543e-05, 6.723818660248071e-05, 6.940920138731599e-05, 7.158021617215127e-05, 7.375123823294416e-05, 7.592225301777944e-05, 7.809326780261472e-05]}, "gradients/mlp.6.bias": {"_type": "histogram", "values": [1.0, 0.0, 0.0, 0.0, 0.0, 0.0, 0.0, 1.0, 0.0, 0.0, 0.0, 0.0, 2.0, 0.0, 2.0, 0.0, 0.0, 2.0, 1.0, 1.0, 0.0, 2.0, 3.0, 1.0, 2.0, 1.0, 4.0, 6.0, 13.0, 11.0, 6.0, 22.0, 62.0, 23.0, 18.0, 13.0, 8.0, 7.0, 10.0, 1.0, 1.0, 6.0, 1.0, 2.0, 2.0, 1.0, 4.0, 2.0, 0.0, 1.0, 3.0, 1.0, 4.0, 0.0, 0.0, 2.0, 1.0, 0.0, 0.0, 0.0, 0.0, 1.0, 0.0, 1.0], "bins": [-7.00436212355271e-05, -6.790981569793075e-05, -6.577601016033441e-05, -6.364220462273806e-05, -6.150839908514172e-05, -5.9374593547545373e-05, -5.724078800994903e-05, -5.5106982472352684e-05, -5.297317693475634e-05, -5.0839367759181187e-05, -4.870556222158484e-05, -4.65717566839885e-05, -4.443795114639215e-05, -4.230414560879581e-05, -4.017034007119946e-05, -3.803653453360312e-05, -3.590272899600677e-05, -3.376892345841043e-05, -3.163511792081408e-05, -2.9501312383217737e-05, -2.7367506845621392e-05, -2.5233699489035644e-05, -2.30998939514393e-05, -2.0966088413842954e-05, -1.883228287624661e-05, -1.6698477338650264e-05, -1.4564671801053919e-05, -1.2430865353962872e-05, -1.0297059816366527e-05, -8.163254278770182e-06, -6.0294482864264864e-06, -3.895642294082791e-06, -1.7618367564864457e-06, 3.719690084835747e-07, 2.505774773453595e-06, 4.639580765797291e-06, 6.773386303393636e-06, 8.90719184098998e-06, 1.1040998288081028e-05, 1.3174803825677373e-05, 1.5308609363273717e-05, 1.7442414900870062e-05, 1.9576220438466407e-05, 2.1710025976062752e-05, 2.38438333326485e-05, 2.5977638870244846e-05, 2.811144440784119e-05, 3.0245249945437536e-05, 3.237905548303388e-05, 3.4512861020630226e-05, 3.664666655822657e-05, 3.8780472095822915e-05, 4.091427763341926e-05, 4.3048083171015605e-05, 4.518188870861195e-05, 4.7315694246208295e-05, 4.944950342178345e-05, 5.158330895937979e-05, 5.371711449697614e-05, 5.585092003457248e-05, 5.798472557216883e-05, 6.011853110976517e-05, 6.225233664736152e-05, 6.438614218495786e-05, 6.651994772255421e-05]}, "gradients/mlp.6.weight": {"_type": "histogram", "values": [1.0, 0.0, 2.0, 0.0, 0.0, 0.0, 0.0, 0.0, 1.0, 0.0, 1.0, 1.0, 0.0, 0.0, 1.0, 2.0, 1.0, 3.0, 6.0, 6.0, 8.0, 11.0, 10.0, 13.0, 15.0, 11.0, 18.0, 39.0, 35.0, 80.0, 87.0, 147.0, 220.0, 405.0, 868.0, 2567.0, 49948.0, 7612.0, 1662.0, 701.0, 368.0, 184.0, 115.0, 83.0, 52.0, 50.0, 38.0, 24.0, 34.0, 29.0, 14.0, 12.0, 9.0, 13.0, 8.0, 9.0, 0.0, 4.0, 2.0, 1.0, 1.0, 2.0, 1.0, 1.0], "bins": [-6.462678720708936e-05, -6.28701236564666e-05, -6.111346738180146e-05, -5.9356803831178695e-05, -5.7600140280555934e-05, -5.584348036791198e-05, -5.408681681728922e-05, -5.2330156904645264e-05, -5.05734933540225e-05, -4.881683344137855e-05, -4.7060173528734595e-05, -4.530350997811183e-05, -4.354685006546788e-05, -4.179018651484512e-05, -4.0033526602201164e-05, -3.82768630515784e-05, -3.652020313893445e-05, -3.4763543226290494e-05, -3.300687967566773e-05, -3.125021976302378e-05, -2.9493556212401018e-05, -2.7736896299757063e-05, -2.5980234568123706e-05, -2.4223572836490348e-05, -2.246691110485699e-05, -2.0710249373223633e-05, -1.8953587641590275e-05, -1.7196925909956917e-05, -1.5440265997312963e-05, -1.3683603356184904e-05, -1.1926942534046248e-05, -1.017028080241289e-05, -8.41362270875834e-06, -6.656960977124982e-06, -4.900299700238975e-06, -3.1436381959792925e-06, -1.3869766917196102e-06, 3.69684812540072e-07, 2.1263463167997543e-06, 3.883007593685761e-06, 5.639669325319119e-06, 7.3963310569524765e-06, 9.152992788585834e-06, 1.090965361072449e-05, 1.2666315342357848e-05, 1.4422977073991206e-05, 1.617963789612986e-05, 1.793629962776322e-05, 1.9692961359396577e-05, 2.1449623091029935e-05, 2.3206284822663292e-05, 2.496294655429665e-05, 2.6719608285930008e-05, 2.8476268198573962e-05, 3.023292993020732e-05, 3.198959166184068e-05, 3.374625521246344e-05, 3.550291512510739e-05, 3.725957503775135e-05, 3.901623858837411e-05, 4.077289850101806e-05, 4.2529562051640823e-05, 4.428622196428478e-05, 4.604288551490754e-05, 4.779954542755149e-05]}, "gradients/mlp.4.bias": {"_type": "histogram", "values": [1.0, 0.0, 0.0, 0.0, 0.0, 1.0, 0.0, 0.0, 0.0, 1.0, 1.0, 0.0, 1.0, 0.0, 3.0, 1.0, 0.0, 0.0, 2.0, 2.0, 5.0, 4.0, 7.0, 4.0, 9.0, 15.0, 28.0, 66.0, 19.0, 24.0, 13.0, 10.0, 9.0, 8.0, 7.0, 2.0, 2.0, 2.0, 0.0, 3.0, 1.0, 0.0, 1.0, 0.0, 1.0, 0.0, 0.0, 0.0, 0.0, 0.0, 0.0, 0.0, 0.0, 2.0, 0.0, 0.0, 0.0, 0.0, 0.0, 0.0, 0.0, 0.0, 0.0, 1.0], "bins": [-0.00010829779785126448, -0.00010435682634124532, -0.00010041585483122617, -9.647489059716463e-05, -9.253391908714548e-05, -8.859294757712632e-05, -8.465197606710717e-05, -8.071100455708802e-05, -7.677004032302648e-05, -7.282906881300732e-05, -6.888809730298817e-05, -6.494712579296902e-05, -6.1006154282949865e-05, -5.706518641090952e-05, -5.3124214900890365e-05, -4.918324702885002e-05, -4.5242275518830866e-05, -4.130130400881171e-05, -3.7360336136771366e-05, -3.341936462675221e-05, -2.9478394935722463e-05, -2.5537425244692713e-05, -2.159645373467356e-05, -1.765548404364381e-05, -1.371451435261406e-05, -9.77354466158431e-06, -5.832574061059859e-06, -1.891603915282758e-06, 2.0493662304943427e-06, 5.9903363762714434e-06, 9.931306522048544e-06, 1.3872277122572996e-05, 1.7813246813602746e-05, 2.1754216504632495e-05, 2.5695186195662245e-05, 2.96361577056814e-05, 3.3577125577721745e-05, 3.75180970877409e-05, 4.145906859776005e-05, 4.54000364698004e-05, 4.934100797981955e-05, 5.3281979489838704e-05, 5.722294736187905e-05, 6.11639188718982e-05, 6.510489038191736e-05, 6.904586189193651e-05, 7.298682612599805e-05, 7.69277976360172e-05, 8.086876914603636e-05, 8.480974065605551e-05, 8.875071216607466e-05, 9.26916764001362e-05, 9.663264791015536e-05, 0.00010057361942017451, 0.00010451459093019366, 0.00010845556244021282, 0.00011239653395023197, 0.00011633749818429351, 0.00012027846969431266, 0.00012421944120433182, 0.00012816040543839335, 0.00013210138422437012, 0.00013604234845843166, 0.00013998332724440843, 0.00014392429147846997]}, "gradients/mlp.4.weight": {"_type": "histogram", "values": [1.0, 1.0, 1.0, 1.0, 5.0, 1.0, 3.0, 3.0, 5.0, 3.0, 5.0, 8.0, 9.0, 7.0, 10.0, 12.0, 33.0, 30.0, 41.0, 41.0, 108.0, 173.0, 253.0, 547.0, 1325.0, 5308.0, 52430.0, 3038.0, 978.0, 412.0, 247.0, 150.0, 86.0, 72.0, 50.0, 27.0, 17.0, 19.0, 15.0, 8.0, 9.0, 6.0, 2.0, 1.0, 8.0, 1.0, 6.0, 1.0, 2.0, 2.0, 1.0, 1.0, 3.0, 2.0, 1.0, 2.0, 0.0, 1.0, 2.0, 0.0, 1.0, 0.0, 0.0, 1.0], "bins": [-9.190131822833791e-05, -8.84124165168032e-05, -8.492350752931088e-05, -8.143460581777617e-05, -7.794570410624146e-05, -7.445679511874914e-05, -7.096789340721443e-05, -6.747899169567972e-05, -6.39900827081874e-05, -6.050118099665269e-05, -5.7012279285117984e-05, -5.352337393560447e-05, -5.003446858609095e-05, -4.6545566874556243e-05, -4.305666152504273e-05, -3.956775981350802e-05, -3.60788544639945e-05, -3.258994911448099e-05, -2.910104740294628e-05, -2.5612142053432763e-05, -2.212323852290865e-05, -1.8634334992384538e-05, -1.5145430552365724e-05, -1.165652611234691e-05, -8.167622581822798e-06, -4.6787185965513345e-06, -1.1898146112798713e-06, 2.299089373991592e-06, 5.787993359263055e-06, 9.276896889787167e-06, 1.2765801329805981e-05, 1.6254705769824795e-05, 1.9743602024391294e-05, 2.3232505554915406e-05, 2.6721409085439518e-05, 3.0210314434953034e-05, 3.369921614648774e-05, 3.718812149600126e-05, 4.0677026845514774e-05, 4.416592855704948e-05, 4.7654833906563e-05, 5.1143739256076515e-05, 5.4632640967611223e-05, 5.812154631712474e-05, 6.161045166663826e-05, 6.509935337817296e-05, 6.858825508970767e-05, 7.20771640772e-05, 7.55660657887347e-05, 7.905496750026941e-05, 8.254387648776174e-05, 8.603277819929644e-05, 8.952167991083115e-05, 9.301058889832348e-05, 9.649949060985819e-05, 9.99883923213929e-05, 0.00010347730130888522, 0.00010696620302041993, 0.00011045510473195463, 0.00011394400644348934, 0.00011743291543098167, 0.00012092181714251637, 0.0001244107261300087, 0.0001278996205655858, 0.00013138852955307811]}, "gradients/mlp.2.bias": {"_type": "histogram", "values": [1.0, 0.0, 0.0, 0.0, 0.0, 0.0, 0.0, 0.0, 0.0, 0.0, 0.0, 0.0, 0.0, 1.0, 0.0, 0.0, 0.0, 0.0, 0.0, 0.0, 0.0, 0.0, 0.0, 1.0, 1.0, 0.0, 0.0, 2.0, 3.0, 1.0, 0.0, 2.0, 3.0, 1.0, 3.0, 2.0, 2.0, 9.0, 9.0, 15.0, 25.0, 78.0, 33.0, 12.0, 11.0, 8.0, 9.0, 5.0, 2.0, 3.0, 2.0, 2.0, 1.0, 1.0, 0.0, 0.0, 1.0, 2.0, 2.0, 0.0, 1.0, 1.0, 0.0, 1.0], "bins": [-0.0002648961672093719, -0.00025857018772512674, -0.00025224420824088156, -0.0002459182287566364, -0.0002395922492723912, -0.0002332662552362308, -0.0002269402757519856, -0.00022061429626774043, -0.00021428831678349525, -0.00020796233729925007, -0.00020163635781500489, -0.0001953103783307597, -0.0001889843842945993, -0.00018265840481035411, -0.00017633242532610893, -0.00017000644584186375, -0.00016368046635761857, -0.0001573544868733734, -0.0001510285073891282, -0.00014470252790488303, -0.00013837654842063785, -0.00013205055438447744, -0.00012572457490023226, -0.00011939859541598707, -0.0001130726159317419, -0.00010674663644749671, -0.00010042065696325153, -9.409467020304874e-05, -8.776869071880355e-05, -8.144271123455837e-05, -7.511672447435558e-05, -6.87907449901104e-05, -6.246478005778044e-05, -5.6138800573535264e-05, -4.9812817451311275e-05, -4.348683432908729e-05, -3.7160854844842106e-05, -3.0834875360596925e-05, -2.4508892238372937e-05, -1.8182910935138352e-05, -1.1856929631903768e-05, -5.530948328669183e-06, 7.950329745654017e-07, 7.121014277799986e-06, 1.3446995581034571e-05, 1.9772976884269156e-05, 2.609895818750374e-05, 3.242494130972773e-05, 3.875092079397291e-05, 4.507690027821809e-05, 5.140288340044208e-05, 5.772886652266607e-05, 6.405484600691125e-05, 7.038082549115643e-05, 7.670681225135922e-05, 8.30327917356044e-05, 8.935877121984959e-05, 9.568475070409477e-05, 0.00010201073018833995, 0.00010833671694854274, 0.00011466269643278793, 0.0001209886759170331, 0.0001273146626772359, 0.00013364064216148108, 0.00013996662164572626]}, "gradients/mlp.2.weight": {"_type": "histogram", "values": [1.0, 0.0, 0.0, 1.0, 0.0, 0.0, 0.0, 0.0, 1.0, 1.0, 0.0, 0.0, 2.0, 2.0, 3.0, 1.0, 0.0, 1.0, 3.0, 3.0, 4.0, 3.0, 5.0, 7.0, 9.0, 11.0, 13.0, 22.0, 21.0, 30.0, 56.0, 65.0, 110.0, 161.0, 294.0, 572.0, 1317.0, 4465.0, 50033.0, 5355.0, 1430.0, 632.0, 305.0, 205.0, 127.0, 79.0, 50.0, 35.0, 24.0, 22.0, 10.0, 11.0, 8.0, 8.0, 6.0, 5.0, 2.0, 1.0, 0.0, 1.0, 2.0, 0.0, 0.0, 1.0], "bins": [-0.0002948773035313934, -0.0002872366167139262, -0.000279595929896459, -0.00027195524307899177, -0.00026431455626152456, -0.00025667386944405735, -0.00024903318262659013, -0.00024139249580912292, -0.0002337518089916557, -0.0002261111221741885, -0.00021847043535672128, -0.00021082974853925407, -0.00020318906172178686, -0.00019554837490431964, -0.00018790768808685243, -0.00018026700126938522, -0.000172626314451918, -0.0001649856276344508, -0.00015734494081698358, -0.00014970425399951637, -0.00014206356718204916, -0.00013442288036458194, -0.00012678219354711473, -0.00011914150672964752, -0.0001115008199121803, -0.00010386013309471309, -9.621944627724588e-05, -8.857875945977867e-05, -8.093807264231145e-05, -7.329738582484424e-05, -6.565669900737703e-05, -5.8016012189909816e-05, -5.0375310820527375e-05, -4.273462400306016e-05, -3.509393718559295e-05, -2.7453250368125737e-05, -1.9812563550658524e-05, -1.2171876733191311e-05, -4.531189915724099e-06, 3.109496901743114e-06, 1.0750183719210327e-05, 1.839087053667754e-05, 2.6031557354144752e-05, 3.3672244171611965e-05, 4.131293098907918e-05, 4.895361780654639e-05, 5.65943046240136e-05, 6.423499144148082e-05, 7.187567825894803e-05, 7.951636507641524e-05, 8.715705189388245e-05, 9.479773871134967e-05, 0.00010243842552881688, 0.00011007911234628409, 0.0001177197991637513, 0.00012536048598121852, 0.00013300117279868573, 0.00014064185961615294, 0.00014828254643362015, 0.00015592323325108737, 0.00016356392006855458, 0.0001712046068860218, 0.000178845293703489, 0.00018648598052095622, 0.00019412666733842343]}, "gradients/mlp.0.bias": {"_type": "histogram", "values": [1.0, 0.0, 0.0, 0.0, 1.0, 1.0, 0.0, 0.0, 0.0, 2.0, 1.0, 2.0, 2.0, 5.0, 1.0, 1.0, 3.0, 0.0, 3.0, 9.0, 4.0, 9.0, 7.0, 6.0, 13.0, 10.0, 27.0, 16.0, 22.0, 23.0, 11.0, 11.0, 6.0, 3.0, 9.0, 4.0, 7.0, 4.0, 0.0, 4.0, 2.0, 2.0, 2.0, 2.0, 6.0, 3.0, 3.0, 1.0, 0.0, 2.0, 0.0, 1.0, 0.0, 1.0, 0.0, 0.0, 0.0, 1.0, 0.0, 1.0, 0.0, 0.0, 0.0, 1.0], "bins": [-0.00023110250185709447, -0.00022303326113615185, -0.00021496403496712446, -0.00020689479424618185, -0.00019882555352523923, -0.0001907563128042966, -0.000182687072083354, -0.0001746178459143266, -0.000166548605193384, -0.00015847936447244138, -0.000150410138303414, -0.00014234089758247137, -0.00013427165686152875, -0.00012620241614058614, -0.00011813318269560114, -0.00011006394925061613, -0.00010199470852967352, -9.39254678087309e-05, -8.58562343637459e-05, -7.77870009187609e-05, -6.971776019781828e-05, -6.164851947687566e-05, -5.357928603189066e-05, -4.551004894892685e-05, -3.744081186596304e-05, -2.9371574782999232e-05, -2.1302337700035423e-05, -1.3233100617071614e-05, -5.163863534107804e-06, 2.905373548856005e-06, 1.0974610631819814e-05, 1.9043847714783624e-05, 2.711309934966266e-05, 3.518233643262647e-05, 4.325157351559028e-05, 5.132081059855409e-05, 5.93900476815179e-05, 6.745928840246052e-05, 7.552852184744552e-05, 8.359775529243052e-05, 9.166699601337314e-05, 9.973623673431575e-05, 0.00010780547017930076, 0.00011587470362428576, 0.00012394394434522837, 0.000132013185066171, 0.00014008241123519838, 0.000148151651956141, 0.0001562208926770836, 0.00016429013339802623, 0.00017235937411896884, 0.00018042860028799623, 0.00018849784100893885, 0.00019656708172988147, 0.00020463630789890885, 0.00021270554861985147, 0.0002207747893407941, 0.0002288440300617367, 0.00023691327078267932, 0.00024498251150362194, 0.00025305175222456455, 0.0002611209638416767, 0.00026919020456261933, 0.00027725944528356194, 0.00028532868600450456]}, "gradients/mlp.0.weight": {"_type": "histogram", "values": [1.0, 0.0, 1.0, 1.0, 2.0, 0.0, 0.0, 0.0, 1.0, 2.0, 3.0, 3.0, 4.0, 3.0, 14.0, 8.0, 17.0, 31.0, 31.0, 55.0, 135.0, 196.0, 315.0, 628.0, 1122.0, 2944.0, 6131.0, 2204.0, 933.0, 490.0, 286.0, 215.0, 127.0, 69.0, 37.0, 26.0, 26.0, 18.0, 16.0, 4.0, 5.0, 3.0, 2.0, 3.0, 6.0, 3.0, 0.0, 1.0, 0.0, 1.0, 0.0, 0.0, 0.0, 0.0, 0.0, 0.0, 1.0, 1.0, 0.0, 0.0, 0.0, 0.0, 1.0, 2.0], "bins": [-0.0005955377710051835, -0.0005729612894356251, -0.0005503848078660667, -0.0005278082680888474, -0.000505231786519289, -0.00048265530494973063, -0.00046007882338017225, -0.0004375023127067834, -0.00041492583113722503, -0.00039234934956766665, -0.0003697728388942778, -0.00034719635732471943, -0.00032461987575516105, -0.0003020433650817722, -0.0002794668835122138, -0.000256890372838825, -0.0002343138912692666, -0.000211737395147793, -0.00018916089902631938, -0.000166584417456761, -0.0001440079213352874, -0.00012143142521381378, -9.885493636829779e-05, -7.627844752278179e-05, -5.370195140130818e-05, -3.1125458917813376e-05, -8.548966434318572e-06, 1.4027526049176231e-05, 3.6604018532671034e-05, 5.918051101616584e-05, 8.175700349966064e-05, 0.00010433349234517664, 0.00012690998846665025, 0.00014948648458812386, 0.00017206298070959747, 0.00019463946227915585, 0.00021721595840062946, 0.00023979245452210307, 0.00026236893609166145, 0.0002849454467650503, 0.0003075219283346087, 0.00033009840990416706, 0.0003526749205775559, 0.0003752514021471143, 0.00039782788371667266, 0.0004204043943900615, 0.0004429808759596199, 0.0004655573866330087, 0.0004881338682025671, 0.0005107103497721255, 0.0005332868313416839, 0.0005558633711189032, 0.0005784398526884615, 0.0006010163342580199, 0.0006235928158275783, 0.0006461692973971367, 0.000668745837174356, 0.0006913223187439144, 0.0007138988003134727, 0.0007364752818830311, 0.0007590517634525895, 0.0007816282450221479, 0.0008042047847993672, 0.0008267812663689256, 0.000849357747938484]}, "_wandb": {"runtime": 12538}}