{"total_loss": 0.011359386765398084, "_timestamp": 1717808264.2159119, "rgb_loss": 0.011359386765398084, "_runtime": 103.1834328174591, "_step": 1200, "Rendered Images": {"_type": "images/separated", "width": 256, "height": 256, "format": "png", "count": 5, "filenames": ["media/images/Rendered Images_0_05f77bfb1b10880363b6.png", "media/images/Rendered Images_0_4127cf8f5951287e4380.png", "media/images/Rendered Images_0_edc6006c8444d9b7c8f6.png", "media/images/Rendered Images_0_7cd70c19f0656f7fd6ce.png", "media/images/Rendered Images_0_4ba31893b445e05b8924.png"]}, "Ground-truth Images": {"_type": "images/separated", "width": 256, "height": 256, "format": "png", "count": 5, "filenames": ["media/images/Ground-truth Images_8_e66caac5921126c9a542.png", "media/images/Ground-truth Images_8_d46094b22d91d1bd7d47.png", "media/images/Ground-truth Images_8_c1ae0e380e32a07032f8.png", "media/images/Ground-truth Images_8_b60b263c939c62f4bc58.png", "media/images/Ground-truth Images_8_ab3d98782f1147e7dca7.png"]}, "PSNR": 8.164877107500796, "Epoch": 0, "gradients/graph_1lout.bias": {"_type": "histogram", "values": [2.0, 0.0, 0.0, 0.0, 0.0, 1.0, 0.0, 0.0, 0.0, 0.0, 0.0, 0.0, 0.0, 0.0, 0.0, 0.0, 0.0, 0.0, 0.0, 0.0, 0.0, 0.0, 0.0, 0.0, 0.0, 0.0, 0.0, 0.0, 0.0, 0.0, 0.0, 0.0, 0.0, 0.0, 0.0, 0.0, 0.0, 0.0, 0.0, 0.0, 0.0, 0.0, 0.0, 0.0, 0.0, 0.0, 0.0, 0.0, 0.0, 0.0, 0.0, 0.0, 0.0, 0.0, 0.0, 0.0, 0.0, 0.0, 0.0, 0.0, 0.0, 0.0, 0.0, 1.0], "bins": [-0.00022657621593680233, -0.0002227252844022587, -0.00021887435286771506, -0.00021502342133317143, -0.0002111724897986278, -0.00020732155826408416, -0.00020347062672954053, -0.0001996196951949969, -0.00019576876366045326, -0.00019191783212590963, -0.000188066900591366, -0.00018421596905682236, -0.00018036503752227873, -0.0001765141059877351, -0.00017266317445319146, -0.00016881224291864783, -0.00016496129683218896, -0.00016111036529764533, -0.0001572594337631017, -0.00015340850222855806, -0.00014955757069401443, -0.0001457066391594708, -0.00014185570762492716, -0.00013800477609038353, -0.0001341538445558399, -0.00013030291302129626, -0.00012645198148675263, -0.000122601049952209, -0.00011875011841766536, -0.00011489918688312173, -0.0001110482553485781, -0.00010719732381403446, -0.00010334638500353321, -9.949545346898958e-05, -9.564452193444595e-05, -9.179359039990231e-05, -8.794265158940107e-05, -8.409172005485743e-05, -8.02407885203138e-05, -7.638985698577017e-05, -7.253892545122653e-05, -6.86879939166829e-05, -6.483706238213927e-05, -6.098613084759563e-05, -5.7135199313052e-05, -5.3284267778508365e-05, -4.943333624396473e-05, -4.55824047094211e-05, -4.1731473174877465e-05, -3.7880538002355024e-05, -3.402960646781139e-05, -3.0178674933267757e-05, -2.6327743398724124e-05, -2.247681186418049e-05, -1.8625880329636857e-05, -1.477494697610382e-05, -1.0924015441560186e-05, -7.073083452269202e-06, -3.2221514629782178e-06, 6.287805263127666e-07, 4.479712515603751e-06, 8.330644050147384e-06, 1.218157649418572e-05, 1.6032508938224055e-05, 1.988344047276769e-05]}, "gradients/graph_1lout.weight": {"_type": "histogram", "values": [1.0, 0.0, 0.0, 0.0, 1.0, 0.0, 0.0, 1.0, 0.0, 0.0, 1.0, 0.0, 0.0, 0.0, 1.0, 0.0, 1.0, 3.0, 0.0, 1.0, 2.0, 1.0, 2.0, 0.0, 0.0, 0.0, 0.0, 1.0, 3.0, 0.0, 1.0, 4.0, 5.0, 2.0, 8.0, 11.0, 19.0, 20.0, 34.0, 29.0, 28.0, 28.0, 20.0, 19.0, 9.0, 7.0, 5.0, 4.0, 7.0, 11.0, 9.0, 42.0, 92.0, 62.0, 39.0, 299.0, 94.0, 32.0, 53.0, 5.0, 2.0, 1.0, 3.0, 1.0], "bins": [-0.0010728018824011087, -0.0010536370100453496, -0.0010344721376895905, -0.0010153072653338313, -0.0009961422765627503, -0.0009769774042069912, -0.000957812531851232, -0.0009386476594954729, -0.0009194827871397138, -0.0009003178565762937, -0.0008811529842205346, -0.0008619881118647754, -0.0008428232395090163, -0.0008236583089455962, -0.0008044934365898371, -0.0007853285642340779, -0.0007661636918783188, -0.0007469987613148987, -0.0007278338889591396, -0.0007086690166033804, -0.0006895040860399604, -0.0006703392136842012, -0.0006511743413284421, -0.000632009468972683, -0.0006128445384092629, -0.0005936796660535038, -0.0005745147936977446, -0.0005553498631343246, -0.0005361849907785654, -0.0005170201184228063, -0.0004978552460670471, -0.0004786903446074575, -0.0004595254431478679, -0.0004403605707921088, -0.0004211956693325192, -0.00040203079697676003, -0.00038286589551717043, -0.0003637010231614113, -0.0003445361217018217, -0.00032537124934606254, -0.00030620634788647294, -0.00028704144642688334, -0.0002678765740711242, -0.0002487116726115346, -0.00022954680025577545, -0.00021038189879618585, -0.00019121701188851148, -0.0001720521249808371, -0.00015288723807316273, -0.00013372235116548836, -0.00011455746425781399, -9.5392570074182e-05, -7.622768316650763e-05, -5.706279625883326e-05, -3.789790571318008e-05, -1.8733016986516304e-05, 4.3187174014747143e-07, 1.9596760466811247e-05, 3.876164919347502e-05, 5.79265397391282e-05, 7.709142664680257e-05, 9.625631355447695e-05, 0.00011542120773810893, 0.0001345860946457833, 0.00015375098155345768]}, "gradients/graph_1layers.3.bias": {"_type": "histogram", "values": [1.0, 0.0, 0.0, 0.0, 1.0, 0.0, 2.0, 0.0, 0.0, 2.0, 0.0, 2.0, 1.0, 0.0, 1.0, 1.0, 2.0, 6.0, 2.0, 3.0, 2.0, 6.0, 2.0, 5.0, 1.0, 11.0, 5.0, 6.0, 13.0, 3.0, 8.0, 5.0, 4.0, 3.0, 62.0, 11.0, 6.0, 4.0, 3.0, 5.0, 3.0, 9.0, 1.0, 2.0, 5.0, 2.0, 5.0, 3.0, 3.0, 4.0, 6.0, 4.0, 3.0, 1.0, 0.0, 2.0, 1.0, 4.0, 2.0, 2.0, 1.0, 1.0, 1.0, 2.0], "bins": [-5.0810860557248816e-05, -4.9347920139553025e-05, -4.788498335983604e-05, -4.642204294214025e-05, -4.495910252444446e-05, -4.349616574472748e-05, -4.203322532703169e-05, -4.0570288547314703e-05, -3.910734812961891e-05, -3.764440771192312e-05, -3.618147093220614e-05, -3.471853051451035e-05, -3.3255593734793365e-05, -3.1792653317097574e-05, -3.0329712899401784e-05, -2.8866774300695397e-05, -2.740383570198901e-05, -2.5940897103282623e-05, -2.4477958504576236e-05, -2.3015018086880445e-05, -2.155207948817406e-05, -2.008914088946767e-05, -1.862620047177188e-05, -1.7163261873065494e-05, -1.5700323274359107e-05, -1.423738467565272e-05, -1.2774445167451631e-05, -1.1311505659250543e-05, -9.848567060544156e-06, -8.385628461837769e-06, -6.92268895363668e-06, -5.459749900182942e-06, -3.996810846729204e-06, -2.533871793275466e-06, -1.0709327398217283e-06, 3.9200631363200955e-07, 1.8549453670857474e-06, 3.3178844205394853e-06, 4.780823473993223e-06, 6.243762527446961e-06, 7.706701580900699e-06, 9.169640179607086e-06, 1.0632579687808175e-05, 1.2095519196009263e-05, 1.355845779471565e-05, 1.5021396393422037e-05, 1.6484336811117828e-05, 1.7947275409824215e-05, 1.9410214008530602e-05, 2.087315260723699e-05, 2.2336091205943376e-05, 2.3799031623639166e-05, 2.5261970222345553e-05, 2.672490882105194e-05, 2.818784923874773e-05, 2.9650787837454118e-05, 3.1113726436160505e-05, 3.2576666853856295e-05, 3.403960363357328e-05, 3.550254405126907e-05, 3.696548083098605e-05, 3.842842124868184e-05, 3.9891361666377634e-05, 4.135429844609462e-05, 4.281723886379041e-05]}, "gradients/graph_1layers.3.weight": {"_type": "histogram", "values": [1.0, 0.0, 0.0, 1.0, 2.0, 2.0, 3.0, 2.0, 2.0, 7.0, 9.0, 10.0, 7.0, 14.0, 23.0, 29.0, 26.0, 34.0, 64.0, 47.0, 71.0, 104.0, 146.0, 215.0, 254.0, 349.0, 413.0, 625.0, 918.0, 1280.0, 1707.0, 2450.0, 3787.0, 6085.0, 28680.0, 5637.0, 3194.0, 2202.0, 1578.0, 1149.0, 943.0, 690.0, 591.0, 489.0, 403.0, 300.0, 236.0, 149.0, 143.0, 107.0, 90.0, 69.0, 61.0, 40.0, 32.0, 22.0, 18.0, 11.0, 4.0, 3.0, 2.0, 2.0, 2.0, 2.0], "bins": [-5.607612547464669e-05, -5.445516944746487e-05, -5.283421342028305e-05, -5.121325375512242e-05, -4.9592297727940604e-05, -4.7971341700758785e-05, -4.6350385673576966e-05, -4.472942964639515e-05, -4.310846998123452e-05, -4.14875139540527e-05, -3.986655792687088e-05, -3.8245601899689063e-05, -3.6624645872507244e-05, -3.5003689845325425e-05, -3.33827301801648e-05, -3.176177415298298e-05, -3.014081812580116e-05, -2.8519862098619342e-05, -2.689890425244812e-05, -2.52779482252663e-05, -2.3656990379095078e-05, -2.203603435191326e-05, -2.041507832473144e-05, -1.8794120478560217e-05, -1.7173164451378398e-05, -1.555220842419658e-05, -1.3931250578025356e-05, -1.2310294550843537e-05, -1.0689337614167016e-05, -9.068380677490495e-06, -7.447424195561325e-06, -5.826467713632155e-06, -4.205510776955634e-06, -2.584554067652789e-06, -9.635973583499435e-07, 6.573593509529019e-07, 2.2783160602557473e-06, 3.899272996932268e-06, 5.520229478861438e-06, 7.141185960790608e-06, 8.762142897467129e-06, 1.038309983414365e-05, 1.200405677082017e-05, 1.362501279800199e-05, 1.524596973467851e-05, 1.686692667135503e-05, 1.848788269853685e-05, 2.0108840544708073e-05, 2.1729796571889892e-05, 2.335075259907171e-05, 2.4971710445242934e-05, 2.6592666472424753e-05, 2.8213624318595976e-05, 2.9834580345777795e-05, 3.1455536372959614e-05, 3.307649240014143e-05, 3.469744842732325e-05, 3.631840809248388e-05, 3.79393641196657e-05, 3.9560320146847516e-05, 4.1181276174029335e-05, 4.2802232201211154e-05, 4.442319186637178e-05, 4.60441478935536e-05, 4.766510392073542e-05]}, "gradients/graph_1layers.2.bias": {"_type": "histogram", "values": [1.0, 0.0, 0.0, 0.0, 0.0, 0.0, 0.0, 0.0, 0.0, 0.0, 0.0, 0.0, 0.0, 0.0, 0.0, 0.0, 0.0, 1.0, 1.0, 0.0, 0.0, 1.0, 0.0, 1.0, 1.0, 3.0, 6.0, 5.0, 1.0, 3.0, 12.0, 14.0, 8.0, 8.0, 12.0, 14.0, 10.0, 8.0, 11.0, 25.0, 10.0, 10.0, 8.0, 7.0, 11.0, 14.0, 8.0, 13.0, 4.0, 8.0, 5.0, 3.0, 3.0, 1.0, 2.0, 0.0, 1.0, 0.0, 0.0, 0.0, 1.0, 0.0, 0.0, 1.0], "bins": [-0.00019322398293297738, -0.00018836636445485055, -0.00018350874597672373, -0.0001786511274985969, -0.00017379350902047008, -0.00016893589054234326, -0.00016407827206421643, -0.0001592206535860896, -0.0001543630351079628, -0.00014950541662983596, -0.00014464779815170914, -0.00013979017967358232, -0.0001349325611954555, -0.00013007494271732867, -0.00012521732423920184, -0.00012035970576107502, -0.0001155020872829482, -0.00011064446880482137, -0.00010578685032669455, -0.00010092923184856772, -9.60716133704409e-05, -9.121399489231408e-05, -8.635637641418725e-05, -8.149875793606043e-05, -7.66411394579336e-05, -7.178352097980678e-05, -6.692590250167996e-05, -6.206828402355313e-05, -5.721066554542631e-05, -5.2353047067299485e-05, -4.749542858917266e-05, -4.263781011104584e-05, -3.778019890887663e-05, -3.2922580430749804e-05, -2.806496195262298e-05, -2.3207343474496156e-05, -1.8349724996369332e-05, -1.3492106518242508e-05, -8.634488040115684e-06, -3.7768695619888604e-06, 1.0807489161379635e-06, 5.9383673942647874e-06, 1.0795985872391611e-05, 1.5653604350518435e-05, 2.051122282864526e-05, 2.5368841306772083e-05, 3.0226459784898907e-05, 3.508407826302573e-05, 3.9941696741152555e-05, 4.479931521927938e-05, 4.96569336974062e-05, 5.4514552175533026e-05, 5.937217065365985e-05, 6.422978913178667e-05, 6.90874076099135e-05, 7.394502608804032e-05, 7.880264456616715e-05, 8.366026304429397e-05, 8.85178815224208e-05, 9.337550000054762e-05, 9.823311847867444e-05, 0.00010309073695680127, 0.00010794835543492809, 0.00011280597391305491, 0.00011766359239118174]}, "gradients/graph_1layers.2.weight": {"_type": "histogram", "values": [1.0, 1.0, 3.0, 0.0, 0.0, 1.0, 2.0, 1.0, 0.0, 0.0, 2.0, 4.0, 5.0, 7.0, 14.0, 15.0, 25.0, 25.0, 51.0, 62.0, 92.0, 128.0, 159.0, 292.0, 331.0, 568.0, 1196.0, 2904.0, 8368.0, 40692.0, 12490.0, 3477.0, 1296.0, 672.0, 373.0, 218.0, 167.0, 92.0, 68.0, 45.0, 40.0, 31.0, 22.0, 15.0, 5.0, 9.0, 3.0, 3.0, 1.0, 1.0, 1.0, 0.0, 4.0, 0.0, 0.0, 0.0, 0.0, 0.0, 0.0, 0.0, 1.0, 0.0, 0.0, 1.0], "bins": [-0.00020411027071531862, -0.00019722872821148485, -0.00019034717115573585, -0.00018346562865190208, -0.0001765840861480683, -0.0001697025290923193, -0.00016282098658848554, -0.00015593942953273654, -0.00014905788702890277, -0.000142176344525069, -0.00013529478746932, -0.00012841324496548623, -0.00012153169518569484, -0.00011465014540590346, -0.00010776860290206969, -0.0001008870531222783, -9.400550334248692e-05, -8.712395356269553e-05, -8.024240378290415e-05, -7.336086127907038e-05, -6.647931149927899e-05, -5.959776171948761e-05, -5.271621557767503e-05, -4.583466943586245e-05, -3.895311965607107e-05, -3.207156987627968e-05, -2.5190023734467104e-05, -1.8308475773665123e-05, -1.1426927812863141e-05, -4.54537985206116e-06, 2.3361681087408215e-06, 9.217716069542803e-06, 1.6099278582260013e-05, 2.2980826543061994e-05, 2.9862374503863975e-05, 3.674392064567655e-05, 4.362547042546794e-05, 5.050702020525932e-05, 5.73885663470719e-05, 6.427011248888448e-05, 7.115166226867586e-05, 7.803321204846725e-05, 8.491476182825863e-05, 9.17963043320924e-05, 9.867785411188379e-05, 0.00010555940389167517, 0.00011244094639550894, 0.00011932249617530033, 0.00012620404595509171, 0.00013308558845892549, 0.00013996714551467448, 0.00014684868801850826, 0.00015373024507425725, 0.00016061178757809103, 0.0001674933300819248, 0.0001743748871376738, 0.00018125642964150757, 0.00018813797214534134, 0.00019501952920109034, 0.0002019010717049241, 0.00020878261420875788, 0.00021566417126450688, 0.00022254571376834065, 0.00022942727082408965, 0.00023630881332792342]}, "gradients/graph_1layers.1.bias": {"_type": "histogram", "values": [1.0, 0.0, 0.0, 0.0, 0.0, 0.0, 0.0, 0.0, 0.0, 2.0, 1.0, 0.0, 1.0, 0.0, 0.0, 3.0, 2.0, 4.0, 2.0, 3.0, 1.0, 3.0, 5.0, 4.0, 8.0, 4.0, 4.0, 8.0, 9.0, 0.0, 13.0, 13.0, 6.0, 10.0, 27.0, 24.0, 17.0, 17.0, 16.0, 14.0, 7.0, 6.0, 2.0, 4.0, 1.0, 2.0, 4.0, 1.0, 0.0, 1.0, 2.0, 1.0, 0.0, 1.0, 0.0, 0.0, 0.0, 1.0, 0.0, 0.0, 0.0, 0.0, 0.0, 1.0], "bins": [-0.000706028426066041, -0.0006856726249679923, -0.0006653168238699436, -0.0006449610227718949, -0.0006246052216738462, -0.0006042494205757976, -0.0005838936194777489, -0.0005635378183797002, -0.0005431820172816515, -0.0005228262161836028, -0.0005024704150855541, -0.000482114584883675, -0.0004617587837856263, -0.0004414029826875776, -0.0004210471815895289, -0.00040069138049148023, -0.00038033557939343154, -0.00035997977829538286, -0.00033962397719733417, -0.0003192681760992855, -0.0002989123750012368, -0.0002785565739031881, -0.0002582007728051394, -0.0002378449571551755, -0.00021748915605712682, -0.00019713335495907813, -0.00017677755386102945, -0.00015642175276298076, -0.00013606593711301684, -0.00011571014329092577, -9.535433491691947e-05, -7.499853381887078e-05, -5.4642732720822096e-05, -3.428693162277341e-05, -1.3931126886745915e-05, 6.424676030292176e-06, 2.6780478947330266e-05, 4.713628004537895e-05, 6.749208841938525e-05, 8.784788951743394e-05, 0.00010820369061548263, 0.00012855949171353132, 0.00014891529281158, 0.0001692710939096287, 0.0001896269095595926, 0.0002099827106576413, 0.00023033851175568998, 0.00025069431285373867, 0.00027105011395178735, 0.00029140591504983604, 0.0003117617161478847, 0.0003321175172459334, 0.0003524733183439821, 0.0003728291194420308, 0.0003931849205400795, 0.00041354072163812816, 0.0004338965518400073, 0.000454252352938056, 0.0004746081540361047, 0.0004949639551341534, 0.000515319756232202, 0.0005356755573302507, 0.0005560313584282994, 0.0005763871595263481, 0.0005967429606243968]}, "gradients/graph_1layers.1.weight": {"_type": "histogram", "values": [1.0, 1.0, 1.0, 2.0, 2.0, 1.0, 1.0, 6.0, 6.0, 19.0, 15.0, 22.0, 32.0, 35.0, 40.0, 59.0, 125.0, 125.0, 192.0, 276.0, 357.0, 573.0, 827.0, 1343.0, 2171.0, 4333.0, 11339.0, 32011.0, 6351.0, 2491.0, 1160.0, 606.0, 346.0, 227.0, 138.0, 73.0, 60.0, 50.0, 36.0, 18.0, 14.0, 10.0, 8.0, 14.0, 3.0, 2.0, 2.0, 1.0, 4.0, 1.0, 1.0, 0.0, 2.0, 0.0, 1.0, 0.0, 1.0, 0.0, 0.0, 0.0, 0.0, 0.0, 0.0, 1.0], "bins": [-0.0005915481597185135, -0.0005698521854355931, -0.0005481562111526728, -0.0005264602368697524, -0.000504764262586832, -0.00048306825920008123, -0.00046137228491716087, -0.0004396763106342405, -0.00041798033635132015, -0.0003962843620683998, -0.0003745883877854794, -0.00035289241350255907, -0.00033119641011580825, -0.0003095004358328879, -0.00028780446154996753, -0.00026610848726704717, -0.0002444125129841268, -0.00022271653870120645, -0.00020102056441828609, -0.0001793245755834505, -0.00015762860130053014, -0.00013593262701760978, -0.0001142366454587318, -9.254066389985383e-05, -7.084468961693347e-05, -4.91487116960343e-05, -2.745273377513513e-05, -5.756755854235962e-06, 1.5939222066663206e-05, 3.763519998756237e-05, 5.933117790846154e-05, 8.102715946733952e-05, 0.00010272307554259896, 0.00012441904982551932, 0.00014611502410843968, 0.00016781101294327527, 0.00018950698722619563, 0.000211202961509116, 0.00023289895034395158, 0.00025459492462687194, 0.0002762908989097923, 0.00029798687319271266, 0.000319682847475633, 0.0003413788217585534, 0.0003630748251453042, 0.00038477079942822456, 0.0004064667737111449, 0.0004281627479940653, 0.00044985872227698565, 0.000471554696559906, 0.0004932506708428264, 0.0005149466451257467, 0.0005366426194086671, 0.0005583385936915874, 0.0005800345679745078, 0.0006017305422574282, 0.0006234265165403485, 0.0006451225490309298, 0.0006668185233138502, 0.0006885144975967705, 0.0007102104718796909, 0.0007319064461626112, 0.0007536024204455316, 0.000775298394728452, 0.0007969943690113723]}, "gradients/graph_1layers.0.bias": {"_type": "histogram", "values": [1.0, 0.0, 1.0, 0.0, 0.0, 0.0, 2.0, 0.0, 0.0, 2.0, 0.0, 0.0, 0.0, 2.0, 0.0, 2.0, 0.0, 1.0, 1.0, 3.0, 0.0, 1.0, 1.0, 3.0, 1.0, 6.0, 4.0, 7.0, 5.0, 4.0, 10.0, 8.0, 9.0, 10.0, 22.0, 23.0, 23.0, 21.0, 15.0, 14.0, 10.0, 7.0, 13.0, 2.0, 6.0, 2.0, 4.0, 3.0, 0.0, 2.0, 0.0, 0.0, 1.0, 1.0, 0.0, 0.0, 0.0, 0.0, 0.0, 1.0, 1.0, 0.0, 0.0, 1.0], "bins": [-0.0021329561714082956, -0.0020742202177643776, -0.0020154842641204596, -0.0019567483104765415, -0.0018980123568326235, -0.0018392764031887054, -0.0017805404495447874, -0.0017218044959008694, -0.0016630685422569513, -0.0016043324721977115, -0.0015455965185537934, -0.0014868605649098754, -0.0014281246112659574, -0.0013693886576220393, -0.0013106527039781213, -0.0012519167503342032, -0.0011931807966902852, -0.0011344448430463672, -0.0010757088894024491, -0.001016972935758531, -0.0009582369821146131, -0.0008995009702630341, -0.0008407650166191161, -0.000782029062975198, -0.00072329310933128, -0.000664557155687362, -0.0006058212020434439, -0.0005470852483995259, -0.0004883492365479469, -0.00042961331200785935, -0.00037087732926011086, -0.0003121413756161928, -0.0002534055383875966, -0.00019466958474367857, -0.0001359336165478453, -7.719765562796965e-05, -1.8461694708094e-05, 4.027426621178165e-05, 9.90102271316573e-05, 0.00015774619532749057, 0.0002164821489714086, 0.00027521810261532664, 0.0003339540562592447, 0.0003926900390069932, 0.0004514259926509112, 0.0005101619753986597, 0.0005688979290425777, 0.0006276338826864958, 0.0006863698363304138, 0.0007451057899743319, 0.0008038417436182499, 0.0008625776972621679, 0.000921313650906086, 0.000980049604550004, 0.001038785558193922, 0.00109752151183784, 0.0011562574654817581, 0.001214993535540998, 0.001273729489184916, 0.001332465442828834, 0.001391201396472752, 0.0014499373501166701, 0.0015086733037605882, 0.0015674092574045062, 0.0016261452110484242]}, "gradients/graph_1layers.0.weight": {"_type": "histogram", "values": [1.0, 0.0, 0.0, 0.0, 0.0, 1.0, 2.0, 1.0, 1.0, 2.0, 6.0, 3.0, 9.0, 2.0, 6.0, 11.0, 7.0, 14.0, 16.0, 18.0, 18.0, 23.0, 34.0, 46.0, 39.0, 59.0, 92.0, 128.0, 162.0, 203.0, 294.0, 509.0, 741.0, 1551.0, 1915.0, 894.0, 533.0, 329.0, 233.0, 151.0, 98.0, 77.0, 57.0, 38.0, 30.0, 15.0, 12.0, 16.0, 9.0, 11.0, 7.0, 2.0, 6.0, 1.0, 3.0, 2.0, 1.0, 1.0, 4.0, 2.0, 0.0, 0.0, 1.0, 1.0], "bins": [-0.0030455482192337513, -0.002956373617053032, -0.0028671990148723125, -0.0027780241798609495, -0.00268884957768023, -0.0025996749754995108, -0.0025105003733187914, -0.002421325771138072, -0.002332150936126709, -0.0022429763339459896, -0.0021538017317652702, -0.002064627129584551, -0.0019754525274038315, -0.0018862778088077903, -0.001797103206627071, -0.0017079284880310297, -0.0016187538858503103, -0.001529579283669591, -0.0014404045650735497, -0.0013512299628928304, -0.0012620552442967892, -0.0011728806421160698, -0.0010837060399353504, -0.0009945313213393092, -0.0009053567191585898, -0.0008161820587702096, -0.0007270073983818293, -0.0006378327962011099, -0.0005486581358127296, -0.0004594834754243493, -0.0003703088441397995, -0.00028113421285524964, -0.0001919593196362257, -0.00010278467379976064, -1.3610027963295579e-05, 7.556461787316948e-05, 0.00016473926370963454, 0.00025391392409801483, 0.00034308855538256466, 0.0004322631866671145, 0.0005214378470554948, 0.0006106125074438751, 0.0006997871678322554, 0.0007889617700129747, 0.000878136430401355, 0.0009673110907897353, 0.0010564856929704547, 0.001145660411566496, 0.0012348350137472153, 0.0013240096159279346, 0.0014131843345239758, 0.0015023589367046952, 0.0015915336553007364, 0.0016807082574814558, 0.0017698828596621752, 0.0018590575782582164, 0.0019482321804389358, 0.002037406899034977, 0.0021265815012156963, 0.0022157561033964157, 0.002304930705577135, 0.0023941053077578545, 0.0024832801427692175, 0.002572454744949937, 0.0026616293471306562]}, "gradients/lout.bias": {"_type": "histogram", "values": [1.0, 0.0, 0.0, 0.0, 0.0, 0.0, 0.0, 0.0, 0.0, 1.0, 0.0, 0.0, 0.0, 0.0, 0.0, 0.0, 0.0, 0.0, 0.0, 0.0, 0.0, 0.0, 0.0, 0.0, 0.0, 0.0, 0.0, 0.0, 0.0, 0.0, 0.0, 0.0, 0.0, 0.0, 0.0, 0.0, 0.0, 0.0, 0.0, 0.0, 0.0, 0.0, 0.0, 0.0, 0.0, 0.0, 0.0, 0.0, 0.0, 0.0, 0.0, 0.0, 0.0, 0.0, 0.0, 0.0, 0.0, 1.0, 0.0, 0.0, 0.0, 0.0, 0.0, 1.0], "bins": [-2.5365610781591386e-05, -2.4260871214210056e-05, -2.3156131646828726e-05, -2.2051390260457993e-05, -2.0946650693076663e-05, -1.9841911125695333e-05, -1.87371697393246e-05, -1.763243017194327e-05, -1.652769060456194e-05, -1.542295103718061e-05, -1.4318210560304578e-05, -1.3213470083428547e-05, -1.2108730516047217e-05, -1.1003990948665887e-05, -9.899250471789856e-06, -8.794509994913824e-06, -7.689770427532494e-06, -6.585030405403813e-06, -5.480290383275133e-06, -4.375550361146452e-06, -3.270810339017771e-06, -2.1660703168890905e-06, -1.0613302947604097e-06, 4.340972736827098e-08, 1.1481497494969517e-06, 2.2528897716256324e-06, 3.357629793754313e-06, 4.462369815882994e-06, 5.567109838011675e-06, 6.671849860140355e-06, 7.776589882269036e-06, 8.881330359145068e-06, 9.986069926526397e-06, 1.1090809493907727e-05, 1.2195549970783759e-05, 1.330029044765979e-05, 1.440503001504112e-05, 1.550976958242245e-05, 1.6614510968793184e-05, 1.7719250536174513e-05, 1.8823990103555843e-05, 1.9928729670937173e-05, 2.1033469238318503e-05, 2.2138210624689236e-05, 2.3242950192070566e-05, 2.4347689759451896e-05, 2.545243114582263e-05, 2.655717071320396e-05, 2.766191028058529e-05, 2.876664984796662e-05, 2.987138941534795e-05, 3.097613080171868e-05, 3.208086855011061e-05, 3.318560993648134e-05, 3.4290351322852075e-05, 3.5395089071244e-05, 3.6499830457614735e-05, 3.760457184398547e-05, 3.8709309592377394e-05, 3.981405097874813e-05, 4.091879236511886e-05, 4.202353011351079e-05, 4.312827149988152e-05, 4.423300924827345e-05, 4.533775063464418e-05]}, "gradients/lout.weight": {"_type": "histogram", "values": [1.0, 0.0, 1.0, 0.0, 2.0, 0.0, 0.0, 0.0, 0.0, 3.0, 1.0, 7.0, 1.0, 1.0, 4.0, 5.0, 12.0, 19.0, 20.0, 29.0, 40.0, 66.0, 81.0, 253.0, 56.0, 45.0, 50.0, 56.0, 63.0, 39.0, 35.0, 32.0, 17.0, 18.0, 18.0, 12.0, 11.0, 6.0, 5.0, 2.0, 4.0, 1.0, 2.0, 1.0, 1.0, 1.0, 0.0, 0.0, 0.0, 0.0, 0.0, 0.0, 0.0, 0.0, 0.0, 0.0, 0.0, 0.0, 0.0, 0.0, 0.0, 0.0, 0.0, 3.0], "bins": [-0.00011199932487215847, -0.00010720227874116972, -0.00010240522533422336, -9.760817920323461e-05, -9.281112579628825e-05, -8.80140796652995e-05, -8.321703353431076e-05, -7.84199801273644e-05, -7.362293399637565e-05, -6.88258878653869e-05, -6.402883445844054e-05, -5.9231788327451795e-05, -5.443473855848424e-05, -4.963768878951669e-05, -4.484064265852794e-05, -4.0043592889560387e-05, -3.524654312059283e-05, -3.044949335162528e-05, -2.5652445401647128e-05, -2.0855397451668978e-05, -1.6058347682701424e-05, -1.1261298823228572e-05, -6.464249963755719e-06, -1.6672011042828672e-06, 3.129847755189985e-06, 7.926896614662837e-06, 1.272394547413569e-05, 1.752099342411384e-05, 2.2318043193081394e-05, 2.7115092962048948e-05, 3.1912139093037695e-05, 3.670918886200525e-05, 4.15062386309728e-05, 4.630328839994036e-05, 5.110033816890791e-05, 5.589738429989666e-05, 6.069443406886421e-05, 6.549148383783177e-05, 7.028852996882051e-05, 7.508558337576687e-05, 7.988262950675562e-05, 8.467967563774437e-05, 8.947672904469073e-05, 9.427377517567948e-05, 9.907082130666822e-05, 0.00010386787471361458, 0.00010866492084460333, 0.00011346197425154969, 0.00011825902038253844, 0.0001230560737894848, 0.00012785311264451593, 0.0001326501660514623, 0.00013744721945840865, 0.00014224425831343979, 0.00014704131172038615, 0.0001518383651273325, 0.00015663541853427887, 0.00016143245738931, 0.00016622951079625636, 0.00017102656420320272, 0.00017582360305823386, 0.00018062065646518022, 0.00018541770987212658, 0.0001902147487271577, 0.00019501180213410407]}, "gradients/layers.3.bias": {"_type": "histogram", "values": [2.0, 0.0, 0.0, 0.0, 1.0, 1.0, 0.0, 1.0, 0.0, 0.0, 0.0, 1.0, 1.0, 1.0, 0.0, 0.0, 4.0, 3.0, 1.0, 2.0, 5.0, 5.0, 4.0, 5.0, 4.0, 4.0, 6.0, 7.0, 7.0, 2.0, 8.0, 44.0, 17.0, 23.0, 20.0, 18.0, 9.0, 11.0, 11.0, 9.0, 5.0, 6.0, 0.0, 1.0, 2.0, 1.0, 1.0, 1.0, 0.0, 0.0, 0.0, 0.0, 0.0, 0.0, 1.0, 0.0, 0.0, 0.0, 0.0, 0.0, 0.0, 0.0, 0.0, 1.0], "bins": [-2.8134214517194778e-05, -2.7253669031779282e-05, -2.6373123546363786e-05, -2.549257806094829e-05, -2.4612032575532794e-05, -2.3731487090117298e-05, -2.2850941604701802e-05, -2.1970396119286306e-05, -2.108985063387081e-05, -2.0209305148455314e-05, -1.932875966303982e-05, -1.8448214177624322e-05, -1.7567668692208827e-05, -1.668712320679333e-05, -1.5806577721377835e-05, -1.4926032235962339e-05, -1.4045486750546843e-05, -1.3164941265131347e-05, -1.2284395779715851e-05, -1.1403850294300355e-05, -1.0523304808884859e-05, -9.642759323469363e-06, -8.762213838053867e-06, -7.881668352638371e-06, -7.001122867222875e-06, -6.1205773818073794e-06, -5.2400318963918835e-06, -4.3594864109763876e-06, -3.4789409255608916e-06, -2.5983954401453957e-06, -1.7178499547298998e-06, -8.373044693144038e-07, 4.3239197111688554e-08, 9.237846825271845e-07, 1.8043301679426804e-06, 2.6848756533581764e-06, 3.5654211387736723e-06, 4.445966624189168e-06, 5.326512109604664e-06, 6.20705759502016e-06, 7.087603080435656e-06, 7.968148565851152e-06, 8.848694051266648e-06, 9.729239536682144e-06, 1.060978502209764e-05, 1.1490330507513136e-05, 1.2370875992928632e-05, 1.3251421478344128e-05, 1.4131966963759623e-05, 1.501251244917512e-05, 1.5893057934590615e-05, 1.677360342000611e-05, 1.7654148905421607e-05, 1.8534694390837103e-05, 1.94152398762526e-05, 2.0295785361668095e-05, 2.117633084708359e-05, 2.2056876332499087e-05, 2.2937421817914583e-05, 2.381796730333008e-05, 2.4698512788745575e-05, 2.557905827416107e-05, 2.6459603759576567e-05, 2.7340149244992062e-05, 2.822069473040756e-05]}, "gradients/layers.3.weight": {"_type": "histogram", "values": [1.0, 0.0, 0.0, 1.0, 0.0, 0.0, 0.0, 0.0, 0.0, 0.0, 0.0, 0.0, 1.0, 2.0, 1.0, 3.0, 1.0, 8.0, 7.0, 12.0, 13.0, 23.0, 28.0, 53.0, 100.0, 161.0, 291.0, 672.0, 1664.0, 4429.0, 11944.0, 33099.0, 8604.0, 2673.0, 892.0, 394.0, 196.0, 107.0, 55.0, 30.0, 24.0, 20.0, 5.0, 13.0, 3.0, 1.0, 1.0, 2.0, 0.0, 0.0, 0.0, 0.0, 0.0, 0.0, 0.0, 1.0, 0.0, 0.0, 0.0, 0.0, 0.0, 0.0, 0.0, 1.0], "bins": [-5.696820153389126e-05, -5.515131852007471e-05, -5.333443186827935e-05, -5.15175488544628e-05, -4.970066584064625e-05, -4.78837828268297e-05, -4.6066896175034344e-05, -4.4250013161217794e-05, -4.2433130147401243e-05, -4.0616243495605886e-05, -3.8799360481789336e-05, -3.6982477467972785e-05, -3.5165594454156235e-05, -3.334870780236088e-05, -3.153182478854433e-05, -2.9714941774727777e-05, -2.7898056941921823e-05, -2.608117210911587e-05, -2.426428909529932e-05, -2.2447404262493365e-05, -2.0630521248676814e-05, -1.881363641587086e-05, -1.699675340205431e-05, -1.5179868569248356e-05, -1.3362984645937104e-05, -1.1546100722625852e-05, -9.7292167993146e-06, -7.912332876003347e-06, -6.095448497944744e-06, -4.278564574633492e-06, -2.4616804239485646e-06, -6.447963869504747e-07, 1.1720876500476152e-06, 2.9889715733588673e-06, 4.8058554966701195e-06, 6.6227398747287225e-06, 8.439623343292624e-06, 1.0256508176098578e-05, 1.207339209940983e-05, 1.3890276022721082e-05, 1.5707159036537632e-05, 1.7524043869343586e-05, 1.934092870214954e-05, 2.115781171596609e-05, 2.2974696548772044e-05, 2.4791579562588595e-05, 2.660846439539455e-05, 2.84253474092111e-05, 3.0242232242017053e-05, 3.205911707482301e-05, 3.387600008863956e-05, 3.569288310245611e-05, 3.7509769754251465e-05, 3.9326652768068016e-05, 4.1143535781884566e-05, 4.2960418795701116e-05, 4.4777305447496474e-05, 4.6594188461313024e-05, 4.8411071475129575e-05, 5.022795812692493e-05, 5.204484114074148e-05, 5.386172415455803e-05, 5.567860716837458e-05, 5.749549382016994e-05, 5.931237683398649e-05]}, "gradients/layers.2.bias": {"_type": "histogram", "values": [2.0, 0.0, 1.0, 1.0, 1.0, 0.0, 1.0, 0.0, 1.0, 4.0, 1.0, 0.0, 0.0, 1.0, 0.0, 1.0, 2.0, 4.0, 3.0, 5.0, 1.0, 2.0, 3.0, 4.0, 7.0, 3.0, 0.0, 5.0, 4.0, 4.0, 10.0, 6.0, 5.0, 6.0, 7.0, 8.0, 3.0, 7.0, 7.0, 7.0, 8.0, 3.0, 4.0, 4.0, 11.0, 8.0, 10.0, 17.0, 10.0, 17.0, 10.0, 7.0, 4.0, 5.0, 4.0, 2.0, 3.0, 0.0, 0.0, 0.0, 0.0, 0.0, 1.0, 1.0], "bins": [-8.420960512012243e-05, -8.212216198444366e-05, -8.00347188487649e-05, -7.794726843712851e-05, -7.585982530144975e-05, -7.377238216577098e-05, -7.168493903009221e-05, -6.959749589441344e-05, -6.751004548277706e-05, -6.542260234709829e-05, -6.333515921141952e-05, -6.124771607574075e-05, -5.9160272940061986e-05, -5.707282616640441e-05, -5.498538303072564e-05, -5.289793625706807e-05, -5.08104931213893e-05, -4.872304998571053e-05, -4.6635603212052956e-05, -4.454816007637419e-05, -4.246071330271661e-05, -4.0373270167037845e-05, -3.8285827031359076e-05, -3.61983802577015e-05, -3.411093712202273e-05, -3.2023493986343965e-05, -2.993604721268639e-05, -2.784860407700762e-05, -2.576115912233945e-05, -2.3673714167671278e-05, -2.158627103199251e-05, -1.9498826077324338e-05, -1.7411384760634974e-05, -1.5323939805966802e-05, -1.3236495760793332e-05, -1.1149051715619862e-05, -9.06160676095169e-06, -6.9741622610308696e-06, -4.886717761110049e-06, -2.799273261189228e-06, -7.118287612684071e-07, 1.3756157386524137e-06, 3.4630602385732345e-06, 5.550504738494055e-06, 7.637949238414876e-06, 9.725394193083048e-06, 1.1812838238256518e-05, 1.3900282283429988e-05, 1.598772723809816e-05, 1.807517219276633e-05, 2.0162617147434503e-05, 2.225006028311327e-05, 2.4337505237781443e-05, 2.6424950192449614e-05, 2.8512393328128383e-05, 3.059984010178596e-05, 3.2687283237464726e-05, 3.4774726373143494e-05, 3.686217314680107e-05, 3.894961628247984e-05, 4.103706305613741e-05, 4.312450619181618e-05, 4.521194932749495e-05, 4.7299396101152524e-05, 4.938683923683129e-05]}, "gradients/layers.2.weight": {"_type": "histogram", "values": [2.0, 1.0, 1.0, 2.0, 2.0, 8.0, 9.0, 6.0, 13.0, 14.0, 18.0, 28.0, 28.0, 18.0, 45.0, 54.0, 60.0, 73.0, 112.0, 101.0, 149.0, 155.0, 218.0, 338.0, 454.0, 800.0, 1672.0, 3990.0, 13694.0, 38665.0, 8476.0, 2187.0, 833.0, 511.0, 364.0, 255.0, 190.0, 131.0, 65.0, 59.0, 36.0, 32.0, 19.0, 18.0, 13.0, 8.0, 11.0, 6.0, 11.0, 4.0, 1.0, 2.0, 4.0, 2.0, 3.0, 4.0, 2.0, 1.0, 1.0, 0.0, 2.0, 0.0, 2.0, 1.0], "bins": [-0.00010359562293160707, -0.00010006976663134992, -9.654391033109277e-05, -9.301804675487801e-05, -8.949219045462087e-05, -8.596633415436372e-05, -8.244047057814896e-05, -7.891461427789181e-05, -7.538875797763467e-05, -7.186290167737752e-05, -6.833704537712038e-05, -6.481118180090562e-05, -6.128532550064847e-05, -5.775946920039132e-05, -5.423360926215537e-05, -5.0707749323919415e-05, -4.718189302366227e-05, -4.365603672340512e-05, -4.013017678516917e-05, -3.6604316846933216e-05, -3.307846054667607e-05, -2.955260242742952e-05, -2.602674430818297e-05, -2.250088618893642e-05, -1.897502806968987e-05, -1.544916995044332e-05, -1.192331183119677e-05, -8.39745371195022e-06, -4.87159559270367e-06, -1.3457374734571204e-06, 2.1801206457894295e-06, 5.7059787650359794e-06, 9.23183688428253e-06, 1.275769500352908e-05, 1.628355312277563e-05, 1.980941124202218e-05, 2.333526936126873e-05, 2.686112748051528e-05, 3.038698559976183e-05, 3.391284553799778e-05, 3.743870183825493e-05, 4.0964558138512075e-05, 4.449041807674803e-05, 4.801627801498398e-05, 5.154213431524113e-05, 5.5067990615498275e-05, 5.859385055373423e-05, 6.211971049197018e-05, 6.564556679222733e-05, 6.917142309248447e-05, 7.269727939274162e-05, 7.622314296895638e-05, 7.974899926921353e-05, 8.327485556947067e-05, 8.680071914568543e-05, 9.032657544594258e-05, 9.385243174619973e-05, 9.737828804645687e-05, 0.00010090414434671402, 0.00010443000792292878, 0.00010795586422318593, 0.00011148172052344307, 0.00011500758409965783, 0.00011853344039991498, 0.00012205929670017213]}, "gradients/layers.1.bias": {"_type": "histogram", "values": [1.0, 0.0, 0.0, 0.0, 0.0, 0.0, 0.0, 0.0, 0.0, 2.0, 0.0, 1.0, 2.0, 1.0, 2.0, 2.0, 1.0, 2.0, 4.0, 4.0, 2.0, 5.0, 2.0, 9.0, 5.0, 2.0, 5.0, 6.0, 6.0, 8.0, 8.0, 6.0, 11.0, 23.0, 18.0, 37.0, 26.0, 12.0, 12.0, 8.0, 8.0, 3.0, 2.0, 2.0, 4.0, 1.0, 0.0, 0.0, 0.0, 0.0, 1.0, 0.0, 0.0, 0.0, 0.0, 0.0, 1.0, 0.0, 0.0, 0.0, 0.0, 0.0, 0.0, 1.0], "bins": [-0.0004123217659071088, -0.0004005750815849751, -0.000388828368159011, -0.00037708168383687735, -0.0003653349995147437, -0.00035358831519261, -0.0003418416017666459, -0.00033009491744451225, -0.0003183482331223786, -0.00030660151969641447, -0.0002948548353742808, -0.00028310815105214715, -0.0002713614667300135, -0.00025961475330404937, -0.0002478680689819157, -0.00023612138465978205, -0.00022437468578573316, -0.00021262798691168427, -0.00020088130258955061, -0.00018913460371550173, -0.00017738791939336807, -0.00016564122051931918, -0.00015389453619718552, -0.00014214783732313663, -0.00013040113844908774, -0.00011865445412695408, -0.0001069077625288628, -9.516107093077153e-05, -8.341437205672264e-05, -7.166768045863137e-05, -5.992098886054009e-05, -4.817429726244882e-05, -3.642760566435754e-05, -2.468091406626627e-05, -1.293422064918559e-05, -1.1875281415996142e-06, 1.0559164365986362e-05, 2.2305855964077637e-05, 3.405255120014772e-05, 4.579924279823899e-05, 5.754593439633027e-05, 6.929262599442154e-05, 8.103931759251282e-05, 9.278600919060409e-05, 0.00010453270806465298, 0.00011627939966274425, 0.00012802609126083553, 0.0001397727755829692, 0.00015151947445701808, 0.00016326617333106697, 0.00017501285765320063, 0.00018675955652724952, 0.00019850624084938318, 0.00021025293972343206, 0.00022199962404556572, 0.0002337463229196146, 0.0002454930217936635, 0.00025723970611579716, 0.0002689863904379308, 0.00028073310386389494, 0.0002924797881860286, 0.00030422647250816226, 0.0003159731568302959, 0.00032771987025626004, 0.0003394665545783937]}, "gradients/layers.1.weight": {"_type": "histogram", "values": [1.0, 0.0, 1.0, 0.0, 1.0, 1.0, 1.0, 0.0, 1.0, 4.0, 4.0, 1.0, 7.0, 10.0, 9.0, 17.0, 17.0, 19.0, 24.0, 43.0, 57.0, 66.0, 71.0, 124.0, 121.0, 149.0, 260.0, 300.0, 474.0, 566.0, 811.0, 1252.0, 1881.0, 3284.0, 8168.0, 32443.0, 8781.0, 3180.0, 1482.0, 791.0, 403.0, 247.0, 148.0, 99.0, 58.0, 42.0, 25.0, 29.0, 16.0, 10.0, 6.0, 7.0, 3.0, 4.0, 7.0, 1.0, 4.0, 3.0, 1.0, 0.0, 0.0, 0.0, 0.0, 1.0], "bins": [-0.0003889989457093179, -0.00037807197077199817, -0.0003671449958346784, -0.0003562179917935282, -0.00034529101685620844, -0.0003343640419188887, -0.00032343706698156893, -0.0003125100629404187, -0.00030158308800309896, -0.0002906561130657792, -0.00027972913812845945, -0.0002688021631911397, -0.0002578751591499895, -0.00024694818421266973, -0.00023602120927534997, -0.000225094219786115, -0.00021416724484879524, -0.00020324026991147548, -0.0001923132804222405, -0.00018138630548492074, -0.00017045931599568576, -0.000159532341058366, -0.00014860535156913102, -0.00013767837663181126, -0.0001267514016944915, -0.00011582441220525652, -0.00010489742999197915, -9.397044777870178e-05, -8.304347284138203e-05, -7.211649062810466e-05, -6.118950841482729e-05, -5.026252620154992e-05, -3.933554398827255e-05, -2.8408561774995178e-05, -1.7481581380707212e-05, -6.554600076924544e-06, 4.372381226858124e-06, 1.5299363440135494e-05, 2.622634383442346e-05, 3.7153324228711426e-05, 4.8080306441988796e-05, 5.9007288655266166e-05, 6.993427086854354e-05, 8.08612530818209e-05, 9.178822801914066e-05, 0.00010271521023241803, 0.0001136421924456954, 0.00012456918193493038, 0.00013549615687225014, 0.0001464231318095699, 0.00015735012129880488, 0.00016827709623612463, 0.00017920408572535962, 0.00019013106066267937, 0.00020105805015191436, 0.00021198502508923411, 0.00022291200002655387, 0.00023383898951578885, 0.00024476597900502384, 0.0002556929539423436, 0.00026661992887966335, 0.0002775469038169831, 0.0002884739078581333, 0.00029940088279545307, 0.00031032785773277283]}, "gradients/layers.0.bias": {"_type": "histogram", "values": [1.0, 0.0, 0.0, 0.0, 0.0, 1.0, 0.0, 1.0, 0.0, 3.0, 0.0, 1.0, 0.0, 1.0, 3.0, 1.0, 0.0, 2.0, 4.0, 0.0, 2.0, 4.0, 4.0, 5.0, 7.0, 13.0, 12.0, 16.0, 24.0, 34.0, 33.0, 22.0, 15.0, 16.0, 8.0, 8.0, 3.0, 5.0, 2.0, 1.0, 1.0, 1.0, 1.0, 0.0, 0.0, 0.0, 0.0, 0.0, 0.0, 0.0, 0.0, 0.0, 0.0, 0.0, 0.0, 0.0, 0.0, 0.0, 0.0, 0.0, 0.0, 0.0, 0.0, 1.0], "bins": [-0.00132907391525805, -0.0012846156023442745, -0.001240157289430499, -0.0011956989765167236, -0.0011512406636029482, -0.001106782234273851, -0.0010623239213600755, -0.0010178656084463, -0.0009734072955325246, -0.0009289489826187491, -0.0008844906697049737, -0.0008400322985835373, -0.0007955739856697619, -0.0007511156727559865, -0.0007066573016345501, -0.0006621989887207747, -0.0006177406758069992, -0.0005732823628932238, -0.0005288240499794483, -0.00048436567885801196, -0.0004399073659442365, -0.0003954490530304611, -0.00035099071101285517, -0.00030653236899524927, -0.00026207405608147383, -0.00021761572861578315, -0.00017315740115009248, -0.0001286990736844018, -8.424074621871114e-05, -3.9782418753020465e-05, 4.675908712670207e-06, 4.913423617836088e-05, 9.359256364405155e-05, 0.00013805089110974222, 0.0001825092185754329, 0.00022696754604112357, 0.00027142587350681424, 0.0003158841864205897, 0.0003603425284381956, 0.0004048008704558015, 0.00044925918336957693, 0.0004937174962833524, 0.0005381758091971278, 0.0005826341803185642, 0.0006270924932323396, 0.0006715508061461151, 0.0007160091772675514, 0.0007604674901813269, 0.0008049258030951023, 0.0008493841160088778, 0.0008938424289226532, 0.0009383008000440896, 0.000982759054750204, 0.0010272174840793014, 0.0010716757969930768, 0.0011161341099068522, 0.0011605924228206277, 0.0012050507357344031, 0.0012495090486481786, 0.001293967361561954, 0.0013384257908910513, 0.0013828841038048267, 0.0014273424167186022, 0.0014718007296323776, 0.001516259042546153]}, "gradients/layers.0.weight": {"_type": "histogram", "values": [1.0, 0.0, 0.0, 0.0, 1.0, 1.0, 1.0, 2.0, 0.0, 1.0, 0.0, 3.0, 5.0, 1.0, 1.0, 4.0, 6.0, 5.0, 14.0, 20.0, 19.0, 15.0, 23.0, 36.0, 18.0, 47.0, 57.0, 77.0, 103.0, 140.0, 230.0, 314.0, 561.0, 1058.0, 2282.0, 1462.0, 701.0, 435.0, 239.0, 157.0, 91.0, 82.0, 45.0, 42.0, 31.0, 26.0, 15.0, 12.0, 11.0, 6.0, 8.0, 5.0, 7.0, 7.0, 2.0, 1.0, 2.0, 3.0, 1.0, 3.0, 2.0, 3.0, 0.0, 3.0], "bins": [-0.0019784134346991777, -0.0019214308122172952, -0.0018644481897354126, -0.00180746556725353, -0.0017504829447716475, -0.0016935003222897649, -0.0016365176998078823, -0.0015795350773259997, -0.0015225524548441172, -0.0014655697159469128, -0.0014085870934650302, -0.0013516044709831476, -0.001294621848501265, -0.0012376392260193825, -0.0011806566035375, -0.0011236739810556173, -0.0010666913585737348, -0.0010097087360918522, -0.0009527261136099696, -0.000895743491128087, -0.0008387608686462045, -0.000781778187956661, -0.0007247955654747784, -0.0006678129429928958, -0.0006108303205110133, -0.0005538476980291307, -0.0004968650755472481, -0.0004398824239615351, -0.0003828998014796525, -0.00032591717899776995, -0.0002689345274120569, -0.00021195190493017435, -0.00015496916603296995, -9.798653627512977e-05, -4.100390651728958e-05, 1.5978723240550607e-05, 7.29613529983908e-05, 0.00012994397548027337, 0.00018692661251407117, 0.00024390924954786897, 0.00030089187202975154, 0.0003578744945116341, 0.0004148571169935167, 0.0004718397685792297, 0.0005288224201649427, 0.0005858050426468253, 0.0006427876651287079, 0.0006997702876105905, 0.000756752910092473, 0.0008137355325743556, 0.0008707181550562382, 0.0009277007775381207, 0.0009846834000200033, 0.0010416660225018859, 0.0010986486449837685, 0.001155631267465651, 0.0012126138899475336, 0.001269596628844738, 0.0013265792513266206, 0.0013835618738085032, 0.0014405444962903857, 0.0014975271187722683, 0.0015545097412541509, 0.0016114923637360334, 0.001668474986217916]}, "_wandb": {"runtime": 109}}