{"total_loss": 0.0025960790895624085, "_timestamp": 1717806350.102161, "rgb_loss": 0.0025960790895624085, "_runtime": 5316.9511070251465, "_step": 64100, "Rendered Images": {"_type": "images/separated", "width": 256, "height": 256, "format": "png", "count": 5, "filenames": ["media/images/Rendered Images_64000_121c599fdcb6be5fa5a3.png", "media/images/Rendered Images_64000_af70569e8248b3232794.png", "media/images/Rendered Images_64000_aa1b6cea289b40d7f525.png", "media/images/Rendered Images_64000_b5e79cb39f1814e90159.png", "media/images/Rendered Images_64000_862d46cb4b12ef0bb9cb.png"]}, "Ground-truth Images": {"_type": "images/separated", "width": 256, "height": 256, "format": "png", "count": 5, "filenames": ["media/images/Ground-truth Images_64008_e66caac5921126c9a542.png", "media/images/Ground-truth Images_64008_d46094b22d91d1bd7d47.png", "media/images/Ground-truth Images_64008_c1ae0e380e32a07032f8.png", "media/images/Ground-truth Images_64008_b60b263c939c62f4bc58.png", "media/images/Ground-truth Images_64008_ab3d98782f1147e7dca7.png"]}, "PSNR": 33.31944100168044, "Epoch": 8000, "gradients/graph_1lout.bias": {"_type": "histogram", "values": [1.0, 0.0, 0.0, 0.0, 0.0, 0.0, 0.0, 0.0, 0.0, 0.0, 0.0, 0.0, 0.0, 0.0, 0.0, 0.0, 0.0, 0.0, 0.0, 0.0, 0.0, 0.0, 0.0, 0.0, 0.0, 0.0, 0.0, 0.0, 0.0, 0.0, 0.0, 0.0, 0.0, 0.0, 0.0, 0.0, 0.0, 0.0, 0.0, 0.0, 0.0, 0.0, 0.0, 1.0, 0.0, 0.0, 0.0, 0.0, 0.0, 0.0, 0.0, 0.0, 0.0, 0.0, 0.0, 0.0, 0.0, 0.0, 0.0, 0.0, 1.0, 0.0, 0.0, 1.0], "bins": [1.3607616892841179e-05, 1.7728474631439894e-05, 2.1849333279533312e-05, 2.5970190108637325e-05, 3.009104693774134e-05, 3.4211905585834756e-05, 3.8332764233928174e-05, 4.2453619244042784e-05, 4.65744778921362e-05, 5.069533654022962e-05, 5.4816195188323036e-05, 5.893705383641645e-05, 6.305790884653106e-05, 6.717877113260329e-05, 7.12996261427179e-05, 7.542048115283251e-05, 7.954134343890473e-05, 8.366219844901934e-05, 8.778305345913395e-05, 9.190391574520618e-05, 9.602477075532079e-05, 0.0001001456257654354, 0.00010426648805150762, 0.00010838734306162223, 0.00011250820534769446, 0.00011662906035780907, 0.00012074991536792368, 0.0001248707703780383, 0.00012899163994006813, 0.00013311249495018274, 0.00013723334996029735, 0.00014135420497041196, 0.00014547505998052657, 0.00014959591499064118, 0.0001537167700007558, 0.00015783763956278563, 0.00016195849457290024, 0.00016607934958301485, 0.00017020020459312946, 0.00017432105960324407, 0.0001784419291652739, 0.00018256278417538851, 0.00018668363918550313, 0.00019080449419561774, 0.00019492534920573235, 0.00019904620421584696, 0.0002031670737778768, 0.0002072879287879914, 0.00021140878379810601, 0.00021552963880822062, 0.00021965049381833524, 0.00022377136338036507, 0.00022789221839047968, 0.0002320130734005943, 0.0002361339284107089, 0.00024025478342082351, 0.0002443756384309381, 0.00024849650799296796, 0.00025261734845116735, 0.0002567382180131972, 0.000260859087575227, 0.0002649799280334264, 0.00026910079759545624, 0.0002732216380536556, 0.00027734250761568546]}, "gradients/graph_1lout.weight": {"_type": "histogram", "values": [1.0, 1.0, 3.0, 4.0, 2.0, 7.0, 24.0, 100.0, 754.0, 57.0, 14.0, 11.0, 6.0, 6.0, 1.0, 3.0, 5.0, 1.0, 0.0, 2.0, 2.0, 1.0, 1.0, 2.0, 2.0, 4.0, 0.0, 0.0, 1.0, 1.0, 0.0, 0.0, 0.0, 0.0, 1.0, 1.0, 0.0, 0.0, 1.0, 0.0, 0.0, 0.0, 1.0, 1.0, 0.0, 0.0, 0.0, 0.0, 1.0, 0.0, 0.0, 0.0, 0.0, 0.0, 0.0, 0.0, 0.0, 1.0, 0.0, 0.0, 0.0, 0.0, 0.0, 1.0], "bins": [-0.00030736791086383164, -0.0002696557203307748, -0.00023194352979771793, -0.0001942313538165763, -0.00015651916328351945, -0.00011880697275046259, -8.109478949336335e-05, -4.33826025982853e-05, -5.670415703207254e-06, 3.2041771191870794e-05, 6.975395808694884e-05, 0.00010746614134404808, 0.00014517833187710494, 0.0001828905224101618, 0.00022060269839130342, 0.0002583148889243603, 0.00029602707945741713, 0.000333739269990474, 0.00037145146052353084, 0.0004091636510565877, 0.0004468758124858141, 0.00048458800301887095, 0.0005223001935519278, 0.0005600124131888151, 0.0005977245746180415, 0.0006354367360472679, 0.0006731489556841552, 0.0007108611171133816, 0.0007485733367502689, 0.0007862854981794953, 0.0008239977178163826, 0.000861709879245609, 0.0008994220988824964, 0.0009371342603117228, 0.0009748464799486101, 0.0010125586995854974, 0.0010502708610147238, 0.0010879830224439502, 0.0011256951838731766, 0.0011634074617177248, 0.0012011196231469512, 0.0012388317845761776, 0.001276543946005404, 0.0013142561074346304, 0.0013519683852791786, 0.001389680546708405, 0.0014273927081376314, 0.0014651048695668578, 0.0015028170309960842, 0.0015405293088406324, 0.0015782414702698588, 0.0016159536316990852, 0.0016536657931283116, 0.0016913780709728599, 0.0017290902324020863, 0.0017668023938313127, 0.001804514555260539, 0.0018422267166897655, 0.0018799389945343137, 0.00191765115596354, 0.0019553634338080883, 0.001993075478821993, 0.002030787756666541, 0.0020684998016804457, 0.002106212079524994]}, "gradients/graph_1layers.3.bias": {"_type": "histogram", "values": [1.0, 0.0, 0.0, 0.0, 0.0, 0.0, 0.0, 0.0, 0.0, 0.0, 0.0, 0.0, 0.0, 0.0, 0.0, 0.0, 0.0, 0.0, 0.0, 1.0, 0.0, 3.0, 0.0, 0.0, 0.0, 1.0, 0.0, 2.0, 0.0, 1.0, 0.0, 1.0, 0.0, 2.0, 1.0, 4.0, 6.0, 5.0, 9.0, 14.0, 118.0, 34.0, 19.0, 10.0, 3.0, 3.0, 2.0, 1.0, 1.0, 1.0, 0.0, 1.0, 1.0, 1.0, 1.0, 2.0, 1.0, 2.0, 2.0, 1.0, 0.0, 0.0, 0.0, 1.0], "bins": [-6.470979133155197e-05, -6.312371260719374e-05, -6.153764115879312e-05, -5.99515660724137e-05, -5.8365490986034274e-05, -5.677941226167604e-05, -5.519333717529662e-05, -5.3607262088917196e-05, -5.202118700253777e-05, -5.043511191615835e-05, -4.8849036829778925e-05, -4.72629617433995e-05, -4.567688301904127e-05, -4.4090807932661846e-05, -4.250473284628242e-05, -4.0918657759903e-05, -3.9332582673523575e-05, -3.774650758714415e-05, -3.616043250076473e-05, -3.4574357414385304e-05, -3.298828232800588e-05, -3.140220360364765e-05, -2.9816128517268226e-05, -2.8230053430888802e-05, -2.6643978344509378e-05, -2.5057903258129954e-05, -2.347182817175053e-05, -2.1885751266381703e-05, -2.029967618000228e-05, -1.8713601093622856e-05, -1.712752418825403e-05, -1.5541449101874605e-05, -1.3955370377516374e-05, -1.236929529113695e-05, -1.0783219295262825e-05, -9.1971432993887e-06, -7.6110682130092755e-06, -6.024992671882501e-06, -4.438917130755726e-06, -2.8528415896289516e-06, -1.266766048502177e-06, 3.193094926245976e-07, 1.9053850337513722e-06, 3.491460574878147e-06, 5.0775361160049215e-06, 6.663611657131696e-06, 8.24968719825847e-06, 9.835763194132596e-06, 1.142183828051202e-05, 1.3007913366891444e-05, 1.459398936276557e-05, 1.6180065358639695e-05, 1.776614044501912e-05, 1.9352215531398542e-05, 2.093829243676737e-05, 2.2524367523146793e-05, 2.4110442609526217e-05, 2.569651769590564e-05, 2.7282592782285064e-05, 2.8868669687653892e-05, 3.0454744774033315e-05, 3.204082167940214e-05, 3.3626896765781567e-05, 3.521297185216099e-05, 3.6799046938540414e-05]}, "gradients/graph_1layers.3.weight": {"_type": "histogram", "values": [2.0, 0.0, 0.0, 0.0, 1.0, 2.0, 0.0, 1.0, 3.0, 2.0, 5.0, 4.0, 7.0, 5.0, 14.0, 23.0, 18.0, 37.0, 57.0, 86.0, 133.0, 246.0, 455.0, 1942.0, 60139.0, 1380.0, 347.0, 161.0, 104.0, 76.0, 55.0, 39.0, 41.0, 23.0, 19.0, 18.0, 17.0, 7.0, 13.0, 4.0, 11.0, 6.0, 5.0, 6.0, 3.0, 1.0, 3.0, 0.0, 1.0, 2.0, 4.0, 3.0, 0.0, 0.0, 0.0, 0.0, 2.0, 1.0, 0.0, 0.0, 0.0, 0.0, 1.0, 1.0], "bins": [-0.0001433810975868255, -0.00013751040387433022, -0.00013163971016183496, -0.00012576900189742446, -0.00011989830818492919, -0.00011402761447243392, -0.00010815692075993866, -0.00010228621977148578, -9.641552605899051e-05, -9.054483234649524e-05, -8.467413135804236e-05, -7.880343764554709e-05, -7.293274393305182e-05, -6.706204294459894e-05, -6.119134923210368e-05, -5.53206518816296e-05, -4.944995453115553e-05, -4.357925718068145e-05, -3.770855983020738e-05, -3.183786611771211e-05, -2.5967168767238036e-05, -2.009647141676396e-05, -1.422577588527929e-05, -8.355079444299918e-06, -2.484383003320545e-06, 3.3863134376588278e-06, 9.2570098786382e-06, 1.5127706319617573e-05, 2.0998402760596946e-05, 2.686910011107102e-05, 3.273979382356629e-05, 3.861049117404036e-05, 4.4481203076429665e-05, 5.035190042690374e-05, 5.6222597777377814e-05, 6.209329148987308e-05, 6.796399247832596e-05, 7.383468619082123e-05, 7.97053799033165e-05, 8.557608089176938e-05, 9.144677460426465e-05, 9.731746831675991e-05, 0.0001031881693052128, 0.00010905886301770806, 0.00011492955673020333, 0.00012080025771865621, 0.0001266709587071091, 0.00013254165241960436, 0.00013841234613209963, 0.0001442830398445949, 0.00015015373355709016, 0.00015602444182150066, 0.00016189513553399593, 0.0001677658292464912, 0.00017363652295898646, 0.00017950721667148173, 0.00018537792493589222, 0.0001912486186483875, 0.00019711931236088276, 0.00020299000607337803, 0.0002088606997858733, 0.00021473139349836856, 0.00022060210176277906, 0.00022647279547527432, 0.0002323434891877696]}, "gradients/graph_1layers.2.bias": {"_type": "histogram", "values": [2.0, 0.0, 0.0, 0.0, 0.0, 0.0, 0.0, 0.0, 0.0, 0.0, 0.0, 1.0, 1.0, 1.0, 0.0, 0.0, 0.0, 2.0, 3.0, 1.0, 3.0, 2.0, 1.0, 4.0, 8.0, 2.0, 2.0, 11.0, 8.0, 28.0, 33.0, 47.0, 29.0, 15.0, 8.0, 5.0, 7.0, 5.0, 6.0, 3.0, 2.0, 2.0, 1.0, 2.0, 2.0, 0.0, 0.0, 4.0, 1.0, 0.0, 0.0, 1.0, 1.0, 1.0, 0.0, 0.0, 0.0, 0.0, 0.0, 0.0, 0.0, 0.0, 0.0, 1.0], "bins": [-0.0001012929787975736, -9.806027810554951e-05, -9.482758468948305e-05, -9.159488399745896e-05, -8.836218330543488e-05, -8.51294826134108e-05, -8.189678192138672e-05, -7.866408850532025e-05, -7.543138781329617e-05, -7.219868712127209e-05, -6.896599370520562e-05, -6.573329301318154e-05, -6.250059232115746e-05, -5.9267891629133373e-05, -5.60351945750881e-05, -5.2802497521042824e-05, -4.956979682901874e-05, -4.633709613699466e-05, -4.3104399082949385e-05, -3.987170202890411e-05, -3.663900133688003e-05, -3.3406300644855946e-05, -3.017360359081067e-05, -2.6940904717775993e-05, -2.3708205844741315e-05, -2.0475506971706636e-05, -1.7242808098671958e-05, -1.401010922563728e-05, -1.0777410352602601e-05, -7.544711479567923e-06, -4.312012606533244e-06, -1.0793137334985659e-06, 2.1533778635784984e-06, 5.386076736613177e-06, 8.618775609647855e-06, 1.1851474482682534e-05, 1.5084173355717212e-05, 1.831687222875189e-05, 2.154957110178657e-05, 2.4782269974821247e-05, 2.8014968847855926e-05, 3.124766953988001e-05, 3.448036659392528e-05, 3.771306364797056e-05, 4.094576433999464e-05, 4.417846503201872e-05, 4.7411162086063996e-05, 5.064385914010927e-05, 5.387655983213335e-05, 5.7109260524157435e-05, 6.034195757820271e-05, 6.357465463224798e-05, 6.680735532427207e-05, 7.004005601629615e-05, 7.327274943236262e-05, 7.65054501243867e-05, 7.973815081641078e-05, 8.297085150843486e-05, 8.620355220045894e-05, 8.943624561652541e-05, 9.26689463085495e-05, 9.590164700057358e-05, 9.913434041664004e-05, 0.00010236704110866413, 0.00010559974180068821]}, "gradients/graph_1layers.2.weight": {"_type": "histogram", "values": [1.0, 0.0, 0.0, 0.0, 0.0, 0.0, 0.0, 0.0, 0.0, 1.0, 0.0, 0.0, 1.0, 1.0, 0.0, 1.0, 1.0, 1.0, 3.0, 2.0, 1.0, 2.0, 6.0, 6.0, 9.0, 14.0, 22.0, 28.0, 30.0, 30.0, 52.0, 66.0, 128.0, 161.0, 246.0, 469.0, 932.0, 2877.0, 60669.0, 5325.0, 1417.0, 592.0, 317.0, 191.0, 112.0, 89.0, 57.0, 28.0, 28.0, 20.0, 13.0, 9.0, 8.0, 3.0, 2.0, 3.0, 3.0, 0.0, 2.0, 3.0, 0.0, 0.0, 0.0, 2.0], "bins": [-0.0002929812471847981, -0.0002854054037015885, -0.0002778295602183789, -0.0002702537167351693, -0.0002626778732519597, -0.00025510202976875007, -0.00024752618628554046, -0.00023995035735424608, -0.00023237451387103647, -0.00022479867038782686, -0.00021722282690461725, -0.00020964698342140764, -0.00020207115449011326, -0.00019449531100690365, -0.00018691946752369404, -0.00017934362404048443, -0.00017176778055727482, -0.0001641919370740652, -0.0001566160935908556, -0.000149040250107646, -0.00014146440662443638, -0.000133888577693142, -0.0001263127342099324, -0.00011873689072672278, -0.00011116104724351317, -0.00010358520376030356, -9.600936027709395e-05, -8.843352406984195e-05, -8.085768058663234e-05, -7.328183710342273e-05, -6.570600089617074e-05, -5.8130157412961125e-05, -5.0554313929751515e-05, -4.2978470446541905e-05, -3.54026306013111e-05, -2.7826788937090896e-05, -2.025094727287069e-05, -1.2675105608650483e-05, -5.099263944430277e-06, 2.4765777197899297e-06, 1.0052419384010136e-05, 1.7628261048230343e-05, 2.520410271245055e-05, 3.277994255768135e-05, 4.035578604089096e-05, 4.793162952410057e-05, 5.5507469369331375e-05, 6.308330921456218e-05, 7.065915269777179e-05, 7.82349961809814e-05, 8.581083966419101e-05, 9.3386675871443e-05, 0.00010096251935465261, 0.00010853836283786222, 0.00011611419904511422, 0.00012369004252832383, 0.00013126588601153344, 0.00013884172949474305, 0.00014641757297795266, 0.00015399341646116227, 0.00016156924539245665, 0.00016914508887566626, 0.00017672093235887587, 0.00018429677584208548, 0.0001918726193252951]}, "gradients/graph_1layers.1.bias": {"_type": "histogram", "values": [1.0, 0.0, 0.0, 0.0, 0.0, 0.0, 1.0, 0.0, 0.0, 1.0, 1.0, 0.0, 1.0, 1.0, 1.0, 1.0, 1.0, 2.0, 2.0, 3.0, 0.0, 2.0, 2.0, 2.0, 7.0, 3.0, 7.0, 18.0, 22.0, 73.0, 29.0, 24.0, 18.0, 7.0, 9.0, 3.0, 1.0, 1.0, 0.0, 2.0, 2.0, 0.0, 1.0, 0.0, 0.0, 1.0, 1.0, 0.0, 0.0, 1.0, 0.0, 0.0, 0.0, 1.0, 0.0, 0.0, 2.0, 0.0, 0.0, 0.0, 0.0, 0.0, 0.0, 1.0], "bins": [-0.000285490183159709, -0.00027590259560383856, -0.00026631500804796815, -0.00025672742049209774, -0.0002471398329362273, -0.00023755225993227214, -0.00022796467237640172, -0.0002183770848205313, -0.0002087894972646609, -0.00019920190970879048, -0.00018961432215292007, -0.00018002673459704965, -0.00017043916159309447, -0.00016085157403722405, -0.00015126398648135364, -0.00014167639892548323, -0.0001320888113696128, -0.0001225012238137424, -0.00011291363625787199, -0.00010332605597795919, -9.373846842208877e-05, -8.415088086621836e-05, -7.456330058630556e-05, -6.497571303043514e-05, -5.538812547456473e-05, -4.580053791869432e-05, -3.621295400080271e-05, -2.66253682639217e-05, -1.703778252704069e-05, -7.45019679015968e-06, 2.1373889467213303e-06, 1.172497468360234e-05, 2.1312589524313807e-05, 3.090017708018422e-05, 4.048776099807583e-05, 5.0075344915967435e-05, 5.966293247183785e-05, 6.925052002770826e-05, 7.883810030762106e-05, 8.842568786349148e-05, 9.801327541936189e-05, 0.0001076008629752323, 0.00011718845053110272, 0.00012677603808697313, 0.00013636361109092832, 0.00014595119864679873, 0.00015553878620266914, 0.00016512637375853956, 0.00017471396131440997, 0.00018430154887028039, 0.0001938891364261508, 0.0002034767239820212, 0.00021306431153789163, 0.0002226518845418468, 0.00023223947209771723, 0.00024182705965358764, 0.0002514146617613733, 0.00026100222021341324, 0.00027058980776928365, 0.00028017739532515407, 0.0002897649828810245, 0.0002993525704368949, 0.0003089401579927653, 0.0003185277455486357, 0.00032811533310450613]}, "gradients/graph_1layers.1.weight": {"_type": "histogram", "values": [1.0, 0.0, 1.0, 0.0, 0.0, 0.0, 1.0, 0.0, 1.0, 2.0, 2.0, 1.0, 3.0, 3.0, 3.0, 4.0, 8.0, 7.0, 9.0, 9.0, 20.0, 19.0, 25.0, 41.0, 62.0, 89.0, 146.0, 280.0, 501.0, 1334.0, 45471.0, 15439.0, 1124.0, 367.0, 183.0, 96.0, 69.0, 42.0, 40.0, 18.0, 23.0, 23.0, 6.0, 3.0, 11.0, 11.0, 8.0, 4.0, 2.0, 1.0, 4.0, 3.0, 3.0, 3.0, 1.0, 2.0, 2.0, 1.0, 1.0, 0.0, 0.0, 1.0, 1.0, 1.0], "bins": [-0.0005612451350316405, -0.0005431299214251339, -0.0005250147078186274, -0.0005068994360044599, -0.0004887842223979533, -0.0004706690087914467, -0.0004525537951849401, -0.00043443855247460306, -0.00041632333886809647, -0.0003982081252615899, -0.00038009288255125284, -0.00036197766894474626, -0.00034386245533823967, -0.0003257472126279026, -0.00030763199902139604, -0.000289516756311059, -0.0002714015427045524, -0.0002532863290980458, -0.00023517108638770878, -0.0002170558727812022, -0.00019894064462278038, -0.00018082541646435857, -0.00016271020285785198, -0.00014459497469943017, -0.00012647974654100835, -0.00010836451838258654, -9.024929750012234e-05, -7.213407661765814e-05, -5.4018848459236324e-05, -3.5903623938793316e-05, -1.778839941835031e-05, 3.268251020926982e-07, 1.844210783019662e-05, 3.6557332350639626e-05, 5.4672556871082634e-05, 7.278777775354683e-05, 9.090300591196865e-05, 0.00010901823407039046, 0.00012713344767689705, 0.00014524867583531886, 0.00016336390399374068, 0.0001814791321521625, 0.0001995943603105843, 0.0002177095739170909, 0.0002358248020755127, 0.0002539400302339345, 0.0002720552438404411, 0.00029017048655077815, 0.00030828570015728474, 0.0003264009137637913, 0.00034451615647412837, 0.00036263137008063495, 0.000380746612790972, 0.0003988618263974786, 0.00041697704000398517, 0.0004350922827143222, 0.0004532074963208288, 0.0004713227099273354, 0.0004894379526376724, 0.000507553166244179, 0.0005256683798506856, 0.0005437835934571922, 0.0005618988652713597, 0.0005800140788778663, 0.0005981292924843729]}, "gradients/graph_1layers.0.bias": {"_type": "histogram", "values": [1.0, 0.0, 2.0, 1.0, 2.0, 1.0, 0.0, 0.0, 2.0, 0.0, 1.0, 3.0, 2.0, 1.0, 6.0, 4.0, 4.0, 2.0, 4.0, 4.0, 4.0, 10.0, 8.0, 13.0, 18.0, 50.0, 26.0, 18.0, 19.0, 12.0, 4.0, 7.0, 2.0, 3.0, 1.0, 4.0, 4.0, 1.0, 1.0, 1.0, 0.0, 1.0, 2.0, 0.0, 2.0, 0.0, 1.0, 0.0, 1.0, 0.0, 0.0, 1.0, 0.0, 0.0, 0.0, 0.0, 0.0, 0.0, 0.0, 1.0, 0.0, 0.0, 0.0, 1.0], "bins": [-0.0007856658776290715, -0.0007552350871264935, -0.0007248042384162545, -0.0006943734479136765, -0.0006639426574110985, -0.0006335118087008595, -0.0006030810181982815, -0.0005726501694880426, -0.0005422193789854646, -0.0005117885884828866, -0.0004813577397726476, -0.0004509269492700696, -0.0004204961296636611, -0.00039006531005725265, -0.0003596345195546746, -0.00032920369994826615, -0.00029877288034185767, -0.0002683420607354492, -0.00023791125568095595, -0.0002074804506264627, -0.00017704963102005422, -0.00014661881141364574, -0.0001161880063591525, -8.575719402870163e-05, -5.532638169825077e-05, -2.4895569367799908e-05, 5.535242962650955e-06, 3.596605529310182e-05, 6.639686762355268e-05, 9.682767995400354e-05, 0.0001272584922844544, 0.00015768929733894765, 0.00018812005873769522, 0.0002185508783441037, 0.00024898169795051217, 0.0002794124884530902, 0.00030984330805949867, 0.00034027412766590714, 0.00037070491816848516, 0.00040113573777489364, 0.0004315665573813021, 0.0004619973769877106, 0.0004924281965941191, 0.0005228589870966971, 0.0005532897775992751, 0.000583720626309514, 0.0006141514168120921, 0.000644582265522331, 0.000675013056024909, 0.000705443846527487, 0.000735874695237726, 0.000766305485740304, 0.0007967363344505429, 0.000827167124953121, 0.000857597915455699, 0.0008880287641659379, 0.0009184595546685159, 0.0009488903451710939, 0.0009793211938813329, 0.0010097520425915718, 0.001040182774886489, 0.0010706136235967278, 0.0011010444723069668, 0.0011314752046018839, 0.0011619060533121228]}, "gradients/graph_1layers.0.weight": {"_type": "histogram", "values": [2.0, 1.0, 0.0, 1.0, 1.0, 3.0, 1.0, 2.0, 1.0, 1.0, 1.0, 3.0, 6.0, 5.0, 12.0, 18.0, 12.0, 19.0, 19.0, 29.0, 17.0, 32.0, 44.0, 57.0, 100.0, 92.0, 97.0, 138.0, 182.0, 317.0, 420.0, 827.0, 2791.0, 1287.0, 615.0, 330.0, 253.0, 151.0, 116.0, 82.0, 93.0, 67.0, 38.0, 32.0, 25.0, 17.0, 12.0, 10.0, 12.0, 8.0, 12.0, 4.0, 5.0, 10.0, 2.0, 3.0, 2.0, 1.0, 1.0, 3.0, 1.0, 1.0, 1.0, 3.0], "bins": [-0.0012049117358401418, -0.0011682063341140747, -0.0011315008159726858, -0.0010947954142466187, -0.0010580900125205517, -0.0010213846107944846, -0.0009846792090684175, -0.0009479736909270287, -0.0009112682892009616, -0.0008745628874748945, -0.0008378574275411665, -0.0008011519676074386, -0.0007644465658813715, -0.0007277411641553044, -0.0006910357042215765, -0.0006543302442878485, -0.0006176248425617814, -0.0005809194408357143, -0.0005442139809019864, -0.0005075085209682584, -0.0004708031192421913, -0.0004340976884122938, -0.00039739225758239627, -0.00036068682675249875, -0.0003239813959226012, -0.0002872759650927037, -0.0002505705342628062, -0.00021386510343290865, -0.00017715967260301113, -0.0001404542417731136, -0.00010374881094321609, -6.704338011331856e-05, -3.0337832868099213e-05, 6.36759796179831e-06, 4.307302879169583e-05, 7.977845962159336e-05, 0.00011648389045149088, 0.0001531893212813884, 0.00018989475211128592, 0.00022660018294118345, 0.00026330561377108097, 0.0003000110446009785, 0.000336716475430876, 0.00037342190626077354, 0.00041012733709067106, 0.0004468327679205686, 0.0004835381987504661, 0.0005202436586841941, 0.0005569490604102612, 0.0005936544621363282, 0.0006303599220700562, 0.0006670653820037842, 0.0007037707837298512, 0.0007404761854559183, 0.0007771816453896463, 0.0008138871053233743, 0.0008505925070494413, 0.0008872979087755084, 0.0009240033687092364, 0.0009607088286429644, 0.0009974142303690314, 0.0010341196320950985, 0.0010708251502364874, 0.0011075305519625545, 0.0011442359536886215]}, "gradients/lout.bias": {"_type": "histogram", "values": [1.0, 0.0, 0.0, 0.0, 0.0, 0.0, 0.0, 0.0, 0.0, 0.0, 0.0, 0.0, 0.0, 0.0, 0.0, 0.0, 0.0, 0.0, 0.0, 0.0, 0.0, 0.0, 0.0, 0.0, 0.0, 0.0, 0.0, 0.0, 0.0, 0.0, 0.0, 0.0, 0.0, 0.0, 0.0, 0.0, 0.0, 0.0, 0.0, 0.0, 1.0, 0.0, 0.0, 1.0, 0.0, 0.0, 0.0, 0.0, 0.0, 0.0, 0.0, 0.0, 0.0, 0.0, 0.0, 0.0, 0.0, 0.0, 0.0, 0.0, 0.0, 0.0, 0.0, 1.0], "bins": [-4.0819577407091856e-05, -3.605791789595969e-05, -3.1296258384827524e-05, -2.6534597054705955e-05, -2.177293754357379e-05, -1.7011278032441624e-05, -1.2249617611814756e-05, -7.487957645935239e-06, -2.7262976800557226e-06, 2.035362285823794e-06, 6.797022251703311e-06, 1.1558682672330178e-05, 1.6320342183462344e-05, 2.108200169459451e-05, 2.584366302471608e-05, 3.0605322535848245e-05, 3.536698204698041e-05, 4.0128641558112577e-05, 4.489030106924474e-05, 4.965196058037691e-05, 5.4413620091509074e-05, 5.917528324062005e-05, 6.39369391137734e-05, 6.869860226288438e-05, 7.346026541199535e-05, 7.822192128514871e-05, 8.298358443425968e-05, 8.774524030741304e-05, 9.250690345652401e-05, 9.726855932967737e-05, 0.00010203022247878835, 0.0001067918783519417, 0.00011155354150105268, 0.00011631520465016365, 0.00012107686052331701, 0.00012583851639647037, 0.00013060017954558134, 0.00013536184269469231, 0.0001401235058438033, 0.00014488515444099903, 0.00014964681759011, 0.00015440848073922098, 0.00015917014388833195, 0.00016393180703744292, 0.00016869345563463867, 0.00017345511878374964, 0.0001782167819328606, 0.00018297844508197159, 0.00018774010823108256, 0.0001925017568282783, 0.00019726341997738928, 0.00020202508312650025, 0.00020678674627561122, 0.00021154839487280697, 0.00021631005802191794, 0.0002210717211710289, 0.00022583338432013988, 0.00023059504746925086, 0.0002353566960664466, 0.00024011835921555758, 0.0002448800078127533, 0.0002496416855137795, 0.00025440333411097527, 0.00025916501181200147, 0.0002639266604091972]}, "gradients/lout.weight": {"_type": "histogram", "values": [1.0, 0.0, 0.0, 0.0, 0.0, 0.0, 0.0, 0.0, 1.0, 0.0, 0.0, 0.0, 0.0, 0.0, 0.0, 1.0, 2.0, 1.0, 1.0, 4.0, 1.0, 1.0, 3.0, 8.0, 3.0, 9.0, 11.0, 14.0, 63.0, 745.0, 73.0, 23.0, 16.0, 9.0, 6.0, 4.0, 5.0, 4.0, 1.0, 2.0, 2.0, 1.0, 2.0, 0.0, 1.0, 0.0, 1.0, 1.0, 1.0, 1.0, 1.0, 0.0, 0.0, 0.0, 0.0, 0.0, 0.0, 0.0, 0.0, 0.0, 0.0, 0.0, 0.0, 1.0], "bins": [-0.0010056064929813147, -0.0009715204942040145, -0.0009374344372190535, -0.0009033484384417534, -0.0008692623814567924, -0.0008351763826794922, -0.0008010903839021921, -0.0007670043269172311, -0.000732918328139931, -0.0006988323293626308, -0.0006647462723776698, -0.0006306602736003697, -0.0005965742748230696, -0.0005624882178381085, -0.0005284022190608084, -0.0004943161620758474, -0.00046023016329854727, -0.0004261441354174167, -0.0003920581075362861, -0.000357972108758986, -0.0003238860808778554, -0.00028980005299672484, -0.0002557140542194247, -0.00022162802633829415, -0.00018754199845716357, -0.000153455970576033, -0.00011936995724681765, -8.528393664164469e-05, -5.1197916036471725e-05, -1.7111895431298763e-05, 1.69741251738742e-05, 5.106014577904716e-05, 8.51460499688983e-05, 0.00011923207057407126, 0.00015331809117924422, 0.00018740410450845957, 0.00022149013238959014, 0.0002555761602707207, 0.00028966215904802084, 0.0003237481869291514, 0.000357834214810282, 0.00039192024269141257, 0.00042600627057254314, 0.00046009226934984326, 0.0004941782681271434, 0.0005282643251121044, 0.0005623503238894045, 0.0005964363808743656, 0.0006305223796516657, 0.0006646083784289658, 0.0006986944354139268, 0.000732780434191227, 0.000766866491176188, 0.0008009524899534881, 0.0008350384887307882, 0.0008691245457157493, 0.0009032105444930494, 0.0009372965432703495, 0.0009713826002553105, 0.0010054686572402716, 0.0010395545978099108, 0.0010736406547948718, 0.0011077267117798328, 0.001141812652349472, 0.001175898709334433]}, "gradients/layers.3.bias": {"_type": "histogram", "values": [1.0, 0.0, 1.0, 0.0, 0.0, 0.0, 0.0, 0.0, 0.0, 1.0, 0.0, 0.0, 0.0, 0.0, 0.0, 0.0, 1.0, 0.0, 0.0, 1.0, 0.0, 0.0, 1.0, 1.0, 0.0, 1.0, 0.0, 0.0, 0.0, 0.0, 0.0, 1.0, 0.0, 0.0, 1.0, 2.0, 3.0, 7.0, 6.0, 11.0, 18.0, 134.0, 28.0, 9.0, 8.0, 7.0, 1.0, 3.0, 1.0, 2.0, 1.0, 0.0, 2.0, 0.0, 0.0, 0.0, 0.0, 0.0, 0.0, 0.0, 1.0, 1.0, 0.0, 1.0], "bins": [-6.98070289217867e-05, -6.81303208693862e-05, -6.64536128169857e-05, -6.47769047645852e-05, -6.31001967121847e-05, -6.14234886597842e-05, -5.97467806073837e-05, -5.80700725549832e-05, -5.63933645025827e-05, -5.471665281220339e-05, -5.303994475980289e-05, -5.136323670740239e-05, -4.9686528655001894e-05, -4.8009820602601394e-05, -4.6333112550200894e-05, -4.4656404497800395e-05, -4.2979696445399895e-05, -4.1302988392999396e-05, -3.9626280340598896e-05, -3.7949572288198397e-05, -3.62728642357979e-05, -3.45961561833974e-05, -3.29194481309969e-05, -3.12427400785964e-05, -2.9566030207206495e-05, -2.7889322154805996e-05, -2.6212614102405496e-05, -2.4535906050004996e-05, -2.2859196178615093e-05, -2.1182488126214594e-05, -1.9505780073814094e-05, -1.7829072021413594e-05, -1.6152363969013095e-05, -1.4475655916612595e-05, -1.2798947864212096e-05, -1.1122238902316894e-05, -9.445530849916395e-06, -7.768822797515895e-06, -6.092114290368045e-06, -4.415405783220194e-06, -2.7386977308196947e-06, -1.0619894510455197e-06, 6.147188287286554e-07, 2.2914271085028304e-06, 3.968135388277005e-06, 5.644843440677505e-06, 7.3215519478253555e-06, 8.998260454973206e-06, 1.0674968507373706e-05, 1.2351676559774205e-05, 1.4028384612174705e-05, 1.5705092664575204e-05, 1.7381800716975704e-05, 1.9058510588365607e-05, 2.0735218640766107e-05, 2.2411926693166606e-05, 2.4088634745567106e-05, 2.5765342797967605e-05, 2.7442050850368105e-05, 2.9118758902768604e-05, 3.079546877415851e-05, 3.247217682655901e-05, 3.414888487895951e-05, 3.5825592931360006e-05, 3.7502300983760506e-05]}, "gradients/layers.3.weight": {"_type": "histogram", "values": [1.0, 0.0, 1.0, 1.0, 0.0, 1.0, 0.0, 0.0, 0.0, 1.0, 0.0, 2.0, 0.0, 0.0, 1.0, 0.0, 0.0, 0.0, 0.0, 0.0, 1.0, 0.0, 1.0, 3.0, 6.0, 5.0, 6.0, 6.0, 8.0, 7.0, 14.0, 7.0, 18.0, 16.0, 29.0, 35.0, 46.0, 117.0, 149.0, 275.0, 783.0, 53901.0, 8803.0, 627.0, 247.0, 145.0, 82.0, 51.0, 26.0, 34.0, 10.0, 13.0, 17.0, 8.0, 5.0, 3.0, 5.0, 4.0, 5.0, 2.0, 2.0, 0.0, 2.0, 4.0], "bins": [-0.0002494081563781947, -0.0002434671769151464, -0.00023752619745209813, -0.00023158521798904985, -0.00022564423852600157, -0.0002197032590629533, -0.00021376227959990501, -0.00020782130013685673, -0.00020188032067380846, -0.00019593932665884495, -0.00018999834719579667, -0.0001840573677327484, -0.0001781163882697001, -0.00017217540880665183, -0.00016623442934360355, -0.00016029344988055527, -0.000154352470417507, -0.0001484114909544587, -0.00014247051149141043, -0.00013652953202836215, -0.00013058855256531388, -0.0001246475731022656, -0.0001187065863632597, -0.00011276560690021142, -0.00010682462743716314, -0.00010088364797411487, -9.494266851106659e-05, -8.90016890480183e-05, -8.306070230901241e-05, -7.711972284596413e-05, -7.117874338291585e-05, -6.523776391986758e-05, -5.929676990490407e-05, -5.335579044185579e-05, -4.741481097880751e-05, -4.147382787778042e-05, -3.553284841473214e-05, -2.9591868951683864e-05, -2.365088766964618e-05, -1.77099063876085e-05, -1.1768926924560219e-05, -5.827946552017238e-06, 1.1303382052574307e-07, 6.054014193068724e-06, 1.1994994565611705e-05, 1.7935974028659984e-05, 2.3876955310697667e-05, 2.981793659273535e-05, 3.575891605578363e-05, 4.169989551883191e-05, 4.764087498188019e-05, 5.3581858082907274e-05, 5.9522837545955554e-05, 6.546382064698264e-05, 7.140480011003092e-05, 7.73457795730792e-05, 8.328675903612748e-05, 8.922773849917576e-05, 9.516871796222404e-05, 0.00010110969742527232, 0.00010705068416427821, 0.00011299166362732649, 0.00011893264309037477, 0.00012487362255342305, 0.00013081460201647133]}, "gradients/layers.2.bias": {"_type": "histogram", "values": [1.0, 0.0, 0.0, 0.0, 0.0, 1.0, 0.0, 0.0, 4.0, 1.0, 0.0, 1.0, 1.0, 4.0, 3.0, 4.0, 3.0, 9.0, 6.0, 10.0, 26.0, 34.0, 60.0, 33.0, 15.0, 6.0, 4.0, 5.0, 5.0, 1.0, 4.0, 3.0, 5.0, 0.0, 2.0, 1.0, 0.0, 1.0, 0.0, 0.0, 0.0, 0.0, 0.0, 0.0, 0.0, 0.0, 0.0, 0.0, 0.0, 0.0, 1.0, 0.0, 0.0, 0.0, 0.0, 1.0, 0.0, 0.0, 0.0, 0.0, 0.0, 0.0, 0.0, 1.0], "bins": [-9.38246157602407e-05, -8.968959446065128e-05, -8.555457316106185e-05, -8.141955913743004e-05, -7.728453783784062e-05, -7.314951653825119e-05, -6.901449523866177e-05, -6.487947393907234e-05, -6.074445627746172e-05, -5.66094349778723e-05, -5.247441731626168e-05, -4.8339396016672254e-05, -4.420437471708283e-05, -4.006935705547221e-05, -3.5934335755882785e-05, -3.1799318094272166e-05, -2.766429679468274e-05, -2.352927731408272e-05, -1.9394257833482698e-05, -1.5259236533893272e-05, -1.112421705329325e-05, -6.989197117945878e-06, -2.854177182598505e-06, 1.2808427527488675e-06, 5.41586268809624e-06, 9.550882168696262e-06, 1.3685902558790985e-05, 1.782092294888571e-05, 2.195594242948573e-05, 2.6090961910085753e-05, 3.0225983209675178e-05, 3.4361000871285796e-05, 3.8496029446832836e-05, 4.263105074642226e-05, 4.676606840803288e-05, 5.0901089707622305e-05, 5.503610736923292e-05, 5.917112866882235e-05, 6.330614996841177e-05, 6.74411712680012e-05, 7.157618529163301e-05, 7.571120659122244e-05, 7.984622789081186e-05, 8.398124919040129e-05, 8.811627048999071e-05, 9.225129178958014e-05, 9.638630581321195e-05, 0.00010052132711280137, 0.0001046563484123908, 0.00010879136971198022, 0.00011292639101156965, 0.00011706140503520146, 0.00012119642633479089, 0.00012533145491033792, 0.00012946646893396974, 0.00013360148295760155, 0.0001377365115331486, 0.0001418715255567804, 0.00014600655413232744, 0.00015014156815595925, 0.00015427658217959106, 0.0001584116107551381, 0.0001625466247787699, 0.00016668165335431695, 0.00017081666737794876]}, "gradients/layers.2.weight": {"_type": "histogram", "values": [1.0, 0.0, 2.0, 2.0, 2.0, 3.0, 2.0, 9.0, 11.0, 12.0, 19.0, 35.0, 61.0, 87.0, 120.0, 261.0, 413.0, 884.0, 2627.0, 59723.0, 6896.0, 1399.0, 620.0, 286.0, 184.0, 102.0, 71.0, 33.0, 24.0, 13.0, 11.0, 9.0, 8.0, 7.0, 4.0, 6.0, 4.0, 6.0, 5.0, 2.0, 4.0, 1.0, 2.0, 2.0, 2.0, 1.0, 0.0, 0.0, 1.0, 1.0, 0.0, 2.0, 1.0, 1.0, 0.0, 0.0, 1.0, 0.0, 0.0, 0.0, 0.0, 0.0, 0.0, 1.0], "bins": [-0.00014798971824347973, -0.00014050403842702508, -0.0001330183440586552, -0.00012553266424220055, -0.00011804696987383068, -0.00011056128278141841, -0.00010307559568900615, -9.558990859659389e-05, -8.810422150418162e-05, -8.061854168772697e-05, -7.313285459531471e-05, -6.564716750290245e-05, -5.8161480410490185e-05, -5.067579331807792e-05, -4.319010622566566e-05, -3.5704419133253396e-05, -2.8218732040841132e-05, -2.073304494842887e-05, -1.3247358765511308e-05, -5.761672127846396e-06, 1.7240145098185167e-06, 9.20970160223078e-06, 1.669538687565364e-05, 2.4181073968065903e-05, 3.1666761060478166e-05, 3.915244815289043e-05, 4.663813524530269e-05, 5.4123822337714955e-05, 6.160950579214841e-05, 6.909519288456067e-05, 7.658087997697294e-05, 8.40665670693852e-05, 9.155225416179746e-05, 9.903794125420973e-05, 0.00010652362834662199, 0.00011400931543903425, 0.00012149500253144652, 0.00012898068234790117, 0.00013646637671627104, 0.0001439520565327257, 0.00015143775090109557, 0.00015892343071755022, 0.0001664091250859201, 0.00017389480490237474, 0.00018138049927074462, 0.00018886617908719927, 0.00019635187345556915, 0.0002038375532720238, 0.00021132323308847845, 0.00021880892745684832, 0.00022629460727330297, 0.00023378030164167285, 0.0002412659814581275, 0.00024875166127458215, 0.00025623737019486725, 0.0002637230500113219, 0.00027120872982777655, 0.0002786944096442312, 0.0002861801185645163, 0.00029366579838097095, 0.0003011514781974256, 0.00030863715801388025, 0.00031612286693416536, 0.00032360854675062, 0.00033109422656707466]}, "gradients/layers.1.bias": {"_type": "histogram", "values": [1.0, 0.0, 0.0, 0.0, 0.0, 0.0, 0.0, 1.0, 1.0, 0.0, 0.0, 0.0, 1.0, 0.0, 1.0, 2.0, 2.0, 2.0, 3.0, 6.0, 4.0, 6.0, 13.0, 14.0, 19.0, 71.0, 48.0, 22.0, 13.0, 5.0, 3.0, 4.0, 1.0, 3.0, 0.0, 0.0, 2.0, 1.0, 1.0, 0.0, 1.0, 0.0, 0.0, 1.0, 0.0, 1.0, 0.0, 1.0, 0.0, 0.0, 0.0, 0.0, 0.0, 0.0, 0.0, 1.0, 0.0, 0.0, 0.0, 0.0, 0.0, 0.0, 0.0, 1.0], "bins": [-0.00032382822246290743, -0.00031133307493291795, -0.00029883792740292847, -0.000286342779872939, -0.00027384766144677997, -0.0002613525139167905, -0.000248857366386801, -0.00023636221885681152, -0.00022386707132682204, -0.00021137192379683256, -0.00019887677626684308, -0.00018638164328876883, -0.00017388649575877935, -0.00016139134822878987, -0.0001488962152507156, -0.00013640106772072613, -0.00012390592019073665, -0.00011141077266074717, -9.89156324067153e-05, -8.642049215268344e-05, -7.392534462269396e-05, -6.143019709270447e-05, -4.893505683867261e-05, -3.6439912946661934e-05, -2.394476905465126e-05, -1.1449625162640586e-05, 1.0455187293700874e-06, 1.3540662621380761e-05, 2.6035806513391435e-05, 3.853095040540211e-05, 5.102609429741278e-05, 6.352123455144465e-05, 7.601635297760367e-05, 8.851150050759315e-05, 0.00010100664076162502, 0.00011350178101565689, 0.00012599692854564637, 0.00013849207607563585, 0.0001509872090537101, 0.00016348235658369958, 0.00017597750411368906, 0.00018847265164367855, 0.00020096779917366803, 0.00021346293215174228, 0.00022595807968173176, 0.00023845322721172124, 0.0002509483601897955, 0.000263443507719785, 0.00027593865524977446, 0.00028843380277976394, 0.0003009289503097534, 0.0003134240978397429, 0.0003259192453697324, 0.0003384143637958914, 0.0003509095113258809, 0.00036340465885587037, 0.00037589980638585985, 0.00038839495391584933, 0.0004008901014458388, 0.0004133852489758283, 0.0004258803674019873, 0.0004383755149319768, 0.0004508706624619663, 0.00046336580999195576, 0.00047586095752194524]}, "gradients/layers.1.weight": {"_type": "histogram", "values": [1.0, 0.0, 0.0, 1.0, 0.0, 0.0, 1.0, 1.0, 0.0, 1.0, 4.0, 2.0, 0.0, 1.0, 5.0, 7.0, 5.0, 15.0, 15.0, 23.0, 31.0, 36.0, 77.0, 124.0, 226.0, 520.0, 1409.0, 52255.0, 9016.0, 906.0, 327.0, 181.0, 102.0, 66.0, 43.0, 42.0, 20.0, 12.0, 13.0, 12.0, 4.0, 6.0, 4.0, 3.0, 5.0, 0.0, 2.0, 1.0, 4.0, 0.0, 2.0, 1.0, 1.0, 1.0, 0.0, 0.0, 0.0, 1.0, 0.0, 0.0, 0.0, 0.0, 0.0, 1.0], "bins": [-0.0005278456374071538, -0.0005089479964226484, -0.0004900504136458039, -0.0004711527726612985, -0.00045225516078062356, -0.0004333575488999486, -0.0004144599079154432, -0.0003955622960347682, -0.00037666468415409327, -0.0003577670722734183, -0.00033886946039274335, -0.00031997181940823793, -0.000301074207527563, -0.000282176595646888, -0.0002632789546623826, -0.00024438134278170764, -0.00022548373090103269, -0.00020658611902035773, -0.00018768849258776754, -0.00016879086615517735, -0.0001498932542745024, -0.00013099564239382744, -0.00011209801596123725, -9.320039680460468e-05, -7.430277764797211e-05, -5.5405158491339535e-05, -3.650753933470696e-05, -1.760992017807439e-05, 1.2876989785581827e-06, 2.0185318135190755e-05, 3.908293729182333e-05, 5.79805564484559e-05, 7.687811739742756e-05, 9.577573655406013e-05, 0.0001146733557106927, 0.0001335709821432829, 0.00015246859402395785, 0.0001713662059046328, 0.000190263832337223, 0.00020916145876981318, 0.00022805907065048814, 0.0002469566825311631, 0.00026585429441183805, 0.00028475193539634347, 0.00030364954727701843, 0.0003225471591576934, 0.0003414448001421988, 0.00036034241202287376, 0.0003792400239035487, 0.0003981376357842237, 0.00041703524766489863, 0.00043593288864940405, 0.000454830500530079, 0.00047372811241075397, 0.0004926257533952594, 0.0005115233361721039, 0.0005304209771566093, 0.0005493186181411147, 0.0005682162009179592, 0.0005871138419024646, 0.00060601148288697, 0.0006249090656638145, 0.00064380670664832, 0.0006627042894251645, 0.0006816019304096699]}, "gradients/layers.0.bias": {"_type": "histogram", "values": [1.0, 0.0, 0.0, 0.0, 0.0, 0.0, 0.0, 0.0, 0.0, 0.0, 1.0, 0.0, 0.0, 0.0, 0.0, 2.0, 0.0, 0.0, 0.0, 0.0, 0.0, 0.0, 2.0, 2.0, 1.0, 0.0, 3.0, 2.0, 1.0, 4.0, 9.0, 9.0, 4.0, 8.0, 17.0, 9.0, 22.0, 60.0, 23.0, 12.0, 8.0, 7.0, 4.0, 8.0, 5.0, 6.0, 2.0, 2.0, 6.0, 0.0, 2.0, 0.0, 2.0, 1.0, 4.0, 2.0, 1.0, 2.0, 0.0, 1.0, 0.0, 0.0, 0.0, 1.0], "bins": [-0.0010879018809646368, -0.0010589477606117725, -0.00102999375667423, -0.0010010396363213658, -0.0009720855741761625, -0.0009431314538232982, -0.0009141773916780949, -0.0008852233295328915, -0.0008562692091800272, -0.0008273151470348239, -0.0007983610848896205, -0.0007694069645367563, -0.0007404529023915529, -0.0007114988402463496, -0.0006825447198934853, -0.000653590657748282, -0.0006246365373954177, -0.0005956824752502143, -0.000566728413105011, -0.0005377742927521467, -0.0005088202306069434, -0.00047986616846174, -0.0004509120772127062, -0.0004219579859636724, -0.00039300392381846905, -0.00036404983256943524, -0.00033509574132040143, -0.0003061416500713676, -0.00027718758792616427, -0.00024823349667713046, -0.00021927941998001188, -0.00019032532873097807, -0.0001613712520338595, -0.0001324171753367409, -0.0001034630840877071, -7.450900739058852e-05, -4.555492341751233e-05, -1.6600841263425536e-05, 1.2353240890661255e-05, 4.130732122575864e-05, 7.026140519883484e-05, 9.921548917191103e-05, 0.00012816957314498723, 0.0001571236498421058, 0.00018607772653922439, 0.0002150318177882582, 0.00024398589448537678, 0.00027293997118249536, 0.00030189406243152916, 0.000330848153680563, 0.0003598022158257663, 0.00038875630707480013, 0.00041771039832383394, 0.0004466644604690373, 0.0004756185517180711, 0.0005045726429671049, 0.0005335267051123083, 0.0005624808254651725, 0.0005914348876103759, 0.0006203889497555792, 0.0006493430701084435, 0.0006782971322536469, 0.0007072511943988502, 0.0007362053147517145, 0.0007651593768969178]}, "gradients/layers.0.weight": {"_type": "histogram", "values": [1.0, 1.0, 1.0, 2.0, 0.0, 0.0, 1.0, 0.0, 1.0, 2.0, 4.0, 1.0, 2.0, 2.0, 6.0, 8.0, 6.0, 4.0, 5.0, 17.0, 22.0, 27.0, 33.0, 39.0, 43.0, 60.0, 78.0, 122.0, 170.0, 233.0, 271.0, 402.0, 674.0, 1304.0, 2663.0, 702.0, 396.0, 267.0, 210.0, 161.0, 119.0, 67.0, 69.0, 56.0, 36.0, 33.0, 21.0, 20.0, 24.0, 12.0, 12.0, 7.0, 6.0, 5.0, 5.0, 4.0, 4.0, 3.0, 1.0, 0.0, 0.0, 0.0, 0.0, 3.0], "bins": [-0.0010740647558122873, -0.0010425546206533909, -0.0010110443690791726, -0.0009795342339202762, -0.0009480240405537188, -0.0009165138471871614, -0.000885003712028265, -0.0008534935186617076, -0.0008219833252951503, -0.0007904731319285929, -0.0007589629385620356, -0.0007274528034031391, -0.0006959426100365818, -0.0006644324166700244, -0.000632922281511128, -0.0006014120881445706, -0.0005699018947780132, -0.0005383917014114559, -0.0005068815080448985, -0.00047537137288600206, -0.0004438611795194447, -0.00041235098615288734, -0.00038084082189016044, -0.00034933065762743354, -0.0003178204642608762, -0.0002863102708943188, -0.0002548001066315919, -0.00022328992781694978, -0.00019177974900230765, -0.00016026957018766552, -0.0001287593913730234, -9.724921255838126e-05, -6.573915015906096e-05, -3.4228971344418824e-05, -2.7187925297766924e-06, 2.879138628486544e-05, 6.030156509950757e-05, 9.18117439141497e-05, 0.00012332192272879183, 0.00015483210154343396, 0.0001863422803580761, 0.00021785245917271823, 0.00024936263798736036, 0.00028087280225008726, 0.0003123829956166446, 0.000343893188983202, 0.0003754033532459289, 0.0004069135175086558, 0.00043842371087521315, 0.0004699339042417705, 0.0005014440976083279, 0.0005329542327672243, 0.0005644644261337817, 0.000595974619500339, 0.0006274847546592355, 0.0006589949480257928, 0.0006905051413923502, 0.0007220153347589076, 0.0007535255281254649, 0.0007850356632843614, 0.0008165458566509187, 0.0008480560500174761, 0.0008795661851763725, 0.0009110763785429299, 0.0009425865719094872]}, "_wandb": {"runtime": 5321}}