{"total_loss": 0.0015819902453222312, "_timestamp": 1718065154.4985352, "rgb_loss": 0.0015819902453222312, "_runtime": 15191.216771125793, "_step": 116200, "Rendered Images": {"_type": "images/separated", "width": 256, "height": 256, "format": "png", "count": 5, "filenames": ["media/images/Rendered Images_116000_8955cf29027d220a891c.png", "media/images/Rendered Images_116000_0d517f54e831a969e59f.png", "media/images/Rendered Images_116000_721607677249122c945e.png", "media/images/Rendered Images_116000_947d7e40611b3edf0350.png", "media/images/Rendered Images_116000_f0f5e38fcf859c1329b4.png"]}, "Ground-truth Images": {"_type": "images/separated", "width": 256, "height": 256, "format": "png", "count": 5, "filenames": ["media/images/Ground-truth Images_116008_e66caac5921126c9a542.png", "media/images/Ground-truth Images_116008_d46094b22d91d1bd7d47.png", "media/images/Ground-truth Images_116008_c1ae0e380e32a07032f8.png", "media/images/Ground-truth Images_116008_b60b263c939c62f4bc58.png", "media/images/Ground-truth Images_116008_ab3d98782f1147e7dca7.png"]}, "PSNR": 35.31854385109246, "Epoch": 14500, "gradients/graph_1rgb_fn.2.bias": {"_type": "histogram", "values": [1.0, 0.0, 0.0, 0.0, 0.0, 0.0, 0.0, 0.0, 0.0, 0.0, 0.0, 0.0, 0.0, 0.0, 0.0, 0.0, 0.0, 0.0, 0.0, 0.0, 0.0, 0.0, 0.0, 0.0, 0.0, 0.0, 0.0, 0.0, 0.0, 0.0, 0.0, 0.0, 0.0, 0.0, 0.0, 0.0, 0.0, 0.0, 0.0, 0.0, 0.0, 0.0, 0.0, 0.0, 0.0, 0.0, 0.0, 0.0, 0.0, 0.0, 0.0, 0.0, 0.0, 0.0, 0.0, 0.0, 0.0, 0.0, 0.0, 0.0, 1.0, 0.0, 0.0, 1.0], "bins": [-6.937651778571308e-05, -6.885626498842612e-05, -6.833601219113916e-05, -6.78157593938522e-05, -6.729550659656525e-05, -6.67752610752359e-05, -6.625500827794895e-05, -6.573475548066199e-05, -6.521450268337503e-05, -6.469424988608807e-05, -6.417399708880112e-05, -6.365374429151416e-05, -6.313349877018481e-05, -6.261324597289786e-05, -6.20929931756109e-05, -6.157274037832394e-05, -6.105248758103698e-05, -6.053223478375003e-05, -6.001198198646307e-05, -5.949173282715492e-05, -5.897148002986796e-05, -5.8451227232581005e-05, -5.7930978073272854e-05, -5.7410725275985897e-05, -5.689047247869894e-05, -5.637021968141198e-05, -5.5849966884125024e-05, -5.5329717724816874e-05, -5.4809464927529916e-05, -5.428921213024296e-05, -5.376896297093481e-05, -5.324871017364785e-05, -5.272845737636089e-05, -5.2208204579073936e-05, -5.168795178178698e-05, -5.116770262247883e-05, -5.064744982519187e-05, -5.012719702790491e-05, -4.960694786859676e-05, -4.9086695071309805e-05, -4.856644227402285e-05, -4.804618947673589e-05, -4.752593667944893e-05, -4.700568752014078e-05, -4.6485434722853824e-05, -4.596518192556687e-05, -4.5444932766258717e-05, -4.492467996897176e-05, -4.44044271716848e-05, -4.3884174374397844e-05, -4.3363921577110887e-05, -4.2843672417802736e-05, -4.232341962051578e-05, -4.180316682322882e-05, -4.128291766392067e-05, -4.076266486663371e-05, -4.0242412069346756e-05, -3.97221592720598e-05, -3.920190647477284e-05, -3.868165731546469e-05, -3.816140451817773e-05, -3.7641151720890775e-05, -3.7120902561582625e-05, -3.660064976429567e-05, -3.608039696700871e-05]}, "gradients/graph_1rgb_fn.2.weight": {"_type": "histogram", "values": [1.0, 0.0, 0.0, 0.0, 0.0, 0.0, 0.0, 0.0, 0.0, 0.0, 0.0, 1.0, 0.0, 0.0, 0.0, 0.0, 0.0, 0.0, 0.0, 0.0, 0.0, 1.0, 0.0, 0.0, 0.0, 1.0, 1.0, 1.0, 1.0, 2.0, 0.0, 0.0, 0.0, 0.0, 0.0, 0.0, 4.0, 2.0, 1.0, 3.0, 0.0, 0.0, 2.0, 1.0, 5.0, 3.0, 5.0, 7.0, 9.0, 5.0, 18.0, 33.0, 203.0, 33.0, 18.0, 7.0, 6.0, 3.0, 2.0, 0.0, 3.0, 1.0, 0.0, 1.0], "bins": [-0.0004150457098148763, -0.0004070959985256195, -0.0003991462872363627, -0.00039119660505093634, -0.00038324689376167953, -0.0003752971824724227, -0.0003673474711831659, -0.0003593977598939091, -0.00035144807770848274, -0.00034349836641922593, -0.0003355486551299691, -0.0003275989438407123, -0.0003196492325514555, -0.0003116995212621987, -0.00030374983907677233, -0.0002958001277875155, -0.0002878504164982587, -0.0002799007052090019, -0.0002719509939197451, -0.00026400131173431873, -0.0002560516004450619, -0.0002481018891558051, -0.0002401521778665483, -0.00023220248112920672, -0.0002242527698399499, -0.0002163030585506931, -0.0002083533618133515, -0.0002004036505240947, -0.0001924539392348379, -0.0001845042424974963, -0.0001765545312082395, -0.0001686048344708979, -0.0001606551231816411, -0.0001527054118923843, -0.0001447557151550427, -0.0001368060038657859, -0.00012885630712844431, -0.0001209065958391875, -0.00011295688454993069, -0.0001050071805366315, -9.70574765233323e-05, -8.91077725100331e-05, -8.11580684967339e-05, -7.320835720747709e-05, -6.52586531941779e-05, -5.73089491808787e-05, -4.9359241529600695e-05, -4.140953387832269e-05, -3.3459829865023494e-05, -2.5510124032734893e-05, -1.7560418200446293e-05, -9.610712368157692e-06, -1.6610065358690917e-06, 6.288699296419509e-06, 1.423840512870811e-05, 2.218811096099671e-05, 3.013781679328531e-05, 3.808752080658451e-05, 4.603722845786251e-05, 5.3986936109140515e-05, 6.193664012243971e-05, 6.988634413573891e-05, 7.783605542499572e-05, 8.578575943829492e-05, 9.373546345159411e-05]}, "gradients/graph_1rgb_fn.0.bias": {"_type": "histogram", "values": [1.0, 0.0, 0.0, 0.0, 0.0, 0.0, 0.0, 0.0, 0.0, 0.0, 0.0, 1.0, 0.0, 1.0, 0.0, 1.0, 1.0, 0.0, 0.0, 0.0, 2.0, 3.0, 1.0, 3.0, 3.0, 4.0, 3.0, 11.0, 35.0, 11.0, 10.0, 5.0, 6.0, 5.0, 2.0, 1.0, 3.0, 1.0, 0.0, 1.0, 1.0, 0.0, 1.0, 1.0, 1.0, 0.0, 0.0, 1.0, 0.0, 2.0, 1.0, 1.0, 0.0, 1.0, 0.0, 0.0, 0.0, 0.0, 2.0, 0.0, 0.0, 0.0, 0.0, 1.0], "bins": [-1.6310719729517587e-05, -1.5738796719233505e-05, -1.5166873708949424e-05, -1.4594950698665343e-05, -1.4023027688381262e-05, -1.3451105587591883e-05, -1.2879182577307802e-05, -1.230725956702372e-05, -1.173533655673964e-05, -1.1163413546455558e-05, -1.0591490536171477e-05, -1.0019567525887396e-05, -9.447645425098017e-06, -8.875722414813936e-06, -8.303799404529855e-06, -7.731876394245774e-06, -7.1599533839616925e-06, -6.588030373677611e-06, -6.01610736339353e-06, -5.4441848078568e-06, -4.872261797572719e-06, -4.300338787288638e-06, -3.728416004378232e-06, -3.1564932214678265e-06, -2.5845702111837454e-06, -2.0126472008996643e-06, -1.4407244179892587e-06, -8.688015213920153e-07, -2.968786247947719e-07, 2.750442718024715e-07, 8.469671683997149e-07, 1.4188900649969582e-06, 1.990814780583605e-06, 2.5627377908676863e-06, 3.134660573778092e-06, 3.7065833566884976e-06, 4.278506366972579e-06, 4.85042937725666e-06, 5.42235193279339e-06, 5.994274943077471e-06, 6.566197953361552e-06, 7.138120963645633e-06, 7.710043973929714e-06, 8.281966984213796e-06, 8.853889085003175e-06, 9.425812095287256e-06, 9.997735105571337e-06, 1.0569658115855418e-05, 1.11415811261395e-05, 1.171350413642358e-05, 1.2285427146707661e-05, 1.2857350156991743e-05, 1.3429273167275824e-05, 1.4001195268065203e-05, 1.4573118278349284e-05, 1.5145041288633365e-05, 1.5716963389422745e-05, 1.6288886399706826e-05, 1.6860809409990907e-05, 1.7432732420274988e-05, 1.800465543055907e-05, 1.857657844084315e-05, 1.914850145112723e-05, 1.9720424461411312e-05, 2.0292347471695393e-05]}, "gradients/graph_1rgb_fn.0.weight": {"_type": "histogram", "values": [2.0, 0.0, 1.0, 1.0, 0.0, 0.0, 0.0, 0.0, 1.0, 1.0, 0.0, 1.0, 1.0, 2.0, 4.0, 3.0, 5.0, 2.0, 2.0, 4.0, 4.0, 13.0, 13.0, 38.0, 69.0, 312.0, 11204.0, 7623.0, 347.0, 84.0, 30.0, 16.0, 12.0, 7.0, 3.0, 3.0, 3.0, 1.0, 0.0, 5.0, 1.0, 4.0, 2.0, 2.0, 3.0, 1.0, 1.0, 2.0, 1.0, 0.0, 0.0, 1.0, 0.0, 1.0, 1.0, 0.0, 0.0, 0.0, 0.0, 1.0, 0.0, 0.0, 0.0, 2.0], "bins": [-0.0004067592672072351, -0.0003916920686606318, -0.00037662487011402845, -0.0003615577006712556, -0.00034649050212465227, -0.00033142330357804894, -0.0003163561050314456, -0.0003012889064848423, -0.00028622173704206944, -0.0002711545384954661, -0.0002560873399488628, -0.00024102014140225947, -0.00022595294285565615, -0.00021088575886096805, -0.00019581856031436473, -0.00018075137631967664, -0.00016568417777307332, -0.00015061697922647, -0.0001355497952317819, -0.00012048259668517858, -0.00010541540541453287, -9.034821414388716e-05, -7.528101559728384e-05, -6.021382432663813e-05, -4.5146633055992424e-05, -3.0079439966357313e-05, -1.5012246876722202e-05, 5.4946212912909687e-08, 1.5122139302548021e-05, 3.0189332392183132e-05, 4.5256525481818244e-05, 6.032372039044276e-05, 7.539091166108847e-05, 9.045810293173417e-05, 0.00010552529420237988, 0.0001205924927489832, 0.0001356596767436713, 0.00015072687529027462, 0.00016579407383687794, 0.00018086125783156604, 0.00019592845637816936, 0.00021099565492477268, 0.00022606283891946077, 0.0002411300374660641, 0.0002561972360126674, 0.00027126443455927074, 0.0002863316040020436, 0.0003013988025486469, 0.00031646600109525025, 0.00033153319964185357, 0.0003466003981884569, 0.00036166756763122976, 0.0003767347661778331, 0.0003918019647244364, 0.0004068691632710397, 0.00042193636181764305, 0.00043700356036424637, 0.00045207072980701923, 0.00046713792835362256, 0.0004822051269002259, 0.0004972722963429987, 0.0005123395239934325, 0.0005274066934362054, 0.0005424739210866392, 0.000557541090529412]}, "gradients/graph_1density_fn.0.bias": {"_type": "histogram", "values": [1.0], "bins": [-5.502222848008387e-06, -5.502222848008387e-06]}, "gradients/graph_1density_fn.0.weight": {"_type": "histogram", "values": [1.0, 0.0, 0.0, 0.0, 0.0, 0.0, 0.0, 0.0, 1.0, 0.0, 2.0, 1.0, 1.0, 0.0, 0.0, 0.0, 3.0, 2.0, 1.0, 4.0, 3.0, 3.0, 1.0, 5.0, 3.0, 4.0, 1.0, 5.0, 7.0, 2.0, 2.0, 6.0, 3.0, 2.0, 1.0, 5.0, 4.0, 2.0, 4.0, 5.0, 7.0, 1.0, 3.0, 5.0, 1.0, 4.0, 2.0, 3.0, 3.0, 2.0, 1.0, 2.0, 2.0, 1.0, 2.0, 0.0, 2.0, 0.0, 1.0, 0.0, 0.0, 0.0, 1.0, 1.0], "bins": [-1.1568013178475667e-05, -1.1233859368076082e-05, -1.0899705557676498e-05, -1.0565550837782212e-05, -1.0231397027382627e-05, -9.897243216983043e-06, -9.563089406583458e-06, -9.228935596183874e-06, -8.89478178578429e-06, -8.560627065890003e-06, -8.226473255490419e-06, -7.892319445090834e-06, -7.55816563469125e-06, -7.224011369544314e-06, -6.88985755914473e-06, -6.555703293997794e-06, -6.22154948359821e-06, -5.8873956731986254e-06, -5.55324140805169e-06, -5.219087597652106e-06, -4.88493333250517e-06, -4.550779522105586e-06, -4.216625711706001e-06, -3.882471446559066e-06, -3.5483176361594815e-06, -3.2141635983862216e-06, -2.8800095606129616e-06, -2.545855750213377e-06, -2.2117017124401173e-06, -1.8775476746668573e-06, -1.5433937505804352e-06, -1.209239826494013e-06, -8.750848792260513e-07, -5.409308982962102e-07, -2.0677691736636916e-07, 1.273770635634719e-07, 4.6153104449331295e-07, 7.95685025423154e-07, 1.129839006352995e-06, 1.4639929304394173e-06, 1.7981469682126772e-06, 2.132301005985937e-06, 2.466455043759197e-06, 2.8006088541587815e-06, 3.1347628919320414e-06, 3.4689169297053013e-06, 3.8030707401048858e-06, 4.137225005251821e-06, 4.471378815651406e-06, 4.80553262605099e-06, 5.1396868911979254e-06, 5.47384070159751e-06, 5.807994966744445e-06, 6.14214877714403e-06, 6.476302587543614e-06, 6.8104568526905496e-06, 7.144610663090134e-06, 7.4787644734897185e-06, 7.812918738636654e-06, 8.147072549036238e-06, 8.481226359435823e-06, 8.815380169835407e-06, 9.149534889729694e-06, 9.483688700129278e-06, 9.817842510528862e-06]}, "gradients/graph_1feature_fn.4.bias": {"_type": "histogram", "values": [1.0, 0.0, 0.0, 0.0, 0.0, 0.0, 0.0, 0.0, 0.0, 0.0, 0.0, 0.0, 0.0, 0.0, 0.0, 0.0, 0.0, 1.0, 1.0, 0.0, 2.0, 3.0, 2.0, 0.0, 3.0, 6.0, 1.0, 5.0, 3.0, 5.0, 3.0, 7.0, 6.0, 3.0, 7.0, 6.0, 7.0, 1.0, 2.0, 2.0, 6.0, 8.0, 3.0, 5.0, 4.0, 3.0, 3.0, 1.0, 3.0, 2.0, 3.0, 3.0, 0.0, 1.0, 1.0, 0.0, 0.0, 2.0, 0.0, 1.0, 0.0, 0.0, 0.0, 2.0], "bins": [-4.180150062893517e-05, -4.0684983105165884e-05, -3.9568465581396595e-05, -3.84519444196485e-05, -3.733542689587921e-05, -3.621890937210992e-05, -3.510239184834063e-05, -3.398587432457134e-05, -3.286935680080205e-05, -3.1752835639053956e-05, -3.0636318115284666e-05, -2.9519800591515377e-05, -2.8403283067746088e-05, -2.7286763724987395e-05, -2.6170246201218106e-05, -2.5053726858459413e-05, -2.3937209334690124e-05, -2.2820691810920835e-05, -2.1704172468162142e-05, -2.0587654944392852e-05, -1.947113560163416e-05, -1.835461807786487e-05, -1.723810055409558e-05, -1.612158121133689e-05, -1.5005063687567599e-05, -1.3888545254303608e-05, -1.2772026821039617e-05, -1.1655509297270328e-05, -1.0538990864006337e-05, -9.422472430742346e-06, -8.305954906973056e-06, -7.1894364737090655e-06, -6.072914402466267e-06, -4.956395969202276e-06, -3.839877990685636e-06, -2.7233597847953206e-06, -1.606841578905005e-06, -4.903233730146894e-07, 6.261948328756262e-07, 1.7427130387659417e-06, 2.8592312446562573e-06, 3.975749677920248e-06, 5.0922676564368885e-06, 6.208785634953529e-06, 7.32530406821752e-06, 8.44182250148151e-06, 9.5583400252508e-06, 1.0674858458514791e-05, 1.1791376891778782e-05, 1.2907895325042773e-05, 1.4024413758306764e-05, 1.5140931282076053e-05, 1.6257450624834746e-05, 1.7373968148604035e-05, 1.8490485672373325e-05, 1.9607005015132017e-05, 2.0723522538901307e-05, 2.1840040062670596e-05, 2.295655940542929e-05, 2.4073076929198578e-05, 2.5189594452967867e-05, 2.630611379572656e-05, 2.742263131949585e-05, 2.8539150662254542e-05, 2.965566818602383e-05]}, "gradients/graph_1feature_fn.4.weight": {"_type": "histogram", "values": [1.0, 0.0, 0.0, 1.0, 0.0, 0.0, 0.0, 0.0, 0.0, 0.0, 0.0, 0.0, 1.0, 0.0, 0.0, 1.0, 4.0, 1.0, 3.0, 2.0, 5.0, 8.0, 8.0, 10.0, 17.0, 20.0, 35.0, 34.0, 67.0, 62.0, 113.0, 158.0, 206.0, 353.0, 515.0, 755.0, 1264.0, 2630.0, 6161.0, 1667.0, 804.0, 530.0, 289.0, 208.0, 125.0, 88.0, 67.0, 35.0, 27.0, 21.0, 15.0, 12.0, 14.0, 10.0, 8.0, 1.0, 7.0, 9.0, 5.0, 2.0, 0.0, 0.0, 3.0, 2.0], "bins": [-5.454293204820715e-05, -5.312060966389254e-05, -5.1698287279577926e-05, -5.0275964895263314e-05, -4.885364614892751e-05, -4.74313237646129e-05, -4.600900138029829e-05, -4.4586678995983675e-05, -4.3164356611669064e-05, -4.174203422735445e-05, -4.031971548101865e-05, -3.8897393096704036e-05, -3.7475070712389424e-05, -3.605274832807481e-05, -3.46304259437602e-05, -3.320810355944559e-05, -3.1785784813109785e-05, -3.036346060980577e-05, -2.8941140044480562e-05, -2.751881766016595e-05, -2.609649527585134e-05, -2.467417471052613e-05, -2.325185232621152e-05, -2.1829529941896908e-05, -2.04072093765717e-05, -1.898488699225709e-05, -1.7562564607942477e-05, -1.6140242223627865e-05, -1.4717921658302657e-05, -1.3295599273988046e-05, -1.1873277799168136e-05, -1.0450955414853524e-05, -9.028633940033615e-06, -7.606312010466354e-06, -6.183990080899093e-06, -4.7616686060791835e-06, -3.339346676511923e-06, -1.917024746944662e-06, -4.94703044751077e-07, 9.27618771129346e-07, 2.349940587009769e-06, 3.7722625165770296e-06, 5.19458444614429e-06, 6.6169059209642e-06, 8.03922739578411e-06, 9.461549780098721e-06, 1.0883871254918631e-05, 1.2306193639233243e-05, 1.3728515114053153e-05, 1.5150836588873062e-05, 1.6573158063692972e-05, 1.7995480448007584e-05, 1.9417802832322195e-05, 2.0840123397647403e-05, 2.2262445781962015e-05, 2.3684768166276626e-05, 2.5107088731601834e-05, 2.6529411115916446e-05, 2.7951733500231057e-05, 2.937405588454567e-05, 3.079637826886028e-05, 3.2218697015196085e-05, 3.3641019399510697e-05, 3.506334178382531e-05, 3.648566416813992e-05]}, "gradients/graph_1feature_fn.2.bias": {"_type": "histogram", "values": [1.0, 0.0, 0.0, 0.0, 0.0, 0.0, 0.0, 0.0, 0.0, 1.0, 0.0, 0.0, 0.0, 1.0, 0.0, 0.0, 3.0, 0.0, 2.0, 4.0, 3.0, 2.0, 2.0, 7.0, 6.0, 2.0, 6.0, 8.0, 13.0, 8.0, 19.0, 8.0, 4.0, 5.0, 2.0, 2.0, 3.0, 2.0, 3.0, 2.0, 1.0, 0.0, 2.0, 2.0, 2.0, 0.0, 0.0, 0.0, 0.0, 0.0, 0.0, 0.0, 1.0, 0.0, 0.0, 0.0, 0.0, 0.0, 0.0, 0.0, 0.0, 0.0, 0.0, 1.0], "bins": [-8.689430251251906e-05, -8.40816501295194e-05, -8.126899774651974e-05, -7.845633808756247e-05, -7.564368570456281e-05, -7.283103332156315e-05, -7.00183809385635e-05, -6.720572855556384e-05, -6.439306889660656e-05, -6.15804165136069e-05, -5.876776413060725e-05, -5.595511174760759e-05, -5.314245936460793e-05, -5.0329803343629465e-05, -4.7517150960629806e-05, -4.470449493965134e-05, -4.189184255665168e-05, -3.907919017365202e-05, -3.626653415267356e-05, -3.34538817696739e-05, -3.064122574869543e-05, -2.7828573365695775e-05, -2.5015920982696116e-05, -2.2203266780707054e-05, -1.9390612578717992e-05, -1.657795837672893e-05, -1.376530508423457e-05, -1.0952651791740209e-05, -8.139997589751147e-06, -5.3273438425094355e-06, -2.5146900952677242e-06, 2.97963651973987e-07, 3.1106246751733124e-06, 5.923278422415024e-06, 8.735932169656735e-06, 1.1548585462151095e-05, 1.4361239664140157e-05, 1.717389386612922e-05, 1.9986546249128878e-05, 2.279920045111794e-05, 2.5611854653107002e-05, 2.8424508855096065e-05, 3.123716305708513e-05, 3.4049815440084785e-05, 3.6862467823084444e-05, 3.967512384406291e-05, 4.248777622706257e-05, 4.5300432248041034e-05, 4.811308463104069e-05, 5.092573701404035e-05, 5.3738393035018817e-05, 5.6551045418018475e-05, 5.936370143899694e-05, 6.21763538219966e-05, 6.498900620499626e-05, 6.780165858799592e-05, 7.061431824695319e-05, 7.342697062995285e-05, 7.62396230129525e-05, 7.905227539595217e-05, 8.186492777895182e-05, 8.467758016195148e-05, 8.749023982090876e-05, 9.030289220390841e-05, 9.311554458690807e-05]}, "gradients/graph_1feature_fn.2.weight": {"_type": "histogram", "values": [1.0, 0.0, 0.0, 0.0, 0.0, 1.0, 0.0, 0.0, 0.0, 0.0, 1.0, 2.0, 3.0, 2.0, 2.0, 2.0, 1.0, 8.0, 4.0, 8.0, 10.0, 15.0, 25.0, 28.0, 46.0, 69.0, 95.0, 139.0, 260.0, 443.0, 903.0, 2251.0, 8374.0, 2083.0, 740.0, 348.0, 189.0, 110.0, 72.0, 54.0, 30.0, 22.0, 12.0, 8.0, 5.0, 5.0, 3.0, 3.0, 1.0, 3.0, 0.0, 0.0, 1.0, 0.0, 0.0, 0.0, 0.0, 1.0, 0.0, 0.0, 0.0, 0.0, 0.0, 1.0], "bins": [-0.00014733258285559714, -0.00014281796757131815, -0.00013830333773512393, -0.00013378870789892972, -0.00012927409261465073, -0.00012475947733037174, -0.00012024484749417752, -0.00011573022493394092, -0.00011121560237370431, -0.00010670097981346771, -0.00010218635725323111, -9.76717346929945e-05, -9.31571121327579e-05, -8.86424895725213e-05, -8.41278670122847e-05, -7.961324445204809e-05, -7.509862189181149e-05, -7.058399933157489e-05, -6.606937677133828e-05, -6.155475421110168e-05, -5.704013165086508e-05, -5.2525509090628475e-05, -4.801088653039187e-05, -4.349626397015527e-05, -3.8981641409918666e-05, -3.446701884968206e-05, -2.995239628944546e-05, -2.5437773729208857e-05, -2.0923151168972254e-05, -1.640852860873565e-05, -1.1893906048499048e-05, -7.379283488262445e-06, -2.8646463761106133e-06, 1.6499761841259897e-06, 6.164598744362593e-06, 1.0679221304599196e-05, 1.5193843864835799e-05, 1.9708466425072402e-05, 2.4223088985309005e-05, 2.8737711545545608e-05, 3.325233410578221e-05, 3.7766956666018814e-05, 4.228157922625542e-05, 4.679620178649202e-05, 5.131082434672862e-05, 5.5825446906965226e-05, 6.034006946720183e-05, 6.485469202743843e-05, 6.936931458767503e-05, 7.388393714791164e-05, 7.839855970814824e-05, 8.291318226838484e-05, 8.742780482862145e-05, 9.194242738885805e-05, 9.645704994909465e-05, 0.00010097167250933126, 0.00010548629506956786, 0.00011000091762980446, 0.00011451554019004107, 0.00011903016275027767, 0.00012354478531051427, 0.0001280594151467085, 0.00013257403043098748, 0.00013708864571526647, 0.00014160327555146068]}, "gradients/graph_1feature_fn.0.bias": {"_type": "histogram", "values": [1.0, 0.0, 0.0, 0.0, 0.0, 0.0, 1.0, 0.0, 0.0, 1.0, 1.0, 0.0, 3.0, 3.0, 3.0, 2.0, 2.0, 3.0, 2.0, 5.0, 7.0, 3.0, 4.0, 5.0, 1.0, 6.0, 8.0, 4.0, 8.0, 4.0, 3.0, 2.0, 2.0, 3.0, 4.0, 2.0, 2.0, 1.0, 3.0, 4.0, 4.0, 0.0, 1.0, 2.0, 1.0, 1.0, 2.0, 4.0, 0.0, 1.0, 1.0, 0.0, 0.0, 1.0, 0.0, 0.0, 3.0, 0.0, 0.0, 1.0, 1.0, 1.0, 0.0, 1.0], "bins": [-8.763447840465233e-05, -8.451565372524783e-05, -8.139683632180095e-05, -7.827801164239645e-05, -7.515919423894957e-05, -7.204036955954507e-05, -6.892155215609819e-05, -6.580272747669369e-05, -6.268390279728919e-05, -5.956508539384231e-05, -5.644626435241662e-05, -5.332744331099093e-05, -5.020861863158643e-05, -4.708979759016074e-05, -4.397097654873505e-05, -4.085215550730936e-05, -3.773333446588367e-05, -3.461451342445798e-05, -3.149569238303229e-05, -2.83768695226172e-05, -2.525804848119151e-05, -2.213922743976582e-05, -1.9020404579350725e-05, -1.5901583537925035e-05, -1.2782762496499345e-05, -9.663941455073655e-06, -6.545119504153263e-06, -3.426298007980222e-06, -3.0747651180718094e-07, 2.81134498436586e-06, 5.930166480538901e-06, 9.048988431459293e-06, 1.2167816748842597e-05, 1.5286637790268287e-05, 1.8405458831693977e-05, 2.152428169210907e-05, 2.464310273353476e-05, 2.776192377496045e-05, 3.0880746635375544e-05, 3.3999567676801234e-05, 3.7118388718226925e-05, 4.0237209759652615e-05, 4.3356030801078305e-05, 4.6474851842503995e-05, 4.959367652190849e-05, 5.271249756333418e-05, 5.583131860475987e-05, 5.895013964618556e-05, 6.206896068761125e-05, 6.518778536701575e-05, 6.830660277046263e-05, 7.142542744986713e-05, 7.454424485331401e-05, 7.766306953271851e-05, 8.078188693616539e-05, 8.390071161556989e-05, 8.701953629497439e-05, 9.013835369842127e-05, 9.325717837782577e-05, 9.637599578127265e-05, 9.949482046067715e-05, 0.00010261363786412403, 0.00010573246254352853, 0.00010885127994697541, 0.00011197010462637991]}, "gradients/graph_1feature_fn.0.weight": {"_type": "histogram", "values": [1.0, 0.0, 2.0, 0.0, 0.0, 3.0, 2.0, 3.0, 3.0, 7.0, 10.0, 13.0, 14.0, 20.0, 17.0, 23.0, 38.0, 46.0, 65.0, 81.0, 98.0, 135.0, 178.0, 231.0, 331.0, 349.0, 586.0, 853.0, 1741.0, 11544.0, 4006.0, 1320.0, 678.0, 437.0, 322.0, 274.0, 170.0, 182.0, 140.0, 85.0, 90.0, 67.0, 63.0, 42.0, 29.0, 22.0, 23.0, 16.0, 23.0, 19.0, 8.0, 14.0, 7.0, 7.0, 4.0, 2.0, 2.0, 0.0, 0.0, 1.0, 0.0, 0.0, 0.0, 1.0], "bins": [-0.00013109638530295342, -0.00012669042916968465, -0.00012228445848450065, -0.00011787849507527426, -0.00011347253166604787, -0.0001090665755327791, -0.00010466061212355271, -0.00010025464871432632, -9.584868530509993e-05, -9.144272189587355e-05, -8.703675848664716e-05, -8.263079507742077e-05, -7.8224838944152e-05, -7.381887553492561e-05, -6.941291212569922e-05, -6.500694871647283e-05, -6.0600985307246447e-05, -5.619502189802006e-05, -5.178905848879367e-05, -4.738309871754609e-05, -4.29771353083197e-05, -3.8571171899093315e-05, -3.4165212127845734e-05, -2.9759248718619347e-05, -2.535328530939296e-05, -2.094732190016657e-05, -1.6541360309929587e-05, -1.2135397810197901e-05, -7.729435310466215e-06, -3.323472810734529e-06, 1.082489688997157e-06, 5.488452188728843e-06, 9.8944001365453e-06, 1.4300362636276986e-05, 1.8706325136008672e-05, 2.3112286726245657e-05, 2.7518250135472044e-05, 3.192421354469843e-05, 3.633017331594601e-05, 4.07361367251724e-05, 4.514210013439879e-05, 4.9548063543625176e-05, 5.3954026952851564e-05, 5.8359986724099144e-05, 6.276594649534672e-05, 6.717190990457311e-05, 7.15778733137995e-05, 7.598383672302589e-05, 8.038980013225228e-05, 8.479576354147866e-05, 8.920172695070505e-05, 9.360769035993144e-05, 9.801365376915783e-05, 0.0001024196099024266, 0.00010682557331165299, 0.00011123153672087938, 0.00011563750013010576, 0.00012004346353933215, 0.00012444941967260092, 0.00012885539035778493, 0.0001332613464910537, 0.0001376673171762377, 0.00014207327330950648, 0.00014647924399469048, 0.00015088520012795925]}, "gradients/graph_1mlp.6.bias": {"_type": "histogram", "values": [1.0, 0.0, 0.0, 0.0, 1.0, 0.0, 0.0, 0.0, 0.0, 0.0, 0.0, 1.0, 0.0, 3.0, 0.0, 2.0, 0.0, 1.0, 1.0, 1.0, 2.0, 1.0, 2.0, 7.0, 5.0, 6.0, 4.0, 4.0, 10.0, 18.0, 3.0, 14.0, 7.0, 7.0, 4.0, 3.0, 2.0, 1.0, 1.0, 3.0, 3.0, 2.0, 0.0, 1.0, 1.0, 0.0, 0.0, 0.0, 1.0, 0.0, 2.0, 0.0, 1.0, 0.0, 0.0, 0.0, 0.0, 1.0, 0.0, 0.0, 0.0, 0.0, 0.0, 1.0], "bins": [-0.00017594841483514756, -0.00016998828505165875, -0.00016402815526816994, -0.00015806802548468113, -0.00015210789570119232, -0.0001461477659177035, -0.0001401876361342147, -0.0001342275063507259, -0.00012826737656723708, -0.00012230724678374827, -0.00011634711700025946, -0.00011038698721677065, -0.00010442685743328184, -9.846672764979303e-05, -9.250659786630422e-05, -8.654646808281541e-05, -8.05863382993266e-05, -7.462620851583779e-05, -6.866607873234898e-05, -6.270594894886017e-05, -5.674581916537136e-05, -5.078568938188255e-05, -4.482555959839374e-05, -3.886542981490493e-05, -3.290530003141612e-05, -2.6945170247927308e-05, -2.0985040464438498e-05, -1.5024910680949688e-05, -9.064780897460878e-06, -3.104651113972068e-06, 2.8554786695167422e-06, 8.815608453005552e-06, 1.4775723684579134e-05, 2.0735853468067944e-05, 2.6695983251556754e-05, 3.2656113035045564e-05, 3.8616242818534374e-05, 4.4576372602023184e-05, 5.0536502385511994e-05, 5.6496632169000804e-05, 6.245676195248961e-05, 6.841689173597842e-05, 7.437702151946723e-05, 8.033715130295604e-05, 8.629728108644485e-05, 9.225741086993366e-05, 9.821754065342247e-05, 0.00010417767043691128, 0.0001101378002204001, 0.0001160979300038889, 0.00012205805978737772, 0.00012801818957086653, 0.00013397831935435534, 0.00013993844913784415, 0.00014589857892133296, 0.00015185870870482177, 0.00015781883848831058, 0.00016377896827179939, 0.0001697390980552882, 0.000175699227838777, 0.00018165935762226582, 0.00018761948740575463, 0.00019357961718924344, 0.00019953974697273225, 0.00020549987675622106]}, "gradients/graph_1mlp.6.weight": {"_type": "histogram", "values": [2.0, 3.0, 2.0, 1.0, 3.0, 2.0, 1.0, 2.0, 4.0, 6.0, 3.0, 15.0, 8.0, 12.0, 23.0, 25.0, 29.0, 46.0, 56.0, 80.0, 114.0, 127.0, 214.0, 306.0, 469.0, 865.0, 2513.0, 7879.0, 1416.0, 691.0, 440.0, 285.0, 173.0, 120.0, 82.0, 73.0, 60.0, 38.0, 30.0, 27.0, 25.0, 16.0, 15.0, 16.0, 9.0, 9.0, 9.0, 7.0, 9.0, 2.0, 8.0, 3.0, 3.0, 0.0, 3.0, 2.0, 0.0, 2.0, 0.0, 0.0, 0.0, 0.0, 0.0, 1.0], "bins": [-5.7997374824481085e-05, -5.586252882494591e-05, -5.372768282541074e-05, -5.1592836825875565e-05, -4.945799082634039e-05, -4.732314482680522e-05, -4.5188298827270046e-05, -4.305345282773487e-05, -4.09186068281997e-05, -3.8783760828664526e-05, -3.664891482912935e-05, -3.451406882959418e-05, -3.237922283005901e-05, -3.0244376830523834e-05, -2.810953083098866e-05, -2.5974684831453487e-05, -2.3839838831918314e-05, -2.170499283238314e-05, -1.9570146832847968e-05, -1.7435300833312795e-05, -1.530045483377762e-05, -1.3165608834242448e-05, -1.1030762834707275e-05, -8.895916835172102e-06, -6.761070835636929e-06, -4.6262248361017555e-06, -2.4913788365665823e-06, -3.5653283703140914e-07, 1.778313162503764e-06, 3.913159162038937e-06, 6.04800516157411e-06, 8.182851161109284e-06, 1.0317700798623264e-05, 1.2452546798158437e-05, 1.458739279769361e-05, 1.6722238797228783e-05, 1.8857084796763957e-05, 2.099193079629913e-05, 2.3126776795834303e-05, 2.5261622795369476e-05, 2.739646879490465e-05, 2.9531314794439822e-05, 3.1666160793974996e-05, 3.380100679351017e-05, 3.593585279304534e-05, 3.8070698792580515e-05, 4.020554479211569e-05, 4.234039079165086e-05, 4.4475236791186035e-05, 4.661008279072121e-05, 4.874492879025638e-05, 5.0879774789791554e-05, 5.301462078932673e-05, 5.51494667888619e-05, 5.7284312788397074e-05, 5.941915878793225e-05, 6.155400478746742e-05, 6.36888507870026e-05, 6.582369678653777e-05, 6.795854278607294e-05, 7.009338878560811e-05, 7.222823478514329e-05, 7.436308078467846e-05, 7.649792678421363e-05, 7.86327727837488e-05]}, "gradients/graph_1mlp.4.bias": {"_type": "histogram", "values": [2.0, 0.0, 2.0, 0.0, 1.0, 3.0, 1.0, 2.0, 2.0, 5.0, 2.0, 5.0, 3.0, 8.0, 5.0, 10.0, 13.0, 17.0, 5.0, 9.0, 5.0, 4.0, 9.0, 2.0, 2.0, 1.0, 0.0, 2.0, 0.0, 1.0, 0.0, 0.0, 1.0, 0.0, 1.0, 0.0, 0.0, 1.0, 0.0, 0.0, 1.0, 0.0, 0.0, 0.0, 0.0, 0.0, 0.0, 0.0, 0.0, 0.0, 0.0, 0.0, 0.0, 0.0, 0.0, 0.0, 0.0, 0.0, 1.0, 0.0, 0.0, 1.0, 0.0, 1.0], "bins": [-0.0002277502790093422, -0.00021438297699205577, -0.00020101567497476935, -0.0001876483584055677, -0.00017428105638828129, -0.00016091375437099487, -0.00014754645235370845, -0.00013417915033642203, -0.00012081184104317799, -0.00010744453902589157, -9.407722973264754e-05, -8.070992771536112e-05, -6.73426256980747e-05, -5.3975316404830664e-05, -4.0608014387544245e-05, -2.7240708732279018e-05, -1.387340307701379e-05, -5.060983312432654e-07, 1.286120641452726e-05, 2.6228510250803083e-05, 3.959581590606831e-05, 5.296312156133354e-05, 6.633042357861996e-05, 7.969773287186399e-05, 9.306503488915041e-05, 0.00010643233690643683, 0.00011979964619968086, 0.00013316694821696728, 0.0001465342502342537, 0.00015990155225154012, 0.00017326886882074177, 0.0001866361708380282, 0.0002000034728553146, 0.00021337077487260103, 0.00022673807688988745, 0.0002401053934590891, 0.0002534726809244603, 0.0002668399829417467, 0.0002802073140628636, 0.00029357461608015, 0.00030694191809743643, 0.00032030922011472285, 0.00033367652213200927, 0.0003470438241492957, 0.0003604111261665821, 0.00037377842818386853, 0.00038714573020115495, 0.00040051303221844137, 0.0004138803342357278, 0.00042724766535684466, 0.0004406149673741311, 0.0004539822693914175, 0.0004673495714087039, 0.00048071687342599034, 0.0004940842045471072, 0.0005074514774605632, 0.0005208188085816801, 0.000534186081495136, 0.0005475534126162529, 0.0005609206855297089, 0.0005742880166508257, 0.0005876552895642817, 0.0006010226206853986, 0.0006143898935988545, 0.0006277572247199714]}, "gradients/graph_1mlp.4.weight": {"_type": "histogram", "values": [2.0, 0.0, 2.0, 1.0, 1.0, 3.0, 5.0, 5.0, 9.0, 11.0, 20.0, 23.0, 36.0, 58.0, 73.0, 107.0, 167.0, 291.0, 601.0, 1475.0, 9671.0, 2075.0, 807.0, 373.0, 174.0, 89.0, 63.0, 52.0, 25.0, 29.0, 26.0, 18.0, 7.0, 10.0, 4.0, 11.0, 7.0, 11.0, 5.0, 8.0, 6.0, 3.0, 3.0, 7.0, 0.0, 3.0, 2.0, 1.0, 0.0, 0.0, 0.0, 1.0, 0.0, 0.0, 0.0, 1.0, 0.0, 0.0, 1.0, 0.0, 0.0, 0.0, 0.0, 1.0], "bins": [-0.00017535794177092612, -0.00016682063869666308, -0.00015828332107048482, -0.00014974601799622178, -0.00014120870037004352, -0.00013267139729578048, -0.00012413407966960222, -0.00011559677659533918, -0.00010705946624511853, -9.852215589489788e-05, -8.998484554467723e-05, -8.144753519445658e-05, -7.291023212019354e-05, -6.437292176997289e-05, -5.583561141975224e-05, -4.729830106953159e-05, -3.876099071931094e-05, -3.022368036909029e-05, -2.1686371837859042e-05, -1.3149062397133093e-05, -4.611752956407145e-06, 3.925556484318804e-06, 1.2462865925044753e-05, 2.1000174456276e-05, 2.953748480649665e-05, 3.80747951567173e-05, 4.661210550693795e-05, 5.5149412219179794e-05, 6.368671893142164e-05, 7.222402928164229e-05, 8.076133963186294e-05, 8.929864998208359e-05, 9.783596033230424e-05, 0.00010637327068252489, 0.00011491058103274554, 0.00012344788410700858, 0.00013198520173318684, 0.00014052250480744988, 0.00014905982243362814, 0.00015759712550789118, 0.00016613444313406944, 0.00017467174620833248, 0.00018320904928259552, 0.00019174636690877378, 0.00020028366998303682, 0.00020882098760921508, 0.00021735829068347812, 0.00022589560830965638, 0.00023443291138391942, 0.00024297021445818245, 0.0002515075320843607, 0.000260044849710539, 0.0002685821382328868, 0.00027711945585906506, 0.0002856567734852433, 0.0002941940911114216, 0.0003027313796337694, 0.00031126869725994766, 0.0003198060148861259, 0.00032834330340847373, 0.000336880621034652, 0.00034541793866083026, 0.0003539552562870085, 0.00036249254480935633, 0.0003710298624355346]}, "gradients/graph_1mlp.2.bias": {"_type": "histogram", "values": [1.0, 0.0, 0.0, 0.0, 1.0, 0.0, 0.0, 0.0, 1.0, 0.0, 0.0, 0.0, 1.0, 0.0, 0.0, 0.0, 0.0, 0.0, 1.0, 1.0, 0.0, 3.0, 6.0, 4.0, 2.0, 5.0, 12.0, 7.0, 13.0, 19.0, 13.0, 6.0, 7.0, 5.0, 3.0, 2.0, 2.0, 0.0, 3.0, 1.0, 0.0, 0.0, 0.0, 1.0, 0.0, 0.0, 1.0, 0.0, 0.0, 0.0, 0.0, 0.0, 0.0, 0.0, 1.0, 0.0, 2.0, 0.0, 1.0, 1.0, 0.0, 0.0, 1.0, 1.0], "bins": [-0.0008349977433681488, -0.0008068420575000346, -0.0007786863716319203, -0.0007505306857638061, -0.0007223749998956919, -0.0006942192558199167, -0.0006660635699518025, -0.0006379078840836883, -0.000609752198215574, -0.0005815965123474598, -0.0005534408264793456, -0.0005252851406112313, -0.0004971293965354562, -0.0004689737397711724, -0.0004408180247992277, -0.0004126623389311135, -0.00038450665306299925, -0.000356350967194885, -0.0003281952813267708, -0.0003000395663548261, -0.00027188388048671186, -0.00024372819461859763, -0.00021557249419856817, -0.0001874167937785387, -0.00015926110791042447, -0.00013110542204231024, -0.00010294972162228078, -7.479402847820893e-05, -4.663833533413708e-05, -1.8482642190065235e-05, 9.673050954006612e-06, 3.782874409807846e-05, 6.59844372421503e-05, 9.414013038622215e-05, 0.000122295823530294, 0.00015045152395032346, 0.0001786072098184377, 0.00020676289568655193, 0.0002349185961065814, 0.00026307429652661085, 0.0002912299823947251, 0.0003193856682628393, 0.00034754135413095355, 0.00037569706910289824, 0.0004038527549710125, 0.0004320084408391267, 0.0004601641558110714, 0.0004883198416791856, 0.0005164755275472999, 0.0005446312134154141, 0.0005727868992835283, 0.0006009425851516426, 0.0006290982710197568, 0.0006572540150955319, 0.0006854097009636462, 0.0007135653868317604, 0.0007417210726998746, 0.0007698767585679889, 0.0007980324444361031, 0.0008261881303042173, 0.0008543438743799925, 0.0008824995602481067, 0.000910655246116221, 0.0009388109319843352, 0.0009669666178524494]}, "gradients/graph_1mlp.2.weight": {"_type": "histogram", "values": [1.0, 0.0, 0.0, 2.0, 2.0, 0.0, 1.0, 0.0, 1.0, 2.0, 1.0, 5.0, 3.0, 4.0, 2.0, 4.0, 6.0, 7.0, 6.0, 11.0, 9.0, 25.0, 18.0, 32.0, 54.0, 99.0, 151.0, 319.0, 588.0, 1629.0, 10778.0, 1489.0, 436.0, 231.0, 117.0, 65.0, 50.0, 48.0, 23.0, 23.0, 26.0, 12.0, 16.0, 16.0, 6.0, 16.0, 9.0, 6.0, 2.0, 6.0, 4.0, 4.0, 3.0, 0.0, 4.0, 5.0, 2.0, 2.0, 0.0, 0.0, 1.0, 0.0, 1.0, 1.0], "bins": [-0.0009032305679284036, -0.0008735249866731465, -0.0008438194636255503, -0.0008141138823702931, -0.0007844083593226969, -0.0007547027780674398, -0.0007249972550198436, -0.0006952916737645864, -0.0006655860925093293, -0.0006358805694617331, -0.000606174988206476, -0.0005764694651588798, -0.0005467638839036226, -0.0005170583608560264, -0.0004873527796007693, -0.0004576472274493426, -0.00042794167529791594, -0.00039823612314648926, -0.0003685305709950626, -0.0003388250188436359, -0.00030911946669220924, -0.0002794138854369521, -0.00024970833328552544, -0.00022000278113409877, -0.0001902972289826721, -0.00016059167683124542, -0.00013088612467981875, -0.00010118055797647685, -7.147500582505018e-05, -4.1769450035644695e-05, -1.2063894246239215e-05, 1.7641661543166265e-05, 4.734715912491083e-05, 7.70527112763375e-05, 0.00010675827070372179, 0.00013646383013110608, 0.00016616938228253275, 0.00019587493443395942, 0.00022558050113730133, 0.000255286053288728, 0.00028499160544015467, 0.00031469715759158134, 0.000344402709743008, 0.0003741082618944347, 0.0004038138431496918, 0.0004335193953011185, 0.00046322494745254517, 0.0004929304705001414, 0.0005226360517553985, 0.0005523416330106556, 0.0005820471560582519, 0.000611752737313509, 0.0006414582603611052, 0.0006711638416163623, 0.0007008693646639585, 0.0007305749459192157, 0.0007602805271744728, 0.000789986050222069, 0.0008196916314773262, 0.0008493971545249224, 0.0008791027357801795, 0.0009088082588277757, 0.0009385138400830328, 0.0009682193631306291, 0.0009979249443858862]}, "gradients/graph_1mlp.0.bias": {"_type": "histogram", "values": [1.0, 2.0, 0.0, 1.0, 0.0, 0.0, 1.0, 1.0, 0.0, 1.0, 3.0, 1.0, 3.0, 2.0, 2.0, 2.0, 5.0, 5.0, 9.0, 4.0, 16.0, 12.0, 15.0, 9.0, 4.0, 6.0, 5.0, 2.0, 0.0, 1.0, 0.0, 0.0, 3.0, 1.0, 0.0, 0.0, 1.0, 0.0, 0.0, 0.0, 2.0, 1.0, 0.0, 0.0, 0.0, 1.0, 1.0, 0.0, 0.0, 0.0, 1.0, 0.0, 0.0, 1.0, 0.0, 1.0, 0.0, 0.0, 0.0, 1.0, 0.0, 0.0, 0.0, 1.0], "bins": [-0.0009075700072571635, -0.0008640506421215832, -0.0008205312769860029, -0.0007770119118504226, -0.0007334925467148423, -0.000689973181579262, -0.0006464538164436817, -0.0006029344513081014, -0.0005594150861725211, -0.0005158957792446017, -0.00047237638500519097, -0.00042885701986961067, -0.0003853376838378608, -0.0003418183187022805, -0.0002982989535667002, -0.0002547795884311199, -0.00021126022329553962, -0.00016774085815995932, -0.00012422149302437901, -8.070214244071394e-05, -3.718277730513364e-05, 6.3365841924678534e-06, 4.985594569006935e-05, 9.337530354969203e-05, 0.00013689466868527234, 0.00018041403382085264, 0.00022393339895643294, 0.00026745276409201324, 0.0003109721001237631, 0.0003544914652593434, 0.0003980108303949237, 0.000441530195530504, 0.0004850495606660843, 0.0005285689258016646, 0.0005720882909372449, 0.0006156076560728252, 0.0006591270212084055, 0.0007026463863439858, 0.0007461657514795661, 0.0007896851166151464, 0.0008332044817507267, 0.0008767237886786461, 0.0009202431538142264, 0.0009637625189498067, 0.001007281942293048, 0.0010508012492209673, 0.0010943206725642085, 0.001137839979492128, 0.0011813594028353691, 0.0012248787097632885, 0.0012683980166912079, 0.001311917440034449, 0.0013554367469623685, 0.0013989561703056097, 0.001442475477233529, 0.0014859949005767703, 0.0015295142075046897, 0.001573033630847931, 0.0016165529377758503, 0.0016600723611190915, 0.001703591668047011, 0.0017471110913902521, 0.0017906303983181715, 0.0018341498216614127, 0.001877669128589332]}, "gradients/graph_1mlp.0.weight": {"_type": "histogram", "values": [1.0, 1.0, 0.0, 1.0, 0.0, 0.0, 2.0, 1.0, 1.0, 4.0, 5.0, 2.0, 6.0, 5.0, 5.0, 9.0, 10.0, 9.0, 20.0, 23.0, 47.0, 40.0, 55.0, 83.0, 110.0, 179.0, 219.0, 405.0, 831.0, 2665.0, 1601.0, 590.0, 341.0, 150.0, 136.0, 95.0, 66.0, 61.0, 45.0, 45.0, 35.0, 23.0, 24.0, 11.0, 17.0, 20.0, 10.0, 9.0, 14.0, 6.0, 7.0, 4.0, 7.0, 3.0, 0.0, 1.0, 1.0, 1.0, 0.0, 1.0, 0.0, 0.0, 0.0, 1.0], "bins": [-0.002401728881523013, -0.0023209950886666775, -0.002240261295810342, -0.002159527502954006, -0.0020787937100976706, -0.001998059917241335, -0.001917326240800321, -0.0018365924479439855, -0.0017558587715029716, -0.001675124978646636, -0.0015943911857903004, -0.0015136573929339647, -0.001432923600077629, -0.0013521898072212934, -0.0012714561307802796, -0.001190722337923944, -0.0011099885450676084, -0.0010292547522112727, -0.000948521017562598, -0.0008677872247062624, -0.0007870534900575876, -0.000706319697201252, -0.0006255859043449163, -0.0005448521696962416, -0.000464118376839906, -0.0003833846130874008, -0.0003026508493348956, -0.00022191705647855997, -0.0001411832927260548, -6.044952169759199e-05, 2.0284249330870807e-05, 0.0001010180203593336, 0.0001817517913877964, 0.0002624855551403016, 0.00034321931889280677, 0.0004239531117491424, 0.0005046868463978171, 0.0005854206392541528, 0.0006661544321104884, 0.0007468881667591631, 0.0008276219596154988, 0.0009083557524718344, 0.0009890894871205091, 0.0010698232799768448, 0.0011505570728331804, 0.001231290865689516, 0.0013120245421305299, 0.0013927583349868655, 0.0014734921278432012, 0.0015542259206995368, 0.0016349597135558724, 0.0017156933899968863, 0.001796427182853222, 0.0018771609757095575, 0.001957894768565893, 0.002038628561422229, 0.0021193623542785645, 0.0022000961471349, 0.0022808299399912357, 0.0023615635000169277, 0.0024422972928732634, 0.002523031085729599, 0.0026037648785859346, 0.0026844986714422703, 0.002765232464298606]}, "gradients/rgb_fn.2.bias": {"_type": "histogram", "values": [1.0, 0.0, 0.0, 0.0, 0.0, 0.0, 0.0, 0.0, 0.0, 0.0, 0.0, 0.0, 0.0, 0.0, 0.0, 0.0, 0.0, 0.0, 0.0, 0.0, 0.0, 0.0, 0.0, 0.0, 0.0, 0.0, 0.0, 0.0, 0.0, 0.0, 0.0, 0.0, 0.0, 0.0, 0.0, 1.0, 0.0, 0.0, 0.0, 0.0, 0.0, 0.0, 0.0, 0.0, 0.0, 0.0, 0.0, 0.0, 0.0, 0.0, 0.0, 0.0, 0.0, 0.0, 0.0, 0.0, 0.0, 0.0, 0.0, 0.0, 0.0, 0.0, 0.0, 1.0], "bins": [4.869321492151357e-05, 4.881497079622932e-05, 4.893672667094506e-05, 4.905848254566081e-05, 4.918023478239775e-05, 4.930199065711349e-05, 4.942374653182924e-05, 4.954550240654498e-05, 4.966725828126073e-05, 4.9789014155976474e-05, 4.991076639271341e-05, 5.003252226742916e-05, 5.0154278142144904e-05, 5.027603401686065e-05, 5.0397789891576394e-05, 5.051954576629214e-05, 5.064129800302908e-05, 5.0763053877744824e-05, 5.088480975246057e-05, 5.1006565627176315e-05, 5.112832150189206e-05, 5.1250077376607805e-05, 5.137183325132355e-05, 5.149358548806049e-05, 5.1615341362776235e-05, 5.173709723749198e-05, 5.1858853112207726e-05, 5.198060898692347e-05, 5.2102364861639217e-05, 5.2224117098376155e-05, 5.23458729730919e-05, 5.2467628847807646e-05, 5.258938472252339e-05, 5.271114059723914e-05, 5.283289647195488e-05, 5.295465234667063e-05, 5.3076404583407566e-05, 5.319816045812331e-05, 5.331991633283906e-05, 5.34416722075548e-05, 5.356342808227055e-05, 5.368518395698629e-05, 5.380693619372323e-05, 5.392869206843898e-05, 5.405044794315472e-05, 5.417220381787047e-05, 5.429395969258621e-05, 5.441571556730196e-05, 5.4537471442017704e-05, 5.465922367875464e-05, 5.478097955347039e-05, 5.4902735428186134e-05, 5.502449130290188e-05, 5.5146247177617624e-05, 5.526800305233337e-05, 5.538975528907031e-05, 5.5511511163786054e-05, 5.56332670385018e-05, 5.5755022913217545e-05, 5.587677878793329e-05, 5.5998534662649035e-05, 5.6120286899385974e-05, 5.624204277410172e-05, 5.6363798648817465e-05, 5.648555452353321e-05]}, "gradients/rgb_fn.2.weight": {"_type": "histogram", "values": [4.0, 2.0, 0.0, 11.0, 14.0, 153.0, 40.0, 24.0, 9.0, 12.0, 8.0, 14.0, 8.0, 13.0, 9.0, 6.0, 2.0, 2.0, 3.0, 4.0, 5.0, 2.0, 2.0, 2.0, 3.0, 3.0, 6.0, 2.0, 3.0, 2.0, 1.0, 1.0, 0.0, 0.0, 0.0, 1.0, 0.0, 1.0, 0.0, 1.0, 1.0, 1.0, 0.0, 0.0, 0.0, 1.0, 0.0, 0.0, 3.0, 0.0, 0.0, 1.0, 0.0, 0.0, 0.0, 1.0, 0.0, 0.0, 0.0, 0.0, 0.0, 0.0, 0.0, 3.0], "bins": [-2.1476673282450065e-05, -1.736398189677857e-05, -1.3251288692117669e-05, -9.13859639695147e-06, -5.025904101785272e-06, -9.132118066190742e-07, 3.199480488547124e-06, 7.312172783713322e-06, 1.142486507887952e-05, 1.5537556464551017e-05, 1.9650249669211917e-05, 2.3762942873872817e-05, 2.7875634259544313e-05, 3.198832564521581e-05, 3.6101017030887306e-05, 4.021371205453761e-05, 4.4326403440209106e-05, 4.84390948258806e-05, 5.2551789849530905e-05, 5.66644812352024e-05, 6.07771726208739e-05, 6.48898640065454e-05, 6.900255539221689e-05, 7.311524677788839e-05, 7.72279454395175e-05, 8.1340636825189e-05, 8.545332821086049e-05, 8.956601959653199e-05, 9.367871098220348e-05, 9.779140236787498e-05, 0.00010190409375354648, 0.00010601678513921797, 0.0001101294910768047, 0.0001142421824624762, 0.00011835487384814769, 0.0001224675652338192, 0.00012658025661949068, 0.00013069294800516218, 0.00013480563939083368, 0.00013891833077650517, 0.0001430310367140919, 0.0001471437280997634, 0.0001512564194854349, 0.00015536911087110639, 0.00015948180225677788, 0.00016359449364244938, 0.00016770718502812088, 0.00017181987641379237, 0.00017593256779946387, 0.00018004525918513536, 0.00018415795057080686, 0.00018827064195647836, 0.00019238333334214985, 0.00019649602472782135, 0.00020060871611349285, 0.00020472140749916434, 0.00020883409888483584, 0.00021294680482242256, 0.00021705949620809406, 0.00022117218759376556, 0.00022528487897943705, 0.00022939757036510855, 0.00023351026175078005, 0.00023762295313645154, 0.00024173564452212304]}, "gradients/rgb_fn.0.bias": {"_type": "histogram", "values": [1.0, 0.0, 0.0, 0.0, 0.0, 0.0, 0.0, 0.0, 0.0, 0.0, 0.0, 0.0, 0.0, 0.0, 1.0, 0.0, 0.0, 0.0, 0.0, 0.0, 0.0, 0.0, 4.0, 1.0, 3.0, 9.0, 13.0, 52.0, 19.0, 9.0, 4.0, 3.0, 0.0, 4.0, 1.0, 1.0, 0.0, 0.0, 0.0, 1.0, 0.0, 0.0, 0.0, 0.0, 0.0, 0.0, 0.0, 0.0, 0.0, 0.0, 0.0, 0.0, 1.0, 0.0, 0.0, 0.0, 0.0, 0.0, 0.0, 0.0, 0.0, 0.0, 0.0, 1.0], "bins": [-6.612010474782437e-05, -6.373295036610216e-05, -6.134579598437995e-05, -5.8958641602657735e-05, -5.6571487220935524e-05, -5.4184329201234505e-05, -5.179717481951229e-05, -4.941002043779008e-05, -4.702286605606787e-05, -4.463571167434566e-05, -4.2248557292623445e-05, -3.9861402910901234e-05, -3.7474244891200215e-05, -3.5087090509478e-05, -3.269993612775579e-05, -3.031278174603358e-05, -2.7925627364311367e-05, -2.5538472982589155e-05, -2.3151318600866944e-05, -2.0764162400155328e-05, -1.8377008018433116e-05, -1.5989853636710905e-05, -1.3602698345493991e-05, -1.1215543054277077e-05, -8.828388672554865e-06, -6.441233836085303e-06, -4.05407899961574e-06, -1.6669241631461773e-06, 7.202306733233854e-07, 3.107385509792948e-06, 5.494540346262511e-06, 7.881695637479424e-06, 1.026885729515925e-05, 1.2656011676881462e-05, 1.5043166968098376e-05, 1.743032225931529e-05, 1.98174766410375e-05, 2.2204631022759713e-05, 2.459178722347133e-05, 2.697894160519354e-05, 2.9366095986915752e-05, 3.1753250368637964e-05, 3.4140404750360176e-05, 3.652755913208239e-05, 3.891471715178341e-05, 4.130187153350562e-05, 4.368902591522783e-05, 4.607618029695004e-05, 4.8463334678672254e-05, 5.0850489060394466e-05, 5.323764344211668e-05, 5.562479782383889e-05, 5.80119522055611e-05, 6.039911022526212e-05, 6.278626096900553e-05, 6.517341535072774e-05, 6.756056973244995e-05, 6.994773139012977e-05, 7.233488577185199e-05, 7.47220401535742e-05, 7.710919453529641e-05, 7.949634891701862e-05, 8.188350329874083e-05, 8.427065768046305e-05, 8.665781206218526e-05]}, "gradients/rgb_fn.0.weight": {"_type": "histogram", "values": [1.0, 0.0, 1.0, 1.0, 1.0, 0.0, 3.0, 2.0, 3.0, 1.0, 3.0, 2.0, 0.0, 1.0, 4.0, 2.0, 7.0, 3.0, 3.0, 12.0, 5.0, 13.0, 13.0, 26.0, 36.0, 51.0, 69.0, 169.0, 298.0, 1243.0, 15903.0, 1216.0, 289.0, 169.0, 99.0, 56.0, 34.0, 24.0, 16.0, 11.0, 6.0, 9.0, 3.0, 1.0, 4.0, 2.0, 3.0, 1.0, 5.0, 7.0, 3.0, 0.0, 1.0, 0.0, 1.0, 1.0, 0.0, 0.0, 1.0, 0.0, 1.0, 0.0, 0.0, 1.0], "bins": [-0.00029647775227203965, -0.00028675838257186115, -0.00027703901287168264, -0.00026731964317150414, -0.00025760027347132564, -0.00024788090377114713, -0.00023816153407096863, -0.00022844216437079012, -0.00021872279467061162, -0.0002090034104185179, -0.00019928404071833938, -0.00018956467101816088, -0.00017984530131798238, -0.00017012593161780387, -0.00016040656191762537, -0.00015068719221744686, -0.00014096782251726836, -0.00013124845281708986, -0.00012152908311691135, -0.00011180971341673285, -0.00010209034371655434, -9.237096674041823e-05, -8.265159704023972e-05, -7.293222734006122e-05, -6.321285763988271e-05, -5.349348793970421e-05, -4.3774118239525706e-05, -3.4054744901368394e-05, -2.433537520118989e-05, -1.4616004591516685e-05, -4.896633981843479e-06, 4.822736627829727e-06, 1.4542107237502933e-05, 2.4261476937681437e-05, 3.398084663785994e-05, 4.370021997601725e-05, 5.3419589676195756e-05, 6.313896301435307e-05, 7.285833271453157e-05, 8.257770241471007e-05, 9.229707211488858e-05, 0.00010201644181506708, 0.00011173581151524559, 0.00012145518121542409, 0.0001311745581915602, 0.0001408939278917387, 0.00015061329759191722, 0.00016033266729209572, 0.00017005203699227422, 0.00017977140669245273, 0.00018949077639263123, 0.00019921014609280974, 0.00020892951579298824, 0.00021864888549316674, 0.00022836825519334525, 0.00023808762489352375, 0.0002478070091456175, 0.000257526378845796, 0.0002672457485459745, 0.000276965118246153, 0.0002866844879463315, 0.00029640385764651, 0.0003061232273466885, 0.000315842597046867, 0.0003255619667470455]}, "gradients/density_fn.0.bias": {"_type": "histogram", "values": [1.0], "bins": [-1.7132540506281657e-06, -1.7132540506281657e-06]}, "gradients/density_fn.0.weight": {"_type": "histogram", "values": [1.0, 0.0, 1.0, 2.0, 0.0, 0.0, 0.0, 4.0, 2.0, 1.0, 1.0, 3.0, 3.0, 1.0, 2.0, 0.0, 3.0, 4.0, 3.0, 4.0, 3.0, 3.0, 2.0, 1.0, 3.0, 0.0, 4.0, 4.0, 1.0, 2.0, 7.0, 5.0, 1.0, 6.0, 0.0, 3.0, 5.0, 3.0, 2.0, 1.0, 1.0, 7.0, 3.0, 1.0, 4.0, 4.0, 2.0, 1.0, 3.0, 0.0, 1.0, 1.0, 2.0, 2.0, 4.0, 0.0, 0.0, 0.0, 0.0, 0.0, 0.0, 0.0, 0.0, 1.0], "bins": [-5.231518571235938e-06, -5.060056537331548e-06, -4.888594048679806e-06, -4.717132014775416e-06, -4.545669526123675e-06, -4.374207492219284e-06, -4.202745003567543e-06, -4.0312829696631525e-06, -3.859820935758762e-06, -3.6883584471070208e-06, -3.516896185828955e-06, -3.345433924550889e-06, -3.1739718906464987e-06, -3.002509629368433e-06, -2.831047368090367e-06, -2.659585106812301e-06, -2.4881228455342352e-06, -2.3166605842561694e-06, -2.1451983229781035e-06, -1.9737360617000377e-06, -1.8022739141088095e-06, -1.6308116528307437e-06, -1.4593495052395156e-06, -1.2878872439614497e-06, -1.1164249826833839e-06, -9.44962721405318e-07, -7.73500516970671e-07, -6.02038312536024e-07, -4.3057605125795817e-07, -2.5911381840160175e-07, -8.765158554524533e-08, 8.38106473111111e-08, 2.552728801674675e-07, 4.2673511302382394e-07, 5.981973458801804e-07, 7.696595503148274e-07, 9.411218115928932e-07, 1.112584072870959e-06, 1.2840462204621872e-06, 1.455508481740253e-06, 1.626970743018319e-06, 1.7984330042963848e-06, 1.9698952655744506e-06, 2.1413575268525165e-06, 2.312819560756907e-06, 2.4842818220349727e-06, 2.6557440833130386e-06, 2.8272063445911044e-06, 2.9986686058691703e-06, 3.170130867147236e-06, 3.341593128425302e-06, 3.513055389703368e-06, 3.6845176509814337e-06, 3.855979684885824e-06, 4.027442173537565e-06, 4.198904207441956e-06, 4.370366696093697e-06, 4.5418287299980875e-06, 4.713290763902478e-06, 4.884753252554219e-06, 5.05621528645861e-06, 5.227677775110351e-06, 5.399139809014741e-06, 5.570602297666483e-06, 5.742064331570873e-06]}, "gradients/feature_fn.4.bias": {"_type": "histogram", "values": [1.0, 0.0, 0.0, 0.0, 0.0, 1.0, 1.0, 0.0, 1.0, 1.0, 0.0, 1.0, 1.0, 2.0, 0.0, 2.0, 1.0, 3.0, 0.0, 0.0, 7.0, 2.0, 4.0, 6.0, 4.0, 5.0, 6.0, 6.0, 4.0, 4.0, 7.0, 4.0, 2.0, 5.0, 3.0, 2.0, 3.0, 6.0, 1.0, 5.0, 6.0, 5.0, 3.0, 1.0, 1.0, 0.0, 1.0, 0.0, 1.0, 0.0, 1.0, 0.0, 1.0, 2.0, 0.0, 0.0, 1.0, 1.0, 1.0, 0.0, 0.0, 0.0, 0.0, 2.0], "bins": [-4.853970676776953e-05, -4.698990596807562e-05, -4.54401015304029e-05, -4.3890300730708987e-05, -4.234049629303627e-05, -4.0790695493342355e-05, -3.9240891055669636e-05, -3.769109025597572e-05, -3.614128945628181e-05, -3.459148501860909e-05, -3.304168421891518e-05, -3.149187978124246e-05, -2.9942078981548548e-05, -2.8392276362865232e-05, -2.6842473744181916e-05, -2.52926711254986e-05, -2.3742868506815284e-05, -2.219306588813197e-05, -2.0643263269448653e-05, -1.9093460650765337e-05, -1.754365803208202e-05, -1.599385723238811e-05, -1.4444054613704793e-05, -1.2894251995021477e-05, -1.1344449376338162e-05, -9.794646757654846e-06, -8.24484413897153e-06, -6.695042429782916e-06, -5.1452398110996e-06, -3.5954374197899597e-06, -2.0456350284803193e-06, -4.958326371706789e-07, 1.0539733921177685e-06, 2.603775783427409e-06, 4.153578174737049e-06, 5.703380338673014e-06, 7.25318295735633e-06, 8.802985576039646e-06, 1.035278728522826e-05, 1.1902589903911576e-05, 1.3452392522594891e-05, 1.5002195141278207e-05, 1.6551997759961523e-05, 1.810180037864484e-05, 1.965160117833875e-05, 2.1201403797022067e-05, 2.2751206415705383e-05, 2.43010090343887e-05, 2.5850811653072014e-05, 2.740061427175533e-05, 2.8950416890438646e-05, 3.0500219509121962e-05, 3.205002212780528e-05, 3.359982292749919e-05, 3.514962736517191e-05, 3.669942816486582e-05, 3.8249228964559734e-05, 3.979903340223245e-05, 4.1348834201926365e-05, 4.2898638639599085e-05, 4.4448439439293e-05, 4.5998243876965716e-05, 4.754804467665963e-05, 4.909784911433235e-05, 5.064764991402626e-05]}, "gradients/feature_fn.4.weight": {"_type": "histogram", "values": [1.0, 1.0, 0.0, 1.0, 1.0, 1.0, 0.0, 0.0, 1.0, 0.0, 0.0, 2.0, 0.0, 0.0, 2.0, 5.0, 4.0, 6.0, 5.0, 8.0, 15.0, 14.0, 17.0, 22.0, 28.0, 40.0, 77.0, 103.0, 159.0, 225.0, 332.0, 585.0, 1014.0, 1760.0, 4840.0, 3129.0, 1517.0, 882.0, 520.0, 368.0, 211.0, 162.0, 95.0, 65.0, 43.0, 32.0, 22.0, 11.0, 8.0, 9.0, 8.0, 3.0, 5.0, 4.0, 7.0, 1.0, 3.0, 1.0, 2.0, 1.0, 2.0, 1.0, 2.0, 1.0], "bins": [-4.749341678689234e-05, -4.613282362697646e-05, -4.4772226829081774e-05, -4.3411633669165894e-05, -4.2051040509250015e-05, -4.069044371135533e-05, -3.932985055143945e-05, -3.796925739152357e-05, -3.660866059362888e-05, -3.5248067433713004e-05, -3.3887474273797125e-05, -3.2526881113881245e-05, -3.116628431598656e-05, -2.980569115607068e-05, -2.8445096177165397e-05, -2.7084503017249517e-05, -2.5723908038344234e-05, -2.436331305943895e-05, -2.3002719899523072e-05, -2.164212492061779e-05, -2.028153176070191e-05, -1.8920936781796627e-05, -1.7560341802891344e-05, -1.6199748642975464e-05, -1.4839153664070182e-05, -1.34785595946596e-05, -1.211796552524902e-05, -1.0757370546343736e-05, -9.396776476933155e-06, -8.036182407522574e-06, -6.675587883364642e-06, -5.31499335920671e-06, -3.954399289796129e-06, -2.5938049930118723e-06, -1.2332106962276157e-06, 1.2738360055664089e-07, 1.4879778973408975e-06, 2.848572194125154e-06, 4.209166490909411e-06, 5.569761015067343e-06, 6.930355084477924e-06, 8.290949153888505e-06, 9.651543223299086e-06, 1.1012138202204369e-05, 1.237273227161495e-05, 1.3733326341025531e-05, 1.5093921319930814e-05, 1.6454514479846694e-05, 1.7815109458751976e-05, 1.917570443765726e-05, 2.053629759757314e-05, 2.189689257647842e-05, 2.32574857363943e-05, 2.4618080715299584e-05, 2.5978675694204867e-05, 2.7339268854120746e-05, 2.869986383302603e-05, 3.0060458811931312e-05, 3.142105197184719e-05, 3.278164513176307e-05, 3.414224192965776e-05, 3.550283508957364e-05, 3.6863428249489516e-05, 3.82240250473842e-05, 3.958461820730008e-05]}, "gradients/feature_fn.2.bias": {"_type": "histogram", "values": [1.0, 0.0, 0.0, 0.0, 1.0, 0.0, 0.0, 1.0, 2.0, 1.0, 1.0, 1.0, 0.0, 2.0, 1.0, 1.0, 0.0, 3.0, 2.0, 2.0, 2.0, 6.0, 6.0, 9.0, 6.0, 7.0, 8.0, 17.0, 9.0, 7.0, 5.0, 3.0, 4.0, 2.0, 2.0, 4.0, 1.0, 0.0, 2.0, 0.0, 0.0, 2.0, 0.0, 1.0, 0.0, 0.0, 1.0, 1.0, 0.0, 1.0, 0.0, 1.0, 0.0, 0.0, 0.0, 0.0, 1.0, 0.0, 0.0, 0.0, 0.0, 0.0, 0.0, 1.0], "bins": [-0.00012728938600048423, -0.00012268917635083199, -0.00011808895214926451, -0.00011348873522365466, -0.0001088885182980448, -0.00010428830137243494, -9.968808444682509e-05, -9.508786752121523e-05, -9.048765059560537e-05, -8.588744094595313e-05, -8.128722402034327e-05, -7.668700709473342e-05, -7.208679016912356e-05, -6.74865732435137e-05, -6.288635631790385e-05, -5.828613939229399e-05, -5.368592246668413e-05, -4.9085705541074276e-05, -4.448548861546442e-05, -3.988527168985456e-05, -3.5285054764244705e-05, -3.0684841476613656e-05, -2.60846245510038e-05, -2.1484407625393942e-05, -1.6884190699784085e-05, -1.2283973774174228e-05, -7.683757758059073e-06, -3.0835412871965673e-06, 1.5166751836659387e-06, 6.116891654528445e-06, 1.071710812539095e-05, 1.5317324141506106e-05, 1.9917541067115963e-05, 2.451775799272582e-05, 2.9117974918335676e-05, 3.371819184394553e-05, 3.831840876955539e-05, 4.291862205718644e-05, 4.7518838982796296e-05, 5.211905590840615e-05, 5.671927283401601e-05, 6.131948612164706e-05, 6.591970304725692e-05, 7.051991997286677e-05, 7.512013689847663e-05, 7.972035382408649e-05, 8.432057074969634e-05, 8.89207876753062e-05, 9.352100460091606e-05, 9.812122152652591e-05, 0.00010272143845213577, 0.00010732165537774563, 0.00011192187230335549, 0.00011652208922896534, 0.0001211223061545752, 0.00012572252308018506, 0.0001303227327298373, 0.00013492295693140477, 0.000139523166581057, 0.00014412339078262448, 0.00014872360043227673, 0.0001533238246338442, 0.00015792403428349644, 0.0001625242584850639, 0.00016712446813471615]}, "gradients/feature_fn.2.weight": {"_type": "histogram", "values": [3.0, 0.0, 0.0, 1.0, 3.0, 1.0, 3.0, 4.0, 3.0, 4.0, 11.0, 9.0, 12.0, 17.0, 27.0, 31.0, 46.0, 48.0, 92.0, 113.0, 194.0, 285.0, 436.0, 712.0, 1269.0, 2940.0, 6588.0, 1547.0, 786.0, 422.0, 214.0, 149.0, 90.0, 83.0, 45.0, 33.0, 34.0, 29.0, 16.0, 9.0, 7.0, 17.0, 7.0, 9.0, 6.0, 10.0, 4.0, 0.0, 4.0, 2.0, 2.0, 1.0, 0.0, 1.0, 3.0, 0.0, 0.0, 0.0, 0.0, 0.0, 0.0, 0.0, 1.0, 1.0], "bins": [-0.00011158844426972792, -0.00010732711234595627, -0.000103065773146227, -9.880444122245535e-05, -9.45431092986837e-05, -9.028177009895444e-05, -8.602043817518279e-05, -8.175910625141114e-05, -7.749776705168188e-05, -7.323643512791023e-05, -6.897510320413858e-05, -6.471377128036693e-05, -6.0452432080637664e-05, -5.6191100156866014e-05, -5.192976459511556e-05, -4.766843267134391e-05, -4.340709710959345e-05, -3.9145761547842994e-05, -3.4884429624071345e-05, -3.062309406232089e-05, -2.6361760319559835e-05, -2.2100426576798782e-05, -1.7839091015048325e-05, -1.3577757272287272e-05, -9.316423529526219e-06, -5.055089332017815e-06, -7.937551345094107e-07, 3.4675790629989933e-06, 7.728913260507397e-06, 1.199024700326845e-05, 1.6251582565018907e-05, 2.051291630777996e-05, 2.4774257326498628e-05, 2.903559106925968e-05, 3.3296924812020734e-05, 3.755826037377119e-05, 4.181959229754284e-05, 4.60809278592933e-05, 5.0342263421043754e-05, 5.46035953448154e-05, 5.886493090656586e-05, 6.312626646831632e-05, 6.738759839208797e-05, 7.164893031585962e-05, 7.591026951558888e-05, 8.017160143936053e-05, 8.443293336313218e-05, 8.869427256286144e-05, 9.295560448663309e-05, 9.721693641040474e-05, 0.000101478275610134, 0.00010573960753390566, 0.0001100009394576773, 0.00011426227865740657, 0.00011852361058117822, 0.00012278494250494987, 0.00012704628170467913, 0.00013130760635249317, 0.00013556894555222243, 0.0001398302847519517, 0.00014409160939976573, 0.000148352948599495, 0.00015261428779922426, 0.0001568756124470383, 0.00016113695164676756]}, "gradients/feature_fn.0.bias": {"_type": "histogram", "values": [1.0, 0.0, 0.0, 0.0, 0.0, 0.0, 0.0, 0.0, 1.0, 1.0, 2.0, 1.0, 1.0, 0.0, 0.0, 0.0, 1.0, 0.0, 1.0, 0.0, 3.0, 3.0, 2.0, 2.0, 5.0, 5.0, 6.0, 5.0, 8.0, 4.0, 7.0, 6.0, 10.0, 8.0, 5.0, 5.0, 4.0, 4.0, 2.0, 3.0, 1.0, 3.0, 1.0, 1.0, 3.0, 0.0, 2.0, 2.0, 0.0, 1.0, 0.0, 1.0, 1.0, 1.0, 0.0, 2.0, 0.0, 0.0, 0.0, 1.0, 0.0, 0.0, 1.0, 1.0], "bins": [-0.00014829594874754548, -0.00014368460688274354, -0.00013907325046602637, -0.00013446190860122442, -0.00012985055218450725, -0.0001252392103197053, -0.00012062786117894575, -0.00011601651203818619, -0.00011140517017338425, -0.00010679382103262469, -0.00010218247189186513, -9.757112275110558e-05, -9.295977361034602e-05, -8.834842446958646e-05, -8.373708260478452e-05, -7.912573346402496e-05, -7.45143843232654e-05, -6.990303518250585e-05, -6.529168604174629e-05, -6.068034053896554e-05, -5.606899503618479e-05, -5.145764589542523e-05, -4.684629675466567e-05, -4.223495125188492e-05, -3.7623602111125365e-05, -3.301225297036581e-05, -2.8400907467585057e-05, -2.37895583268255e-05, -1.9178211005055346e-05, -1.4566863683285192e-05, -9.955515452020336e-06, -5.344167675502831e-06, -7.328198989853263e-07, 3.8785278775321785e-06, 8.489875654049683e-06, 1.3101223885314539e-05, 1.7712571207084693e-05, 2.2323918528854847e-05, 2.6935267669614404e-05, 3.1546613172395155e-05, 3.615796231315471e-05, 4.076931145391427e-05, 4.538065695669502e-05, 4.999200609745458e-05, 5.4603355238214135e-05, 5.9214700740994886e-05, 6.382604624377564e-05, 6.84373953845352e-05, 7.304874452529475e-05, 7.766009366605431e-05, 8.227144280681387e-05, 8.688278467161581e-05, 9.149413381237537e-05, 9.610548295313492e-05, 0.00010071683209389448, 0.00010532818123465404, 0.0001099395303754136, 0.00011455087224021554, 0.0001191622213809751, 0.00012377357052173465, 0.0001283849123865366, 0.00013299626880325377, 0.0001376076106680557, 0.00014221896708477288, 0.00014683030894957483]}, "gradients/feature_fn.0.weight": {"_type": "histogram", "values": [1.0, 1.0, 0.0, 1.0, 1.0, 1.0, 2.0, 3.0, 4.0, 6.0, 8.0, 6.0, 8.0, 10.0, 17.0, 25.0, 23.0, 29.0, 32.0, 36.0, 56.0, 82.0, 93.0, 130.0, 150.0, 181.0, 231.0, 316.0, 434.0, 636.0, 1064.0, 2858.0, 13103.0, 1743.0, 830.0, 501.0, 377.0, 295.0, 214.0, 196.0, 150.0, 116.0, 97.0, 65.0, 68.0, 51.0, 39.0, 44.0, 20.0, 18.0, 14.0, 14.0, 10.0, 6.0, 7.0, 9.0, 6.0, 6.0, 0.0, 2.0, 0.0, 1.0, 0.0, 1.0], "bins": [-0.00018201304192189127, -0.00017638997815083712, -0.00017076689982786775, -0.0001651438360568136, -0.00015952077228575945, -0.00015389769396279007, -0.00014827463019173592, -0.00014265155186876655, -0.0001370284880977124, -0.00013140542432665825, -0.00012578234600368887, -0.00012015928223263472, -0.00011453621118562296, -0.0001089131401386112, -0.00010329007636755705, -9.766700532054529e-05, -9.204393427353352e-05, -8.642086322652176e-05, -8.079779217951e-05, -7.517472840845585e-05, -6.955165736144409e-05, -6.392858631443232e-05, -5.830551890539937e-05, -5.268245149636641e-05, -4.705938044935465e-05, -4.1436309402342886e-05, -3.581324199330993e-05, -3.019017276528757e-05, -2.456710353726521e-05, -1.8944034309242852e-05, -1.3320965081220493e-05, -7.697895853198133e-06, -2.0748411770910025e-06, 3.548228050931357e-06, 9.171297278953716e-06, 1.4794366506976075e-05, 2.0417435734998435e-05, 2.6040504963020794e-05, 3.1663574191043153e-05, 3.728664160007611e-05, 4.290971264708787e-05, 4.8532783694099635e-05, 5.415585110313259e-05, 5.9778918512165546e-05, 6.540198955917731e-05, 7.102506060618907e-05, 7.664812437724322e-05, 8.227119542425498e-05, 8.789426647126675e-05, 9.351733751827851e-05, 9.914040856529027e-05, 0.00010476347233634442, 0.00011038654338335618, 0.00011600961443036795, 0.0001216326782014221, 0.00012725575652439147, 0.00013287882029544562, 0.00013850188406649977, 0.00014412496238946915, 0.0001497480261605233, 0.00015537108993157744, 0.00016099416825454682, 0.00016661723202560097, 0.00017224031034857035, 0.0001778633741196245]}, "gradients/mlp.6.bias": {"_type": "histogram", "values": [2.0, 0.0, 0.0, 1.0, 1.0, 2.0, 2.0, 0.0, 0.0, 0.0, 3.0, 3.0, 1.0, 2.0, 4.0, 0.0, 4.0, 4.0, 4.0, 4.0, 26.0, 6.0, 5.0, 3.0, 5.0, 7.0, 3.0, 5.0, 4.0, 2.0, 1.0, 0.0, 0.0, 2.0, 3.0, 3.0, 1.0, 3.0, 1.0, 2.0, 1.0, 0.0, 0.0, 1.0, 1.0, 0.0, 1.0, 1.0, 0.0, 1.0, 0.0, 0.0, 0.0, 0.0, 0.0, 0.0, 0.0, 0.0, 2.0, 0.0, 0.0, 0.0, 0.0, 1.0], "bins": [-8.050462929531932e-05, -7.652647764189169e-05, -7.254832598846406e-05, -6.857017433503643e-05, -6.45920226816088e-05, -6.061387466615997e-05, -5.663572665071115e-05, -5.265757499728352e-05, -4.867942334385589e-05, -4.470127169042826e-05, -4.0723120037000626e-05, -3.67449720215518e-05, -3.276682036812417e-05, -2.878866871469654e-05, -2.4810518880258314e-05, -2.0832369045820087e-05, -1.6854217392392457e-05, -1.2876066648459528e-05, -8.897915904526599e-06, -4.91976516059367e-06, -9.41614416660741e-07, 3.036536327272188e-06, 7.014687071205117e-06, 1.0992837815138046e-05, 1.4970988559070975e-05, 1.8949140212498605e-05, 2.2927290046936832e-05, 2.690543988137506e-05, 3.088359153480269e-05, 3.486174318823032e-05, 3.8839891203679144e-05, 4.2818042857106775e-05, 4.6796194510534406e-05, 5.0774346163962036e-05, 5.475249781738967e-05, 5.873064583283849e-05, 6.270880112424493e-05, 6.668694550171494e-05, 7.066509715514258e-05, 7.46432488085702e-05, 7.862140046199784e-05, 8.259955211542547e-05, 8.65777037688531e-05, 9.055585542228073e-05, 9.453399979975075e-05, 9.851215145317838e-05, 0.000102490303106606, 0.00010646845476003364, 0.00011044660641346127, 0.0001144247580668889, 0.00011840290972031653, 0.00012238105409778655, 0.0001263592130271718, 0.0001303373574046418, 0.00013431551633402705, 0.00013829366071149707, 0.00014227180508896708, 0.00014624996401835233, 0.00015022810839582235, 0.0001542062673252076, 0.0001581844117026776, 0.00016216257063206285, 0.00016614071500953287, 0.00017011887393891811, 0.00017409701831638813]}, "gradients/mlp.6.weight": {"_type": "histogram", "values": [1.0, 1.0, 0.0, 0.0, 1.0, 0.0, 2.0, 0.0, 3.0, 8.0, 11.0, 6.0, 21.0, 20.0, 37.0, 52.0, 132.0, 210.0, 482.0, 1303.0, 10289.0, 1804.0, 813.0, 406.0, 213.0, 152.0, 81.0, 62.0, 41.0, 47.0, 32.0, 28.0, 28.0, 9.0, 19.0, 5.0, 4.0, 9.0, 10.0, 5.0, 6.0, 5.0, 6.0, 3.0, 3.0, 0.0, 2.0, 2.0, 2.0, 1.0, 1.0, 1.0, 0.0, 1.0, 0.0, 2.0, 0.0, 0.0, 0.0, 0.0, 0.0, 1.0, 0.0, 1.0], "bins": [-5.85308916924987e-05, -5.5684409744571894e-05, -5.283792415866628e-05, -4.999144221073948e-05, -4.7144960262812674e-05, -4.429847467690706e-05, -4.145199272898026e-05, -3.8605507143074647e-05, -3.575902519514784e-05, -3.291254324722104e-05, -3.0066057661315426e-05, -2.7219575713388622e-05, -2.4373091946472414e-05, -2.1526608179556206e-05, -1.86801262316294e-05, -1.5833642464713193e-05, -1.2987158697796986e-05, -1.0140674930880778e-05, -7.294192073459271e-06, -4.447708761290414e-06, -1.6012254491215572e-06, 1.2452578630473e-06, 4.091741175216157e-06, 6.938224487385014e-06, 9.784707799553871e-06, 1.2631191566470079e-05, 1.5477675333386287e-05, 1.832415728131309e-05, 2.11706410482293e-05, 2.4017124815145507e-05, 2.6863606763072312e-05, 2.971009052998852e-05, 3.2556577934883535e-05, 3.540305988281034e-05, 3.824954546871595e-05, 4.1096027416642755e-05, 4.394251300254837e-05, 4.678899495047517e-05, 4.9635476898401976e-05, 5.248196248430759e-05, 5.532844443223439e-05, 5.8174926380161196e-05, 6.102141196606681e-05, 6.386789755197242e-05, 6.671437586192042e-05, 6.956086144782603e-05, 7.240734703373164e-05, 7.525382534367964e-05, 7.810031092958525e-05, 8.094679651549086e-05, 8.379327482543886e-05, 8.663976041134447e-05, 8.948624599725008e-05, 9.233272430719808e-05, 9.517920989310369e-05, 9.80256954790093e-05, 0.0001008721737889573, 0.00010371865937486291, 0.00010656514496076852, 0.00010941163054667413, 0.00011225810885662213, 0.00011510459444252774, 0.00011795108002843335, 0.00012079755833838135, 0.00012364404392428696]}, "gradients/mlp.4.bias": {"_type": "histogram", "values": [1.0, 1.0, 0.0, 1.0, 1.0, 0.0, 0.0, 1.0, 0.0, 0.0, 0.0, 0.0, 0.0, 0.0, 0.0, 1.0, 2.0, 3.0, 1.0, 0.0, 2.0, 1.0, 2.0, 1.0, 1.0, 3.0, 4.0, 8.0, 6.0, 7.0, 16.0, 6.0, 5.0, 11.0, 6.0, 7.0, 7.0, 4.0, 3.0, 2.0, 2.0, 2.0, 1.0, 3.0, 0.0, 0.0, 0.0, 0.0, 1.0, 1.0, 0.0, 0.0, 1.0, 1.0, 0.0, 0.0, 1.0, 0.0, 0.0, 0.0, 0.0, 0.0, 0.0, 1.0], "bins": [-0.00031671792385168374, -0.0003062264295294881, -0.0002957349643111229, -0.0002852434990927577, -0.00027475200477056205, -0.0002642605104483664, -0.0002537690452300012, -0.0002432775654597208, -0.00023278608568944037, -0.00022229460591915995, -0.00021180312614887953, -0.0002013116463785991, -0.0001908201666083187, -0.00018032868683803827, -0.00016983720706775784, -0.00015934572729747742, -0.000148854247527197, -0.00013836276775691658, -0.00012787128798663616, -0.00011737980821635574, -0.00010688832844607532, -9.63968486757949e-05, -8.590536890551448e-05, -7.541388913523406e-05, -6.492240936495364e-05, -5.4430929594673216e-05, -4.3939449824392796e-05, -3.3447970054112375e-05, -2.2956490283831954e-05, -1.2465010513551533e-05, -1.9735307432711124e-06, 8.517949027009308e-06, 1.900942879728973e-05, 2.950090856757015e-05, 3.999238833785057e-05, 5.048386810813099e-05, 6.097534787841141e-05, 7.146682764869183e-05, 8.195830741897225e-05, 9.244978718925267e-05, 0.0001029412669595331, 0.00011343274672981352, 0.00012392422650009394, 0.00013441570627037436, 0.00014490718604065478, 0.0001553986658109352, 0.00016589014558121562, 0.00017638162535149604, 0.00018687310512177646, 0.00019736458489205688, 0.0002078560646623373, 0.00021834754443261772, 0.00022883902420289814, 0.00023933050397317857, 0.000249821983743459, 0.0002603134489618242, 0.00027080494328401983, 0.0002812964376062155, 0.00029178790282458067, 0.00030227936804294586, 0.0003127708623651415, 0.00032326235668733716, 0.00033375382190570235, 0.00034424528712406754, 0.0003547367814462632]}, "gradients/mlp.4.weight": {"_type": "histogram", "values": [1.0, 0.0, 1.0, 0.0, 3.0, 3.0, 0.0, 2.0, 4.0, 6.0, 5.0, 9.0, 9.0, 18.0, 14.0, 25.0, 27.0, 42.0, 63.0, 98.0, 193.0, 349.0, 824.0, 4721.0, 7315.0, 1213.0, 549.0, 290.0, 168.0, 117.0, 74.0, 54.0, 40.0, 14.0, 24.0, 17.0, 8.0, 11.0, 13.0, 4.0, 9.0, 9.0, 4.0, 4.0, 2.0, 3.0, 1.0, 4.0, 1.0, 2.0, 2.0, 3.0, 0.0, 2.0, 2.0, 1.0, 2.0, 1.0, 1.0, 2.0, 0.0, 0.0, 0.0, 1.0], "bins": [-0.0001752647222019732, -0.00016796286217868328, -0.00016066098760347813, -0.00015335912758018821, -0.00014605725300498307, -0.00013875539298169315, -0.000131453518406488, -0.00012415165838319808, -0.00011684979108395055, -0.00010954792378470302, -0.00010224605648545548, -9.494418918620795e-05, -8.764232916291803e-05, -8.03404618636705e-05, -7.303859456442297e-05, -6.573672726517543e-05, -5.84348599659279e-05, -5.1132992666680366e-05, -4.383112536743283e-05, -3.652926170616411e-05, -2.9227394406916574e-05, -2.192552710766904e-05, -1.4623661627410911e-05, -7.32179523765808e-06, -1.9928847905248404e-08, 7.281937541847583e-06, 1.4583803931600414e-05, 2.1885669411858544e-05, 2.9187536711106077e-05, 3.648940401035361e-05, 4.3791267671622336e-05, 5.109313497086987e-05, 5.83950022701174e-05, 6.569686956936494e-05, 7.299873686861247e-05, 8.030060416786e-05, 8.760247146710753e-05, 9.490433149039745e-05, 0.00010220619878964499, 0.00010950806608889252, 0.00011680993338814005, 0.00012411180068738759, 0.0001314136607106775, 0.00013871553528588265, 0.00014601739530917257, 0.00015331926988437772, 0.00016062112990766764, 0.00016792300448287278, 0.0001752248645061627, 0.00018252672452945262, 0.00018982859910465777, 0.0001971304591279477, 0.00020443233370315284, 0.00021173419372644275, 0.0002190360683016479, 0.00022633792832493782, 0.00023363978834822774, 0.0002409416629234329, 0.00024824353749863803, 0.00025554539752192795, 0.00026284725754521787, 0.0002701491175685078, 0.00027745100669562817, 0.0002847528667189181, 0.000292054726742208]}, "gradients/mlp.2.bias": {"_type": "histogram", "values": [1.0, 0.0, 0.0, 0.0, 0.0, 0.0, 0.0, 0.0, 0.0, 0.0, 0.0, 0.0, 0.0, 0.0, 0.0, 0.0, 0.0, 0.0, 0.0, 0.0, 0.0, 0.0, 0.0, 0.0, 0.0, 0.0, 0.0, 0.0, 0.0, 1.0, 2.0, 1.0, 0.0, 2.0, 0.0, 1.0, 1.0, 3.0, 4.0, 4.0, 9.0, 12.0, 25.0, 17.0, 12.0, 11.0, 3.0, 6.0, 3.0, 0.0, 1.0, 3.0, 1.0, 0.0, 0.0, 2.0, 2.0, 0.0, 0.0, 0.0, 0.0, 0.0, 0.0, 1.0], "bins": [-0.001429863623343408, -0.0013962012017145753, -0.0013625387800857425, -0.0013288763584569097, -0.0012952139368280768, -0.001261551515199244, -0.0012278890935704112, -0.0011942266719415784, -0.0011605642503127456, -0.0011269018286839128, -0.00109323940705508, -0.0010595769854262471, -0.0010259145637974143, -0.0009922521421685815, -0.0009585896623320878, -0.0009249272407032549, -0.0008912648190744221, -0.0008576023974455893, -0.0008239399758167565, -0.0007902775541879237, -0.0007566151325590909, -0.000722952710930258, -0.0006892902893014252, -0.0006556278676725924, -0.0006219653878360987, -0.0005883029662072659, -0.000554640544578433, -0.0005209781229496002, -0.0004873157013207674, -0.0004536532796919346, -0.00041999085806310177, -0.00038632843643426895, -0.00035266601480543613, -0.0003190035931766033, -0.0002853411715477705, -0.0002516787499189377, -0.00021801631373818964, -0.00018435389210935682, -0.00015069145592860878, -0.00011702903429977596, -8.336661267094314e-05, -4.970418740413152e-05, -1.6041762137319893e-05, 1.762066312949173e-05, 5.1283088396303356e-05, 8.494551002513617e-05, 0.0001186079389299266, 0.00015227036783471704, 0.00018593278946354985, 0.00021959521109238267, 0.0002532576327212155, 0.0002869200543500483, 0.0003205824759788811, 0.0003542449267115444, 0.0003879073483403772, 0.00042156976996921003, 0.00045523219159804285, 0.0004888946423307061, 0.0005225570639595389, 0.0005562194855883718, 0.0005898819072172046, 0.0006235443288460374, 0.0006572067504748702, 0.000690869172103703, 0.0007245315937325358]}, "gradients/mlp.2.weight": {"_type": "histogram", "values": [1.0, 0.0, 0.0, 1.0, 0.0, 0.0, 0.0, 1.0, 0.0, 1.0, 0.0, 0.0, 1.0, 2.0, 1.0, 2.0, 1.0, 0.0, 2.0, 1.0, 1.0, 0.0, 2.0, 5.0, 3.0, 2.0, 3.0, 8.0, 4.0, 13.0, 20.0, 23.0, 24.0, 42.0, 67.0, 84.0, 166.0, 350.0, 990.0, 10457.0, 2587.0, 748.0, 275.0, 183.0, 99.0, 50.0, 44.0, 27.0, 23.0, 15.0, 13.0, 12.0, 4.0, 5.0, 3.0, 5.0, 3.0, 4.0, 0.0, 4.0, 0.0, 0.0, 1.0, 1.0], "bins": [-0.0013357271673157811, -0.001302085816860199, -0.0012684444664046168, -0.0012348031159490347, -0.0012011617654934525, -0.0011675204150378704, -0.00113387918099761, -0.001100237830542028, -0.0010665964800864458, -0.0010329551296308637, -0.0009993137791752815, -0.0009656724287196994, -0.0009320310782641172, -0.0008983897278085351, -0.0008647484355606139, -0.0008311070851050317, -0.0007974657346494496, -0.0007638243841938674, -0.0007301830337382853, -0.0006965417414903641, -0.0006629003910347819, -0.0006292590405791998, -0.0005956176901236176, -0.0005619763396680355, -0.0005283349892124534, -0.0004946936969645321, -0.00046105234650895, -0.00042741099605336785, -0.0003937696455977857, -0.000360128324246034, -0.0003264869737904519, -0.0002928456524387002, -0.00025920424377545714, -0.00022556290787179023, -0.00019192157196812332, -0.00015828022151254117, -0.00012463888560887426, -9.099754970520735e-05, -5.735620652558282e-05, -2.37148669839371e-05, 9.926472557708621e-06, 4.356781209935434e-05, 7.720915164100006e-05, 0.00011085049482062459, 0.0001444918307242915, 0.00017813316662795842, 0.00021177451708354056, 0.00024541583843529224, 0.0002790571888908744, 0.00031269853934645653, 0.0003463398606982082, 0.00037998121115379035, 0.00041362253250554204, 0.0004472638829611242, 0.0004809052334167063, 0.0005145465838722885, 0.0005481878761202097, 0.0005818292265757918, 0.000615470577031374, 0.0006491119274869561, 0.0006827532779425383, 0.0007163946283981204, 0.0007500359206460416, 0.0007836772711016238, 0.0008173186215572059]}, "gradients/mlp.0.bias": {"_type": "histogram", "values": [1.0, 0.0, 0.0, 0.0, 0.0, 0.0, 0.0, 0.0, 0.0, 1.0, 0.0, 0.0, 2.0, 1.0, 1.0, 1.0, 2.0, 1.0, 1.0, 2.0, 3.0, 2.0, 0.0, 8.0, 6.0, 5.0, 12.0, 11.0, 10.0, 10.0, 8.0, 5.0, 6.0, 6.0, 6.0, 5.0, 0.0, 2.0, 0.0, 5.0, 1.0, 0.0, 1.0, 0.0, 0.0, 0.0, 0.0, 1.0, 0.0, 0.0, 0.0, 0.0, 0.0, 1.0, 0.0, 0.0, 0.0, 0.0, 0.0, 0.0, 0.0, 0.0, 0.0, 1.0], "bins": [-0.0010710478527471423, -0.001032325904816389, -0.0009936040733009577, -0.0009548821253702044, -0.0009161601774394512, -0.0008774382877163589, -0.0008387163979932666, -0.0007999944500625134, -0.000761272560339421, -0.0007225506706163287, -0.0006838287226855755, -0.0006451068329624832, -0.0006063849432393909, -0.0005676629953086376, -0.0005289411055855453, -0.0004902191576547921, -0.00045149726793169975, -0.000412775349104777, -0.0003740534302778542, -0.0003353315405547619, -0.0002966096217278391, -0.00025788770290091634, -0.0002191657986259088, -0.00018044389435090125, -0.00014172197552397847, -0.00010300006397301331, -6.427815242204815e-05, -2.555624087108299e-05, 1.3165670679882169e-05, 5.188758223084733e-05, 9.060949378181249e-05, 0.00012933139805682003, 0.00016805343329906464, 0.0002067753521259874, 0.0002454972709529102, 0.0002842191606760025, 0.0003229410795029253, 0.00036166299832984805, 0.00040038488805294037, 0.00043910680687986314, 0.0004778287257067859, 0.0005165506154298782, 0.0005552725633606315, 0.0005939944530837238, 0.0006327163428068161, 0.0006714382907375693, 0.0007101601804606616, 0.0007488821283914149, 0.0007876040181145072, 0.0008263259078375995, 0.0008650478557683527, 0.0009037697454914451, 0.0009424916934221983, 0.0009812135249376297, 0.001019935472868383, 0.0010586574207991362, 0.0010973792523145676, 0.0011361012002453208, 0.001174823148176074, 0.0012135450961068273, 0.0012522669276222587, 0.001290988875553012, 0.0013297108234837651, 0.0013684326549991965, 0.0014071546029299498]}, "gradients/mlp.0.weight": {"_type": "histogram", "values": [1.0, 1.0, 0.0, 1.0, 5.0, 3.0, 2.0, 3.0, 6.0, 6.0, 7.0, 16.0, 12.0, 10.0, 13.0, 24.0, 17.0, 22.0, 47.0, 46.0, 71.0, 76.0, 135.0, 201.0, 235.0, 463.0, 668.0, 1294.0, 1777.0, 997.0, 572.0, 380.0, 251.0, 190.0, 88.0, 104.0, 82.0, 39.0, 42.0, 13.0, 21.0, 17.0, 12.0, 9.0, 13.0, 9.0, 16.0, 3.0, 7.0, 4.0, 8.0, 6.0, 4.0, 5.0, 5.0, 1.0, 1.0, 0.0, 1.0, 1.0, 0.0, 0.0, 0.0, 1.0], "bins": [-0.001522015780210495, -0.001468162750825286, -0.0014143098378553987, -0.0013604568084701896, -0.0013066037790849805, -0.0012527508661150932, -0.0011988978367298841, -0.001145044807344675, -0.001091191777959466, -0.0010373388649895787, -0.0009834858356043696, -0.0009296328644268215, -0.0008757798932492733, -0.0008219268638640642, -0.000768073892686516, -0.000714220863301307, -0.0006603678921237588, -0.0006065149209462106, -0.0005526618915610015, -0.0004988089203834534, -0.00044495592010207474, -0.0003911029198206961, -0.00033724994864314795, -0.0002833969483617693, -0.0002295439480803907, -0.00017569094779901206, -0.00012183796206954867, -6.798496906412765e-05, -1.4131976058706641e-05, 3.972101694671437e-05, 9.357400995213538e-05, 0.00014742699568159878, 0.00020127987954765558, 0.0002551328798290342, 0.00030898588011041284, 0.000362838851287961, 0.00041669185156933963, 0.00047054485185071826, 0.0005243978230282664, 0.0005782508524134755, 0.0006321038235910237, 0.0006859567947685719, 0.0007398098241537809, 0.0007936627953313291, 0.0008475157665088773, 0.0009013687958940864, 0.0009552217670716345, 0.0010090747382491827, 0.0010629277676343918, 0.0011167807970196009, 0.0011706337099894881, 0.0012244867393746972, 0.0012783397687599063, 0.0013321926817297935, 0.0013860457111150026, 0.0014398987405002117, 0.0014937517698854208, 0.001547604682855308, 0.0016014577122405171, 0.0016553107416257262, 0.0017091636545956135, 0.0017630166839808226, 0.0018168697133660316, 0.001870722626335919, 0.001924575655721128]}, "_wandb": {"runtime": 15199}}