{"total_loss": 0.0026528298133052883, "_timestamp": 1717978756.7211256, "rgb_loss": 0.0026528298133052883, "_runtime": 7612.515915632248, "_step": 90400, "Rendered Images": {"_type": "images/separated", "width": 256, "height": 256, "format": "png", "count": 5, "filenames": ["media/images/Rendered Images_88000_a5fae2a8c7f8dc730d2f.png", "media/images/Rendered Images_88000_e0b32f6cba48b87d737f.png", "media/images/Rendered Images_88000_7707b0c3e19e88a2b6dd.png", "media/images/Rendered Images_88000_fd48806600a7a3e77b0c.png", "media/images/Rendered Images_88000_daa0703bfca3263ec9aa.png"]}, "Ground-truth Images": {"_type": "images/separated", "width": 256, "height": 256, "format": "png", "count": 5, "filenames": ["media/images/Ground-truth Images_88008_e66caac5921126c9a542.png", "media/images/Ground-truth Images_88008_d46094b22d91d1bd7d47.png", "media/images/Ground-truth Images_88008_c1ae0e380e32a07032f8.png", "media/images/Ground-truth Images_88008_b60b263c939c62f4bc58.png", "media/images/Ground-truth Images_88008_ab3d98782f1147e7dca7.png"]}, "PSNR": 32.275931258183746, "Epoch": 11000, "gradients/graph_1rgb_fn.2.bias": {"_type": "histogram", "values": [1.0, 0.0, 0.0, 0.0, 0.0, 0.0, 0.0, 0.0, 0.0, 0.0, 0.0, 0.0, 0.0, 0.0, 0.0, 1.0, 0.0, 0.0, 0.0, 0.0, 0.0, 0.0, 0.0, 0.0, 0.0, 0.0, 0.0, 0.0, 0.0, 0.0, 0.0, 0.0, 0.0, 0.0, 0.0, 0.0, 0.0, 0.0, 0.0, 0.0, 0.0, 0.0, 0.0, 0.0, 0.0, 0.0, 0.0, 0.0, 0.0, 0.0, 0.0, 0.0, 0.0, 0.0, 0.0, 0.0, 0.0, 0.0, 0.0, 0.0, 0.0, 0.0, 0.0, 1.0], "bins": [-0.00026697706198319793, -0.00026083513512276113, -0.00025469320826232433, -0.0002485512522980571, -0.00024240932543762028, -0.00023626739857718349, -0.00023012545716483146, -0.00022398353030439466, -0.00021784158889204264, -0.00021169966203160584, -0.00020555773517116904, -0.00019941579375881702, -0.00019327386689838022, -0.0001871319254860282, -0.0001809899986255914, -0.00017484805721323937, -0.00016870613035280257, -0.00016256420349236578, -0.00015642226208001375, -0.00015028033521957695, -0.00014413839380722493, -0.00013799646694678813, -0.0001318545255344361, -0.0001257125986739993, -0.0001195706645376049, -0.00011342873040121049, -0.00010728679626481608, -0.00010114486212842166, -9.500293526798487e-05, -8.886100113159046e-05, -8.271906699519604e-05, -7.657713285880163e-05, -7.043521327432245e-05, -6.429327913792804e-05, -5.815134500153363e-05, -5.200941450311802e-05, -4.586748036672361e-05, -3.97255462303292e-05, -3.3583615731913596e-05, -2.7441681595519185e-05, -2.1299747459124774e-05, -1.5157814232225064e-05, -9.015881005325355e-06, -2.873947778425645e-06, 3.2679854484740645e-06, 9.409918675373774e-06, 1.5551851902273484e-05, 2.169378421967849e-05, 2.7835718356072903e-05, 3.3977652492467314e-05, 4.0119586628861725e-05, 4.626151712727733e-05, 5.240345126367174e-05, 5.854538540006615e-05, 6.468731589848176e-05, 7.082925003487617e-05, 7.697118417127058e-05, 8.311311830766499e-05, 8.92550524440594e-05, 9.539698658045381e-05, 0.00010153891344089061, 0.00010768084757728502, 0.00011382278171367943, 0.00011996471585007384, 0.00012610664998646826]}, "gradients/graph_1rgb_fn.2.weight": {"_type": "histogram", "values": [1.0, 0.0, 0.0, 1.0, 0.0, 0.0, 0.0, 0.0, 0.0, 0.0, 0.0, 0.0, 0.0, 1.0, 0.0, 0.0, 0.0, 0.0, 0.0, 0.0, 0.0, 1.0, 0.0, 0.0, 2.0, 0.0, 0.0, 4.0, 40.0, 711.0, 0.0, 1.0, 0.0, 0.0, 0.0, 0.0, 0.0, 0.0, 0.0, 0.0, 0.0, 0.0, 0.0, 2.0, 0.0, 1.0, 0.0, 0.0, 0.0, 0.0, 0.0, 1.0, 0.0, 0.0, 0.0, 0.0, 0.0, 0.0, 0.0, 1.0, 0.0, 0.0, 0.0, 1.0], "bins": [-0.004812033846974373, -0.0046464200131595135, -0.004480806179344654, -0.004315192345529795, -0.004149578511714935, -0.003983964212238789, -0.003818350378423929, -0.00365273654460907, -0.0034871227107942104, -0.003321508876979351, -0.0031558950431644917, -0.0029902809765189886, -0.0028246671427041292, -0.00265905330888927, -0.002493439242243767, -0.0023278254084289074, -0.002162211574614048, -0.0019965977407991886, -0.0018309837905690074, -0.0016653698403388262, -0.0014997560065239668, -0.0013341421727091074, -0.0011685282224789262, -0.001002914272248745, -0.0008373004384338856, -0.0006716865464113653, -0.000506072654388845, -0.00034045876236632466, -0.00017484487034380436, -9.230978321284056e-06, 0.00015638291370123625, 0.00032199680572375655, 0.00048761069774627686, 0.0006532245897687972, 0.0008188384817913175, 0.0009844524320214987, 0.001150066265836358, 0.0013156800996512175, 0.0014812940498813987, 0.00164690800011158, 0.0018125218339264393, 0.0019781356677412987, 0.002143749501556158, 0.002309363568201661, 0.0024749774020165205, 0.00264059123583138, 0.002806205302476883, 0.0029718191362917423, 0.0031374329701066017, 0.003303046803921461, 0.0034686606377363205, 0.0036342747043818235, 0.003799888538196683, 0.003965502604842186, 0.004131116438657045, 0.004296730272471905, 0.004462344106286764, 0.0046279579401016235, 0.004793571773916483, 0.004959185607731342, 0.005124799907207489, 0.005290413741022348, 0.005456027574837208, 0.005621641408652067, 0.005787255242466927]}, "gradients/graph_1rgb_fn.0.bias": {"_type": "histogram", "values": [1.0, 0.0, 0.0, 0.0, 0.0, 0.0, 0.0, 1.0, 0.0, 1.0, 2.0, 1.0, 2.0, 1.0, 4.0, 8.0, 203.0, 19.0, 4.0, 2.0, 0.0, 1.0, 2.0, 0.0, 1.0, 0.0, 1.0, 0.0, 0.0, 0.0, 0.0, 0.0, 0.0, 0.0, 0.0, 0.0, 0.0, 0.0, 1.0, 0.0, 0.0, 0.0, 0.0, 0.0, 0.0, 0.0, 0.0, 0.0, 0.0, 0.0, 0.0, 0.0, 0.0, 0.0, 0.0, 0.0, 0.0, 0.0, 0.0, 0.0, 0.0, 0.0, 0.0, 1.0], "bins": [-9.100771421799436e-06, -8.549670383217745e-06, -7.998569344636053e-06, -7.447469215549063e-06, -6.896368176967371e-06, -6.3452671383856796e-06, -5.794166554551339e-06, -5.243065970716998e-06, -4.691964932135306e-06, -4.140863893553615e-06, -3.589763309719274e-06, -3.0386624985112576e-06, -2.4875616873032413e-06, -1.936460876095225e-06, -1.3853600648872089e-06, -8.342592536791926e-07, -2.831584424711764e-07, 2.6794236873683985e-07, 8.190431799448561e-07, 1.3701439911528723e-06, 1.9212448023608886e-06, 2.472345613568905e-06, 3.023446424776921e-06, 3.5745472359849373e-06, 4.1256480471929535e-06, 4.676749085774645e-06, 5.227849669608986e-06, 5.778950253443327e-06, 6.3300512920250185e-06, 6.88115233060671e-06, 7.432252914441051e-06, 7.983353498275392e-06, 8.534454536857083e-06, 9.085555575438775e-06, 9.636656614020467e-06, 1.0187756743107457e-05, 1.0738857781689148e-05, 1.128995882027084e-05, 1.184105894935783e-05, 1.2392159987939522e-05, 1.2943261026521213e-05, 1.3494362065102905e-05, 1.4045463103684597e-05, 1.4596563232771587e-05, 1.5147664271353278e-05, 1.5698764400440268e-05, 1.624986543902196e-05, 1.680096647760365e-05, 1.7352067516185343e-05, 1.7903168554767035e-05, 1.8454269593348727e-05, 1.900537063193042e-05, 1.955647167051211e-05, 2.0107570890104398e-05, 2.065867192868609e-05, 2.120977296726778e-05, 2.1760874005849473e-05, 2.2311975044431165e-05, 2.2863076083012857e-05, 2.3414177121594548e-05, 2.3965276341186836e-05, 2.4516377379768528e-05, 2.506747841835022e-05, 2.561857945693191e-05, 2.6169680495513603e-05]}, "gradients/graph_1rgb_fn.0.weight": {"_type": "histogram", "values": [1.0, 0.0, 0.0, 0.0, 0.0, 0.0, 0.0, 0.0, 0.0, 0.0, 1.0, 0.0, 0.0, 0.0, 0.0, 0.0, 0.0, 0.0, 0.0, 0.0, 0.0, 0.0, 0.0, 0.0, 0.0, 0.0, 0.0, 0.0, 0.0, 0.0, 0.0, 0.0, 0.0, 0.0, 0.0, 0.0, 0.0, 0.0, 1.0, 0.0, 0.0, 0.0, 10.0, 73788.0, 173.0, 3.0, 3.0, 0.0, 1.0, 0.0, 0.0, 0.0, 0.0, 0.0, 0.0, 0.0, 0.0, 1.0, 1.0, 0.0, 0.0, 0.0, 0.0, 1.0], "bins": [-0.020013028755784035, -0.01955687813460827, -0.019100725650787354, -0.018644575029611588, -0.01818842440843582, -0.017732273787260056, -0.01727612316608429, -0.016819970682263374, -0.01636382006108761, -0.015907669439911842, -0.015451517887413502, -0.014995366334915161, -0.014539215713739395, -0.01408306509256363, -0.013626913540065289, -0.013170761987566948, -0.012714611366391182, -0.012258460745215416, -0.011802309192717075, -0.011346157640218735, -0.010890007019042969, -0.010433856397867203, -0.009977704845368862, -0.009521553292870522, -0.009065402671694756, -0.00860925205051899, -0.008153100498020649, -0.007696949411183596, -0.007240798324346542, -0.006784647237509489, -0.006328496150672436, -0.0058723450638353825, -0.005416194908320904, -0.0049600438214838505, -0.004503892734646797, -0.004047741647809744, -0.0035915905609726906, -0.0031354394741356373, -0.002679288387298584, -0.0022231373004615307, -0.0017669862136244774, -0.001310835126787424, -0.0008546840399503708, -0.0003985329531133175, 5.761813372373581e-05, 0.0005137692205607891, 0.0009699203073978424, 0.0014260713942348957, 0.001882222481071949, 0.0023383735679090023, 0.0027945246547460556, 0.003250675741583109, 0.003706826828420162, 0.0041629779152572155, 0.004619129002094269, 0.005075280088931322, 0.005531431175768375, 0.005987582262605429, 0.006443733349442482, 0.006899884436279535, 0.007356035523116589, 0.007812186609953642, 0.008268337696790695, 0.008724488317966461, 0.009180639870464802]}, "gradients/graph_1density_fn.0.bias": {"_type": "histogram", "values": [1.0], "bins": [-2.6800350951816654e-06, -2.6800350951816654e-06]}, "gradients/graph_1density_fn.0.weight": {"_type": "histogram", "values": [1.0, 0.0, 0.0, 0.0, 0.0, 0.0, 0.0, 0.0, 0.0, 1.0, 0.0, 0.0, 0.0, 0.0, 0.0, 0.0, 0.0, 0.0, 0.0, 0.0, 1.0, 0.0, 0.0, 0.0, 0.0, 1.0, 1.0, 0.0, 0.0, 1.0, 1.0, 3.0, 2.0, 2.0, 5.0, 4.0, 3.0, 5.0, 4.0, 2.0, 11.0, 17.0, 28.0, 37.0, 25.0, 28.0, 16.0, 10.0, 11.0, 8.0, 7.0, 5.0, 2.0, 1.0, 2.0, 3.0, 2.0, 2.0, 0.0, 1.0, 0.0, 1.0, 1.0, 1.0], "bins": [-0.0018442714354023337, -0.0018023825250566006, -0.0017604937311261892, -0.001718604820780456, -0.001676715910434723, -0.0016348271165043116, -0.0015929382061585784, -0.0015510492958128452, -0.0015091605018824339, -0.0014672715915367007, -0.0014253826811909676, -0.0013834937708452344, -0.001341604976914823, -0.0012997160665690899, -0.0012578271562233567, -0.0012159383622929454, -0.0011740494519472122, -0.001132160541601479, -0.0010902717476710677, -0.0010483828373253345, -0.0010064939269796014, -0.0009646050748415291, -0.0009227162227034569, -0.0008808273123577237, -0.0008389384602196515, -0.0007970496080815792, -0.000755160697735846, -0.0007132718455977738, -0.0006713829934597015, -0.0006294940831139684, -0.0005876052309758961, -0.000545716320630163, -0.0005038275849074125, -0.0004619387036655098, -0.0004200498224236071, -0.00037816097028553486, -0.00033627208904363215, -0.00029438320780172944, -0.0002524943556636572, -0.00021060547442175448, -0.00016871659317985177, -0.00012682771193794906, -8.493884524796158e-05, -4.3049971282016486e-05, -1.161097316071391e-06, 4.0727776649873704e-05, 8.26166506158188e-05, 0.00012450551730580628, 0.000166394398547709, 0.0002082832797896117, 0.0002501721610315144, 0.00029206101316958666, 0.00033394989441148937, 0.0003758387756533921, 0.00041772762779146433, 0.00045961650903336704, 0.0005015053902752697, 0.000543394242413342, 0.0005852831527590752, 0.0006271720048971474, 0.0006690608570352197, 0.0007109497673809528, 0.0007528386195190251, 0.0007947275298647583, 0.0008366163820028305]}, "gradients/graph_1feature_fn.2.bias": {"_type": "histogram", "values": [1.0, 0.0, 0.0, 1.0, 0.0, 0.0, 0.0, 1.0, 0.0, 1.0, 1.0, 0.0, 0.0, 0.0, 0.0, 0.0, 1.0, 1.0, 1.0, 1.0, 1.0, 1.0, 1.0, 1.0, 6.0, 5.0, 4.0, 4.0, 11.0, 10.0, 21.0, 12.0, 13.0, 13.0, 14.0, 25.0, 15.0, 25.0, 11.0, 9.0, 10.0, 5.0, 8.0, 3.0, 1.0, 1.0, 3.0, 1.0, 2.0, 0.0, 2.0, 1.0, 2.0, 2.0, 0.0, 0.0, 1.0, 1.0, 0.0, 0.0, 1.0, 0.0, 0.0, 1.0], "bins": [-1.213696214108495e-05, -1.1779196029237937e-05, -1.1421430826885626e-05, -1.1063664715038612e-05, -1.07058986031916e-05, -1.0348133400839288e-05, -9.990367288992275e-06, -9.632601177145261e-06, -9.27483597479295e-06, -8.917069862945937e-06, -8.559303751098923e-06, -8.20153763925191e-06, -7.843772436899599e-06, -7.4860063250525855e-06, -7.128240667952923e-06, -6.77047455610591e-06, -6.4127088990062475e-06, -6.054943241906585e-06, -5.697177130059572e-06, -5.33941147295991e-06, -4.981645361112896e-06, -4.623879704013234e-06, -4.266114046913572e-06, -3.908347935066558e-06, -3.550582277966896e-06, -3.1928163934935583e-06, -2.8350505090202205e-06, -2.477284851920558e-06, -2.1195189674472203e-06, -1.7617530829738826e-06, -1.4039873121873825e-06, -1.0462215414008824e-06, -6.884565664222464e-07, -3.3069073879232747e-07, 2.7075088837591466e-08, 3.848409164675104e-07, 7.426067440974293e-07, 1.1003726285707671e-06, 1.4581383993572672e-06, 1.8159041701437673e-06, 2.173670054617105e-06, 2.531435939090443e-06, 2.8892018235637806e-06, 3.246967480663443e-06, 3.6047333651367808e-06, 3.9624992496101186e-06, 4.320264906709781e-06, 4.678031018556794e-06, 5.0357966756564565e-06, 5.393562332756119e-06, 5.751328444603132e-06, 6.1090941017027944e-06, 6.466860213549808e-06, 6.82462587064947e-06, 7.182391527749132e-06, 7.540157639596146e-06, 7.897922841948457e-06, 8.25568895379547e-06, 8.613455065642484e-06, 8.971221177489497e-06, 9.328986379841808e-06, 9.686752491688821e-06, 1.0044518603535835e-05, 1.0402283805888146e-05, 1.076004991773516e-05]}, "gradients/graph_1feature_fn.2.weight": {"_type": "histogram", "values": [1.0, 0.0, 0.0, 0.0, 0.0, 0.0, 0.0, 1.0, 0.0, 0.0, 0.0, 0.0, 0.0, 0.0, 0.0, 1.0, 0.0, 0.0, 0.0, 0.0, 1.0, 0.0, 0.0, 1.0, 0.0, 0.0, 1.0, 1.0, 1.0, 1.0, 1.0, 4.0, 0.0, 4.0, 8.0, 4.0, 14.0, 16.0, 26.0, 26.0, 43.0, 85.0, 175.0, 482.0, 52490.0, 11235.0, 502.0, 180.0, 86.0, 41.0, 28.0, 11.0, 18.0, 11.0, 13.0, 7.0, 4.0, 3.0, 4.0, 2.0, 0.0, 2.0, 1.0, 1.0], "bins": [-0.0017906030407175422, -0.0017507936572656035, -0.001710984273813665, -0.0016711748903617263, -0.0016313655069097877, -0.001591556123457849, -0.0015517467400059104, -0.0015119373565539718, -0.0014721279731020331, -0.0014323185896500945, -0.0013925092061981559, -0.0013526998227462173, -0.0013128904392942786, -0.00127308105584234, -0.0012332716723904014, -0.0011934622889384627, -0.0011536527890712023, -0.0011138434056192636, -0.001074034022167325, -0.0010342246387153864, -0.0009944152552634478, -0.00095460593001917, -0.0009147965465672314, -0.0008749871631152928, -0.0008351777214556932, -0.0007953683380037546, -0.000755558954551816, -0.0007157495710998774, -0.0006759401876479387, -0.0006361308041960001, -0.0005963214207440615, -0.0005565120372921228, -0.0005167025956325233, -0.00047689321218058467, -0.00043708382872864604, -0.0003972744452767074, -0.0003574650618247688, -0.0003176556492689997, -0.00027784626581706107, -0.00023803688236512244, -0.0001982274989131838, -0.00015841811546124518, -0.00011860872473334894, -7.879933400545269e-05, -3.898995055351406e-05, 8.194365364033729e-07, 4.062882362632081e-05, 8.043821435421705e-05, 0.00012024759780615568, 0.0001600569812580943, 0.00019986636471003294, 0.0002396757627138868, 0.0002794851316139102, 0.0003192945441696793, 0.0003591039276216179, 0.00039891331107355654, 0.00043872269452549517, 0.0004785320779774338, 0.0005183414905332029, 0.0005581508739851415, 0.0005979602574370801, 0.0006377696408890188, 0.0006775790243409574, 0.000717388407792896, 0.0007571977912448347]}, "gradients/graph_1feature_fn.0.bias": {"_type": "histogram", "values": [1.0, 0.0, 0.0, 0.0, 0.0, 0.0, 0.0, 0.0, 0.0, 0.0, 0.0, 0.0, 1.0, 1.0, 2.0, 5.0, 3.0, 2.0, 5.0, 8.0, 17.0, 57.0, 113.0, 16.0, 6.0, 4.0, 1.0, 3.0, 0.0, 2.0, 0.0, 1.0, 1.0, 1.0, 0.0, 0.0, 0.0, 1.0, 0.0, 0.0, 0.0, 1.0, 0.0, 0.0, 0.0, 0.0, 0.0, 0.0, 1.0, 0.0, 0.0, 1.0, 0.0, 0.0, 0.0, 0.0, 1.0, 0.0, 0.0, 0.0, 0.0, 0.0, 0.0, 1.0], "bins": [-6.43172170384787e-05, -6.140414188848808e-05, -5.8491066738497466e-05, -5.557799158850685e-05, -5.266491643851623e-05, -4.975184492650442e-05, -4.68387697765138e-05, -4.392569462652318e-05, -4.1012619476532564e-05, -3.8099544326541945e-05, -3.518646917655133e-05, -3.227339402656071e-05, -2.9360320695559494e-05, -2.6447245545568876e-05, -2.353417221456766e-05, -2.0621097064577043e-05, -1.7708021914586425e-05, -1.4794946764595807e-05, -1.188187252409989e-05, -8.968798283603974e-06, -6.0557231336133555e-06, -3.142648438370088e-06, -2.2957374312682077e-07, 2.6835009521164466e-06, 5.596575647359714e-06, 8.509650797350332e-06, 1.1422725037846249e-05, 1.4335799278342165e-05, 1.7248874428332783e-05, 2.01619495783234e-05, 2.3075022909324616e-05, 2.5988098059315234e-05, 2.890116593334824e-05, 3.181424108333886e-05, 3.4727316233329475e-05, 3.764039138332009e-05, 4.055346653331071e-05, 4.346653804532252e-05, 4.637961319531314e-05, 4.929268834530376e-05, 5.220576349529438e-05, 5.5118838645284995e-05, 5.8031913795275614e-05, 6.094498894526623e-05, 6.385806045727804e-05, 6.677113560726866e-05, 6.968421075725928e-05, 7.25972859072499e-05, 7.551036105724052e-05, 7.842343620723113e-05, 8.133651135722175e-05, 8.424958650721237e-05, 8.716266165720299e-05, 9.007573680719361e-05, 9.298881195718423e-05, 9.590188710717484e-05, 9.881495498120785e-05, 0.00010172803013119847, 0.00010464110528118908, 0.0001075541804311797, 0.00011046725558117032, 0.00011338033073116094, 0.00011629340588115156, 0.00011920648103114218, 0.0001221195561811328]}, "gradients/graph_1feature_fn.0.weight": {"_type": "histogram", "values": [1.0, 0.0, 0.0, 0.0, 0.0, 0.0, 1.0, 0.0, 0.0, 1.0, 0.0, 0.0, 1.0, 1.0, 1.0, 1.0, 3.0, 1.0, 4.0, 4.0, 4.0, 12.0, 6.0, 18.0, 101.0, 72863.0, 687.0, 90.0, 50.0, 21.0, 21.0, 21.0, 16.0, 10.0, 3.0, 8.0, 7.0, 5.0, 2.0, 4.0, 3.0, 2.0, 1.0, 2.0, 1.0, 1.0, 0.0, 1.0, 0.0, 0.0, 1.0, 0.0, 0.0, 1.0, 1.0, 0.0, 0.0, 0.0, 0.0, 1.0, 0.0, 0.0, 0.0, 1.0], "bins": [-0.00602270383387804, -0.005789511371403933, -0.005556318908929825, -0.005323126446455717, -0.005089934449642897, -0.004856741987168789, -0.004623549524694681, -0.004390357062220573, -0.004157164599746466, -0.003923972137272358, -0.003690779907628894, -0.003457587445154786, -0.003224395215511322, -0.0029912027530372143, -0.0027580102905631065, -0.0025248180609196424, -0.0022916255984455347, -0.002058433135971427, -0.001825240789912641, -0.0015920484438538551, -0.0013588559813797474, -0.0011256636353209615, -0.0008924712892621756, -0.0006592788849957287, -0.0004260864807292819, -0.0001928940910147503, 4.02982986997813e-05, 0.00027349067386239767, 0.0005066830781288445, 0.0007398754823952913, 0.0009730678284540772, 0.001206260290928185, 0.001439452636986971, 0.0016726449830457568, 0.0019058374455198646, 0.0021390297915786505, 0.0023722222540527582, 0.0026054144836962223, 0.00283860694617033, 0.003071799408644438, 0.0033049918711185455, 0.0035381841007620096, 0.0037713765632361174, 0.0040045687928795815, 0.004237761255353689, 0.004470953717827797, 0.004704146180301905, 0.004937338642776012, 0.005170530639588833, 0.005403723102062941, 0.005636915564537048, 0.005870108027011156, 0.006103300489485264, 0.006336492951959372, 0.006569685414433479, 0.0068028774112463, 0.0070360698737204075, 0.007269262336194515, 0.007502454798668623, 0.007735647261142731, 0.007968839257955551, 0.008202032186090946, 0.008435224182903767, 0.008668417111039162, 0.008901609107851982]}, "gradients/graph_1mlp.6.bias": {"_type": "histogram", "values": [1.0, 0.0, 0.0, 0.0, 0.0, 0.0, 0.0, 0.0, 0.0, 0.0, 0.0, 0.0, 0.0, 0.0, 0.0, 0.0, 0.0, 0.0, 0.0, 1.0, 0.0, 0.0, 0.0, 0.0, 0.0, 0.0, 0.0, 0.0, 0.0, 0.0, 0.0, 0.0, 1.0, 1.0, 0.0, 0.0, 2.0, 1.0, 2.0, 4.0, 5.0, 72.0, 122.0, 10.0, 2.0, 4.0, 3.0, 1.0, 3.0, 3.0, 4.0, 1.0, 2.0, 2.0, 1.0, 3.0, 1.0, 3.0, 0.0, 0.0, 0.0, 0.0, 0.0, 1.0], "bins": [-0.0006451731314882636, -0.0006298163207247853, -0.000614459568168968, -0.0005991027574054897, -0.0005837460048496723, -0.000568389194086194, -0.0005530323833227158, -0.0005376756307668984, -0.0005223188200034201, -0.0005069620674476027, -0.0004916052566841245, -0.00047624847502447665, -0.0004608916933648288, -0.000445534911705181, -0.0004301781009417027, -0.0004148213192820549, -0.0003994645376224071, -0.00038410775596275926, -0.00036875097430311143, -0.00035339416353963315, -0.00033803738187998533, -0.0003226806002203375, -0.0003073238185606897, -0.00029196703690104187, -0.00027661025524139404, -0.00026125344447791576, -0.00024589666281826794, -0.00023053988115862012, -0.0002151830994989723, -0.00019982630328740925, -0.00018446952162776142, -0.00016911272541619837, -0.000153755972860381, -0.00013839919120073318, -0.00012304239498917013, -0.00010768561332952231, -9.232882439391688e-05, -7.697203545831144e-05, -6.161525379866362e-05, -4.625846486305818e-05, -3.090167592745274e-05, -1.554488881083671e-05, -1.8810169422067702e-07, 1.5168685422395356e-05, 3.052547253901139e-05, 4.5882261474616826e-05, 6.123904313426465e-05, 7.659583206987008e-05, 9.195262100547552e-05, 0.00010730940994108096, 0.0001226661988766864, 0.00013802298053633422, 0.00015337977674789727, 0.0001687365584075451, 0.0001840933400671929, 0.00019945013627875596, 0.00021480691793840379, 0.0002301636995980516, 0.00024552049580961466, 0.0002608772774692625, 0.0002762340591289103, 0.0002915908407885581, 0.0003069476515520364, 0.0003223044332116842, 0.00033766121487133205]}, "gradients/graph_1mlp.6.weight": {"_type": "histogram", "values": [1.0, 0.0, 1.0, 0.0, 0.0, 0.0, 0.0, 0.0, 0.0, 0.0, 0.0, 0.0, 0.0, 0.0, 1.0, 1.0, 2.0, 1.0, 0.0, 0.0, 1.0, 2.0, 1.0, 0.0, 1.0, 0.0, 1.0, 0.0, 2.0, 5.0, 0.0, 2.0, 2.0, 5.0, 5.0, 4.0, 1.0, 7.0, 11.0, 9.0, 25.0, 32.0, 78.0, 618.0, 63974.0, 239.0, 146.0, 102.0, 68.0, 50.0, 28.0, 37.0, 17.0, 18.0, 13.0, 6.0, 2.0, 7.0, 4.0, 2.0, 1.0, 1.0, 1.0, 1.0], "bins": [-0.02404198795557022, -0.023496536538004875, -0.02295108325779438, -0.022405631840229034, -0.02186018042266369, -0.021314727142453194, -0.020769275724887848, -0.020223824307322502, -0.019678371027112007, -0.01913291960954666, -0.018587468191981316, -0.01804201491177082, -0.017496563494205475, -0.01695111207664013, -0.016405658796429634, -0.01586020737886429, -0.015314755029976368, -0.014769302681088448, -0.014223851263523102, -0.013678398914635181, -0.013132946565747261, -0.012587495148181915, -0.012042042799293995, -0.011496590450406075, -0.010951139032840729, -0.010405686683952808, -0.009860234335064888, -0.009314781986176968, -0.008769330568611622, -0.008223878219723701, -0.007678426336497068, -0.007132973987609148, -0.006587522104382515, -0.006042070221155882, -0.0054966178722679615, -0.004951165989041328, -0.004405713640153408, -0.003860261756926775, -0.003314809873700142, -0.002769357757642865, -0.0022239056415855885, -0.0016784535255283117, -0.0011330015258863568, -0.000587549468036741, -4.2097410187125206e-05, 0.0005033546476624906, 0.0010488067055121064, 0.0015942587051540613, 0.002139710821211338, 0.0026851629372686148, 0.0032306150533258915, 0.0037760669365525246, 0.004321519285440445, 0.004866971168667078, 0.005412423051893711, 0.0059578754007816315, 0.0065033272840082645, 0.007048779167234898, 0.007594231516122818, 0.008139683865010738, 0.008685135282576084, 0.009230587631464005, 0.009776039980351925, 0.01032149139791727, 0.010866943746805191]}, "gradients/graph_1mlp.4.bias": {"_type": "histogram", "values": [1.0, 0.0, 0.0, 0.0, 1.0, 0.0, 0.0, 0.0, 0.0, 0.0, 0.0, 0.0, 0.0, 0.0, 0.0, 1.0, 0.0, 0.0, 0.0, 1.0, 2.0, 1.0, 1.0, 0.0, 0.0, 0.0, 0.0, 2.0, 0.0, 1.0, 1.0, 0.0, 0.0, 0.0, 1.0, 0.0, 2.0, 2.0, 12.0, 154.0, 51.0, 3.0, 2.0, 2.0, 4.0, 1.0, 1.0, 0.0, 1.0, 0.0, 0.0, 1.0, 1.0, 0.0, 0.0, 0.0, 2.0, 1.0, 0.0, 1.0, 0.0, 0.0, 1.0, 1.0], "bins": [-0.002456950256600976, -0.0023954182397574186, -0.0023338862229138613, -0.002272354206070304, -0.0022108221892267466, -0.002149290172383189, -0.0020877583883702755, -0.002026226371526718, -0.0019646943546831608, -0.0019031623378396034, -0.001841630320996046, -0.0017800983041524887, -0.0017185662873089314, -0.001657034270465374, -0.0015955023700371385, -0.001533970353193581, -0.0014724383363500237, -0.0014109063195064664, -0.001349374302662909, -0.0012878424022346735, -0.0012263103853911161, -0.0011647783685475588, -0.0011032463517040014, -0.001041714334860444, -0.0009801823180168867, -0.0009186503593809903, -0.0008571184007450938, -0.0007955863839015365, -0.0007340543670579791, -0.0006725224084220827, -0.0006109903915785253, -0.0005494584329426289, -0.00048792653251439333, -0.00042639454477466643, -0.00036486255703493953, -0.00030333054019138217, -0.00024179855245165527, -0.00018026656471192837, -0.00011873456242028624, -5.720256740460172e-05, 4.329427611082792e-06, 6.586142262676731e-05, 0.00012739341764245182, 0.00018892541993409395, 0.00025045740767382085, 0.00031198939541354775, 0.0003735214122571051, 0.000435053399996832, 0.0004965853877365589, 0.0005581174045801163, 0.0006196493632160127, 0.0006811813800595701, 0.0007427133386954665, 0.0008042453555390239, 0.0008657773723825812, 0.0009273093310184777, 0.0009888412896543741, 0.0010503733064979315, 0.0011119053233414888, 0.0011734373401850462, 0.0012349693570286036, 0.001296501373872161, 0.0013580332743003964, 0.0014195652911439538, 0.0014810973079875112]}, "gradients/graph_1mlp.4.weight": {"_type": "histogram", "values": [1.0, 0.0, 0.0, 0.0, 1.0, 3.0, 0.0, 0.0, 1.0, 3.0, 2.0, 0.0, 1.0, 3.0, 3.0, 2.0, 1.0, 2.0, 4.0, 3.0, 3.0, 6.0, 6.0, 13.0, 14.0, 13.0, 6.0, 20.0, 14.0, 25.0, 20.0, 24.0, 34.0, 33.0, 42.0, 59.0, 64.0, 60.0, 119.0, 186.0, 63704.0, 394.0, 189.0, 108.0, 73.0, 51.0, 44.0, 38.0, 30.0, 21.0, 17.0, 16.0, 8.0, 10.0, 8.0, 12.0, 3.0, 5.0, 5.0, 3.0, 2.0, 3.0, 0.0, 1.0], "bins": [-0.031696926802396774, -0.03091844730079174, -0.030139967799186707, -0.029361486434936523, -0.02858300693333149, -0.027804527431726456, -0.027026046067476273, -0.02624756656587124, -0.025469087064266205, -0.02469060756266117, -0.023912128061056137, -0.023133646696805954, -0.02235516719520092, -0.021576687693595886, -0.020798206329345703, -0.02001972682774067, -0.019241247326135635, -0.0184627678245306, -0.017684288322925568, -0.016905806958675385, -0.01612732745707035, -0.015348847955465317, -0.014570367522537708, -0.0137918870896101, -0.013013407588005066, -0.012234928086400032, -0.011456447653472424, -0.010677967220544815, -0.009899487718939781, -0.009121008217334747, -0.008342527784407139, -0.007564047817140818, -0.006785569712519646, -0.0060070897452533245, -0.005228609777987003, -0.004450129810720682, -0.003671649843454361, -0.0028931698761880398, -0.0021146899089217186, -0.0013362099416553974, -0.0005577299743890762, 0.00022074999287724495, 0.0009992299601435661, 0.0017777099274098873, 0.0025561898946762085, 0.0033346698619425297, 0.004113149829208851, 0.004891629796475172, 0.005670109763741493, 0.006448589731007814, 0.007227069698274136, 0.008005550131201744, 0.008784029632806778, 0.009562509134411812, 0.01034098956733942, 0.011119470000267029, 0.011897949501872063, 0.012676429003477097, 0.013454909436404705, 0.014233389869332314, 0.015011869370937347, 0.01579034887254238, 0.016568828374147415, 0.0173473097383976, 0.018125789240002632]}, "gradients/graph_1mlp.2.bias": {"_type": "histogram", "values": [2.0, 0.0, 0.0, 0.0, 1.0, 1.0, 0.0, 0.0, 1.0, 1.0, 1.0, 1.0, 0.0, 1.0, 0.0, 1.0, 1.0, 0.0, 2.0, 1.0, 2.0, 3.0, 2.0, 0.0, 2.0, 4.0, 1.0, 3.0, 17.0, 183.0, 2.0, 2.0, 0.0, 0.0, 0.0, 3.0, 0.0, 1.0, 1.0, 0.0, 0.0, 2.0, 1.0, 2.0, 0.0, 1.0, 1.0, 0.0, 0.0, 0.0, 2.0, 1.0, 1.0, 0.0, 3.0, 0.0, 0.0, 1.0, 0.0, 0.0, 0.0, 0.0, 0.0, 1.0], "bins": [-0.007170904893428087, -0.006926730740815401, -0.006682556588202715, -0.006438382435590029, -0.006194207817316055, -0.005950033664703369, -0.005705859512090683, -0.005461685359477997, -0.005217511206865311, -0.0049733370542526245, -0.004729162901639938, -0.004484988749027252, -0.004240814596414566, -0.003996639978140593, -0.0037524658255279064, -0.0035082916729152203, -0.003264117520302534, -0.003019943367689848, -0.002775769215077162, -0.002531594829633832, -0.002287420677021146, -0.0020432465244084597, -0.0017990722553804517, -0.0015548979863524437, -0.0013107238337397575, -0.0010665496811270714, -0.0008223754120990634, -0.0005782012012787163, -0.00033402699045836926, -8.985277963802218e-05, 0.00015432143118232489, 0.00039849564200267196, 0.0006426703184843063, 0.0008868445293046534, 0.0011310187401250005, 0.0013751930091530085, 0.0016193671617656946, 0.0018635413143783808, 0.0021077156998217106, 0.0023518898524343967, 0.002596064005047083, 0.002840238157659769, 0.003084412310272455, 0.003328586695715785, 0.003572760848328471, 0.0038169350009411573, 0.004061109386384487, 0.004305283538997173, 0.0045494576916098595, 0.004793631844222546, 0.005037805996835232, 0.005281980149447918, 0.005526154302060604, 0.0057703289203345776, 0.006014503072947264, 0.00625867722555995, 0.006502851378172636, 0.006747025530785322, 0.006991199683398008, 0.0072353738360106945, 0.007479548454284668, 0.007723722606897354, 0.00796789675951004, 0.008212070912122726, 0.008456245064735413]}, "gradients/graph_1mlp.2.weight": {"_type": "histogram", "values": [1.0, 1.0, 0.0, 0.0, 2.0, 1.0, 1.0, 0.0, 2.0, 2.0, 3.0, 3.0, 4.0, 4.0, 5.0, 6.0, 7.0, 9.0, 11.0, 14.0, 23.0, 23.0, 28.0, 49.0, 63.0, 109.0, 167.0, 249.0, 511.0, 61800.0, 1300.0, 347.0, 226.0, 163.0, 113.0, 67.0, 42.0, 36.0, 28.0, 25.0, 16.0, 12.0, 13.0, 10.0, 6.0, 7.0, 3.0, 5.0, 2.0, 2.0, 5.0, 1.0, 3.0, 2.0, 1.0, 0.0, 1.0, 0.0, 1.0, 0.0, 0.0, 0.0, 0.0, 1.0], "bins": [-0.036889564245939255, -0.0356568805873394, -0.034424200654029846, -0.03319151699542999, -0.03195883333683014, -0.030726151540875435, -0.02949346974492073, -0.028260786086320877, -0.027028104290366173, -0.02579542249441147, -0.024562738835811615, -0.02333005703985691, -0.022097375243902206, -0.020864691585302353, -0.01963200978934765, -0.018399326130747795, -0.01716664433479309, -0.015933962538838387, -0.014701278880238533, -0.013468597084283829, -0.01223591435700655, -0.011003231629729271, -0.009770549833774567, -0.008537867106497288, -0.007305184379220009, -0.00607250165194273, -0.004839819390326738, -0.003607136895880103, -0.002374454401433468, -0.0011417719069868326, 9.091058745980263e-05, 0.0013235930819064379, 0.0025562793016433716, 0.003788961796090007, 0.005021644290536642, 0.006254326552152634, 0.007487009279429913, 0.008719692006707191, 0.009952373802661896, 0.011185056529939175, 0.012417739257216454, 0.013650421984493732, 0.014883104711771011, 0.016115786507725716, 0.01734846830368042, 0.018581151962280273, 0.019813833758234978, 0.02104651741683483, 0.022279199212789536, 0.02351188100874424, 0.024744564667344093, 0.025977246463298798, 0.02720993012189865, 0.028442611917853355, 0.02967529371380806, 0.030907977372407913, 0.03214065730571747, 0.03337334096431732, 0.034606024622917175, 0.03583870828151703, 0.037071388214826584, 0.03830407187342644, 0.03953675553202629, 0.040769435465335846, 0.0420021191239357]}, "gradients/graph_1mlp.0.bias": {"_type": "histogram", "values": [1.0, 0.0, 0.0, 0.0, 0.0, 1.0, 0.0, 0.0, 0.0, 0.0, 0.0, 2.0, 0.0, 3.0, 2.0, 1.0, 1.0, 1.0, 0.0, 2.0, 0.0, 2.0, 0.0, 1.0, 1.0, 2.0, 1.0, 0.0, 4.0, 158.0, 23.0, 1.0, 2.0, 2.0, 1.0, 4.0, 4.0, 1.0, 1.0, 2.0, 4.0, 2.0, 3.0, 1.0, 2.0, 2.0, 2.0, 2.0, 1.0, 1.0, 2.0, 1.0, 2.0, 2.0, 1.0, 1.0, 0.0, 0.0, 1.0, 0.0, 0.0, 1.0, 0.0, 1.0], "bins": [-0.054301775991916656, -0.05247839540243149, -0.05065501853823662, -0.04883163794875145, -0.04700825735926628, -0.04518488049507141, -0.04336149990558624, -0.041538119316101074, -0.039714738726615906, -0.037891361862421036, -0.03606798127293587, -0.0342446006834507, -0.03242122381925583, -0.03059784322977066, -0.02877446450293064, -0.026951083913445473, -0.025127705186605453, -0.023304326459765434, -0.021480945870280266, -0.019657567143440247, -0.017834186553955078, -0.01601080782711506, -0.01418742910027504, -0.012364049442112446, -0.010540669783949852, -0.008717290125787258, -0.006893910933285952, -0.005070531740784645, -0.0032471520826220512, -0.001423772657290101, 0.00039960676804184914, 0.0022229861933737993, 0.0040463656187057495, 0.005869745276868343, 0.00769312446936965, 0.009516503661870956, 0.01133988332003355, 0.013163262978196144, 0.014986641705036163, 0.016810022294521332, 0.01863340102136135, 0.02045677974820137, 0.02228016033768654, 0.024103539064526558, 0.025926917791366577, 0.027750298380851746, 0.029573677107691765, 0.031397055834531784, 0.03322043642401695, 0.03504381701350212, 0.03686719387769699, 0.03869057446718216, 0.04051395505666733, 0.0423373319208622, 0.044160712510347366, 0.045984093099832535, 0.047807469964027405, 0.04963085055351257, 0.05145423114299774, 0.05327761173248291, 0.05510098859667778, 0.05692436918616295, 0.05874774977564812, 0.06057112663984299, 0.062394507229328156]}, "gradients/graph_1mlp.0.weight": {"_type": "histogram", "values": [1.0, 1.0, 2.0, 1.0, 5.0, 6.0, 1.0, 1.0, 5.0, 11.0, 5.0, 7.0, 8.0, 6.0, 18.0, 16.0, 26.0, 36.0, 30.0, 28.0, 30.0, 27.0, 36.0, 28.0, 47.0, 43.0, 41.0, 54.0, 71.0, 75.0, 127.0, 4919.0, 1668.0, 122.0, 82.0, 79.0, 75.0, 85.0, 59.0, 46.0, 40.0, 64.0, 54.0, 52.0, 31.0, 33.0, 29.0, 36.0, 28.0, 22.0, 19.0, 18.0, 20.0, 11.0, 18.0, 13.0, 2.0, 2.0, 7.0, 4.0, 4.0, 5.0, 4.0, 4.0], "bins": [-0.06226091831922531, -0.060313526540994644, -0.05836613476276398, -0.05641874670982361, -0.05447135493159294, -0.052523963153362274, -0.05057657137513161, -0.04862917959690094, -0.04668179154396057, -0.044734399765729904, -0.04278700798749924, -0.04083961620926857, -0.0388922244310379, -0.036944832652807236, -0.03499744459986687, -0.0330500528216362, -0.031102661043405533, -0.029155269265174866, -0.027207879349589348, -0.02526048757135868, -0.023313097655773163, -0.021365705877542496, -0.01941831409931183, -0.01747092418372631, -0.015523532405495644, -0.013576141558587551, -0.011628750711679459, -0.009681358933448792, -0.007733968086540699, -0.0057865772396326065, -0.0038391859270632267, -0.0018917948473244905, 5.5596232414245605e-05, 0.0020029873121529818, 0.003950378391891718, 0.005897769704461098, 0.00784516055136919, 0.009792551398277283, 0.01173994317650795, 0.013687334023416042, 0.015634724870324135, 0.017582116648554802, 0.01952950656414032, 0.021476898342370987, 0.023424290120601654, 0.025371680036187172, 0.02731907181441784, 0.029266461730003357, 0.031213853508234024, 0.03316124528646469, 0.03510863706469536, 0.03705602511763573, 0.039003416895866394, 0.04095080867409706, 0.04289820045232773, 0.044845592230558395, 0.04679298400878906, 0.04874037206172943, 0.0506877638399601, 0.052635155618190765, 0.05458254739642143, 0.0565299391746521, 0.05847732722759247, 0.060424719005823135, 0.0623721107840538]}, "gradients/rgb_fn.2.bias": {"_type": "histogram", "values": [1.0, 0.0, 0.0, 0.0, 0.0, 0.0, 0.0, 0.0, 0.0, 0.0, 0.0, 0.0, 0.0, 0.0, 0.0, 0.0, 0.0, 0.0, 0.0, 0.0, 0.0, 0.0, 0.0, 0.0, 0.0, 0.0, 0.0, 0.0, 0.0, 0.0, 0.0, 0.0, 0.0, 0.0, 0.0, 0.0, 0.0, 0.0, 0.0, 0.0, 0.0, 0.0, 0.0, 0.0, 0.0, 0.0, 0.0, 0.0, 1.0, 0.0, 0.0, 0.0, 0.0, 0.0, 0.0, 0.0, 0.0, 0.0, 0.0, 0.0, 0.0, 0.0, 0.0, 1.0], "bins": [0.00023969011090230197, 0.00024048237537499517, 0.00024127463984768838, 0.00024206690432038158, 0.0002428591687930748, 0.000243651433265768, 0.00024444368318654597, 0.0002452359476592392, 0.0002460282121319324, 0.0002468204766046256, 0.0002476127410773188, 0.000248405005550012, 0.0002491972700227052, 0.0002499895344953984, 0.0002507817989680916, 0.0002515740634407848, 0.000252366327913478, 0.0002531585923861712, 0.0002539508568588644, 0.00025474312133155763, 0.00025553538580425084, 0.00025632765027694404, 0.00025711991474963725, 0.00025791217922233045, 0.00025870444369502366, 0.00025949670816771686, 0.00026028897264041007, 0.00026108123711310327, 0.0002618735015857965, 0.0002626657660584897, 0.0002634580305311829, 0.0002642502950038761, 0.0002650425594765693, 0.0002658348239492625, 0.0002666270884219557, 0.0002674193528946489, 0.0002682116173673421, 0.0002690038818400353, 0.0002697961463127285, 0.00027058841078542173, 0.00027138067525811493, 0.00027217293973080814, 0.00027296520420350134, 0.0002737574395723641, 0.0002745497040450573, 0.0002753419685177505, 0.0002761342329904437, 0.0002769264974631369, 0.0002777187619358301, 0.0002785110264085233, 0.0002793032908812165, 0.00028009555535390973, 0.00028088781982660294, 0.00028168008429929614, 0.00028247234877198935, 0.00028326461324468255, 0.00028405687771737576, 0.00028484914219006896, 0.00028564140666276217, 0.00028643367113545537, 0.0002872259356081486, 0.0002880182000808418, 0.000288810464553535, 0.0002896027290262282, 0.0002903949934989214]}, "gradients/rgb_fn.2.weight": {"_type": "histogram", "values": [2.0, 3.0, 1.0, 0.0, 4.0, 5.0, 25.0, 699.0, 8.0, 2.0, 4.0, 3.0, 3.0, 1.0, 1.0, 0.0, 0.0, 1.0, 0.0, 0.0, 2.0, 0.0, 0.0, 1.0, 0.0, 0.0, 0.0, 0.0, 0.0, 0.0, 0.0, 0.0, 0.0, 0.0, 0.0, 0.0, 0.0, 0.0, 0.0, 0.0, 0.0, 0.0, 0.0, 0.0, 0.0, 0.0, 0.0, 0.0, 0.0, 0.0, 1.0, 0.0, 0.0, 0.0, 0.0, 0.0, 0.0, 0.0, 0.0, 0.0, 0.0, 1.0, 0.0, 1.0], "bins": [-0.00039919596747495234, -0.00034591183066368103, -0.0002926276938524097, -0.00023934354248922318, -0.00018605940567795187, -0.00013277526886668056, -7.949112477945164e-05, -2.620698433020152e-05, 2.7077156119048595e-05, 8.03612929303199e-05, 0.00013364542974159122, 0.00018692958110477775, 0.00024021371791604906, 0.0002934978692792356, 0.0003467820060905069, 0.0004000661429017782, 0.00045335027971304953, 0.0005066344165243208, 0.0005599185824394226, 0.0006132026901468635, 0.0006664868560619652, 0.0007197709637694061, 0.0007730551296845078, 0.0008263392373919487, 0.0008796234033070505, 0.0009329075692221522, 0.000986191676929593, 0.001039475784637034, 0.0010927600087597966, 0.0011460441164672375, 0.0011993282241746783, 0.0012526123318821192, 0.00130589643958956, 0.0013591805472970009, 0.0014124647714197636, 0.0014657488791272044, 0.0015190329868346453, 0.0015723170945420861, 0.0016256013186648488, 0.0016788854263722897, 0.0017321695340797305, 0.0017854537582024932, 0.001838737865909934, 0.001892021973617375, 0.0019453060813248158, 0.0019985903054475784, 0.0020518742967396975, 0.00210515852086246, 0.002158442744985223, 0.002211726736277342, 0.0022650109604001045, 0.002318295184522867, 0.0023715791758149862, 0.002424863399937749, 0.0024781476240605116, 0.0025314316153526306, 0.0025847158394753933, 0.002638000063598156, 0.002691284054890275, 0.0027445682790130377, 0.0027978522703051567, 0.0028511364944279194, 0.002904420718550682, 0.002957704709842801, 0.0030109889339655638]}, "gradients/rgb_fn.0.bias": {"_type": "histogram", "values": [1.0, 0.0, 0.0, 1.0, 0.0, 1.0, 0.0, 0.0, 0.0, 0.0, 2.0, 1.0, 1.0, 3.0, 2.0, 3.0, 1.0, 7.0, 199.0, 13.0, 11.0, 1.0, 2.0, 2.0, 1.0, 1.0, 0.0, 0.0, 0.0, 1.0, 0.0, 0.0, 0.0, 0.0, 0.0, 0.0, 0.0, 0.0, 0.0, 1.0, 0.0, 0.0, 0.0, 0.0, 0.0, 0.0, 0.0, 0.0, 0.0, 0.0, 0.0, 0.0, 0.0, 0.0, 0.0, 0.0, 0.0, 0.0, 0.0, 0.0, 0.0, 0.0, 0.0, 1.0], "bins": [-1.00527086033253e-05, -9.509935807727743e-06, -8.967163921624888e-06, -8.42439112602733e-06, -7.881619239924476e-06, -7.3388464443269186e-06, -6.796073648729362e-06, -6.2533013078791555e-06, -5.710528967028949e-06, -5.167756626178743e-06, -4.624984285328537e-06, -4.08221148973098e-06, -3.539439148880774e-06, -2.996666808030568e-06, -2.4538942398066865e-06, -1.911121671582805e-06, -1.368349330732599e-06, -8.255768761955551e-07, -2.828044216585113e-07, 2.5996803287853254e-07, 8.027404874155764e-07, 1.3455129419526202e-06, 1.888285396489664e-06, 2.4310579647135455e-06, 2.9738303055637516e-06, 3.5166026464139577e-06, 4.059374987264164e-06, 4.602147782861721e-06, 5.144920123711927e-06, 5.687692464562133e-06, 6.23046526015969e-06, 6.773237601009896e-06, 7.316011760849506e-06, 7.858784556447063e-06, 8.401556442549918e-06, 8.944329238147475e-06, 9.48710112425033e-06, 1.0029873919847887e-05, 1.0572646715445444e-05, 1.11154186015483e-05, 1.1658191397145856e-05, 1.2200964192743413e-05, 1.2743736078846268e-05, 1.3286508874443825e-05, 1.3829281670041382e-05, 1.4372053556144238e-05, 1.4914826351741794e-05, 1.545759914733935e-05, 1.6000371033442207e-05, 1.6543142919545062e-05, 1.708591662463732e-05, 1.7628688510740176e-05, 1.817146039684303e-05, 1.871423410193529e-05, 1.9257005988038145e-05, 1.9799777874141e-05, 2.034255157923326e-05, 2.0885323465336114e-05, 2.142809535143897e-05, 2.1970867237541825e-05, 2.2513640942634083e-05, 2.305641282873694e-05, 2.3599184714839794e-05, 2.4141958419932052e-05, 2.4684730306034908e-05]}, "gradients/rgb_fn.0.weight": {"_type": "histogram", "values": [1.0, 0.0, 0.0, 0.0, 0.0, 0.0, 0.0, 0.0, 0.0, 0.0, 0.0, 0.0, 1.0, 0.0, 1.0, 1.0, 0.0, 0.0, 0.0, 0.0, 0.0, 0.0, 2.0, 1.0, 1.0, 0.0, 3.0, 5.0, 4.0, 32.0, 261.0, 73548.0, 81.0, 21.0, 7.0, 5.0, 1.0, 0.0, 1.0, 2.0, 1.0, 0.0, 0.0, 1.0, 0.0, 0.0, 1.0, 0.0, 0.0, 0.0, 1.0, 0.0, 0.0, 0.0, 0.0, 0.0, 0.0, 0.0, 0.0, 0.0, 0.0, 0.0, 0.0, 1.0], "bins": [-0.0011052953777834773, -0.0010700097773224115, -0.0010347242932766676, -0.0009994386928156018, -0.000964153150562197, -0.0009288676083087921, -0.0008935820660553873, -0.0008582965238019824, -0.0008230109233409166, -0.0007877253810875118, -0.0007524398388341069, -0.0007171542965807021, -0.0006818687543272972, -0.0006465832120738924, -0.0006112976116128266, -0.0005760120693594217, -0.0005407265271060169, -0.000505440984852612, -0.0004701554134953767, -0.00043486987124197185, -0.00039958429988473654, -0.0003642987576313317, -0.0003290132153779268, -0.0002937276440206915, -0.00025844210176728666, -0.00022315654496196657, -0.0001878709881566465, -0.00015258544590324163, -0.00011729988909792155, -8.201433229260147e-05, -4.6728782763238996e-05, -1.144322959589772e-05, 2.3842323571443558e-05, 5.9127876738784835e-05, 9.441342990612611e-05, 0.00012969897943548858, 0.00016498453624080867, 0.00020027009304612875, 0.0002355556352995336, 0.0002708412066567689, 0.0003061267489101738, 0.00034141229116357863, 0.00037669786252081394, 0.0004119834047742188, 0.00044726894702762365, 0.00048255451838485897, 0.0005178400897420943, 0.0005531256319954991, 0.000588411174248904, 0.0006236967165023088, 0.0006589822587557137, 0.0006942678592167795, 0.0007295534014701843, 0.0007648389437235892, 0.000800124485976994, 0.0008354100282303989, 0.0008706955704838037, 0.0009059811709448695, 0.0009412667131982744, 0.0009765522554516792, 0.001011837855912745, 0.001047123339958489, 0.0010824089404195547, 0.0011176944244652987, 0.0011529800249263644]}, "gradients/density_fn.0.bias": {"_type": "histogram", "values": [1.0], "bins": [1.624959804757964e-05, 1.624959804757964e-05]}, "gradients/density_fn.0.weight": {"_type": "histogram", "values": [2.0, 1.0, 1.0, 0.0, 0.0, 0.0, 0.0, 0.0, 0.0, 1.0, 0.0, 0.0, 0.0, 0.0, 0.0, 1.0, 0.0, 0.0, 0.0, 0.0, 0.0, 1.0, 2.0, 0.0, 0.0, 0.0, 1.0, 2.0, 1.0, 6.0, 7.0, 13.0, 13.0, 25.0, 28.0, 40.0, 40.0, 16.0, 14.0, 3.0, 7.0, 9.0, 3.0, 3.0, 2.0, 1.0, 1.0, 1.0, 1.0, 1.0, 3.0, 0.0, 1.0, 1.0, 0.0, 0.0, 0.0, 0.0, 1.0, 0.0, 0.0, 1.0, 1.0, 1.0], "bins": [-6.429370841942728e-05, -6.24524982413277e-05, -6.061128806322813e-05, -5.877007788512856e-05, -5.6928867707028985e-05, -5.508765752892941e-05, -5.324644735082984e-05, -5.140523717273027e-05, -4.9564026994630694e-05, -4.772281681653112e-05, -4.588160663843155e-05, -4.4040396460331976e-05, -4.2199186282232404e-05, -4.035797610413283e-05, -3.851676592603326e-05, -3.6675555747933686e-05, -3.483434556983411e-05, -3.299313539173454e-05, -3.115192521363497e-05, -2.9310715035535395e-05, -2.7469504857435822e-05, -2.562829467933625e-05, -2.3787084501236677e-05, -2.1945874323137105e-05, -2.0104664145037532e-05, -1.826345396693796e-05, -1.6422243788838387e-05, -1.4581033610738814e-05, -1.2739823432639241e-05, -1.0898613254539669e-05, -9.057403076440096e-06, -7.216192898340523e-06, -5.3749790822621435e-06, -3.533768904162571e-06, -1.6925587260629982e-06, 1.4865145203657448e-07, 1.989861630136147e-06, 3.83107180823572e-06, 5.6722819863352925e-06, 7.513492164434865e-06, 9.354702342534438e-06, 1.119591252063401e-05, 1.3037122698733583e-05, 1.4878332876833156e-05, 1.671954305493273e-05, 1.85607532330323e-05, 2.0401963411131874e-05, 2.2243173589231446e-05, 2.408438376733102e-05, 2.5925593945430592e-05, 2.7766804123530164e-05, 2.9608014301629737e-05, 3.144922447972931e-05, 3.329043465782888e-05, 3.5131644835928455e-05, 3.697285501402803e-05, 3.88140651921276e-05, 4.065527537022717e-05, 4.2496485548326746e-05, 4.433769572642632e-05, 4.617890590452589e-05, 4.8020116082625464e-05, 4.9861326260725036e-05, 5.170253643882461e-05, 5.354374661692418e-05]}, "gradients/feature_fn.2.bias": {"_type": "histogram", "values": [1.0, 0.0, 0.0, 0.0, 0.0, 0.0, 0.0, 0.0, 0.0, 0.0, 0.0, 0.0, 1.0, 0.0, 0.0, 0.0, 0.0, 0.0, 0.0, 0.0, 0.0, 0.0, 0.0, 0.0, 1.0, 1.0, 2.0, 1.0, 1.0, 3.0, 15.0, 31.0, 66.0, 59.0, 38.0, 13.0, 10.0, 4.0, 2.0, 1.0, 1.0, 3.0, 0.0, 0.0, 0.0, 0.0, 0.0, 0.0, 0.0, 0.0, 0.0, 1.0, 0.0, 0.0, 0.0, 0.0, 0.0, 0.0, 0.0, 0.0, 0.0, 0.0, 0.0, 1.0], "bins": [-2.275975566590205e-05, -2.2071690182201564e-05, -2.1383626517490484e-05, -2.069556103379e-05, -2.0007495550089516e-05, -1.9319431885378435e-05, -1.863136640167795e-05, -1.7943300917977467e-05, -1.7255235434276983e-05, -1.6567171769565903e-05, -1.587910628586542e-05, -1.5191041711659636e-05, -1.4502977137453854e-05, -1.381491165375337e-05, -1.3126847079547588e-05, -1.2438781595847104e-05, -1.1750717021641321e-05, -1.106265244743554e-05, -1.0374586963735055e-05, -9.686522389529273e-06, -8.998456905828789e-06, -8.310392331623007e-06, -7.622327757417224e-06, -6.934262728464091e-06, -6.246197699510958e-06, -5.558132670557825e-06, -4.870067641604692e-06, -4.1820030673989095e-06, -3.4939380384457763e-06, -2.805873009492643e-06, -2.1178082079131855e-06, -1.42974329264689e-06, -7.416765583911911e-07, -5.3611643124895636e-08, 6.344532721413998e-07, 1.3225181874076952e-06, 2.0105831026739907e-06, 2.698648131627124e-06, 3.3867129332065815e-06, 4.074777734786039e-06, 4.762842763739172e-06, 5.4509077926923055e-06, 6.138972821645439e-06, 6.827037395851221e-06, 7.515102424804354e-06, 8.203167453757487e-06, 8.89123202796327e-06, 9.579297511663754e-06, 1.0267362085869536e-05, 1.0955426660075318e-05, 1.1643492143775802e-05, 1.2331556717981584e-05, 1.3019622201682068e-05, 1.370768677588785e-05, 1.4395751350093633e-05, 1.5083816833794117e-05, 1.57718823174946e-05, 1.645994598220568e-05, 1.7148011465906166e-05, 1.783607694960665e-05, 1.852414061431773e-05, 1.9212206098018214e-05, 1.9900271581718698e-05, 2.058833524642978e-05, 2.1276400730130263e-05]}, "gradients/feature_fn.2.weight": {"_type": "histogram", "values": [1.0, 0.0, 0.0, 0.0, 0.0, 0.0, 0.0, 0.0, 0.0, 0.0, 0.0, 0.0, 0.0, 1.0, 0.0, 1.0, 0.0, 1.0, 3.0, 1.0, 4.0, 4.0, 1.0, 5.0, 5.0, 6.0, 10.0, 19.0, 26.0, 46.0, 135.0, 454.0, 59388.0, 4880.0, 349.0, 93.0, 36.0, 19.0, 15.0, 7.0, 5.0, 4.0, 3.0, 3.0, 1.0, 0.0, 3.0, 1.0, 2.0, 0.0, 1.0, 0.0, 0.0, 0.0, 1.0, 0.0, 1.0, 0.0, 0.0, 0.0, 0.0, 0.0, 0.0, 1.0], "bins": [-0.00020055382628925145, -0.00019445443467702717, -0.00018835502851288766, -0.00018225563690066338, -0.00017615623073652387, -0.00017005683912429959, -0.0001639574475120753, -0.0001578580413479358, -0.00015175864973571151, -0.00014565925812348723, -0.00013955985195934772, -0.00013346046034712344, -0.00012736106873489916, -0.00012126166257075965, -0.00011516227095853537, -0.00010906287207035348, -0.00010296347318217158, -9.686407429398969e-05, -9.076467540580779e-05, -8.466528379358351e-05, -7.856588490540162e-05, -7.246648601721972e-05, -6.636709440499544e-05, -6.0267695516813546e-05, -5.416829662863165e-05, -4.8068897740449756e-05, -4.196950249024667e-05, -3.587010724004358e-05, -2.9770708351861686e-05, -2.3671311282669194e-05, -1.7571914213476703e-05, -1.1472517144284211e-05, -5.37312007509172e-06, 7.262769941007718e-07, 6.825674063293263e-06, 1.2925071132485755e-05, 1.9024468201678246e-05, 2.5123865270870738e-05, 3.122326234006323e-05, 3.732265759026632e-05, 4.342205647844821e-05, 4.952145536663011e-05, 5.5620850616833195e-05, 6.172024586703628e-05, 6.781964475521818e-05, 7.391904364340007e-05, 8.001843525562435e-05, 8.611783414380625e-05, 9.221723303198814e-05, 9.831663192017004e-05, 0.00010441603080835193, 0.00011051542242057621, 0.00011661482130875811, 0.00012271422019694, 0.00012881361180916429, 0.0001349130179733038, 0.00014101240958552808, 0.00014711180119775236, 0.00015321120736189187, 0.00015931059897411615, 0.00016540999058634043, 0.00017150939675047994, 0.00017760878836270422, 0.00018370819452684373, 0.000189807586139068]}, "gradients/feature_fn.0.bias": {"_type": "histogram", "values": [1.0, 0.0, 2.0, 1.0, 0.0, 0.0, 0.0, 0.0, 0.0, 0.0, 0.0, 1.0, 1.0, 1.0, 0.0, 2.0, 2.0, 2.0, 2.0, 4.0, 3.0, 2.0, 8.0, 4.0, 11.0, 15.0, 24.0, 88.0, 13.0, 16.0, 11.0, 8.0, 5.0, 6.0, 3.0, 2.0, 3.0, 3.0, 1.0, 1.0, 2.0, 1.0, 1.0, 0.0, 3.0, 0.0, 0.0, 0.0, 1.0, 0.0, 0.0, 0.0, 0.0, 0.0, 0.0, 0.0, 0.0, 1.0, 0.0, 0.0, 0.0, 0.0, 0.0, 1.0], "bins": [-1.457714824937284e-05, -1.4039188499737065e-05, -1.350122875010129e-05, -1.2963268090970814e-05, -1.242530834133504e-05, -1.1887348591699265e-05, -1.1349387932568789e-05, -1.0811428182933014e-05, -1.027346843329724e-05, -9.735508683661465e-06, -9.19754893402569e-06, -8.659588274895214e-06, -8.121628525259439e-06, -7.583668775623664e-06, -7.045708571240539e-06, -6.507748366857413e-06, -5.9697886172216386e-06, -5.431828867585864e-06, -4.893868663202738e-06, -4.355908458819613e-06, -3.817948709183838e-06, -3.279988732174388e-06, -2.742028755164938e-06, -2.204068778155488e-06, -1.6661088011460379e-06, -1.1281488241365878e-06, -5.901888471271377e-07, -5.222887011768762e-08, 4.857311068917625e-07, 1.0236910839012126e-06, 1.5616510609106626e-06, 2.0996110379201127e-06, 2.637571014929563e-06, 3.175530991939013e-06, 3.713490968948463e-06, 4.2514511733315885e-06, 4.789410922967363e-06, 5.327370672603138e-06, 5.865330876986263e-06, 6.403291081369389e-06, 6.9412508310051635e-06, 7.479210580640938e-06, 8.017170330276713e-06, 8.55513098940719e-06, 9.093090739042964e-06, 9.631050488678738e-06, 1.0169011147809215e-05, 1.070697089744499e-05, 1.1244930647080764e-05, 1.1782890396716539e-05, 1.2320850146352313e-05, 1.285881080548279e-05, 1.3396770555118565e-05, 1.393473030475434e-05, 1.4472690963884816e-05, 1.501065071352059e-05, 1.5548610463156365e-05, 1.608657112228684e-05, 1.6624529962427914e-05, 1.716249062155839e-05, 1.7700451280688867e-05, 1.823841012082994e-05, 1.8776370779960416e-05, 1.931432962010149e-05, 1.9852290279231966e-05]}, "gradients/feature_fn.0.weight": {"_type": "histogram", "values": [1.0, 0.0, 1.0, 2.0, 2.0, 2.0, 0.0, 0.0, 3.0, 3.0, 1.0, 2.0, 3.0, 3.0, 4.0, 10.0, 3.0, 8.0, 12.0, 26.0, 34.0, 62.0, 150.0, 434.0, 3556.0, 68263.0, 884.0, 240.0, 111.0, 56.0, 38.0, 22.0, 14.0, 11.0, 7.0, 4.0, 2.0, 2.0, 2.0, 1.0, 1.0, 0.0, 1.0, 0.0, 0.0, 0.0, 0.0, 0.0, 0.0, 0.0, 1.0, 0.0, 0.0, 0.0, 0.0, 0.0, 1.0, 0.0, 0.0, 0.0, 0.0, 0.0, 0.0, 1.0], "bins": [-0.00015261721273418516, -0.00014655740233138204, -0.00014049760648049414, -0.00013443779607769102, -0.00012837800022680312, -0.000122318189824, -0.00011625838669715449, -0.00011019858357030898, -0.00010413878044346347, -9.807897731661797e-05, -9.201917418977246e-05, -8.595937106292695e-05, -7.989956066012383e-05, -7.383975753327832e-05, -6.777995440643281e-05, -6.17201512795873e-05, -5.566034815274179e-05, -4.960054502589628e-05, -4.354074189905077e-05, -3.7480935134226456e-05, -3.142113200738095e-05, -2.536132888053544e-05, -1.9301523934700526e-05, -1.3241719898360316e-05, -7.181915862020105e-06, -1.1221118256798945e-06, 4.937692210660316e-06, 1.0997496247000527e-05, 1.7057300283340737e-05, 2.3117103410186246e-05, 2.917690835602116e-05, 3.523671330185607e-05, 4.129651642870158e-05, 4.735631955554709e-05, 5.34161226823926e-05, 5.947592944721691e-05, 6.553572893608361e-05, 7.159553933888674e-05, 7.765534246573225e-05, 8.371514559257776e-05, 8.977494871942326e-05, 9.583475184626877e-05, 0.00010189455497311428, 0.00010795435809995979, 0.00011401416850276291, 0.00012007397162960842, 0.00012613377475645393, 0.00013219357060734183, 0.00013825338101014495, 0.00014431319141294807, 0.00015037298726383597, 0.0001564327976666391, 0.00016249259351752698, 0.0001685524039203301, 0.000174612199771218, 0.00018067201017402112, 0.00018673180602490902, 0.00019279161642771214, 0.00019885142683051527, 0.00020491122268140316, 0.00021097103308420628, 0.00021703082893509418, 0.0002230906393378973, 0.0002291504351887852, 0.00023521024559158832]}, "gradients/mlp.6.bias": {"_type": "histogram", "values": [1.0, 2.0, 0.0, 0.0, 0.0, 0.0, 0.0, 2.0, 0.0, 1.0, 0.0, 0.0, 1.0, 2.0, 0.0, 3.0, 3.0, 2.0, 4.0, 4.0, 5.0, 14.0, 11.0, 12.0, 24.0, 61.0, 38.0, 19.0, 8.0, 5.0, 1.0, 6.0, 3.0, 4.0, 3.0, 1.0, 1.0, 1.0, 4.0, 0.0, 0.0, 1.0, 0.0, 1.0, 0.0, 0.0, 2.0, 1.0, 1.0, 0.0, 0.0, 0.0, 1.0, 0.0, 1.0, 0.0, 0.0, 0.0, 0.0, 0.0, 0.0, 0.0, 0.0, 2.0], "bins": [-1.3920283890911378e-05, -1.3376368769968394e-05, -1.2832452739530709e-05, -1.2288537618587725e-05, -1.1744622497644741e-05, -1.1200706467207056e-05, -1.0656791346264072e-05, -1.0112876225321088e-05, -9.568961104378104e-06, -9.025045073940419e-06, -8.481129952997435e-06, -7.937214832054451e-06, -7.3932988016167656e-06, -6.849383680673782e-06, -6.305468104983447e-06, -5.761552984040463e-06, -5.217637408350129e-06, -4.673721832659794e-06, -4.12980671171681e-06, -3.5858911360264756e-06, -3.0419757877098164e-06, -2.498060439393157e-06, -1.9541448637028225e-06, -1.4102295153861633e-06, -8.66314167069504e-07, -3.2239876190942596e-07, 2.2151664325065212e-07, 7.654320484107302e-07, 1.3093474535708083e-06, 1.8532628018874675e-06, 2.397178377577802e-06, 2.9410937258944614e-06, 3.4850090742111206e-06, 4.028924649901455e-06, 4.572839770844439e-06, 5.116755346534774e-06, 5.6606704674777575e-06, 6.204586043168092e-06, 6.748501618858427e-06, 7.292416739801411e-06, 7.836331860744394e-06, 8.38024789118208e-06, 8.924163012125064e-06, 9.468078133068047e-06, 1.0011994163505733e-05, 1.0555909284448717e-05, 1.10998244053917e-05, 1.1643740435829386e-05, 1.218765555677237e-05, 1.2731570677715354e-05, 1.327548670815304e-05, 1.3819401829096023e-05, 1.4363316950039007e-05, 1.4907232980476692e-05, 1.5451147191924974e-05, 1.599506322236266e-05, 1.6538979252800345e-05, 1.7082893464248627e-05, 1.7626809494686313e-05, 1.8170725525124e-05, 1.871463973657228e-05, 1.9258555767009966e-05, 1.980247179744765e-05, 2.0346386008895934e-05, 2.089030203933362e-05]}, "gradients/mlp.6.weight": {"_type": "histogram", "values": [1.0, 0.0, 0.0, 0.0, 0.0, 0.0, 0.0, 1.0, 0.0, 0.0, 0.0, 1.0, 0.0, 2.0, 0.0, 2.0, 0.0, 3.0, 4.0, 9.0, 16.0, 46.0, 147.0, 757.0, 62823.0, 1335.0, 201.0, 77.0, 32.0, 24.0, 6.0, 14.0, 3.0, 3.0, 8.0, 4.0, 1.0, 3.0, 1.0, 2.0, 2.0, 1.0, 0.0, 0.0, 0.0, 1.0, 0.0, 0.0, 1.0, 1.0, 0.0, 1.0, 0.0, 0.0, 1.0, 0.0, 0.0, 0.0, 0.0, 0.0, 1.0, 0.0, 0.0, 1.0], "bins": [-0.00028191349701955914, -0.0002704591315705329, -0.00025900473701767623, -0.00024755037156865, -0.00023609600611962378, -0.00022464162611868232, -0.0002131872606696561, -0.00020173288066871464, -0.00019027851521968842, -0.00017882413521874696, -0.0001673697552178055, -0.00015591538976877928, -0.00014446100976783782, -0.0001330066443188116, -0.00012155226431787014, -0.0001100978915928863, -9.864351886790246e-05, -8.718914614291862e-05, -7.573477341793478e-05, -6.428040069295093e-05, -5.2826024329988286e-05, -4.1371651605004445e-05, -2.99172770610312e-05, -1.8462902517057955e-05, -7.008529792074114e-06, 4.445843842404429e-06, 1.5900217476882972e-05, 2.7354592020856217e-05, 3.880896474584006e-05, 5.02633374708239e-05, 6.171771383378655e-05, 7.317208655877039e-05, 8.462645928375423e-05, 9.608083200873807e-05, 0.00010753520473372191, 0.00011898957745870575, 0.0001304439501836896, 0.00014189833018463105, 0.00015335269563365728, 0.00016480707563459873, 0.00017626144108362496, 0.00018771582108456641, 0.00019917020108550787, 0.0002106245665345341, 0.00022207894653547555, 0.00023353331198450178, 0.00024498769198544323, 0.00025644205743446946, 0.00026789645198732615, 0.00027935081743635237, 0.0002908051828853786, 0.0003022595483344048, 0.0003137139428872615, 0.00032516830833628774, 0.00033662267378531396, 0.0003480770392343402, 0.0003595314337871969, 0.0003709857992362231, 0.00038244016468524933, 0.000393894559238106, 0.00040534892468713224, 0.00041680329013615847, 0.0004282576555851847, 0.0004397120501380414, 0.0004511664155870676]}, "gradients/mlp.4.bias": {"_type": "histogram", "values": [1.0, 0.0, 0.0, 0.0, 0.0, 0.0, 0.0, 1.0, 0.0, 0.0, 0.0, 0.0, 0.0, 0.0, 0.0, 1.0, 0.0, 1.0, 0.0, 1.0, 1.0, 0.0, 1.0, 2.0, 3.0, 2.0, 1.0, 5.0, 4.0, 8.0, 8.0, 11.0, 7.0, 6.0, 9.0, 15.0, 8.0, 22.0, 30.0, 17.0, 17.0, 15.0, 9.0, 4.0, 6.0, 3.0, 5.0, 5.0, 4.0, 3.0, 2.0, 3.0, 2.0, 2.0, 4.0, 1.0, 1.0, 2.0, 1.0, 0.0, 0.0, 0.0, 1.0, 1.0], "bins": [-2.7977155696135014e-05, -2.7246529498370364e-05, -2.6515905119595118e-05, -2.578528074081987e-05, -2.505465454305522e-05, -2.432402834529057e-05, -2.3593403966515325e-05, -2.286277958774008e-05, -2.213215338997543e-05, -2.140152719221078e-05, -2.0670902813435532e-05, -1.9940278434660286e-05, -1.9209652236895636e-05, -1.8479026039130986e-05, -1.774840166035574e-05, -1.7017777281580493e-05, -1.6287151083815843e-05, -1.5556524886051193e-05, -1.4825900507275946e-05, -1.4095275219005998e-05, -1.336464993073605e-05, -1.2634024642466102e-05, -1.1903399354196154e-05, -1.1172774065926205e-05, -1.0442148777656257e-05, -9.711523489386309e-06, -8.98089820111636e-06, -8.250272912846413e-06, -7.519647624576464e-06, -6.789022336306516e-06, -6.058397048036568e-06, -5.32777175976662e-06, -4.5971464714966714e-06, -3.866521183226723e-06, -3.135895894956775e-06, -2.405270606686827e-06, -1.6746453184168786e-06, -9.440200301469304e-07, -2.1339474187698215e-07, 5.172305463929661e-07, 1.2478558346629143e-06, 1.9784811229328625e-06, 2.7091064112028107e-06, 3.439731699472759e-06, 4.170356987742707e-06, 4.900982276012655e-06, 5.6316075642826036e-06, 6.362232852552552e-06, 7.0928581408225e-06, 7.823483429092448e-06, 8.554108717362396e-06, 9.284734005632345e-06, 1.0015359293902293e-05, 1.0745984582172241e-05, 1.147660987044219e-05, 1.2207235158712137e-05, 1.2937860446982086e-05, 1.3668485735252034e-05, 1.4399111023521982e-05, 1.512973631179193e-05, 1.586036160006188e-05, 1.659098779782653e-05, 1.7321612176601775e-05, 1.805223655537702e-05, 1.878286275314167e-05]}, "gradients/mlp.4.weight": {"_type": "histogram", "values": [1.0, 1.0, 0.0, 0.0, 0.0, 2.0, 0.0, 0.0, 0.0, 1.0, 0.0, 0.0, 0.0, 0.0, 1.0, 0.0, 1.0, 1.0, 5.0, 0.0, 5.0, 2.0, 3.0, 11.0, 8.0, 3.0, 13.0, 20.0, 23.0, 28.0, 51.0, 66.0, 96.0, 182.0, 377.0, 968.0, 7535.0, 53757.0, 1428.0, 427.0, 224.0, 95.0, 60.0, 42.0, 20.0, 24.0, 13.0, 7.0, 8.0, 7.0, 5.0, 0.0, 3.0, 4.0, 1.0, 1.0, 0.0, 0.0, 2.0, 1.0, 1.0, 0.0, 0.0, 2.0], "bins": [-0.0001747448550304398, -0.00017003777611535043, -0.00016533071175217628, -0.00016062363283708692, -0.00015591656847391278, -0.0001512094895588234, -0.00014650242519564927, -0.0001417953462805599, -0.00013708826736547053, -0.0001323812030022964, -0.00012767412408720702, -0.00012296705972403288, -0.00011825998080894351, -0.00011355290916981176, -0.00010884583753068, -0.00010413876589154825, -9.943169425241649e-05, -9.472462261328474e-05, -9.001755097415298e-05, -8.531047933502123e-05, -8.060340769588947e-05, -7.58963287808001e-05, -7.118925714166835e-05, -6.64821855025366e-05, -6.177511386340484e-05, -5.7068042224273086e-05, -5.236097058514133e-05, -4.765389530803077e-05, -4.2946823668899015e-05, -3.823975202976726e-05, -3.35326767526567e-05, -2.8825605113524944e-05, -2.4118548026308417e-05, -1.9411476387176663e-05, -1.4704402929055505e-05, -9.997330380429048e-06, -5.290257831802592e-06, -5.831852831761353e-07, 4.123887265450321e-06, 8.830959814076778e-06, 1.3538032362703234e-05, 1.824510400183499e-05, 2.2952177459956147e-05, 2.7659250918077305e-05, 3.236632255720906e-05, 3.7073394196340814e-05, 4.1780469473451376e-05, 4.648754111258313e-05, 5.1194612751714885e-05, 5.590168439084664e-05, 6.0608756029978395e-05, 6.531582766911015e-05, 7.00228993082419e-05, 7.472997822333127e-05, 7.943704986246303e-05, 8.414412150159478e-05, 8.885119314072654e-05, 9.355826477985829e-05, 9.826533641899005e-05, 0.0001029724080581218, 0.00010767948697321117, 0.00011238655861234292, 0.00011709363025147468, 0.00012180070189060643, 0.0001265077735297382]}, "gradients/mlp.2.bias": {"_type": "histogram", "values": [1.0, 0.0, 0.0, 0.0, 1.0, 1.0, 0.0, 0.0, 0.0, 1.0, 2.0, 1.0, 1.0, 1.0, 1.0, 3.0, 1.0, 3.0, 1.0, 2.0, 6.0, 5.0, 9.0, 4.0, 8.0, 7.0, 9.0, 14.0, 19.0, 41.0, 22.0, 15.0, 12.0, 10.0, 8.0, 8.0, 7.0, 5.0, 4.0, 1.0, 3.0, 5.0, 2.0, 2.0, 3.0, 2.0, 1.0, 0.0, 0.0, 1.0, 0.0, 1.0, 0.0, 0.0, 0.0, 0.0, 0.0, 0.0, 1.0, 0.0, 0.0, 0.0, 0.0, 1.0], "bins": [-5.299795157043263e-05, -5.1220256864326075e-05, -4.944255852024071e-05, -4.766486381413415e-05, -4.5887165470048785e-05, -4.410947076394223e-05, -4.233177241985686e-05, -4.05540777137503e-05, -3.877637936966494e-05, -3.699868466355838e-05, -3.522098995745182e-05, -3.3443291613366455e-05, -3.1665596907259896e-05, -2.9887900382163934e-05, -2.8110203857067972e-05, -2.633250733197201e-05, -2.455481080687605e-05, -2.2777114281780086e-05, -2.0999417756684124e-05, -1.9221721231588162e-05, -1.74440247064922e-05, -1.5666330000385642e-05, -1.388863347528968e-05, -1.2110936950193718e-05, -1.0333240425097756e-05, -8.555543900001794e-06, -6.777847829653183e-06, -5.000151759304572e-06, -3.22245523420861e-06, -1.4447589364863234e-06, 3.329373612359632e-07, 2.1106336589582497e-06, 3.888329956680536e-06, 5.666026481776498e-06, 7.443722552125109e-06, 9.22141862247372e-06, 1.0999115147569682e-05, 1.2776811672665644e-05, 1.4554507288266905e-05, 1.6332203813362867e-05, 1.810990033845883e-05, 1.988759686355479e-05, 2.1665293388650753e-05, 2.3442989913746715e-05, 2.5220684619853273e-05, 2.6998381144949235e-05, 2.8776077670045197e-05, 3.055377601413056e-05, 3.233147072023712e-05, 3.410916542634368e-05, 3.5886863770429045e-05, 3.7664558476535603e-05, 3.944225682062097e-05, 4.121995152672753e-05, 4.299764987081289e-05, 4.477534457691945e-05, 4.655303928302601e-05, 4.8330737627111375e-05, 5.0108432333217934e-05, 5.18861306773033e-05, 5.366382538340986e-05, 5.544152372749522e-05, 5.721921843360178e-05, 5.899691677768715e-05, 6.0774611483793706e-05]}, "gradients/mlp.2.weight": {"_type": "histogram", "values": [3.0, 1.0, 0.0, 1.0, 0.0, 1.0, 2.0, 3.0, 4.0, 5.0, 3.0, 1.0, 6.0, 4.0, 6.0, 9.0, 11.0, 18.0, 23.0, 27.0, 30.0, 44.0, 64.0, 80.0, 104.0, 161.0, 329.0, 535.0, 1112.0, 4203.0, 53102.0, 3232.0, 1089.0, 505.0, 262.0, 162.0, 114.0, 66.0, 56.0, 24.0, 33.0, 27.0, 25.0, 5.0, 8.0, 8.0, 9.0, 5.0, 2.0, 2.0, 3.0, 0.0, 0.0, 4.0, 0.0, 1.0, 0.0, 1.0, 0.0, 0.0, 0.0, 0.0, 0.0, 1.0], "bins": [-0.00013714229862671345, -0.00013263490109238774, -0.0001281274890061468, -0.00012362009147182107, -0.00011911268666153774, -0.00011460528912721202, -0.00011009788431692868, -0.00010559047950664535, -0.00010108307469636202, -9.65756771620363e-05, -9.206827235175297e-05, -8.756086754146963e-05, -8.305347000714391e-05, -7.854606519686058e-05, -7.403866038657725e-05, -6.953126285225153e-05, -6.50238580419682e-05, -6.051645686966367e-05, -5.600905205938034e-05, -5.150165088707581e-05, -4.699424607679248e-05, -4.248684490448795e-05, -3.797944373218343e-05, -3.3472038921900094e-05, -2.8964637749595568e-05, -2.4457234758301638e-05, -1.994983176700771e-05, -1.5442430594703183e-05, -1.0935027603409253e-05, -6.4276250668626744e-06, -1.920222530316096e-06, 2.587180006230483e-06, 7.0945825427770615e-06, 1.1601985534070991e-05, 1.610938852536492e-05, 2.0616789697669446e-05, 2.5124192688963376e-05, 2.9631595680257306e-05, 3.413899685256183e-05, 3.8646401662845165e-05, 4.315380283514969e-05, 4.7661204007454216e-05, 5.216860881773755e-05, 5.6676009990042076e-05, 6.11834111623466e-05, 6.569081597262993e-05, 7.019822078291327e-05, 7.470561831723899e-05, 7.921302312752232e-05, 8.372042793780565e-05, 8.822782547213137e-05, 9.27352302824147e-05, 9.724263509269804e-05, 0.00010175003262702376, 0.00010625743743730709, 0.00011076484224759042, 0.00011527223978191614, 0.00011977964459219947, 0.0001242870494024828, 0.00012879444693680853, 0.00013330185902304947, 0.0001378092565573752, 0.0001423166540917009, 0.00014682406617794186, 0.00015133146371226758]}, "gradients/mlp.0.bias": {"_type": "histogram", "values": [1.0, 1.0, 0.0, 0.0, 0.0, 0.0, 1.0, 1.0, 0.0, 2.0, 0.0, 1.0, 3.0, 1.0, 3.0, 4.0, 1.0, 7.0, 4.0, 8.0, 1.0, 9.0, 9.0, 10.0, 12.0, 19.0, 66.0, 16.0, 13.0, 6.0, 10.0, 6.0, 13.0, 4.0, 4.0, 4.0, 1.0, 4.0, 1.0, 0.0, 4.0, 1.0, 1.0, 0.0, 0.0, 0.0, 1.0, 0.0, 0.0, 0.0, 0.0, 0.0, 0.0, 0.0, 0.0, 0.0, 0.0, 1.0, 0.0, 0.0, 1.0, 0.0, 0.0, 1.0], "bins": [-0.00019350487855263054, -0.0001861809432739392, -0.00017885700799524784, -0.00017153308726847172, -0.00016420915198978037, -0.00015688521671108902, -0.00014956128143239766, -0.0001422373461537063, -0.0001349134254269302, -0.00012758949014823884, -0.00012026555486954749, -0.00011294161959085613, -0.00010561768431216478, -9.829375630943105e-05, -9.09698210307397e-05, -8.364589302800596e-05, -7.63219577493146e-05, -6.899802247062325e-05, -6.167409446788952e-05, -5.4350159189198166e-05, -4.702622754848562e-05, -3.970229590777308e-05, -3.2378360629081726e-05, -2.5054428988369182e-05, -1.7730497347656637e-05, -1.0406564797449391e-05, -3.0826322472421452e-06, 4.241300302965101e-06, 1.1565232853172347e-05, 1.888916449388489e-05, 2.621309795358684e-05, 3.353703141328879e-05, 4.086096305400133e-05, 4.8184894694713876e-05, 5.550882633542642e-05, 6.283276161411777e-05, 7.015668961685151e-05, 7.748062489554286e-05, 8.480456017423421e-05, 9.212848817696795e-05, 9.94524234556593e-05, 0.00010677635873435065, 0.00011410028673708439, 0.00012142422201577574, 0.0001287481572944671, 0.00013607209257315844, 0.00014339601329993457, 0.00015071994857862592, 0.00015804388385731727, 0.00016536781913600862, 0.00017269175441469997, 0.0001800156751414761, 0.00018733961042016745, 0.0001946635456988588, 0.00020198748097755015, 0.0002093114162562415, 0.00021663535153493285, 0.00022395927226170897, 0.00023128320754040033, 0.00023860714281909168, 0.0002459310635458678, 0.0002532550133764744, 0.0002605789341032505, 0.0002679028839338571, 0.0002752268046606332]}, "gradients/mlp.0.weight": {"_type": "histogram", "values": [1.0, 1.0, 0.0, 0.0, 1.0, 2.0, 4.0, 5.0, 5.0, 5.0, 12.0, 4.0, 13.0, 10.0, 15.0, 13.0, 37.0, 28.0, 40.0, 41.0, 60.0, 85.0, 104.0, 101.0, 170.0, 180.0, 282.0, 371.0, 507.0, 857.0, 2718.0, 765.0, 481.0, 371.0, 295.0, 185.0, 153.0, 134.0, 83.0, 83.0, 45.0, 31.0, 31.0, 31.0, 15.0, 13.0, 7.0, 11.0, 6.0, 7.0, 4.0, 4.0, 0.0, 1.0, 1.0, 4.0, 3.0, 0.0, 3.0, 3.0, 1.0, 2.0, 0.0, 3.0], "bins": [-0.0002456269576214254, -0.00023755518486723304, -0.00022948341211304069, -0.0002214116248069331, -0.00021333985205274075, -0.0002052680792985484, -0.00019719629199244082, -0.00018912451923824847, -0.00018105274648405612, -0.00017298097372986376, -0.0001649092009756714, -0.00015683741366956383, -0.00014876564091537148, -0.00014069386816117913, -0.00013262208085507154, -0.0001245503081008792, -0.00011647853534668684, -0.00010840676259249449, -0.00010033498256234452, -9.226320253219455e-05, -8.41914297780022e-05, -7.611965702380985e-05, -6.804787699365988e-05, -5.9976100601488724e-05, -5.1904324209317565e-05, -4.3832547817146406e-05, -3.5760771424975246e-05, -2.7688995032804087e-05, -1.9617218640632927e-05, -1.1545442248461768e-05, -3.4736658562906086e-06, 4.598110535880551e-06, 1.2669857824221253e-05, 2.0741634216392413e-05, 2.8813410608563572e-05, 3.688518700073473e-05, 4.495696339290589e-05, 5.302873978507705e-05, 6.110051617724821e-05, 6.917229620739818e-05, 7.724406896159053e-05, 8.531584171578288e-05, 9.338762174593285e-05, 0.00010145940177608281, 0.00010953117453027517, 0.00011760294728446752, 0.0001256747345905751, 0.00013374650734476745, 0.0001418182800989598, 0.00014989005285315216, 0.0001579618256073445, 0.0001660336129134521, 0.00017410538566764444, 0.0001821771584218368, 0.00019024894572794437, 0.00019832071848213673, 0.00020639249123632908, 0.00021446426399052143, 0.00022253603674471378, 0.00023060782405082136, 0.00023867959680501372, 0.0002467513841111213, 0.00025482315686531365, 0.000262894929619506, 0.00027096670237369835]}}