{"total_loss": 0.0022351448950939812, "_timestamp": 1717784524.3401883, "rgb_loss": 0.0022351448950939812, "_runtime": 8149.333191156387, "_step": 63900, "Rendered Images": {"_type": "images/separated", "width": 256, "height": 256, "format": "png", "count": 5, "filenames": ["media/images/Rendered Images_60000_60b971c49323b62c632e.png", "media/images/Rendered Images_60000_6a1eb829752029dd715a.png", "media/images/Rendered Images_60000_cda8812b1eb877d3b914.png", "media/images/Rendered Images_60000_685554913d64ba7da137.png", "media/images/Rendered Images_60000_be09837d9574faecb3ae.png"]}, "Ground-truth Images": {"_type": "images/separated", "width": 256, "height": 256, "format": "png", "count": 5, "filenames": ["media/images/Ground-truth Images_60008_e66caac5921126c9a542.png", "media/images/Ground-truth Images_60008_d46094b22d91d1bd7d47.png", "media/images/Ground-truth Images_60008_c1ae0e380e32a07032f8.png", "media/images/Ground-truth Images_60008_b60b263c939c62f4bc58.png", "media/images/Ground-truth Images_60008_ab3d98782f1147e7dca7.png"]}, "PSNR": 32.57977909891698, "Epoch": 7500, "gradients/graph_1lout.bias": {"_type": "histogram", "values": [1.0, 1.0, 0.0, 0.0, 0.0, 0.0, 0.0, 0.0, 0.0, 0.0, 0.0, 0.0, 0.0, 1.0, 0.0, 0.0, 0.0, 0.0, 0.0, 0.0, 0.0, 0.0, 0.0, 0.0, 0.0, 0.0, 0.0, 0.0, 0.0, 0.0, 0.0, 0.0, 0.0, 0.0, 0.0, 0.0, 0.0, 0.0, 0.0, 0.0, 0.0, 0.0, 0.0, 0.0, 0.0, 0.0, 0.0, 0.0, 0.0, 0.0, 0.0, 0.0, 0.0, 0.0, 0.0, 0.0, 0.0, 0.0, 0.0, 0.0, 0.0, 0.0, 0.0, 1.0], "bins": [-1.702446024864912e-05, -1.4885712516843341e-05, -1.2746964785037562e-05, -1.0608216143737081e-05, -8.469468411931302e-06, -6.330720680125523e-06, -4.1919724935723934e-06, -2.053224534392939e-06, 8.552342478651553e-08, 2.22427138396597e-06, 4.3630193431454245e-06, 6.5017675296985544e-06, 8.640515261504333e-06, 1.0779262993310113e-05, 1.2918011634610593e-05, 1.5056759366416372e-05, 1.719550709822215e-05, 1.933425483002793e-05, 2.147300256183371e-05, 2.361175029363949e-05, 2.5750498025445268e-05, 2.788924757624045e-05, 3.002799530804623e-05, 3.216674303985201e-05, 3.430549259064719e-05, 3.6444238503463566e-05, 3.858298805425875e-05, 4.0721733967075124e-05, 4.286048351787031e-05, 4.499922943068668e-05, 4.7137978981481865e-05, 4.927672489429824e-05, 5.141547444509342e-05, 5.3554223995888606e-05, 5.569296990870498e-05, 5.7831719459500164e-05, 5.997046537231654e-05, 6.210921128513291e-05, 6.42479644739069e-05, 6.638671038672328e-05, 6.852545629953966e-05, 7.066420948831365e-05, 7.280295540113002e-05, 7.49417013139464e-05, 7.708044722676277e-05, 7.921920041553676e-05, 8.135794632835314e-05, 8.349669224116951e-05, 8.56354454299435e-05, 8.777419134275988e-05, 8.991293725557625e-05, 9.205168316839263e-05, 9.419043635716662e-05, 9.6329182269983e-05, 9.846792818279937e-05, 0.00010060667409561574, 0.00010274542728438973, 0.00010488417319720611, 0.00010702291911002249, 0.00010916167229879647, 0.00011130041821161285, 0.00011343916412442923, 0.0001155779100372456, 0.00011771666322601959, 0.00011985540913883597]}, "gradients/graph_1lout.weight": {"_type": "histogram", "values": [2.0, 0.0, 1.0, 0.0, 2.0, 1.0, 0.0, 3.0, 3.0, 1.0, 4.0, 2.0, 6.0, 13.0, 17.0, 80.0, 777.0, 36.0, 11.0, 12.0, 6.0, 10.0, 4.0, 6.0, 4.0, 0.0, 2.0, 1.0, 1.0, 0.0, 3.0, 1.0, 1.0, 2.0, 1.0, 1.0, 0.0, 1.0, 2.0, 1.0, 1.0, 0.0, 0.0, 0.0, 0.0, 0.0, 0.0, 0.0, 0.0, 1.0, 0.0, 0.0, 0.0, 2.0, 0.0, 0.0, 0.0, 0.0, 0.0, 1.0, 0.0, 0.0, 0.0, 1.0], "bins": [-0.0006816150271333754, -0.0006396773969754577, -0.0005977397668175399, -0.0005558021948672831, -0.0005138645647093654, -0.00047192693455144763, -0.0004299893043935299, -0.0003880517033394426, -0.00034611407318152487, -0.00030417644302360713, -0.00026223884196951985, -0.00022030121181160212, -0.0001783635962055996, -0.0001364259805995971, -9.448835771763697e-05, -5.2550738473655656e-05, -1.061311922967434e-05, 3.132450001430698e-05, 7.32621192582883e-05, 0.00011519974214024842, 0.00015713735774625093, 0.00019907497335225344, 0.00024101260351017118, 0.00028295020456425846, 0.0003248878347221762, 0.00036682546488009393, 0.0004087630659341812, 0.00045070069609209895, 0.0004926383262500167, 0.0005345759564079344, 0.0005765135283581913, 0.000618451158516109, 0.0006603888468816876, 0.0007023264770396054, 0.0007442641071975231, 0.0007862016791477799, 0.0008281393093056977, 0.0008700769394636154, 0.0009120145696215332, 0.0009539521997794509, 0.0009958897717297077, 0.0010378274600952864, 0.0010797650320455432, 0.0011217026039958, 0.0011636402923613787, 0.0012055778643116355, 0.0012475155526772141, 0.001289453124627471, 0.0013313908129930496, 0.0013733283849433064, 0.0014152659568935633, 0.001457203645259142, 0.0014991412172093987, 0.0015410789055749774, 0.0015830164775252342, 0.001624954049475491, 0.0016668917378410697, 0.0017088293097913265, 0.0017507669981569052, 0.001792704570107162, 0.0018346421420574188, 0.0018765798304229975, 0.0019185174023732543, 0.001960454974323511, 0.0020023926626890898]}, "gradients/graph_1layers.3.bias": {"_type": "histogram", "values": [2.0, 0.0, 0.0, 0.0, 1.0, 0.0, 2.0, 1.0, 0.0, 2.0, 1.0, 3.0, 1.0, 3.0, 1.0, 0.0, 4.0, 6.0, 7.0, 12.0, 19.0, 139.0, 28.0, 5.0, 5.0, 1.0, 1.0, 1.0, 2.0, 2.0, 1.0, 1.0, 1.0, 1.0, 0.0, 0.0, 2.0, 0.0, 0.0, 0.0, 0.0, 0.0, 0.0, 0.0, 0.0, 0.0, 0.0, 0.0, 0.0, 0.0, 0.0, 0.0, 0.0, 0.0, 0.0, 0.0, 0.0, 0.0, 0.0, 0.0, 0.0, 0.0, 0.0, 1.0], "bins": [-3.6811656173085794e-05, -3.5122175177093595e-05, -3.343269054312259e-05, -3.174320954713039e-05, -3.0053728551138192e-05, -2.836424573615659e-05, -2.6674762921174988e-05, -2.498528192518279e-05, -2.3295799110201187e-05, -2.1606316295219585e-05, -1.9916835299227387e-05, -1.8227352484245785e-05, -1.6537869669264182e-05, -1.4848388673271984e-05, -1.3158905858290382e-05, -1.1469423952803481e-05, -9.779942047316581e-06, -8.09046014182968e-06, -6.400977781595429e-06, -4.711495421361178e-06, -3.022013515874278e-06, -1.332531383013702e-06, 3.569507498468738e-07, 2.0464328827074496e-06, 3.7359150155680254e-06, 5.425396921054926e-06, 7.114879281289177e-06, 8.804361641523428e-06, 1.0493843547010329e-05, 1.2183325452497229e-05, 1.3872808267478831e-05, 1.556228926347103e-05, 1.7251768440473825e-05, 1.8941251255455427e-05, 2.0630732251447625e-05, 2.2320215066429228e-05, 2.4009696062421426e-05, 2.569917887740303e-05, 2.738866169238463e-05, 2.907814268837683e-05, 3.076762368436903e-05, 3.245710831834003e-05, 3.414658931433223e-05, 3.583607031032443e-05, 3.7525554944295436e-05, 3.9215035940287635e-05, 4.090451693627983e-05, 4.259400157025084e-05, 4.428348256624304e-05, 4.5972963562235236e-05, 4.766244819620624e-05, 4.935192919219844e-05, 5.104141018819064e-05, 5.2730894822161645e-05, 5.442037581815384e-05, 5.610985681414604e-05, 5.779934144811705e-05, 5.9488822444109246e-05, 6.117830344010144e-05, 6.286778807407245e-05, 6.455726543208584e-05, 6.624675006605685e-05, 6.793623470002785e-05, 6.962571205804124e-05, 7.131519669201225e-05]}, "gradients/graph_1layers.3.weight": {"_type": "histogram", "values": [2.0, 1.0, 0.0, 1.0, 0.0, 1.0, 4.0, 5.0, 9.0, 8.0, 7.0, 7.0, 18.0, 39.0, 42.0, 85.0, 127.0, 275.0, 801.0, 53871.0, 9412.0, 391.0, 156.0, 77.0, 51.0, 31.0, 18.0, 22.0, 6.0, 9.0, 11.0, 5.0, 7.0, 4.0, 6.0, 5.0, 2.0, 0.0, 1.0, 1.0, 0.0, 5.0, 1.0, 3.0, 0.0, 0.0, 0.0, 1.0, 2.0, 0.0, 0.0, 0.0, 2.0, 0.0, 1.0, 0.0, 0.0, 0.0, 0.0, 0.0, 1.0, 0.0, 0.0, 2.0], "bins": [-0.00014473692863248289, -0.00013749774370808154, -0.0001302585587836802, -0.00012301937385927886, -0.00011578019621083513, -0.00010854101128643379, -0.00010130183363799006, -9.406264871358871e-05, -8.682346378918737e-05, -7.958427886478603e-05, -7.234509394038469e-05, -6.510591629194096e-05, -5.7866731367539614e-05, -5.062754644313827e-05, -4.3388365156715736e-05, -3.61491838702932e-05, -2.8909998945891857e-05, -2.1670815840479918e-05, -1.4431632735067979e-05, -7.192449629656039e-06, 4.6733475755900145e-08, 7.2859165811678395e-06, 1.4525099686579779e-05, 2.1764282791991718e-05, 2.9003465897403657e-05, 3.6242650821805e-05, 4.3481832108227536e-05, 5.072101339465007e-05, 5.7960198319051415e-05, 6.519938324345276e-05, 7.243856089189649e-05, 7.967774581629783e-05, 8.691693074069917e-05, 9.415611566510051e-05, 0.00010139530058950186, 0.00010863447823794559, 0.00011587366316234693, 0.00012311284081079066, 0.000130352025735192, 0.00013759121065959334, 0.0001448303955839947, 0.00015206958050839603, 0.00015930876543279737, 0.00016654795035719872, 0.00017378712072968483, 0.00018102630565408617, 0.00018826549057848752, 0.00019550467550288886, 0.0002027438604272902, 0.00020998304535169154, 0.0002172222302760929, 0.00022446141520049423, 0.00023170060012489557, 0.0002389397704973817, 0.00024617896997369826, 0.0002534181403461844, 0.00026065733982250094, 0.00026789651019498706, 0.0002751356805674732, 0.00028237488004378974, 0.00028961405041627586, 0.00029685324989259243, 0.00030409242026507854, 0.0003113316197413951, 0.00031857079011388123]}, "gradients/graph_1layers.2.bias": {"_type": "histogram", "values": [1.0, 0.0, 0.0, 0.0, 0.0, 0.0, 1.0, 0.0, 0.0, 2.0, 1.0, 0.0, 0.0, 0.0, 0.0, 0.0, 1.0, 1.0, 1.0, 0.0, 1.0, 0.0, 0.0, 2.0, 2.0, 1.0, 2.0, 5.0, 2.0, 2.0, 3.0, 4.0, 2.0, 4.0, 8.0, 5.0, 12.0, 12.0, 15.0, 17.0, 25.0, 28.0, 23.0, 12.0, 8.0, 14.0, 9.0, 4.0, 7.0, 1.0, 2.0, 1.0, 4.0, 5.0, 0.0, 0.0, 2.0, 1.0, 1.0, 0.0, 1.0, 0.0, 0.0, 1.0], "bins": [-7.618207746418193e-05, -7.432713027810678e-05, -7.247218309203163e-05, -7.061723590595648e-05, -6.876228871988133e-05, -6.690734153380617e-05, -6.505239434773102e-05, -6.319744716165587e-05, -6.134249997558072e-05, -5.948755642748438e-05, -5.763260924140923e-05, -5.5777662055334076e-05, -5.3922714869258925e-05, -5.2067767683183774e-05, -5.021282049710862e-05, -4.835787331103347e-05, -4.650292612495832e-05, -4.464797893888317e-05, -4.279303175280802e-05, -4.093808456673287e-05, -3.908313738065772e-05, -3.722819019458257e-05, -3.5373243008507416e-05, -3.3518295822432265e-05, -3.166335227433592e-05, -2.9808403269271366e-05, -2.7953456083196215e-05, -2.6098508897121064e-05, -2.4243563530035317e-05, -2.2388616343960166e-05, -2.0533669157885015e-05, -1.8678721971809864e-05, -1.6823771147755906e-05, -1.4968823961680755e-05, -1.3113876775605604e-05, -1.1258930499025155e-05, -9.403983312950004e-06, -7.549036126874853e-06, -5.694089395547053e-06, -3.839142664219253e-06, -1.984195478144102e-06, -1.2924851944262628e-07, 1.7256984392588492e-06, 3.5806453979603248e-06, 5.4355923566618e-06, 7.290539542736951e-06, 9.1454858193174e-06, 1.1000433005392551e-05, 1.2855380191467702e-05, 1.4710327377542853e-05, 1.6565274563618004e-05, 1.8420221749693155e-05, 2.0275168935768306e-05, 2.2130114302854054e-05, 2.3985061488929205e-05, 2.5840008675004356e-05, 2.7694955861079507e-05, 2.9549903047154658e-05, 3.1404848414240405e-05, 3.3259795600315556e-05, 3.511474278639071e-05, 3.696968997246586e-05, 3.882463715854101e-05, 4.067958434461616e-05, 4.253453153069131e-05]}, "gradients/graph_1layers.2.weight": {"_type": "histogram", "values": [1.0, 1.0, 3.0, 0.0, 1.0, 4.0, 2.0, 2.0, 2.0, 2.0, 5.0, 3.0, 5.0, 3.0, 2.0, 5.0, 4.0, 6.0, 7.0, 8.0, 12.0, 10.0, 17.0, 19.0, 31.0, 32.0, 39.0, 59.0, 78.0, 87.0, 124.0, 204.0, 339.0, 529.0, 932.0, 2802.0, 55154.0, 9741.0, 1790.0, 733.0, 455.0, 210.0, 163.0, 87.0, 71.0, 41.0, 34.0, 27.0, 21.0, 21.0, 16.0, 6.0, 6.0, 4.0, 6.0, 4.0, 2.0, 3.0, 4.0, 1.0, 1.0, 1.0, 1.0, 1.0], "bins": [-0.0002199950540671125, -0.00021402558195404708, -0.0002080561243928969, -0.00020208665227983147, -0.00019611719471868128, -0.00019014772260561585, -0.00018417826504446566, -0.00017820879293140024, -0.00017223932081833482, -0.00016626986325718462, -0.0001603003911441192, -0.000154330933582969, -0.0001483614614699036, -0.0001423920039087534, -0.00013642253179568797, -0.00013045307423453778, -0.00012448360212147236, -0.00011851413728436455, -0.00011254467244725674, -0.00010657520761014894, -0.00010060574277304113, -9.463627065997571e-05, -8.86668058228679e-05, -8.269734098576009e-05, -7.672787614865229e-05, -7.075841131154448e-05, -6.478894647443667e-05, -5.8819477999350056e-05, -5.285001316224225e-05, -4.688054832513444e-05, -4.091107985004783e-05, -3.494161501294002e-05, -2.897216472774744e-05, -2.3002699890639633e-05, -1.7033233234542422e-05, -1.1063767487939913e-05, -5.094301741337404e-06, 8.751640052651055e-07, 6.844629751867615e-06, 1.2814095498470124e-05, 1.8783561245072633e-05, 2.475302608218044e-05, 3.072249091928825e-05, 3.669195939437486e-05, 4.266142423148267e-05, 4.863088906859048e-05, 5.460035754367709e-05, 6.05698223807849e-05, 6.65392872178927e-05, 7.250875205500051e-05, 7.847821689210832e-05, 8.444768172921613e-05, 9.041714656632394e-05, 9.638661867938936e-05, 0.00010235608351649716, 0.00010832554835360497, 0.00011429501319071278, 0.00012026447802782059, 0.000126233950140886, 0.0001322034077020362, 0.00013817287981510162, 0.00014414233737625182, 0.00015011180948931724, 0.00015608126705046743, 0.00016205073916353285]}, "gradients/graph_1layers.1.bias": {"_type": "histogram", "values": [1.0, 0.0, 0.0, 1.0, 1.0, 1.0, 0.0, 0.0, 2.0, 0.0, 1.0, 1.0, 0.0, 1.0, 4.0, 2.0, 1.0, 3.0, 3.0, 6.0, 5.0, 11.0, 9.0, 12.0, 30.0, 51.0, 34.0, 16.0, 11.0, 13.0, 3.0, 4.0, 3.0, 7.0, 2.0, 3.0, 0.0, 3.0, 3.0, 1.0, 1.0, 2.0, 0.0, 0.0, 1.0, 0.0, 0.0, 0.0, 2.0, 0.0, 0.0, 0.0, 0.0, 0.0, 0.0, 0.0, 0.0, 0.0, 0.0, 0.0, 0.0, 0.0, 0.0, 1.0], "bins": [-0.00021059197024442255, -0.0002024484274443239, -0.00019430489919614047, -0.0001861613563960418, -0.00017801782814785838, -0.00016987428534775972, -0.00016173074254766107, -0.00015358721429947764, -0.00014544367149937898, -0.00013730012869928032, -0.0001291566004510969, -0.00012101305765099823, -0.00011286952212685719, -0.00010472598660271615, -9.658244380261749e-05, -8.843890827847645e-05, -8.02953727543354e-05, -7.215183723019436e-05, -6.400830170605332e-05, -5.586475890595466e-05, -4.7721223381813616e-05, -3.957768785767257e-05, -3.143414869555272e-05, -2.3290611352422275e-05, -1.5147074009291828e-05, -7.003536666161381e-06, 1.1400006769690663e-06, 9.283538020099513e-06, 1.742707536322996e-05, 2.5570612706360407e-05, 3.3714150049490854e-05, 4.1857689211610705e-05, 5.0001253839582205e-05, 5.814478936372325e-05, 6.628832488786429e-05, 7.443186768796295e-05, 8.257540321210399e-05, 9.071893873624504e-05, 9.88624815363437e-05, 0.00010700601706048474, 0.00011514955258462578, 0.00012329309538472444, 0.00013143662363290787, 0.00013958016643300653, 0.00014772370923310518, 0.0001558672374812886, 0.00016401078028138727, 0.0001721543085295707, 0.00018029785132966936, 0.00018844139412976801, 0.00019658492237795144, 0.0002047284651780501, 0.00021287199342623353, 0.0002210155362263322, 0.00022915907902643085, 0.00023730260727461427, 0.00024544616462662816, 0.00025358967832289636, 0.000261733221122995, 0.0002698767639230937, 0.00027802030672319233, 0.000286163849523291, 0.0002943073632195592, 0.00030245090601965785, 0.0003105944488197565]}, "gradients/graph_1layers.1.weight": {"_type": "histogram", "values": [2.0, 2.0, 0.0, 0.0, 0.0, 2.0, 0.0, 3.0, 2.0, 4.0, 3.0, 6.0, 2.0, 7.0, 9.0, 27.0, 15.0, 25.0, 45.0, 51.0, 83.0, 128.0, 197.0, 305.0, 592.0, 1397.0, 15534.0, 44293.0, 1390.0, 517.0, 263.0, 216.0, 105.0, 81.0, 59.0, 40.0, 24.0, 21.0, 17.0, 15.0, 10.0, 10.0, 4.0, 4.0, 2.0, 4.0, 2.0, 1.0, 3.0, 3.0, 4.0, 1.0, 1.0, 0.0, 1.0, 1.0, 0.0, 0.0, 0.0, 0.0, 2.0, 0.0, 0.0, 1.0], "bins": [-0.00039178106817416847, -0.00037728031747974455, -0.0003627795958891511, -0.0003482788451947272, -0.00033377809450030327, -0.0003192773729097098, -0.0003047766222152859, -0.00029027590062469244, -0.0002757751499302685, -0.0002612743992358446, -0.00024677367764525115, -0.00023227292695082724, -0.00021777219080831856, -0.00020327145466580987, -0.00018877070397138596, -0.00017426996782887727, -0.00015976923168636858, -0.0001452684955438599, -0.0001307677594013512, -0.0001162670087069273, -0.00010176627256441861, -8.726553642190993e-05, -7.276479300344363e-05, -5.8264053222956136e-05, -4.376331344246864e-05, -2.926257366198115e-05, -1.4761833881493658e-05, -2.6109410100616515e-07, 1.4239645679481328e-05, 2.874038545996882e-05, 4.324112524045631e-05, 5.7741865020943806e-05, 7.224257569760084e-05, 8.674331184010953e-05, 0.00010124405525857583, 0.00011574479867704213, 0.0001302455348195508, 0.0001447462709620595, 0.0001592470216564834, 0.0001737477577989921, 0.00018824849394150078, 0.00020274923008400947, 0.00021724996622651815, 0.00023175071692094207, 0.000246251467615366, 0.00026075218920595944, 0.00027525293990038335, 0.0002897536614909768, 0.0003042544121854007, 0.00031875516287982464, 0.0003332558844704181, 0.000347756635164842, 0.00036225735675543547, 0.0003767581074498594, 0.0003912588581442833, 0.00040575957973487675, 0.00042026033042930067, 0.0004347610811237246, 0.00044926180271431804, 0.00046376255340874195, 0.00047826330410316586, 0.0004927640547975898, 0.0005072647472843528, 0.0005217654979787767, 0.0005362662486732006]}, "gradients/graph_1layers.0.bias": {"_type": "histogram", "values": [1.0, 0.0, 0.0, 0.0, 0.0, 0.0, 0.0, 0.0, 0.0, 1.0, 0.0, 0.0, 0.0, 0.0, 1.0, 0.0, 1.0, 0.0, 0.0, 3.0, 0.0, 1.0, 0.0, 1.0, 4.0, 1.0, 4.0, 1.0, 2.0, 3.0, 0.0, 3.0, 4.0, 4.0, 5.0, 5.0, 11.0, 15.0, 20.0, 63.0, 33.0, 13.0, 11.0, 5.0, 8.0, 4.0, 5.0, 6.0, 3.0, 5.0, 0.0, 0.0, 1.0, 0.0, 1.0, 0.0, 1.0, 1.0, 0.0, 0.0, 2.0, 1.0, 0.0, 2.0], "bins": [-0.001072476152330637, -0.0010452275164425373, -0.0010179788805544376, -0.000990730244666338, -0.0009634815505705774, -0.0009362329146824777, -0.0009089842205867171, -0.0008817355846986175, -0.0008544869488105178, -0.0008272383129224181, -0.0007999896770343184, -0.0007727409829385579, -0.0007454923470504582, -0.0007182437111623585, -0.0006909950170665979, -0.0006637463811784983, -0.0006364977452903986, -0.0006092491094022989, -0.0005820004735141993, -0.0005547517794184387, -0.000527503143530339, -0.0005002545076422393, -0.0004730058426503092, -0.0004457571776583791, -0.0004185085417702794, -0.00039125990588217974, -0.0003640112408902496, -0.0003367625758983195, -0.0003095139400102198, -0.00028226530412212014, -0.00025501663913019, -0.00022776798869017512, -0.0002005192800424993, -0.0001732706296024844, -0.0001460219791624695, -0.00011877332872245461, -9.152467828243971e-05, -6.427602784242481e-05, -3.702737740240991e-05, -9.778726962395012e-06, 1.7469923477619886e-05, 4.4718573917634785e-05, 7.196722435764968e-05, 9.921587479766458e-05, 0.00012646452523767948, 0.00015371317567769438, 0.00018096182611770928, 0.00020821047655772418, 0.00023545912699773908, 0.00026270776288583875, 0.0002899564278777689, 0.000317205092869699, 0.00034445372875779867, 0.00037170236464589834, 0.00039895102963782847, 0.0004261996946297586, 0.00045344833051785827, 0.00048069696640595794, 0.0005079456605017185, 0.0005351942963898182, 0.0005624429322779179, 0.0005896915681660175, 0.0006169402040541172, 0.0006441888981498778, 0.0006714375340379775]}, "gradients/graph_1layers.0.weight": {"_type": "histogram", "values": [3.0, 0.0, 2.0, 1.0, 2.0, 2.0, 1.0, 1.0, 2.0, 3.0, 2.0, 9.0, 2.0, 6.0, 8.0, 8.0, 11.0, 12.0, 14.0, 23.0, 16.0, 30.0, 32.0, 38.0, 42.0, 50.0, 58.0, 69.0, 122.0, 157.0, 154.0, 210.0, 307.0, 532.0, 1114.0, 3082.0, 839.0, 408.0, 238.0, 187.0, 138.0, 107.0, 77.0, 73.0, 48.0, 30.0, 31.0, 24.0, 20.0, 11.0, 11.0, 13.0, 11.0, 9.0, 13.0, 11.0, 7.0, 5.0, 1.0, 5.0, 3.0, 0.0, 0.0, 3.0], "bins": [-0.00108367670327425, -0.001053017214871943, -0.0010223576100543141, -0.000991698121652007, -0.0009610386332497001, -0.0009303790866397321, -0.0008997195982374251, -0.0008690600516274571, -0.0008384005632251501, -0.0008077410166151822, -0.0007770814700052142, -0.0007464219816029072, -0.0007157624349929392, -0.0006851029465906322, -0.0006544433999806643, -0.0006237839115783572, -0.0005931243649683893, -0.0005624648183584213, -0.0005318053299561143, -0.0005011457833461463, -0.0004704862949438393, -0.00043982674833387136, -0.0004091672308277339, -0.0003785077133215964, -0.0003478481958154589, -0.0003171886783093214, -0.0002865291608031839, -0.0002558696432970464, -0.0002252101112389937, -0.00019455059373285621, -0.0001638910616748035, -0.000133231544168666, -0.00010257208487018943, -7.191256736405194e-05, -4.1253042581956834e-05, -1.0593521437840536e-05, 2.006599970627576e-05, 5.072552085039206e-05, 8.138504199450836e-05, 0.00011204456677660346, 0.00014270408428274095, 0.00017336360178887844, 0.00020402311929501593, 0.00023468265135306865, 0.00026534218341112137, 0.00029600170091725886, 0.00032666121842339635, 0.00035732073592953384, 0.00038798025343567133, 0.0004186397709418088, 0.0004492992884479463, 0.0004799588059540838, 0.0005106183234602213, 0.0005412778700701892, 0.0005719373584724963, 0.0006025969050824642, 0.0006332563934847713, 0.0006639159400947392, 0.0006945754867047071, 0.0007252349751070142, 0.0007558945217169821, 0.0007865540101192892, 0.0008172135567292571, 0.0008478730451315641, 0.0008785325917415321]}, "gradients/lout.bias": {"_type": "histogram", "values": [1.0, 0.0, 0.0, 0.0, 0.0, 0.0, 0.0, 0.0, 0.0, 1.0, 0.0, 0.0, 0.0, 0.0, 0.0, 0.0, 0.0, 0.0, 0.0, 0.0, 0.0, 0.0, 0.0, 0.0, 0.0, 0.0, 0.0, 0.0, 0.0, 0.0, 0.0, 0.0, 0.0, 0.0, 0.0, 0.0, 0.0, 0.0, 0.0, 0.0, 0.0, 0.0, 0.0, 0.0, 0.0, 0.0, 0.0, 0.0, 0.0, 0.0, 0.0, 1.0, 0.0, 0.0, 0.0, 0.0, 0.0, 0.0, 0.0, 0.0, 0.0, 0.0, 0.0, 1.0], "bins": [-0.0001627550955163315, -0.0001594077912159264, -0.0001560604723636061, -0.000152713168063201, -0.0001493658492108807, -0.0001460185449104756, -0.0001426712260581553, -0.0001393239217577502, -0.00013597661745734513, -0.00013262929860502481, -0.00012928199430461973, -0.00012593467545229942, -0.00012258737115189433, -0.00011924005957553163, -0.00011589274799916893, -0.00011254543642280623, -0.00010919812484644353, -0.00010585082054603845, -0.00010250350896967575, -9.915619739331305e-05, -9.580888581695035e-05, -9.246157424058765e-05, -8.911426266422495e-05, -8.576695836381987e-05, -8.241964678745717e-05, -7.907233521109447e-05, -7.572502363473177e-05, -7.237771205836907e-05, -6.903040048200637e-05, -6.568309618160129e-05, -6.233578460523859e-05, -5.898847302887589e-05, -5.564116145251319e-05, -5.229384987615049e-05, -4.89465419377666e-05, -4.55992303614039e-05, -4.22519187850412e-05, -3.8904610846657306e-05, -3.555729927029461e-05, -3.220998769393191e-05, -2.886267793655861e-05, -2.5515368179185316e-05, -2.2168056602822617e-05, -1.882074684544932e-05, -1.5473437088076025e-05, -1.2126125511713326e-05, -8.77881575434003e-06, -5.431505087472033e-06, -2.0841944206040353e-06, 1.2631160188902868e-06, 4.610426458384609e-06, 7.957736670505255e-06, 1.1305047337373253e-05, 1.465235800424125e-05, 1.7999667761614546e-05, 2.1346979337977245e-05, 2.469428909535054e-05, 2.8041598852723837e-05, 3.1388910429086536e-05, 3.4736222005449235e-05, 3.808352994383313e-05, 4.143084152019583e-05, 4.4778153096558526e-05, 4.812546103494242e-05, 5.147277261130512e-05]}, "gradients/lout.weight": {"_type": "histogram", "values": [2.0, 1.0, 1.0, 0.0, 0.0, 0.0, 0.0, 0.0, 0.0, 2.0, 0.0, 2.0, 3.0, 1.0, 1.0, 0.0, 0.0, 2.0, 0.0, 1.0, 1.0, 2.0, 1.0, 0.0, 1.0, 0.0, 1.0, 0.0, 1.0, 1.0, 0.0, 4.0, 2.0, 4.0, 2.0, 5.0, 3.0, 5.0, 12.0, 828.0, 75.0, 28.0, 13.0, 3.0, 2.0, 2.0, 1.0, 1.0, 3.0, 0.0, 0.0, 2.0, 0.0, 1.0, 0.0, 1.0, 1.0, 0.0, 0.0, 0.0, 1.0, 0.0, 0.0, 1.0], "bins": [-0.001760702463798225, -0.0017164039891213179, -0.0016721055144444108, -0.001627806923352182, -0.0015835084486752748, -0.0015392099739983678, -0.0014949114993214607, -0.0014506130246445537, -0.0014063145499676466, -0.0013620159588754177, -0.0013177174841985106, -0.0012734190095216036, -0.0012291205348446965, -0.0011848220601677895, -0.0011405234690755606, -0.0010962249943986535, -0.0010519265197217464, -0.0010076280450448394, -0.0009633295121602714, -0.0009190310374833643, -0.0008747325045987964, -0.0008304340299218893, -0.0007861355552449822, -0.0007418370223604143, -0.0006975385476835072, -0.0006532400730066001, -0.0006089415401220322, -0.0005646430654451251, -0.000520344590768218, -0.00047604605788365006, -0.000431747583206743, -0.0003874490794260055, -0.00034315045922994614, -0.0002988519554492086, -0.0002545534516684711, -0.00021025497699156404, -0.00016595647321082652, -0.00012165797670604661, -7.73594802012667e-05, -3.30609836964868e-05, 1.1237512808293104e-05, 5.553600931307301e-05, 9.983450581785291e-05, 0.0001441329950466752, 0.00018843149882741272, 0.00023273000260815024, 0.0002770284772850573, 0.0003213269810657948, 0.00036562548484653234, 0.00040992398862726986, 0.0004542224924080074, 0.0004985209670849144, 0.0005428194999694824, 0.0005871179746463895, 0.0006314164493232965, 0.0006757149822078645, 0.0007200134568847716, 0.0007643119315616786, 0.0008086104644462466, 0.0008529089391231537, 0.0008972074138000607, 0.0009415059466846287, 0.0009858044795691967, 0.0010301029542461038, 0.0010744014289230108]}, "gradients/layers.3.bias": {"_type": "histogram", "values": [1.0, 0.0, 0.0, 0.0, 0.0, 0.0, 0.0, 0.0, 0.0, 0.0, 0.0, 1.0, 1.0, 0.0, 0.0, 0.0, 1.0, 0.0, 1.0, 0.0, 0.0, 3.0, 0.0, 3.0, 0.0, 0.0, 1.0, 1.0, 2.0, 3.0, 1.0, 7.0, 5.0, 19.0, 44.0, 119.0, 5.0, 9.0, 5.0, 1.0, 3.0, 5.0, 2.0, 1.0, 0.0, 1.0, 4.0, 2.0, 1.0, 2.0, 0.0, 0.0, 0.0, 0.0, 0.0, 0.0, 0.0, 1.0, 0.0, 0.0, 0.0, 0.0, 0.0, 1.0], "bins": [-4.203395656077191e-05, -4.0835388062987477e-05, -3.963682320318185e-05, -3.843825834337622e-05, -3.7239689845591784e-05, -3.604112134780735e-05, -3.484255648800172e-05, -3.364399162819609e-05, -3.2445423130411655e-05, -3.124685463262722e-05, -3.004828977282159e-05, -2.8849723094026558e-05, -2.7651156415231526e-05, -2.6452589736436494e-05, -2.525402305764146e-05, -2.405545637884643e-05, -2.2856889700051397e-05, -2.1658323021256365e-05, -2.0459756342461333e-05, -1.92611896636663e-05, -1.8062622984871268e-05, -1.6864056306076236e-05, -1.5665489627281204e-05, -1.4466922948486172e-05, -1.326835626969114e-05, -1.2069789590896107e-05, -1.0871222912101075e-05, -9.672656233306043e-06, -8.47408955451101e-06, -7.2755228757159784e-06, -6.076956196920946e-06, -4.878389518125914e-06, -3.679822839330882e-06, -2.4812561605358496e-06, -1.2826894817408174e-06, -8.412280294578522e-08, 1.114443875849247e-06, 2.313010554644279e-06, 3.5115772334393114e-06, 4.710143912234344e-06, 5.908710591029376e-06, 7.107277269824408e-06, 8.30584394861944e-06, 9.504410627414472e-06, 1.0702977306209505e-05, 1.1901543985004537e-05, 1.3100110663799569e-05, 1.4298677342594601e-05, 1.5497244021389633e-05, 1.6695810700184666e-05, 1.7894377378979698e-05, 1.909294405777473e-05, 2.0291510736569762e-05, 2.1490077415364794e-05, 2.2688644094159827e-05, 2.388721077295486e-05, 2.508577745174989e-05, 2.6284344130544923e-05, 2.7482910809339955e-05, 2.8681477488134988e-05, 2.988004416693002e-05, 3.1078612664714456e-05, 3.2277177524520084e-05, 3.347574238432571e-05, 3.467431088211015e-05]}, "gradients/layers.3.weight": {"_type": "histogram", "values": [1.0, 0.0, 0.0, 0.0, 0.0, 0.0, 0.0, 0.0, 0.0, 0.0, 0.0, 0.0, 0.0, 2.0, 1.0, 2.0, 1.0, 1.0, 0.0, 4.0, 2.0, 2.0, 9.0, 11.0, 12.0, 12.0, 31.0, 30.0, 52.0, 89.0, 159.0, 352.0, 1277.0, 61234.0, 1391.0, 415.0, 175.0, 88.0, 56.0, 40.0, 20.0, 16.0, 8.0, 11.0, 5.0, 5.0, 5.0, 5.0, 1.0, 1.0, 0.0, 2.0, 0.0, 2.0, 1.0, 1.0, 2.0, 0.0, 1.0, 0.0, 0.0, 0.0, 0.0, 1.0], "bins": [-0.00022775333491154015, -0.0002209700469393283, -0.00021418675896711648, -0.00020740348554681987, -0.00020062019757460803, -0.0001938369096023962, -0.00018705362163018435, -0.00018027033365797251, -0.0001734870602376759, -0.00016670377226546407, -0.00015992048429325223, -0.0001531371963210404, -0.00014635390834882855, -0.00013957062037661672, -0.0001327873469563201, -0.00012600405898410827, -0.00011922077101189643, -0.0001124374830396846, -0.00010565420234343037, -9.887091437121853e-05, -9.208763367496431e-05, -8.530434570275247e-05, -7.852105773054063e-05, -7.173777703428641e-05, -6.495448906207457e-05, -5.817120472784154e-05, -5.138792039360851e-05, -4.460463242139667e-05, -3.782134808716364e-05, -3.103806375293061e-05, -2.4254777599708177e-05, -1.7471491446485743e-05, -1.0688192560337484e-05, -3.9049073166097514e-06, 2.878377927117981e-06, 9.661663170845713e-06, 1.6444948414573446e-05, 2.3228232748806477e-05, 3.001151890202891e-05, 3.6794805055251345e-05, 4.3578089389484376e-05, 5.0361373723717406e-05, 5.714465805795044e-05, 6.392794603016227e-05, 7.071123400237411e-05, 7.749451469862834e-05, 8.427780267084017e-05, 9.10610833670944e-05, 9.784437133930624e-05, 0.00010462765931151807, 0.0001114109400077723, 0.00011819422797998413, 0.00012497750867623836, 0.0001317607966484502, 0.00013854408462066203, 0.00014532737259287387, 0.00015211064601317048, 0.00015889393398538232, 0.00016567722195759416, 0.000172460509929806, 0.00017924379790201783, 0.00018602708587422967, 0.00019281035929452628, 0.00019959364726673812, 0.00020637693523894995]}, "gradients/layers.2.bias": {"_type": "histogram", "values": [1.0, 1.0, 0.0, 0.0, 0.0, 1.0, 0.0, 0.0, 0.0, 0.0, 0.0, 0.0, 1.0, 1.0, 1.0, 2.0, 3.0, 5.0, 2.0, 4.0, 3.0, 3.0, 1.0, 7.0, 2.0, 6.0, 5.0, 5.0, 5.0, 9.0, 9.0, 12.0, 9.0, 23.0, 17.0, 24.0, 10.0, 15.0, 14.0, 8.0, 6.0, 5.0, 5.0, 4.0, 2.0, 4.0, 2.0, 4.0, 3.0, 1.0, 4.0, 0.0, 1.0, 2.0, 0.0, 0.0, 0.0, 1.0, 0.0, 0.0, 0.0, 2.0, 0.0, 1.0], "bins": [-4.474842717172578e-05, -4.347564390627667e-05, -4.2202864278806373e-05, -4.093008101335727e-05, -3.965729774790816e-05, -3.8384514482459053e-05, -3.7111734854988754e-05, -3.583895158953965e-05, -3.456616832409054e-05, -3.329338869662024e-05, -3.2020605431171134e-05, -3.074782216572203e-05, -2.9475040719262324e-05, -2.8202257453813218e-05, -2.6929476007353514e-05, -2.5656692741904408e-05, -2.4383911295444705e-05, -2.3111129848985e-05, -2.1838346583535895e-05, -2.056556513707619e-05, -1.9292781871627085e-05, -1.8020000425167382e-05, -1.6747217159718275e-05, -1.5474435713258572e-05, -1.4201653357304167e-05, -1.2928871001349762e-05, -1.1656088645395357e-05, -1.0383306289440952e-05, -9.110524842981249e-06, -7.837742487026844e-06, -6.564960131072439e-06, -5.292177775118034e-06, -4.019395419163629e-06, -2.7466130632092245e-06, -1.473830934628495e-06, -2.0104869236092782e-07, 1.0717335499066394e-06, 2.3445159058610443e-06, 3.6172980344417738e-06, 4.890080163022503e-06, 6.162862518976908e-06, 7.435644874931313e-06, 8.708427230885718e-06, 9.981209586840123e-06, 1.1253991033299826e-05, 1.2526773389254231e-05, 1.3799555745208636e-05, 1.507233810116304e-05, 1.6345120457117446e-05, 1.761790190357715e-05, 1.8890685169026256e-05, 2.016346661548596e-05, 2.1436249880935065e-05, 2.270903132739477e-05, 2.3981814592843875e-05, 2.525459603930358e-05, 2.652737748576328e-05, 2.7800160751212388e-05, 2.907294219767209e-05, 3.0345725463121198e-05, 3.16185069095809e-05, 3.289129017503001e-05, 3.4164073440479115e-05, 3.5436853067949414e-05, 3.670963633339852e-05]}, "gradients/layers.2.weight": {"_type": "histogram", "values": [2.0, 1.0, 2.0, 2.0, 2.0, 1.0, 4.0, 1.0, 1.0, 3.0, 5.0, 5.0, 12.0, 11.0, 9.0, 15.0, 17.0, 26.0, 42.0, 62.0, 63.0, 98.0, 179.0, 269.0, 469.0, 772.0, 1439.0, 3896.0, 54147.0, 8529.0, 1838.0, 790.0, 446.0, 278.0, 160.0, 111.0, 92.0, 45.0, 27.0, 25.0, 23.0, 14.0, 15.0, 8.0, 5.0, 5.0, 4.0, 6.0, 3.0, 1.0, 0.0, 2.0, 0.0, 0.0, 0.0, 0.0, 0.0, 1.0, 0.0, 0.0, 0.0, 0.0, 0.0, 1.0], "bins": [-0.00011458892549853772, -0.00011060389806516469, -0.00010661887063179165, -0.00010263384319841862, -9.864881576504558e-05, -9.466378833167255e-05, -9.067876089829952e-05, -8.669373346492648e-05, -8.270870603155345e-05, -7.872367859818041e-05, -7.473865116480738e-05, -7.075362373143435e-05, -6.676859629806131e-05, -6.278356886468828e-05, -5.879854143131524e-05, -5.481351399794221e-05, -5.0828486564569175e-05, -4.684345913119614e-05, -4.285843169782311e-05, -3.887340426445007e-05, -3.488837683107704e-05, -3.0903349397704005e-05, -2.691832196433097e-05, -2.2933294530957937e-05, -1.8948267097584903e-05, -1.496323966421187e-05, -1.0978212230838835e-05, -6.993184797465801e-06, -3.0081573640927672e-06, 9.768700692802668e-07, 4.961897502653301e-06, 8.946924936026335e-06, 1.293193781748414e-05, 1.6916965250857174e-05, 2.090199268423021e-05, 2.4887020117603242e-05, 2.8872047550976276e-05, 3.285707498434931e-05, 3.6842102417722344e-05, 4.082712985109538e-05, 4.481215728446841e-05, 4.8797184717841446e-05, 5.278221215121448e-05, 5.6767239584587514e-05, 6.075226701796055e-05, 6.473729445133358e-05, 6.872232188470662e-05, 7.270734931807965e-05, 7.669237675145268e-05, 8.067740418482572e-05, 8.466243161819875e-05, 8.864745905157179e-05, 9.263248648494482e-05, 9.661751391831785e-05, 0.00010060254135169089, 0.00010458756878506392, 0.00010857259621843696, 0.00011255762365180999, 0.00011654265108518302, 0.00012052767851855606, 0.0001245127059519291, 0.00012849773338530213, 0.00013248276081867516, 0.0001364677882520482, 0.00014045281568542123]}, "gradients/layers.1.bias": {"_type": "histogram", "values": [1.0, 0.0, 0.0, 0.0, 0.0, 0.0, 0.0, 1.0, 1.0, 0.0, 0.0, 1.0, 0.0, 0.0, 0.0, 0.0, 0.0, 0.0, 1.0, 0.0, 4.0, 2.0, 0.0, 1.0, 1.0, 2.0, 1.0, 3.0, 6.0, 10.0, 8.0, 7.0, 18.0, 30.0, 44.0, 30.0, 23.0, 15.0, 13.0, 5.0, 4.0, 6.0, 2.0, 1.0, 3.0, 2.0, 1.0, 1.0, 0.0, 1.0, 1.0, 0.0, 1.0, 1.0, 1.0, 1.0, 0.0, 0.0, 0.0, 0.0, 1.0, 0.0, 0.0, 1.0], "bins": [-0.00019333619275130332, -0.00018777837976813316, -0.00018222058133687824, -0.0001766627683537081, -0.00017110496992245317, -0.000165547156939283, -0.0001599893585080281, -0.00015443154552485794, -0.00014887374709360301, -0.00014331593411043286, -0.0001377581211272627, -0.0001322003226960078, -0.00012664250971283764, -0.0001210847040056251, -0.00011552689829841256, -0.00010996909259120002, -0.00010441128688398749, -9.885348117677495e-05, -9.329567546956241e-05, -8.773786976234987e-05, -8.218006405513734e-05, -7.662225107196718e-05, -7.106444536475465e-05, -6.550663965754211e-05, -5.994883395032957e-05, -5.4391028243117034e-05, -4.88332225359045e-05, -4.327541319071315e-05, -3.7717607483500615e-05, -3.215980177628808e-05, -2.6601994250086136e-05, -2.1044186723884195e-05, -1.548636646475643e-05, -9.92855984804919e-06, -4.370753231341951e-06, 1.1870533853652887e-06, 6.744860002072528e-06, 1.2302666618779767e-05, 1.7860473235487007e-05, 2.3418280761688948e-05, 2.8976086468901485e-05, 3.453389217611402e-05, 4.009169788332656e-05, 4.5649507228517905e-05, 5.120731293573044e-05, 5.676511864294298e-05, 6.232292798813432e-05, 6.788073369534686e-05, 7.34385394025594e-05, 7.899634510977194e-05, 8.455415081698447e-05, 9.011195652419701e-05, 9.566976223140955e-05, 0.0001012275752145797, 0.00010678538092179224, 0.00011234318662900478, 0.00011790099233621731, 0.00012345879804342985, 0.0001290166110266, 0.00013457440945785493, 0.00014013222244102508, 0.00014569002087228, 0.00015124783385545015, 0.00015680563228670508, 0.00016236344526987523]}, "gradients/layers.1.weight": {"_type": "histogram", "values": [1.0, 0.0, 0.0, 0.0, 1.0, 0.0, 0.0, 3.0, 1.0, 1.0, 2.0, 3.0, 2.0, 2.0, 5.0, 7.0, 5.0, 8.0, 10.0, 25.0, 22.0, 36.0, 47.0, 70.0, 86.0, 103.0, 186.0, 262.0, 517.0, 1152.0, 5868.0, 53114.0, 2243.0, 763.0, 374.0, 163.0, 109.0, 69.0, 49.0, 42.0, 29.0, 30.0, 23.0, 15.0, 17.0, 12.0, 17.0, 7.0, 2.0, 6.0, 7.0, 4.0, 2.0, 5.0, 3.0, 1.0, 0.0, 0.0, 1.0, 2.0, 0.0, 0.0, 1.0, 1.0], "bins": [-0.0002539421839173883, -0.00024582218611612916, -0.00023770218831487, -0.00022958220506552607, -0.0002214622072642669, -0.00021334220946300775, -0.00020522222621366382, -0.00019710222841240466, -0.0001889822306111455, -0.00018086223280988634, -0.00017274223500862718, -0.00016462225175928324, -0.00015650225395802408, -0.00014838225615676492, -0.000140262272907421, -0.00013214227510616183, -0.00012402227730490267, -0.00011590227950364351, -0.00010778228897834197, -9.966229845304042e-05, -9.154230065178126e-05, -8.34223028505221e-05, -7.530231232522056e-05, -6.718232179991901e-05, -5.906232399865985e-05, -5.0942329835379496e-05, -4.282233567209914e-05, -3.470234150881879e-05, -2.6582347345538437e-05, -1.8462353182258084e-05, -1.0342359018977731e-05, -2.2223648556973785e-06, 5.897600203752518e-06, 1.401759436703287e-05, 2.2137588530313224e-05, 3.0257582693593577e-05, 3.837757685687393e-05, 4.649757102015428e-05, 5.4617565183434635e-05, 6.273755570873618e-05, 7.085755350999534e-05, 7.89775513112545e-05, 8.709754183655605e-05, 9.521753236185759e-05, 0.00010333753016311675, 0.00011145752796437591, 0.00011957751848967746, 0.000127697509014979, 0.00013581750681623816, 0.00014393750461749732, 0.00015205750241875648, 0.00016017748566810042, 0.00016829748346935958, 0.00017641748127061874, 0.00018453746451996267, 0.00019265746232122183, 0.000200777460122481, 0.00020889745792374015, 0.0002170174557249993, 0.00022513743897434324, 0.0002332574367756024, 0.00024137743457686156, 0.0002494974178262055, 0.00025761741562746465, 0.0002657374134287238]}, "gradients/layers.0.bias": {"_type": "histogram", "values": [1.0, 0.0, 1.0, 1.0, 0.0, 0.0, 0.0, 2.0, 0.0, 1.0, 0.0, 0.0, 1.0, 0.0, 0.0, 0.0, 2.0, 3.0, 1.0, 1.0, 2.0, 3.0, 3.0, 0.0, 2.0, 2.0, 0.0, 3.0, 5.0, 3.0, 3.0, 2.0, 3.0, 6.0, 10.0, 8.0, 16.0, 26.0, 54.0, 19.0, 19.0, 8.0, 8.0, 6.0, 2.0, 3.0, 3.0, 3.0, 2.0, 2.0, 3.0, 2.0, 0.0, 4.0, 2.0, 1.0, 0.0, 0.0, 0.0, 2.0, 0.0, 0.0, 0.0, 2.0], "bins": [-0.0006101205945014954, -0.000594269426073879, -0.0005784182576462626, -0.0005625670892186463, -0.0005467159207910299, -0.0005308647523634136, -0.0005150135839357972, -0.0004991624155081809, -0.0004833112470805645, -0.0004674600495491177, -0.0004516088811215013, -0.00043575771269388497, -0.0004199065442662686, -0.00040405537583865225, -0.0003882042074110359, -0.00037235303898341954, -0.0003565018705558032, -0.0003406507021281868, -0.00032479953370057046, -0.0003089483652729541, -0.00029309719684533775, -0.0002772460284177214, -0.00026139485999010503, -0.0002455436915624887, -0.0002296925085829571, -0.00021384134015534073, -0.00019799017172772437, -0.00018213900330010802, -0.00016628782032057643, -0.00015043665189296007, -0.00013458548346534371, -0.00011873431503772736, -0.000102883146610111, -8.703197818249464e-05, -7.118080975487828e-05, -5.532963405130431e-05, -3.947846562368795e-05, -2.362729537708219e-05, -7.77612513047643e-06, 8.075045116129331e-06, 2.3926215362735093e-05, 3.977738379035145e-05, 5.5628555855946615e-05, 7.147972792154178e-05, 8.733089634915814e-05, 0.0001031820647767745, 0.00011903324048034847, 0.00013488440890796483, 0.00015073557733558118, 0.00016658674576319754, 0.0001824379141908139, 0.00019828908261843026, 0.00021414025104604661, 0.0002299914340255782, 0.00024584258790127933, 0.0002616937563288957, 0.0002775449538603425, 0.00029339612228795886, 0.0003092472907155752, 0.0003250984591431916, 0.00034094962757080793, 0.0003568007959984243, 0.00037265196442604065, 0.000388503132853657, 0.00040435430128127337]}, "gradients/layers.0.weight": {"_type": "histogram", "values": [3.0, 2.0, 2.0, 4.0, 3.0, 1.0, 5.0, 8.0, 5.0, 5.0, 10.0, 8.0, 8.0, 5.0, 16.0, 16.0, 23.0, 22.0, 36.0, 41.0, 51.0, 38.0, 56.0, 64.0, 81.0, 107.0, 113.0, 130.0, 141.0, 252.0, 348.0, 514.0, 979.0, 2721.0, 908.0, 486.0, 295.0, 171.0, 148.0, 117.0, 85.0, 80.0, 64.0, 59.0, 37.0, 35.0, 31.0, 21.0, 19.0, 15.0, 13.0, 12.0, 4.0, 10.0, 2.0, 5.0, 5.0, 2.0, 0.0, 2.0, 1.0, 2.0, 0.0, 1.0], "bins": [-0.0005920414114370942, -0.0005743721267208457, -0.0005567028420045972, -0.0005390335572883487, -0.0005213643307797611, -0.0005036950460635126, -0.00048602576134726405, -0.00046835647663101554, -0.000450687191914767, -0.00043301793630234897, -0.00041534865158610046, -0.00039767936686985195, -0.0003800101112574339, -0.0003623408265411854, -0.00034467154182493687, -0.0003270022862125188, -0.0003093330014962703, -0.0002916637167800218, -0.00027399446116760373, -0.0002563251764513552, -0.0002386558917351067, -0.00022098662157077342, -0.00020331735140644014, -0.00018564806669019163, -0.00016797879652585834, -0.00015030952636152506, -0.00013264024164527655, -0.00011497097148094326, -9.730169404065236e-05, -7.963241660036147e-05, -6.196314643602818e-05, -4.4293868995737284e-05, -2.6624591555446386e-05, -8.955315934144892e-06, 8.713959687156603e-06, 2.6383235308458097e-05, 4.405251092975959e-05, 6.172178837005049e-05, 7.939105853438377e-05, 9.706033597467467e-05, 0.00011472961341496557, 0.00013239888357929885, 0.00015006816829554737, 0.00016773743845988065, 0.00018540670862421393, 0.00020307599334046245, 0.00022074526350479573, 0.00023841454822104424, 0.0002560838183853775, 0.00027375310310162604, 0.0002914223587140441, 0.0003090916434302926, 0.0003267609281465411, 0.0003444301837589592, 0.0003620994684752077, 0.0003797687531914562, 0.00039743800880387425, 0.00041510729352012277, 0.0004327765782363713, 0.0004504458629526198, 0.00046811511856503785, 0.00048578440328128636, 0.0005034536588937044, 0.0005211229436099529, 0.0005387922283262014]}, "_wandb": {"runtime": 8148}}